#############################################################################
## Copyright (c) 1996, Carnegie Mellon University, Cambridge University,
## Ronald Rosenfeld and Philip Clarkson
#############################################################################
=============================================================================
===============  This file was produced by the CMU-Cambridge  ===============
===============     Statistical Language Modeling Toolkit     ===============
=============================================================================
This is a 2-gram language model, based on a vocabulary of 993 words,
  which begins "<s>", "</s>", "A"...
This is an OPEN-vocabulary model (type 1)
  (OOVs were mapped to UNK, which is treated as any other vocabulary word)
Absolute discounting was applied.
1-gram discounting constant : 0.0860927
2-gram discounting constant : 0.103789
This file is in the ARPA-standard format introduced by Doug Paul.

p(wd3|wd1,wd2)= if(trigram exists)           p_3(wd1,wd2,wd3)
                else if(bigram w1,w2 exists) bo_wt_2(w1,w2)*p(wd3|wd2)
                else                         p(wd3|w2)

p(wd2|wd1)= if(bigram exists) p_2(wd1,wd2)
            else              bo_wt_1(wd1)*p_1(wd2)

All probs and back-off weights (bo_wt) are given in log10 form.

Data formats:

Beginning of data mark: \data\
ngram 1=nr            # number of 1-grams
ngram 2=nr            # number of 2-grams

\1-grams:
p_1     wd_1 bo_wt_1
\2-grams:
p_2     wd_1 wd_2 

end of data mark: \end\

\data\
ngram 1=994
ngram 2=5626

\1-grams:
-4.4396 <UNK>	0.0000
-98.9986 <s>	-2.4787
-98.9986 </s>	-4.4431
-2.2247 A	-1.7798
-3.8079 A42128	-1.5859
-2.8575 AAW	-1.8226
-3.6286 ABERDEEN	-1.2816
-3.0801 ABOARD	-1.2754
-3.2894 ABOVE	-1.4948
-3.2570 ADD	-1.3258
-3.7091 ADDED	-1.6828
-3.6286 ADDING	-1.2842
-3.9360 AFFECT	-1.4598
-3.0041 AFTER	-1.2929
-3.2894 AGAIN	-1.6028
-3.5608 AJAX	-1.2263
-3.5021 AJAX'S	-1.1830
-3.0404 ALASKA	-1.5525
-2.7886 ALERT	-1.8895
-2.7292 ALERTS	-1.8548
-3.3244 ALEXANDRIA	-1.4447
-2.4979 ALL	-1.4471
-2.9705 AN	-1.4090
-3.4504 ANCHORAGE	-1.6220
-1.8371 AND	-1.5165
-2.0997 ANY	-1.6150
-4.1186 ANYBODY	-1.2707
-3.5608 APALACHICOLA	-1.5277
-3.5021 APALACHICOLA'S	-1.2818
-2.9705 APRIL	-1.8035
-3.0598 ARABIAN	-2.3210
-3.1237 ARCTIC	-2.2612
-1.6674 ARE	-1.9726
-2.4278 AREA	-1.6306
-3.1987 AREAS	-1.5757
-3.3625 AREN'T	-1.5438
-3.5608 ARKANSAS	-1.5275
-3.8079 ARKANSAS'S	-1.2832
-3.2570 AROUND	-1.3270
-2.7386 ARRIVAL	-1.8434
-2.9870 ARRIVE	-2.0812
-3.7091 ARRIVED	-1.6805
-3.8079 ARRIVING	-1.5717
-4.1186 ARROW	-1.2843
-2.7679 AS	-1.4982
-3.9360 ASTORIA	-1.4606
-2.9246 ASUW	-1.6039
-2.9103 ASW	-1.7709
-2.2672 AT	-1.4896
-2.6769 ATLANTIC	-2.0966
-2.8575 AUGUST	-1.9092
-3.6286 AVAILABLE	-1.4470
-2.5437 AVERAGE	-1.7708
-3.8079 BAD	-1.5762
-3.4043 BADGER	-1.2771
-3.5021 BADGER'S	-1.2803
-3.4504 BAINBRIDGE	-1.4594
-3.7091 BAINBRIDGE'S	-1.2036
-4.1186 BANGKOK	-1.2849
-3.5021 BARGE	-1.5858
-3.1987 BASS	-2.1870
-2.9705 BAY	-1.4321
-2.4871 BE	-1.8293
-3.5608 BEAM	-1.3301
-3.3244 BEAMS	-1.5563
-3.0598 BEEN	-1.5296
-3.0041 BEFORE	-1.3096
-4.4396 BELOW	-0.9614
-2.7781 BERING	-2.2999
-4.4396 BETTER	0.0000
-3.5608 BETWEEN	-1.2038
-3.5021 BIDDLE	-1.2780
-3.5608 BIDDLE'S	-1.1256
-2.9870 BISMARK	-2.3936
-3.6286 BOMBAY	-1.2766
-3.6286 BOTH	-1.2837
-3.6286 BOX	-1.7620
-3.0598 BRIGHT	-1.7231
-3.6286 BRITISH	-1.7615
-3.3625 BROOKE	-1.4219
-3.4504 BROOKE'S	-1.2328
-3.4043 BRUNSWICK	-1.3606
-3.7091 BRUNSWICK'S	-1.2042
-3.5021 BUD-TEST	-1.4028
-3.5608 BUMP	-1.5272
-2.4819 BY	-1.4540
-3.6286 C-CODE	-1.4394
-3.7091 C-CODES	-1.6753
-3.3244 C-RATING	-1.4466
-3.5021 C-RATINGS	-1.8794
-2.9246 C1	-1.5244
-2.8217 C2	-1.6958
-2.7994 C3	-1.5547
-2.8104 C4	-1.5058
-2.9103 C5	-1.5442
-3.8079 CALEDONIA	-1.2807
-3.0801 CALIFORNIA	-1.5982
-3.4504 CAMDEN	-1.1579
-3.8079 CAMDEN'S	-1.2835
-3.6286 CAMPBELL	-1.2798
-3.5021 CAMPBELL'S	-1.2804
-2.9705 CAN	-1.3117
-3.5608 CANADA	-1.3482
-2.9103 CAPABILITIES	-1.6660
-3.4504 CAPABILITY	-1.6229
-2.4564 CAPABLE	-1.7720
-4.1186 CAPACITIES	-1.2849
-2.5685 CAPACITY	-1.8150
-3.1723 CARRIER	-1.4908
-3.9360 CARRIER'S	-1.1587
-2.3838 CARRIERS	-1.8372
-4.1186 CARRY	-1.2846
-3.5021 CASREP	-1.4080
-3.6286 CASREPED	-1.2787
-3.1237 CASREPS	-1.5539
-2.3838 CASUALTY	-2.6978
-3.7091 CAT-2	-1.3786
-3.6286 CAT-3	-1.2821
-4.1186 CAT-4	-1.2837
-4.1186 CATEGORIES	-1.2773
-3.0598 CATEGORY	-1.8457
-3.6286 CENTER	-1.4601
-3.5021 CENTERED	-1.8867
-3.8079 CENTERING	-1.5851
-3.7091 CEP	-1.1984
-3.1237 CHANGE	-1.2706
-3.1987 CHANGED	-1.4774
-3.8079 CHANGING	-1.5858
-3.0041 CHANNEL	-1.6783
-2.0296 CHART	-2.1198
-3.6286 CHARTS	-1.7620
-3.4504 CHATTAHOOCHEE	-1.1544
-4.1186 CHATTAHOOCHEE'S	-1.2844
-3.6286 CHESHIRE	-1.2825
-2.8575 CHINA	-2.2181
-3.3244 CHOP	-1.7539
-3.2894 CHOPPED	-1.7886
-3.5608 CHOPPING	-1.8226
-3.8079 CIRCLE	-1.2784
-3.5608 CITRUS	-1.3500
-3.6286 CITRUS'S	-1.2834
-3.6286 CITY	-1.2822
-3.1473 CLEAR	-1.3672
-3.5608 CLEARED	-1.8289
-3.9360 CLEARING	-1.1593
-3.2269 CLEVELAND	-1.4482
-3.8079 CLEVELAND'S	-1.2841
-3.6286 CLOSE	-1.7523
-3.2570 CLOSER	-1.8181
-3.2269 CLOSEST	-2.1536
-3.7091 CODAG	-1.3816
-3.8079 CODE	-1.2709
-3.4043 CODES	-1.9763
-3.2894 COLOR	-1.7739
-4.1186 COMPARED	-1.2785
-3.6286 CONFIDENCE	-1.2844
-3.5608 CONFIDENCE'S	-1.2251
-3.4504 CONIFER	-1.6326
-3.5021 CONIFER'S	-1.1827
-3.4043 CONQUEST	-1.1929
-3.8079 CONQUEST'S	-1.5828
-3.6286 CONSTANT	-1.4596
-3.5608 CONSTANT'S	-1.2181
-3.4043 CONSTELLATION	-1.2794
-3.2570 CONSTELLATION'S	-1.3436
-3.6286 CONVENTIONAL	-1.7618
-3.6286 COOK	-1.7617
-3.4504 COPELAND	-1.2070
-3.5608 COPELAND'S	-1.2238
-2.9870 CORAL	-2.3936
-3.5608 COULD	-1.2040
-4.1186 COULDN'T	-0.9834
-3.1987 COUNT	-1.8630
-3.8079 COUNTED	-1.5859
-4.1186 COUNTING	-1.2847
-3.2570 CROVL	-1.6300
-4.1186 CROVLS	-1.2785
-3.3625 CRUISER	-1.7100
-4.1186 CRUISER'S	-1.2843
-2.4278 CRUISERS	-1.7911
-4.4396 CRUISERS'S	0.0000
-3.4043 CRUISING	-1.6796
-2.7886 CURRENT	-1.8100
-3.9360 CURRENTLY	-1.4468
-3.7091 DALE	-1.1883
-3.6286 DALE'S	-1.2805
-3.6286 DARWIN	-1.4608
-2.3797 DATA	-1.8737
-2.9246 DATE	-1.9633
-3.2269 DATED	-1.3767
-3.1473 DATES	-1.7325
-3.6286 DAVIDSON	-1.1573
-3.4043 DAVIDSON'S	-1.3756
-3.7091 DAY	-1.3720
-3.2894 DAYS	-1.7962
-3.8079 DDD992	-1.5717
-2.9870 DECEMBER	-1.4926
-3.5021 DECREASE	-1.5628
-3.5021 DECREASED	-1.8855
-3.8079 DECREASING	-1.2617
-3.6286 DEFAULT	-1.7619
-3.1237 DEFAULTS	-2.2626
-3.4504 DEFINE	-1.3086
-4.1186 DEFINED	-1.2785
-3.9360 DEFINING	-1.4599
-3.4043 DEFINITION	-1.9688
-3.5021 DEFINITIONS	-1.5706
-3.8079 DEGRADATION	-1.5859
-3.7091 DEGRADATIONS	-1.6765
-3.9360 DEGRADE	-1.1519
-3.2894 DEGRADED	-1.4684
-3.9360 DEGRADING	-1.4610
-3.1987 DEGREES	-1.2824
-3.3625 DELETE	-1.3211
-3.8079 DELETED	-1.5859
-3.5608 DELETING	-1.3290
-3.5021 DENVER	-1.4000
-3.5021 DENVER'S	-1.4057
-2.5318 DEPLOYED	-1.7452
-3.2269 DEPLOYMENT	-1.8581
-3.5021 DEPLOYMENTS	-1.5705
-3.4504 DEPTH	-1.6357
-3.6286 DEPTHS	-1.4596
-2.7481 DESTINATION	-1.6238
-3.2269 DESTINATIONS	-1.6688
-2.8217 DID	-1.3042
-3.7091 DIDN'T	-1.1829
-3.7091 DIEGO-GARCIA	-1.6828
-3.2570 DIESEL	-1.3495
-3.0598 DIM	-1.7231
-2.8965 DISPLACEMENT	-1.6057
-3.2894 DISPLACEMENTS	-1.6125
-2.3074 DISPLAY	-1.5746
-3.4043 DISPLAYED	-1.6687
-4.1186 DISPLAYING	-1.2624
-3.1237 DISTANCE	-2.2609
-3.3244 DIXON	-1.5827
-3.5608 DIXON'S	-1.3448
-3.4504 DMDS	-1.6364
-2.9103 DO	-1.7497
-2.7481 DOES	-1.3104
-3.8079 DOESN'T	-1.0859
-3.4043 DON'T	-1.5018
-3.5608 DOWNES	-1.2093
-3.5021 DOWNES'S	-1.2802
-3.8079 DOWNGRADE	-1.2709
-3.7091 DOWNGRADED	-1.3753
-3.4043 DRAFT	-1.5059
-3.5021 DRAFTS	-1.5631
-2.5033 DRAW	-1.6101
-3.3244 DUBUQUE	-1.7556
-3.8079 DUBUQUE'S	-1.2842
-3.3244 DUE	-2.0489
-3.1013 DURING	-1.5586
-3.2570 EACH	-1.3500
-3.4504 EARLIER	-1.9336
-3.1723 EARLIEST	-1.4332
-4.1186 EARLY	-1.2844
-2.9103 EAST	-1.4497
-4.1186 EASTERN	-1.2848
-3.0404 EASTPAC	-1.5583
-3.7091 EASTPAC'S	-1.1973
-3.7091 ECG041	-1.6828
-4.1186 ECHO	-1.2843
-3.1473 ECONOMIC	-1.9349
-3.2570 EDIT	-1.4068
-3.5608 EDITED	-1.5265
-3.8079 EDITING	-1.2613
-2.7200 EIGHT	-1.3937
-3.1723 EIGHTEEN	-1.3023
-3.7091 EIGHTEENTH	-1.1902
-3.6286 EIGHTH	-1.2693
-2.8575 EIGHTY	-1.7429
-3.3244 EISENHOWER	-1.2729
-3.5021 EISENHOWER'S	-1.2821
-3.1987 ELEVEN	-1.4854
-4.4396 ELEVENTH	-0.9833
-3.7091 ELIZABETH	-1.0766
-3.2269 EMPLOYED	-1.6682
-3.6286 END	-1.2588
-4.1186 ENDING	-1.2825
-3.7091 ENGLAND	-1.1925
-3.5021 ENGLAND'S	-1.1835
-4.1186 ENGLISH	-1.2849
-4.1186 ENOUGH	-1.2825
-3.4043 ENROUTE	-1.9775
-3.5608 ENTERPRISE	-1.3475
-3.6286 ENTERPRISE'S	-1.1564
-2.5559 EQUIPMENT	-1.8651
-3.9360 EQUIPPED	-1.1564
-3.5608 ESTEEM	-1.2198
-3.5608 ESTEEM'S	-1.2248
-2.9103 ESTIMATED	-2.1723
-3.2570 ETA	-2.1276
-4.1186 ETR	-1.2786
-3.3625 EVER	-2.0249
-3.7091 EVERETT	-1.2040
-3.8079 EXPECTED	-1.5796
-3.5608 FANNING	-1.3375
-3.8079 FANNING'S	-1.2817
-3.8079 FAR	-1.5762
-3.9360 FARTHER	-1.4592
-4.1186 FARTHEST	-1.2831
-3.1237 FAST	-1.7749
-4.1186 FASTER	-1.2752
-3.6286 FASTEST	-1.2807
-2.9246 FEBRUARY	-1.7533
-3.1723 FEET	-1.9126
-3.8079 FFF088	-1.5859
-3.1013 FIFTEEN	-1.2791
-3.8079 FIFTEENTH	-1.2699
-3.5608 FIFTH	-1.3362
-3.4043 FIFTY	-1.2753
-4.1186 FIGURE	-1.2849
-4.4396 FIGURES	-0.9763
-3.8079 FIJI	-1.2813
-2.3253 FIND	-1.5198
-3.6286 FIREBUSH	-1.1485
-3.7091 FIREBUSH'S	-1.2013
-3.7091 FIRST	-1.6678
-2.6608 FIVE	-1.4553
-3.1237 FIXED	-1.9601
-3.2894 FLASHER	-1.3124
-3.8079 FLASHER'S	-1.1058
-2.4664 FLEET	-1.6780
-3.5021 FLEETS	-1.8869
-3.4504 FLINT	-1.3279
-3.4504 FLINT'S	-1.2335
-4.1186 FOOTER	-1.2845
-1.7631 FOR	-1.5168
-3.1013 FORMOSA	-1.8067
-3.3244 FORTY	-1.2748
-2.5202 FOUR	-1.4313
-3.2894 FOURTEEN	-1.3111
-3.8079 FOURTEENTH	-1.2699
-3.7091 FOURTH	-1.3668
-3.5608 FOX	-1.3341
-3.5608 FOX'S	-1.2203
-3.3244 FREDERICK	-1.2717
-3.5608 FREDERICK'S	-1.2226
-3.6286 FRENCH	-1.7619
-3.2570 FRESNO	-1.5107
-3.5021 FRESNO'S	-1.2816
-3.4504 FRIDAY	-1.6276
-3.6286 FRIDAY'S	-1.2816
-3.1723 FRIGATE	-1.8991
-4.4396 FRIGATE'S	-0.9831
-2.3715 FRIGATES	-1.8468
-4.1186 FRIGATES'S	-1.2839
-2.3965 FROM	-1.3611
-2.2546 FUEL	-1.9284
-3.1987 FULL	-1.5827
-4.1186 GALLONS	-1.2849
-3.5021 GALVESTON	-1.4083
-3.3625 GAS	-1.4222
-2.1062 GET	-1.6787
-2.2394 GIVE	-1.5957
-3.4504 GLACIER	-1.4541
-3.8079 GLACIER'S	-1.2837
-4.1186 GNOMONIC	-1.2845
-3.1237 GO	-1.9535
-3.2269 GOING	-1.8526
-3.5021 GONE	-1.8806
-3.8079 GREAT	-1.5858
-2.8701 GREATER	-2.5109
-3.5608 GREATEST	-1.5253
-3.4043 GREEN	-1.3694
-4.1186 GRID	-1.2846
-3.4504 GRIDLEY	-1.6370
-3.5608 GRIDLEY'S	-1.2245
-3.5608 GRILL	-1.8289
-3.1237 GROSS	-1.9608
-3.8079 GROUP	-1.5855
-3.8079 GROUPS	-1.2785
-3.4043 GUARDFISH	-1.3798
-3.5608 GUARDFISH'S	-1.2243
-3.5021 GUITARRO	-1.5717
-3.4504 GUITARRO'S	-1.2361
-2.4324 GULF	-2.9373
-3.3625 HAD	-1.4003
-3.5608 HALF	-1.2076
-3.8079 HARBOR	-1.2809
-3.1237 HARPOON	-1.5568
-2.6087 HAS	-1.4493
-3.5021 HASN'T	-1.2619
-2.2048 HAVE	-1.5651
-3.5608 HAVEN'T	-1.8281
-3.7091 HAWKBILL	-1.3676
-3.5608 HAWKBILL'S	-1.2218
-4.1186 HE	-1.2818
-4.1186 HE'S	-1.2846
-3.5608 HECTOR	-1.5216
-3.4504 HECTOR'S	-1.2353
-3.4504 HEPBURN	-1.2337
-3.5021 HEPBURN'S	-1.2795
-2.7781 HER	-1.5179
-4.1186 HERS	-1.2849
-3.5021 HFDF	-1.8864
-3.2570 HIGH	-1.8286
-3.3625 HIGHER	-1.5373
-3.9360 HIGHEST	-1.4597
-4.4396 HIM	-0.9838
-3.3244 HIS	-1.3611
-2.7481 HOME	-2.3338
-3.8079 HOMER	-1.2846
-3.6286 HONG-KONG	-1.4573
-3.6286 HONOLULU	-1.2814
-3.0041 HOOKED	-1.9014
-3.4043 HORNE	-1.2798
-3.8079 HORNE'S	-1.2706
-3.1987 HOUR	-1.4485
-2.8104 HOURS	-2.0912
-2.0150 HOW	-2.2186
-2.5685 HUNDRED	-1.8984
-3.5021 ICE-NINE	-1.5814
-4.4396 ID	-0.9838
-3.9360 IDENTIFICATION	-1.4385
-3.4504 IDENTIFICATIONS	-1.6295
-3.0218 IF	-1.3863
-1.4937 IN	-1.9242
-3.5021 INCLUDE	-1.4093
-3.8079 INCLUDED	-1.5859
-4.1186 INCLUDING	-1.2848
-3.6286 INCREASE	-1.7614
-4.1186 INCREASED	-1.2848
-3.5021 INCREASING	-1.8863
-3.6286 INDEPENDENCE	-1.1546
-3.4043 INDEPENDENCE'S	-1.2817
-3.1237 INDIAN	-2.2612
-4.1186 INDONESIA	-1.2813
-3.9360 INFORMATION	-1.4534
-3.3244 INSTALLED	-1.5793
-3.8079 INSTEAD	-1.5709
-3.7091 INSUFFICIENT	-1.6765
-3.9360 INVOLVED	-1.4610
-3.2570 INVOLVING	-1.3283
-3.4504 IRONWOOD	-1.6356
-3.5608 IRONWOOD'S	-1.2239
-1.6563 IS	-1.5397
-3.1723 ISLANDS	-1.5108
-4.4396 ISN'T	-0.9837
-2.7111 IT	-1.8221
-4.4396 IT'S	0.0000
-3.6286 ITS	-1.2826
-2.8965 JANUARY	-1.7870
-2.8965 JAPAN	-1.4502
-3.4043 JARRETT	-1.5043
-3.6286 JARRETT'S	-1.2828
-3.5021 JARVIS	-1.2769
-3.5608 JARVIS'S	-1.2240
-3.4504 JASON	-1.4476
-3.8079 JASON'S	-1.2821
-2.9246 JULY	-1.9821
-2.9394 JUNE	-1.9690
-3.2570 JUPITER	-1.5213
-3.7091 JUPITER'S	-1.2042
-3.2570 KENNEDY	-1.4158
-3.8079 KENNEDY'S	-1.2827
-3.5021 KILOMETER	-1.5691
-3.0801 KILOMETERS	-1.5701
-3.2894 KIRK	-1.6108
-3.5021 KIRK'S	-1.2828
-3.2894 KISKA	-1.6202
-3.5608 KISKA'S	-1.5271
-4.1186 KNOT	-1.2849
-2.7386 KNOTS	-2.0318
-3.5021 KODIAK	-1.2809
-3.5021 KOREA	-1.4061
-3.1987 KOREAN	-2.1875
-3.2894 LAMPS	-1.6173
-3.6286 LANTFLT	-1.4603
-4.1186 LARGE	-1.2752
-3.3244 LARGER	-1.7575
-3.5608 LARGEST	-1.5249
-2.1479 LAST	-1.6201
-3.6286 LAT	-1.4402
-3.8079 LAT-LON	-1.2841
-4.1186 LAT-LONS	-1.2843
-3.4504 LATER	-1.9336
-2.9870 LATEST	-1.4902
-2.6230 LATITUDE	-2.1516
-2.9103 LATITUDES	-2.1601
-3.6286 LATS	-1.4469
-4.1186 LEAST	-1.2825
-3.3244 LEFT	-2.0630
-3.2894 LENGTH	-1.4863
-3.5021 LENGTHS	-1.8806
-3.6286 LENINGRAD	-1.2577
-2.7386 LESS	-2.3411
-2.8333 LETTER	-2.5512
-3.2570 LETTERS	-1.6503
-3.6286 LEVEL	-1.4546
-3.5608 LEVELS	-1.8214
-3.1473 LINK-11	-1.4569
-2.1939 LIST	-1.4731
-3.5021 LOCATED	-1.8728
-2.6453 LOCATION	-1.6938
-3.0041 LOCATIONS	-1.6381
-3.4043 LOCKWOOD	-1.1987
-3.5608 LOCKWOOD'S	-1.2220
-4.1186 LON	-1.2843
-2.8104 LONG	-1.7156
-3.6286 LONGER	-1.4529
-3.6286 LONGEST	-1.2691
-2.6303 LONGITUDE	-1.6502
-2.9246 LONGITUDES	-1.5691
-3.8079 LONS	-1.5795
-3.4504 LOW	-1.6367
-3.2269 LOWER	-1.5393
-3.5608 LOWEST	-1.5253
-3.5021 M-CODE	-1.8794
-3.5021 M-CODES	-1.8794
-3.8079 M-RATING	-1.1025
-4.4396 M-RATINGS	-0.9763
-3.0218 M1	-1.7547
-3.0598 M2	-1.6049
-3.1987 M3	-1.8802
-3.1473 M4	-1.6222
-3.1237 M5	-1.5546
-3.7091 MADAGASCAR	-1.3783
-3.9360 MADE	-1.4541
-3.1237 MAKE	-1.7585
-3.6286 MAKING	-1.2615
-3.6286 MANCHESTER	-1.4459
-3.6286 MANHATTAN	-1.2752
-3.6286 MANHATTAN'S	-1.2843
-3.8079 MANILA	-1.2782
-2.2640 MANY	-1.6543
-2.9394 MARCH	-1.8420
-3.4504 MARS	-1.6307
-3.7091 MARS'S	-1.1999
-2.9246 MAX	-1.7583
-2.6377 MAXIMUM	-1.9651
-2.9705 MAY	-2.1078
-3.5021 MCCLUSKY	-1.2811
-3.5608 MCCLUSKY'S	-1.2192
-2.2424 ME	-1.4774
-3.3244 MEASURE	-1.5786
-3.4043 MERCATOR	-1.6824
-3.8079 MERCURY	-1.2778
-4.1186 MERCURY'S	-1.2846
-3.4043 METEOR	-1.3608
-4.1186 METEOR'S	-1.2848
-3.4043 METERS	-1.6765
-3.4043 METRIC	-1.6825
-3.7091 MEXICO	-1.3812
-3.8079 MIAMI	-1.2798
-3.6286 MIDGETT	-1.7620
-3.6286 MIDGETT'S	-1.1575
-3.1237 MIDPAC	-1.2794
-3.6286 MIDPAC'S	-1.1567
-3.4043 MIDWAY	-1.3678
-3.7091 MIDWAY'S	-1.2035
-3.8079 MILE	-1.5709
-3.1013 MILES	-1.9588
-3.6286 MIND	-1.4385
-3.3244 MINUTES	-1.4589
-3.5021 MISHAWAKA	-1.5856
-3.6286 MISHAWAKA'S	-1.2828
-2.5622 MISSION	-1.9752
-3.5021 MISSIONS	-1.4028
-3.5608 MISSISSIPPI	-1.5275
-3.5021 MISSISSIPPI'S	-1.1839
-3.0041 MIW	-1.5801
-3.0041 MOB	-1.5234
-3.5608 MONDAY	-1.8289
-3.6286 MONDAY'S	-1.2769
-3.8079 MONGOLIA	-1.5824
-3.3244 MONTH	-2.0630
-3.7091 MONTH'S	-1.3799
-3.4504 MONTHS	-1.9381
-3.7091 MONTICELLO	-1.3816
-3.5608 MONTICELLO'S	-1.2258
-2.4278 MORE	-2.6490
-2.9547 MOST	-1.8240
-2.9705 MOZAMBIQUE	-2.1137
-3.3244 MUCH	-1.5827
-3.9360 N92762	-1.4546
-3.1723 NAME	-1.8917
-3.0598 NAMES	-1.8275
-3.8079 NAPLES	-1.2784
-3.5021 NASHUA	-1.4079
-3.5021 NASHUA'S	-1.2827
-4.4396 NEAR	-0.9742
-3.5608 NEARER	-1.8226
-3.5021 NEAREST	-1.2780
-3.6286 NEVER	-1.7619
-3.0041 NEW	-1.3692
-3.5021 NEW-YORK	-1.5857
-3.9360 NEW-ZEALAND	-1.4574
-3.5021 NEWCASTLE	-1.3882
-4.1186 NEWER	-1.2804
-3.6286 NEWEST	-1.2818
-3.1723 NEXT	-1.4298
-2.7886 NINE	-1.3508
-2.8965 NINETEEN	-1.6402
-4.1186 NINETEENTH	-1.2849
-3.8079 NINETY	-1.2842
-4.1186 NINTH	-1.2849
-3.1987 NO	-1.3301
-3.5021 NOME	-1.3883
-2.9394 NORTH	-1.3173
-4.1186 NORTHERN	-0.9827
-3.2570 NOT	-1.4273
-3.6286 NOVA	-1.4603
-3.0041 NOVEMBER	-1.6762
-3.2894 NOW	-2.0978
-2.9246 NTDS	-1.4435
-3.2894 NUCLEAR	-1.3151
-2.9870 NUMBER	-2.3838
-3.9360 OAKLAND	-1.4610
-2.4767 OCEAN	-1.7452
-2.9705 OCTOBER	-1.8109
-1.4686 OF	-1.5454
-3.0041 OFF	-1.5901
-3.8079 OLD	-1.5762
-4.1186 OLDER	-1.2804
-3.5021 OLDEST	-1.4059
-3.7091 OLYMPIA	-1.3755
-1.8443 ON	-1.5753
-2.4614 ONE	-1.5872
-3.4504 ONLY	-1.3118
-3.3244 OPEN	-1.7601
-2.8965 OR	-1.5835
-3.1987 ORANGE	-1.6997
-3.5608 OSGP	-1.5235
-2.8575 OVERALL	-1.9205
-2.8333 OVERLAY	-1.5510
-2.9547 OVERLAYS	-1.8223
-3.2570 PAC	-1.6505
-3.5608 PACFLT	-1.2153
-2.5437 PACIFIC	-2.5372
-3.8079 PANAMA	-1.2847
-3.1237 PARAMETER	-1.4712
-3.1987 PARAMETERS	-1.8806
-3.8079 PEARL	-1.5858
-3.4043 PEORIA	-1.6827
-3.5021 PEORIA'S	-1.2835
-3.5608 PERCENT	-1.8265
-3.0218 PERSIAN	-2.3588
-2.6688 PERSONNEL	-1.6621
-3.1987 PHILIPPINE	-2.1827
-3.8079 PHILIPPINES	-1.2811
-3.5608 PIGEON	-1.2171
-3.8079 PIGEON'S	-1.2839
-3.9360 PLH003	-1.4610
-3.5608 PLUCK	-1.5276
-3.9360 PLUCK'S	-0.9822
-3.5608 PLUNGER	-1.1261
-3.5021 PLUNGER'S	-1.2798
-3.4043 POLLACK	-1.3605
-3.5608 POLLACK'S	-1.3474
-3.6286 POLYNESIA	-1.2784
-2.3326 PORT	-1.9073
-3.3625 PORTS	-1.4148
-3.5608 POSIT	-1.2148
-2.6230 POSITION	-1.4919
-2.9394 POSITIONS	-1.7157
-3.5021 POSITS	-1.2521
-3.4043 POUGHKEEPSIE	-1.3718
-4.1186 POUGHKEEPSIE'S	-1.2837
-3.3625 POWERED	-1.5450
-3.5021 PRAIRIE	-1.2699
-3.8079 PRAIRIE'S	-1.2834
-3.1723 PRESENT	-1.4291
-3.7091 PREVIOUS	-1.2028
-2.8452 PROBLEM	-1.6733
-2.4979 PROBLEMS	-1.8190
-3.0598 PROJECTION	-2.0246
-3.4504 PROPELLED	-1.4544
-2.9394 PROPULSION	-1.8430
-3.4043 PUFFER	-1.2617
-3.5608 PUFFER'S	-1.3467
-3.5608 PUGET-1	-1.3448
-3.4043 QUARTER	-1.4899
-3.6286 QUARTERS	-1.4576
-3.5608 QUEENFISH	-1.2202
-3.5021 QUEENFISH'S	-1.4052
-3.4043 RADAR	-1.9833
-3.3625 RAMSEY	-1.4213
-3.5021 RAMSEY'S	-1.2745
-3.6286 RANGER	-1.4576
-3.5021 RANGER'S	-1.2804
-3.1987 RATED	-1.4877
-3.4043 RATHBURNE	-1.2759
-3.5608 RATHBURNE'S	-1.2239
-2.4925 RATING	-1.6744
-2.8965 RATINGS	-1.6809
-2.2424 READINESS	-1.8391
-3.8079 REASON	-1.5783
-3.3244 REASONER	-1.5852
-3.8079 REASONER'S	-1.1039
-3.7091 REASONS	-1.6753
-3.0598 RECENT	-1.5434
-3.4043 RECLAIMER	-1.2770
-3.6286 RECLAIMER'S	-1.2838
-3.4504 RED	-1.4521
-3.5021 REDEFINE	-1.5832
-3.4504 REDEFINED	-1.9376
-3.8079 REDEFINING	-1.2619
-3.4504 REDISPLAY	-1.4335
-3.0041 REDO	-1.8779
-2.4871 REDRAW	-1.9656
-3.4043 REEVES	-1.1954
-3.6286 REEVES'S	-1.2814
-3.0801 REMAINING	-2.0026
-4.4396 REMARK	0.0000
-3.2894 REMARKS	-1.5969
-3.8079 REPAIR	-1.2709
-3.8079 REPAIRED	-1.5845
-3.8079 REPAIRING	-1.5790
-3.8079 REPLACED	-1.2622
-2.6530 REPORT	-1.6344
-2.7023 REPORTED	-1.5887
-3.6286 REPORTING	-1.2833
-2.6158 REPORTS	-1.8979
-3.3244 RESET	-1.2572
-3.1013 RESOLUTION	-1.6748
-3.9360 RESOLVED	-1.4610
-2.5377 RESOURCE	-2.0597
-3.8079 RESOURCES	-1.5709
-3.1723 REVIEW	-1.4117
-3.1013 ROSS	-2.2796
-3.5608 SACRAMENTO	-1.2141
-3.7091 SACRAMENTO'S	-1.1977
-4.1186 SAIL	-1.2846
-2.8217 SAME	-1.7718
-3.4043 SAMPLE	-1.3788
-3.8079 SAMPLE'S	-1.1019
-3.5608 SAN-DIEGO	-1.3437
-3.5608 SAN-FRAN	-1.5273
-3.4504 SASSAFRAS	-1.2255
-3.9360 SASSAFRAS'S	-1.1581
-3.5608 SATURDAY	-1.8289
-3.8079 SATURDAY'S	-1.2817
-3.6286 SAVE	-1.2840
-3.5021 SCHENECTADY	-1.1760
-3.5608 SCHENECTADY'S	-1.2245
-3.2570 SCREEN	-1.5051
-3.9360 SCREENS	-1.4610
-1.9206 SEA	-1.7862
-3.7091 SEAWOLF	-1.3676
-3.6286 SEAWOLF'S	-1.2829
-3.6286 SECOND	-1.2839
-3.8079 SECURITY	-1.2781
-2.8965 SENSOR	-1.4726
-3.6286 SENSORS	-1.7620
-2.9705 SEPTEMBER	-1.5663
-2.6303 SET	-1.6024
-4.1186 SETTING	-1.2699
-3.5608 SETTINGS	-1.8289
-2.6530 SEVEN	-1.4927
-3.2894 SEVENTEEN	-1.3146
-3.7091 SEVENTEENTH	-1.3813
-3.8079 SEVENTH	-1.2843
-3.3244 SEVENTY	-1.4568
-3.5608 SHASTA	-1.5278
-3.4504 SHASTA'S	-1.3328
-3.9360 SHE	-1.1566
-3.8079 SHE'S	-1.2846
-3.8079 SHERMAN	-1.2822
-3.4504 SHERMAN'S	-1.2360
-2.9547 SHIP	-1.7065
-1.9488 SHIPS	-2.1566
-4.1186 SHIPS'S	-1.2839
-1.9677 SHOW	-1.6634
-3.4504 SHOWING	-1.6144
-3.8079 SHOWN	-1.5717
-3.0598 SIBERIAN	-2.3210
-3.8079 SIDNEY	-1.0759
-2.5622 SINCE	-1.3396
-3.9360 SINGAPORE	-1.1593
-2.6530 SIX	-1.4400
-3.3244 SIXTEEN	-1.2831
-4.1186 SIXTEENTH	-1.2849
-3.8079 SIXTH	-1.2844
-3.3625 SIXTY	-1.3199
-2.6937 SIZE	-1.7771
-3.8079 SLOW	-1.5854
-3.5021 SLOWER	-1.8825
-4.1186 SLOWEST	-1.2846
-3.1987 SLQ-32	-1.5730
-4.1186 SMALL	-1.2752
-3.4504 SMALLER	-1.6326
-3.5608 SMALLEST	-1.5249
-3.6286 SOHO	-1.4603
-2.9547 SOLOMON	-2.1244
-3.4043 SONAR	-1.6804
-2.8452 SOON	-1.9355
-3.8079 SOONER	-1.5859
-2.9705 SOUTH	-1.2880
-3.6286 SOUTHERN	-1.2842
-4.1186 SOVIET	-1.2848
-2.2737 SPEED	-1.9488
-2.6937 SPEEDS	-1.6951
-3.1013 SPS-40	-1.6745
-3.1987 SPS-48	-1.4819
-3.2570 SQQ-23	-1.3434
-3.1987 START	-1.5813
-3.5608 STARTED	-1.8266
-4.1186 STARTING	-1.2825
-3.9360 STATES	-1.1562
-3.4504 STATION	-1.4604
-3.2894 STATUS	-1.7817
-3.3244 STEAM	-1.4558
-3.8079 STEREOGRAPHIC	-1.2845
-3.3625 STERETT	-1.2190
-3.6286 STERETT'S	-1.2841
-2.6608 STRAIT	-1.6601
-3.1013 SUB	-1.5597
-3.9360 SUB'S	-1.1586
-3.3625 SUBIC	-2.0248
-3.2269 SUBMARINE	-1.2874
-4.4396 SUBMARINE'S	-0.9833
-2.4141 SUBMARINES	-1.8102
-2.3674 SUBS	-1.8955
-3.9360 SUFFICIENT	-1.4585
-4.1186 SUMMARIZE	-1.2624
-3.4504 SUNDAY	-1.4402
-3.8079 SUNDAY'S	-1.2767
-2.7781 SUPPLIES	-1.7528
-3.3244 SUPPLY	-1.7603
-3.8079 SUPPOSED	-1.5796
-3.2570 SURFACE	-1.8224
-3.0598 SUSTAINED	-2.0220
-2.8575 SWITCH	-1.6685
-3.0801 SWITCHES	-1.6965
-3.5608 SWORDFISH	-1.3374
-3.7091 SWORDFISH'S	-1.2015
-3.9360 SYSTEM	-1.1593
-3.1013 T-LAM	-1.3632
-3.1237 TACAN	-1.6571
-3.9360 TAIWAN	-1.1563
-2.9394 TAKE	-1.2756
-4.1186 TAKEN	-1.2848
-3.2570 TASM	-1.4227
-3.5021 TEN	-1.2823
-3.7091 TENTH	-1.1896
-3.2269 TEST	-1.8587
-3.4043 TEXAS	-1.3711
-3.5608 TEXAS'S	-1.2225
-3.2269 TFCC	-1.4524
-2.9394 THAILAND	-1.4588
-1.9907 THAN	-1.4473
-1.8040 THAT	-2.2793
-1.2974 THE	-1.5025
-2.6453 THEIR	-1.6514
-4.1186 THEM	-1.2838
-2.1859 THERE	-1.7980
-3.9360 THESE	-1.4515
-3.8079 THEY	-1.5765
-3.6286 THIRD	-1.4459
-3.2894 THIRTEEN	-1.2490
-3.9360 THIRTEENTH	-1.1449
-3.9360 THIRTIETH	-1.1449
-3.0041 THIRTY	-1.4711
-3.7091 THIS	-1.2049
-4.1186 THOSE	-1.2849
-3.2269 THOUSAND	-1.5567
-4.4396 THREAT	-0.9838
-3.7091 THREATS	-1.3815
-2.5202 THREE	-1.4030
-3.5021 THURSDAY	-1.5795
-3.8079 THURSDAY'S	-1.2782
-3.2894 TICONDEROGA	-1.2294
-3.6286 TICONDEROGA'S	-1.2747
-2.6158 TIME	-1.9607
-3.6286 TIMES	-1.4534
-1.8383 TO	-1.5841
-3.0598 TODAY	-2.3263
-4.1186 TODAY'S	-1.2818
-3.6286 TOGGLE	-1.2621
-3.6286 TOGGLED	-1.7620
-3.6286 TOGGLING	-1.7617
-3.4043 TOKYO	-1.3788
-3.7091 TOMORROW	-1.6828
-3.8079 TOMORROW'S	-1.5854
-2.9870 TONKIN	-1.4113
-3.1723 TONS	-1.7198
-3.0404 TOTAL	-1.8430
-3.8079 TOWNSVILLE	-1.0927
-2.5437 TRACK	-1.7577
-2.6852 TRACKS	-1.8021
-2.6688 TRAINING	-1.6238
-3.5608 TRIPOLI	-1.2202
-3.5021 TRIPOLI'S	-1.2827
-3.4043 TRUE-VIEW	-1.6824
-3.8079 TUESDAY	-1.5859
-3.6286 TUESDAY'S	-1.4528
-3.5608 TURBINE	-1.3467
-3.2894 TURN	-1.2209
-4.1186 TURNED	-1.2786
-3.5608 TURNING	-1.5212
-3.5021 TUSCALOOSA	-1.1605
-4.4396 TUSCALOOSA'S	-0.9828
-3.9360 TWELFTH	-1.1444
-3.2269 TWELVE	-1.3069
-3.8079 TWENTIETH	-1.2844
-2.4052 TWENTY	-1.7381
-2.7386 TWO	-1.4050
-3.1013 TYPE	-1.4515
-3.7091 TYPES	-1.6828
-4.1186 UNION	-1.2813
-3.1987 UNIT	-1.8693
-3.9360 UNITED	-1.4609
-3.4504 UNTIL	-1.2348
-4.1186 UOM	-1.2843
-3.8079 UPDATE	-1.5796
-3.9360 UPDATED	-1.4598
-3.8079 UPDATES	-1.5796
-3.8079 UPGRADE	-1.5859
-3.3625 UPGRADED	-2.0190
-4.4396 USA	-0.9803
-3.4504 USE	-1.6363
-2.8452 USING	-1.6713
-3.0218 USN	-1.3942
-3.4504 VALUE	-1.6307
-3.6286 VALUES	-1.7620
-3.4043 VANCOUVER	-1.3684
-3.9360 VANCOUVER'S	-1.1575
-3.5021 VANDERGRIFT	-1.2820
-3.7091 VANDERGRIFT'S	-1.2051
-2.7579 VARIOUS	-1.8440
-3.2894 VESSEL	-1.6050
-2.4232 VESSELS	-1.9137
-3.5608 VICTORIA	-1.2181
-3.5021 VIRGINIA	-1.5717
-3.5021 VIRGINIA'S	-1.1841
-3.7091 VISUAL	-1.3812
-3.4043 WABASH	-1.3707
-3.7091 WABASH'S	-1.2016
-3.5021 WADSWORTH	-1.2805
-3.6286 WADSWORTH'S	-1.2817
-2.4871 WAS	-1.3060
-3.7091 WASN'T	-1.3815
-3.6286 WASP	-1.2816
-3.9360 WASP'S	-1.1536
-3.4504 WE	-1.9354
-3.6286 WEDNESDAY	-1.7620
-3.6286 WEDNESDAY'S	-1.2752
-3.8079 WEEK	-1.5859
-3.4043 WEEK'S	-1.5046
-3.5021 WEEKS	-1.8869
-3.8079 WELLINGTON	-1.2847
-3.1473 WENT	-2.2328
-2.3594 WERE	-1.7970
-3.3244 WEREN'T	-1.4389
-2.8831 WEST	-1.5814
-3.9360 WESTERN	-1.1589
-2.9103 WESTPAC	-1.6791
-3.8079 WESTPAC'S	-1.1004
-1.8578 WHAT	-1.8721
-3.7091 WHAT'RE	-1.3592
-2.4819 WHAT'S	-1.8792
-2.7111 WHEN	-2.0588
-3.5608 WHEN'LL	-1.2263
-3.5021 WHEN'S	-1.2620
-2.9547 WHERE	-1.6318
-3.8079 WHERE'S	-1.2846
-2.5259 WHICH	-1.6244
-3.3625 WHIPPLE	-1.2332
-3.5021 WHIPPLE'S	-1.1825
-3.2269 WHO	-1.6718
-3.8079 WHO'S	-1.5857
-3.2570 WHOSE	-1.3465
-3.1013 WHY	-1.7959
-4.1186 WHY'S	-1.2847
-3.5608 WICHITA	-1.3461
-3.7091 WICHITA'S	-1.2006
-2.5202 WILL	-1.4336
-3.3625 WILLAMETTE	-1.2413
-3.5021 WILLAMETTE'S	-1.2763
-3.4504 WINAMAC	-1.3295
-3.9360 WINAMAC'S	-1.1563
-2.9394 WINDOW	-1.5270
-3.8079 WINDOWS	-1.5859
-2.0910 WITH	-1.4517
-2.8701 WITHIN	-1.4432
-3.6286 WITHOUT	-1.2615
-3.6286 WON'T	-1.2845
-3.6286 WORSE	-1.7575
-3.5608 WORST	-1.8276
-2.9103 WOULD	-1.9745
-4.1186 WOULDN'T	-1.2840
-3.6286 YANKEE	-1.7620
-3.9360 YEAR	-1.4610
-3.9360 YEARS	-1.4599
-2.9103 YELLOW	-1.8566
-3.4504 YESTERDAY	-1.9381
-4.1186 YESTERDAY'S	-1.2831
-3.2894 YET	-2.0978
-3.2269 YORKTOWN	-1.4390
-4.1186 YORKTOWN'S	-1.2849
-3.1723 ZULU	-1.7370

\2-grams:
-2.3165 <s> ADD 
-1.3699 <s> ARE 
-2.9976 <s> AREN'T 
-3.1815 <s> BROOKE'S 
-2.5620 <s> CAN 
-3.1815 <s> CENTER 
-2.8688 <s> CHANGE 
-2.2066 <s> CLEAR 
-3.1815 <s> COULDN'T 
-2.2581 <s> COUNT 
-3.5070 <s> CROVL 
-2.5620 <s> DECREASE 
-2.5102 <s> DEFINE 
-2.4221 <s> DELETE 
-2.3165 <s> DID 
-2.7695 <s> DIDN'T 
-1.4106 <s> DISPLAY 
-1.9695 <s> DO 
-1.9695 <s> DOES 
-2.8688 <s> DOESN'T 
-2.4639 <s> DON'T 
-1.5623 <s> DRAW 
-2.3165 <s> EDIT 
-3.1815 <s> EQUIPMENT 
-1.3842 <s> FIND 
-1.3136 <s> GET 
-1.2983 <s> GIVE 
-2.9976 <s> HAD 
-2.0633 <s> HAS 
-2.5620 <s> HASN'T 
-2.8688 <s> HAVE 
-1.0740 <s> HOW 
-2.6888 <s> INCREASE 
-1.0139 <s> IS 
-3.5070 <s> ISN'T 
-1.3699 <s> LIST 
-2.1830 <s> MAKE 
-2.6888 <s> NEVER 
-2.7695 <s> ON 
-2.5620 <s> REDEFINE 
-2.5102 <s> REDISPLAY 
-2.0633 <s> REDO 
-1.5792 <s> REDRAW 
-2.3840 <s> RESET 
-2.2316 <s> REVIEW 
-1.7701 <s> SET 
-1.0331 <s> SHOW 
-2.8688 <s> START 
-3.1815 <s> SUMMARIZE 
-3.5070 <s> SWORDFISH'S 
-3.1815 <s> TICONDEROGA'S 
-2.6888 <s> TOGGLE 
-2.5102 <s> TOTAL 
-2.3489 <s> TURN 
-2.5102 <s> USE 
-2.1606 <s> WAS 
-2.1393 <s> WERE 
-2.7695 <s> WEREN'T 
-0.9230 <s> WHAT 
-2.7695 <s> WHAT'RE 
-1.5409 <s> WHAT'S 
-1.7701 <s> WHEN 
-2.6208 <s> WHEN'LL 
-2.5620 <s> WHEN'S 
-2.1606 <s> WHERE 
-2.8688 <s> WHERE'S 
-1.6027 <s> WHICH 
-2.2863 <s> WHO 
-2.8688 <s> WHO'S 
-2.8688 <s> WHOSE 
-2.1606 <s> WHY 
-3.1815 <s> WHY'S 
-1.9695 <s> WILL 
-2.6888 <s> WON'T 
-3.1815 <s> WOULDN'T 
-0.0000 </s> <s> 
-1.8982 A C5 
-1.8982 A CARRIER 
-0.6459 A CHART 
-1.8982 A CRUISER 
-1.8982 A FRIGATE 
-1.8982 A HARPOON 
-1.2787 A KILOMETER 
-1.5854 A LINK-11 
-0.5975 A LIST 
-1.5854 A MAXIMUM 
-1.5854 A MILE 
-1.8982 A MISSION 
-1.1806 A NEW 
-2.2237 A PAC 
-1.4862 A PROBLEM 
-1.8982 A SHIP 
-1.2269 A SPEED 
-1.5854 A SUB 
-1.8982 A SUBMARINE 
-1.8982 A SUPPLIES 
-1.8982 A TFCC 
-1.3375 A THOUSAND 
-1.8982 A TRAINING 
-0.0114 A42128 </s> 
-0.5068 AAW </s> 
-0.4687 AAW MISSION 
-0.9534 AAW RATING 
-1.0822 AAW READINESS 
-0.8542 AAW SINCE 
-0.5003 ABERDEEN </s> 
-0.5003 ABERDEEN HAVE 
-0.5003 ABERDEEN OR 
-0.8604 ABOARD AND 
-1.3698 ABOARD CONQUEST 
-1.0443 ABOARD DUBUQUE 
-1.3698 ABOARD FIREBUSH 
-1.0443 ABOARD JASON 
-1.0443 ABOARD KIRK 
-1.0443 ABOARD NASHUA 
-1.0443 ABOARD PEORIA 
-0.7316 ABOARD THE 
-1.0443 ABOARD YORKTOWN 
-0.5233 ABOVE </s> 
-0.5233 ABOVE M3 
-0.6521 ABOVE THIRTY 
-0.8361 ABOVE TWELVE 
-0.5555 ADD A 
-0.8682 ADD AN 
-0.8682 ADD BOX 
-0.8682 ADD GRILL 
-0.8682 ADD PUGET-1 
-0.8682 ADD THE 
-0.0091 ADDED </s> 
-0.8257 ADDING BOX 
-0.3163 ADDING NEW 
-0.5003 ADDING YANKEE 
-0.0153 AFFECT MISSION 
-1.4455 AFTER CLEARING 
-0.8073 AFTER DECEMBER 
-1.1201 AFTER FOUR 
-1.4455 AFTER FOURTEEN 
-1.1201 AFTER JANUARY 
-1.4455 AFTER ONE 
-1.1201 AFTER SEPTEMBER 
-1.1201 AFTER SEVEN 
-1.1201 AFTER THREE 
-1.1201 AFTER TWELVE 
-0.9361 AFTER TWENTY 
-0.9361 AFTER TWO 
-0.3434 AGAIN IN 
-0.5233 AGAIN REDEFINING 
-0.6521 AGAIN WITH 
-0.5672 AJAX </s> 
-0.5672 AJAX DUE 
-0.8927 AJAX GOING 
-0.5672 AJAX LOCATED 
-0.9507 AJAX'S </s> 
-0.6252 AJAX'S CAT-2 
-0.9507 AJAX'S LAST 
-0.6252 AJAX'S PROPULSION 
-0.6252 AJAX'S TRACK 
-0.4125 ALASKA </s> 
-1.0838 ALASKA HAS 
-0.7711 ALASKA HAVE 
-0.7711 ALASKA ON 
-1.0838 ALASKA SINCE 
-1.0838 ALASKA WITH 
-0.1831 ALERT </s> 
-1.6604 ALERT BUMP 
-0.6636 ALERT FOR 
-1.3349 ALERT INVOLVING 
-1.3349 ALERT PAC 
-0.3123 ALERTS </s> 
-0.9822 ALERTS FOR 
-1.2103 ALERTS IN 
-0.9015 ALERTS INCLUDE 
-0.7747 ALERTS INVOLVING 
-1.3942 ALERTS WITHIN 
-0.4885 ALEXANDRIA </s> 
-0.8013 ALEXANDRIA IS 
-0.8013 ALEXANDRIA MONDAY 
-0.4885 ALEXANDRIA TO 
-1.3124 ALL ALERTS 
-1.9507 ALL C-CODES 
-1.6252 ALL CARRIERS 
-1.6252 ALL CHARTS 
-1.6252 ALL CRUISERS 
-1.6252 ALL DEFINITIONS 
-1.6252 ALL DIESEL 
-1.3124 ALL FRIGATES 
-1.6252 ALL GROUP 
-1.3124 ALL LATITUDE 
-1.3124 ALL LOCATIONS 
-1.6252 ALL MIDPAC 
-1.6252 ALL MISSIONS 
-1.9507 ALL MONTICELLO'S 
-1.4413 ALL NTDS 
-0.9539 ALL OF 
-1.6252 ALL OVERLAYS 
-1.6252 ALL PARAMETERS 
-1.9507 ALL POSITIONS 
-1.0645 ALL SHIPS 
-1.3124 ALL SPEEDS 
-1.0645 ALL SUBS 
-1.0645 ALL THE 
-1.3124 ALL TRACKS 
-0.8407 AN ALERT 
-1.1535 AN AVERAGE 
-1.1535 AN EAST 
-0.8407 AN EQUIPMENT 
-0.9695 AN M2 
-1.1535 AN M5 
-0.8407 AN MOB 
-1.1535 AN NTDS 
-0.9695 AN OVERALL 
-1.4790 AN SQQ-23 
-0.2644 ANCHORAGE </s> 
-0.3636 ANCHORAGE OF 
-2.2856 AND AJAX 
-2.2856 AND ALL 
-2.2856 AND ANCHORAGE 
-2.2856 AND AREN'T 
-2.2856 AND ARRIVAL 
-2.2856 AND ASUW 
-2.2856 AND BEAM 
-1.7929 AND BEAMS 
-1.9728 AND C-CODES 
-2.6111 AND C-RATINGS 
-1.9728 AND C4 
-1.7249 AND CAPABILITIES 
-2.2856 AND CARRIERS 
-1.9728 AND CROVL 
-2.2856 AND CURRENT 
-1.9728 AND DESTINATION 
-2.2856 AND DISPLAY 
-1.9728 AND DRAFTS 
-2.6111 AND ECONOMIC 
-2.1017 AND END 
-2.2856 AND ENDING 
-1.6143 AND ESTIMATED 
-1.7929 AND ETA 
-2.2856 AND FEET 
-2.2856 AND FOOTER 
-2.2856 AND FOR 
-2.2856 AND FORTY 
-2.6111 AND FOX 
-1.9728 AND FRIDAY'S 
-1.3904 AND FUEL 
-1.9728 AND FULL 
-2.2856 AND GRILL 
-2.2856 AND GUARDFISH 
-2.1017 AND HER 
-2.2856 AND HIS 
-1.9728 AND HOUR 
-1.8736 AND IN 
-2.2856 AND ITS 
-1.8736 AND LAST 
-2.2856 AND LATEST 
-1.9728 AND LATITUDE 
-2.2856 AND LATITUDES 
-2.2856 AND LENGTH 
-2.2856 AND LINK-11 
-1.8736 AND LOCATION 
-1.9728 AND LONG 
-0.8319 AND LONGITUDE 
-1.1338 AND LONGITUDES 
-1.9728 AND LONS 
-2.6111 AND M-RATINGS 
-2.2856 AND MAX 
-2.6111 AND MAXIMUM 
-2.6111 AND MIDWAY'S 
-1.9728 AND MONDAY'S 
-1.9728 AND NAMES 
-2.2856 AND NINETY 
-2.2856 AND NOME 
-2.2856 AND NTDS 
-2.2856 AND PORTS 
-1.9728 AND PROPULSION 
-2.2856 AND RAMSEY'S 
-2.2856 AND RATHBURNE'S 
-2.2856 AND REASONER 
-1.8736 AND REASONS 
-2.2856 AND REDRAW 
-1.9728 AND RESOURCES 
-2.2856 AND SACRAMENTO'S 
-2.2856 AND SAN-FRAN 
-2.6111 AND SASSAFRAS'S 
-2.2856 AND SEVEN 
-2.2856 AND SLQ-32 
-2.6111 AND SOUTH 
-1.7929 AND SPEEDS 
-2.2856 AND SPS-40 
-2.6111 AND STERETT 
-2.2856 AND SUBMARINES 
-1.7249 AND THAT 
-1.3904 AND THE 
-1.1026 AND THEIR 
-2.6111 AND TOWNSVILLE 
-2.2856 AND TRACKS 
-1.9728 AND VARIOUS 
-2.2856 AND WEDNESDAY'S 
-2.6111 AND WEST 
-1.9728 AND WHERE 
-1.4624 ANY ALERTS 
-2.0231 ANY C4 
-1.5305 ANY CARRIERS 
-2.3486 ANY CASREPS 
-1.4036 ANY CATEGORY 
-2.0231 ANY CODAG 
-1.1906 ANY CRUISERS 
-2.0231 ANY DIESEL 
-1.7104 ANY EQUIPMENT 
-2.0231 ANY FRIGATE 
-1.4036 ANY FRIGATES 
-2.0231 ANY FRIGATES'S 
-1.7104 ANY GAS 
-2.0231 ANY LAMPS 
-2.0231 ANY LINK-11 
-2.0231 ANY M2 
-1.8392 ANY MISSIONS 
-1.7104 ANY NTDS 
-1.0483 ANY OF 
-2.0231 ANY OLDER 
-1.6112 ANY OPEN 
-2.3486 ANY PERSONNEL 
-2.0231 ANY PROBLEM 
-1.5305 ANY PROBLEMS 
-2.0231 ANY RESOURCE 
-2.0231 ANY SHIP 
-0.9049 ANY SHIPS 
-2.0231 ANY SHIPS'S 
-1.7104 ANY SLQ-32 
-1.7104 ANY SPS-40 
-2.0231 ANY SPS-48 
-2.3486 ANY STEAM 
-1.3056 ANY SUBMARINES 
-1.2638 ANY SUBS 
-1.7104 ANY SUPPLIES 
-1.7104 ANY SUPPLY 
-2.0231 ANY T-LAM 
-1.7104 ANY TACAN 
-1.7104 ANY TASM 
-2.0231 ANY TFCC 
-1.7104 ANY VESSEL 
-1.6112 ANY VESSELS 
-0.0231 ANYBODY IN 
-0.0745 APALACHICOLA </s> 
-0.8927 APALACHICOLA CLOSER 
-0.6252 APALACHICOLA'S CURRENT 
-0.6252 APALACHICOLA'S RADAR 
-0.6252 APALACHICOLA'S TRACK 
-0.6252 APALACHICOLA'S TRAINING 
-0.1113 APRIL </s> 
-1.1535 APRIL AND 
-1.1535 APRIL ONE 
-1.1535 APRIL TWENTY 
-0.0021 ARABIAN SEA 
-0.0024 ARCTIC OCEAN 
-1.3200 ARE ANY 
-2.4553 ARE AS 
-1.9626 ARE AT 
-1.5319 ARE C1 
-1.6578 ARE C2 
-1.5054 ARE C3 
-1.8946 ARE C4 
-1.6578 ARE C5 
-2.1426 ARE CAPABLE 
-2.1426 ARE CATEGORY 
-2.7808 ARE CURRENTLY 
-2.4553 ARE DIESEL 
-2.4553 ARE ELEVEN 
-2.7808 ARE ENGLAND 
-2.1426 ARE ENROUTE 
-2.4553 ARE GAS 
-2.4553 ARE HARPOON 
-2.4553 ARE HIGHER 
-0.4010 ARE IN 
-2.4553 ARE LESS 
-2.4553 ARE LINK-11 
-2.4553 ARE LOCATED 
-2.7808 ARE LOWER 
-1.8946 ARE M1 
-2.4553 ARE M2 
-1.8946 ARE M3 
-1.9626 ARE M4 
-2.4553 ARE MIDWAY'S 
-2.2714 ARE MISSION 
-2.4553 ARE MORE 
-2.1426 ARE NOT 
-2.0433 ARE ON 
-2.4553 ARE RATED 
-2.4553 ARE REPORTING 
-2.4553 ARE SATURDAY'S 
-2.7808 ARE SPS-48 
-2.7808 ARE SQQ-23 
-2.4553 ARE STEAM 
-2.4553 ARE T-LAM 
-2.2714 ARE TASM 
-1.3928 ARE THE 
-0.6767 ARE THERE 
-2.4553 ARE WEDNESDAY'S 
-2.7808 ARE WICHITA'S 
-2.4553 ARE WILLAMETTE'S 
-2.7808 ARE WINAMAC'S 
-2.4553 ARE WITHIN 
-0.9777 AREA </s> 
-1.2026 AREA ALERT 
-0.9777 AREA ALERTS 
-1.6952 AREA BUMP 
-1.6952 AREA C2 
-1.6952 AREA C3 
-1.6952 AREA C5 
-1.5113 AREA CHANGED 
-1.6952 AREA DOWNGRADED 
-1.3825 AREA EVER 
-2.0207 AREA GONE 
-2.0207 AREA M-RATING 
-1.6952 AREA MISSION 
-1.0239 AREA OF 
-1.3825 AREA OFF 
-1.2026 AREA PROBLEMS 
-0.8977 AREA RATING 
-0.8302 AREA RATINGS 
-2.0207 AREA SWITCH 
-2.0207 AREA THREAT 
-0.4335 AREAS </s> 
-0.6135 AREAS ABOARD 
-0.6135 AREAS ARE 
-0.9262 AREAS OFF 
-0.1440 AREN'T DEPLOYED 
-1.0890 AREN'T REEVES 
-0.7635 AREN'T THERE 
-0.0745 ARKANSAS </s> 
-0.8927 ARKANSAS AN 
-0.3242 ARKANSAS'S MOST 
-0.3242 ARKANSAS'S TRACK 
-1.1937 AROUND BROOKE 
-0.8682 AROUND GULF 
-0.8682 AROUND REASONER 
-0.4563 AROUND THE 
-0.8682 AROUND VANDERGRIFT 
-0.8682 AROUND VIRGINIA 
-0.5873 ARRIVAL AT 
-1.0721 ARRIVAL FOR 
-0.5873 ARRIVAL HOUR 
-0.7653 ARRIVAL IN 
-1.0721 ARRIVAL LATER 
-0.8922 ARRIVAL TIMES 
-0.4658 ARRIVE AT 
-0.1872 ARRIVE IN 
-0.0091 ARRIVED AT 
-0.0114 ARRIVING IN 
-0.0231 ARROW SWITCH 
-1.3556 AS DOWNES'S 
-0.5581 AS FAST 
-1.3556 AS GUITARRO'S 
-1.6811 AS IRONWOOD'S 
-1.3556 AS JARVIS'S 
-1.3556 AS LOCKWOOD'S 
-0.6380 AS OF 
-1.3556 AS RATHBURNE'S 
-1.3556 AS RECLAIMER 
-1.3556 AS SHASTA 
-1.0428 AS THE 
-1.3556 AS TRIPOLI'S 
-0.0153 ASTORIA TODAY 
-0.5279 ASUW </s> 
-0.8865 ASUW AFTER 
-1.1992 ASUW AREA 
-0.7065 ASUW MISSION 
-0.8865 ASUW READINESS 
-1.1992 ASUW SHIPS 
-1.0153 ASUW SINCE 
-1.5390 ASW CHOPPED 
-0.3809 ASW MISSION 
-0.4541 ASW RATING 
-1.2135 ASW SINCE 
-0.9007 ASW WILL 
-1.5429 AT ANCHORAGE 
-1.8557 AT BANGKOK 
-1.5429 AT CURRENT 
-1.8557 AT DARWIN 
-1.4437 AT DESTINATION 
-1.6717 AT DIEGO-GARCIA 
-1.8557 AT EIGHT 
-1.8557 AT ELEVEN 
-1.8557 AT EVERETT 
-1.6717 AT FORTY 
-1.5429 AT GREATER 
-2.1811 AT HALF 
-0.8572 AT HER 
-1.5429 AT HIS 
-1.8557 AT HOMER 
-1.8557 AT ITS 
-1.6717 AT KODIAK 
-1.8557 AT LESS 
-1.5429 AT MORE 
-1.8557 AT NAPLES 
-1.8557 AT NINE 
-1.8557 AT NINETEEN 
-1.8557 AT NOME 
-1.6717 AT OLYMPIA 
-1.8557 AT ONE 
-2.1811 AT PRESENT 
-0.7374 AT SEA 
-1.6717 AT SEVEN 
-1.8557 AT SEVENTEEN 
-1.3630 AT SIX 
-1.6717 AT THE 
-1.8557 AT THEIR 
-2.1811 AT THIRTEEN 
-1.8557 AT THREE 
-1.5429 AT TOKYO 
-2.1811 AT TWENTY 
-1.8557 AT TWO 
-2.1811 AT WELLINGTON 
-0.9537 ATLANTIC CITY 
-0.4255 ATLANTIC FLEET 
-0.3281 ATLANTIC OCEAN 
-1.4464 ATLANTIC TO 
-0.0685 AUGUST </s> 
-1.2662 AUGUST NINETEENTH 
-1.2662 AUGUST OF 
-1.5917 AUGUST ONE 
-0.5003 AVAILABLE FOR 
-0.1875 AVAILABLE ON 
-1.0868 AVERAGE ASW 
-1.3955 AVERAGE C-RATING 
-0.8619 AVERAGE CRUISING 
-0.8619 AVERAGE DISPLACEMENT 
-0.9599 AVERAGE DISPLACEMENTS 
-1.0868 AVERAGE FOR 
-1.5794 AVERAGE OF 
-1.5794 AVERAGE OVERALL 
-0.7144 AVERAGE SPEED 
-1.0187 AVERAGE SPEEDS 
-1.2667 AVERAGE UNIT 
-0.0114 BAD IS 
-0.7221 BADGER AND 
-0.7221 BADGER CHANGING 
-0.7221 BADGER CHOP 
-0.7221 BADGER GOING 
-0.7221 BADGER REPORTED 
-0.6252 BADGER'S HOME 
-0.6252 BADGER'S LAST 
-0.6252 BADGER'S OLDEST 
-0.6252 BADGER'S RATINGS 
-0.2644 BAINBRIDGE </s> 
-0.6764 BAINBRIDGE NEXT 
-0.6764 BAINBRIDGE WILL 
-0.7466 BAINBRIDGE'S CASREPS 
-0.4211 BAINBRIDGE'S PROPULSION 
-0.4211 BAINBRIDGE'S TRACK 
-0.0231 BANGKOK </s> 
-0.1325 BARGE </s> 
-0.6252 BARGE TURNING 
-0.0028 BASS STRAIT 
-0.4822 BAY </s> 
-1.1535 BAY AT 
-1.1535 BAY FIVE 
-0.8407 BAY HAVE 
-1.1535 BAY ON 
-1.1535 BAY SEPTEMBER 
-1.1535 BAY SHIPS 
-1.1535 BAY THAT 
-1.1535 BAY WITH 
-1.6359 BE AT 
-1.0752 BE CHOPPING 
-1.6359 BE COUNTING 
-0.6374 BE FIXED 
-0.5006 BE IN 
-1.6359 BE ON 
-1.3232 BE REPAIRED 
-1.3232 BE REPAIRING 
-1.4520 BE RESOLVED 
-1.6359 BE THERE 
-0.8765 BE UPGRADED 
-0.5672 BEAM AND 
-0.5672 BEAM OF 
-0.3833 BEAM SMALLER 
-0.4885 BEAMS AND 
-0.8013 BEAMS FOR 
-0.3086 BEAMS OF 
-1.0645 BEEN AT 
-1.0645 BEEN CHANGED 
-0.3932 BEEN DEPLOYED 
-1.0645 BEEN DOWNGRADED 
-0.8806 BEEN EMPLOYED 
-0.7518 BEEN IN 
-1.1201 BEFORE BAINBRIDGE 
-1.4455 BEFORE FEBRUARY 
-1.1201 BEFORE FOURTEEN 
-1.4455 BEFORE HORNE 
-0.8073 BEFORE LAST 
-1.1201 BEFORE ONE 
-1.1201 BEFORE SEVENTEEN 
-1.1201 BEFORE THE 
-1.4455 BEFORE TWELFTH 
-0.6274 BEFORE TWENTY 
-1.1201 BEFORE WILLAMETTE 
-0.0476 BELOW THE 
-0.3245 BERING SEA 
-0.2829 BERING STRAIT 
-0.8927 BETWEEN GLACIER 
-0.5672 BETWEEN KIRK 
-0.5672 BETWEEN THE 
-0.5672 BETWEEN WHIPPLE 
-0.6252 BIDDLE </s> 
-0.6252 BIDDLE BEEN 
-0.6252 BIDDLE NUCLEAR 
-0.6252 BIDDLE ON 
-0.8927 BIDDLE'S DESTINATION 
-0.8927 BIDDLE'S DISPLACEMENT 
-0.5672 BIDDLE'S EQUIPMENT 
-0.8927 BIDDLE'S HOME 
-0.5672 BIDDLE'S LATITUDE 
-0.0017 BISMARK SEA 
-0.5003 BOMBAY EVER 
-0.5003 BOMBAY FROM 
-0.5003 BOMBAY TO 
-0.5003 BOTH NTDS 
-0.5003 BOTH SLQ-32 
-0.5003 BOTH T-LAM 
-0.0076 BOX </s> 
-0.6526 BRIGHT GREEN 
-0.3470 BRIGHT ORANGE 
-0.7518 BRIGHT RED 
-0.8806 BRIGHT YELLOW 
-0.0076 BRITISH SOLOMON 
-0.2708 BROOKE </s> 
-0.7635 BROOKE EXPECTED 
-1.0890 BROOKE USING 
-0.7635 BROOKE WITHIN 
-0.6764 BROOKE'S DISTANCE 
-0.6764 BROOKE'S EARLIEST 
-0.6764 BROOKE'S FUEL 
-0.6764 BROOKE'S LAST 
-1.0018 BROOKE'S OLDEST 
-0.3101 BRUNSWICK </s> 
-0.7221 BRUNSWICK AT 
-0.7221 BRUNSWICK IN 
-1.0476 BRUNSWICK THAN 
-0.4211 BRUNSWICK'S </s> 
-0.7466 BRUNSWICK'S CAT-2 
-0.4211 BRUNSWICK'S PROBLEMS 
-0.3124 BUD-TEST </s> 
-0.6252 BUD-TEST AND 
-0.6252 BUD-TEST OVERLAY 
-0.3833 BUMP </s> 
-0.2545 BUMP ALERT 
-1.6412 BY APRIL 
-1.6412 BY CAMDEN 
-1.9667 BY CODAG 
-1.3284 BY DECEMBER 
-1.9667 BY EIGHTEEN 
-1.9667 BY FIREBUSH 
-1.9667 BY FIVE 
-1.3284 BY FRESNO 
-1.2292 BY FRIDAY 
-1.6412 BY LOCKWOOD 
-1.6412 BY METEOR 
-1.6412 BY MONDAY 
-1.3284 BY NEXT 
-1.3284 BY NINE 
-0.6913 BY ONE 
-1.3284 BY SATURDAY 
-1.6412 BY SEPTEMBER 
-1.6412 BY SEVEN 
-1.4572 BY SIX 
-1.9667 BY STEAM 
-1.3284 BY SUNDAY 
-1.9667 BY TEN 
-1.6412 BY THE 
-1.3284 BY THURSDAY 
-1.6412 BY TOMORROW 
-1.1485 BY TWENTY 
-0.0883 C-CODE AND 
-0.8257 C-CODE OF 
-0.0091 C-CODES FOR 
-1.1268 C-RATING </s> 
-0.3086 C-RATING AND 
-0.6174 C-RATING DURING 
-0.8013 C-RATING FOR 
-0.0057 C-RATINGS FOR 
-0.4398 C1 </s> 
-1.5247 C1 ARE 
-1.1992 C1 CARRIERS 
-0.8865 C1 EQUIPMENT 
-0.7065 C1 ON 
-1.1992 C1 OR 
-1.1992 C1 THAT 
-1.1992 C1 TO 
-0.2810 C2 </s> 
-1.3019 C2 BY 
-1.1180 C2 CRUISERS 
-0.8092 C2 ON 
-1.1180 C2 SHIPS 
-1.3019 C2 SUBMARINES 
-1.3019 C2 TO 
-0.5648 C3 </s> 
-1.3242 C3 AND 
-1.3242 C3 BY 
-1.3242 C3 CARRIERS 
-1.3242 C3 CROVL 
-1.3242 C3 FRIGATES 
-1.3242 C3 JANUARY 
-0.5648 C3 ON 
-1.0114 C3 SHIPS 
-1.3242 C3 THAT 
-0.6936 C4 </s> 
-1.3132 C4 CARRIERS 
-1.3132 C4 CRUISERS 
-1.3132 C4 EQUIPMENT 
-1.3132 C4 NINE 
-0.7525 C4 ON 
-1.3132 C4 OR 
-1.3132 C4 SHIPS 
-1.3132 C4 SUBMARINES 
-0.6936 C4 SUBS 
-1.3132 C4 TO 
-0.5939 C5 </s> 
-1.2135 C5 ARE 
-1.2135 C5 BY 
-0.9007 C5 CRUISERS 
-0.4959 C5 ON 
-1.5390 C5 PERSONNEL 
-1.2135 C5 SUPPLIES 
-1.2135 C5 THAT 
-0.3242 CALEDONIA USING 
-0.3242 CALEDONIA WITH 
-0.2468 CALIFORNIA </s> 
-1.0443 CALIFORNIA ADDING 
-1.3698 CALIFORNIA CRUISERS 
-0.7316 CALIFORNIA THAT 
-1.0443 CALIFORNIA WENT 
-1.0018 CAMDEN </s> 
-1.0018 CAMDEN CHOPPED 
-0.6764 CAMDEN DATED 
-0.6764 CAMDEN DEPLOYED 
-0.6764 CAMDEN GAS 
-1.0018 CAMDEN MADE 
-0.3242 CAMDEN'S BEAM 
-0.3242 CAMDEN'S TRACK 
-0.5003 CAMPBELL </s> 
-0.5003 CAMPBELL AT 
-0.5003 CAMPBELL HAVE 
-0.6252 CAMPBELL'S </s> 
-0.6252 CAMPBELL'S CASUALTY 
-0.6252 CAMPBELL'S PROBLEMS 
-0.6252 CAMPBELL'S TRACK 
-1.1535 CAN CONSTELLATION 
-1.1535 CAN DENVER 
-1.4790 CAN ESTEEM 
-1.1535 CAN FLASHER 
-1.1535 CAN FOX 
-1.1535 CAN JUPITER 
-1.1535 CAN KIRK 
-1.1535 CAN PIGEON 
-1.1535 CAN RANGER 
-0.5928 CAN THE 
-1.1535 CAN TRIPOLI'S 
-1.4790 CAN WHIPPLE 
-0.8927 CANADA </s> 
-0.5672 CANADA CENTERING 
-0.2545 CANADA WITH 
-0.3485 CAPABILITIES </s> 
-1.2135 CAPABILITIES DOES 
-0.9007 CAPABILITIES FOR 
-1.2135 CAPABILITIES INCLUDE 
-1.0295 CAPABILITIES OF 
-0.7208 CAPABILITIES THAT 
-0.0568 CAPABILITY </s> 
-1.0018 CAPABILITY IN 
-0.9953 CAPABLE </s> 
-1.4827 CAPABLE ARE 
-1.1739 CAPABLE CARRIERS 
-1.6666 CAPABLE CRUISER 
-0.8691 CAPABLE CRUISERS 
-1.6666 CAPABLE FRIGATE 
-1.3538 CAPABLE FRIGATES 
-0.7714 CAPABLE OF 
-1.6666 CAPABLE SHIP 
-0.7432 CAPABLE SHIPS 
-1.1739 CAPABLE SUBMARINES 
-1.3538 CAPABLE SUBS 
-1.1059 CAPABLE VESSELS 
-0.0231 CAPACITIES </s> 
-0.3154 CAPACITY </s> 
-1.2419 CAPACITY AND 
-1.1426 CAPACITY FOR 
-1.5546 CAPACITY GREATER 
-1.0619 CAPACITY IN 
-1.5546 CAPACITY LARGER 
-1.5546 CAPACITY LESS 
-0.8833 CAPACITY OF 
-1.1426 CAPACITY OR 
-0.9526 CARRIER </s> 
-0.3330 CARRIER IN 
-0.9526 CARRIER IS 
-0.9526 CARRIER RATED 
-0.7686 CARRIER WASN'T 
-0.5247 CARRIER'S HOME 
-0.1992 CARRIER'S POSITIONS 
-0.8157 CARRIERS </s> 
-1.4264 CARRIERS AND 
-1.3272 CARRIERS ARE 
-1.7391 CARRIERS DEPLOYED 
-2.0646 CARRIERS DURING 
-1.7391 CARRIERS EMPLOYED 
-0.6387 CARRIERS IN 
-1.7391 CARRIERS RATED 
-0.4054 CARRIERS THAT 
-2.0646 CARRIERS TWENTY 
-1.7391 CARRIERS WERE 
-2.0646 CARRIERS WILL 
-1.5552 CARRIERS WITH 
-0.0231 CARRY SQQ-23 
-0.3124 CASREP BE 
-0.6252 CASREP LATER 
-0.6252 CASREP RATED 
-0.8257 CASREPED ANY 
-0.8257 CASREPED BY 
-0.1875 CASREPED EQUIPMENT 
-0.3813 CASREPS </s> 
-1.3263 CASREPS DATED 
-0.8169 CASREPS FOR 
-0.5889 CASREPS FROM 
-1.0009 CASREPS WORSE 
-0.3846 CASUALTY REPORT 
-0.2324 CASUALTY REPORTS 
-0.1083 CAT-2 CASUALTY 
-0.7466 CAT-2 PROBLEMS 
-0.5003 CAT-3 CASREPS 
-0.5003 CAT-3 CASUALTY 
-0.5003 CAT-3 PROBLEM 
-0.0231 CAT-4 EQUIPMENT 
-0.0231 CATEGORIES FOR 
-0.5718 CATEGORY FOUR 
-0.3470 CATEGORY THREE 
-0.5718 CATEGORY TWO 
-0.1875 CENTER </s> 
-0.5003 CENTER IT 
-0.0057 CENTERED AROUND 
-0.0114 CENTERING IT 
-0.4211 CEP AND 
-0.7466 CEP PARAMETER 
-0.4211 CEP SWITCH 
-1.3263 CHANGE ALERT 
-1.3263 CHANGE AREA 
-1.0009 CHANGE EQUIPMENT 
-0.6881 CHANGE FLEETS 
-1.0009 CHANGE OVERALL 
-0.6881 CHANGE READINESS 
-1.3263 CHANGE SUPPLIES 
-1.0009 CHANGE THAT 
-1.0009 CHANGE THE 
-0.9262 CHANGED EQUIPMENT 
-0.7423 CHANGED ON 
-0.4335 CHANGED READINESS 
-0.6135 CHANGED SINCE 
-1.2517 CHANGED TODAY 
-0.0114 CHANGING FLEETS 
-0.1702 CHANNEL </s> 
-1.1201 CHANNEL ALERT 
-1.1201 CHANNEL CONVENTIONAL 
-1.1201 CHANNEL TURNING 
-1.1201 CHANNEL WITH 
-1.9092 CHART ADDING 
-1.6005 CHART AGAIN 
-1.4736 CHART CENTERED 
-2.0932 CHART DELETING 
-2.0932 CHART DISPLAY 
-2.0932 CHART DISPLAYING 
-2.0932 CHART INCREASING 
-0.1755 CHART OF 
-1.7804 CHART ON 
-1.6005 CHART PARAMETER 
-2.0932 CHART PARAMETERS 
-2.0932 CHART PROJECTION 
-1.6005 CHART SWITCH 
-1.6812 CHART SWITCHES 
-2.0932 CHART USING 
-0.9578 CHART WITH 
-0.0076 CHARTS </s> 
-0.6764 CHATTAHOOCHEE </s> 
-1.0018 CHATTAHOOCHEE BE 
-0.6764 CHATTAHOOCHEE HAS 
-1.0018 CHATTAHOOCHEE HAVE 
-1.0018 CHATTAHOOCHEE POWERED 
-0.6764 CHATTAHOOCHEE REPORTING 
-0.0231 CHATTAHOOCHEE'S PROPULSION 
-0.5003 CHESHIRE </s> 
-0.5003 CHESHIRE ALERT 
-0.5003 CHESHIRE AREA 
-0.0685 CHINA SEA 
-0.8542 CHINA WITH 
-0.6174 CHOP FROM 
-0.1300 CHOP TO 
-0.4241 CHOPPED FROM 
-0.2165 CHOPPED TO 
-0.0065 CHOPPING TO 
-0.3242 CIRCLE AND 
-0.3242 CIRCLE TOGGLED 
-0.2545 CITRUS </s> 
-0.5672 CITRUS HAD 
-0.8927 CITRUS MORE 
-0.5003 CITRUS'S CURRENT 
-0.5003 CITRUS'S EARLIEST 
-0.5003 CITRUS'S PROPULSION 
-0.5003 CITY </s> 
-0.5003 CITY AT 
-0.5003 CITY DURING 
-0.9774 CLEAR ALL 
-0.9774 CLEAR CHARTS 
-0.9774 CLEAR DATA 
-0.9774 CLEAR OVERLAYS 
-1.3029 CLEAR SCREEN 
-0.4167 CLEAR THE 
-0.9774 CLEAR WINDOWS 
-0.0065 CLEARED </s> 
-0.5247 CLEARING GRILL 
-0.1992 CLEARING OVERLAYS 
-0.2787 CLEVELAND </s> 
-0.8982 CLEVELAND ARE 
-1.2237 CLEVELAND ARRIVE 
-0.8982 CLEVELAND HAVE 
-0.8982 CLEVELAND NEARER 
-0.3242 CLEVELAND'S DISTANCE 
-0.3242 CLEVELAND'S MOST 
-0.0076 CLOSE IS 
-0.2487 CLOSER THAN 
-0.3756 CLOSER TO 
-0.0030 CLOSEST TO 
-0.2371 CODAG </s> 
-0.4211 CODAG PROPELLED 
-0.3242 CODE FOR 
-0.3242 CODE ON 
-0.0045 CODES FOR 
-0.3434 COLOR FOR 
-0.2753 COLOR OF 
-0.0231 COMPARED TO 
-0.5003 CONFIDENCE </s> 
-0.5003 CONFIDENCE CHOPPED 
-0.5003 CONFIDENCE DIESEL 
-0.8927 CONFIDENCE'S AAW 
-0.5672 CONFIDENCE'S ARRIVAL 
-0.5672 CONFIDENCE'S DISTANCE 
-0.5672 CONFIDENCE'S THREATS 
-0.1156 CONIFER </s> 
-0.6764 CONIFER THAN 
-0.6252 CONIFER'S ARRIVAL 
-0.6252 CONIFER'S CURRENT 
-0.6252 CONIFER'S DISTANCE 
-0.9507 CONIFER'S LAST 
-0.9507 CONIFER'S PRESENT 
-0.7221 CONQUEST </s> 
-1.0476 CONQUEST ARRIVED 
-0.7221 CONQUEST BE 
-0.7221 CONQUEST HAVE 
-0.7221 CONQUEST MORE 
-1.0476 CONQUEST THAT 
-0.0114 CONQUEST'S LAST 
-0.1875 CONSTANT </s> 
-0.5003 CONSTANT BE 
-0.5672 CONSTANT'S LOCATION 
-0.5672 CONSTANT'S PROPULSION 
-0.5672 CONSTANT'S TO 
-0.8927 CONSTANT'S TRAINING 
-0.7221 CONSTELLATION </s> 
-0.7221 CONSTELLATION ARRIVE 
-0.7221 CONSTELLATION GO 
-0.7221 CONSTELLATION LAST 
-0.7221 CONSTELLATION MORE 
-0.8682 CONSTELLATION'S C1 
-0.8682 CONSTELLATION'S FUEL 
-0.8682 CONSTELLATION'S GROSS 
-0.5555 CONSTELLATION'S LAST 
-0.8682 CONSTELLATION'S MAX 
-0.8682 CONSTELLATION'S TRACK 
-0.0076 CONVENTIONAL SURFACE 
-0.0076 COOK ISLANDS 
-0.6764 COPELAND DOWNGRADE 
-0.6764 COPELAND HAVE 
-0.6764 COPELAND ON 
-0.6764 COPELAND THE 
-1.0018 COPELAND UPDATED 
-0.5672 COPELAND'S FUEL 
-0.5672 COPELAND'S MOST 
-0.8927 COPELAND'S OLDEST 
-0.5672 COPELAND'S VISUAL 
-0.0017 CORAL SEA 
-0.5672 COULD ENTERPRISE 
-0.5672 COULD GLACIER 
-0.8927 COULD PLUNGER 
-0.5672 COULD THE 
-0.3486 COULDN'T CLEVELAND 
-0.3486 COULDN'T DIXON 
-0.7423 COUNT ALL 
-0.0937 COUNT THE 
-0.0114 COUNTED </s> 
-0.0231 COUNTING ONLY 
-0.5555 CROVL </s> 
-0.6843 CROVL FOR 
-0.3075 CROVL OF 
-0.0231 CROVLS AND 
-0.5796 CRUISER </s> 
-0.1440 CRUISER IN 
-0.0231 CRUISER'S ESTIMATED 
-1.3825 CRUISERS </s> 
-1.3825 CRUISERS AND 
-0.9777 CRUISERS ARE 
-1.5113 CRUISERS AT 
-2.0207 CRUISERS CHOPPED 
-1.3825 CRUISERS DEPLOYED 
-2.0207 CRUISERS HAVE 
-0.7204 CRUISERS IN 
-1.6952 CRUISERS RATED 
-0.4061 CRUISERS THAT 
-1.3825 CRUISERS WENT 
-1.3825 CRUISERS WERE 
-1.6952 CRUISERS WITH 
-0.1026 CRUISING SPEED 
-0.7221 CRUISING SPEEDS 
-1.0221 CURRENT LATITUDE 
-1.3349 CURRENT LOCATION 
-1.0221 CURRENT READINESS 
-0.2167 CURRENT SPEED 
-1.3349 CURRENT SPEEDS 
-1.0221 CURRENT SUPPLIES 
-0.0153 CURRENTLY IN 
-0.4211 DALE </s> 
-0.4211 DALE IN 
-0.7466 DALE LAST 
-0.5003 DALE'S ASUW 
-0.5003 DALE'S CURRENT 
-0.5003 DALE'S LAST 
-0.1875 DARWIN </s> 
-0.5003 DARWIN YESTERDAY 
-0.7011 DATA </s> 
-1.7433 DATA AND 
-1.7433 DATA CHANGE 
-1.4305 DATA DELETED 
-1.2506 DATA DISPLAYED 
-0.3888 DATA FOR 
-1.7433 DATA FROM 
-1.4305 DATA INCLUDED 
-1.7433 DATA NEWER 
-1.0720 DATA SCREEN 
-1.7433 DATA SCREENS 
-1.4305 DATA SHOWN 
-1.4305 DATA WINDOW 
-0.5797 DATE AND 
-0.3040 DATE FOR 
-0.6385 DATE ON 
-0.8982 DATED EARLIER 
-0.8982 DATED FOUR 
-0.8982 DATED MARCH 
-1.2237 DATED SEPTEMBER 
-0.8982 DATED SIX 
-0.4055 DATED TWENTY 
-0.1799 DATES FOR 
-0.9774 DATES OF 
-0.6646 DATES ON 
-0.8257 DAVIDSON </s> 
-0.5003 DAVIDSON BE 
-0.8257 DAVIDSON CHANGE 
-0.5003 DAVIDSON REPORTED 
-0.4094 DAVIDSON'S FUEL 
-0.7221 DAVIDSON'S LAST 
-0.7221 DAVIDSON'S LAT 
-0.7221 DAVIDSON'S MAX 
-0.4211 DAY COULD 
-0.2371 DAY IS 
-0.5233 DAYS SOONER 
-0.1647 DAYS WOULD 
-0.0114 DDD992 IN 
-0.3045 DECEMBER </s> 
-1.1371 DECEMBER EIGHTEEN 
-1.4626 DECEMBER ONE 
-1.1371 DECEMBER SECOND 
-1.1371 DECEMBER SEVEN 
-1.1371 DECEMBER SIXTEENTH 
-1.1371 DECEMBER TENTH 
-1.1371 DECEMBER THIRD 
-0.1325 DECREASE LETTER 
-0.6252 DECREASE THE 
-0.0057 DECREASED BY 
-0.3242 DECREASING LETTER 
-0.3242 DECREASING THE 
-0.0076 DEFAULT VALUES 
-0.0024 DEFAULTS </s> 
-0.2644 DEFINE A 
-0.6764 DEFINE AN 
-1.0018 DEFINE AREA 
-1.0018 DEFINE THE 
-0.0231 DEFINED TO 
-0.0153 DEFINING TIME 
-0.0045 DEFINITION OF 
-0.6252 DEFINITIONS INVOLVING 
-0.1325 DEFINITIONS OF 
-0.0114 DEGRADATION </s> 
-0.0091 DEGRADATIONS AND 
-0.5247 DEGRADE FROM 
-0.1992 DEGRADE ON 
-0.8361 DEGRADED IN 
-0.3434 DEGRADED ON 
-0.8361 DEGRADED SEVENTH 
-0.6521 DEGRADED TO 
-0.0153 DEGRADING </s> 
-0.9262 DEGREES EAST 
-0.9262 DEGREES FORTY 
-0.9262 DEGREES SEVENTEEN 
-0.9262 DEGREES SEVENTY 
-0.9262 DEGREES SIXTEEN 
-0.9262 DEGREES SOUTH 
-0.9262 DEGREES THIRTEEN 
-0.9262 DEGREES THIRTY 
-0.7635 DELETE ALL 
-0.5796 DELETE ANY 
-0.7635 DELETE VANDERGRIFT'S 
-0.7635 DELETE WADSWORTH'S 
-0.7635 DELETE WHIPPLE'S 
-0.0114 DELETED </s> 
-0.5672 DELETING HFDF 
-0.3833 DELETING SONAR 
-0.5672 DELETING THE 
-0.3124 DENVER </s> 
-0.6252 DENVER GET 
-0.6252 DENVER TO 
-0.6252 DENVER'S DISPLACEMENT 
-0.3124 DENVER'S LAST 
-0.6252 DENVER'S LATEST 
-0.8738 DEPLOYED </s> 
-1.4074 DEPLOYED AFTER 
-1.2786 DEPLOYED AS 
-1.4074 DEPLOYED BEFORE 
-1.5913 DEPLOYED FIVE 
-0.4909 DEPLOYED IN 
-1.0987 DEPLOYED ON 
-1.5913 DEPLOYED ONE 
-0.7588 DEPLOYED SINCE 
-1.5913 DEPLOYED SIXTEEN 
-1.5913 DEPLOYED THIRTY 
-1.4074 DEPLOYED TWENTY 
-0.4055 DEPLOYMENT DATE 
-0.2269 DEPLOYMENT DATES 
-0.6252 DEPLOYMENTS DURING 
-0.1325 DEPLOYMENTS OF 
-0.6764 DEPTH GREATER 
-0.1156 DEPTH LESS 
-0.5003 DEPTHS GREATER 
-0.1875 DEPTHS LESS 
-0.6577 DESTINATION </s> 
-1.3753 DESTINATION ARRIVAL 
-0.8146 DESTINATION AT 
-1.0626 DESTINATION BY 
-0.9634 DESTINATION FOR 
-0.7558 DESTINATION OF 
-1.0626 DESTINATION ON 
-1.0626 DESTINATION THE 
-1.7008 DESTINATION YET 
-0.2787 DESTINATIONS </s> 
-0.4862 DESTINATIONS AND 
-0.8982 DESTINATIONS FOR 
-0.9891 DID ANY 
-1.3019 DID BADGER 
-1.3019 DID CONQUEST 
-1.3019 DID DALE'S 
-1.6274 DID DAVIDSON 
-1.6274 DID EISENHOWER 
-1.3019 DID GUARDFISH 
-1.3019 DID KENNEDY 
-1.1180 DID MOB 
-1.3019 DID PEORIA'S 
-1.3019 DID PLUCK 
-1.3019 DID RECLAIMER'S 
-1.3019 DID REEVES 
-1.3019 DID SCHENECTADY 
-0.8899 DID THE 
-1.3019 DID WABASH 
-1.3019 DID YORKTOWN 
-0.4211 DIDN'T COPELAND 
-0.4211 DIDN'T PUFFER 
-0.7466 DIDN'T THE 
-0.0091 DIEGO-GARCIA </s> 
-0.8682 DIESEL </s> 
-0.8682 DIESEL INSTEAD 
-0.8682 DIESEL POWERED 
-0.8682 DIESEL PROPELLED 
-0.8682 DIESEL SURFACE 
-0.5555 DIESEL VESSELS 
-0.6526 DIM GREEN 
-0.5718 DIM ORANGE 
-0.6526 DIM RED 
-0.5718 DIM YELLOW 
-0.9145 DISPLACEMENT </s> 
-0.9145 DISPLACEMENT AND 
-1.2273 DISPLACEMENT GREATER 
-0.7346 DISPLACEMENT IN 
-1.2273 DISPLACEMENT LARGER 
-0.9145 DISPLACEMENT LESS 
-0.5097 DISPLACEMENT OF 
-0.8361 DISPLACEMENTS </s> 
-0.1647 DISPLACEMENTS FOR 
-0.8361 DISPLACEMENTS GREATER 
-1.5028 DISPLAY </s> 
-0.8407 DISPLAY A 
-1.8155 DISPLAY AJAX'S 
-1.8155 DISPLAY ALL 
-1.8155 DISPLAY APALACHICOLA'S 
-1.4036 DISPLAY CHART 
-2.1410 DISPLAY CONIFER'S 
-1.8155 DISPLAY DENVER'S 
-1.8155 DISPLAY DIXON'S 
-1.8155 DISPLAY DOWNES'S 
-1.8155 DISPLAY HAWKBILL'S 
-1.8155 DISPLAY INCREASING 
-1.8155 DISPLAY LENGTHS 
-1.8155 DISPLAY LOCATIONS 
-1.8155 DISPLAY METEOR'S 
-2.1410 DISPLAY MIDGETT'S 
-2.1410 DISPLAY MISSISSIPPI'S 
-1.8155 DISPLAY MONTICELLO'S 
-1.8155 DISPLAY NEW 
-1.8155 DISPLAY OVERLAYS 
-1.8155 DISPLAY PLUNGER'S 
-1.8155 DISPLAY POLLACK'S 
-1.8155 DISPLAY POSITIONS 
-1.5028 DISPLAY SPEED 
-1.5028 DISPLAY SWITCH 
-1.8155 DISPLAY THAILAND 
-0.4925 DISPLAY THE 
-1.1960 DISPLAY TRACKS 
-1.8155 DISPLAY WINDOW 
-0.2294 DISPLAYED </s> 
-0.4094 DISPLAYED IN 
-0.0231 DISPLAYING THE 
-0.0024 DISTANCE FROM 
-0.3086 DIXON </s> 
-0.6174 DIXON ARRIVE 
-0.6174 DIXON HAVE 
-0.5672 DIXON'S LATEST 
-0.3833 DIXON'S LENGTH 
-0.5672 DIXON'S TO 
-0.6764 DMDS PARAMETERS 
-0.1156 DMDS SWITCHES 
-0.2636 DO ANY 
-1.2135 DO FLASHER'S 
-1.2135 DO GUITARRO'S 
-0.9007 DO THE 
-0.7208 DO WE 
-1.3753 DOES CAMPBELL 
-1.3753 DOES COPELAND 
-0.9634 DOES DIXON 
-1.3753 DOES DOWNES 
-1.3753 DOES EISENHOWER 
-1.3753 DOES FREDERICK 
-1.3753 DOES FRESNO 
-1.3753 DOES HORNE 
-1.3753 DOES INCLUDING 
-1.3753 DOES KENNEDY 
-1.3753 DOES POUGHKEEPSIE 
-1.3753 DOES RECLAIMER 
-1.3753 DOES SHERMAN 
-1.0626 DOES THE 
-1.3753 DOES VANCOUVER 
-1.3753 DOES VANDERGRIFT 
-1.3753 DOES WADSWORTH 
-1.3753 DOES WASP 
-1.3753 DOES WHIPPLE 
-1.3753 DOES WILLAMETTE 
-0.6496 DOESN'T CHATTAHOOCHEE 
-0.3242 DOESN'T CLEVELAND 
-0.6496 DOESN'T THE 
-0.5382 DON'T END 
-0.4094 DON'T SHOW 
-0.5382 DON'T WE 
-0.5672 DOWNES </s> 
-0.5672 DOWNES HAVE 
-0.8927 DOWNES IN 
-0.5672 DOWNES WITHIN 
-0.6252 DOWNES'S </s> 
-0.6252 DOWNES'S FUEL 
-0.6252 DOWNES'S POSITION 
-0.6252 DOWNES'S TRACK 
-0.3242 DOWNGRADE FOR 
-0.3242 DOWNGRADE ON 
-0.2371 DOWNGRADED ON 
-0.4211 DOWNGRADED YET 
-0.7221 DRAFT </s> 
-0.7221 DRAFT GREATER 
-0.2294 DRAFT LARGER 
-0.3124 DRAFTS FOR 
-0.3124 DRAFTS OF 
-0.8222 DRAW A 
-0.7246 DRAW CHART 
-1.6197 DRAW CHINA 
-1.6197 DRAW DALE'S 
-1.9452 DRAW ENGLAND'S 
-1.9452 DRAW FIREBUSH'S 
-1.6197 DRAW FLINT'S 
-1.6197 DRAW FREDERICK'S 
-1.6197 DRAW HEPBURN'S 
-1.3070 DRAW ON 
-1.6197 DRAW PUFFER'S 
-1.6197 DRAW TEXAS'S 
-0.5573 DRAW THE 
-1.4358 DRAW TRACK 
-1.3070 DRAW TRACKS 
-1.6197 DRAW WEST 
-1.9452 DRAW WESTERN 
-0.0837 DUBUQUE </s> 
-0.8013 DUBUQUE AND 
-0.3242 DUBUQUE'S ASW 
-0.3242 DUBUQUE'S OLDEST 
-0.0038 DUE IN 
-0.6112 DURING JULY 
-1.0231 DURING LAST 
-1.0231 DURING MARCH 
-0.8392 DURING OCTOBER 
-0.4036 DURING THE 
-0.3756 EACH </s> 
-0.8682 EACH ARCTIC 
-1.1937 EACH CARRIER 
-0.8682 EACH EASTPAC 
-1.1937 EACH FRIGATE 
-0.8682 EACH SHIP 
-0.0050 EARLIER THAN 
-0.4599 EARLIEST CASREP 
-0.6398 EARLIEST CASUALTY 
-1.2780 EARLIEST DATE 
-0.9526 EARLIEST DEGRADATION 
-0.9526 EARLIEST DEPLOYMENT 
-0.9526 EARLIEST POSITS 
-0.0231 EARLY CAN 
-0.3485 EAST </s> 
-1.5390 EAST AND 
-1.2135 EAST ATLANTIC 
-1.2135 EAST BERING 
-1.5390 EAST BISMARK 
-1.2135 EAST CHINA 
-1.2135 EAST HONG-KONG 
-1.5390 EAST OF 
-0.9007 EAST PERSIAN 
-1.2135 EAST SOLOMON 
-0.0231 EASTERN MEXICO 
-0.1604 EASTPAC </s> 
-1.4093 EASTPAC DECEMBER 
-1.0838 EASTPAC FIVE 
-1.0838 EASTPAC SHIP 
-1.4093 EASTPAC THAT 
-1.4093 EASTPAC WENT 
-0.4211 EASTPAC'S CRUISERS 
-0.7466 EASTPAC'S FRIGATES 
-0.4211 EASTPAC'S SHIPS 
-0.0091 ECG041 </s> 
-0.0231 ECHO SWITCH 
-0.1799 ECONOMIC SPEED 
-0.4847 ECONOMIC SPEEDS 
-0.8682 EDIT ARABIAN 
-0.8682 EDIT LATITUDE 
-1.1937 EDIT OSGP 
-0.8682 EDIT SACRAMENTO'S 
-0.3075 EDIT THE 
-0.2545 EDITED POSITION 
-0.3833 EDITED TODAY 
-0.3242 EDITING POSITION 
-0.3242 EDITING THE 
-1.7288 EIGHT ALERTS 
-1.4034 EIGHT AUGUST 
-1.4034 EIGHT DAYS 
-1.4034 EIGHT DECEMBER 
-1.4034 EIGHT FEBRUARY 
-0.9914 EIGHT HUNDRED 
-1.4034 EIGHT KNOTS 
-1.2194 EIGHT LATITUDES 
-1.4034 EIGHT MAY 
-1.0906 EIGHT MONTHS 
-1.0906 EIGHT NOVEMBER 
-1.7288 EIGHT OCTOBER 
-1.4034 EIGHT POSITS 
-1.4034 EIGHT SHIPS 
-1.4034 EIGHT SOUTH 
-1.0906 EIGHT SUBMARINES 
-1.0906 EIGHT SUBS 
-1.0906 EIGHT WEEKS 
-0.9526 EIGHTEEN </s> 
-0.9526 EIGHTEEN AUGUST 
-0.9526 EIGHTEEN DECEMBER 
-1.2780 EIGHTEEN HUNDRED 
-0.7686 EIGHTEEN JANUARY 
-0.7686 EIGHTEEN KNOTS 
-0.9526 EIGHTEEN MILES 
-0.9526 EIGHTEEN SHIPS 
-0.4211 EIGHTEENTH </s> 
-0.4211 EIGHTEENTH MAY 
-0.7466 EIGHTEENTH OF 
-0.5003 EIGHTH </s> 
-0.5003 EIGHTH JULY 
-0.5003 EIGHTH OF 
-0.7055 EIGHTY FIVE 
-0.5068 EIGHTY FOUR 
-1.0822 EIGHTY ONE 
-0.9534 EIGHTY SIX 
-0.7735 EIGHTY THREE 
-0.9534 EIGHTY TWO 
-0.4885 EISENHOWER </s> 
-1.1268 EISENHOWER DUE 
-0.8013 EISENHOWER HAVE 
-0.8013 EISENHOWER MORE 
-1.1268 EISENHOWER REPORT 
-0.8013 EISENHOWER TO 
-0.6252 EISENHOWER'S </s> 
-0.6252 EISENHOWER'S OVERALL 
-0.6252 EISENHOWER'S RATING 
-0.6252 EISENHOWER'S SUPPLIES 
-0.6135 ELEVEN AUGUST 
-0.9262 ELEVEN FEBRUARY 
-0.9262 ELEVEN HUNDRED 
-0.4335 ELEVEN KNOTS 
-0.9262 ELEVEN OCTOBER 
-0.0476 ELEVENTH MARCH 
-0.4211 ELIZABETH </s> 
-0.7466 ELIZABETH AT 
-0.7466 ELIZABETH BY 
-0.7466 ELIZABETH DURING 
-0.7143 EMPLOYED </s> 
-0.1806 EMPLOYED BEFORE 
-0.8982 EMPLOYED IN 
-0.3163 END AT 
-0.8257 END THE 
-0.5003 END TIME 
-0.0231 ENDING AT 
-0.7466 ENGLAND AND 
-0.4211 ENGLAND ARRIVE 
-0.4211 ENGLAND ON 
-0.6252 ENGLAND'S </s> 
-0.9507 ENGLAND'S CAPABILITIES 
-0.9507 ENGLAND'S LAST 
-0.6252 ENGLAND'S LOCATIONS 
-0.6252 ENGLAND'S REMAINING 
-0.0231 ENGLISH </s> 
-0.0231 ENOUGH FUEL 
-0.0045 ENROUTE TO 
-0.2545 ENTERPRISE </s> 
-0.5672 ENTERPRISE GET 
-0.8927 ENTERPRISE REPORTED 
-0.5003 ENTERPRISE'S CASUALTY 
-0.8257 ENTERPRISE'S HOME 
-0.8257 ENTERPRISE'S LOCATIONS 
-0.5003 ENTERPRISE'S PROPULSION 
-0.8496 EQUIPMENT </s> 
-1.5672 EQUIPMENT C-RATING 
-1.5672 EQUIPMENT CASREPS 
-1.0745 EQUIPMENT CASUALTY 
-0.8496 EQUIPMENT PROBLEM 
-1.3833 EQUIPMENT PROBLEMS 
-1.5672 EQUIPMENT RATING 
-0.4319 EQUIPMENT READINESS 
-0.8959 EQUIPMENT RESOURCE 
-0.5247 EQUIPPED </s> 
-0.1992 EQUIPPED WITH 
-0.8927 ESTEEM CHOP 
-0.5672 ESTEEM ELEVEN 
-0.5672 ESTEEM NEXT 
-0.5672 ESTEEM TO 
-0.5672 ESTEEM'S ASW 
-0.5672 ESTEEM'S ESTIMATED 
-0.5672 ESTEEM'S LENGTH 
-0.8927 ESTEEM'S VARIOUS 
-1.0295 ESTIMATED ARRIVAL 
-0.0458 ESTIMATED TIME 
-0.0032 ETA AT 
-0.0231 ETR ON 
-0.0041 EVER GO 
-0.4211 EVERETT </s> 
-0.4211 EVERETT BY 
-0.7466 EVERETT NOW 
-0.0114 EXPECTED TO 
-0.2545 FANNING </s> 
-0.5672 FANNING GONE 
-0.8927 FANNING IN 
-0.1402 FANNING'S LAST 
-0.6496 FANNING'S PERCENT 
-0.0114 FAR IS 
-0.0153 FARTHER FROM 
-0.0231 FARTHEST FROM 
-0.2033 FAST AS 
-0.5889 FAST COULD 
-1.0009 FAST IS 
-0.0231 FASTER IS 
-0.5003 FASTEST CARRIERS 
-0.5003 FASTEST SHIP 
-0.5003 FASTEST SUBS 
-0.1174 FEBRUARY </s> 
-1.1992 FEBRUARY AND 
-1.1992 FEBRUARY FOUR 
-1.1992 FEBRUARY SEVEN 
-1.5247 FEBRUARY THIRTEENTH 
-0.0876 FEET </s> 
-0.7686 FEET LONG 
-0.0114 FFF088 </s> 
-1.0231 FIFTEEN AUGUST 
-0.7104 FIFTEEN FEBRUARY 
-1.0231 FIFTEEN HUNDRED 
-1.0231 FIFTEEN KILOMETERS 
-0.8392 FIFTEEN KNOTS 
-1.3486 FIFTEEN MAY 
-1.0231 FIFTEEN MILES 
-1.0231 FIFTEEN OCTOBER 
-1.3486 FIFTEEN SEPTEMBER 
-1.3486 FIFTEEN WEST 
-0.3242 FIFTEENTH </s> 
-0.3242 FIFTEENTH OF 
-0.2545 FIFTH </s> 
-0.5672 FIFTH AUGUST 
-0.8927 FIFTH OF 
-0.7221 FIFTY FOUR 
-0.7221 FIFTY FRIGATES 
-0.7221 FIFTY HOURS 
-0.7221 FIFTY KNOTS 
-0.7221 FIFTY SHIPS 
-0.0231 FIGURE </s> 
-0.0476 FIGURES FOR 
-0.3242 FIJI DEFINING 
-0.3242 FIJI WITH 
-1.4849 FIND ALL 
-1.6137 FIND ANY 
-1.7977 FIND AREA 
-1.4849 FIND AVERAGE 
-1.7977 FIND C4 
-1.7977 FIND CAPABILITIES 
-1.7977 FIND CRUISERS 
-2.1231 FIND ESTEEM'S 
-1.7977 FIND FRIGATES 
-2.1231 FIND GULF 
-1.7977 FIND INDEPENDENCE'S 
-1.6137 FIND LAST 
-1.3050 FIND LATITUDES 
-1.7977 FIND LOCATION 
-0.6972 FIND ME 
-1.4849 FIND MISSION 
-1.7977 FIND MOZAMBIQUE 
-2.1231 FIND POSITION 
-1.7977 FIND POSITIONS 
-1.7977 FIND RAMSEY'S 
-1.7977 FIND SATURDAY'S 
-1.4849 FIND SHIPS 
-1.7977 FIND SPEEDS 
-1.7977 FIND SPS-40 
-1.6137 FIND SUBMARINES 
-1.7977 FIND SUBS 
-1.7977 FIND TEXAS'S 
-0.6300 FIND THE 
-1.7977 FIND TRIPOLI'S 
-2.1231 FIND VESSELS 
-0.5003 FIREBUSH </s> 
-0.5003 FIREBUSH BE 
-0.8257 FIREBUSH LAST 
-0.8257 FIREBUSH THAT 
-0.4211 FIREBUSH'S ASW 
-0.7466 FIREBUSH'S LAST 
-0.4211 FIREBUSH'S VARIOUS 
-0.0091 FIRST OF 
-0.7912 FIVE </s> 
-1.4625 FIVE AUGUST 
-1.4625 FIVE DEGREES 
-0.9698 FIVE FEBRUARY 
-1.1497 FIVE HUNDRED 
-1.2785 FIVE JUNE 
-1.0505 FIVE KNOTS 
-1.4625 FIVE LATITUDES 
-1.4625 FIVE LOCATIONS 
-1.1497 FIVE MAY 
-1.4625 FIVE NORTH 
-1.4625 FIVE NOVEMBER 
-1.4625 FIVE OCTOBER 
-1.4625 FIVE PROBLEMS 
-1.4625 FIVE SHIPS 
-1.4625 FIVE THOUSAND 
-1.4625 FIVE WEEKS 
-1.4625 FIVE WORST 
-0.4401 FIXED </s> 
-0.2033 FIXED BY 
-0.5233 FLASHER </s> 
-0.8361 FLASHER AND 
-1.1615 FLASHER ARRIVE 
-0.8361 FLASHER ARRIVING 
-0.8361 FLASHER GO 
-0.8361 FLASHER UPDATED 
-0.3242 FLASHER'S ALERTS 
-0.6496 FLASHER'S EQUIPMENT 
-0.6496 FLASHER'S MAXIMUM 
-0.3917 FLEET </s> 
-1.9821 FLEET AFTER 
-1.6566 FLEET BY 
-1.6566 FLEET CARRIER 
-1.6566 FLEET CRUISERS 
-1.2446 FLEET FROM 
-1.6566 FLEET HAVE 
-1.9821 FLEET ID 
-1.4727 FLEET IDENTIFICATION 
-0.9853 FLEET IDENTIFICATIONS 
-0.9390 FLEET IN 
-1.9821 FLEET SHIPS 
-1.9821 FLEET SOON 
-1.3439 FLEET TO 
-1.3439 FLEET TODAY 
-1.3439 FLEET YET 
-0.0057 FLEETS </s> 
-0.6764 FLINT </s> 
-0.6764 FLINT BE 
-0.6764 FLINT BEEN 
-0.4924 FLINT TO 
-1.0018 FLINT'S CURRENT 
-0.6764 FLINT'S ESTIMATED 
-0.6764 FLINT'S LAST 
-0.6764 FLINT'S MAX 
-0.6764 FLINT'S VARIOUS 
-0.0231 FOOTER SWITCHES 
-1.3387 FOR ALL 
-1.4644 FOR ANY 
-2.3596 FOR APALACHICOLA'S 
-2.1757 FOR APRIL 
-2.3596 FOR ARABIAN 
-2.3596 FOR ARKANSAS'S 
-2.3596 FOR ASUW 
-2.3596 FOR BADGER 
-2.3596 FOR BAINBRIDGE'S 
-2.3596 FOR BASS 
-2.3596 FOR BIDDLE 
-2.0468 FOR BROOKE 
-2.6851 FOR BRUNSWICK 
-1.6420 FOR CARRIERS 
-2.0468 FOR CHART 
-2.3596 FOR CHATTAHOOCHEE 
-2.0468 FOR CLEVELAND 
-2.6851 FOR CONIFER 
-2.3596 FOR CONQUEST 
-2.3596 FOR CONSTELLATION 
-2.6851 FOR COPELAND 
-2.3596 FOR CORAL 
-2.3596 FOR CRUISERS 
-2.6851 FOR DAVIDSON 
-2.3596 FOR DAVIDSON'S 
-2.3596 FOR DENVER 
-2.3596 FOR DIESEL 
-2.3596 FOR DIXON 
-2.3596 FOR DUBUQUE 
-1.4946 FOR EACH 
-2.6851 FOR EASTPAC 
-2.3596 FOR EISENHOWER 
-2.0468 FOR ENTERPRISE 
-2.3596 FOR FANNING 
-2.1757 FOR FANNING'S 
-2.3596 FOR FIREBUSH 
-2.0468 FOR FLASHER 
-2.3596 FOR FOX 
-2.0468 FOR FRESNO 
-1.7401 FOR FRIGATES 
-2.1757 FOR GLACIER 
-2.3596 FOR GRIDLEY 
-2.0468 FOR GUITARRO 
-2.3596 FOR HECTOR 
-2.3596 FOR HEPBURN'S 
-2.3596 FOR HER 
-1.6420 FOR HOOKED 
-2.6851 FOR IRONWOOD 
-1.9476 FOR JARRETT 
-2.3596 FOR JARRETT'S 
-2.1757 FOR JASON 
-2.0468 FOR JUPITER 
-2.0468 FOR KISKA 
-2.1757 FOR LAST 
-2.6851 FOR LINK-11 
-2.3596 FOR M5 
-2.3596 FOR MERCURY 
-2.3596 FOR METEOR 
-2.3596 FOR MIDGETT 
-2.6851 FOR MISSISSIPPI 
-2.3596 FOR MOZAMBIQUE 
-2.6851 FOR NUCLEAR 
-2.3596 FOR PEORIA 
-2.3596 FOR PIGEON 
-2.1757 FOR PLH003 
-2.3596 FOR PUFFER 
-2.0468 FOR RAMSEY 
-2.3596 FOR RANGER 
-2.3596 FOR REASONER 
-2.6851 FOR REEVES 
-2.3596 FOR SASSAFRAS 
-2.6851 FOR SEA 
-2.6851 FOR SEAWOLF 
-2.3596 FOR SEVEN 
-2.3596 FOR SHASTA'S 
-2.3596 FOR SHERMAN 
-2.3596 FOR SHERMAN'S 
-1.1073 FOR SHIPS 
-2.3596 FOR SIBERIAN 
-2.3596 FOR SLQ-32 
-2.1757 FOR SOLOMON 
-2.6851 FOR SPS-40 
-2.3596 FOR SPS-48 
-2.3596 FOR STEAM 
-2.6851 FOR STERETT 
-2.3596 FOR SUBMARINES 
-1.7989 FOR SUBS 
-2.0468 FOR SWORDFISH 
-1.9476 FOR T-LAM 
-2.0468 FOR TEXAS 
-2.3596 FOR TFCC 
-0.9308 FOR THE 
-1.9476 FOR THIS 
-1.5270 FOR TRACK 
-1.6002 FOR TRACKS 
-2.3596 FOR TUSCALOOSA 
-1.5270 FOR USN 
-2.0468 FOR VANCOUVER 
-1.4644 FOR VESSELS 
-2.3596 FOR VIRGINIA 
-2.3596 FOR WABASH 
-2.3596 FOR WHIPPLE'S 
-2.3596 FOR WICHITA 
-2.1757 FOR WINAMAC 
-2.3596 FOR YORKTOWN 
-1.0231 FORMOSA </s> 
-1.3486 FORMOSA DELETING 
-0.0732 FORMOSA STRAIT 
-0.8013 FORTY AND 
-0.8013 FORTY DEGREES 
-1.1268 FORTY EIGHT 
-1.1268 FORTY KNOTS 
-0.8013 FORTY SIX 
-0.4885 FORTY TWO 
-0.6530 FOUR </s> 
-1.6029 FOUR APRIL 
-1.9284 FOUR CARRIERS 
-1.6029 FOUR CASREPS 
-1.6029 FOUR CRUISERS 
-1.6029 FOUR DAYS 
-1.6029 FOUR DEGREES 
-1.6029 FOUR EAST 
-1.6029 FOUR FEBRUARY 
-1.6029 FOUR FRIGATES 
-1.1102 FOUR HUNDRED 
-1.1910 FOUR JUNE 
-1.6029 FOUR KILOMETERS 
-1.9284 FOUR KNOTS 
-1.6029 FOUR LATITUDES 
-1.6029 FOUR LOCATIONS 
-1.6029 FOUR MARCH 
-1.6029 FOUR MILES 
-1.6029 FOUR MINUTES 
-1.6029 FOUR NINETEEN 
-1.6029 FOUR NORTH 
-1.1910 FOUR PROBLEMS 
-1.2902 FOUR SEPTEMBER 
-1.6029 FOUR SOUTH 
-1.9284 FOUR SUBS 
-1.6029 FOUR T-LAM 
-0.8361 FOURTEEN AUGUST 
-0.8361 FOURTEEN HUNDRED 
-0.6521 FOURTEEN JANUARY 
-0.8361 FOURTEEN JUNE 
-0.8361 FOURTEEN KNOTS 
-0.8361 FOURTEEN SHIPS 
-0.3242 FOURTEENTH </s> 
-0.3242 FOURTEENTH OF 
-0.4211 FOURTH </s> 
-0.2371 FOURTH OF 
-0.2545 FOX </s> 
-0.5672 FOX GET 
-0.8927 FOX IN 
-0.5672 FOX'S AVERAGE 
-0.5672 FOX'S CASUALTY 
-0.5672 FOX'S LAST 
-0.8927 FOX'S REMAINING 
-0.8013 FREDERICK </s> 
-0.8013 FREDERICK BEEN 
-0.8013 FREDERICK DISPLAYED 
-0.8013 FREDERICK GET 
-0.8013 FREDERICK HAVE 
-0.8013 FREDERICK TO 
-0.8927 FREDERICK'S </s> 
-0.5672 FREDERICK'S CURRENT 
-0.5672 FREDERICK'S LAST 
-0.5672 FREDERICK'S PROPULSION 
-0.0076 FRENCH POLYNESIA 
-0.2487 FRESNO </s> 
-0.8682 FRESNO DATED 
-0.8682 FRESNO HAVE 
-0.8682 FRESNO IN 
-0.6252 FRESNO'S </s> 
-0.6252 FRESNO'S AVERAGE 
-0.6252 FRESNO'S DESTINATION 
-0.6252 FRESNO'S TRACK 
-0.2644 FRIDAY </s> 
-0.3636 FRIDAY ARE 
-0.5003 FRIDAY'S CASUALTY 
-0.5003 FRIDAY'S PROBLEMS 
-0.5003 FRIDAY'S UPDATES 
-0.5406 FRIGATE </s> 
-0.1550 FRIGATE IN 
-0.0476 FRIGATE'S HOME 
-0.9540 FRIGATES </s> 
-1.7515 FRIGATES AND 
-1.2588 FRIGATES ARE 
-1.7515 FRIGATES AT 
-1.7515 FRIGATES BEEN 
-1.7515 FRIGATES DEPLOYED 
-1.7515 FRIGATES DURING 
-1.1908 FRIGATES HAVE 
-0.6333 FRIGATES IN 
-0.5122 FRIGATES THAT 
-1.3395 FRIGATES WERE 
-1.1908 FRIGATES WITH 
-1.7515 FRIGATES WITHIN 
-0.0231 FRIGATES'S PERSONNEL 
-1.5425 FROM </s> 
-1.4137 FROM ALEXANDRIA 
-1.7264 FROM ARKANSAS 
-1.4137 FROM ATLANTIC 
-1.7264 FROM BERING 
-1.7264 FROM BOMBAY 
-1.7264 FROM C1 
-1.7264 FROM C2 
-1.7264 FROM C4 
-1.7264 FROM CITRUS 
-1.7264 FROM CONSTANT 
-1.7264 FROM DIEGO-GARCIA 
-1.7264 FROM EISENHOWER 
-1.7264 FROM FIFTEEN 
-1.4137 FROM FRIDAY 
-1.7264 FROM GLACIER 
-2.0519 FROM HIS 
-1.5425 FROM KIRK 
-1.4137 FROM LAST 
-1.7264 FROM MISSISSIPPI 
-1.7264 FROM NAPLES 
-1.7264 FROM NEWCASTLE 
-1.7264 FROM PAC 
-1.7264 FROM PACFLT 
-1.4137 FROM PACIFIC 
-1.7264 FROM PEORIA 
-2.0519 FROM PLUCK 
-1.4137 FROM RADAR 
-1.7264 FROM RAMSEY 
-2.0519 FROM REASONER'S 
-2.0519 FROM SAMPLE'S 
-2.0519 FROM SAN-DIEGO 
-1.7264 FROM SCHENECTADY 
-1.7264 FROM SONAR 
-0.7765 FROM THE 
-2.0519 FROM VISUAL 
-1.7264 FROM WABASH 
-1.7264 FROM WESTPAC 
-1.7264 FROM WINAMAC 
-1.3756 FUEL </s> 
-1.1969 FUEL ABOARD 
-1.8682 FUEL CAPACITIES 
-0.3143 FUEL CAPACITY 
-1.5555 FUEL DOES 
-1.5555 FUEL GREATER 
-1.4563 FUEL INSUFFICIENT 
-1.5555 FUEL IS 
-1.0707 FUEL LEFT 
-1.8682 FUEL LESS 
-1.3756 FUEL LEVEL 
-1.3075 FUEL LEVELS 
-1.8682 FUEL STATUS 
-1.5555 FUEL THAN 
-1.4563 FUEL TO 
-0.9262 FULL LAT 
-0.4335 FULL LATITUDE 
-0.9262 FULL LOCATION 
-0.4335 FULL POSITION 
-0.0231 GALLONS </s> 
-0.3124 GALVESTON </s> 
-0.6252 GALVESTON BY 
-0.6252 GALVESTON MONDAY 
-0.7635 GAS OR 
-0.3515 GAS POWERED 
-0.7635 GAS PROPELLED 
-0.7635 GAS TURBINE 
-0.9957 GET A 
-1.6046 GET ALL 
-1.3970 GET ANY 
-2.0166 GET ASUW 
-2.0166 GET C3 
-2.3421 GET DEPLOYMENTS 
-2.0166 GET DESTINATIONS 
-2.0166 GET FRIGATES 
-1.8326 GET FROM 
-1.5239 GET FULL 
-2.0166 GET HEPBURN'S 
-2.0166 GET M-CODES 
-0.9541 GET ME 
-2.0166 GET MIW 
-1.8326 GET MOB 
-2.3421 GET PACIFIC 
-2.0166 GET PARAMETER 
-2.0166 GET PERSIAN 
-2.0166 GET PLUNGER'S 
-1.7038 GET POSITIONS 
-2.3421 GET PUFFER'S 
-2.0166 GET SEA 
-2.0166 GET SHERMAN'S 
-1.5239 GET SHIPS 
-2.3421 GET SPS-40 
-2.3421 GET SUBMARINES 
-2.0166 GET SUNDAY 
-2.0166 GET SUNDAY'S 
-2.0166 GET SWITCH 
-0.9161 GET THE 
-0.5964 GET TO 
-1.6046 GET USN 
-2.0166 GET VESSELS 
-1.7038 GET WHERE 
-1.6995 GIVE ANY 
-1.8835 GIVE AVERAGE 
-2.2090 GIVE BAINBRIDGE'S 
-2.2090 GIVE C-RATINGS 
-1.8835 GIVE C3 
-1.8835 GIVE CARRIERS 
-1.8835 GIVE CHATTAHOOCHEE'S 
-1.5707 GIVE CRUISERS 
-1.8835 GIVE FRIDAY'S 
-1.5707 GIVE FRIGATES 
-1.8835 GIVE GRIDLEY'S 
-1.8835 GIVE JASON'S 
-1.5707 GIVE LAST 
-1.8835 GIVE LATITUDES 
-1.8835 GIVE LOCATION 
-1.5707 GIVE MAX 
-0.4996 GIVE ME 
-1.8835 GIVE PERCENT 
-1.8835 GIVE POSITIONS 
-1.4715 GIVE REMARKS 
-1.8835 GIVE SHIPS 
-1.8835 GIVE SPEED 
-1.8835 GIVE SPEEDS 
-1.8835 GIVE SUBS 
-1.8835 GIVE SUNDAY'S 
-0.6715 GIVE THE 
-1.8835 GIVE THEIR 
-1.8835 GIVE TICONDEROGA'S 
-1.8835 GIVE TOMORROW'S 
-1.8835 GIVE TUESDAY'S 
-1.8835 GIVE VESSELS 
-0.1837 GLACIER </s> 
-1.0018 GLACIER AND 
-0.6764 GLACIER ARRIVE 
-0.3242 GLACIER'S DESTINATION 
-0.3242 GLACIER'S LATEST 
-0.0231 GNOMONIC PROJECTION 
-0.6881 GO FROM 
-0.1057 GO TO 
-0.3375 GOING </s> 
-0.2787 GOING TO 
-0.0057 GONE TO 
-0.0114 GREAT CIRCLE 
-0.0013 GREATER THAN 
-0.0745 GREATEST FUEL 
-0.8927 GREATEST VALUE 
-0.4094 GREEN </s> 
-0.7221 GREEN FOR 
-0.7221 GREEN TRACK 
-0.7221 GREEN WITH 
-0.0231 GRID PARAMETERS 
-0.0568 GRIDLEY </s> 
-1.0018 GRIDLEY DEGRADE 
-0.5672 GRIDLEY'S GROSS 
-0.8927 GRIDLEY'S MIW 
-0.5672 GRIDLEY'S REMAINING 
-0.5672 GRIDLEY'S TRACK 
-0.0065 GRILL </s> 
-0.1359 GROSS DISPLACEMENT 
-0.5889 GROSS DISPLACEMENTS 
-0.0114 GROUP NAMES 
-0.3242 GROUPS </s> 
-0.3242 GROUPS AND 
-0.7221 GUARDFISH </s> 
-0.7221 GUARDFISH BE 
-0.7221 GUARDFISH CHANGE 
-0.4094 GUARDFISH GOING 
-0.5672 GUARDFISH'S ALERTS 
-0.5672 GUARDFISH'S CAPABILITIES 
-0.8927 GUARDFISH'S ETA 
-0.5672 GUARDFISH'S MAXIMUM 
-0.1325 GUITARRO </s> 
-0.6252 GUITARRO IN 
-0.6764 GUITARRO'S </s> 
-0.6764 GUITARRO'S ALERTS 
-0.6764 GUITARRO'S ETA 
-1.0018 GUITARRO'S FLEET 
-0.6764 GUITARRO'S LATEST 
-0.0005 GULF OF 
-1.0890 HAD CAMDEN 
-1.0890 HAD ENGLAND'S 
-0.2028 HAD THE 
-0.7635 HAD VANDERGRIFT 
-0.8927 HALF FUEL 
-0.5672 HALF HER 
-0.5672 HALF OF 
-0.5672 HALF THEIR 
-0.3242 HARBOR AFTER 
-0.3242 HARBOR WITH 
-0.5082 HARPOON </s> 
-1.0009 HARPOON CAPABILITY 
-0.4401 HARPOON CAPABLE 
-1.0009 HARPOON INSTALLED 
-1.0009 HARPOON SHIPS 
-1.0218 HAS </s> 
-1.2017 HAS AAW 
-1.5145 HAS BADGER 
-1.5145 HAS BIDDLE 
-1.8400 HAS CAMDEN 
-1.5145 HAS CONFIDENCE 
-1.8400 HAS CONQUEST 
-1.5145 HAS DAVIDSON 
-1.5145 HAS FLINT 
-1.5145 HAS FREDERICK 
-1.8400 HAS GRIDLEY'S 
-1.5145 HAS HORNE 
-1.8400 HAS INDEPENDENCE 
-1.8400 HAS LINK-11 
-1.5145 HAS PEORIA 
-1.5145 HAS RECLAIMER'S 
-1.5145 HAS SHASTA 
-0.4141 HAS THE 
-1.5145 HAS TICONDEROGA 
-1.8400 HAS TRIPOLI 
-0.9507 HASN'T PLUNGER 
-0.6252 HASN'T SASSAFRAS 
-0.4413 HASN'T THE 
-0.6252 HASN'T VANCOUVER 
-1.6053 HAVE </s> 
-0.9946 HAVE A 
-1.0530 HAVE AN 
-1.3573 HAVE ANY 
-1.9180 HAVE ASW 
-1.2467 HAVE BEEN 
-1.4253 HAVE BOTH 
-1.9180 HAVE CASREPED 
-1.9180 HAVE CASUALTY 
-1.6053 HAVE CATEGORY 
-1.4253 HAVE CHANGED 
-1.9180 HAVE ENOUGH 
-1.9180 HAVE FUEL 
-1.7341 HAVE GONE 
-1.9180 HAVE GREATEST 
-1.9180 HAVE GROSS 
-1.6053 HAVE HARPOON 
-1.9180 HAVE LAMPS 
-1.2985 HAVE MORE 
-1.6053 HAVE NOT 
-1.2985 HAVE NTDS 
-1.6053 HAVE ON 
-2.2435 HAVE OPEN 
-1.6053 HAVE REMAINING 
-1.6053 HAVE REPORTED 
-2.2435 HAVE SLQ-32 
-1.9180 HAVE SPS-40 
-1.7341 HAVE SUFFICIENT 
-1.7341 HAVE T-LAM 
-1.9180 HAVE TACAN 
-1.9180 HAVE TAKEN 
-1.4253 HAVE TEST 
-1.6053 HAVE TFCC 
-1.4253 HAVE THE 
-1.6053 HAVE TO 
-1.9180 HAVE TWO 
-0.0065 HAVEN'T REPORTED 
-0.2371 HAWKBILL </s> 
-0.4211 HAWKBILL IN 
-0.5672 HAWKBILL'S ETA 
-0.8927 HAWKBILL'S LAST 
-0.5672 HAWKBILL'S MOST 
-0.5672 HAWKBILL'S TRACK 
-0.0231 HE LAST 
-0.0231 HE'S GOING 
-0.1552 HECTOR </s> 
-0.5672 HECTOR TO 
-0.6764 HECTOR'S EARLIEST 
-1.0018 HECTOR'S FLEET 
-0.6764 HECTOR'S MAX 
-0.6764 HECTOR'S PRESENT 
-0.6764 HECTOR'S TRACK 
-0.6764 HEPBURN </s> 
-0.6764 HEPBURN GOING 
-0.6764 HEPBURN LESS 
-0.6764 HEPBURN REPORTED 
-1.0018 HEPBURN WITH 
-0.6252 HEPBURN'S CASUALTY 
-0.6252 HEPBURN'S FUEL 
-0.6252 HEPBURN'S LONGITUDE 
-0.6252 HEPBURN'S PERCENT 
-1.0326 HER </s> 
-1.0326 HER AVERAGE 
-1.3454 HER CURRENT 
-0.4804 HER DESTINATION 
-1.3454 HER ECONOMIC 
-1.3454 HER FLEET 
-1.0326 HER FUEL 
-1.6708 HER MAX 
-1.0326 HER MAXIMUM 
-1.6708 HER PRESENT 
-1.3454 HER REMAINING 
-1.3454 HER VARIOUS 
-0.0231 HERS </s> 
-0.0057 HFDF SENSOR 
-0.3756 HIGH </s> 
-0.2487 HIGH RESOLUTION 
-0.7635 HIGHER </s> 
-1.0890 HIGHER ON 
-0.1440 HIGHER THAN 
-0.0153 HIGHEST AVERAGE 
-0.0476 HIM </s> 
-0.3893 HIS DESTINATION 
-0.8013 HIS MAXIMUM 
-1.1268 HIS PREVIOUS 
-0.8013 HIS REMAINING 
-0.8013 HIS VARIOUS 
-0.0633 HOME PORT 
-0.8826 HOME PORTS 
-0.3242 HOMER </s> 
-0.3242 HOMER TACAN 
-0.5003 HONG-KONG INCREASING 
-0.1875 HONG-KONG WITH 
-0.5003 HONOLULU BY 
-0.5003 HONOLULU DURING 
-0.5003 HONOLULU TWENTY 
-1.1201 HOOKED </s> 
-0.2875 HOOKED PORT 
-0.4025 HOOKED TRACK 
-1.0476 HORNE </s> 
-0.4094 HORNE DUE 
-0.7221 HORNE HAVE 
-0.7221 HORNE REPORTED 
-1.0476 HORNE WILL 
-0.3242 HORNE'S CAT-3 
-0.3242 HORNE'S IN 
-0.9262 HOUR AT 
-0.6135 HOUR EARLIER 
-0.9262 HOUR FOR 
-0.6135 HOUR IN 
-0.6135 HOUR OF 
-0.2507 HOURS </s> 
-1.3132 HOURS ON 
-0.4180 HOURS ZULU 
-1.7950 HOW BAD 
-1.6150 HOW CLOSE 
-2.1077 HOW EARLY 
-1.7950 HOW FAR 
-1.5470 HOW FAST 
-2.1077 HOW LARGE 
-0.9895 HOW LONG 
-0.2492 HOW MANY 
-1.3102 HOW MUCH 
-2.4332 HOW NEAR 
-1.7950 HOW OLD 
-1.7950 HOW SLOW 
-2.1077 HOW SMALL 
-0.8685 HOW SOON 
-0.6594 HUNDRED </s> 
-1.2419 HUNDRED FEET 
-0.2655 HUNDRED HOURS 
-1.5546 HUNDRED LONG 
-1.2419 HUNDRED METERS 
-1.5546 HUNDRED ON 
-1.5546 HUNDRED TO 
-1.5546 HUNDRED ZULU 
-0.1325 ICE-NINE </s> 
-0.6252 ICE-NINE THAN 
-0.0476 ID </s> 
-0.0153 IDENTIFICATION THE 
-0.6764 IDENTIFICATIONS </s> 
-0.1156 IDENTIFICATIONS FOR 
-1.1023 IF AJAX'S 
-1.1023 IF CITRUS 
-1.4278 IF FLASHER'S 
-1.1023 IF NUCLEAR 
-1.1023 IF PLUNGER 
-1.1023 IF QUEENFISH 
-1.4278 IF SHE 
-1.1023 IF STEAM 
-0.3847 IF THE 
-2.3162 IN </s> 
-2.2170 IN AAW 
-2.1363 IN ABERDEEN 
-2.1363 IN ALEXANDRIA 
-2.9545 IN ANCHORAGE 
-1.7640 IN ARABIAN 
-1.9114 IN ARCTIC 
-2.4450 IN ASTORIA 
-1.8315 IN ATLANTIC 
-1.7640 IN BASS 
-1.4613 IN BERING 
-1.9114 IN BISMARK 
-2.6290 IN BOMBAY 
-1.8315 IN BRIGHT 
-2.3162 IN CENTER 
-1.6081 IN CHINA 
-1.9114 IN CORAL 
-2.6290 IN DATA 
-2.1363 IN DIM 
-2.2170 IN EAST 
-1.6541 IN EASTPAC 
-1.8696 IN EIGHTY 
-2.4450 IN EVERETT 
-2.0095 IN FORMOSA 
-2.0095 IN GALVESTON 
-1.1368 IN GULF 
-2.1363 IN HIGH 
-1.5665 IN HOME 
-2.6290 IN HOMER 
-2.1363 IN HONOLULU 
-2.1363 IN HOOKED 
-1.7964 IN INDIAN 
-2.3162 IN JANUARY 
-2.2170 IN JULY 
-2.9545 IN KODIAK 
-1.9114 IN KOREAN 
-2.3162 IN LONG 
-2.6290 IN LOW 
-2.3162 IN MANCHESTER 
-2.3162 IN MANILA 
-2.6290 IN METERS 
-2.3162 IN METRIC 
-2.6290 IN MIAMI 
-1.8315 IN MIDPAC 
-2.6290 IN MOB 
-1.9577 IN MOZAMBIQUE 
-2.1363 IN NEW-YORK 
-2.6290 IN NEWCASTLE 
-1.7640 IN NINETEEN 
-2.6290 IN NOME 
-2.0095 IN NORTH 
-2.6290 IN NOVEMBER 
-2.6290 IN OAKLAND 
-2.6290 IN OLYMPIA 
-2.6290 IN PACFLT 
-1.3399 IN PACIFIC 
-2.3162 IN PEARL 
-2.2170 IN PERSIAN 
-2.6290 IN PERSONNEL 
-2.6290 IN PHILIPPINE 
-1.1442 IN PORT 
-1.8315 IN ROSS 
-2.1363 IN SAN-DIEGO 
-1.6305 IN SEA 
-2.6290 IN SEPTEMBER 
-1.9114 IN SIBERIAN 
-2.4450 IN SIDNEY 
-2.2170 IN SOLOMON 
-2.0683 IN SOUTH 
-1.9577 IN SUBIC 
-0.8354 IN THE 
-2.1363 IN THEIR 
-2.3162 IN TOKYO 
-2.6290 IN TONS 
-2.9545 IN TOWNSVILLE 
-2.9545 IN WELLINGTON 
-1.8696 IN WEST 
-1.4936 IN WESTPAC 
-2.4450 IN WHICH 
-1.7964 IN YELLOW 
-0.6252 INCLUDE ICE-NINE 
-0.3124 INCLUDE OSGP 
-0.6252 INCLUDE TFCC 
-0.0114 INCLUDED </s> 
-0.0231 INCLUDING YESTERDAY'S 
-0.0076 INCREASE LETTER 
-0.0231 INCREASED ITS 
-0.0057 INCREASING LETTER 
-0.5003 INDEPENDENCE BE 
-0.8257 INDEPENDENCE BEEN 
-0.8257 INDEPENDENCE GET 
-0.5003 INDEPENDENCE REPORTING 
-0.7221 INDEPENDENCE'S AAW 
-0.7221 INDEPENDENCE'S ALERTS 
-0.7221 INDEPENDENCE'S BEAM 
-0.7221 INDEPENDENCE'S PERSONNEL 
-0.7221 INDEPENDENCE'S SUPPLIES 
-0.0024 INDIAN OCEAN 
-0.0231 INDONESIA WITH 
-0.0153 INFORMATION FOR 
-0.4885 INSTALLED </s> 
-0.4885 INSTALLED ABOARD 
-0.4885 INSTALLED ON 
-0.0114 INSTEAD OF 
-0.0091 INSUFFICIENT TO 
-0.0153 INVOLVED </s> 
-0.8682 INVOLVING APALACHICOLA 
-0.8682 INVOLVING CITRUS 
-0.8682 INVOLVING CLEVELAND 
-0.8682 INVOLVING FRESNO 
-0.8682 INVOLVING JUPITER 
-0.5555 INVOLVING THE 
-0.2644 IRONWOOD </s> 
-0.3636 IRONWOOD BE 
-0.8927 IRONWOOD'S </s> 
-0.5672 IRONWOOD'S AVERAGE 
-0.5672 IRONWOOD'S FLEET 
-0.5672 IRONWOOD'S PRESENT 
-1.7951 IS </s> 
-2.1537 IS ABOARD 
-2.1537 IS AJAX 
-2.4664 IS ANYBODY 
-2.7919 IS APALACHICOLA 
-2.1537 IS APALACHICOLA'S 
-2.4664 IS ARKANSAS 
-2.1537 IS BADGER 
-2.1537 IS BADGER'S 
-2.4664 IS BAINBRIDGE'S 
-2.4664 IS BIDDLE 
-2.2825 IS BIDDLE'S 
-2.4664 IS BOMBAY 
-2.1537 IS BROOKE 
-1.9057 IS BROOKE'S 
-2.4664 IS C1 
-2.1537 IS C2 
-2.4664 IS C4 
-2.4664 IS CAMDEN 
-2.4664 IS CAMPBELL 
-2.7919 IS CHATTAHOOCHEE 
-2.1537 IS CITRUS'S 
-2.4664 IS CLEVELAND 
-2.4664 IS CLEVELAND'S 
-2.1537 IS CLOSEST 
-2.4664 IS CONFIDENCE 
-2.1537 IS CONFIDENCE'S 
-2.0544 IS CONIFER'S 
-2.4664 IS CONQUEST'S 
-2.4664 IS COPELAND 
-2.7919 IS COPELAND'S 
-2.4664 IS DALE 
-2.4664 IS DAVIDSON'S 
-2.1537 IS DENVER'S 
-2.2825 IS DIXON'S 
-2.4664 IS DOWNES 
-2.4664 IS DUBUQUE'S 
-2.2825 IS EISENHOWER 
-2.1537 IS EISENHOWER'S 
-2.4664 IS ENGLAND'S 
-1.9737 IS ESTEEM'S 
-2.4664 IS FARTHEST 
-2.4664 IS FIREBUSH'S 
-2.4664 IS FLASHER 
-2.2825 IS FLINT'S 
-2.7919 IS FOX'S 
-2.4664 IS FRESNO'S 
-2.4664 IS GRIDLEY'S 
-2.1537 IS GUARDFISH 
-2.4664 IS GUARDFISH'S 
-2.4664 IS GUITARRO 
-2.2825 IS GUITARRO'S 
-2.4664 IS HAWKBILL'S 
-2.4664 IS HECTOR'S 
-2.4664 IS HEPBURN 
-2.4664 IS HOOKED 
-2.4664 IS HORNE 
-2.1537 IS IN 
-2.1537 IS INDEPENDENCE'S 
-2.7919 IS INVOLVED 
-2.1537 IS IRONWOOD'S 
-1.9057 IS IT 
-2.2825 IS JARRETT 
-2.4664 IS JARRETT'S 
-2.2825 IS JARVIS'S 
-2.4664 IS JASON'S 
-2.7919 IS JUPITER 
-2.2825 IS JUPITER'S 
-2.4664 IS KENNEDY 
-2.2825 IS KIRK'S 
-2.4664 IS LAMPS 
-2.4664 IS LENINGRAD 
-2.4664 IS LOCKWOOD 
-2.4664 IS LOCKWOOD'S 
-2.2825 IS M5 
-2.4664 IS MANHATTAN'S 
-2.1537 IS MARS'S 
-2.4664 IS MCCLUSKY 
-2.4664 IS MERCURY'S 
-2.0544 IS MIDGETT'S 
-2.4664 IS MIDWAY 
-2.1537 IS MISHAWAKA'S 
-2.0544 IS MISSISSIPPI'S 
-1.9057 IS MORE 
-2.4664 IS NASHUA 
-2.4664 IS NASHUA'S 
-1.8469 IS NEAREST 
-2.4664 IS PEORIA'S 
-2.7919 IS PIGEON 
-2.7919 IS PLUCK'S 
-2.2825 IS PLUNGER 
-2.4664 IS POLLACK 
-2.7919 IS POLLACK'S 
-2.4664 IS PRAIRIE 
-2.4664 IS PRAIRIE'S 
-2.4664 IS PRESENT 
-2.4664 IS PUFFER 
-2.4664 IS PUFFER'S 
-2.7919 IS QUEENFISH 
-1.9737 IS QUEENFISH'S 
-2.2825 IS RAMSEY 
-2.1537 IS RANGER'S 
-2.7919 IS RATHBURNE'S 
-2.7919 IS REASONER'S 
-2.4664 IS RECLAIMER 
-2.4664 IS REEVES'S 
-2.4664 IS SAMPLE 
-2.4664 IS SAMPLE'S 
-2.4664 IS SASSAFRAS'S 
-2.2825 IS SCHENECTADY 
-2.7919 IS SCHENECTADY'S 
-2.4664 IS SEAWOLF 
-2.4664 IS SEAWOLF'S 
-2.4664 IS SHERMAN'S 
-2.7919 IS SIDNEY 
-2.1537 IS STERETT 
-2.4664 IS SWORDFISH'S 
-2.4664 IS TASM 
-0.4750 IS THE 
-1.3845 IS THERE 
-2.2825 IS TICONDEROGA 
-2.4664 IS TRIPOLI 
-2.4664 IS VANDERGRIFT'S 
-2.2825 IS VIRGINIA'S 
-2.4664 IS WABASH 
-2.7919 IS WABASH'S 
-2.4664 IS WASP 
-2.4664 IS WHIPPLE 
-2.7919 IS WHIPPLE'S 
-2.4664 IS WICHITA 
-2.4664 IS WICHITA'S 
-2.4664 IS WILLAMETTE 
-2.4664 IS WINAMAC 
-0.9526 ISLANDS </s> 
-0.6398 ISLANDS AGAIN 
-0.9526 ISLANDS DELETING 
-0.6398 ISLANDS USING 
-0.5406 ISLANDS WITH 
-0.0476 ISN'T FANNING 
-0.9196 IT AROUND 
-1.4123 IT BE 
-1.0003 IT BETWEEN 
-1.4123 IT FROM 
-1.4123 IT HAVE 
-1.2284 IT MAKING 
-0.2294 IT TAKE 
-0.5003 ITS AVERAGE 
-0.5003 ITS DESTINATION 
-0.5003 ITS PRESENT 
-0.2064 JANUARY </s> 
-1.2273 JANUARY FIFTEENTH 
-0.7346 JANUARY HAVE 
-1.2273 JANUARY SEVENTH 
-1.2273 JANUARY SIXTEEN 
-0.3947 JAPAN </s> 
-1.2273 JAPAN AS 
-1.2273 JAPAN CARRIERS 
-1.2273 JAPAN CRUISERS 
-0.9145 JAPAN HAVE 
-1.2273 JAPAN IN 
-1.2273 JAPAN ON 
-1.5527 JAPAN TO 
-1.2273 JAPAN TWELVE 
-1.2273 JAPAN WITH 
-0.1614 JARRETT </s> 
-1.0476 JARRETT AT 
-0.7221 JARRETT EXPECTED 
-0.5003 JARRETT'S DESTINATION 
-0.5003 JARRETT'S EARLIEST 
-0.5003 JARRETT'S POSITION 
-0.4413 JARVIS </s> 
-0.6252 JARVIS BE 
-0.6252 JARVIS CHOPPED 
-0.9507 JARVIS TO 
-0.5672 JARVIS'S </s> 
-0.5672 JARVIS'S CASUALTY 
-0.8927 JARVIS'S M-RATING 
-0.5672 JARVIS'S MAXIMUM 
-0.1837 JASON </s> 
-1.0018 JASON THAT 
-0.6764 JASON TO 
-0.3242 JASON'S CASUALTY 
-0.3242 JASON'S TRAINING 
-0.0639 JULY </s> 
-1.1992 JULY FOURTH 
-1.1992 JULY TWENTY 
-0.0663 JUNE </s> 
-1.1845 JUNE FOURTEENTH 
-1.1845 JUNE NINTH 
-0.1507 JUPITER </s> 
-1.1937 JUPITER BE 
-1.1937 JUPITER FROM 
-0.8682 JUPITER GET 
-0.4211 JUPITER'S </s> 
-0.4211 JUPITER'S MAX 
-0.7466 JUPITER'S PERSONNEL 
-0.5555 KENNEDY </s> 
-0.8682 KENNEDY AT 
-0.5555 KENNEDY HAVE 
-0.8682 KENNEDY LAST 
-0.8682 KENNEDY THAT 
-0.3242 KENNEDY'S EQUIPMENT 
-0.3242 KENNEDY'S TRAINING 
-0.6252 KILOMETER FROM 
-0.1325 KILOMETER OF 
-0.5516 KILOMETERS </s> 
-1.0443 KILOMETERS ARE 
-1.0443 KILOMETERS FROM 
-0.4836 KILOMETERS IS 
-0.7316 KILOMETERS OF 
-0.1647 KIRK </s> 
-0.8361 KIRK AND 
-0.8361 KIRK GET 
-0.4413 KIRK'S </s> 
-0.6252 KIRK'S ARRIVAL 
-0.9507 KIRK'S CURRENT 
-0.6252 KIRK'S OVERALL 
-0.1647 KISKA </s> 
-0.8361 KISKA DEGRADED 
-0.8361 KISKA NEXT 
-0.1552 KISKA'S </s> 
-0.5672 KISKA'S ARRIVAL 
-0.0231 KNOT </s> 
-0.1200 KNOTS </s> 
-0.9729 KNOTS ARE 
-1.0721 KNOTS HAVE 
-1.3849 KNOTS OR 
-0.6252 KODIAK </s> 
-0.6252 KODIAK AT 
-0.6252 KODIAK BY 
-0.6252 KODIAK YET 
-0.6252 KOREA DECREASING 
-0.6252 KOREA INCREASING 
-0.3124 KOREA WITH 
-0.0028 KOREAN BAY 
-0.4241 LAMPS CAPABLE 
-0.5233 LAMPS CRUISERS 
-0.5233 LAMPS INSTALLED 
-0.1875 LANTFLT </s> 
-0.5003 LANTFLT SOON 
-0.0231 LARGE IS 
-0.8013 LARGER </s> 
-0.0837 LARGER THAN 
-0.5672 LARGEST DISPLACEMENT 
-0.1552 LARGEST FUEL 
-1.6622 LAST ALERT 
-1.7910 LAST CASUALTY 
-1.9750 LAST DATE 
-1.9750 LAST DEGRADATION 
-1.9750 LAST DEPLOYMENT 
-1.9750 LAST DOWNGRADE 
-1.1424 LAST EIGHT 
-1.9750 LAST FIFTY 
-1.4823 LAST FIVE 
-2.3004 LAST FORTY 
-1.5630 LAST FOUR 
-1.9750 LAST HFDF 
-1.3036 LAST IN 
-1.9750 LAST LAT 
-1.6622 LAST LAT-LON 
-1.4142 LAST LATITUDE 
-1.4142 LAST LOCATION 
-2.3004 LAST LONGITUDE 
-1.3554 LAST MONTH 
-1.5630 LAST MONTH'S 
-1.6622 LAST NINE 
-1.9750 LAST NINETEEN 
-1.9750 LAST POSIT 
-1.3554 LAST POSITION 
-1.3554 LAST REPORT 
-1.3036 LAST REPORTED 
-1.7910 LAST SATURDAY 
-1.5630 LAST SEVEN 
-1.9750 LAST SEVENTY 
-1.0798 LAST SIX 
-1.9750 LAST SIXTEEN 
-1.3554 LAST THREE 
-1.9750 LAST TWENTY 
-2.3004 LAST TWO 
-1.6622 LAST UPDATE 
-1.6622 LAST WEEK 
-1.2574 LAST WEEK'S 
-1.7910 LAST YEAR 
-0.1875 LAT AND 
-0.5003 LAT IN 
-0.3242 LAT-LON CLOSER 
-0.3242 LAT-LON WITHIN 
-0.0231 LAT-LONS USING 
-0.0050 LATER THAN 
-1.1371 LATEST CASREPED 
-0.8243 LATEST CASUALTY 
-1.1371 LATEST DATE 
-0.7251 LATEST DEPLOYMENT 
-0.8243 LATEST LATITUDE 
-1.4626 LATEST POSIT 
-0.8243 LATEST POSITION 
-0.8243 LATEST PROBLEM 
-1.3163 LATITUDE </s> 
-0.0466 LATITUDE AND 
-1.5003 LATITUDE DATA 
-1.8257 LATITUDE NEARER 
-0.0305 LATITUDES AND 
-1.2135 LATITUDES FOR 
-0.1875 LATS AND 
-0.5003 LATS FOR 
-0.0231 LEAST FUEL 
-0.0038 LEFT </s> 
-0.8361 LENGTH AND 
-0.8361 LENGTH GREATER 
-0.4241 LENGTH LESS 
-0.5233 LENGTH MORE 
-0.0057 LENGTHS AND 
-0.5003 LENINGRAD </s> 
-0.5003 LENINGRAD THAN 
-0.5003 LENINGRAD THE 
-0.8241 LESS </s> 
-0.0729 LESS THAN 
-0.0012 LETTER SIZE 
-0.4563 LETTERS DECREASED 
-0.4563 LETTERS ONE 
-0.5555 LETTERS SIZE 
-0.5003 LEVEL </s> 
-0.1875 LEVEL AND 
-0.0065 LEVELS FOR 
-0.9774 LINK-11 </s> 
-0.7934 LINK-11 CAPABILITY 
-0.4167 LINK-11 CAPABLE 
-0.9774 LINK-11 CARRIER 
-0.9774 LINK-11 CARRIERS 
-0.9774 LINK-11 FRIGATE 
-1.5170 LIST ALL 
-1.2576 LIST ANY 
-1.9289 LIST BEAMS 
-1.9289 LIST C1 
-1.9289 LIST C4 
-1.9289 LIST C5 
-1.9289 LIST CAMPBELL'S 
-1.9289 LIST CARRIERS 
-1.9289 LIST CITRUS'S 
-1.9289 LIST CONFIDENCE'S 
-1.9289 LIST CURRENT 
-1.9289 LIST DATES 
-1.9289 LIST DEGRADATIONS 
-1.6162 LIST DEPLOYMENTS 
-1.9289 LIST DESTINATIONS 
-1.9289 LIST FOX'S 
-1.9289 LIST FRIGATES 
-1.9289 LIST GROUP 
-1.9289 LIST HARPOON 
-1.9289 LIST LENGTH 
-2.2544 LIST LOCATION 
-2.2544 LIST LOCATIONS 
-1.9289 LIST LONGITUDES 
-1.9289 LIST M-CODES 
-1.6162 LIST MAXIMUM 
-1.9289 LIST MCCLUSKY'S 
-1.9289 LIST MIDPAC'S 
-2.2544 LIST MIW 
-1.4363 LIST NAMES 
-0.6282 LIST OF 
-1.9289 LIST PACFLT 
-1.9289 LIST PACIFIC 
-2.2544 LIST RESOURCE 
-2.2544 LIST SACRAMENTO'S 
-2.2544 LIST SENSORS 
-1.4363 LIST SHIPS 
-2.2544 LIST SLQ-32 
-2.2544 LIST SPEED 
-2.2544 LIST SUBS 
-0.8107 LIST THE 
-1.9289 LIST TOMORROW'S 
-1.9289 LIST TUESDAY'S 
-1.6162 LIST USN 
-2.2544 LIST VESSELS 
-0.0057 LOCATED IN 
-1.1652 LOCATION </s> 
-1.0660 LOCATION AND 
-1.1652 LOCATION CLOSER 
-0.4155 LOCATION DATA 
-1.8035 LOCATION DATE 
-1.4780 LOCATION IS 
-0.6454 LOCATION OF 
-1.4780 LOCATION ON 
-1.4780 LOCATION WITH 
-1.4780 LOCATION WITHIN 
-1.1201 LOCATIONS </s> 
-0.7081 LOCATIONS AND 
-0.5593 LOCATIONS FOR 
-0.8073 LOCATIONS IN 
-0.5593 LOCATIONS OF 
-1.0476 LOCKWOOD </s> 
-0.7221 LOCKWOOD CLOSER 
-0.7221 LOCKWOOD DATED 
-1.0476 LOCKWOOD EVER 
-0.7221 LOCKWOOD ON 
-0.7221 LOCKWOOD SUPPOSED 
-0.5672 LOCKWOOD'S </s> 
-0.5672 LOCKWOOD'S DESTINATION 
-0.8927 LOCKWOOD'S LAST 
-0.5672 LOCKWOOD'S LOCATION 
-0.0231 LON USING 
-1.3132 LONG </s> 
-0.9012 LONG BEFORE 
-1.3132 LONG DATA 
-1.1292 LONG IS 
-0.7525 LONG TONS 
-1.0004 LONG WILL 
-0.3898 LONG WOULD 
-0.1875 LONGER THAN 
-0.5003 LONGER WITH 
-0.5003 LONGEST FRIGATE 
-0.5003 LONGEST OF 
-0.5003 LONGEST SHIP 
-0.9322 LONGITUDE </s> 
-1.1802 LONGITUDE AND 
-1.1802 LONGITUDE CLOSER 
-0.4111 LONGITUDE DATA 
-1.8184 LONGITUDE FROM 
-1.4930 LONGITUDE IN 
-1.1802 LONGITUDE IS 
-0.9322 LONGITUDE OF 
-1.3090 LONGITUDE ON 
-1.4930 LONGITUDE WITH 
-1.4930 LONGITUDE WITHIN 
-1.5247 LONGITUDES </s> 
-0.8865 LONGITUDES AND 
-1.1992 LONGITUDES AVAILABLE 
-0.5279 LONGITUDES FOR 
-1.1992 LONGITUDES FROM 
-1.0153 LONGITUDES IN 
-0.5279 LONGITUDES OF 
-0.0114 LONS AND 
-0.2644 LOW </s> 
-0.3636 LOW RESOLUTION 
-0.8982 LOWER </s> 
-0.5854 LOWER FOR 
-0.5854 LOWER ON 
-0.4862 LOWER THAN 
-0.1552 LOWEST FUEL 
-0.5672 LOWEST VALUE 
-0.0057 M-CODE FOR 
-0.0057 M-CODES FOR 
-0.3242 M-RATING </s> 
-0.6496 M-RATING BELOW 
-0.6496 M-RATING ON 
-0.0476 M-RATINGS FOR 
-0.7896 M1 </s> 
-0.7896 M1 AFTER 
-0.2373 M1 ON 
-1.1023 M1 OR 
-0.8806 M2 AAW 
-0.5038 M2 IN 
-0.4450 M2 ON 
-1.0645 M2 OR 
-1.0645 M2 RATINGS 
-1.2517 M3 BEFORE 
-0.0310 M3 ON 
-0.4847 M4 </s> 
-0.6646 M4 IN 
-0.9774 M4 OR 
-0.4847 M4 UNTIL 
-1.0009 M5 ASUW 
-1.0009 M5 MIW 
-0.3813 M5 ON 
-0.8169 M5 OR 
-0.6881 M5 SINCE 
-0.7466 MADAGASCAR </s> 
-0.1083 MADAGASCAR WITH 
-0.0153 MADE THAT 
-0.2415 MAKE CHART 
-0.6881 MAKE LETTERS 
-0.6881 MAKE THE 
-0.5003 MAKING LETTER 
-0.5003 MAKING LETTERS 
-0.5003 MAKING THE 
-0.1875 MANCHESTER </s> 
-0.5003 MANCHESTER OF 
-0.1875 MANHATTAN </s> 
-0.8257 MANHATTAN ELEVENTH 
-0.8257 MANHATTAN IS 
-0.5003 MANHATTAN'S </s> 
-0.5003 MANHATTAN'S DISTANCE 
-0.5003 MANHATTAN'S LENGTH 
-0.3242 MANILA AFTER 
-0.3242 MANILA ON 
-1.5461 MANY CARRIERS 
-1.8588 MANY CAT-2 
-1.1875 MANY CRUISERS 
-1.1875 MANY DAYS 
-1.6749 MANY FEET 
-1.0263 MANY FRIGATES 
-1.8588 MANY HARPOON 
-1.5461 MANY IN 
-1.1875 MANY KILOMETERS 
-1.8588 MANY LAMPS 
-1.8588 MANY LINK-11 
-1.5461 MANY METRIC 
-1.8588 MANY MILES 
-1.8588 MANY NUCLEAR 
-1.5461 MANY OF 
-0.7070 MANY SHIPS 
-1.8588 MANY SLQ-32 
-1.8588 MANY SPS-40 
-2.1843 MANY SPS-48 
-1.8588 MANY SQQ-23 
-1.0613 MANY SUBMARINES 
-1.3661 MANY SUBS 
-1.8588 MANY T-LAM 
-2.1843 MANY TASM 
-1.2393 MANY VESSELS 
-1.6749 MANY YEARS 
-0.1026 MARCH </s> 
-1.1845 MARCH EIGHTH 
-1.1845 MARCH NINETEEN 
-1.1845 MARCH ONE 
-0.1156 MARS </s> 
-0.6764 MARS TO 
-0.7466 MARS'S FUEL 
-0.4211 MARS'S LAST 
-0.4211 MARS'S LENGTH 
-0.5797 MAX DRAFT 
-1.1992 MAX DRAFTS 
-0.5279 MAX SPEED 
-0.6385 MAX SPEEDS 
-0.8865 MAX VALUE 
-1.4855 MAXIMUM DRAFT 
-1.4855 MAXIMUM DRAFTS 
-0.3502 MAXIMUM SPEED 
-1.1728 MAXIMUM SPEEDS 
-0.4231 MAXIMUM SUSTAINED 
-1.4855 MAXIMUM VALUE 
-0.0716 MAY </s> 
-0.8407 MAY AND 
-0.3124 MCCLUSKY </s> 
-0.9507 MCCLUSKY HAVE 
-0.6252 MCCLUSKY NUCLEAR 
-0.9507 MCCLUSKY REPORTED 
-0.5672 MCCLUSKY'S </s> 
-0.5672 MCCLUSKY'S AND 
-0.8927 MCCLUSKY'S LATITUDE 
-0.5672 MCCLUSKY'S SLQ-32 
-0.8596 ME A 
-1.8805 ME ALERTS 
-1.2609 ME ALL 
-1.8805 ME ANY 
-1.8805 ME BEAMS 
-1.5677 ME C4 
-1.8805 ME CAPABILITIES 
-1.5677 ME CARRIERS 
-1.5677 ME CHART 
-1.8805 ME COPELAND'S 
-1.8805 ME DATA 
-1.8805 ME DEFINITIONS 
-2.2060 ME DESTINATIONS 
-2.2060 ME ENTERPRISE'S 
-2.2060 ME ESTIMATED 
-1.8805 ME FIREBUSH'S 
-1.8805 ME FRIGATES 
-1.8805 ME FUEL 
-1.8805 ME GLACIER'S 
-2.2060 ME HARPOON 
-1.8805 ME KENNEDY'S 
-1.5677 ME LAST 
-1.8805 ME LATITUDES 
-1.8805 ME LATS 
-1.8805 ME LENGTHS 
-1.8805 ME LOCATIONS 
-2.2060 ME MAXIMUM 
-2.2060 ME MISSION 
-1.8805 ME MOB 
-1.8805 ME PERSONNEL 
-1.8805 ME POSITION 
-2.2060 ME PUGET-1 
-1.8805 ME SPS-48 
-1.5677 ME SUBMARINES 
-2.2060 ME SWITCH 
-1.8805 ME TASM 
-0.5798 ME THE 
-1.8805 ME THURSDAY 
-1.5677 ME TRACKS 
-1.8805 ME USN 
-0.4885 MEASURE PARAMETER 
-0.2406 MEASURE SWITCH 
-1.1268 MEASURE TO 
-0.7221 MERCATOR </s> 
-0.1026 MERCATOR PROJECTION 
-0.3242 MERCURY DISPLAYED 
-0.3242 MERCURY THAT 
-0.0231 MERCURY'S GROSS 
-0.4094 METEOR </s> 
-0.7221 METEOR DATED 
-0.7221 METEOR IN 
-0.7221 METEOR TO 
-0.0231 METEOR'S LON 
-0.1026 METERS </s> 
-0.7221 METERS AND 
-0.7221 METRIC </s> 
-0.1026 METRIC TONS 
-0.2371 MEXICO </s> 
-0.4211 MEXICO USING 
-0.3242 MIAMI AT 
-0.3242 MIAMI HAVE 
-0.0076 MIDGETT </s> 
-0.8257 MIDGETT'S AAW 
-0.8257 MIDGETT'S AVERAGE 
-0.5003 MIDGETT'S ETA 
-0.5003 MIDGETT'S GROSS 
-1.0009 MIDPAC </s> 
-1.0009 MIDPAC ALERT 
-1.3263 MIDPAC ARE 
-1.0009 MIDPAC CARRIERS 
-0.5082 MIDPAC HAVE 
-1.3263 MIDPAC ON 
-1.3263 MIDPAC SHOWING 
-1.0009 MIDPAC SUBMARINE 
-1.0009 MIDPAC THAT 
-0.8257 MIDPAC'S C2 
-0.5003 MIDPAC'S C4 
-0.8257 MIDPAC'S CARRIERS 
-0.5003 MIDPAC'S DEPLOYMENTS 
-0.4094 MIDWAY </s> 
-0.7221 MIDWAY CAPABLE 
-0.7221 MIDWAY HAVE 
-0.7221 MIDWAY IS 
-0.4211 MIDWAY'S C4 
-0.4211 MIDWAY'S CAPABILITIES 
-0.7466 MIDWAY'S MAXIMUM 
-0.0114 MILE OF 
-1.0231 MILES IS 
-0.0483 MILES OF 
-0.5003 MIND </s> 
-0.1875 MIND THE 
-0.8013 MINUTES EAST 
-0.8013 MINUTES NORTH 
-0.4885 MINUTES SOUTH 
-0.4885 MINUTES WEST 
-0.1325 MISHAWAKA </s> 
-0.6252 MISHAWAKA NEXT 
-0.5003 MISHAWAKA'S CURRENT 
-0.5003 MISHAWAKA'S POSITION 
-0.5003 MISHAWAKA'S REMAINING 
-1.2482 MISSION </s> 
-0.2272 MISSION AREA 
-0.8016 MISSION AREAS 
-1.5610 MISSION CODE 
-1.5610 MISSION CODES 
-1.3770 MISSION DEGRADING 
-1.0683 MISSION STATUS 
-0.6252 MISSIONS </s> 
-0.4413 MISSIONS EDITED 
-0.4413 MISSIONS THAT 
-0.1552 MISSISSIPPI </s> 
-0.5672 MISSISSIPPI ARRIVE 
-0.9507 MISSISSIPPI'S BEAM 
-0.9507 MISSISSIPPI'S DISPLACEMENT 
-0.6252 MISSISSIPPI'S EQUIPMENT 
-0.6252 MISSISSIPPI'S HOME 
-0.6252 MISSISSIPPI'S RATING 
-0.8073 MIW </s> 
-0.7081 MIW AND 
-1.1201 MIW IN 
-1.1201 MIW M-RATING 
-0.4487 MIW MISSION 
-0.9361 MIW RATING 
-0.8073 MOB </s> 
-1.4455 MOB AREA 
-1.1201 MOB M-CODE 
-0.7081 MOB MISSION 
-0.8073 MOB ON 
-0.7081 MOB RATING 
-0.8073 MOB READINESS 
-0.0065 MONDAY </s> 
-0.5003 MONDAY'S CASREPS 
-0.5003 MONDAY'S FOR 
-0.5003 MONDAY'S UPDATES 
-0.0114 MONGOLIA WITH 
-0.0038 MONTH </s> 
-0.7466 MONTH'S CASUALTY 
-0.1083 MONTH'S WORST 
-0.0050 MONTHS </s> 
-0.2371 MONTICELLO </s> 
-0.4211 MONTICELLO CHOP 
-0.5672 MONTICELLO'S </s> 
-0.5672 MONTICELLO'S AAW 
-0.5672 MONTICELLO'S REMAINING 
-0.8927 MONTICELLO'S THREATS 
-1.3825 MORE FUEL 
-0.0194 MORE THAN 
-1.1693 MOST CASUALTY 
-1.1693 MOST FUEL 
-0.1068 MOST RECENT 
-1.1693 MOST REMAINING 
-0.0352 MOZAMBIQUE CHANNEL 
-1.1535 MOZAMBIQUE DECREASING 
-0.8013 MUCH DOES 
-0.8013 MUCH FASTER 
-0.1818 MUCH FUEL 
-0.0153 N92762 TO 
-0.2812 NAME AND 
-0.3330 NAME OF 
-0.7518 NAMES </s> 
-0.3051 NAMES AND 
-0.5038 NAMES OF 
-0.3242 NAPLES TO 
-0.3242 NAPLES TOMORROW 
-0.3124 NASHUA </s> 
-0.6252 NASHUA AS 
-0.6252 NASHUA SINCE 
-0.6252 NASHUA'S </s> 
-0.6252 NASHUA'S ALERTS 
-0.6252 NASHUA'S POSITION 
-0.6252 NASHUA'S REMAINING 
-0.0476 NEAR IS 
-0.0065 NEARER TO 
-0.6252 NEAREST APALACHICOLA 
-0.6252 NEAREST HEPBURN 
-0.6252 NEAREST REASONER 
-0.6252 NEAREST TO 
-0.0076 NEVER MIND 
-1.1201 NEW ALERT 
-1.1201 NEW AREA 
-0.8073 NEW CALEDONIA 
-0.8073 NEW CHART 
-1.1201 NEW DEFINITIONS 
-1.1201 NEW DISPLAY 
-1.1201 NEW LOCATION 
-1.1201 NEW MISSION 
-0.9361 NEW OVERLAYS 
-1.1201 NEW POSITION 
-0.1325 NEW-YORK </s> 
-0.6252 NEW-YORK EVER 
-0.0153 NEW-ZEALAND WITH 
-0.3124 NEWCASTLE </s> 
-0.6252 NEWCASTLE OF 
-0.6252 NEWCASTLE TO 
-0.0231 NEWER THAN 
-0.5003 NEWEST LATITUDE 
-0.5003 NEWEST LOCATION 
-0.5003 NEWEST POSITION 
-0.9526 NEXT BE 
-0.6398 NEXT CHANGE 
-0.9526 NEXT CHART 
-0.7686 NEXT CHOP 
-0.6398 NEXT MONTH 
-0.9526 NEXT THURSDAY 
-1.3349 NINE AUGUST 
-0.9229 NINE DECEMBER 
-1.3349 NINE EAST 
-1.3349 NINE FEBRUARY 
-1.0221 NINE JANUARY 
-1.3349 NINE JULY 
-1.3349 NINE KNOTS 
-1.3349 NINE LOCATIONS 
-1.3349 NINE MARCH 
-1.6604 NINE POSITIONS 
-1.3349 NINE SHIPS 
-1.6604 NINE SONAR 
-1.3349 NINE SPS-40 
-1.3349 NINE SPS-48 
-1.0221 NINE SUBS 
-1.3349 NINE VESSELS 
-1.0221 NINE WEST 
-1.2273 NINETEEN </s> 
-1.2273 NINETEEN APRIL 
-0.2064 NINETEEN EIGHTY 
-1.0433 NINETEEN HUNDRED 
-1.2273 NINETEEN KILOMETERS 
-1.5527 NINETEEN SEPTEMBER 
-1.2273 NINETEEN WEST 
-0.0231 NINETEENTH </s> 
-0.3242 NINETY DEGREES 
-0.3242 NINETY KILOMETERS 
-0.0231 NINTH </s> 
-1.2517 NO CRUISERS 
-0.9262 NO MIDPAC 
-0.9262 NO PHILIPPINE 
-0.9262 NO RESOURCE 
-0.9262 NO SHIPS 
-0.6135 NO SPEED 
-0.7423 NO SUBS 
-0.3124 NOME </s> 
-0.6252 NOME OF 
-0.6252 NOME ON 
-1.0006 NORTH AND 
-1.1845 NORTH ATLANTIC 
-1.1845 NORTH BERING 
-0.8718 NORTH BISMARK 
-1.5100 NORTH FIFTEEN 
-1.1845 NORTH FOUR 
-1.1845 NORTH NINETEEN 
-0.8718 NORTH PACIFIC 
-1.1845 NORTH PERSIAN 
-1.5100 NORTH PHILIPPINE 
-1.1845 NORTH SEVEN 
-1.1845 NORTH THIRTY 
-1.1845 NORTH TWO 
-0.3486 NORTHERN CHINA 
-0.3486 NORTHERN JAPAN 
-0.8682 NOT C1 
-0.8682 NOT C3 
-0.5555 NOT COUNTED 
-0.8682 NOT LESS 
-0.5555 NOT MORE 
-0.5003 NOVA </s> 
-0.1875 NOVA OVERLAY 
-0.1452 NOVEMBER </s> 
-1.4455 NOVEMBER AND 
-1.1201 NOVEMBER EIGHTEENTH 
-1.1201 NOVEMBER SEVENTEENTH 
-1.1201 NOVEMBER TWENTIETH 
-0.0035 NOW </s> 
-0.6385 NTDS </s> 
-1.1992 NTDS AND 
-1.1992 NTDS CAPABILITY 
-0.7065 NTDS CAPABLE 
-1.0153 NTDS CARRIERS 
-1.1992 NTDS EMPLOYED 
-1.1992 NTDS INSTALLED 
-1.1992 NTDS ON 
-1.1992 NTDS PARAMETER 
-1.1992 NTDS SWITCHES 
-0.8361 NUCLEAR CRUISERS 
-0.8361 NUCLEAR INSTEAD 
-0.8361 NUCLEAR OR 
-0.8361 NUCLEAR POWERED 
-1.1615 NUCLEAR SUBS 
-0.5233 NUCLEAR SURFACE 
-0.0017 NUMBER OF 
-0.0153 OAKLAND </s> 
-0.2919 OCEAN </s> 
-1.1537 OCEAN AND 
-1.9719 OCEAN BY 
-1.6464 OCEAN CARRIER 
-1.9719 OCEAN FOUR 
-1.3336 OCEAN HAVE 
-1.6464 OCEAN IN 
-1.1537 OCEAN ON 
-1.6464 OCEAN SUBS 
-1.6464 OCEAN THAT 
-1.6464 OCEAN VESSEL 
-1.6464 OCEAN VESSELS 
-0.8870 OCEAN WITH 
-0.1113 OCTOBER </s> 
-1.1535 OCTOBER FIFTH 
-1.1535 OCTOBER THIRTY 
-1.1535 OCTOBER TWENTY 
-1.8215 OF A 
-2.6541 OF AJAX'S 
-1.5722 OF ALASKA 
-2.6541 OF ALERTS 
-1.7589 OF ALL 
-2.6541 OF AN 
-1.7307 OF ANY 
-2.6541 OF APRIL 
-2.2421 OF ARCTIC 
-2.6541 OF AREA 
-2.6541 OF ARKANSAS 
-1.4864 OF ARRIVAL 
-2.6541 OF ATLANTIC 
-2.3413 OF AUGUST 
-2.6541 OF BIDDLE 
-2.1614 OF BRITISH 
-2.6541 OF BROOKE 
-2.6541 OF C1 
-2.6541 OF C2 
-2.4701 OF C4 
-1.6119 OF CALIFORNIA 
-2.6541 OF CAMDEN'S 
-2.6541 OF CAMPBELL 
-2.1614 OF CANADA 
-1.7042 OF CARRIERS 
-2.6541 OF CHESHIRE 
-2.9796 OF CITRUS 
-2.6541 OF CLEVELAND 
-2.6541 OF CODAG 
-2.3413 OF CONIFER 
-2.6541 OF CONSTANT 
-2.3413 OF CONVENTIONAL 
-2.3413 OF COOK 
-2.6541 OF COPELAND 
-2.1614 OF CORAL 
-2.0934 OF CRUISERS 
-2.3413 OF DARWIN 
-2.4701 OF DIM 
-2.6541 OF DIXON 
-2.6541 OF DOWNES 
-2.3413 OF DUBUQUE 
-2.4701 OF EAST 
-2.6541 OF EASTERN 
-2.2421 OF EASTPAC'S 
-2.6541 OF ECONOMIC 
-2.9796 OF EIGHTEEN 
-2.6541 OF ENGLAND 
-2.6541 OF FANNING 
-2.9796 OF FEBRUARY 
-2.3413 OF FIJI 
-2.6541 OF FLINT 
-2.4701 OF FORMOSA 
-2.3413 OF FORTY 
-2.6541 OF FOUR 
-2.6541 OF FOURTEEN 
-2.6541 OF FOX 
-2.1614 OF FRENCH 
-2.6541 OF FRESNO 
-1.8947 OF FRIGATES 
-2.3413 OF FUEL 
-2.9796 OF GLACIER 
-2.6541 OF GRIDLEY 
-2.6541 OF GROSS 
-2.6541 OF GUITARRO 
-2.2421 OF GULF 
-2.4701 OF HAWKBILL 
-2.6541 OF HECTOR 
-2.4701 OF HEPBURN 
-2.6541 OF HEPBURN'S 
-2.3413 OF HONG-KONG 
-2.6541 OF INDIAN 
-2.6541 OF INDONESIA 
-2.6541 OF JANUARY 
-1.4711 OF JAPAN 
-2.6541 OF JARRETT 
-2.4701 OF JARVIS 
-2.6541 OF JASON 
-2.6541 OF JULY 
-2.3413 OF JUNE 
-2.6541 OF JUPITER 
-2.6541 OF KIRK 
-2.0934 OF KISKA 
-2.1614 OF KOREA 
-2.6541 OF LAST 
-2.6541 OF LATITUDE 
-2.6541 OF LENINGRAD 
-2.4701 OF LOCKWOOD 
-2.9796 OF LOCKWOOD'S 
-2.9796 OF LONGITUDES 
-2.3413 OF M1 
-2.6541 OF M4 
-2.3413 OF MADAGASCAR 
-2.4701 OF MANHATTAN 
-2.3413 OF MARCH 
-2.3413 OF MARS 
-2.6541 OF MAY 
-1.8566 OF MEASURE 
-2.6541 OF MEXICO 
-2.9796 OF MIDPAC 
-2.3413 OF MIDPAC'S 
-2.3413 OF MONGOLIA 
-2.9796 OF MONTICELLO 
-2.0345 OF MORE 
-2.1614 OF MOZAMBIQUE 
-2.4701 OF N92762 
-2.3413 OF NASHUA 
-2.6541 OF NEW 
-2.4701 OF NEW-ZEALAND 
-2.6541 OF NINETEEN 
-2.4701 OF NORTH 
-2.6541 OF NORTHERN 
-2.4701 OF NOVEMBER 
-2.9796 OF NUCLEAR 
-2.4701 OF OCTOBER 
-2.0345 OF PAC 
-2.6541 OF PACIFIC 
-2.3413 OF PANAMA 
-2.6541 OF PERSIAN 
-2.6541 OF PERSONNEL 
-2.3413 OF PHILIPPINE 
-2.3413 OF PHILIPPINES 
-2.4701 OF POSITIONS 
-2.6541 OF POUGHKEEPSIE'S 
-2.9796 OF PRAIRIE 
-2.6541 OF PRAIRIE'S 
-2.6541 OF PROPULSION 
-2.6541 OF PUFFER 
-2.6541 OF RAMSEY'S 
-2.6541 OF RANGER 
-2.1614 OF RATHBURNE 
-2.3413 OF ROSS 
-2.6541 OF SACRAMENTO 
-2.3413 OF SAMPLE 
-2.3413 OF SCHENECTADY'S 
-2.6541 OF SEAWOLF'S 
-2.4701 OF SEPTEMBER 
-2.6541 OF SEVENTY 
-2.3413 OF SHASTA'S 
-2.9796 OF SHERMAN'S 
-1.5916 OF SHIPS 
-2.6541 OF SINGAPORE 
-2.3413 OF SIXTY 
-2.6541 OF SOLOMON 
-2.4701 OF SOUTH 
-2.1614 OF SOUTHERN 
-2.6541 OF SOVIET 
-2.6541 OF STEAM 
-1.8215 OF SUBMARINES 
-2.1614 OF SUBS 
-2.4701 OF TAIWAN 
-1.5358 OF THAILAND 
-0.9112 OF THE 
-2.6541 OF THEIR 
-2.6541 OF THEM 
-2.4701 OF THESE 
-2.3413 OF THIRTY 
-2.6541 OF THURSDAY'S 
-2.6541 OF TICONDEROGA 
-1.5187 OF TONKIN 
-2.0345 OF TRACKS 
-2.6541 OF TRIPOLI 
-2.6541 OF TUESDAY'S 
-2.6541 OF TUSCALOOSA 
-2.1614 OF TWENTY 
-2.6541 OF TWO 
-2.9796 OF UNITED 
-2.6541 OF UOM 
-2.9796 OF USA 
-2.9796 OF VANCOUVER'S 
-1.9365 OF VESSELS 
-2.6541 OF WADSWORTH 
-2.6541 OF WASP 
-2.9796 OF WASP'S 
-2.6541 OF WELLINGTON 
-2.3413 OF WEST 
-2.6541 OF WESTERN 
-2.6541 OF WESTPAC 
-2.3413 OF WESTPAC'S 
-2.6541 OF YELLOW 
-2.3413 OF YORKTOWN 
-0.1966 OFF </s> 
-1.4455 OFF AREA 
-1.1201 OFF CHART 
-1.1201 OFF FOR 
-1.1201 OFF GROUPS 
-1.1201 OFF POSIT 
-0.0114 OLD IS 
-0.0231 OLDER THAN 
-0.3124 OLDEST CASUALTY 
-0.6252 OLDEST ONE 
-0.6252 OLDEST PROBLEM 
-0.2371 OLYMPIA </s> 
-0.4211 OLYMPIA ON 
-1.4458 ON </s> 
-1.5190 ON AAW 
-1.3550 ON ASUW 
-1.7177 ON ASW 
-2.2784 ON AUGUST 
-2.6039 ON BAINBRIDGE 
-2.2784 ON BRUNSWICK 
-1.6589 ON CHART 
-2.2784 ON CLEVELAND 
-2.2784 ON CONIFER 
-2.2784 ON CONSTELLATION'S 
-2.2784 ON DECEMBER 
-1.8664 ON EIGHT 
-1.9657 ON EIGHTEEN 
-1.9657 ON ELEVEN 
-1.5608 ON EQUIPMENT 
-2.2784 ON FANNING 
-2.2784 ON FEBRUARY 
-1.7177 ON FIFTEEN 
-2.2784 ON FIFTEENTH 
-1.6589 ON FIVE 
-2.6039 ON FLASHER'S 
-1.9657 ON FOUR 
-2.2784 ON FOURTEEN 
-2.2784 ON FOURTEENTH 
-2.2784 ON HAWKBILL 
-2.2784 ON HER 
-2.2784 ON HIS 
-2.2784 ON JANUARY 
-2.2784 ON JULY 
-2.2784 ON JUNE 
-2.0945 ON LAST 
-2.2784 ON MARCH 
-2.2784 ON MARS 
-2.2784 ON MCCLUSKY'S 
-2.2784 ON METEOR 
-1.5190 ON MIW 
-1.6589 ON MOB 
-2.2784 ON NEXT 
-2.2784 ON NINE 
-2.2784 ON NOVEMBER 
-2.2784 ON NTDS 
-2.2784 ON OCTOBER 
-1.7857 ON ONE 
-1.6589 ON OVERALL 
-1.3832 ON PERSONNEL 
-1.9657 ON PLUCK 
-2.2784 ON POUGHKEEPSIE 
-2.2784 ON PRAIRIE 
-2.2784 ON RANGER'S 
-2.2784 ON RATHBURNE 
-2.2784 ON RATHBURNE'S 
-1.9657 ON REDRAW 
-2.2784 ON REEVES'S 
-2.2784 ON SEAWOLF 
-2.6039 ON SEPTEMBER 
-1.7857 ON SEVEN 
-1.9657 ON SIX 
-2.2784 ON SIXTEEN 
-1.6071 ON STATION 
-1.9657 ON STERETT'S 
-2.0945 ON SUNDAY 
-1.5608 ON SUPPLIES 
-2.6039 ON SWORDFISH 
-2.0945 ON TEN 
-2.6039 ON TENTH 
-1.0807 ON THE 
-1.9657 ON THIRTEEN 
-2.2784 ON THIRTEENTH 
-2.0945 ON THREE 
-1.3832 ON TRAINING 
-2.2784 ON TUESDAY 
-2.0945 ON TWELVE 
-1.3285 ON TWENTY 
-1.8664 ON TWO 
-1.9657 ON WEDNESDAY 
-1.8664 ON WHAT 
-2.2784 ON WILLAMETTE 
-0.6195 ONE </s> 
-1.6616 ONE AUGUST 
-1.9871 ONE CRUISER 
-1.6616 ONE FEBRUARY 
-1.6616 ONE FRIGATE 
-1.6616 ONE HALF 
-1.2497 ONE HUNDRED 
-1.6616 ONE JANUARY 
-1.6616 ONE KNOT 
-1.6616 ONE LINK-11 
-1.9871 ONE MARCH 
-1.6616 ONE MAY 
-1.6616 ONE OCTOBER 
-1.1689 ONE ON 
-0.9441 ONE QUARTER 
-0.9441 ONE SIZE 
-1.4777 ONE SMALLER 
-1.6616 ONE SPS-40 
-1.4777 ONE SPS-48 
-1.9871 ONE TFCC 
-1.1689 ONE THOUSAND 
-0.6764 ONLY C2 
-0.6764 ONLY LATITUDES 
-1.0018 ONLY POSITIONS 
-0.3636 ONLY THE 
-0.0837 OPEN CASUALTY 
-0.8013 OPEN CAT-3 
-0.9145 OR ABOVE 
-1.2273 OR CATEGORY 
-1.2273 OR DIESEL 
-1.0433 OR HIGHER 
-0.6665 OR LESS 
-0.5097 OR LOWER 
-1.2273 OR MANCHESTER 
-1.2273 OR STEAM 
-0.2087 ORANGE </s> 
-0.9262 ORANGE FOR 
-0.6135 ORANGE WITH 
-0.1552 OSGP </s> 
-0.5672 OSGP THAN 
-0.7735 OVERALL C-RATING 
-1.2662 OVERALL RATING 
-0.2453 OVERALL READINESS 
-0.7055 OVERALL RESOURCE 
-0.4928 OVERLAY </s> 
-0.8783 OVERLAY ADDED 
-0.7976 OVERLAY BARGE 
-1.2903 OVERLAY BOX 
-1.2903 OVERLAY BUD-TEST 
-1.2903 OVERLAY GRILL 
-1.2903 OVERLAY NOVA 
-1.2903 OVERLAY PUGET-1 
-1.2903 OVERLAY SOHO 
-1.2903 OVERLAY YANKEE 
-0.1068 OVERLAYS </s> 
