#############################################################################
## Copyright (c) 1996, Carnegie Mellon University, Cambridge University,
## Ronald Rosenfeld and Philip Clarkson
#############################################################################
=============================================================================
===============  This file was produced by the CMU-Cambridge  ===============
===============     Statistical Language Modeling Toolkit     ===============
=============================================================================
This is a 1-gram language model, based on a vocabulary of 993 words,
  which begins "<s>", "</s>", "A"...
This is an OPEN-vocabulary model (type 1)
  (OOVs were mapped to UNK, which is treated as any other vocabulary word)
Good-Turing discounting was applied.
1-gram frequency of frequency : 994 
1-gram discounting ratios : 1.00 
This file is in the ARPA-standard format introduced by Doug Paul.

p(wd3|wd1,wd2)= if(trigram exists)           p_3(wd1,wd2,wd3)
                else if(bigram w1,w2 exists) bo_wt_2(w1,w2)*p(wd3|wd2)
                else                         p(wd3|w2)

p(wd2|wd1)= if(bigram exists) p_2(wd1,wd2)
            else              bo_wt_1(wd1)*p_1(wd2)

All probs and back-off weights (bo_wt) are given in log10 form.

Data formats:

Beginning of data mark: \data\
ngram 1=nr            # number of 1-grams
ngram 2=1

\1-grams:
p_1     wd_1 

end of data mark: \end\

\data\
ngram 1=119446
ngram 2=1

\1-grams:
-11.7 <UNK>	0.0000
-98.9996 <s>	0.0000
-98.9996 </s>	0.0000
-11.7 A 0
-11.7 A- 0
-11.7 A'S 0
-11.7 A. 0
-11.7 A.'S 0
-11.7 A.S 0
-11.7 A42128 0
-11.7 AAA 0
-11.7 AABERG 0
-11.7 AACHEN 0
-11.7 AAKER 0
-11.7 AALSETH 0
-11.7 AAMODT 0
-11.7 AANCOR 0
-11.7 AARDEMA 0
-11.7 AARDVARK 0
-11.7 AARON 0
-11.7 AARON'S 0
-11.7 AARONS 0
-11.7 AARONSON 0
-11.7 AARONSON'S 0
-11.7 AARTI 0
-11.7 AASE 0
-11.7 AASEN 0
-11.7 AB 0
-11.7 AB- 0
-11.7 ABABA 0
-11.7 ABACHA 0
-11.7 ABACK 0
-11.7 ABACO 0
-11.7 ABACUS 0
-11.7 ABAD 0
-11.7 ABADAKA 0
-11.7 ABADI 0
-11.7 ABADIE 0
-11.7 ABAIR 0
-11.7 ABALKIN 0
-11.7 ABALONE 0
-11.7 ABALOS 0
-11.7 ABANDON 0
-11.7 ABANDONED 0
-11.7 ABANDONING 0
-11.7 ABANDONMENT 0
-11.7 ABANDONMENTS 0
-11.7 ABANDONS 0
-11.7 ABANTO 0
-11.7 ABARCA 0
-11.7 ABARE 0
-11.7 ABASCAL 0
-11.7 ABASH 0
-11.7 ABASHED 0
-11.7 ABATE 0
-11.7 ABATED 0
-11.7 ABATEMENT 0
-11.7 ABATEMENTS 0
-11.7 ABATES 0
-11.7 ABATING 0
-11.7 ABBA 0
-11.7 ABBADO 0
-11.7 ABBAS 0
-11.7 ABBASI 0
-11.7 ABBATE 0
-11.7 ABBATIELLO 0
-11.7 ABBE 0
-11.7 ABBENHAUS 0
-11.7 ABBETT 0
-11.7 ABBEVILLE 0
-11.7 ABBEY 0
-11.7 ABBEY'S 0
-11.7 ABBIE 0
-11.7 ABBITT 0
-11.7 ABBOT 0
-11.7 ABBOTT 0
-11.7 ABBOTT'S 0
-11.7 ABBOUD 0
-11.7 ABBREVIATE 0
-11.7 ABBREVIATED 0
-11.7 ABBREVIATES 0
-11.7 ABBREVIATING 0
-11.7 ABBREVIATION 0
-11.7 ABBREVIATIONS 0
-11.7 ABBRUZZESE 0
-11.7 ABBS 0
-11.7 ABBY 0
-11.7 ABCO 0
-11.7 ABCOTEK 0
-11.7 ABDALLA 0
-11.7 ABDALLAH 0
-11.7 ABDEL 0
-11.7 ABDELLA 0
-11.7 ABDICATE 0
-11.7 ABDICATED 0
-11.7 ABDICATES 0
-11.7 ABDICATING 0
-11.7 ABDICATION 0
-11.7 ABDNOR 0
-11.7 ABDO 0
-11.7 ABDOLLAH 0
-11.7 ABDOMEN 0
-11.7 ABDOMINAL 0
-11.7 ABDUCT 0
-11.7 ABDUCTED 0
-11.7 ABDUCTEE 0
-11.7 ABDUCTEES 0
-11.7 ABDUCTING 0
-11.7 ABDUCTION 0
-11.7 ABDUCTIONS 0
-11.7 ABDUCTOR 0
-11.7 ABDUCTORS 0
-11.7 ABDUCTS 0
-11.7 ABDUL 0
-11.7 ABDULAZIZ 0
-11.7 ABDULLA 0
-11.7 ABDULLAH 0
-11.7 ABE 0
-11.7 ABED 0
-11.7 ABEDI 0
-11.7 ABEE 0
-11.7 ABEL 0
-11.7 ABELA 0
-11.7 ABELARD 0
-11.7 ABELE 0
-11.7 ABELES 0
-11.7 ABELL 0
-11.7 ABELLA 0
-11.7 ABELN 0
-11.7 ABELOW 0
-11.7 ABELS 0
-11.7 ABELSON 0
-11.7 ABEND 0
-11.7 ABENDROTH 0
-11.7 ABER 0
-11.7 ABERCROMBIE 0
-11.7 ABERDEEN 0
-11.7 ABERFORD 0
-11.7 ABERG 0
-11.7 ABERLE 0
-11.7 ABERMIN 0
-11.7 ABERNATHY 0
-11.7 ABERNETHY 0
-11.7 ABERRANT 0
-11.7 ABERRATION 0
-11.7 ABERRATIONAL 0
-11.7 ABERRATIONS 0
-11.7 ABERT 0
-11.7 ABET 0
-11.7 ABETTED 0
-11.7 ABETTING 0
-11.7 ABEX 0
-11.7 ABEYANCE 0
-11.7 ABEYTA 0
-11.7 ABHOR 0
-11.7 ABHORRED 0
-11.7 ABHORRENCE 0
-11.7 ABHORRENT 0
-11.7 ABHORS 0
-11.7 ABID 0
-11.7 ABIDE 0
-11.7 ABIDED 0
-11.7 ABIDES 0
-11.7 ABIDING 0
-11.7 ABIE 0
-11.7 ABIGAIL 0
-11.7 ABILA 0
-11.7 ABILENE 0
-11.7 ABILITIES 0
-11.7 ABILITY 0
-11.7 ABINGTON 0
-11.7 ABIO 0
-11.7 ABIOLA 0
-11.7 ABIOLA'S 0
-11.7 ABIOMED 0
-11.7 ABITIBI 0
-11.7 ABITZ 0
-11.7 ABJECT 0
-11.7 ABKHAZIA 0
-11.7 ABKHAZIAN 0
-11.7 ABKHAZIANS 0
-11.7 ABLAZE 0
-11.7 ABLE 0
-11.7 ABLED 0
-11.7 ABLER 0
-11.7 ABLES 0
-11.7 ABLEST 0
-11.7 ABLOOM 0
-11.7 ABLY 0
-11.7 ABNER 0
-11.7 ABNEY 0
-11.7 ABNORMAL 0
-11.7 ABNORMALITIES 0
-11.7 ABNORMALITY 0
-11.7 ABNORMALLY 0
-11.7 ABO 0
-11.7 ABO'S 0
-11.7 ABOARD 0
-11.7 ABODE 0
-11.7 ABOLISH 0
-11.7 ABOLISHED 0
-11.7 ABOLISHES 0
-11.7 ABOLISHING 0
-11.7 ABOLITION 0
-11.7 ABOLITIONISM 0
-11.7 ABOLITIONIST 0
-11.7 ABOLITIONISTS 0
-11.7 ABOMINABLE 0
-11.7 ABOMINATION 0
-11.7 ABOOD 0
-11.7 ABOODI 0
-11.7 ABORIGINAL 0
-11.7 ABORIGINE 0
-11.7 ABORIGINES 0
-11.7 ABORN 0
-11.7 ABORT 0
-11.7 ABORTED 0
-11.7 ABORTIFACIENT 0
-11.7 ABORTIFACIENTS 0
-11.7 ABORTING 0
-11.7 ABORTION 0
-11.7 ABORTIONIST 0
-11.7 ABORTIONISTS 0
-11.7 ABORTIONS 0
-11.7 ABORTIVE 0
-11.7 ABOTT 0
-11.7 ABOU 0
-11.7 ABOUD 0
-11.7 ABOUHALIMA 0
-11.7 ABOUHALIMA'S 0
-11.7 ABOUND 0
-11.7 ABOUNDED 0
-11.7 ABOUNDING 0
-11.7 ABOUNDS 0
-11.7 ABOUT 0
-11.7 ABOUT'S 0
-11.7 ABOVE 0
-11.7 ABOVE'S 0
-11.7 ABOVEBOARD 0
-11.7 ABPLANALP 0
-11.7 ABRA 0
-11.7 ABRACADABRA 0
-11.7 ABRAHAM 0
-11.7 ABRAHAMIAN 0
-11.7 ABRAHAMS 0
-11.7 ABRAHAMSEN 0
-11.7 ABRAHAMSON 0
-11.7 ABRAM 0
-11.7 ABRAMCZYK 0
-11.7 ABRAMO 0
-11.7 ABRAMOVITZ 0
-11.7 ABRAMOWICZ 0
-11.7 ABRAMOWITZ 0
-11.7 ABRAMS 0
-11.7 ABRAMSON 0
-11.7 ABRASION 0
-11.7 ABRASIONS 0
-11.7 ABRASIVE 0
-11.7 ABRASIVES 0
-11.7 ABREAST 0
-11.7 ABREGO 0
-11.7 ABREU 0
-11.7 ABRIDGE 0
-11.7 ABRIDGED 0
-11.7 ABRIL 0
-11.7 ABROAD 0
-11.7 ABROGATE 0
-11.7 ABROGATED 0
-11.7 ABROGATING 0
-11.7 ABROGATION 0
-11.7 ABRON 0
-11.7 ABRUPT 0
-11.7 ABRUPTLY 0
-11.7 ABRUPTNESS 0
-11.7 ABRUTYN 0
-11.7 ABRUZZESE 0
-11.7 ABRUZZO 0
-11.7 ABS 0
-11.7 ABSALOM 0
-11.7 ABSCAM 0
-11.7 ABSCESS 0
-11.7 ABSENCE 0
-11.7 ABSENCES 0
-11.7 ABSENT 0
-11.7 ABSENTEE 0
-11.7 ABSENTEEISM 0
-11.7 ABSENTEES 0
-11.7 ABSENTIA 0
-11.7 ABSHER 0
-11.7 ABSHIER 0
-11.7 ABSHIRE 0
-11.7 ABSO 0
-11.7 ABSOLOM 0
-11.7 ABSOLUT 0
-11.7 ABSOLUTE 0
-11.7 ABSOLUTELY 0
-11.7 ABSOLUTENESS 0
-11.7 ABSOLUTES 0
-11.7 ABSOLUTION 0
-11.7 ABSOLUTISM 0
-11.7 ABSOLUTIST 0
-11.7 ABSOLVE 0
-11.7 ABSOLVED 0
-11.7 ABSOLVES 0
-11.7 ABSOLVING 0
-11.7 ABSORB 0
-11.7 ABSORBED 0
-11.7 ABSORBENCY 0
-11.7 ABSORBENT 0
-11.7 ABSORBER 0
-11.7 ABSORBERS 0
-11.7 ABSORBING 0
-11.7 ABSORBS 0
-11.7 ABSORPTION 0
-11.7 ABSTAIN 0
-11.7 ABSTAINED 0
-11.7 ABSTAINING 0
-11.7 ABSTENTION 0
-11.7 ABSTENTIONS 0
-11.7 ABSTINENCE 0
-11.7 ABSTINENT 0
-11.7 ABSTON 0
-11.7 ABSTRACT 0
-11.7 ABSTRACTED 0
-11.7 ABSTRACTION 0
-11.7 ABSTRACTIONS 0
-11.7 ABSTRACTS 0
-11.7 ABSTRUSE 0
-11.7 ABSURD 0
-11.7 ABSURDIST 0
-11.7 ABSURDITIES 0
-11.7 ABSURDITY 0
-11.7 ABSURDLY 0
-11.7 ABT 0
-11.7 ABTS 0
-11.7 ABU 0
-11.7 ABUDRAHM 0
-11.7 ABULADZE 0
-11.7 ABUNDANCE 0
-11.7 ABUNDANT 0
-11.7 ABUNDANTLY 0
-11.7 ABURTO 0
-11.7 ABURTO'S 0
-11.7 ABUSE 0
-11.7 ABUSED 0
-11.7 ABUSER 0
-11.7 ABUSERS 0
-11.7 ABUSES 0
-11.7 ABUSING 0
-11.7 ABUSIVE 0
-11.7 ABUT 0
-11.7 ABUTS 0
-11.7 ABUTTED 0
-11.7 ABUTTING 0
-11.7 ABUZZ 0
-11.7 ABYSMAL 0
-11.7 ABYSMALLY 0
-11.7 ABYSS 0
-11.7 ABZUG 0
-11.7 AC 0
-11.7 ACA 0
-11.7 ACACIA 0
-11.7 ACADEME 0
-11.7 ACADEMIA 0
-11.7 ACADEMIC 0
-11.7 ACADEMICALLY 0
-11.7 ACADEMICIAN 0
-11.7 ACADEMICIANS 0
-11.7 ACADEMICS 0
-11.7 ACADEMIES 0
-11.7 ACADEMY 0
-11.7 ACADEMY'S 0
-11.7 ACADIA 0
-11.7 ACAMPORA 0
-11.7 ACANTHA 0
-11.7 ACAPULCO 0
-11.7 ACCARDI 0
-11.7 ACCARDO 0
-11.7 ACCEDE 0
-11.7 ACCEDED 0
-11.7 ACCEDES 0
-11.7 ACCEDING 0
-11.7 ACCEL 0
-11.7 ACCELERANT 0
-11.7 ACCELERANTS 0
-11.7 ACCELERATE 0
-11.7 ACCELERATED 0
-11.7 ACCELERATES 0
-11.7 ACCELERATING 0
-11.7 ACCELERATION 0
-11.7 ACCELERATOR 0
-11.7 ACCELEROMETER 0
-11.7 ACCELEROMETERS 0
-11.7 ACCENT 0
-11.7 ACCENTED 0
-11.7 ACCENTING 0
-11.7 ACCENTS 0
-11.7 ACCENTUATE 0
-11.7 ACCENTUATED 0
-11.7 ACCENTUATES 0
-11.7 ACCENTUATING 0
-11.7 ACCEPT 0
-11.7 ACCEPTABILITY 0
-11.7 ACCEPTABLE 0
-11.7 ACCEPTANCE 0
-11.7 ACCEPTANCES 0
-11.7 ACCEPTED 0
-11.7 ACCEPTING 0
-11.7 ACCEPTS 0
-11.7 ACCESS 0
-11.7 ACCESSED 0
-11.7 ACCESSIBILITY 0
-11.7 ACCESSIBLE 0
-11.7 ACCESSING 0
-11.7 ACCESSION 0
-11.7 ACCESSORIES 0
-11.7 ACCESSORIZE 0
-11.7 ACCESSORIZED 0
-11.7 ACCESSORY 0
-11.7 ACCETTA 0
-11.7 ACCIDENT 0
-11.7 ACCIDENT'S 0
-11.7 ACCIDENTAL 0
-11.7 ACCIDENTALLY 0
-11.7 ACCIDENTLY 0
-11.7 ACCIDENTS 0
-11.7 ACCION 0
-11.7 ACCIVAL 0
-11.7 ACCLAIM 0
-11.7 ACCLAIMED 0
-11.7 ACCLAIMING 0
-11.7 ACCLIMATE 0
-11.7 ACCLIMATED 0
-11.7 ACCLIMATION 0
-11.7 ACCO 0
-11.7 ACCOLA 0
-11.7 ACCOLADE 0
-11.7 ACCOLADES 0
-11.7 ACCOMANDO 0
-11.7 ACCOMMODATE 0
-11.7 ACCOMMODATED 0
-11.7 ACCOMMODATES 0
-11.7 ACCOMMODATING 0
-11.7 ACCOMMODATION 0
-11.7 ACCOMMODATIONS 0
-11.7 ACCOMMODATIVE 0
-11.7 ACCOMPANIED 0
-11.7 ACCOMPANIES 0
-11.7 ACCOMPANIMENT 0
-11.7 ACCOMPANIMENTS 0
-11.7 ACCOMPANIST 0
-11.7 ACCOMPANY 0
-11.7 ACCOMPANYING 0
-11.7 ACCOMPLI 0
-11.7 ACCOMPLICE 0
-11.7 ACCOMPLICES 0
-11.7 ACCOMPLISH 0
-11.7 ACCOMPLISHED 0
-11.7 ACCOMPLISHES 0
-11.7 ACCOMPLISHING 0
-11.7 ACCOMPLISHMENT 0
-11.7 ACCOMPLISHMENTS 0
-11.7 ACCOR 0
-11.7 ACCOR'S 0
-11.7 ACCORD 0
-11.7 ACCORD'S 0
-11.7 ACCORDANCE 0
-11.7 ACCORDED 0
-11.7 ACCORDING 0
-11.7 ACCORDINGLY 0
-11.7 ACCORDION 0
-11.7 ACCORDIONS 0
-11.7 ACCORDS 0
-11.7 ACCOST 0
-11.7 ACCOSTED 0
-11.7 ACCOSTING 0
-11.7 ACCOUNT 0
-11.7 ACCOUNT'S 0
-11.7 ACCOUNTABILITY 0
-11.7 ACCOUNTABLE 0
-11.7 ACCOUNTANCY 0
-11.7 ACCOUNTANT 0
-11.7 ACCOUNTANT'S 0
-11.7 ACCOUNTANTS 0
-11.7 ACCOUNTANTS' 0
-11.7 ACCOUNTED 0
-11.7 ACCOUNTEMP 0
-11.7 ACCOUNTEMPS 0
-11.7 ACCOUNTING 0
-11.7 ACCOUNTS 0
-11.7 ACCOUTERMENT 0
-11.7 ACCOUTERMENTS 0
-11.7 ACCREDIT 0
-11.7 ACCREDITATION 0
-11.7 ACCREDITATIONS 0
-11.7 ACCREDITED 0
-11.7 ACCREDITING 0
-11.7 ACCRETION 0
-11.7 ACCRUAL 0
-11.7 ACCRUALS 0
-11.7 ACCRUE 0
-11.7 ACCRUED 0
-11.7 ACCRUES 0
-11.7 ACCRUING 0
-11.7 ACCUMULATE 0
-11.7 ACCUMULATED 0
-11.7 ACCUMULATES 0
-11.7 ACCUMULATING 0
-11.7 ACCUMULATION 0
-11.7 ACCUMULATIONS 0
-11.7 ACCUMULATIVE 0
-11.7 ACCUMULATIVELY 0
-11.7 ACCUMULATOR 0
-11.7 ACCUMULATORS 0
-11.7 ACCURACIES 0
-11.7 ACCURACY 0
-11.7 ACCURATE 0
-11.7 ACCURATELY 0
-11.7 ACCURAY 0
-11.7 ACCURAY'S 0
-11.7 ACCURIDE 0
-11.7 ACCURSO 0
-11.7 ACCUSATION 0
-11.7 ACCUSATIONS 0
-11.7 ACCUSATIVE 0
-11.7 ACCUSATORY 0
-11.7 ACCUSE 0
-11.7 ACCUSED 0
-11.7 ACCUSER 0
-11.7 ACCUSERS 0
-11.7 ACCUSES 0
-11.7 ACCUSING 0
-11.7 ACCUSINGLY 0
-11.7 ACCUSTOM 0
-11.7 ACCUSTOMED 0
-11.7 ACCUTANE 0
-11.7 ACE 0
-11.7 ACED 0
-11.7 ACER 0
-11.7 ACERBIC 0
-11.7 ACERO 0
-11.7 ACERRA 0
-11.7 ACES 0
-11.7 ACETAMINOPHEN 0
-11.7 ACETATE 0
-11.7 ACETIC 0
-11.7 ACETO 0
-11.7 ACETONE 0
-11.7 ACETYLCHOLINE 0
-11.7 ACETYLENE 0
-11.7 ACEVEDO 0
-11.7 ACEVES 0
-11.7 ACEY 0
-11.7 ACHATZ 0
-11.7 ACHE 0
-11.7 ACHEBE 0
-11.7 ACHEE 0
-11.7 ACHENBACH 0
-11.7 ACHENBAUM 0
-11.7 ACHES 0
-11.7 ACHESON 0
-11.7 ACHEY 0
-11.7 ACHIEVABLE 0
-11.7 ACHIEVE 0
-11.7 ACHIEVED 0
-11.7 ACHIEVEMENT 0
-11.7 ACHIEVEMENTS 0
-11.7 ACHIEVER 0
-11.7 ACHIEVERS 0
-11.7 ACHIEVES 0
-11.7 ACHIEVING 0
-11.7 ACHILLE 0
-11.7 ACHILLES 0
-11.7 ACHILLES' 0
-11.7 ACHING 0
-11.7 ACHMED 0
-11.7 ACHOA 0
-11.7 ACHOA'S 0
-11.7 ACHOR 0
-11.7 ACHORD 0
-11.7 ACHORN 0
-11.7 ACHTENBERG 0
-11.7 ACHTERBERG 0
-11.7 ACHTUN 0
-11.7 ACHY 0
-11.7 ACID 0
-11.7 ACIDIC 0
-11.7 ACIDIFICATION 0
-11.7 ACIDIFIED 0
-11.7 ACIDIFIES 0
-11.7 ACIDIFY 0
-11.7 ACIDITY 0
-11.7 ACIDLY 0
-11.7 ACIDOSIS 0
-11.7 ACIDS 0
-11.7 ACIDURIA 0
-11.7 ACIERNO 0
-11.7 ACK 0
-11.7 ACKER 0
-11.7 ACKER'S 0
-11.7 ACKERLEY 0
-11.7 ACKERLY 0
-11.7 ACKERMAN 0
-11.7 ACKERMANN 0
-11.7 ACKERSON 0
-11.7 ACKERT 0
-11.7 ACKHOUSE 0
-11.7 ACKLAND 0
-11.7 ACKLES 0
-11.7 ACKLEY 0
-11.7 ACKLIN 0
-11.7 ACKMAN 0
-11.7 ACKNOWLEDGE 0
-11.7 ACKNOWLEDGEABLE 0
-11.7 ACKNOWLEDGED 0
-11.7 ACKNOWLEDGEMENT 0
-11.7 ACKNOWLEDGES 0
-11.7 ACKNOWLEDGING 0
-11.7 ACKNOWLEDGMENT 0
-11.7 ACKROYD 0
-11.7 ACKROYD'S 0
-11.7 ACMAT 0
-11.7 ACMAT'S 0
-11.7 ACME 0
-11.7 ACME'S 0
-11.7 ACNE 0
-11.7 ACOCELLA 0
-11.7 ACOFF 0
-11.7 ACOG 0
-11.7 ACOLYTE 0
-11.7 ACOLYTES 0
-11.7 ACORD 0
-11.7 ACORN 0
-11.7 ACORNS 0
-11.7 ACOSTA 0
-11.7 ACOUSTIC 0
-11.7 ACOUSTICAL 0
-11.7 ACOUSTICALLY 0
-11.7 ACOUSTICS 0
-11.7 ACQUAINT 0
-11.7 ACQUAINTANCE 0
-11.7 ACQUAINTANCES 0
-11.7 ACQUAINTANCESHIP 0
-11.7 ACQUAINTED 0
-11.7 ACQUAVIVA 0
-11.7 ACQUIESCE 0
-11.7 ACQUIESCED 0
-11.7 ACQUIESCENCE 0
-11.7 ACQUIESCING 0
-11.7 ACQUIRE 0
-11.7 ACQUIRED 0
-11.7 ACQUIRER 0
-11.7 ACQUIRERS 0
-11.7 ACQUIRES 0
-11.7 ACQUIRING 0
-11.7 ACQUISITION 0
-11.7 ACQUISITION'S 0
-11.7 ACQUISITIONS 0
-11.7 ACQUISITIVE 0
-11.7 ACQUIT 0
-11.7 ACQUITAINE 0
-11.7 ACQUITS 0
-11.7 ACQUITTAL 0
-11.7 ACQUITTALS 0
-11.7 ACQUITTED 0
-11.7 ACQUITTING 0
-11.7 ACRE 0
-11.7 ACREAGE 0
-11.7 ACREE 0
-11.7 ACRES 0
-11.7 ACREY 0
-11.7 ACRI 0
-11.7 ACRID 0
-11.7 ACRIMONIOUS 0
-11.7 ACRIMONY 0
-11.7 ACROBAT 0
-11.7 ACROBATIC 0
-11.7 ACROBATICS 0
-11.7 ACROBATS 0
-11.7 ACRONYM 0
-11.7 ACRONYMS 0
-11.7 ACROPOLIS 0
-11.7 ACROSS 0
-11.7 ACRYLIC 0
-11.7 ACRYLICS 0
-11.7 ACT 0
-11.7 ACT'S 0
-11.7 ACTAVA 0
-11.7 ACTED 0
-11.7 ACTIGALL 0
-11.7 ACTIN 0
-11.7 ACTING 0
-11.7 ACTINIDE 0
-11.7 ACTINIDIA 0
-11.7 ACTION 0
-11.7 ACTION'S 0
-11.7 ACTIONABLE 0
-11.7 ACTIONS 0
-11.7 ACTIVASE 0
-11.7 ACTIVATE 0
-11.7 ACTIVATED 0
-11.7 ACTIVATES 0
-11.7 ACTIVATING 0
-11.7 ACTIVATION 0
-11.7 ACTIVATOR 0
-11.7 ACTIVE 0
-11.7 ACTIVELY 0
-11.7 ACTIVES 0
-11.7 ACTIVISION 0
-11.7 ACTIVISM 0
-11.7 ACTIVIST 0
-11.7 ACTIVISTS 0
-11.7 ACTIVISTS' 0
-11.7 ACTIVITIES 0
-11.7 ACTIVITY 0
-11.7 ACTMEDIA 0
-11.7 ACTODINE 0
-11.7 ACTON 0
-11.7 ACTOR 0
-11.7 ACTOR'S 0
-11.7 ACTORS 0
-11.7 ACTORS' 0
-11.7 ACTRESS 0
-11.7 ACTRESS'S 0
-11.7 ACTRESSES 0
-11.7 ACTS 0
-11.7 ACTUAL 0
-11.7 ACTUALITY 0
-11.7 ACTUALIZE 0
-11.7 ACTUALLY 0
-11.7 ACTUARIAL 0
-11.7 ACTUARIES 0
-11.7 ACTUARY 0
-11.7 ACTUATE 0
-11.7 ACTUATOR 0
-11.7 ACTUATORS 0
-11.7 ACTUS 0
-11.7 ACUFF 0
-11.7 ACUITY 0
-11.7 ACUMEN 0
-11.7 ACUNA 0
-11.7 ACUPUNCTURE 0
-11.7 ACURA 0
-11.7 ACURA'S 0
-11.7 ACURAS 0
-11.7 ACUSON 0
-11.7 ACUSTAR 0
-11.7 ACUSYST 0
-11.7 ACUTE 0
-11.7 ACUTELY 0
-11.7 ACUTENESS 0
-11.7 ACYCLOVIR 0
-11.7 AD 0
-11.7 AD'S 0
-11.7 AD-HOC 0
-11.7 AD-LIB 0
-11.7 ADA 0
-11.7 ADABEL 0
-11.7 ADABELLE 0
-11.7 ADACHI 0
-11.7 ADAGE 0
-11.7 ADAGIO 0
-11.7 ADAH 0
-11.7 ADAIR 0
-11.7 ADAIRE 0
-11.7 ADAK 0
-11.7 ADALAH 0
-11.7 ADALIA 0
-11.7 ADAM 0
-11.7 ADAM'S 0
-11.7 ADAMANT 0
-11.7 ADAMANTLY 0
-11.7 ADAMCIK 0
-11.7 ADAMCZAK 0
-11.7 ADAMCZYK 0
-11.7 ADAME 0
-11.7 ADAMEC 0
-11.7 ADAMEK 0
-11.7 ADAMES 0
-11.7 ADAMI 0
-11.7 ADAMIK 0
-11.7 ADAMINA 0
-11.7 ADAMKUS 0
-11.7 ADAMO 0
-11.7 ADAMOWICZ 0
-11.7 ADAMS 0
-11.7 ADAMS' 0
-11.7 ADAMS'S 0
-11.7 ADAMSKI 0
-11.7 ADAMSON 0
-11.7 ADAMSTOWN 0
-11.7 ADAN 0
-11.7 ADAPSO 0
-11.7 ADAPT 0
-11.7 ADAPTABILITY 0
-11.7 ADAPTABLE 0
-11.7 ADAPTAPLEX 0
-11.7 ADAPTATION 0
-11.7 ADAPTATIONS 0
-11.7 ADAPTEC 0
-11.7 ADAPTED 0
-11.7 ADAPTER 0
-11.7 ADAPTERS 0
-11.7 ADAPTING 0
-11.7 ADAPTIVE 0
-11.7 ADAPTOR 0
-11.7 ADAPTS 0
-11.7 ADAR 0
-11.7 ADARAND 0
-11.7 ADAY 0
-11.7 ADAZA 0
-11.7 ADCOCK 0
-11.7 ADCOX 0
-11.7 ADD 0
-11.7 ADDAIR 0
-11.7 ADDAMS 0
-11.7 ADDED 0
-11.7 ADDENDUM 0
-11.7 ADDENDUMS 0
-11.7 ADDEO 0
-11.7 ADDER 0
-11.7 ADDERLEY 0
-11.7 ADDICKS 0
-11.7 ADDICT 0
-11.7 ADDICTED 0
-11.7 ADDICTING 0
-11.7 ADDICTION 0
-11.7 ADDICTIONS 0
-11.7 ADDICTIVE 0
-11.7 ADDICTS 0
-11.7 ADDIDAS 0
-11.7 ADDIDAS' 0
-11.7 ADDIDAS'S 0
-11.7 ADDIDASES 0
-11.7 ADDIE 0
-11.7 ADDING 0
-11.7 ADDINGTON 0
-11.7 ADDIS 0
-11.7 ADDIS-ABABA 0
-11.7 ADDISON 0
-11.7 ADDISON'S 0
-11.7 ADDITION 0
-11.7 ADDITIONAL 0
-11.7 ADDITIONALLY 0
-11.7 ADDITIONS 0
-11.7 ADDITIVE 0
-11.7 ADDITIVES 0
-11.7 ADDLE 0
-11.7 ADDLED 0
-11.7 ADDLEMAN 0
-11.7 ADDRESS 0
-11.7 ADDRESSABLE 0
-11.7 ADDRESSED 0
-11.7 ADDRESSEE 0
-11.7 ADDRESSES 0
-11.7 ADDRESSING 0
-11.7 ADDS 0
-11.7 ADDUCI 0
-11.7 ADDWEST 0
-11.7 ADDY 0
-11.7 ADE 0
-11.7 ADEE 0
-11.7 ADEL 0
-11.7 ADELA 0
-11.7 ADELAAR 0
-11.7 ADELAIDE 0
-11.7 ADELBERT 0
-11.7 ADELE 0
-11.7 ADELE'S 0
-11.7 ADELINE 0
-11.7 ADELIZZI 0
-11.7 ADELL 0
-11.7 ADELL'S 0
-11.7 ADELLE 0
-11.7 ADELMAN 0
-11.7 ADELMANN 0
-11.7 ADELPHA 0
-11.7 ADELPHIA 0
-11.7 ADELPHIA'S 0
-11.7 ADELSBERGER 0
-11.7 ADELSON 0
-11.7 ADELSTEIN 0
-11.7 ADEN 0
-11.7 ADENA 0
-11.7 ADENAUER 0
-11.7 ADENINE 0
-11.7 ADENOID 0
-11.7 ADENOIDS 0
-11.7 ADEPT 0
-11.7 ADEQUACY 0
-11.7 ADEQUATE 0
-11.7 ADEQUATELY 0
-11.7 ADER 0
-11.7 ADERHOLD 0
-11.7 ADERHOLT 0
-11.7 ADERMAN 0
-11.7 ADES 0
-11.7 ADEY 0
-11.7 ADGER 0
-11.7 ADHAM 0
-11.7 ADHERE 0
-11.7 ADHERED 0
-11.7 ADHERENCE 0
-11.7 ADHERENT 0
-11.7 ADHERENTS 0
-11.7 ADHERES 0
-11.7 ADHERING 0
-11.7 ADHESIVE 0
-11.7 ADHESIVES 0
-11.7 ADIA 0
-11.7 ADID 0
-11.7 ADIDAS 0
-11.7 ADIEU 0
-11.7 ADIN 0
-11.7 ADINA 0
-11.7 ADINE 0
-11.7 ADINOLFI 0
-11.7 ADIOS 0
-11.7 ADIPOSE 0
-11.7 ADIRONDACK 0
-11.7 ADJACENT 0
-11.7 ADJANI 0
-11.7 ADJECTIVE 0
-11.7 ADJECTIVES 0
-11.7 ADJOIN 0
-11.7 ADJOINING 0
-11.7 ADJOINS 0
-11.7 ADJOURN 0
-11.7 ADJOURNED 0
-11.7 ADJOURNING 0
-11.7 ADJOURNMENT 0
-11.7 ADJOURNS 0
-11.7 ADJUDGE 0
-11.7 ADJUDGED 0
-11.7 ADJUDICATE 0
-11.7 ADJUDICATED 0
-11.7 ADJUDICATING 0
-11.7 ADJUDICATION 0
-11.7 ADJUNCT 0
-11.7 ADJUNCTS 0
-11.7 ADJUST 0
-11.7 ADJUSTABLE 0
-11.7 ADJUSTABLES 0
-11.7 ADJUSTED 0
-11.7 ADJUSTER 0
-11.7 ADJUSTERS 0
-11.7 ADJUSTING 0
-11.7 ADJUSTMENT 0
-11.7 ADJUSTMENTS 0
-11.7 ADJUSTS 0
-11.7 ADJUTANT 0
-11.7 ADKINS 0
-11.7 ADKINSON 0
-11.7 ADKISON 0
-11.7 ADKISSON 0
-11.7 ADL-TABATABA 0
-11.7 ADL-TABATABAI 0
-11.7 ADLAI 0
-11.7 ADLER 0
-11.7 ADLEY 0
-11.7 ADLON 0
-11.7 ADMAN 0
-11.7 ADMEN 0
-11.7 ADMINISTER 0
-11.7 ADMINISTERED 0
-11.7 ADMINISTERING 0
-11.7 ADMINISTERS 0
-11.7 ADMINISTRATE 0
-11.7 ADMINISTRATING 0
-11.7 ADMINISTRATION 0
-11.7 ADMINISTRATION'S 0
-11.7 ADMINISTRATIONS 0
-11.7 ADMINISTRATIVE 0
-11.7 ADMINISTRATIVELY 0
-11.7 ADMINISTRATOR 0
-11.7 ADMINISTRATORS 0
-11.7 ADMINISTRATORS' 0
-11.7 ADMIRA 0
-11.7 ADMIRA'S 0
-11.7 ADMIRABLE 0
-11.7 ADMIRABLY 0
-11.7 ADMIRAL 0
-11.7 ADMIRAL'S 0
-11.7 ADMIRALS 0
-11.7 ADMIRALTY 0
-11.7 ADMIRATION 0
-11.7 ADMIRATIONS 0
-11.7 ADMIRE 0
-11.7 ADMIRED 0
-11.7 ADMIRER 0
-11.7 ADMIRERS 0
-11.7 ADMIRES 0
-11.7 ADMIRING 0
-11.7 ADMIRINGLY 0
-11.7 ADMISSIBILITY 0
-11.7 ADMISSIBLE 0
-11.7 ADMISSION 0
-11.7 ADMISSIONS 0
-11.7 ADMIT 0
-11.7 ADMITS 0
-11.7 ADMITTANCE 0
-11.7 ADMITTED 0
-11.7 ADMITTEDLY 0
-11.7 ADMITTING 0
-11.7 ADMONISH 0
-11.7 ADMONISHED 0
-11.7 ADMONISHES 0
-11.7 ADMONISHING 0
-11.7 ADMONISHMENT 0
-11.7 ADMONITION 0
-11.7 ADMONITIONS 0
-11.7 ADNAN 0
-11.7 ADNEY 0
-11.7 ADO 0
-11.7 ADOBE 0
-11.7 ADOBE'S 0
-11.7 ADOLESCENCE 0
-11.7 ADOLESCENT 0
-11.7 ADOLESCENTS 0
-11.7 ADOLF 0
-11.7 ADOLF'S 0
-11.7 ADOLFO 0
-11.7 ADOLPH 0
-11.7 ADOLPHA 0
-11.7 ADOLPHSON 0
-11.7 ADON 0
-11.7 ADONIA 0
-11.7 ADOPT 0
-11.7 ADOPTABLE 0
-11.7 ADOPTED 0
-11.7 ADOPTEE 0
-11.7 ADOPTEES 0
-11.7 ADOPTING 0
-11.7 ADOPTION 0
-11.7 ADOPTIONS 0
-11.7 ADOPTIVE 0
-11.7 ADOPTS 0
-11.7 ADOR 0
-11.7 ADORA 0
-11.7 ADORABELLE 0
-11.7 ADORABLE 0
-11.7 ADORATION 0
-11.7 ADORE 0
-11.7 ADORED 0
-11.7 ADOREE 0
-11.7 ADORES 0
-11.7 ADORING 0
-11.7 ADORN 0
-11.7 ADORNA 0
-11.7 ADORNED 0
-11.7 ADORNMENT 0
-11.7 ADORNO 0
-11.7 ADORNS 0
-11.7 ADRA 0
-11.7 ADRAGNA 0
-11.7 ADRDA 0
-11.7 ADREA 0
-11.7 ADRENAL 0
-11.7 ADRENALIN 0
-11.7 ADRENALINE 0
-11.7 ADRIA 0
-11.7 ADRIAN 0
-11.7 ADRIANA 0
-11.7 ADRIANCE 0
-11.7 ADRIANO 0
-11.7 ADRIATIC 0
-11.7 ADRIEL 0
-11.7 ADRIENNE 0
-11.7 ADRIFT 0
-11.7 ADROIT 0
-11.7 ADROITLY 0
-11.7 ADS 0
-11.7 ADS' 0
-11.7 ADSIT 0
-11.7 ADSS 0
-11.7 ADTEC 0
-11.7 ADULATE 0
-11.7 ADULATION 0
-11.7 ADULIADAE 0
-11.7 ADULT 0
-11.7 ADULTERATE 0
-11.7 ADULTERATED 0
-11.7 ADULTERER 0
-11.7 ADULTERERS 0
-11.7 ADULTEROUS 0
-11.7 ADULTERY 0
-11.7 ADULTHOOD 0
-11.7 ADULTS 0
-11.7 ADULTS' 0
-11.7 ADUSDUR 0
-11.7 ADVANCE 0
-11.7 ADVANCED 0
-11.7 ADVANCEMENT 0
-11.7 ADVANCEMENTS 0
-11.7 ADVANCER 0
-11.7 ADVANCERS 0
-11.7 ADVANCES 0
-11.7 ADVANCING 0
-11.7 ADVANTA 0
-11.7 ADVANTAGE 0
-11.7 ADVANTAGED 0
-11.7 ADVANTAGEOUS 0
-11.7 ADVANTAGES 0
-11.7 ADVANTEST 0
-11.7 ADVECTION 0
-11.7 ADVENT 0
-11.7 ADVENTIST 0
-11.7 ADVENTISTS 0
-11.7 ADVENTURE 0
-11.7 ADVENTURER 0
-11.7 ADVENTURERS 0
-11.7 ADVENTURES 0
-11.7 ADVENTURESOME 0
-11.7 ADVENTURISM 0
-11.7 ADVENTUROUS 0
-11.7 ADVERB 0
-11.7 ADVERBIAL 0
-11.7 ADVERBS 0
-11.7 ADVERSARIAL 0
-11.7 ADVERSARIES 0
-11.7 ADVERSARY 0
-11.7 ADVERSE 0
-11.7 ADVERSELY 0
-11.7 ADVERSITY 0
-11.7 ADVERTISE 0
-11.7 ADVERTISED 0
-11.7 ADVERTISEMENT 0
-11.7 ADVERTISEMENTS 0
-11.7 ADVERTISER 0
-11.7 ADVERTISER'S 0
-11.7 ADVERTISERS 0
-11.7 ADVERTISERS' 0
-11.7 ADVERTISES 0
-11.7 ADVERTISING 0
-11.7 ADVERTISING'S 0
-11.7 ADVERTORIAL 0
-11.7 ADVERTORIALS 0
-11.7 ADVEST 0
-11.7 ADVICE 0
-11.7 ADVIL 0
-11.7 ADVIL'S 0
-11.7 ADVISABILITY 0
-11.7 ADVISABLE 0
-11.7 ADVISE 0
-11.7 ADVISED 0
-11.7 ADVISEDLY 0
-11.7 ADVISEMENT 0
-11.7 ADVISER 0
-11.7 ADVISER'S 0
-11.7 ADVISERS 0
-11.7 ADVISERS' 0
-11.7 ADVISES 0
-11.7 ADVISING 0
-11.7 ADVISOR 0
-11.7 ADVISORIES 0
-11.7 ADVISORS 0
-11.7 ADVISORY 0
-11.7 ADVO 0
-11.7 ADVOCACY 0
-11.7 ADVOCATE 0
-11.7 ADVOCATE'S 0
-11.7 ADVOCATED 0
-11.7 ADVOCATES 0
-11.7 ADVOCATING 0
-11.7 ADVOCATION 0
-11.7 ADWEEK 0
-11.7 ADWELL 0
-11.7 ADY 0
-11.7 ADZ 0
-11.7 AE 0
-11.7 AEGEAN 0
-11.7 AEGERTER 0
-11.7 AEGIS 0
-11.7 AEGON 0
-11.7 AELTUS 0
-11.7 AENEAS 0
-11.7 AEQUITRON 0
-11.7 AER 0
-11.7 AERIAL 0
-11.7 AERIEN 0
-11.7 AERIENS 0
-11.7 AERITALIA 0
-11.7 AERO 0
-11.7 AEROBATIC 0
-11.7 AEROBATICS 0
-11.7 AEROBIC 0
-11.7 AEROBICALLY 0
-11.7 AEROBICS 0
-11.7 AERODROME 0
-11.7 AERODYNAMIC 0
-11.7 AERODYNAMICALLY 0
-11.7 AERODYNAMICS 0
-11.7 AERODYNE 0
-11.7 AEROFLOT 0
-11.7 AEROJET 0
-11.7 AEROLIFT 0
-11.7 AEROLINEAS 0
-11.7 AEROMEXICO 0
-11.7 AERONAUTIC 0
-11.7 AERONAUTICAL 0
-11.7 AERONAUTICAS 0
-11.7 AERONAUTICS 0
-11.7 AEROQUIP 0
-11.7 AEROSMITH 0
-11.7 AEROSMITH'S 0
-11.7 AEROSOL 0
-11.7 AEROSOLS 0
-11.7 AEROSPACE 0
-11.7 AEROSPACE'S 0
-11.7 AEROSPATIALE 0
-11.7 AEROSTAR 0
-11.7 AEROSTARS 0
-11.7 AEROSTAT 0
-11.7 AEROSTATS 0
-11.7 AEROTECH 0
-11.7 AERTS 0
-11.7 AESCHLIMAN 0
-11.7 AESOP 0
-11.7 AESOP'S 0
-11.7 AESTHETE 0
-11.7 AESTHETIC 0
-11.7 AESTHETICALLY 0
-11.7 AESTHETICS 0
-11.7 AETNA 0
-11.7 AETNA'S 0
-11.7 AFANASYEV 0
-11.7 AFAR 0
-11.7 AFFABLE 0
-11.7 AFFAIR 0
-11.7 AFFAIRS 0
-11.7 AFFECT 0
-11.7 AFFECTATION 0
-11.7 AFFECTED 0
-11.7 AFFECTING 0
-11.7 AFFECTION 0
-11.7 AFFECTIONATE 0
-11.7 AFFECTIONATELY 0
-11.7 AFFECTIONS 0
-11.7 AFFECTIVE 0
-11.7 AFFECTIVELY 0
-11.7 AFFECTS 0
-11.7 AFFELDT 0
-11.7 AFFERENT 0
-11.7 AFFIANT 0
-11.7 AFFIDAVIT 0
-11.7 AFFIDAVITS 0
-11.7 AFFILIATE 0
-11.7 AFFILIATE'S 0
-11.7 AFFILIATED 0
-11.7 AFFILIATED'S 0
-11.7 AFFILIATES 0
-11.7 AFFILIATES' 0
-11.7 AFFILIATING 0
-11.7 AFFILIATION 0
-11.7 AFFILIATIONS 0
-11.7 AFFINITIES 0
-11.7 AFFINITY 0
-11.7 AFFIRM 0
-11.7 AFFIRMATION 0
-11.7 AFFIRMATIONS 0
-11.7 AFFIRMATIVE 0
-11.7 AFFIRMATIVELY 0
-11.7 AFFIRMED 0
-11.7 AFFIRMING 0
-11.7 AFFIRMS 0
-11.7 AFFIX 0
-11.7 AFFIXED 0
-11.7 AFFIXES 0
-11.7 AFFIXING 0
-11.7 AFFLECK 0
-11.7 AFFLERBACH 0
-11.7 AFFLICT 0
-11.7 AFFLICTED 0
-11.7 AFFLICTING 0
-11.7 AFFLICTION 0
-11.7 AFFLICTIONS 0
-11.7 AFFLICTS 0
-11.7 AFFLIK 0
-11.7 AFFLUENCE 0
-11.7 AFFLUENT 0
-11.7 AFFOLTER 0
-11.7 AFFORD 0
-11.7 AFFORDABILITY 0
-11.7 AFFORDABLE 0
-11.7 AFFORDED 0
-11.7 AFFORDING 0
-11.7 AFFORDS 0
-11.7 AFFRICATE 0
-11.7 AFFRICATES 0
-11.7 AFFRICATION 0
-11.7 AFFRONT 0
-11.7 AFFRONTED 0
-11.7 AFFRONTS 0
-11.7 AFFYMAX 0
-11.7 AFGHAN 0
-11.7 AFGHANI 0
-11.7 AFGHANI'S 0
-11.7 AFGHANIS 0
-11.7 AFGHANISTAN 0
-11.7 AFGHANISTAN'S 0
-11.7 AFGHANS 0
-11.7 AFHELDT 0
-11.7 AFICIONADO 0
-11.7 AFICIONADOS 0
-11.7 AFIELD 0
-11.7 AFIRE 0
-11.7 AFLAME 0
-11.7 AFLATOXIN 0
-11.7 AFLOAT 0
-11.7 AFLUTTER 0
-11.7 AFMED 0
-11.7 AFONSO 0
-11.7 AFOOT 0
-11.7 AFOREMENTIONED 0
-11.7 AFORESAID 0
-11.7 AFORETHOUGHT 0
-11.7 AFOUL 0
-11.7 AFRAID 0
-11.7 AFRESH 0
-11.7 AFRICA 0
-11.7 AFRICA'S 0
-11.7 AFRICAN 0
-11.7 AFRICANIST 0
-11.7 AFRICANIZE 0
-11.7 AFRICANIZED 0
-11.7 AFRICANS 0
-11.7 AFRIKAANS 0
-11.7 AFRIKANER 0
-11.7 AFRIKANERDOM 0
-11.7 AFRIKANERS 0
-11.7 AFRO 0
-11.7 AFSANE 0
-11.7 AFSANE'S 0
-11.7 AFSHAR 0
-11.7 AFT 0
-11.7 AFTER 0
-11.7 AFTERALL 0
-11.7 AFTERBURNER 0
-11.7 AFTERBURNERS 0
-11.7 AFTEREFFECT 0
-11.7 AFTEREFFECTS 0
-11.7 AFTERGLOW 0
-11.7 AFTERIMAGE 0
-11.7 AFTERLIFE 0
-11.7 AFTERMARKET 0
-11.7 AFTERMATH 0
-11.7 AFTERNOON 0
-11.7 AFTERNOON'S 0
-11.7 AFTERNOONS 0
-11.7 AFTERSHOCK 0
-11.7 AFTERSHOCKS 0
-11.7 AFTERTASTE 0
-11.7 AFTERTAX 0
-11.7 AFTERTHOUGHT 0
-11.7 AFTERWARD 0
-11.7 AFTERWARDS 0
-11.7 AFULA 0
-11.7 AFULA'S 0
-11.7 AG 0
-11.7 AGA 0
-11.7 AGACHE 0
-11.7 AGAIN 0
-11.7 AGAINST 0
-11.7 AGAMEMNON 0
-11.7 AGAMEMNON'S 0
-11.7 AGAN 0
-11.7 AGANBEGYAN 0
-11.7 AGANS 0
-11.7 AGAPE 0
-11.7 AGAR 0
-11.7 AGARD 0
-11.7 AGARWAL 0
-11.7 AGASSI 0
-11.7 AGASSIZ 0
-11.7 AGATE 0
-11.7 AGATES 0
-11.7 AGATHA 0
-11.7 AGCO 0
-11.7 AGE 0
-11.7 AGE'S 0
-11.7 AGED 0
-11.7 AGEE 0
-11.7 AGEE'S 0
-11.7 AGELESS 0
-11.7 AGENCE 0
-11.7 AGENCIES 0
-11.7 AGENCIES' 0
-11.7 AGENCY 0
-11.7 AGENCY'S 0
-11.7 AGENDA 0
-11.7 AGENDAS 0
-11.7 AGENT 0
-11.7 AGENT'S 0
-11.7 AGENTS 0
-11.7 AGENTS' 0
-11.7 AGER 0
-11.7 AGERATUM 0
-11.7 AGERATUMS 0
-11.7 AGERS 0
-11.7 AGERS' 0
-11.7 AGERTON 0
-11.7 AGES 0
-11.7 AGFA 0
-11.7 AGGARWAL 0
-11.7 AGGIE 0
-11.7 AGGIES 0
-11.7 AGGLOMERATE 0
-11.7 AGGLOMERATION 0
-11.7 AGGLUTINATE 0
-11.7 AGGRANDIZE 0
-11.7 AGGRANDIZEMENT 0
-11.7 AGGRANDIZING 0
-11.7 AGGRAVATE 0
-11.7 AGGRAVATED 0
-11.7 AGGRAVATES 0
-11.7 AGGRAVATING 0
-11.7 AGGRAVATION 0
-11.7 AGGREGATE 0
-11.7 AGGREGATED 0
-11.7 AGGREGATES 0
-11.7 AGGRESS 0
-11.7 AGGRESSION 0
-11.7 AGGRESSIONS 0
-11.7 AGGRESSIVE 0
-11.7 AGGRESSIVELY 0
-11.7 AGGRESSIVENESS 0
-11.7 AGGRESSIVITY 0
-11.7 AGGRESSOR 0
-11.7 AGGRESSORS 0
-11.7 AGGREY 0
-11.7 AGGRIEVE 0
-11.7 AGGRIEVED 0
-11.7 AGGY 0
-11.7 AGHAST 0
-11.7 AGHAZADEH 0
-11.7 AGIE 0
-11.7 AGILDO 0
-11.7 AGILE 0
-11.7 AGILIS 0
-11.7 AGILITY 0
-11.7 AGIN 0
-11.7 AGINCOURT 0
-11.7 AGING 0
-11.7 AGINS 0
-11.7 AGIP 0
-11.7 AGITATE 0
-11.7 AGITATED 0
-11.7 AGITATING 0
-11.7 AGITATION 0
-11.7 AGITATOR 0
-11.7 AGITATORS 0
-11.7 AGIUS 0
-11.7 AGLEAM 0
-11.7 AGLER 0
-11.7 AGLITTER 0
-11.7 AGLO 0
-11.7 AGLOW 0
-11.7 AGNA 0
-11.7 AGNE 0
-11.7 AGNELLA 0
-11.7 AGNELLI 0
-11.7 AGNELLO 0
-11.7 AGNER 0
-11.7 AGNES 0
-11.7 AGNETA 0
-11.7 AGNEW 0
-11.7 AGNICO 0
-11.7 AGNOR 0
-11.7 AGNOS 0
-11.7 AGNOSIO 0
-11.7 AGNOSTIC 0
-11.7 AGO 0
-11.7 AGOG 0
-11.7 AGOGLIA 0
-11.7 AGONIES 0
-11.7 AGONIST 0
-11.7 AGONISTS 0
-11.7 AGONIZE 0
-11.7 AGONIZED 0
-11.7 AGONIZES 0
-11.7 AGONIZING 0
-11.7 AGONIZINGLY 0
-11.7 AGONY 0
-11.7 AGORA 0
-11.7 AGOSTA 0
-11.7 AGOSTINELLI 0
-11.7 AGOSTINI 0
-11.7 AGOSTINO 0
-11.7 AGOSTO 0
-11.7 AGOURA 0
-11.7 AGOURON 0
-11.7 AGRA 0
-11.7 AGRARIAN 0
-11.7 AGRARIANISM 0
-11.7 AGRAWAL 0
-11.7 AGREE 0
-11.7 AGREEABLE 0
-11.7 AGREED 0
-11.7 AGREEING 0
-11.7 AGREEMENT 0
-11.7 AGREEMENT'S 0
-11.7 AGREEMENTS 0
-11.7 AGREES 0
-11.7 AGRESOURCE 0
-11.7 AGRESTA 0
-11.7 AGRESTI 0
-11.7 AGREXCO 0
-11.7 AGRI 0
-11.7 AGRIBUSINESS 0
-11.7 AGRICO 0
-11.7 AGRICOLA 0
-11.7 AGRICOLE 0
-11.7 AGRICULTURAL 0
-11.7 AGRICULTURALIST 0
-11.7 AGRICULTURALLY 0
-11.7 AGRICULTURE 0
-11.7 AGRICULTURE'S 0
-11.7 AGRIFUEL 0
-11.7 AGRIFUELS 0
-11.7 AGRIPPA 0
-11.7 AGRIVISOR 0
-11.7 AGRO 0
-11.7 AGROCHEMICAL 0
-11.7 AGROCHEMICALS 0
-11.7 AGROKOMERC 0
-11.7 AGRONOMIST 0
-11.7 AGRONOMISTS 0
-11.7 AGROSIAND 0
-11.7 AGROUND 0
-11.7 AGRUSA 0
-11.7 AGUA 0
-11.7 AGUACATE 0
-11.7 AGUADO 0
-11.7 AGUAYO 0
-11.7 AGUDELO 0
-11.7 AGUERO 0
-11.7 AGUIAR 0
-11.7 AGUILA 0
-11.7 AGUILAR 0
-11.7 AGUILERA 0
-11.7 AGUILLAR 0
-11.7 AGUILLARD 0
-11.7 AGUILLON 0
-11.7 AGUINAGA 0
-11.7 AGUIRRA 0
-11.7 AGUIRRA'S 0
-11.7 AGUIRRE 0
-11.7 AGUIRRE'S 0
-11.7 AGUSTIN 0
-11.7 AH 0
-11.7 AHA 0
-11.7 AHAB 0
-11.7 AHAH 0
-11.7 AHARON 0
-11.7 AHART 0
-11.7 AHAULSIE 0
-11.7 AHEAD 0
-11.7 AHEARN 0
-11.7 AHERIN 0
-11.7 AHERN 0
-11.7 AHERNE 0
-11.7 AHH 0
-11.7 AHL 0
-11.7 AHLBERG 0
-11.7 AHLBORN 0
-11.7 AHLEN 0
-11.7 AHLERS 0
-11.7 AHLES 0
-11.7 AHLF 0
-11.7 AHLGREN 0
-11.7 AHLGRIM 0
-11.7 AHLIN 0
-11.7 AHLMAN 0
-11.7 AHLQUIST 0
-11.7 AHLSTRAND 0
-11.7 AHLSTROM 0
-11.7 AHMAD 0
-11.7 AHMADI 0
-11.7 AHMANN 0
-11.7 AHMANSON 0
-11.7 AHMED 0
-11.7 AHMOUDI 0
-11.7 AHN 0
-11.7 AHNER 0
-11.7 AHO 0
-11.7 AHOLA 0
-11.7 AHOLD 0
-11.7 AHONEN 0
-11.7 AHR 0
-11.7 AHRANAT 0
-11.7 AHREN 0
-11.7 AHRENDT 0
-11.7 AHRENS 0
-11.7 AHS 0
-11.7 AHUJA 0
-11.7 AHUMADA 0
-11.7 AI 0
-11.7 AICHELE 0
-11.7 AICHER 0
-11.7 AICHI 0
-11.7 AICKIN 0
-11.7 AID 0
-11.7 AID'S 0
-11.7 AIDA 0
-11.7 AIDAN 0
-11.7 AIDE 0
-11.7 AIDE'S 0
-11.7 AIDED 0
-11.7 AIDES 0
-11.7 AIDES' 0
-11.7 AIDID 0
-11.7 AIDID'S 0
-11.7 AIDING 0
-11.7 AIDS 0
-11.7 AIELLO 0
-11.7 AIGNER 0
-11.7 AIGUEBELLE 0
-11.7 AIKEN 0
-11.7 AIKENS 0
-11.7 AIKEY 0
-11.7 AIKIN 0
-11.7 AIKINS 0
-11.7 AIKMAN 0
-11.7 AIL 0
-11.7 AILEE 0
-11.7 AILEEN 0
-11.7 AILERON 0
-11.7 AILERONS 0
-11.7 AILES 0
-11.7 AILEY 0
-11.7 AILING 0
-11.7 AILMENT 0
-11.7 AILMENTS 0
-11.7 AILOR 0
-11.7 AILS 0
-11.7 AILSA 0
-11.7 AIM 0
-11.7 AIME 0
-11.7 AIMED 0
-11.7 AIMEE 0
-11.7 AIMING 0
-11.7 AIMLESS 0
-11.7 AIMLESSLY 0
-11.7 AIMONE 0
-11.7 AIMS 0
-11.7 AIN'T 0
-11.7 AINE 0
-11.7 AINGE 0
-11.7 AINLEY 0
-11.7 AINSBERG 0
-11.7 AINSLEY 0
-11.7 AINSLIE 0
-11.7 AINSWORTH 0
-11.7 AINSWORTH'S 0
-11.7 AIPAC 0
-11.7 AIPAC'S 0
-11.7 AIR 0
-11.7 AIR'S 0
-11.7 AIRBAG 0
-11.7 AIRBAGS 0
-11.7 AIRBASE 0
-11.7 AIRBASES 0
-11.7 AIRBOAT 0
-11.7 AIRBOATS 0
-11.7 AIRBORNE 0
-11.7 AIRBORNE'S 0
-11.7 AIRBUS 0
-11.7 AIRBUS'S 0
-11.7 AIRCAL 0
-11.7 AIRCAL'S 0
-11.7 AIRCO 0
-11.7 AIRCOA 0
-11.7 AIRCRAFT 0
-11.7 AIRCRAFT'S 0
-11.7 AIRCRAFTS 0
-11.7 AIRCREW 0
-11.7 AIRD 0
-11.7 AIRDROP 0
-11.7 AIRDROPS 0
-11.7 AIRED 0
-11.7 AIREDALE 0
-11.7 AIRES 0
-11.7 AIREY 0
-11.7 AIRFARE 0
-11.7 AIRFARES 0
-11.7 AIRFIELD 0
-11.7 AIRFIELDS 0
-11.7 AIRFLOW 0
-11.7 AIRFOIL 0
-11.7 AIRFOILS 0
-11.7 AIRFONE 0
-11.7 AIRFORCE 0
-11.7 AIRFRAME 0
-11.7 AIRFREIGHT 0
-11.7 AIRGAS 0
-11.7 AIRGLOW 0
-11.7 AIRHART 0
-11.7 AIRHEAD 0
-11.7 AIRING 0
-11.7 AIRINGTON 0
-11.7 AIRLESS 0
-11.7 AIRLIA 0
-11.7 AIRLIE 0
-11.7 AIRLIFT 0
-11.7 AIRLIFTED 0
-11.7 AIRLIFTING 0
-11.7 AIRLIFTS 0
-11.7 AIRLINE 0
-11.7 AIRLINE'S 0
-11.7 AIRLINER 0
-11.7 AIRLINER'S 0
-11.7 AIRLINERS 0
-11.7 AIRLINES 0
-11.7 AIRLINES' 0
-11.7 AIRLINK 0
-11.7 AIRLOCK 0
-11.7 AIRMAIL 0
-11.7 AIRMAN 0
-11.7 AIRMAN'S 0
-11.7 AIRMEN 0
-11.7 AIRMOTIVE 0
-11.7 AIRPLANE 0
-11.7 AIRPLANE'S 0
-11.7 AIRPLANES 0
-11.7 AIRPORT 0
-11.7 AIRPORT'S 0
-11.7 AIRPORTS 0
-11.7 AIRPOWER 0
-11.7 AIRS 0
-11.7 AIRSHIP 0
-11.7 AIRSHIPS 0
-11.7 AIRSPACE 0
-11.7 AIRSPEED 0
-11.7 AIRSTRIKE 0
-11.7 AIRSTRIKES 0
-11.7 AIRSTRIP 0
-11.7 AIRSTRIPS 0
-11.7 AIRTIGHT 0
-11.7 AIRTIME 0
-11.7 AIRTOUCH 0
-11.7 AIRTRAN 0
-11.7 AIRWAVE 0
-11.7 AIRWAVES 0
-11.7 AIRWAY 0
-11.7 AIRWAY'S 0
-11.7 AIRWAYS 0
-11.7 AIRWAYS' 0
-11.7 AIRWING 0
-11.7 AIRWORTHINESS 0
-11.7 AIRWORTHY 0
-11.7 AIRY 0
-11.7 AIR_FORCE 0
-11.7 AIS 0
-11.7 AISA 0
-11.7 AISLE 0
-11.7 AISLES 0
-11.7 AISLINN 0
-11.7 AITCHISON 0
-11.7 AITHNE 0
-11.7 AITKEN 0
-11.7 AITON 0
-11.7 AIWA 0
-11.7 AIX-LA-CHAPELLE 0
-11.7 AJA 0
-11.7 AJAJ 0
-11.7 AJAJ'S 0
-11.7 AJAMI 0
-11.7 AJAR 0
-11.7 AJAX 0
-11.7 AJAX'S 0
-11.7 AJINOMOTO 0
-11.7 AJITO 0
-11.7 AKA 0
-11.7 AKAI 0
-11.7 AKAKA 0
-11.7 AKALI 0
-11.7 AKAMINE 0
-11.7 AKANA 0
-11.7 AKARD 0
-11.7 AKASHI 0
-11.7 AKASHI'S 0
-11.7 AKBAR 0
-11.7 AKC 0
-11.7 AKE 0
-11.7 AKEBONO 0
-11.7 AKEL 0
-11.7 AKELLA 0
-11.7 AKEN 0
-11.7 AKENS 0
-11.7 AKER 0
-11.7 AKERLEY 0
-11.7 AKERMAN 0
-11.7 AKERS 0
-11.7 AKERS'S 0
-11.7 AKERSON 0
-11.7 AKEY 0
-11.7 AKHTAR 0
-11.7 AKI 0
-11.7 AKIBA 0
-11.7 AKIHITO 0
-11.7 AKIMBO 0
-11.7 AKIN 0
-11.7 AKINS 0
-11.7 AKIO 0
-11.7 AKIRA 0
-11.7 AKITA 0
-11.7 AKITA'S 0
-11.7 AKIVA 0
-11.7 AKIYAMA 0
-11.7 AKKADIAN 0
-11.7 AKKERMAN 0
-11.7 AKRE 0
-11.7 AKRIDGE 0
-11.7 AKRON 0
-11.7 AKSAMIT 0
-11.7 AKSLER 0
-11.7 AKST 0
-11.7 AKYANAMA 0
-11.7 AKZO 0
-11.7 AL 0
-11.7 AL'S 0
-11.7 AL. 0
-11.7 ALA 0
-11.7 ALABAMA 0
-11.7 ALABAMA'S 0
-11.7 ALABAMAN 0
-11.7 ALABAMANS 0
-11.7 ALABASTER 0
-11.7 ALACHLOR 0
-11.7 ALACHUA 0
-11.7 ALACRITY 0
-11.7 ALADDIN 0
-11.7 ALAFI 0
-11.7 ALAGEM 0
-11.7 ALAGNA 0
-11.7 ALAGOAS 0
-11.7 ALAI 0
-11.7 ALAIMO 0
-11.7 ALAIN 0
-11.7 ALAINE 0
-11.7 ALAIR 0
-11.7 ALAM 0
-11.7 ALAMCO 0
-11.7 ALAMEDA 0
-11.7 ALAMEIN 0
-11.7 ALAMILLO 0
-11.7 ALAMITO 0
-11.7 ALAMITOS 0
-11.7 ALAMO 0
-11.7 ALAMOS 0
-11.7 ALAMOUDI 0
-11.7 ALAN 0
-11.7 ALAN'S 0
-11.7 ALANA 0
-11.7 ALAND 0
-11.7 ALANE 0
-11.7 ALANIS 0
-11.7 ALANIZ 0
-11.7 ALANN 0
-11.7 ALANNA 0
-11.7 ALAR 0
-11.7 ALARCON 0
-11.7 ALARD 0
-11.7 ALARIC 0
-11.7 ALARICA 0
-11.7 ALARICE 0
-11.7 ALARID 0
-11.7 ALARIE 0
-11.7 ALARM 0
-11.7 ALARM'S 0
-11.7 ALARMED 0
-11.7 ALARMING 0
-11.7 ALARMINGLY 0
-11.7 ALARMIST 0
-11.7 ALARMS 0
-11.7 ALAS 0
-11.7 ALASKA 0
-11.7 ALASKA'S 0
-11.7 ALASKAMEN 0
-11.7 ALASKAN 0
-11.7 ALASKANS 0
-11.7 ALASTAIR 0
-11.7 ALASTER 0
-11.7 ALATORRE 0
-11.7 ALAYNE 0
-11.7 ALBA 0
-11.7 ALBACH 0
-11.7 ALBACORE 0
-11.7 ALBAN 0
-11.7 ALBANESE 0
-11.7 ALBANI 0
-11.7 ALBANI'S 0
-11.7 ALBANIA 0
-11.7 ALBANIA'S 0
-11.7 ALBANIAN 0
-11.7 ALBANIANS 0
-11.7 ALBANO 0
-11.7 ALBANS 0
-11.7 ALBANY 0
-11.7 ALBANY'S 0
-11.7 ALBARADO 0
-11.7 ALBARRAN 0
-11.7 ALBATROSS 0
-11.7 ALBATROSSES 0
-11.7 ALBAUGH 0
-11.7 ALBEA 0
-11.7 ALBEE 0
-11.7 ALBEIT 0
-11.7 ALBEMARLE 0
-11.7 ALBEN 0
-11.7 ALBER 0
-11.7 ALBERDING 0
-11.7 ALBERG 0
-11.7 ALBERGO 0
-11.7 ALBERICO 0
-11.7 ALBERN 0
-11.7 ALBERS 0
-11.7 ALBERSON 0
-11.7 ALBERT 0
-11.7 ALBERTA 0
-11.7 ALBERTHAL 0
-11.7 ALBERTI 0
-11.7 ALBERTINA 0
-11.7 ALBERTINE 0
-11.7 ALBERTINI 0
-11.7 ALBERTO 0
-11.7 ALBERTS 0
-11.7 ALBERTSEN 0
-11.7 ALBERTSON 0
-11.7 ALBERTSON'S 0
-11.7 ALBERTUS 0
-11.7 ALBERTVILLE 0
-11.7 ALBERTY 0
-11.7 ALBIE 0
-11.7 ALBIN 0
-11.7 ALBINA 0
-11.7 ALBINI 0
-11.7 ALBINIA 0
-11.7 ALBINO 0
-11.7 ALBION 0
-11.7 ALBIRIC 0
-11.7 ALBO 0
-11.7 ALBRECHT 0
-11.7 ALBRIGHT 0
-11.7 ALBRITTON 0
-11.7 ALBRO 0
-11.7 ALBUM 0
-11.7 ALBUM'S 0
-11.7 ALBUMIN 0
-11.7 ALBUMS 0
-11.7 ALBUNEX 0
-11.7 ALBUQUERQUE 0
-11.7 ALBURY 0
-11.7 ALBUS 0
-11.7 ALBUTEROL 0
-11.7 ALCALA 0
-11.7 ALCAN 0
-11.7 ALCAN'S 0
-11.7 ALCANTAR 0
-11.7 ALCANTARA 0
-11.7 ALCARAZ 0
-11.7 ALCASA 0
-11.7 ALCATEL 0
-11.7 ALCATEL'S 0
-11.7 ALCATRAZ 0
-11.7 ALCEE 0
-11.7 ALCHEMICALLY 0
-11.7 ALCHEMIST 0
-11.7 ALCHEMY 0
-11.7 ALCIDE 0
-11.7 ALCIDS 0
-11.7 ALCINA 0
-11.7 ALCO 0
-11.7 ALCO'S 0
-11.7 ALCOA 0
-11.7 ALCOA'S 0
-11.7 ALCOCER 0
-11.7 ALCOCK 0
-11.7 ALCOHOL 0
-11.7 ALCOHOLIC 0
-11.7 ALCOHOLICS 0
-11.7 ALCOHOLISM 0
-11.7 ALCON 0
-11.7 ALCORTA 0
-11.7 ALCOTT 0
-11.7 ALCOVE 0
-11.7 ALCOVES 0
-11.7 ALDA 0
-11.7 ALDACO 0
-11.7 ALDAMA 0
-11.7 ALDANA 0
-11.7 ALDAPE 0
-11.7 ALDAY 0
-11.7 ALDEBARAN 0
-11.7 ALDEN 0
-11.7 ALDER 0
-11.7 ALDERCY 0
-11.7 ALDERETE 0
-11.7 ALDERFER 0
-11.7 ALDERIDGE 0
-11.7 ALDERMAN 0
-11.7 ALDERMEN 0
-11.7 ALDERSON 0
-11.7 ALDERTON 0
-11.7 ALDI 0
-11.7 ALDICARB 0
-11.7 ALDILA 0
-11.7 ALDIN 0
-11.7 ALDINGER 0
-11.7 ALDIS 0
-11.7 ALDO 0
-11.7 ALDORA 0
-11.7 ALDOUS 0
-11.7 ALDRED 0
-11.7 ALDREDGE 0
-11.7 ALDRETE 0
-11.7 ALDRIC 0
-11.7 ALDRICH 0
-11.7 ALDRIDGE 0
-11.7 ALDRIN 0
-11.7 ALDRIN'S 0
-11.7 ALDUS 0
-11.7 ALDWIN 0
-11.7 ALDWYN 0
-11.7 ALDYS 0
-11.7 ALE 0
-11.7 ALEATORY 0
-11.7 ALEC 0
-11.7 ALEDA 0
-11.7 ALEEN 0
-11.7 ALEGRE 0
-11.7 ALEGRETT 0
-11.7 ALEGRIA 0
-11.7 ALEHOUSE 0
-11.7 ALEICHEM 0
-11.7 ALEJANDRE 0
-11.7 ALEJANDRO 0
-11.7 ALEJO 0
-11.7 ALEJOS 0
-11.7 ALEKSANDER 0
-11.7 ALEKSANDR 0
-11.7 ALEMAN 0
-11.7 ALENA 0
-11.7 ALENDRIN 0
-11.7 ALENE 0
-11.7 ALENIA 0
-11.7 ALEO 0
-11.7 ALEPH 0
-11.7 ALERIA 0
-11.7 ALERON 0
-11.7 ALERT 0
-11.7 ALERTED 0
-11.7 ALERTING 0
-11.7 ALERTNESS 0
-11.7 ALERTS 0
-11.7 ALES 0
-11.7 ALESHIRE 0
-11.7 ALESI 0
-11.7 ALESSANDRA 0
-11.7 ALESSANDRINI 0
-11.7 ALESSANDRO 0
-11.7 ALESSI 0
-11.7 ALESSIO 0
-11.7 ALETA 0
-11.7 ALETHEA 0
-11.7 ALETTI 0
-11.7 ALEUTIAN 0
-11.7 ALEUTIANS 0
-11.7 ALEVE 0
-11.7 ALEWIFE 0
-11.7 ALEWINE 0
-11.7 ALEWIVES 0
-11.7 ALEX 0
-11.7 ALEX'S 0
-11.7 ALEXA 0
-11.7 ALEXANDER 0
-11.7 ALEXANDER'S 0
-11.7 ALEXANDERS 0
-11.7 ALEXANDRA 0
-11.7 ALEXANDRE 0
-11.7 ALEXANDRIA 0
-11.7 ALEXANDRINE 0
-11.7 ALEXANDRINES 0
-11.7 ALEXEI 0
-11.7 ALEXI 0
-11.7 ALEXI'S 0
-11.7 ALEXIA 0
-11.7 ALEXINE 0
-11.7 ALEXIS 0
-11.7 ALEXOPOULOS 0
-11.7 ALEXY 0
-11.7 ALEY 0
-11.7 ALF 0
-11.7 ALFA 0
-11.7 ALFA'S 0
-11.7 ALFALFA 0
-11.7 ALFANO 0
-11.7 ALFAREDA 0
-11.7 ALFARO 0
-11.7 ALFAVILLI 0
-11.7 ALFIE 0
-11.7 ALFIERI 0
-11.7 ALFIERO 0
-11.7 ALFIN 0
-11.7 ALFIN'S 0
-11.7 ALFONO 0
-11.7 ALFONS 0
-11.7 ALFONSE 0
-11.7 ALFONSIN 0
-11.7 ALFONSIN'S 0
-11.7 ALFONSINE 0
-11.7 ALFONSO 0
-11.7 ALFORD 0
-11.7 ALFRED 0
-11.7 ALFREDO 0
-11.7 ALFREDSON 0
-11.7 ALFREY 0
-11.7 ALGAE 0
-11.7 ALGAL 0
-11.7 ALGAR 0
-11.7 ALGARIN 0
-11.7 ALGEBRA 0
-11.7 ALGEBRAIC 0
-11.7 ALGEBRAICALLY 0
-11.7 ALGEMENE 0
-11.7 ALGEO 0
-11.7 ALGER 0
-11.7 ALGERIA 0
-11.7 ALGERIA'S 0
-11.7 ALGERIAN 0
-11.7 ALGERIANS 0
-11.7 ALGERNON 0
-11.7 ALGIE 0
-11.7 ALGIERS 0
-11.7 ALGOL 0
-11.7 ALGOM 0
-11.7 ALGOMA 0
-11.7 ALGONQUIAN 0
-11.7 ALGONQUIN 0
-11.7 ALGORITHM 0
-11.7 ALGORITHMS 0
-11.7 ALGUIRE 0
-11.7 ALGY 0
-11.7 ALHADEFF 0
-11.7 ALHAMBRA 0
-11.7 ALHAUSIE 0
-11.7 ALI 0
-11.7 ALI'S 0
-11.7 ALI-REZA 0
-11.7 ALIANO 0
-11.7 ALIANZA 0
-11.7 ALIAS 0
-11.7 ALIASES 0
-11.7 ALIBERTI 0
-11.7 ALIBI 0
-11.7 ALIBIS 0
-11.7 ALIBRANDI 0
-11.7 ALICE 0
-11.7 ALICE'S 0
-11.7 ALICEA 0
-11.7 ALICIA 0
-11.7 ALICIA'S 0
-11.7 ALIDA 0
-11.7 ALIE 0
-11.7 ALIEN 0
-11.7 ALIENATE 0
-11.7 ALIENATED 0
-11.7 ALIENATES 0
-11.7 ALIENATING 0
-11.7 ALIENATION 0
-11.7 ALIENS 0
-11.7 ALIFF 0
-11.7 ALIG 0
-11.7 ALIGHT 0
-11.7 ALIGN 0
-11.7 ALIGNED 0
-11.7 ALIGNING 0
-11.7 ALIGNMENT 0
-11.7 ALIGNMENTS 0
-11.7 ALIGNS 0
-11.7 ALIJA 0
-11.7 ALIJA'S 0
-11.7 ALIKE 0
-11.7 ALIKES 0
-11.7 ALIMA 0
-11.7 ALIMENIES 0
-11.7 ALIMENTARY 0
-11.7 ALIMONY 0
-11.7 ALINA 0
-11.7 ALINE 0
-11.7 ALINES 0
-11.7 ALIOTO 0
-11.7 ALIQUIPPA 0
-11.7 ALIQUIPPA'S 0
-11.7 ALIQUIPPAS 0
-11.7 ALIRE 0
-11.7 ALISKY 0
-11.7 ALISON 0
-11.7 ALISSA 0
-11.7 ALISTAIR 0
-11.7 ALISTER 0
-11.7 ALITA 0
-11.7 ALITALIA 0
-11.7 ALITALIA'S 0
-11.7 ALITHIA 0
-11.7 ALITO 0
-11.7 ALIVE 0
-11.7 ALIX 0
-11.7 ALIZAC 0
-11.7 ALKA 0
-11.7 ALKAHEST 0
-11.7 ALKALI 0
-11.7 ALKALIES 0
-11.7 ALKALINE 0
-11.7 ALKALINITY 0
-11.7 ALKALOID 0
-11.7 ALKALOIDAL 0
-11.7 ALKALOIDS 0
-11.7 ALKANES 0
-11.7 ALKEMA 0
-11.7 ALKENE 0
-11.7 ALKENES 0
-11.7 ALKIRE 0
-11.7 ALL 0
-11.7 ALL'S 0
-11.7 ALL-OUT 0
-11.7 ALL-PURPOSE 0
-11.7 ALLA 0
-11.7 ALLAH 0
-11.7 ALLAIN 0
-11.7 ALLAIRE 0
-11.7 ALLAIS 0
-11.7 ALLAN 0
-11.7 ALLANTE 0
-11.7 ALLAR 0
-11.7 ALLARD 0
-11.7 ALLAY 0
-11.7 ALLAYED 0
-11.7 ALLAYING 0
-11.7 ALLAYS 0
-11.7 ALLBAUGH 0
-11.7 ALLBEE 0
-11.7 ALLBRIGHT 0
-11.7 ALLBRITTEN 0
-11.7 ALLBRITTON 0
-11.7 ALLCOCK 0
-11.7 ALLCORN 0
-11.7 ALLDAY 0
-11.7 ALLDERDICE 0
-11.7 ALLDREDGE 0
-11.7 ALLEBACH 0
-11.7 ALLECO 0
-11.7 ALLEE 0
-11.7 ALLEGATION 0
-11.7 ALLEGATIONS 0
-11.7 ALLEGE 0
-11.7 ALLEGED 0
-11.7 ALLEGEDLY 0
-11.7 ALLEGES 0
-11.7 ALLEGHANY 0
-11.7 ALLEGHENY 0
-11.7 ALLEGHENY'S 0
-11.7 ALLEGIANCE 0
-11.7 ALLEGIANCES 0
-11.7 ALLEGING 0
-11.7 ALLEGIS 0
-11.7 ALLEGIS' 0
-11.7 ALLEGIS'S 0
-11.7 ALLEGORICAL 0
-11.7 ALLEGORIES 0
-11.7 ALLEGORY 0
-11.7 ALLEGRA 0
-11.7 ALLEGRETTI 0
-11.7 ALLEGRO 0
-11.7 ALLELE 0
-11.7 ALLELES 0
-11.7 ALLELIC 0
-11.7 ALLEMAN 0
-11.7 ALLEMAND 0
-11.7 ALLEN 0
-11.7 ALLEN'S 0
-11.7 ALLENBAUGH 0
-11.7 ALLENDALE 0
-11.7 ALLENDE 0
-11.7 ALLENDER 0
-11.7 ALLENDORF 0
-11.7 ALLENE 0
-11.7 ALLENHURST 0
-11.7 ALLENS 0
-11.7 ALLENSBACH 0
-11.7 ALLENSWORTH 0
-11.7 ALLENTOWN 0
-11.7 ALLENWOOD 0
-11.7 ALLER 0
-11.7 ALLERGAN 0
-11.7 ALLERGEN 0
-11.7 ALLERGENS 0
-11.7 ALLERGIC 0
-11.7 ALLERGIES 0
-11.7 ALLERGIST 0
-11.7 ALLERGY 0
-11.7 ALLERS 0
-11.7 ALLERT 0
-11.7 ALLERTON 0
-11.7 ALLES 0
-11.7 ALLEVA 0
-11.7 ALLEVIATE 0
-11.7 ALLEVIATED 0
-11.7 ALLEVIATES 0
-11.7 ALLEVIATING 0
-11.7 ALLEVIATION 0
-11.7 ALLEY 0
-11.7 ALLEY'S 0
-11.7 ALLEYNE 0
-11.7 ALLEYS 0
-11.7 ALLEYWAY 0
-11.7 ALLEYWAYS 0
-11.7 ALLGAIER 0
-11.7 ALLGEIER 0
-11.7 ALLGEMEINE 0
-11.7 ALLGEYER 0
-11.7 ALLGOOD 0
-11.7 ALLI 0
-11.7 ALLIANCE 0
-11.7 ALLIANCE'S 0
-11.7 ALLIANCES 0
-11.7 ALLIANT 0
-11.7 ALLIANZ 0
-11.7 ALLICK 0
-11.7 ALLIE 0
-11.7 ALLIED 0
-11.7 ALLIED'S 0
-11.7 ALLIEDSIGNAL 0
-11.7 ALLIEDSIGNAL'S 0
-11.7 ALLIES 0
-11.7 ALLIES' 0
-11.7 ALLIGATOR 0
-11.7 ALLIGATORS 0
-11.7 ALLIGOOD 0
-11.7 ALLIN 0
-11.7 ALLINDER 0
-11.7 ALLING 0
-11.7 ALLINGER 0
-11.7 ALLINGHAM 0
-11.7 ALLINGTON 0
-11.7 ALLINSON 0
-11.7 ALLIS 0
-11.7 ALLISON 0
-11.7 ALLISON'S 0
-11.7 ALLISTER 0
-11.7 ALLISTON 0
-11.7 ALLITERATION 0
-11.7 ALLITERATIVE 0
-11.7 ALLMAN 0
-11.7 ALLMENDINGER 0
-11.7 ALLMON 0
-11.7 ALLMOND 0
-11.7 ALLNET 0
-11.7 ALLNUTT 0
-11.7 ALLOCATE 0
-11.7 ALLOCATED 0
-11.7 ALLOCATES 0
-11.7 ALLOCATING 0
-11.7 ALLOCATION 0
-11.7 ALLOCATIONS 0
-11.7 ALLOCATOR 0
-11.7 ALLOCATORS 0
-11.7 ALLOCCA 0
-11.7 ALLOCCO 0
-11.7 ALLOMORPH 0
-11.7 ALLOMORPHS 0
-11.7 ALLOPHONE 0
-11.7 ALLOPHONES 0
-11.7 ALLOPHONIC 0
-11.7 ALLOR 0
-11.7 ALLOT 0
-11.7 ALLOTED 0
-11.7 ALLOTMENT 0
-11.7 ALLOTMENTS 0
-11.7 ALLOTROPE 0
-11.7 ALLOTROPES 0
-11.7 ALLOTS 0
-11.7 ALLOTTED 0
-11.7 ALLOTTING 0
-11.7 ALLOW 0
-11.7 ALLOWABLE 0
-11.7 ALLOWANCE 0
-11.7 ALLOWANCES 0
-11.7 ALLOWAY 0
-11.7 ALLOWED 0
-11.7 ALLOWING 0
-11.7 ALLOWS 0
-11.7 ALLOY 0
-11.7 ALLOYS 0
-11.7 ALLPHIN 0
-11.7 ALLPORT 0
-11.7 ALLRED 0
-11.7 ALLRIGHT 0
-11.7 ALLS 0
-11.7 ALLSBROOK 0
-11.7 ALLSHOUSE 0
-11.7 ALLSOP 0
-11.7 ALLSOPP 0
-11.7 ALLSPICE 0
-11.7 ALLSTATE 0
-11.7 ALLSTATE'S 0
-11.7 ALLSTON 0
-11.7 ALLSUP 0
-11.7 ALLTEL 0
-11.7 ALLTIME 0
-11.7 ALLTON 0
-11.7 ALLTOP 0
-11.7 ALLUDE 0
-11.7 ALLUDED 0
-11.7 ALLUDES 0
-11.7 ALLUDING 0
-11.7 ALLUM 0
-11.7 ALLUMS 0
-11.7 ALLURE 0
-11.7 ALLURED 0
-11.7 ALLURING 0
-11.7 ALLUSION 0
-11.7 ALLUSIONS 0
-11.7 ALLUSIVE 0
-11.7 ALLUVIAL 0
-11.7 ALLUVIUM 0
-11.7 ALLWASTE 0
-11.7 ALLWEISS 0
-11.7 ALLY 0
-11.7 ALLY'S 0
-11.7 ALLYING 0
-11.7 ALLYN 0
-11.7 ALLYS 0
-11.7 ALLYSON 0
-11.7 ALM 0
-11.7 ALMA 0
-11.7 ALMADA 0
-11.7 ALMADANI 0
-11.7 ALMADEN 0
-11.7 ALMAGUER 0
-11.7 ALMAN 0
-11.7 ALMANAC 0
-11.7 ALMAND 0
-11.7 ALMANZA 0
-11.7 ALMANZAR 0
-11.7 ALMARAZ 0
-11.7 ALMAS 0
-11.7 ALMASY 0
-11.7 ALMAZAN 0
-11.7 ALMEDA 0
-11.7 ALMEIDA 0
-11.7 ALMENDAREZ 0
-11.7 ALMER 0
-11.7 ALMGREN 0
-11.7 ALMIGHTY 0
-11.7 ALMIRA 0
-11.7 ALMO 0
-11.7 ALMODOVAR 0
-11.7 ALMON 0
-11.7 ALMOND 0
-11.7 ALMONDS 0
-11.7 ALMONTE 0
-11.7 ALMOS 0
-11.7 ALMOST 0
-11.7 ALMQUIST 0
-11.7 ALMS 0
-11.7 ALMY 0
-11.7 ALMYS 0
-11.7 ALODIE 0
-11.7 ALOE 0
-11.7 ALOFT 0
-11.7 ALOHA 0
-11.7 ALOI 0
-11.7 ALOIA 0
-11.7 ALOIS 0
-11.7 ALOISA 0
-11.7 ALOISI 0
-11.7 ALOISIA 0
-11.7 ALOISIO 0
-11.7 ALOKA 0
-11.7 ALON 0
-11.7 ALONE 0
-11.7 ALONG 0
-11.7 ALONGE 0
-11.7 ALONGI 0
-11.7 ALONGS 0
-11.7 ALONGSIDE 0
-11.7 ALONSO 0
-11.7 ALONZA 0
-11.7 ALONZO 0
-11.7 ALOOF 0
-11.7 ALOOFNESS 0
-11.7 ALOT 0
-11.7 ALOUD 0
-11.7 ALOYS 0
-11.7 ALOYSE 0
-11.7 ALOYSIA 0
-11.7 ALOYSIUS 0
-11.7 ALPA 0
-11.7 ALPACA 0
-11.7 ALPAUGH 0
-11.7 ALPER 0
-11.7 ALPERIN 0
-11.7 ALPERN 0
-11.7 ALPERS 0
-11.7 ALPERT 0
-11.7 ALPEX 0
-11.7 ALPHA 0
-11.7 ALPHA'S 0
-11.7 ALPHABET 0
-11.7 ALPHABETIC 0
-11.7 ALPHABETICAL 0
-11.7 ALPHABETICALLY 0
-11.7 ALPHABETIZATION 0
-11.7 ALPHABETIZE 0
-11.7 ALPHAMETRIC 0
-11.7 ALPHAMETRICS 0
-11.7 ALPHANDERY 0
-11.7 ALPHANUMERIC 0
-11.7 ALPHAREL 0
-11.7 ALPHARETTA 0
-11.7 ALPHIN 0
-11.7 ALPHONSE 0
-11.7 ALPHONSINE 0
-11.7 ALPHONSO 0
-11.7 ALPIN 0
-11.7 ALPINE 0
-11.7 ALPIREZ 0
-11.7 ALPO 0
-11.7 ALPS 0
-11.7 ALQUIST 0
-11.7 ALREADY 0
-11.7 ALRED 0
-11.7 ALRIGHT 0
-11.7 ALROY 0
-11.7 ALS 0
-11.7 ALSACE 0
-11.7 ALSATIAN 0
-11.7 ALSBROOK 0
-11.7 ALSBROOK'S 0
-11.7 ALSBROOKS 0
-11.7 ALSBROOKS' 0
-11.7 ALSBURY 0
-11.7 ALSDORF 0
-11.7 ALSIP 0
-11.7 ALSO 0
-11.7 ALSOBROOK 0
-11.7 ALSOBROOKS 0
-11.7 ALSOP 0
-11.7 ALSPACH 0
-11.7 ALSPAUGH 0
-11.7 ALSTHOM 0
-11.7 ALSTON 0
-11.7 ALSUP 0
-11.7 ALT 0
-11.7 ALTA 0
-11.7 ALTADENA 0
-11.7 ALTAI 0
-11.7 ALTAIC 0
-11.7 ALTAMIRANO 0
-11.7 ALTAMURO 0
-11.7 ALTAR 0
-11.7 ALTARPIECE 0
-11.7 ALTARS 0
-11.7 ALTAVISTA 0
-11.7 ALTAY 0
-11.7 ALTEMOSE 0
-11.7 ALTEMUS 0
-11.7 ALTENBURG 0
-11.7 ALTENHOFEN 0
-11.7 ALTER 0
-11.7 ALTERA 0
-11.7 ALTERATION 0
-11.7 ALTERATIONS 0
-11.7 ALTERCATION 0
-11.7 ALTERCATIONS 0
-11.7 ALTERED 0
-11.7 ALTERGOTT 0
-11.7 ALTERING 0
-11.7 ALTERMAN 0
-11.7 ALTERNACARE 0
-11.7 ALTERNATE 0
-11.7 ALTERNATED 0
-11.7 ALTERNATELY 0
-11.7 ALTERNATES 0
-11.7 ALTERNATING 0
-11.7 ALTERNATION 0
-11.7 ALTERNATIVE 0
-11.7 ALTERNATIVELY 0
-11.7 ALTERNATIVES 0
-11.7 ALTERNATOR 0
-11.7 ALTERS 0
-11.7 ALTFEST 0
-11.7 ALTHAUS 0
-11.7 ALTHAVER 0
-11.7 ALTHEA 0
-11.7 ALTHOFF 0
-11.7 ALTHOUGH 0
-11.7 ALTHOUSE 0
-11.7 ALTICE 0
-11.7 ALTIER 0
-11.7 ALTIERI 0
-11.7 ALTIMA 0
-11.7 ALTIMA'S 0
-11.7 ALTIMETER 0
-11.7 ALTIMORANO 0
-11.7 ALTIPLANO 0
-11.7 ALTITUDE 0
-11.7 ALTITUDES 0
-11.7 ALTIZER 0
-11.7 ALTLAND 0
-11.7 ALTMAN 0
-11.7 ALTMAN'S 0
-11.7 ALTMANN 0
-11.7 ALTMEYER 0
-11.7 ALTO 0
-11.7 ALTOBELLI 0
-11.7 ALTOGETHER 0
-11.7 ALTOM 0
-11.7 ALTOMARE 0
-11.7 ALTON 0
-11.7 ALTOONA 0
-11.7 ALTOS 0
-11.7 ALTRA 0
-11.7 ALTRON 0
-11.7 ALTRUISM 0
-11.7 ALTRUISTIC 0
-11.7 ALTSCHILLER 0
-11.7 ALTSCHUL 0
-11.7 ALTSCHULER 0
-11.7 ALTSHULER 0
-11.7 ALTUCHER 0
-11.7 ALTURAS 0
-11.7 ALTUS 0
-11.7 ALTVATER 0
-11.7 ALTZHEIMER 0
-11.7 ALTZHEIMER'S 0
-11.7 ALU 0
-11.7 ALUM 0
-11.7 ALUMAX 0
-11.7 ALUMBAUGH 0
-11.7 ALUMINA 0
-11.7 ALUMINIO 0
-11.7 ALUMINIUM 0
-11.7 ALUMINIZE 0
-11.7 ALUMINIZED 0
-11.7 ALUMINOSILICATE 0
-11.7 ALUMINUM 0
-11.7 ALUMINUM'S 0
-11.7 ALUMNI 0
-11.7 ALUMNUS 0
-11.7 ALUMS 0
-11.7 ALUN 0
-11.7 ALURA 0
-11.7 ALUSUISSE 0
-11.7 ALVA 0
-11.7 ALVAH 0
-11.7 ALVAN 0
-11.7 ALVARADO 0
-11.7 ALVARDO 0
-11.7 ALVARE 0
-11.7 ALVARENGA 0
-11.7 ALVARES 0
-11.7 ALVAREZ 0
-11.7 ALVARO 0
-11.7 ALVEAR 0
-11.7 ALVEOLAR 0
-11.7 ALVEOLI 0
-11.7 ALVEREZ 0
-11.7 ALVERO 0
-11.7 ALVERSON 0
-11.7 ALVES 0
-11.7 ALVEY 0
-11.7 ALVIDREZ 0
-11.7 ALVIN 0
-11.7 ALVINA 0
-11.7 ALVINO 0
-11.7 ALVIS 0
-11.7 ALVITA 0
-11.7 ALVITE 0
-11.7 ALVORD 0
-11.7 ALWALEED 0
-11.7 ALWARD 0
-11.7 ALWAYS 0
-11.7 ALWIN 0
-11.7 ALWINE 0
-11.7 ALWOOD 0
-11.7 ALWYN 0
-11.7 ALY 0
-11.7 ALYCE 0
-11.7 ALYEA 0
-11.7 ALYESKA 0
-11.7 ALYESKA'S 0
-11.7 ALYS 0
-11.7 ALYSHEBA 0
-11.7 ALYSIA 0
-11.7 ALYSSA 0
-11.7 ALZA 0
-11.7 ALZADO 0
-11.7 ALZENA 0
-11.7 ALZHEIMER 0
-11.7 ALZHEIMER'S 0
-11.7 ALZONA 0
-11.7 AM 0
-11.7 AM'S 0
-11.7 AMABEL 0
-11.7 AMABELLE 0
-11.7 AMABILE 0
-11.7 AMACHER 0
-11.7 AMACKER 0
-11.7 AMADEA 0
-11.7 AMADEO 0
-11.7 AMADEUS 0
-11.7 AMADO 0
-11.7 AMADON 0
-11.7 AMADOR 0
-11.7 AMADOU 0
-11.7 AMAKER 0
-11.7 AMAKUDARI 0
-11.7 AMAL 0
-11.7 AMALEA 0
-11.7 AMALFITANO 0
-11.7 AMALGAM 0
-11.7 AMALGAMATE 0
-11.7 AMALGAMATED 0
-11.7 AMALGAMATED'S 0
-11.7 AMALGAMATION 0
-11.7 AMALGAMS 0
-11.7 AMALIA 0
-11.7 AMALIE 0
-11.7 AMAN 0
-11.7 AMANA 0
-11.7 AMANDA 0
-11.7 AMANDA'S 0
-11.7 AMANDIME 0
-11.7 AMANN 0
-11.7 AMANO 0
-11.7 AMANPOUR 0
-11.7 AMANPOUR'S 0
-11.7 AMANTE 0
-11.7 AMAR 0
-11.7 AMARA 0
-11.7 AMARAL 0
-11.7 AMARANTE 0
-11.7 AMARANTH 0
-11.7 AMARI 0
-11.7 AMARILLO 0
-11.7 AMARIN 0
-11.7 AMARIS 0
-11.7 AMARO 0
-11.7 AMARYLLIS 0
-11.7 AMARYLLISES 0
-11.7 AMASA 0
-11.7 AMASON 0
-11.7 AMASS 0
-11.7 AMASSED 0
-11.7 AMASSING 0
-11.7 AMATEUR 0
-11.7 AMATEURISH 0
-11.7 AMATEURISM 0
-11.7 AMATEURS 0
-11.7 AMATIL 0
-11.7 AMATO 0
-11.7 AMAULIGAK 0
-11.7 AMAX 0
-11.7 AMAYA 0
-11.7 AMAZE 0
-11.7 AMAZED 0
-11.7 AMAZEMENT 0
-11.7 AMAZES 0
-11.7 AMAZING 0
-11.7 AMAZINGLY 0
-11.7 AMAZON 0
-11.7 AMAZON'S 0
-11.7 AMAZONIA 0
-11.7 AMAZONIAN 0
-11.7 AMAZONIANS 0
-11.7 AMAZONS 0
-11.7 AMBAC 0
-11.7 AMBASE 0
-11.7 AMBASSADOR 0
-11.7 AMBASSADOR'S 0
-11.7 AMBASSADORIAL 0
-11.7 AMBASSADORS 0
-11.7 AMBASSADORSHIP 0
-11.7 AMBASSADORSHIPS 0
-11.7 AMBASSADRESS 0
-11.7 AMBER 0
-11.7 AMBER'S 0
-11.7 AMBERG 0
-11.7 AMBERGER 0
-11.7 AMBERGRIS 0
-11.7 AMBERS 0
-11.7 AMBERSON 0
-11.7 AMBIANCE 0
-11.7 AMBIDEXTROUS 0
-11.7 AMBIENCE 0
-11.7 AMBIENT 0
-11.7 AMBIGUITIES 0
-11.7 AMBIGUITY 0
-11.7 AMBIGUOUS 0
-11.7 AMBITION 0
-11.7 AMBITIONS 0
-11.7 AMBITIOUS 0
-11.7 AMBITIOUSLY 0
-11.7 AMBIVALENCE 0
-11.7 AMBIVALENT 0
-11.7 AMBLE 0
-11.7 AMBLED 0
-11.7 AMBLER 0
-11.7 AMBLES 0
-11.7 AMBLIN 0
-11.7 AMBLING 0
-11.7 AMBORN 0
-11.7 AMBRA 0
-11.7 AMBRIANO 0
-11.7 AMBRIT 0
-11.7 AMBRIZ 0
-11.7 AMBROGIO 0
-11.7 AMBROSE 0
-11.7 AMBROSIA 0
-11.7 AMBROSIAL 0
-11.7 AMBROSIAN 0
-11.7 AMBROSIANO 0
-11.7 AMBROSINE 0
-11.7 AMBROSINI 0
-11.7 AMBROSINO 0
-11.7 AMBROSIO 0
-11.7 AMBROSIUS 0
-11.7 AMBS 0
-11.7 AMBUEHL 0
-11.7 AMBULANCE 0
-11.7 AMBULANCES 0
-11.7 AMBULATORY 0
-11.7 AMBURGEY 0
-11.7 AMBURN 0
-11.7 AMBUSH 0
-11.7 AMBUSHED 0
-11.7 AMBUSHES 0
-11.7 AMBUSHING 0
-11.7 AMC 0
-11.7 AMCA 0
-11.7 AMCAST 0
-11.7 AMCOLE 0
-11.7 AMCOR 0
-11.7 AMCORE 0
-11.7 AMDAHL 0
-11.7 AMDEC 0
-11.7 AMDEK 0
-11.7 AMDUR 0
-11.7 AMDURA 0
-11.7 AME 0
-11.7 AMECHE 0
-11.7 AMEDCO 0
-11.7 AMEDEE 0
-11.7 AMEEN 0
-11.7 AMELIA 0
-11.7 AMELINDA 0
-11.7 AMELINE 0
-11.7 AMELIO 0
-11.7 AMELIORATE 0
-11.7 AMELIORATED 0
-11.7 AMELIORATION 0
-11.7 AMELITA 0
-11.7 AMELL 0
-11.7 AMEN 0
-11.7 AMENABLE 0
-11.7 AMEND 0
-11.7 AMENDABLE 0
-11.7 AMENDED 0
-11.7 AMENDING 0
-11.7 AMENDMENT 0
-11.7 AMENDMENT'S 0
-11.7 AMENDMENTS 0
-11.7 AMENDOLA 0
-11.7 AMENDS 0
-11.7 AMENITIES 0
-11.7 AMENITY 0
-11.7 AMENT 0
-11.7 AMENTA 0
-11.7 AMER 0
-11.7 AMERADA 0
-11.7 AMERCO 0
-11.7 AMERFORD 0
-11.7 AMERI 0
-11.7 AMERIBANC 0
-11.7 AMERICA 0
-11.7 AMERICA'S 0
-11.7 AMERICAN 0
-11.7 AMERICAN'S 0
-11.7 AMERICANA 0
-11.7 AMERICANISM 0
-11.7 AMERICANIZATION 0
-11.7 AMERICANIZE 0
-11.7 AMERICANIZED 0
-11.7 AMERICANO 0
-11.7 AMERICANS 0
-11.7 AMERICANS' 0
-11.7 AMERICAR 0
-11.7 AMERICARE 0
-11.7 AMERICARES 0
-11.7 AMERICAS 0
-11.7 AMERICAS' 0
-11.7 AMERICO 0
-11.7 AMERICOLD 0
-11.7 AMERICORP 0
-11.7 AMERICORPS 0
-11.7 AMERICUS 0
-11.7 AMERIFIRST 0
-11.7 AMERIGAS 0
-11.7 AMERIGO 0
-11.7 AMERIKA 0
-11.7 AMERINDIAN 0
-11.7 AMERINE 0
-11.7 AMERITECH 0
-11.7 AMERITECH'S 0
-11.7 AMERITRUST 0
-11.7 AMERMAN 0
-11.7 AMERO 0
-11.7 AMERON 0
-11.7 AMERON'S 0
-11.7 AMERONGEN 0
-11.7 AMERSHAM 0
-11.7 AMERSON 0
-11.7 AMERY 0
-11.7 AMES 0
-11.7 AMES' 0
-11.7 AMES'S 0
-11.7 AMETEK 0
-11.7 AMETEK'S 0
-11.7 AMETHYST 0
-11.7 AMEV 0
-11.7 AMEX 0
-11.7 AMEX'S 0
-11.7 AMEXCO 0
-11.7 AMEXCO'S 0
-11.7 AMEY 0
-11.7 AMEZCUA 0
-11.7 AMEZQUITA 0
-11.7 AMFAC 0
-11.7 AMFESCO 0
-11.7 AMGEN 0
-11.7 AMGEN'S 0
-11.7 AMHERST 0
-11.7 AMHOIST 0
-11.7 AMI 0
-11.7 AMIABILITY 0
-11.7 AMIABLE 0
-11.7 AMIABLY 0
-11.7 AMICABLE 0
-11.7 AMICABLY 0
-11.7 AMICK 0
-11.7 AMICO 0
-11.7 AMICONE 0
-11.7 AMICUS 0
-11.7 AMID 0
-11.7 AMIDI 0
-11.7 AMIDON 0
-11.7 AMIDSHIPS 0
-11.7 AMIDST 0
-11.7 AMIE 0
-11.7 AMIGA 0
-11.7 AMIGO 0
-11.7 AMIGOS 0
-11.7 AMILIA 0
-11.7 AMIN 0
-11.7 AMINO 0
-11.7 AMINTA 0
-11.7 AMIOT 0
-11.7 AMIPRILOSE 0
-11.7 AMIR 0
-11.7 AMIR'S 0
-11.7 AMIRAM 0
-11.7 AMIRAN 0
-11.7 AMIRAULT 0
-11.7 AMIRAV 0
-11.7 AMIRI 0
-11.7 AMIS 0
-11.7 AMISH 0
-11.7 AMISON 0
-11.7 AMISS 0
-11.7 AMIT 0
-11.7 AMITAI 0
-11.7 AMITY 0
-11.7 AMITYVILLE 0
-11.7 AMMAN 0
-11.7 AMMANN 0
-11.7 AMMEEN 0
-11.7 AMMERMAN 0
-11.7 AMMETER 0
-11.7 AMMETERS 0
-11.7 AMMIRATI 0
-11.7 AMMO 0
-11.7 AMMON 0
-11.7 AMMONIA 0
-11.7 AMMONITE 0
-11.7 AMMONITES 0
-11.7 AMMONIUM 0
-11.7 AMMONS 0
-11.7 AMMUNITION 0
-11.7 AMMUNITIONS 0
-11.7 AMNESIA 0
-11.7 AMNESIAC 0
-11.7 AMNESTIES 0
-11.7 AMNESTY 0
-11.7 AMNIO 0
-11.7 AMNIOCENTESIS 0
-11.7 AMNIOTIC 0
-11.7 AMO 0
-11.7 AMOCO 0
-11.7 AMOCO'S 0
-11.7 AMOEBA 0
-11.7 AMOEBAS 0
-11.7 AMOEBIC 0
-11.7 AMOK 0
-11.7 AMON 0
-11.7 AMONG 0
-11.7 AMONGST 0
-11.7 AMOOLYA 0
-11.7 AMOR 0
-11.7 AMORAL 0
-11.7 AMORE 0
-11.7 AMORETTE 0
-11.7 AMORIST 0
-11.7 AMORITA 0
-11.7 AMOROSI 0
-11.7 AMOROSO 0
-11.7 AMOROUS 0
-11.7 AMORPHOUS 0
-11.7 AMORTIZATION 0
-11.7 AMORTIZE 0
-11.7 AMORTIZED 0
-11.7 AMORTIZING 0
-11.7 AMORUSO 0
-11.7 AMORY 0
-11.7 AMOS 0
-11.7 AMOS'S 0
-11.7 AMOSKEAG 0
-11.7 AMOSKEAG'S 0
-11.7 AMOSS 0
-11.7 AMOUNT 0
-11.7 AMOUNTED 0
-11.7 AMOUNTING 0
-11.7 AMOUNTS 0
-11.7 AMP 0
-11.7 AMPAD 0
-11.7 AMPAL 0
-11.7 AMPARAN 0
-11.7 AMPATO 0
-11.7 AMPCO 0
-11.7 AMPERAGE 0
-11.7 AMPERSAND 0
-11.7 AMPEX 0
-11.7 AMPHENOL 0
-11.7 AMPHETAMINE 0
-11.7 AMPHETAMINES 0
-11.7 AMPHIBIAN 0
-11.7 AMPHIBIANS 0
-11.7 AMPHIBIOUS 0
-11.7 AMPHIBOLE 0
-11.7 AMPHITHEATER 0
-11.7 AMPHITHEATERS 0
-11.7 AMPHITHEATRE 0
-11.7 AMPHORA 0
-11.7 AMPHORAE 0
-11.7 AMPLE 0
-11.7 AMPLICONS 0
-11.7 AMPLIFICATION 0
-11.7 AMPLIFICATIONS 0
-11.7 AMPLIFIED 0
-11.7 AMPLIFIER 0
-11.7 AMPLIFIERS 0
-11.7 AMPLIFIES 0
-11.7 AMPLIFY 0
-11.7 AMPLIFYING 0
-11.7 AMPLIGEN 0
-11.7 AMPLITUDE 0
-11.7 AMPLOCORE 0
-11.7 AMPLY 0
-11.7 AMPOL 0
-11.7 AMPUTATE 0
-11.7 AMPUTATED 0
-11.7 AMPUTATION 0
-11.7 AMPUTATIONS 0
-11.7 AMPUTEE 0
-11.7 AMPUTEES 0
-11.7 AMR 0
-11.7 AMRAAM 0
-11.7 AMRE 0
-11.7 AMREIN 0
-11.7 AMREP 0
-11.7 AMRHEIN 0
-11.7 AMRINE 0
-11.7 AMRITSAR 0
-11.7 AMRO 0
-11.7 AMS 0
-11.7 AMSBAUGH 0
-11.7 AMSCO 0
-11.7 AMSDEN 0
-11.7 AMSLER 0
-11.7 AMSOUTH 0
-11.7 AMSPACHER 0
-11.7 AMSTAR 0
-11.7 AMSTER 0
-11.7 AMSTERDAM 0
-11.7 AMSTERDAM'S 0
-11.7 AMSTRAD 0
-11.7 AMSTUTZ 0
-11.7 AMTECH 0
-11.7 AMTRACK 0
-11.7 AMTRAK 0
-11.7 AMTRAK'S 0
-11.7 AMUCK 0
-11.7 AMULET 0
-11.7 AMULETS 0
-11.7 AMUNDSEN 0
-11.7 AMUNDSON 0
-11.7 AMUSE 0
-11.7 AMUSED 0
-11.7 AMUSEMENT 0
-11.7 AMUSEMENTS 0
-11.7 AMUSEMENTS' 0
-11.7 AMUSES 0
-11.7 AMUSING 0
-11.7 AMUSINGLY 0
-11.7 AMVEST 0
-11.7 AMVESTOR 0
-11.7 AMVESTORS 0
-11.7 AMWAY 0
-11.7 AMY 0
-11.7 AMY'S 0
-11.7 AMYLIN 0
-11.7 AMYLOID 0
-11.7 AMYOTROPHIC 0
-11.7 AMYX 0
-11.7 AN 0
-11.7 ANA 0
-11.7 ANABAPTIST 0
-11.7 ANABLE 0
-11.7 ANABOLIC 0
-11.7 ANAC 0
-11.7 ANACHRONISM 0
-11.7 ANACHRONISMS 0
-11.7 ANACHRONISTIC 0
-11.7 ANACIN 0
-11.7 ANACKER 0
-11.7 ANACOMP 0
-11.7 ANACONDA 0
-11.7 ANACOSTIA 0
-11.7 ANACOSTIA'S 0
-11.7 ANADARKO 0
-11.7 ANADARKO'S 0
-11.7 ANAEROBE 0
-11.7 ANAEROBES 0
-11.7 ANAEROBIC 0
-11.7 ANAESTHESIA 0
-11.7 ANAFRANIL 0
-11.7 ANAGNOS 0
-11.7 ANAGRAM 0
-11.7 ANAHEIM 0
-11.7 ANAL 0
-11.7 ANALGESIC 0
-11.7 ANALGESICS 0
-11.7 ANALOG 0
-11.7 ANALOGIC 0
-11.7 ANALOGIES 0
-11.7 ANALOGOUS 0
-11.7 ANALOGUE 0
-11.7 ANALOGY 0
-11.7 ANALYSES 0
-11.7 ANALYSIS 0
-11.7 ANALYST 0
-11.7 ANALYST'S 0
-11.7 ANALYSTS 0
-11.7 ANALYSTS' 0
-11.7 ANALYTIC 0
-11.7 ANALYTICAL 0
-11.7 ANALYTICALLY 0
-11.7 ANALYTICITY 0
-11.7 ANALYTICS 0
-11.7 ANALYZABLE 0
-11.7 ANALYZE 0
-11.7 ANALYZED 0
-11.7 ANALYZER 0
-11.7 ANALYZERS 0
-11.7 ANALYZES 0
-11.7 ANALYZING 0
-11.7 ANAMARIA 0
-11.7 ANAND 0
-11.7 ANANDALE 0
-11.7 ANANDEEP 0
-11.7 ANANIA 0
-11.7 ANANTHA 0
-11.7 ANAPHORA 0
-11.7 ANARCHIC 0
-11.7 ANARCHICAL 0
-11.7 ANARCHIST 0
-11.7 ANARCHISTS 0
-11.7 ANARCHY 0
-11.7 ANAREN 0
-11.7 ANAS 0
-11.7 ANASAZI 0
-11.7 ANASQUAN 0
-11.7 ANAST 0
-11.7 ANASTAS 0
-11.7 ANASTASI 0
-11.7 ANASTASIA 0
-11.7 ANASTASIO 0
-11.7 ANASTOS 0
-11.7 ANATHEMA 0
-11.7 ANATOLA 0
-11.7 ANATOLE 0
-11.7 ANATOLI 0
-11.7 ANATOLIA 0
-11.7 ANATOLIAN 0
-11.7 ANATOLY 0
-11.7 ANATOMICAL 0
-11.7 ANATOMICALLY 0
-11.7 ANATOMIST 0
-11.7 ANATOMY 0
-11.7 ANAYA 0
-11.7 ANBARI 0
-11.7 ANCEL 0
-11.7 ANCELL 0
-11.7 ANCESTOR 0
-11.7 ANCESTORS 0
-11.7 ANCESTRAL 0
-11.7 ANCESTRY 0
-11.7 ANCHETA 0
-11.7 ANCHO 0
-11.7 ANCHONDO 0
-11.7 ANCHOR 0
-11.7 ANCHOR'S 0
-11.7 ANCHORAGE 0
-11.7 ANCHORED 0
-11.7 ANCHORING 0
-11.7 ANCHORMAN 0
-11.7 ANCHORMEN 0
-11.7 ANCHORS 0
-11.7 ANCHOVIES 0
-11.7 ANCHOVY 0
-11.7 ANCIENT 0
-11.7 ANCIENTS 0
-11.7 ANCILLARY 0
-11.7 ANCIRA 0
-11.7 ANCONA 0
-11.7 ANCRUM 0
-11.7 ANCTIL 0
-11.7 AND 0
-11.7 ANDAL 0
-11.7 ANDALUSIA 0
-11.7 ANDALUSIAN 0
-11.7 ANDANTE 0
-11.7 ANDANTINO 0
-11.7 ANDEAN 0
-11.7 ANDEL 0
-11.7 ANDER 0
-11.7 ANDERA 0
-11.7 ANDERBERG 0
-11.7 ANDEREGG 0
-11.7 ANDERLE 0
-11.7 ANDERLINI 0
-11.7 ANDERMAN 0
-11.7 ANDERS 0
-11.7 ANDERSEN 0
-11.7 ANDERSEN'S 0
-11.7 ANDERSON 0
-11.7 ANDERSON'S 0
-11.7 ANDERSONS 0
-11.7 ANDERSONVILLE 0
-11.7 ANDERSSON 0
-11.7 ANDERT 0
-11.7 ANDERTON 0
-11.7 ANDES 0
-11.7 ANDESITE 0
-11.7 ANDIE 0
-11.7 ANDING 0
-11.7 ANDINO 0
-11.7 ANDIRON 0
-11.7 ANDIS 0
-11.7 ANDLER 0
-11.7 ANDO 0
-11.7 ANDOLINA 0
-11.7 ANDONIAN 0
-11.7 ANDORAS 0
-11.7 ANDORRA 0
-11.7 ANDOVER 0
-11.7 ANDRADA 0
-11.7 ANDRADE 0
-11.7 ANDRAE 0
-11.7 ANDRAS 0
-11.7 ANDRE 0
-11.7 ANDREA 0
-11.7 ANDREA'S 0
-11.7 ANDREAE 0
-11.7 ANDREANA 0
-11.7 ANDREANI 0
-11.7 ANDREANO 0
-11.7 ANDREAS 0
-11.7 ANDREASEN 0
-11.7 ANDREASON 0
-11.7 ANDREASSEN 0
-11.7 ANDREE 0
-11.7 ANDREEN 0
-11.7 ANDREI 0
-11.7 ANDREINI 0
-11.7 ANDREJ 0
-11.7 ANDREN 0
-11.7 ANDREOLI 0
-11.7 ANDREONI 0
-11.7 ANDREOTTI 0
-11.7 ANDREOZZI 0
-11.7 ANDREPONT 0
-11.7 ANDRES 0
-11.7 ANDRESEN 0
-11.7 ANDRESKI 0
-11.7 ANDRESS 0
-11.7 ANDRETTI 0
-11.7 ANDRETTI'S 0
-11.7 ANDREU 0
-11.7 ANDREW 0
-11.7 ANDREW'S 0
-11.7 ANDREWS 0
-11.7 ANDREWS' 0
-11.7 ANDREY 0
-11.7 ANDREZAK 0
-11.7 ANDRIA 0
-11.7 ANDRIANA 0
-11.7 ANDRIANO 0
-11.7 ANDRIC 0
-11.7 ANDRICH 0
-11.7 ANDRICK 0
-11.7 ANDRIES 0
-11.7 ANDRIESSEN 0
-11.7 ANDRINGA 0
-11.7 ANDRIOLA 0
-11.7 ANDRIST 0
-11.7 ANDROGYNOUS 0
-11.7 ANDROID 0
-11.7 ANDROMEDA 0
-11.7 ANDROPOV 0
-11.7 ANDROS 0
-11.7 ANDRUS 0
-11.7 ANDRUSKEVICH 0
-11.7 ANDRY 0
-11.7 ANDRZEJ 0
-11.7 ANDRZEJEWSKI 0
-11.7 ANDS 0
-11.7 ANDUJAR 0
-11.7 ANDY 0
-11.7 ANDY'S 0
-11.7 ANECDOTAL 0
-11.7 ANECDOTALLY 0
-11.7 ANECDOTE 0
-11.7 ANECDOTES 0
-11.7 ANELLO 0
-11.7 ANEMIA 0
-11.7 ANEMIAS 0
-11.7 ANEMIC 0
-11.7 ANEMOMETER 0
-11.7 ANEMONE 0
-11.7 ANENCEPHALIC 0
-11.7 ANENCEPHALY 0
-11.7 ANESTACHIO 0
-11.7 ANESTHESIA 0
-11.7 ANESTHESIOLOGIST 0
-11.7 ANESTHESIOLOGISTS 0
-11.7 ANESTHESIOLOGY 0
-11.7 ANESTHETIC 0
-11.7 ANESTHETICS 0
-11.7 ANESTHETIST 0
-11.7 ANETTE 0
-11.7 ANEURISM 0
-11.7 ANEW 0
-11.7 ANFAL 0
-11.7 ANFINSON 0
-11.7 ANG 0
-11.7 ANGE 0
-11.7 ANGEL 0
-11.7 ANGELA 0
-11.7 ANGELA'S 0
-11.7 ANGELENO 0
-11.7 ANGELENOS 0
-11.7 ANGELES 0
-11.7 ANGELES' 0
-11.7 ANGELES'S 0
-11.7 ANGELETTI 0
-11.7 ANGELFISH 0
-11.7 ANGELI 0
-11.7 ANGELIC 0
-11.7 ANGELICA 0
-11.7 ANGELICALLY 0
-11.7 ANGELICAS 0
-11.7 ANGELICO 0
-11.7 ANGELIKA 0
-11.7 ANGELILLO 0
-11.7 ANGELINA 0
-11.7 ANGELINE 0
-11.7 ANGELINI 0
-11.7 ANGELINO 0
-11.7 ANGELINO'S 0
-11.7 ANGELINOS 0
-11.7 ANGELITA 0
-11.7 ANGELL 0
-11.7 ANGELLE 0
-11.7 ANGELLO 0
-11.7 ANGELO 0
-11.7 ANGELO'S 0
-11.7 ANGELOFF 0
-11.7 ANGELONE 0
-11.7 ANGELONI 0
-11.7 ANGELOS 0
-11.7 ANGELOU 0
-11.7 ANGELOZ 0
-11.7 ANGELS 0
-11.7 ANGELS' 0
-11.7 ANGELUCCI 0
-11.7 ANGER 0
-11.7 ANGERED 0
-11.7 ANGERER 0
-11.7 ANGERING 0
-11.7 ANGERMAN 0
-11.7 ANGERMEIER 0
-11.7 ANGERS 0
-11.7 ANGERT 0
-11.7 ANGEVINE 0
-11.7 ANGI 0
-11.7 ANGIE 0
-11.7 ANGIER 0
-11.7 ANGINA 0
-11.7 ANGIO 0
-11.7 ANGIOGRAM 0
-11.7 ANGIOMEDIC 0
-11.7 ANGIOMEDICS 0
-11.7 ANGIOPLASTY 0
-11.7 ANGIOTENSIN 0
-11.7 ANGLE 0
-11.7 ANGLED 0
-11.7 ANGLEMYER 0
-11.7 ANGLEN 0
-11.7 ANGLER 0
-11.7 ANGLERS 0
-11.7 ANGLES 0
-11.7 ANGLETON 0
-11.7 ANGLEY 0
-11.7 ANGLIA 0
-11.7 ANGLICAN 0
-11.7 ANGLICIZE 0
-11.7 ANGLICIZED 0
-11.7 ANGLIM 0
-11.7 ANGLIN 0
-11.7 ANGLING 0
-11.7 ANGLO 0
-11.7 ANGLO-CATHOLICISM 0
-11.7 ANGLOS 0
-11.7 ANGOLA 0
-11.7 ANGOLA'S 0
-11.7 ANGOLAN 0
-11.7 ANGOLANS 0
-11.7 ANGORA 0
-11.7 ANGORAS 0
-11.7 ANGOTTI 0
-11.7 ANGOVE 0
-11.7 ANGRIER 0
-11.7 ANGRIEST 0
-11.7 ANGRILY 0
-11.7 ANGRY 0
-11.7 ANGST 0
-11.7 ANGSTADT 0
-11.7 ANGSTROM 0
-11.7 ANGSTROMS 0
-11.7 ANGUIANO 0
-11.7 ANGUILLA 0
-11.7 ANGUISH 0
-11.7 ANGUISHED 0
-11.7 ANGUISHING 0
-11.7 ANGULAR 0
-11.7 ANGULATE 0
-11.7 ANGULATED 0
-11.7 ANGULO 0
-11.7 ANGUS 0
-11.7 ANGY 0
-11.7 ANHALT 0
-11.7 ANHEUSER 0
-11.7 ANHEUSER'S 0
-11.7 ANHYDRIDE 0
-11.7 ANIBAL 0
-11.7 ANIKST 0
-11.7 ANILINE 0
-11.7 ANIMAL 0
-11.7 ANIMAL'S 0
-11.7 ANIMALS 0
-11.7 ANIMALS' 0
-11.7 ANIMATE 0
-11.7 ANIMATED 0
-11.7 ANIMATES 0
-11.7 ANIMATION 0
-11.7 ANIMATIONS 0
-11.7 ANIMATOR 0
-11.7 ANIMATORS 0
-11.7 ANIMISM 0
-11.7 ANIMIST 0
-11.7 ANIMISTS 0
-11.7 ANIMOSITIES 0
-11.7 ANIMOSITY 0
-11.7 ANIMOUS 0
-11.7 ANIMUS 0
-11.7 ANINAT 0
-11.7 ANISE 0
-11.7 ANISEED 0
-11.7 ANISETTE 0
-11.7 ANITA 0
-11.7 ANITEC 0
-11.7 ANITOLE 0
-11.7 ANIXTER 0
-11.7 ANJA 0
-11.7 ANJELICA 0
-11.7 ANKARA 0
-11.7 ANKARA'S 0
-11.7 ANKENEY 0
-11.7 ANKENY 0
-11.7 ANKER 0
-11.7 ANKERIUM 0
-11.7 ANKLAM 0
-11.7 ANKLE 0
-11.7 ANKLEBONE 0
-11.7 ANKLES 0
-11.7 ANKLET 0
-11.7 ANKLETS 0
-11.7 ANKNEY 0
-11.7 ANKROM 0
-11.7 ANKRUM 0
-11.7 ANN 0
-11.7 ANN'S 0
-11.7 ANNA 0
-11.7 ANNA'S 0
-11.7 ANNABEL 0
-11.7 ANNABELLA 0
-11.7 ANNABELLE 0
-11.7 ANNABLE 0
-11.7 ANNAL 0
-11.7 ANNALS 0
-11.7 ANNAMESE 0
-11.7 ANNAN 0
-11.7 ANNANDALE 0
-11.7 ANNAPOLIS 0
-11.7 ANNAPOLIS'S 0
-11.7 ANNAS 0
-11.7 ANNE 0
-11.7 ANNE'S 0
-11.7 ANNEAL 0
-11.7 ANNEALING 0
-11.7 ANNELID 0
-11.7 ANNELIDS 0
-11.7 ANNEN 0
-11.7 ANNENBERG 0
-11.7 ANNESE 0
-11.7 ANNETT 0
-11.7 ANNETTE 0
-11.7 ANNEX 0
-11.7 ANNEXATION 0
-11.7 ANNEXED 0
-11.7 ANNEXES 0
-11.7 ANNEXING 0
-11.7 ANNICK 0
-11.7 ANNIE 0
-11.7 ANNIE'S 0
-11.7 ANNIHILATE 0
-11.7 ANNIHILATED 0
-11.7 ANNIHILATION 0
-11.7 ANNIS 0
-11.7 ANNISTON 0
-11.7 ANNIVERSARIES 0
-11.7 ANNIVERSARY 0
-11.7 ANNO 0
-11.7 ANNOTATE 0
-11.7 ANNOTATED 0
-11.7 ANNOTATES 0
-11.7 ANNOTATING 0
-11.7 ANNOTATION 0
-11.7 ANNOTATIONS 0
-11.7 ANNOUNCE 0
-11.7 ANNOUNCED 0
-11.7 ANNOUNCEMENT 0
-11.7 ANNOUNCEMENTS 0
-11.7 ANNOUNCER 0
-11.7 ANNOUNCERS 0
-11.7 ANNOUNCES 0
-11.7 ANNOUNCING 0
-11.7 ANNOUNCMENT 0
-11.7 ANNOY 0
-11.7 ANNOYANCE 0
-11.7 ANNOYANCES 0
-11.7 ANNOYED 0
-11.7 ANNOYING 0
-11.7 ANNOYS 0
-11.7 ANNUAL 0
-11.7 ANNUALIZE 0
-11.7 ANNUALIZED 0
-11.7 ANNUALLY 0
-11.7 ANNUALS 0
-11.7 ANNUITIES 0
-11.7 ANNUITY 0
-11.7 ANNUL 0
-11.7 ANNULAR 0
-11.7 ANNULLED 0
-11.7 ANNULMENT 0
-11.7 ANNUM 0
-11.7 ANNUNCIATA 0
-11.7 ANNUNZIATA 0
-11.7 ANNUNZIATO 0
-11.7 ANNUNZIO 0
-11.7 ANNY 0
-11.7 ANODE 0
-11.7 ANODES 0
-11.7 ANOINT 0
-11.7 ANOINTED 0
-11.7 ANOMALIES 0
-11.7 ANOMALOUS 0
-11.7 ANOMALY 0
-11.7 ANOMIE 0
-11.7 ANONA 0
-11.7 ANONYMITY 0
-11.7 ANONYMOUS 0
-11.7 ANONYMOUSLY 0
-11.7 ANORA 0
-11.7 ANORAK 0
-11.7 ANOREXIA 0
-11.7 ANOREXIC 0
-11.7 ANOREXICS 0
-11.7 ANORTHITE 0
-11.7 ANOTHER 0
-11.7 ANOTHER'S 0
-11.7 ANREDER 0
-11.7 ANRIG 0
-11.7 ANSA 0
-11.7 ANSA'S 0
-11.7 ANSAID 0
-11.7 ANSALDO 0
-11.7 ANSANG 0
-11.7 ANSARI 0
-11.7 ANSBACHER 0
-11.7 ANSCHEL 0
-11.7 ANSCHLUSS 0
-11.7 ANSCHUTZ 0
-11.7 ANSCOM 0
-11.7 ANSCOMB 0
-11.7 ANSE 0
-11.7 ANSEL 0
-11.7 ANSELL 0
-11.7 ANSELM 0
-11.7 ANSELMA 0
-11.7 ANSELMI 0
-11.7 ANSELMO 0
-11.7 ANSETT 0
-11.7 ANSGAR 0
-11.7 ANSGAR'S 0
-11.7 ANSHAN 0
-11.7 ANSIN 0
-11.7 ANSLEY 0
-11.7 ANSON 0
-11.7 ANSONIA 0
-11.7 ANSPACH 0
-11.7 ANSPAUGH 0
-11.7 ANSTEAD 0
-11.7 ANSTETT 0
-11.7 ANSTEY 0
-11.7 ANSTICE 0
-11.7 ANSTINE 0
-11.7 ANSTISS 0
-11.7 ANSWER 0
-11.7 ANSWER'S 0
-11.7 ANSWERABLE 0
-11.7 ANSWERED 0
-11.7 ANSWERING 0
-11.7 ANSWERS 0
-11.7 ANT 0
-11.7 ANTACID 0
-11.7 ANTACIDS 0
-11.7 ANTAGONISM 0
-11.7 ANTAGONISMS 0
-11.7 ANTAGONIST 0
-11.7 ANTAGONISTIC 0
-11.7 ANTAGONISTS 0
-11.7 ANTAGONIZE 0
-11.7 ANTAGONIZED 0
-11.7 ANTAGONIZING 0
-11.7 ANTAL 0
-11.7 ANTAR 0
-11.7 ANTAR'S 0
-11.7 ANTARCTIC 0
-11.7 ANTARCTICA 0
-11.7 ANTARCTICA'S 0
-11.7 ANTARES 0
-11.7 ANTAYA 0
-11.7 ANTCZAK 0
-11.7 ANTE 0
-11.7 ANTEATER 0
-11.7 ANTEATERS 0
-11.7 ANTEBELLUM 0
-11.7 ANTEC 0
-11.7 ANTECEDENT 0
-11.7 ANTECEDENTS 0
-11.7 ANTED 0
-11.7 ANTELL 0
-11.7 ANTELOPE 0
-11.7 ANTEMERIDIAN 0
-11.7 ANTEMORTEM 0
-11.7 ANTENNA 0
-11.7 ANTENNA'S 0
-11.7 ANTENNAE 0
-11.7 ANTENNAS 0
-11.7 ANTENNE 0
-11.7 ANTENUCCI 0
-11.7 ANTERIOR 0
-11.7 ANTERIORMOST 0
-11.7 ANTES 0
-11.7 ANTHEA 0
-11.7 ANTHEM 0
-11.7 ANTHEMS 0
-11.7 ANTHES 0
-11.7 ANTHIEL 0
-11.7 ANTHILL 0
-11.7 ANTHILLS 0
-11.7 ANTHIS 0
-11.7 ANTHOLOGIES 0
-11.7 ANTHOLOGY 0
-11.7 ANTHON 0
-11.7 ANTHONY 0
-11.7 ANTHONY'S 0
-11.7 ANTHRACITE 0
-11.7 ANTHRAX 0
-11.7 ANTHROBOT 0
-11.7 ANTHROPOCENTRIC 0
-11.7 ANTHROPOLOGICAL 0
-11.7 ANTHROPOLOGIST 0
-11.7 ANTHROPOLOGISTS 0
-11.7 ANTHROPOLOGY 0
-11.7 ANTHROPOMORPHIC 0
-11.7 ANTI 0
-11.7 ANTI-CATHOLICISM 0
-11.7 ANTI-FEDERALIST 0
-11.7 ANTI-FEDERALISTS 0
-11.7 ANTI-INFECTIVE 0
-11.7 ANTIABORTION 0
-11.7 ANTIAIRCRAFT 0
-11.7 ANTIBACTERIAL 0
-11.7 ANTIBALLISTIC 0
-11.7 ANTIBIOTIC 0
-11.7 ANTIBIOTICOS 0
-11.7 ANTIBIOTICS 0
-11.7 ANTIBODIES 0
-11.7 ANTIBODY 0
-11.7 ANTIC 0
-11.7 ANTICANCER 0
-11.7 ANTICIPATE 0
-11.7 ANTICIPATED 0
-11.7 ANTICIPATES 0
-11.7 ANTICIPATING 0
-11.7 ANTICIPATION 0
-11.7 ANTICIPATIONS 0
-11.7 ANTICIPATORY 0
-11.7 ANTICLIMACTIC 0
-11.7 ANTICLINE 0
-11.7 ANTICO 0
-11.7 ANTICOMMUNIST 0
-11.7 ANTICOMPETITIVE 0
-11.7 ANTICORRUPTION 0
-11.7 ANTICRIME 0
-11.7 ANTICS 0
-11.7 ANTIDEPRESSANT 0
-11.7 ANTIDEPRESSANTS 0
-11.7 ANTIDISCRIMINATION 0
-11.7 ANTIDOTE 0
-11.7 ANTIDRUG 0
-11.7 ANTIDUMPING 0
-11.7 ANTIFRAUD 0
-11.7 ANTIFREEZE 0
-11.7 ANTIFUNGAL 0
-11.7 ANTIGAY 0
-11.7 ANTIGEN 0
-11.7 ANTIGENS 0
-11.7 ANTIGONE 0
-11.7 ANTIGONE'S 0
-11.7 ANTIGONES 0
-11.7 ANTIGOVERNMENT 0
-11.7 ANTIGUA 0
-11.7 ANTIHISTAMINE 0
-11.7 ANTIHISTAMINES 0
-11.7 ANTIKNOCK 0
-11.7 ANTILL 0
-11.7 ANTILLA 0
-11.7 ANTILLES 0
-11.7 ANTILOCK 0
-11.7 ANTIMISSILE 0
-11.7 ANTIOCH 0
-11.7 ANTIOXIDANT 0
-11.7 ANTIOXIDANTS 0
-11.7 ANTIPATHIES 0
-11.7 ANTIPATHY 0
-11.7 ANTIPERSONELL 0
-11.7 ANTIPHON 0
-11.7 ANTIPHONS 0
-11.7 ANTIPODAL 0
-11.7 ANTIPOVERTY 0
-11.7 ANTIQUATE 0
-11.7 ANTIQUATED 0
-11.7 ANTIQUE 0
-11.7 ANTIQUES 0
-11.7 ANTIQUITIES 0
-11.7 ANTIQUITY 0
-11.7 ANTIREFORMER 0
-11.7 ANTIREFORMERS 0
-11.7 ANTIS 0
-11.7 ANTISENSE 0
-11.7 ANTISEPTIC 0
-11.7 ANTISMOKING 0
-11.7 ANTISOCIAL 0
-11.7 ANTISUBMARINE 0
-11.7 ANTITAKEOVER 0
-11.7 ANTITANK 0
-11.7 ANTITAX 0
-11.7 ANTITHEFT 0
-11.7 ANTITHESIS 0
-11.7 ANTITHETICAL 0
-11.7 ANTITOXIN 0
-11.7 ANTITOXINS 0
-11.7 ANTITRUST 0
-11.7 ANTIVIRAL 0
-11.7 ANTIWAR 0
-11.7 ANTKOWIAK 0
-11.7 ANTLE 0
-11.7 ANTLER 0
-11.7 ANTLERED 0
-11.7 ANTLERS 0
-11.7 ANTLEY 0
-11.7 ANTOINE 0
-11.7 ANTOINETTE 0
-11.7 ANTOL 0
-11.7 ANTOLIK 0
-11.7 ANTOLINI 0
-11.7 ANTON 0
-11.7 ANTONACCI 0
-11.7 ANTONE 0
-11.7 ANTONELLI 0
-11.7 ANTONELLIS 0
-11.7 ANTONETTI 0
-11.7 ANTONI 0
-11.7 ANTONIA 0
-11.7 ANTONIN 0
-11.7 ANTONINI 0
-11.7 ANTONINI'S 0
-11.7 ANTONIO 0
-11.7 ANTONIO'S 0
-11.7 ANTONIOU 0
-11.7 ANTONIU 0
-11.7 ANTONIU'S 0
-11.7 ANTONIUS 0
-11.7 ANTONOPOULOS 0
-11.7 ANTONOVICH 0
-11.7 ANTONSEN 0
-11.7 ANTONSON 0
-11.7 ANTONUCCI 0
-11.7 ANTONY 0
-11.7 ANTOON 0
-11.7 ANTOS 0
-11.7 ANTOSH 0
-11.7 ANTRIL 0
-11.7 ANTRIM 0
-11.7 ANTROBUS 0
-11.7 ANTS 0
-11.7 ANTSY 0
-11.7 ANTTILA 0
-11.7 ANTUNA 0
-11.7 ANTUNES 0
-11.7 ANTUNEZ 0
-11.7 ANTWERP 0
-11.7 ANTWINE 0
-11.7 ANVIL 0
-11.7 ANWAR 0
-11.7 ANWAY 0
-11.7 ANWELL 0
-11.7 ANWYL 0
-11.7 ANWYLL 0
-11.7 ANXIETIES 0
-11.7 ANXIETY 0
-11.7 ANXIOUS 0
-11.7 ANXIOUSLY 0
-11.7 ANY 0
-11.7 ANYBODY 0
-11.7 ANYBODY'S 0
-11.7 ANYHOW 0
-11.7 ANYMORE 0
-11.7 ANYON 0
-11.7 ANYONE 0
-11.7 ANYONE'S 0
-11.7 ANYPLACE 0
-11.7 ANYTHING 0
-11.7 ANYTHING'S 0
-11.7 ANYTIME 0
-11.7 ANYWAY 0
-11.7 ANYWAYS 0
-11.7 ANYWHERE 0
-11.7 ANZA 0
-11.7 ANZALDUA 0
-11.7 ANZALONE 0
-11.7 ANZELMO 0
-11.7 ANZIO 0
-11.7 ANZUS 0
-11.7 AOI 0
-11.7 AOKI 0
-11.7 AOL 0
-11.7 AON 0
-11.7 AORTA 0
-11.7 AORTIC 0
-11.7 AOSHIMA 0
-11.7 AOUN 0
-11.7 AOUN'S 0
-11.7 AOUZOU 0
-11.7 AOYAMA 0
-11.7 APACE 0
-11.7 APACHE 0
-11.7 APACHE'S 0
-11.7 APACHES 0
-11.7 APALACHICOLA 0
-11.7 APALACHICOLA'S 0
-11.7 APARICIO 0
-11.7 APART 0
-11.7 APARTHEID 0
-11.7 APARTHEID'S 0
-11.7 APARTMENT 0
-11.7 APARTMENTS 0
-11.7 APATHETIC 0
-11.7 APATHY 0
-11.7 APATITE 0
-11.7 APATITES 0
-11.7 APC 0
-11.7 APC'S 0
-11.7 APCAR 0
-11.7 APE 0
-11.7 APEC 0
-11.7 APEC'S 0
-11.7 APEL 0
-11.7 APELIKE 0
-11.7 APENNINE 0
-11.7 APERTURE 0
-11.7 APES 0
-11.7 APEX 0
-11.7 APEX'S 0
-11.7 APFEL 0
-11.7 APFELBAUM 0
-11.7 APGAR 0
-11.7 APHASIA 0
-11.7 APHID 0
-11.7 APHIDS 0
-11.7 APHORISM 0
-11.7 APHORISMS 0
-11.7 APHRODISIAC 0
-11.7 APHRODITE 0
-11.7 APHRODITE'S 0
-11.7 APHRODITES 0
-11.7 APICELLA 0
-11.7 APIECE 0
-11.7 APING 0
-11.7 APLENTY 0
-11.7 APLIN 0
-11.7 APLOMB 0
-11.7 APNEA 0
-11.7 APOCALYPSE 0
-11.7 APOCALYPTIC 0
-11.7 APOCRYPHAL 0
-11.7 APODACA 0
-11.7 APOGEE 0
-11.7 APOLITICAL 0
-11.7 APOLLINE 0
-11.7 APOLLINIAN 0
-11.7 APOLLO 0
-11.7 APOLLO'S 0
-11.7 APOLLONIAN 0
-11.7 APOLOGETIC 0
-11.7 APOLOGETICALLY 0
-11.7 APOLOGIES 0
-11.7 APOLOGIST 0
-11.7 APOLOGISTS 0
-11.7 APOLOGIZE 0
-11.7 APOLOGIZED 0
-11.7 APOLOGIZES 0
-11.7 APOLOGIZING 0
-11.7 APOLOGY 0
-11.7 APONTE 0
-11.7 APOPA 0
-11.7 APOPKA 0
-11.7 APOPLECTIC 0
-11.7 APOPLEXY 0
-11.7 APOSTLE 0
-11.7 APOSTLES 0
-11.7 APOSTOL 0
-11.7 APOSTOLOPOUL 0
-11.7 APOSTROPHE 0
-11.7 APOTHECARY 0
-11.7 APOTHEOSIS 0
-11.7 APP 0
-11.7 APPALACHIA 0
-11.7 APPALACHIAN 0
-11.7 APPALACHIANS 0
-11.7 APPALL 0
-11.7 APPALLED 0
-11.7 APPALLING 0
-11.7 APPALLINGLY 0
-11.7 APPALLS 0
-11.7 APPARATCHIK 0
-11.7 APPARATCHIKS 0
-11.7 APPARATUS 0
-11.7 APPARATUSES 0
-11.7 APPAREL 0
-11.7 APPARENT 0
-11.7 APPARENTLY 0
-11.7 APPARITION 0
-11.7 APPARITIONS 0
-11.7 APPEAL 0
-11.7 APPEALABLE 0
-11.7 APPEALED 0
-11.7 APPEALING 0
-11.7 APPEALINGLY 0
-11.7 APPEALS 0
-11.7 APPEAR 0
-11.7 APPEARANCE 0
-11.7 APPEARANCES 0
-11.7 APPEARED 0
-11.7 APPEARING 0
-11.7 APPEARS 0
-11.7 APPEASE 0
-11.7 APPEASED 0
-11.7 APPEASEMENT 0
-11.7 APPEASING 0
-11.7 APPEL 0
-11.7 APPELBAUM 0
-11.7 APPELHANS 0
-11.7 APPELL 0
-11.7 APPELLATE 0
-11.7 APPELLATION 0
-11.7 APPELLATIONS 0
-11.7 APPELMAN 0
-11.7 APPELT 0
-11.7 APPEND 0
-11.7 APPENDAGE 0
-11.7 APPENDAGES 0
-11.7 APPENDECTOMIES 0
-11.7 APPENDECTOMY 0
-11.7 APPENDED 0
-11.7 APPENDIX 0
-11.7 APPENDIXES 0
-11.7 APPENZELLER 0
-11.7 APPERSON 0
-11.7 APPERT 0
-11.7 APPETITE 0
-11.7 APPETITES 0
-11.7 APPETITO 0
-11.7 APPETIZER 0
-11.7 APPETIZERS 0
-11.7 APPETIZING 0
-11.7 APPIA 0
-11.7 APPIAN 0
-11.7 APPLAUD 0
-11.7 APPLAUDED 0
-11.7 APPLAUDING 0
-11.7 APPLAUDS 0
-11.7 APPLAUSE 0
-11.7 APPLE 0
-11.7 APPLE'S 0
-11.7 APPLEBAUM 0
-11.7 APPLEBEE 0
-11.7 APPLEBEE'S 0
-11.7 APPLEBERRY 0
-11.7 APPLEBY 0
-11.7 APPLEGARTH 0
-11.7 APPLEGATE 0
-11.7 APPLEMAN 0
-11.7 APPLEQUIST 0
-11.7 APPLES 0
-11.7 APPLESAUCE 0
-11.7 APPLESEED 0
-11.7 APPLESHARE 0
-11.7 APPLETON 0
-11.7 APPLEWHITE 0
-11.7 APPLEYARD 0
-11.7 APPLIANCE 0
-11.7 APPLIANCES 0
-11.7 APPLICABILITY 0
-11.7 APPLICABLE 0
-11.7 APPLICANT 0
-11.7 APPLICANT'S 0
-11.7 APPLICANTS 0
-11.7 APPLICANTS' 0
-11.7 APPLICATION 0
-11.7 APPLICATIONS 0
-11.7 APPLICATOR 0
-11.7 APPLICATORS 0
-11.7 APPLIED 0
-11.7 APPLIES 0
-11.7 APPLIN 0
-11.7 APPLING 0
-11.7 APPLY 0
-11.7 APPLYING 0
-11.7 APPOINT 0
-11.7 APPOINTED 0
-11.7 APPOINTEE 0
-11.7 APPOINTEES 0
-11.7 APPOINTING 0
-11.7 APPOINTIVE 0
-11.7 APPOINTMENT 0
-11.7 APPOINTMENTS 0
-11.7 APPOINTS 0
-11.7 APPORTION 0
-11.7 APPORTIONED 0
-11.7 APPORTIONING 0
-11.7 APPORTIONMENT 0
-11.7 APPRAISAL 0
-11.7 APPRAISALS 0
-11.7 APPRAISE 0
-11.7 APPRAISED 0
-11.7 APPRAISER 0
-11.7 APPRAISERS 0
-11.7 APPRAISES 0
-11.7 APPRAISING 0
-11.7 APPRECIABLE 0
-11.7 APPRECIABLY 0
-11.7 APPRECIATE 0
-11.7 APPRECIATED 0
-11.7 APPRECIATES 0
-11.7 APPRECIATING 0
-11.7 APPRECIATION 0
-11.7 APPRECIATIVE 0
-11.7 APPRECIATIVELY 0
-11.7 APPREHEND 0
-11.7 APPREHENDED 0
-11.7 APPREHENDING 0
-11.7 APPREHENSION 0
-11.7 APPREHENSIONS 0
-11.7 APPREHENSIVE 0
-11.7 APPRENTICE 0
-11.7 APPRENTICED 0
-11.7 APPRENTICES 0
-11.7 APPRENTICESHIP 0
-11.7 APPRENTICESHIPS 0
-11.7 APPRISE 0
-11.7 APPRISED 0
-11.7 APPROACH 0
-11.7 APPROACHABLE 0
-11.7 APPROACHED 0
-11.7 APPROACHES 0
-11.7 APPROACHING 0
-11.7 APPROBATION 0
-11.7 APPROPRIATE 0
-11.7 APPROPRIATED 0
-11.7 APPROPRIATELY 0
-11.7 APPROPRIATENESS 0
-11.7 APPROPRIATES 0
-11.7 APPROPRIATING 0
-11.7 APPROPRIATION 0
-11.7 APPROPRIATIONS 0
-11.7 APPROPRIATOR 0
-11.7 APPROPRIATORS 0
-11.7 APPROVABLE 0
-11.7 APPROVAL 0
-11.7 APPROVALS 0
-11.7 APPROVE 0
-11.7 APPROVED 0
-11.7 APPROVES 0
-11.7 APPROVING 0
-11.7 APPROVINGLY 0
-11.7 APPROXIMATE 0
-11.7 APPROXIMATED 0
-11.7 APPROXIMATELY 0
-11.7 APPROXIMATES 0
-11.7 APPROXIMATING 0
-11.7 APPROXIMATION 0
-11.7 APPROXIMATIONS 0
-11.7 APPS 0
-11.7 APRA 0
-11.7 APREA 0
-11.7 APRICOT 0
-11.7 APRICOTS 0
-11.7 APRIL 0
-11.7 APRIL'S 0
-11.7 APRILE 0
-11.7 APRODIVA 0
-11.7 APRON 0
-11.7 APRONS 0
-11.7 APROPOS 0
-11.7 APSELL 0
-11.7 APSEY 0
-11.7 APSO 0
-11.7 APSTAR 0
-11.7 APT 0
-11.7 APTER 0
-11.7 APTITUDE 0
-11.7 APTITUDES 0
-11.7 APTIVA 0
-11.7 APTLY 0
-11.7 APUZZO 0
-11.7 AQABA 0
-11.7 AQAZADEH 0
-11.7 AQUA 0
-11.7 AQUACULTURE 0
-11.7 AQUALUNG 0
-11.7 AQUAMARINE 0
-11.7 AQUANAUT 0
-11.7 AQUANAUTS 0
-11.7 AQUARIST 0
-11.7 AQUARISTS 0
-11.7 AQUARIUM 0
-11.7 AQUARIUMS 0
-11.7 AQUARIUS 0
-11.7 AQUATIC 0
-11.7 AQUEDUCT 0
-11.7 AQUEDUCTS 0
-11.7 AQUEOUS 0
-11.7 AQUIFER 0
-11.7 AQUIFERS 0
-11.7 AQUILA 0
-11.7 AQUILAR 0
-11.7 AQUILINA 0
-11.7 AQUILINO 0
-11.7 AQUINAS 0
-11.7 AQUINO 0
-11.7 AQUINO'S 0
-11.7 AQUIRRE 0
-11.7 AQUITAINE 0
-11.7 AR 0
-11.7 ARA 0
-11.7 ARAB 0
-11.7 ARABE 0
-11.7 ARABELLA 0
-11.7 ARABIA 0
-11.7 ARABIA'S 0
-11.7 ARABIAN 0
-11.7 ARABIANS 0
-11.7 ARABIC 0
-11.7 ARABICA 0
-11.7 ARABICHON 0
-11.7 ARABICHON'S 0
-11.7 ARABICON 0
-11.7 ARABIE 0
-11.7 ARABLE 0
-11.7 ARABS 0
-11.7 ARABS' 0
-11.7 ARACHNID 0
-11.7 ARACHNIDS 0
-11.7 ARAFAT 0
-11.7 ARAFAT'S 0
-11.7 ARAGON 0
-11.7 ARAGONA 0
-11.7 ARAI 0
-11.7 ARAIZA 0
-11.7 ARAKAKI 0
-11.7 ARAKAWA 0
-11.7 ARAKELIAN 0
-11.7 ARAKI 0
-11.7 ARAL 0
-11.7 ARAMBULA 0
-11.7 ARAMCO 0
-11.7 ARAMID 0
-11.7 ARAMINTA 0
-11.7 ARAMIS 0
-11.7 ARAMONY 0
-11.7 ARAN 0
-11.7 ARANA 0
-11.7 ARANDA 0
-11.7 ARANGO 0
-11.7 ARANSAS 0
-11.7 ARANT 0
-11.7 ARANTZA 0
-11.7 ARANYOS 0
-11.7 ARAPAHO 0
-11.7 ARASKOG 0
-11.7 ARATA 0
-11.7 ARAU 0
-11.7 ARAUJO 0
-11.7 ARAVIND 0
-11.7 ARAYA 0
-11.7 ARB 0
-11.7 ARBA 0
-11.7 ARBAT 0
-11.7 ARBAUGH 0
-11.7 ARBED 0
-11.7 ARBEITER 0
-11.7 ARBEL 0
-11.7 ARBELLA 0
-11.7 ARBITER 0
-11.7 ARBITERS 0
-11.7 ARBITRAGE 0
-11.7 ARBITRAGER 0
-11.7 ARBITRAGERS 0
-11.7 ARBITRAGERS' 0
-11.7 ARBITRAGEUR 0
-11.7 ARBITRAGEURS 0
-11.7 ARBITRAGING 0
-11.7 ARBITRARILY 0
-11.7 ARBITRARINESS 0
-11.7 ARBITRARY 0
-11.7 ARBITRATE 0
-11.7 ARBITRATED 0
-11.7 ARBITRATES 0
-11.7 ARBITRATING 0
-11.7 ARBITRATION 0
-11.7 ARBITRATIONS 0
-11.7 ARBITRATOR 0
-11.7 ARBITRATOR'S 0
-11.7 ARBITRATORS 0
-11.7 ARBITRATORS' 0
-11.7 ARBITRON 0
-11.7 ARBO 0
-11.7 ARBOGAST 0
-11.7 ARBOLEDA 0
-11.7 ARBOR 0
-11.7 ARBOREAL 0
-11.7 ARBORETUM 0
-11.7 ARBORVILLE 0
-11.7 ARBOUR 0
-11.7 ARBS 0
-11.7 ARBUCKLE 0
-11.7 ARBUCKLES 0
-11.7 ARBUTHNOT 0
-11.7 ARBY 0
-11.7 ARBY'S 0
-11.7 ARC 0
-11.7 ARCADE 0
-11.7 ARCADES 0
-11.7 ARCADIA 0
-11.7 ARCADIAN 0
-11.7 ARCADIANS 0
-11.7 ARCANA 0
-11.7 ARCAND 0
-11.7 ARCANE 0
-11.7 ARCANUM 0
-11.7 ARCANUM'S 0
-11.7 ARCARO 0
-11.7 ARCATA 0
-11.7 ARCE 0
-11.7 ARCEMENT 0
-11.7 ARCENEAUX 0
-11.7 ARCEO 0
-11.7 ARCH 0
-11.7 ARCHAEOLOGICAL 0
-11.7 ARCHAEOLOGIST 0
-11.7 ARCHAEOLOGISTS 0
-11.7 ARCHAEOLOGY 0
-11.7 ARCHAIC 0
-11.7 ARCHAMBAULT 0
-11.7 ARCHAMBEAU 0
-11.7 ARCHAMBEAULT 0
-11.7 ARCHANGEL 0
-11.7 ARCHANGELS 0
-11.7 ARCHARD 0
-11.7 ARCHBISHOP 0
-11.7 ARCHBOLD 0
-11.7 ARCHDIOCESE 0
-11.7 ARCHDUKE 0
-11.7 ARCHED 0
-11.7 ARCHENEMY 0
-11.7 ARCHEOLOGICAL 0
-11.7 ARCHEOLOGICALLY 0
-11.7 ARCHEOLOGISTS 0
-11.7 ARCHEOLOGY 0
-11.7 ARCHER 0
-11.7 ARCHER'S 0
-11.7 ARCHERD 0
-11.7 ARCHERY 0
-11.7 ARCHES 0
-11.7 ARCHETYPAL 0
-11.7 ARCHETYPE 0
-11.7 ARCHETYPES 0
-11.7 ARCHEY 0
-11.7 ARCHIBALD 0
-11.7 ARCHIBEQUE 0
-11.7 ARCHIE 0
-11.7 ARCHIMEDES 0
-11.7 ARCHING 0
-11.7 ARCHIPELAGO 0
-11.7 ARCHITECT 0
-11.7 ARCHITECT'S 0
-11.7 ARCHITECTS 0
-11.7 ARCHITECTURAL 0
-11.7 ARCHITECTURALLY 0
-11.7 ARCHITECTURE 0
-11.7 ARCHITECTURES 0
-11.7 ARCHITRAVE 0
-11.7 ARCHITRAVES 0
-11.7 ARCHIVAL 0
-11.7 ARCHIVE 0
-11.7 ARCHIVES 0
-11.7 ARCHIVIST 0
-11.7 ARCHIVISTS 0
-11.7 ARCHLY 0
-11.7 ARCHRIVAL 0
-11.7 ARCHRIVALS 0
-11.7 ARCHULETA 0
-11.7 ARCHULETTA 0
-11.7 ARCHWAY 0
-11.7 ARCIDIACONO 0
-11.7 ARCIERI 0
-11.7 ARCINIEGA 0
-11.7 ARCO 0
-11.7 ARCO'S 0
-11.7 ARCOLA 0
-11.7 ARCOS 0
-11.7 ARCOSANTI 0
-11.7 ARCS 0
-11.7 ARCTIC 0
-11.7 ARCTURUS 0
-11.7 ARCURI 0
-11.7 ARD 0
-11.7 ARDA 0
-11.7 ARDATH 0
-11.7 ARDEEN 0
-11.7 ARDELIA 0
-11.7 ARDELLA 0
-11.7 ARDELLE 0
-11.7 ARDEN 0
-11.7 ARDEN'S 0
-11.7 ARDENE 0
-11.7 ARDENT 0
-11.7 ARDENTLY 0
-11.7 ARDIN 0
-11.7 ARDINE 0
-11.7 ARDIS 0
-11.7 ARDITH 0
-11.7 ARDITO 0
-11.7 ARDLEY 0
-11.7 ARDMORE 0
-11.7 ARDOIN 0
-11.7 ARDOLINO 0
-11.7 ARDOLPH 0
-11.7 ARDOR 0
-11.7 ARDRA 0
-11.7 ARDREY 0
-11.7 ARDSHIEL 0
-11.7 ARDSLEY 0
-11.7 ARDUINI 0
-11.7 ARDUOUS 0
-11.7 ARE 0
-11.7 AREA 0
-11.7 AREA'S 0
-11.7 AREAS 0
-11.7 AREBALO 0
-11.7 ARECHIGA 0
-11.7 AREHART 0
-11.7 AREL 0
-11.7 ARELLANES 0
-11.7 ARELLANO 0
-11.7 AREN 0
-11.7 AREN'T 0
-11.7 ARENA 0
-11.7 ARENA'S 0
-11.7 ARENABALL 0
-11.7 ARENAS 0
-11.7 ARENCIBIA 0
-11.7 AREND 0
-11.7 ARENDS 0
-11.7 ARENDSEE 0
-11.7 ARENDT 0
-11.7 ARENELLA 0
-11.7 ARENELLA'S 0
-11.7 ARENS 0
-11.7 ARENSON 0
-11.7 ARENT 0
-11.7 ARENTZ 0
-11.7 ARENZ 0
-11.7 ARES 0
-11.7 ARETA 0
-11.7 ARETHA 0
-11.7 ARETINA 0
-11.7 ARETSKY 0
-11.7 ARETTA 0
-11.7 AREVALO 0
-11.7 AREY 0
-11.7 ARGABRIGHT 0
-11.7 ARGALL 0
-11.7 ARGANBRIGHT 0
-11.7 ARGENBRIGHT 0
-11.7 ARGENT 0
-11.7 ARGENTA 0
-11.7 ARGENTIERI 0
-11.7 ARGENTINA 0
-11.7 ARGENTINA'S 0
-11.7 ARGENTINAS 0
-11.7 ARGENTINE 0
-11.7 ARGENTINES 0
-11.7 ARGENTINIAN 0
-11.7 ARGENTINIANS 0
-11.7 ARGENTO 0
-11.7 ARGIRO 0
-11.7 ARGO 0
-11.7 ARGO'S 0
-11.7 ARGON 0
-11.7 ARGONAUT 0
-11.7 ARGONAUT'S 0
-11.7 ARGONAUTS 0
-11.7 ARGONNE 0
-11.7 ARGOSY 0
-11.7 ARGOSYSTEM 0
-11.7 ARGOSYSTEMS 0
-11.7 ARGOT 0
-11.7 ARGUABLE 0
-11.7 ARGUABLY 0
-11.7 ARGUE 0
-11.7 ARGUED 0
-11.7 ARGUELLES 0
-11.7 ARGUELLO 0
-11.7 ARGUES 0
-11.7 ARGUETA 0
-11.7 ARGUIJO 0
-11.7 ARGUING 0
-11.7 ARGUMENT 0
-11.7 ARGUMENT'S 0
-11.7 ARGUMENTATION 0
-11.7 ARGUMENTATIVE 0
-11.7 ARGUMENTS 0
-11.7 ARGUS 0
-11.7 ARGYLE 0
-11.7 ARGYLL 0
-11.7 ARGYROPOULOS 0
-11.7 ARI 0
-11.7 ARIA 0
-11.7 ARIADNE 0
-11.7 ARIAN 0
-11.7 ARIANA 0
-11.7 ARIANE 0
-11.7 ARIANESPACE 0
-11.7 ARIANISM 0
-11.7 ARIANNA 0
-11.7 ARIANNA'S 0
-11.7 ARIAS 0
-11.7 ARIAS'S 0
-11.7 ARIC 0
-11.7 ARICO 0
-11.7 ARID 0
-11.7 ARIDA 0
-11.7 ARIE 0
-11.7 ARIEL 0
-11.7 ARIELLA 0
-11.7 ARIES 0
-11.7 ARINGTON 0
-11.7 ARIOLA 0
-11.7 ARIS 0
-11.7 ARISE 0
-11.7 ARISEN 0
-11.7 ARISES 0
-11.7 ARISING 0
-11.7 ARISON 0
-11.7 ARISPE 0
-11.7 ARISTA 0
-11.7 ARISTECH 0
-11.7 ARISTEDE 0
-11.7 ARISTEDE'S 0
-11.7 ARISTIDE 0
-11.7 ARISTIDE'S 0
-11.7 ARISTOCRACY 0
-11.7 ARISTOCRAT 0
-11.7 ARISTOCRATIC 0
-11.7 ARISTOCRATS 0
-11.7 ARISTOTELIAN 0
-11.7 ARISTOTLE 0
-11.7 ARISTOTLE'S 0
-11.7 ARITHMETIC 0
-11.7 ARIZA 0
-11.7 ARIZMENDI 0
-11.7 ARIZONA 0
-11.7 ARIZONA'S 0
-11.7 ARIZONAN 0
-11.7 ARIZONANS 0
-11.7 ARJO 0
-11.7 ARK 0
-11.7 ARKADELPHIA 0
-11.7 ARKADI 0
-11.7 ARKADY 0
-11.7 ARKANSAN 0
-11.7 ARKANSANS 0
-11.7 ARKANSAS 0
-11.7 ARKANSAS' 0
-11.7 ARKANSAS'S 0
-11.7 ARKIN 0
-11.7 ARKIN'S 0
-11.7 ARKLA 0
-11.7 ARKLA'S 0
-11.7 ARKO 0
-11.7 ARKOSE 0
-11.7 ARKWRIGHT 0
-11.7 ARLANA 0
-11.7 ARLAUSKAS 0
-11.7 ARLEDGE 0
-11.7 ARLEEN 0
-11.7 ARLEN 0
-11.7 ARLENA 0
-11.7 ARLENE 0
-11.7 ARLENE'S 0
-11.7 ARLETA 0
-11.7 ARLETTE 0
-11.7 ARLEY 0
-11.7 ARLIE 0
-11.7 ARLIN 0
-11.7 ARLINDA 0
-11.7 ARLINE 0
-11.7 ARLINGTON 0
-11.7 ARLINGTON'S 0
-11.7 ARLT 0
-11.7 ARLYNE 0
-11.7 ARM 0
-11.7 ARM'S 0
-11.7 ARMACOST 0
-11.7 ARMACOST'S 0
-11.7 ARMADA 0
-11.7 ARMADILLO 0
-11.7 ARMADILLOS 0
-11.7 ARMAGEDDON 0
-11.7 ARMAGOST 0
-11.7 ARMAMENT 0
-11.7 ARMAMENTS 0
-11.7 ARMAN 0
-11.7 ARMAND 0
-11.7 ARMANDO 0
-11.7 ARMANDT 0
-11.7 ARMANI 0
-11.7 ARMANTROUT 0
-11.7 ARMARO 0
-11.7 ARMAS 0
-11.7 ARMATO 0
-11.7 ARMBAND 0
-11.7 ARMBANDS 0
-11.7 ARMBRISTER 0
-11.7 ARMBRUST 0
-11.7 ARMBRUSTER 0
-11.7 ARMCHAIR 0
-11.7 ARMCHAIRS 0
-11.7 ARMCO 0
-11.7 ARMCO'S 0
-11.7 ARMED 0
-11.7 ARMEL 0
-11.7 ARMELLINO 0
-11.7 ARMEN 0
-11.7 ARMENDAREZ 0
-11.7 ARMENDARIZ 0
-11.7 ARMENIA 0
-11.7 ARMENIA'S 0
-11.7 ARMENIAN 0
-11.7 ARMENIANS 0
-11.7 ARMENT 0
-11.7 ARMENTA 0
-11.7 ARMENTOR 0
-11.7 ARMENTROUT 0
-11.7 ARMER 0
-11.7 ARMES 0
-11.7 ARMESTED 0
-11.7 ARMETTA 0
-11.7 ARMEY 0
-11.7 ARMEY'S 0
-11.7 ARMFIELD 0
-11.7 ARMIDA 0
-11.7 ARMIES 0
-11.7 ARMIGER 0
-11.7 ARMIJO 0
-11.7 ARMILLA 0
-11.7 ARMIN 0
-11.7 ARMINA 0
-11.7 ARMINE 0
-11.7 ARMING 0
-11.7 ARMINGTON 0
-11.7 ARMINIE 0
-11.7 ARMISTEAD 0
-11.7 ARMISTICE 0
-11.7 ARMITAGE 0
-11.7 ARMOLD 0
-11.7 ARMON 0
-11.7 ARMOND 0
-11.7 ARMONK 0
-11.7 ARMOR 0
-11.7 ARMORED 0
-11.7 ARMORIES 0
-11.7 ARMORY 0
-11.7 ARMOUR 0
-11.7 ARMPIT 0
-11.7 ARMPITS 0
-11.7 ARMREST 0
-11.7 ARMRESTS 0
-11.7 ARMS 0
-11.7 ARMSTEAD 0
-11.7 ARMSTRAD 0
-11.7 ARMSTRONG 0
-11.7 ARMSTRONG'S 0
-11.7 ARMTEC 0
-11.7 ARMTEK 0
-11.7 ARMTEK'S 0
-11.7 ARMWOOD 0
-11.7 ARMY 0
-11.7 ARMY'S 0
-11.7 ARN 0
-11.7 ARNALDA 0
-11.7 ARNALDO 0
-11.7 ARNALL 0
-11.7 ARNATT 0
-11.7 ARNAUD 0
-11.7 ARNAULT 0
-11.7 ARNAZ 0
-11.7 ARNDT 0
-11.7 ARNE 0
-11.7 ARNELL 0
-11.7 ARNELLE 0
-11.7 ARNELLE'S 0
-11.7 ARNER 0
-11.7 ARNESEN 0
-11.7 ARNESON 0
-11.7 ARNETT 0
-11.7 ARNETTE 0
-11.7 ARNEY 0
-11.7 ARNHOLD 0
-11.7 ARNHOLT 0
-11.7 ARNIE 0
-11.7 ARNN 0
-11.7 ARNO 0
-11.7 ARNOLD 0
-11.7 ARNOLD'S 0
-11.7 ARNOLDI 0
-11.7 ARNOLDS 0
-11.7 ARNOLDY 0
-11.7 ARNOLPHE 0
-11.7 ARNONE 0
-11.7 ARNOT 0
-11.7 ARNOTT 0
-11.7 ARNOTTS 0
-11.7 ARNOW 0
-11.7 ARNOX 0
-11.7 ARNS 0
-11.7 ARNST 0
-11.7 ARNSTEIN 0
-11.7 ARNTSON 0
-11.7 ARNTZ 0
-11.7 ARNTZEN 0
-11.7 ARNULFO 0
-11.7 ARNWINE 0
-11.7 ARNZEN 0
-11.7 ARO 0
-11.7 AROCHA 0
-11.7 AROCHO 0
-11.7 AROMA 0
-11.7 AROMAS 0
-11.7 AROMATIC 0
-11.7 ARON 0
-11.7 ARONE 0
-11.7 ARONHALT 0
-11.7 ARONOFF 0
-11.7 ARONOW 0
-11.7 ARONOWITZ 0
-11.7 ARONS 0
-11.7 ARONSON 0
-11.7 ARONSTEIN 0
-11.7 ARORA 0
-11.7 AROS 0
-11.7 AROSE 0
-11.7 AROUND 0
-11.7 AROUSAL 0
-11.7 AROUSE 0
-11.7 AROUSED 0
-11.7 AROUSES 0
-11.7 AROUSING 0
-11.7 ARP 0
-11.7 ARPA 0
-11.7 ARPANET 0
-11.7 ARPIN 0
-11.7 ARPINO 0
-11.7 ARPS 0
-11.7 ARQUETTE 0
-11.7 ARQUILLA 0
-11.7 ARRAIGN 0
-11.7 ARRAIGNED 0
-11.7 ARRAIGNMENT 0
-11.7 ARRAIGNMENTS 0
-11.7 ARRANGE 0
-11.7 ARRANGED 0
-11.7 ARRANGEMENT 0
-11.7 ARRANGEMENTS 0
-11.7 ARRANGER 0
-11.7 ARRANGES 0
-11.7 ARRANGING 0
-11.7 ARRANT 0
-11.7 ARRANTS 0
-11.7 ARRASMITH 0
-11.7 ARRAY 0
-11.7 ARRAYED 0
-11.7 ARRAYS 0
-11.7 ARREARAGE 0
-11.7 ARREARAGES 0
-11.7 ARREARS 0
-11.7 ARREDONDO 0
-11.7 ARREGUIN 0
-11.7 ARRENDONDO 0
-11.7 ARREOLA 0
-11.7 ARREST 0
-11.7 ARRESTED 0
-11.7 ARRESTING 0
-11.7 ARRESTS 0
-11.7 ARRHYTHMIA 0
-11.7 ARRHYTHMIAS 0
-11.7 ARRIAGA 0
-11.7 ARRICK 0
-11.7 ARRIETA 0
-11.7 ARRIGO 0
-11.7 ARRIGONI 0
-11.7 ARRINGTON 0
-11.7 ARRIOLA 0
-11.7 ARRIORTUA 0
-11.7 ARRIS 0
-11.7 ARRIVAL 0
-11.7 ARRIVALS 0
-11.7 ARRIVE 0
-11.7 ARRIVED 0
-11.7 ARRIVES 0
-11.7 ARRIVING 0
-11.7 ARROGANCE 0
-11.7 ARROGANT 0
-11.7 ARROGANTLY 0
-11.7 ARROGATE 0
-11.7 ARROW 0
-11.7 ARROW'S 0
-11.7 ARROWHEAD 0
-11.7 ARROWHEADS 0
-11.7 ARROWOOD 0
-11.7 ARROWROOT 0
-11.7 ARROWS 0
-11.7 ARROWSMITH 0
-11.7 ARROWSMITH'S 0
-11.7 ARROYO 0
-11.7 ARROYO'S 0
-11.7 ARRUDA 0
-11.7 ARRUPE 0
-11.7 ARSDALE 0
-11.7 ARSENAL 0
-11.7 ARSENALS 0
-11.7 ARSENAULT 0
-11.7 ARSENEAU 0
-11.7 ARSENEAULT 0
-11.7 ARSENIC 0
-11.7 ARSENIDE 0
-11.7 ARSENIO 0
-11.7 ARSLANIAN 0
-11.7 ARSON 0
-11.7 ARSONIST 0
-11.7 ARSONISTS 0
-11.7 ARSONS 0
-11.7 ART 0
-11.7 ART'S 0
-11.7 ARTALE 0
-11.7 ARTCARVE 0
-11.7 ARTCARVED 0
-11.7 ARTEAGA 0
-11.7 ARTEMAS 0
-11.7 ARTEMUS 0
-11.7 ARTER 0
-11.7 ARTERBERRY 0
-11.7 ARTERBURN 0
-11.7 ARTERIAL 0
-11.7 ARTERIES 0
-11.7 ARTERIOSCLEROSIS 0
-11.7 ARTERY 0
-11.7 ARTESIAN 0
-11.7 ARTFUL 0
-11.7 ARTFULLY 0
-11.7 ARTH 0
-11.7 ARTHRITIC 0
-11.7 ARTHRITIS 0
-11.7 ARTHROPOD 0
-11.7 ARTHROPODS 0
-11.7 ARTHUR 0
-11.7 ARTHUR'S 0
-11.7 ARTHURIAN 0
-11.7 ARTHURS 0
-11.7 ARTICHOKE 0
-11.7 ARTICHOKES 0
-11.7 ARTICLE 0
-11.7 ARTICLE'S 0
-11.7 ARTICLES 0
-11.7 ARTICULATE 0
-11.7 ARTICULATED 0
-11.7 ARTICULATES 0
-11.7 ARTICULATING 0
-11.7 ARTICULATION 0
-11.7 ARTICULATORY 0
-11.7 ARTIE 0
-11.7 ARTIFACT 0
-11.7 ARTIFACTS 0
-11.7 ARTIFICE 0
-11.7 ARTIFICIAL 0
-11.7 ARTIFICIALLY 0
-11.7 ARTILLERY 0
-11.7 ARTINO 0
-11.7 ARTIODACTYL 0
-11.7 ARTIODACTYLS 0
-11.7 ARTIS 0
-11.7 ARTISAN 0
-11.7 ARTISANS 0
-11.7 ARTIST 0
-11.7 ARTIST'S 0
-11.7 ARTISTIC 0
-11.7 ARTISTICALLY 0
-11.7 ARTISTRY 0
-11.7 ARTISTS 0
-11.7 ARTISTS' 0
-11.7 ARTLEY 0
-11.7 ARTMAN 0
-11.7 ARTOIS 0
-11.7 ARTON 0
-11.7 ARTRA 0
-11.7 ARTRA'S 0
-11.7 ARTRIP 0
-11.7 ARTS 0
-11.7 ARTSY 0
-11.7 ARTUR 0
-11.7 ARTURO 0
-11.7 ARTUS 0
-11.7 ARTWORK 0
-11.7 ARTWORKS 0
-11.7 ARTY 0
-11.7 ARTY'S 0
-11.7 ARTZ 0
-11.7 ARTZT 0
-11.7 ARUBA 0
-11.7 ARUM 0
-11.7 ARUNACHALAM 0
-11.7 ARUNDEL 0
-11.7 ARUP 0
-11.7 ARVA 0
-11.7 ARVAD 0
-11.7 ARVAL 0
-11.7 ARVANITIS 0
-11.7 ARVAY 0
-11.7 ARVE 0
-11.7 ARVEL 0
-11.7 ARVEY 0
-11.7 ARVID 0
-11.7 ARVIDA 0
-11.7 ARVIDA'S 0
-11.7 ARVIDSON 0
-11.7 ARVIN 0
-11.7 ARVIN'S 0
-11.7 ARVIND 0
-11.7 ARVIZU 0
-11.7 ARWOOD 0
-11.7 ARX 0
-11.7 ARY 0
-11.7 ARYAN 0
-11.7 ARZAMA 0
-11.7 ARZAMAS 0
-11.7 ARZATE 0
-11.7 ARZOLA 0
-11.7 ARZT 0
-11.7 AS 0
-11.7 ASA 0
-11.7 ASAF 0
-11.7 ASAHAN 0
-11.7 ASAHARA 0
-11.7 ASAHI 0
-11.7 ASAMERA 0
-11.7 ASARCO 0
-11.7 ASARCO'S 0
-11.7 ASARO 0
-11.7 ASAT 0
-11.7 ASATO 0
-11.7 ASAY 0
-11.7 ASBELL 0
-11.7 ASBERRY 0
-11.7 ASBESTEC 0
-11.7 ASBESTOS 0
-11.7 ASBESTOSIS 0
-11.7 ASBILL 0
-11.7 ASBRIDGE 0
-11.7 ASBURY 0
-11.7 ASBY 0
-11.7 ASCAP 0
-11.7 ASCENCIO 0
-11.7 ASCEND 0
-11.7 ASCENDANCE 0
-11.7 ASCENDANCY 0
-11.7 ASCENDANT 0
-11.7 ASCENDED 0
-11.7 ASCENDENCY 0
-11.7 ASCENDING 0
-11.7 ASCENDS 0
-11.7 ASCENSION 0
-11.7 ASCENT 0
-11.7 ASCERTAIN 0
-11.7 ASCERTAINED 0
-11.7 ASCERTAINING 0
-11.7 ASCETIC 0
-11.7 ASCH 0
-11.7 ASCHE 0
-11.7 ASCHENBACH 0
-11.7 ASCHENBRENNER 0
-11.7 ASCHER 0
-11.7 ASCHOFF 0
-11.7 ASCII 0
-11.7 ASCLAD 0
-11.7 ASCORBIC 0
-11.7 ASCOT 0
-11.7 ASCOTT 0
-11.7 ASCRIBE 0
-11.7 ASCRIBED 0
-11.7 ASCRIBES 0
-11.7 ASDA 0
-11.7 ASEA 0
-11.7 ASEAN 0
-11.7 ASELMA 0
-11.7 ASELTINE 0
-11.7 ASENCIO 0
-11.7 ASERITIS 0
-11.7 ASH 0
-11.7 ASHAME 0
-11.7 ASHAMED 0
-11.7 ASHARE 0
-11.7 ASHBAUGH 0
-11.7 ASHBROOK 0
-11.7 ASHBURN 0
-11.7 ASHBURY 0
-11.7 ASHBY 0
-11.7 ASHCRAFT 0
-11.7 ASHCREEK 0
-11.7 ASHCROFT 0
-11.7 ASHDOWN 0
-11.7 ASHE 0
-11.7 ASHEN 0
-11.7 ASHENBERG 0
-11.7 ASHENFELTER 0
-11.7 ASHER 0
-11.7 ASHES 0
-11.7 ASHEVILLE 0
-11.7 ASHEY 0
-11.7 ASHFORD 0
-11.7 ASHIS 0
-11.7 ASHISH 0
-11.7 ASHLAND 0
-11.7 ASHLAND'S 0
-11.7 ASHLEY 0
-11.7 ASHLEY'S 0
-11.7 ASHLIN 0
-11.7 ASHLINE 0
-11.7 ASHLOCK 0
-11.7 ASHMAN 0
-11.7 ASHMEAD 0
-11.7 ASHMORE 0
-11.7 ASHOK 0
-11.7 ASHORE 0
-11.7 ASHRAWI 0
-11.7 ASHTEC 0
-11.7 ASHTEC'S 0
-11.7 ASHTON 0
-11.7 ASHTON'S 0
-11.7 ASHTRAY 0
-11.7 ASHTRAYS 0
-11.7 ASHUR 0
-11.7 ASHURST 0
-11.7 ASHVILLE 0
-11.7 ASHWELL 0
-11.7 ASHWOOD 0
-11.7 ASHWORTH 0
-11.7 ASHY 0
-11.7 ASIA 0
-11.7 ASIA'S 0
-11.7 ASIAIN 0
-11.7 ASIAMERICA 0
-11.7 ASIAN 0
-11.7 ASIANS 0
-11.7 ASIATIC 0
-11.7 ASIAWEEK 0
-11.7 ASIC 0
-11.7 ASICS 0
-11.7 ASIDE 0
-11.7 ASIDES 0
-11.7 ASIEL 0
-11.7 ASIMOV 0
-11.7 ASIMOV'S 0
-11.7 ASIMOW 0
-11.7 ASININE 0
-11.7 ASK 0
-11.7 ASKA 0
-11.7 ASKANCE 0
-11.7 ASKED 0
-11.7 ASKER 0
-11.7 ASKER'S 0
-11.7 ASKERS 0
-11.7 ASKERS' 0
-11.7 ASKERS'S 0
-11.7 ASKEW 0
-11.7 ASKEY 0
-11.7 ASKIN 0
-11.7 ASKIN'S 0
-11.7 ASKING 0
-11.7 ASKINGTON 0
-11.7 ASKINS 0
-11.7 ASKO 0
-11.7 ASKOLDOV 0
-11.7 ASKOLDOV'S 0
-11.7 ASKREN 0
-11.7 ASKS 0
-11.7 ASLANIAN 0
-11.7 ASLEEP 0
-11.7 ASLESON 0
-11.7 ASLIN 0
-11.7 ASMAN 0
-11.7 ASMARA 0
-11.7 ASMARAS 0
-11.7 ASMUS 0
-11.7 ASMUSSEN 0
-11.7 ASNER 0
-11.7 ASP 0
-11.7 ASPARAGUS 0
-11.7 ASPARTAME 0
-11.7 ASPECT 0
-11.7 ASPECTS 0
-11.7 ASPEN 0
-11.7 ASPEN'S 0
-11.7 ASPENS 0
-11.7 ASPER 0
-11.7 ASPERSION 0
-11.7 ASPERSIONS 0
-11.7 ASPHALT 0
-11.7 ASPIN 0
-11.7 ASPIN'S 0
-11.7 ASPINALL 0
-11.7 ASPINWALL 0
-11.7 ASPIRANT 0
-11.7 ASPIRANTS 0
-11.7 ASPIRATE 0
-11.7 ASPIRATED 0
-11.7 ASPIRATES 0
-11.7 ASPIRATION 0
-11.7 ASPIRATIONS 0
-11.7 ASPIRE 0
-11.7 ASPIRED 0
-11.7 ASPIRES 0
-11.7 ASPIRIN 0
-11.7 ASPIRIN'S 0
-11.7 ASPIRING 0
-11.7 ASPLUND 0
-11.7 ASPNES 0
-11.7 ASQUITH 0
-11.7 ASS 0
-11.7 ASSAD 0
-11.7 ASSAD'S 0
-11.7 ASSAF 0
-11.7 ASSAIL 0
-11.7 ASSAILANT 0
-11.7 ASSAILANT'S 0
-11.7 ASSAILANTS 0
-11.7 ASSAILED 0
-11.7 ASSAILING 0
-11.7 ASSAILS 0
-11.7 ASSANTE 0
-11.7 ASSASSIN 0
-11.7 ASSASSIN'S 0
-11.7 ASSASSINATE 0
-11.7 ASSASSINATED 0
-11.7 ASSASSINATING 0
-11.7 ASSASSINATION 0
-11.7 ASSASSINATIONS 0
-11.7 ASSASSINS 0
-11.7 ASSAULT 0
-11.7 ASSAULTED 0
-11.7 ASSAULTING 0
-11.7 ASSAULTIVE 0
-11.7 ASSAULTS 0
-11.7 ASSAY 0
-11.7 ASSAYER 0
-11.7 ASSED 0
-11.7 ASSELIN 0
-11.7 ASSELSTINE 0
-11.7 ASSEMBLAGE 0
-11.7 ASSEMBLE 0
-11.7 ASSEMBLED 0
-11.7 ASSEMBLER 0
-11.7 ASSEMBLERS 0
-11.7 ASSEMBLES 0
-11.7 ASSEMBLIES 0
-11.7 ASSEMBLING 0
-11.7 ASSEMBLY 0
-11.7 ASSEMBLY'S 0
-11.7 ASSEMBLYMAN 0
-11.7 ASSEMBLYMEN 0
-11.7 ASSEMBLYWOMAN 0
-11.7 ASSENT 0
-11.7 ASSERT 0
-11.7 ASSERTATION 0
-11.7 ASSERTED 0
-11.7 ASSERTEDLY 0
-11.7 ASSERTING 0
-11.7 ASSERTION 0
-11.7 ASSERTIONS 0
-11.7 ASSERTIVE 0
-11.7 ASSERTIVELY 0
-11.7 ASSERTIVENESS 0
-11.7 ASSERTS 0
-11.7 ASSES 0
-11.7 ASSESS 0
-11.7 ASSESSED 0
-11.7 ASSESSES 0
-11.7 ASSESSING 0
-11.7 ASSESSMENT 0
-11.7 ASSESSMENTS 0
-11.7 ASSESSOR 0
-11.7 ASSESSORS 0
-11.7 ASSET 0
-11.7 ASSETS 0
-11.7 ASSETS' 0
-11.7 ASSICURAZIONI 0
-11.7 ASSIDUOUS 0
-11.7 ASSIDUOUSLY 0
-11.7 ASSIGN 0
-11.7 ASSIGNED 0
-11.7 ASSIGNING 0
-11.7 ASSIGNMENT 0
-11.7 ASSIGNMENT'S 0
-11.7 ASSIGNMENTS 0
-11.7 ASSIGNS 0
-11.7 ASSIMILATE 0
-11.7 ASSIMILATED 0
-11.7 ASSIMILATING 0
-11.7 ASSIMILATION 0
-11.7 ASSISI 0
-11.7 ASSIST 0
-11.7 ASSISTANCE 0
-11.7 ASSISTANT 0
-11.7 ASSISTANTS 0
-11.7 ASSISTED 0
-11.7 ASSISTING 0
-11.7 ASSISTS 0
-11.7 ASSOCATION 0
-11.7 ASSOCIATE 0
-11.7 ASSOCIATE'S 0
-11.7 ASSOCIATED 0
-11.7 ASSOCIATES 0
-11.7 ASSOCIATES' 0
-11.7 ASSOCIATING 0
-11.7 ASSOCIATION 0
-11.7 ASSOCIATION'S 0
-11.7 ASSOCIATIONS 0
-11.7 ASSOCIES 0
-11.7 ASSORT 0
-11.7 ASSORTED 0
-11.7 ASSORTMENT 0
-11.7 ASSUAGE 0
-11.7 ASSUAGED 0
-11.7 ASSUBEL 0
-11.7 ASSUME 0
-11.7 ASSUMED 0
-11.7 ASSUMES 0
-11.7 ASSUMING 0
-11.7 ASSUMPTION 0
-11.7 ASSUMPTIONS 0
-11.7 ASSURANCE 0
-11.7 ASSURANCES 0
-11.7 ASSURAS 0
-11.7 ASSURE 0
-11.7 ASSURED 0
-11.7 ASSUREDLY 0
-11.7 ASSURES 0
-11.7 ASSURING 0
-11.7 ASSYRIA 0
-11.7 ASSYRIAN 0
-11.7 ASSYRIANS 0
-11.7 AST 0
-11.7 ASTA 0
-11.7 ASTAIRE 0
-11.7 ASTER 0
-11.7 ASTERISK 0
-11.7 ASTEROID 0
-11.7 ASTEROID'S 0
-11.7 ASTEROIDS 0
-11.7 ASTERS 0
-11.7 ASTHMA 0
-11.7 ASTHMATIC 0
-11.7 ASTHMATICS 0
-11.7 ASTIGMATISM 0
-11.7 ASTIN 0
-11.7 ASTLE 0
-11.7 ASTLEY 0
-11.7 ASTON 0
-11.7 ASTONISH 0
-11.7 ASTONISHED 0
-11.7 ASTONISHING 0
-11.7 ASTONISHINGLY 0
-11.7 ASTONISHMENT 0
-11.7 ASTOR 0
-11.7 ASTOR'S 0
-11.7 ASTORGA 0
-11.7 ASTORIA 0
-11.7 ASTORINO 0
-11.7 ASTOUND 0
-11.7 ASTOUNDED 0
-11.7 ASTOUNDING 0
-11.7 ASTOUNDINGLY 0
-11.7 ASTOUNDS 0
-11.7 ASTRA 0
-11.7 ASTRA'S 0
-11.7 ASTRADDLE 0
-11.7 ASTRAKHAN 0
-11.7 ASTRAL 0
-11.7 ASTRAY 0
-11.7 ASTRED 0
-11.7 ASTRID 0
-11.7 ASTRIDE 0
-11.7 ASTRINGENT 0
-11.7 ASTRINGENTS 0
-11.7 ASTRO 0
-11.7 ASTRODOME 0
-11.7 ASTROGEOLOGY 0
-11.7 ASTROLOGER 0
-11.7 ASTROLOGERS 0
-11.7 ASTROLOGICAL 0
-11.7 ASTROLOGY 0
-11.7 ASTRONAUT 0
-11.7 ASTRONAUT'S 0
-11.7 ASTRONAUTIC 0
-11.7 ASTRONAUTICAL 0
-11.7 ASTRONAUTICS 0
-11.7 ASTRONAUTS 0
-11.7 ASTRONAUTS' 0
-11.7 ASTRONOMER 0
-11.7 ASTRONOMERS 0
-11.7 ASTRONOMICAL 0
-11.7 ASTRONOMICALLY 0
-11.7 ASTRONOMY 0
-11.7 ASTROPHOTOGRAPHY 0
-11.7 ASTROPHYSICIST 0
-11.7 ASTROPHYSICS 0
-11.7 ASTROS 0
-11.7 ASTROTECH 0
-11.7 ASTROTURF 0
-11.7 ASTUTE 0
-11.7 ASTUTELY 0
-11.7 ASTUTENESS 0
-11.7 ASUNCION 0
-11.7 ASUNDER 0
-11.7 ASWIN 0
-11.7 ASYLUM 0
-11.7 ASYMMETRICAL 0
-11.7 ASYMMETRIES 0
-11.7 ASYMMETRY 0
-11.7 ASYMPTOMATIC 0
-11.7 ASYMPTOTE 0
-11.7 ASYMPTOTES 0
-11.7 ASYNCHRONOUS 0
-11.7 AT 0
-11.7 AT-BAT 0
-11.7 AT-BATS 0
-11.7 ATA 0
-11.7 ATALANTA 0
-11.7 ATALAYA 0
-11.7 ATALIA 0
-11.7 ATALIE 0
-11.7 ATAMIAN 0
-11.7 ATARI 0
-11.7 ATARI'S 0
-11.7 ATATURK 0
-11.7 ATATURK'S 0
-11.7 ATAVISM 0
-11.7 ATAVISTIC 0
-11.7 ATAXIA 0
-11.7 ATAXIA'S 0
-11.7 ATCHESON 0
-11.7 ATCHINSON 0
-11.7 ATCHISON 0
-11.7 ATCHLEY 0
-11.7 ATCO 0
-11.7 ATCOR 0
-11.7 ATE 0
-11.7 ATEK 0
-11.7 ATEN 0
-11.7 ATENCIO 0
-11.7 ATER 0
-11.7 ATES 0
-11.7 ATHA 0
-11.7 ATHALIA 0
-11.7 ATHANAS 0
-11.7 ATHANASSIOU 0
-11.7 ATHANS 0
-11.7 ATHAS 0
-11.7 ATHEARN 0
-11.7 ATHEISM 0
-11.7 ATHEIST 0
-11.7 ATHEISTIC 0
-11.7 ATHEISTS 0
-11.7 ATHENA 0
-11.7 ATHENAEUM 0
-11.7 ATHENAIOS 0
-11.7 ATHENEUM 0
-11.7 ATHENIAN 0
-11.7 ATHENIANS 0
-11.7 ATHENS 0
-11.7 ATHEROSCLEROSIS 0
-11.7 ATHERTON 0
-11.7 ATHEY 0
-11.7 ATHIE 0
-11.7 ATHLETE 0
-11.7 ATHLETE'S 0
-11.7 ATHLETES 0
-11.7 ATHLETES' 0
-11.7 ATHLETIC 0
-11.7 ATHLETICALLY 0
-11.7 ATHLETICISM 0
-11.7 ATHLETICS 0
-11.7 ATHLONE 0
-11.7 ATHWART 0
-11.7 ATICO 0
-11.7 ATIENZA 0
-11.7 ATILANO 0
-11.7 ATKERSON 0
-11.7 ATKIN 0
-11.7 ATKINS 0
-11.7 ATKINS'S 0
-11.7 ATKINSON 0
-11.7 ATKINSON'S 0
-11.7 ATKISON 0
-11.7 ATKISSON 0
-11.7 ATLA 0
-11.7 ATLANTA 0
-11.7 ATLANTA'S 0
-11.7 ATLANTAN 0
-11.7 ATLANTANS 0
-11.7 ATLANTIC 0
-11.7 ATLANTIC'S 0
-11.7 ATLANTICA 0
-11.7 ATLANTICO 0
-11.7 ATLANTIS 0
-11.7 ATLANTIS' 0
-11.7 ATLANTIS'S 0
-11.7 ATLAS 0
-11.7 ATLAS'S 0
-11.7 ATLASES 0
-11.7 ATLER 0
-11.7 ATLEY 0
-11.7 ATMEL 0
-11.7 ATMOSPHERE 0
-11.7 ATMOSPHERIC 0
-11.7 ATMOSPHERICS 0
-11.7 ATNIP 0
-11.7 ATOCHA 0
-11.7 ATOLL 0
-11.7 ATOM 0
-11.7 ATOMIC 0
-11.7 ATOMIZER 0
-11.7 ATOMS 0
-11.7 ATON 0
-11.7 ATONAL 0
-11.7 ATONE 0
-11.7 ATONEMENT 0
-11.7 ATOP 0
-11.7 ATOR 0
-11.7 ATORINO 0
-11.7 ATP 0
-11.7 ATRA 0
-11.7 ATRIA 0
-11.7 ATRIUM 0
-11.7 ATROCIOUS 0
-11.7 ATROCITIES 0
-11.7 ATROCITY 0
-11.7 ATROPHIED 0
-11.7 ATROPHY 0
-11.7 ATSUSHI 0
-11.7 ATTA 0
-11.7 ATTABOY 0
-11.7 ATTABOYS 0
-11.7 ATTACH 0
-11.7 ATTACHE 0
-11.7 ATTACHED 0
-11.7 ATTACHES 0
-11.7 ATTACHING 0
-11.7 ATTACHMENT 0
-11.7 ATTACHMENTS 0
-11.7 ATTACK 0
-11.7 ATTACKED 0
-11.7 ATTACKER 0
-11.7 ATTACKERS 0
-11.7 ATTACKING 0
-11.7 ATTACKS 0
-11.7 ATTAIN 0
-11.7 ATTAINABLE 0
-11.7 ATTAINDER 0
-11.7 ATTAINED 0
-11.7 ATTAINING 0
-11.7 ATTAINMENT 0
-11.7 ATTAINS 0
-11.7 ATTALI 0
-11.7 ATTALLA 0
-11.7 ATTANASIO 0
-11.7 ATTAR 0
-11.7 ATTARD 0
-11.7 ATTARDO 0
-11.7 ATTAWAY 0
-11.7 ATTEBERRY 0
-11.7 ATTEBERY 0
-11.7 ATTEBURY 0
-11.7 ATTEMPT 0
-11.7 ATTEMPTED 0
-11.7 ATTEMPTING 0
-11.7 ATTEMPTS 0
-11.7 ATTENBOROUGH 0
-11.7 ATTEND 0
-11.7 ATTENDANCE 0
-11.7 ATTENDANT 0
-11.7 ATTENDANTS 0
-11.7 ATTENDANTS' 0
-11.7 ATTENDED 0
-11.7 ATTENDEE 0
-11.7 ATTENDEES 0
-11.7 ATTENDING 0
-11.7 ATTENDS 0
-11.7 ATTENTION 0
-11.7 ATTENTIONS 0
-11.7 ATTENTIVE 0
-11.7 ATTENTIVELY 0
-11.7 ATTENTIVENESS 0
-11.7 ATTENUATE 0
-11.7 ATTENUATED 0
-11.7 ATTENUATES 0
-11.7 ATTERBERRY 0
-11.7 ATTERBURY 0
-11.7 ATTERMANN 0
-11.7 ATTEST 0
-11.7 ATTESTED 0
-11.7 ATTESTING 0
-11.7 ATTESTS 0
-11.7 ATTIC 0
-11.7 ATTICA 0
-11.7 ATTICS 0
-11.7 ATTICUS 0
-11.7 ATTIE 0
-11.7 ATTILA 0
-11.7 ATTILA'S 0
-11.7 ATTIRE 0
-11.7 ATTIRED 0
-11.7 ATTITUDE 0
-11.7 ATTITUDES 0
-11.7 ATTITUDINAL 0
-11.7 ATTKISSON 0
-11.7 ATTLEBORO 0
-11.7 ATTLEE 0
-11.7 ATTORNEY 0
-11.7 ATTORNEY'S 0
-11.7 ATTORNEYS 0
-11.7 ATTORNEYS' 0
-11.7 ATTRACT 0
-11.7 ATTRACTED 0
-11.7 ATTRACTING 0
-11.7 ATTRACTION 0
-11.7 ATTRACTIONS 0
-11.7 ATTRACTIVE 0
-11.7 ATTRACTIVELY 0
-11.7 ATTRACTIVENESS 0
-11.7 ATTRACTS 0
-11.7 ATTRIBUTABLE 0
-11.7 ATTRIBUTE 0
-11.7 ATTRIBUTED 0
-11.7 ATTRIBUTES 0
-11.7 ATTRIBUTING 0
-11.7 ATTRIBUTION 0
-11.7 ATTRIDGE 0
-11.7 ATTRITION 0
-11.7 ATTUNE 0
-11.7 ATTUNED 0
-11.7 ATTWOOD 0
-11.7 ATTWOODS 0
-11.7 ATWATER 0
-11.7 ATWELL 0
-11.7 ATWOOD 0
-11.7 ATWORTH 0
-11.7 ATX 0
-11.7 ATYPICAL 0
-11.7 ATZ 0
-11.7 AU 0
-11.7 AUBE 0
-11.7 AUBEL 0
-11.7 AUBER 0
-11.7 AUBERRY 0
-11.7 AUBERT 0
-11.7 AUBIN 0
-11.7 AUBLE 0
-11.7 AUBREY 0
-11.7 AUBRY 0
-11.7 AUBUCHON 0
-11.7 AUBURN 0
-11.7 AUCH 0
-11.7 AUCHTER 0
-11.7 AUCKLAND 0
-11.7 AUCLAIR 0
-11.7 AUCOIN 0
-11.7 AUCOTT 0
-11.7 AUCTION 0
-11.7 AUCTION'S 0
-11.7 AUCTIONED 0
-11.7 AUCTIONEER 0
-11.7 AUCTIONEERING 0
-11.7 AUCTIONEERS 0
-11.7 AUCTIONING 0
-11.7 AUCTIONS 0
-11.7 AUD 0
-11.7 AUDACIOUS 0
-11.7 AUDACITY 0
-11.7 AUDAS 0
-11.7 AUDEN 0
-11.7 AUDERBURN 0
-11.7 AUDET 0
-11.7 AUDETTE 0
-11.7 AUDI 0
-11.7 AUDI'S 0
-11.7 AUDIA 0
-11.7 AUDIBLE 0
-11.7 AUDIBLY 0
-11.7 AUDIENCE 0
-11.7 AUDIENCE'S 0
-11.7 AUDIENCES 0
-11.7 AUDINO 0
-11.7 AUDIO 0
-11.7 AUDIOPHILE 0
-11.7 AUDIOPHILES 0
-11.7 AUDIOTAPE 0
-11.7 AUDIOTAPES 0
-11.7 AUDIOTEX 0
-11.7 AUDIOTRONIC 0
-11.7 AUDIOTRONICS 0
-11.7 AUDIOVISUAL 0
-11.7 AUDIOVOX 0
-11.7 AUDIS 0
-11.7 AUDIT 0
-11.7 AUDITED 0
-11.7 AUDITING 0
-11.7 AUDITION 0
-11.7 AUDITIONED 0
-11.7 AUDITIONING 0
-11.7 AUDITIONS 0
-11.7 AUDITOR 0
-11.7 AUDITOR'S 0
-11.7 AUDITORIUM 0
-11.7 AUDITORIUMS 0
-11.7 AUDITORS 0
-11.7 AUDITORS' 0
-11.7 AUDITORY 0
-11.7 AUDITS 0
-11.7 AUDRAN 0
-11.7 AUDREY 0
-11.7 AUDRIC 0
-11.7 AUDRIE 0
-11.7 AUDRIS 0
-11.7 AUDRY 0
-11.7 AUDUBON 0
-11.7 AUDWIN 0
-11.7 AUE 0
-11.7 AUEL 0
-11.7 AUEN 0
-11.7 AUER 0
-11.7 AUERBACH 0
-11.7 AUERBACK 0
-11.7 AUFDERHEIDE 0
-11.7 AUFHAUSER 0
-11.7 AUFIERO 0
-11.7 AUG 0
-11.7 AUGAT 0
-11.7 AUGE 0
-11.7 AUGELLO 0
-11.7 AUGENSTEIN 0
-11.7 AUGER 0
-11.7 AUGERS 0
-11.7 AUGHENBAUGH 0
-11.7 AUGMENT 0
-11.7 AUGMENTABLE 0
-11.7 AUGMENTATION 0
-11.7 AUGMENTED 0
-11.7 AUGMENTING 0
-11.7 AUGSBURG 0
-11.7 AUGSBURGER 0
-11.7 AUGSPURGER 0
-11.7 AUGUR 0
-11.7 AUGURING 0
-11.7 AUGURS 0
-11.7 AUGUST 0
-11.7 AUGUST'S 0
-11.7 AUGUSTA 0
-11.7 AUGUSTA'S 0
-11.7 AUGUSTE 0
-11.7 AUGUSTIN 0
-11.7 AUGUSTINE 0
-11.7 AUGUSTINIAN 0
-11.7 AUGUSTINIANS 0
-11.7 AUGUSTO 0
-11.7 AUGUSTSON 0
-11.7 AUGUSTUS 0
-11.7 AUGUSTYN 0
-11.7 AUGUSTYNIAK 0
-11.7 AUJOURD'HUI 0
-11.7 AUJOURD'HUI'S 0
-11.7 AUKER 0
-11.7 AUKERMAN 0
-11.7 AUL 0
-11.7 AULANA 0
-11.7 AULD 0
-11.7 AULDS 0
-11.7 AULETTA 0
-11.7 AULL 0
-11.7 AULT 0
-11.7 AULTMAN 0
-11.7 AUMAN 0
-11.7 AUMANN 0
-11.7 AUMENT 0
-11.7 AUMILLER 0
-11.7 AUNE 0
-11.7 AUNG 0
-11.7 AUNGST 0
-11.7 AUNT 0
-11.7 AUNT'S 0
-11.7 AUNTIE 0
-11.7 AUNTS 0
-11.7 AUNTS' 0
-11.7 AUPPERLE 0
-11.7 AURA 0
-11.7 AURAL 0
-11.7 AURAND 0
-11.7 AUREA 0
-11.7 AURELIO 0
-11.7 AURIA 0
-11.7 AURICH 0
-11.7 AURIEMMA 0
-11.7 AURORA 0
-11.7 AURORAL 0
-11.7 AURUM 0
-11.7 AUS 0
-11.7 AUSBROOKS 0
-11.7 AUSBURN 0
-11.7 AUSCHWITZ 0
-11.7 AUSHERMAN 0
-11.7 AUSIMONT 0
-11.7 AUSLANDER 0
-11.7 AUSLEY 0
-11.7 AUSMAN 0
-11.7 AUSMUS 0
-11.7 AUSPEY 0
-11.7 AUSPICE 0
-11.7 AUSPICES 0
-11.7 AUSPICIOUS 0
-11.7 AUSSIE 0
-11.7 AUST 0
-11.7 AUSTAD 0
-11.7 AUSTELL 0
-11.7 AUSTEN 0
-11.7 AUSTEN'S 0
-11.7 AUSTER 0
-11.7 AUSTERE 0
-11.7 AUSTERELY 0
-11.7 AUSTERITY 0
-11.7 AUSTILL 0
-11.7 AUSTIN 0
-11.7 AUSTIN'S 0
-11.7 AUSTINE 0
-11.7 AUSTON 0
-11.7 AUSTRAL 0
-11.7 AUSTRALASIA 0
-11.7 AUSTRALIA 0
-11.7 AUSTRALIA'S 0
-11.7 AUSTRALIAN 0
-11.7 AUSTRALIANS 0
-11.7 AUSTRALOPITHECINE 0
-11.7 AUSTRALOPITHECUS 0
-11.7 AUSTRALS 0
-11.7 AUSTRASIA 0
-11.7 AUSTRIA 0
-11.7 AUSTRIA'S 0
-11.7 AUSTRIAN 0
-11.7 AUSTRIANS 0
-11.7 AUSTRO 0
-11.7 AUSTROASIATIC 0
-11.7 AUSTRON 0
-11.7 AUTEN 0
-11.7 AUTENRIETH 0
-11.7 AUTERY 0
-11.7 AUTH 0
-11.7 AUTHEMENT 0
-11.7 AUTHENTIC 0
-11.7 AUTHENTICALLY 0
-11.7 AUTHENTICATE 0
-11.7 AUTHENTICATED 0
-11.7 AUTHENTICATING 0
-11.7 AUTHENTICATION 0
-11.7 AUTHENTICATIONS 0
-11.7 AUTHENTICITY 0
-11.7 AUTHER 0
-11.7 AUTHIER 0
-11.7 AUTHOR 0
-11.7 AUTHOR'S 0
-11.7 AUTHORED 0
-11.7 AUTHORING 0
-11.7 AUTHORITARIAN 0
-11.7 AUTHORITARIANISM 0
-11.7 AUTHORITATIVE 0
-11.7 AUTHORITATIVELY 0
-11.7 AUTHORITIES 0
-11.7 AUTHORITIES' 0
-11.7 AUTHORITY 0
-11.7 AUTHORITY'S 0
-11.7 AUTHORIZATION 0
-11.7 AUTHORIZATIONS 0
-11.7 AUTHORIZE 0
-11.7 AUTHORIZED 0
-11.7 AUTHORIZES 0
-11.7 AUTHORIZING 0
-11.7 AUTHORS 0
-11.7 AUTHORS' 0
-11.7 AUTHORSHIP 0
-11.7 AUTISM 0
-11.7 AUTISTIC 0
-11.7 AUTO 0
-11.7 AUTO'S 0
-11.7 AUTOBAHN 0
-11.7 AUTOBIOGRAPHER 0
-11.7 AUTOBIOGRAPHICAL 0
-11.7 AUTOBIOGRAPHIES 0
-11.7 AUTOBIOGRAPHY 0
-11.7 AUTOBON 0
-11.7 AUTOCLAVE 0
-11.7 AUTOCRACY 0
-11.7 AUTOCRAT 0
-11.7 AUTOCRATIC 0
-11.7 AUTODESK 0
-11.7 AUTODIE 0
-11.7 AUTOFACT 0
-11.7 AUTOFACTS 0
-11.7 AUTOGRAPH 0
-11.7 AUTOGRAPHED 0
-11.7 AUTOGRAPHS 0
-11.7 AUTOIMMUNE 0
-11.7 AUTOLATINA 0
-11.7 AUTOMAKER 0
-11.7 AUTOMAKER'S 0
-11.7 AUTOMAKERS 0
-11.7 AUTOMAKERS' 0
-11.7 AUTOMAP 0
-11.7 AUTOMATA 0
-11.7 AUTOMATE 0
-11.7 AUTOMATED 0
-11.7 AUTOMATES 0
-11.7 AUTOMATIC 0
-11.7 AUTOMATICALLY 0
-11.7 AUTOMATICS 0
-11.7 AUTOMATING 0
-11.7 AUTOMATION 0
-11.7 AUTOMATIX 0
-11.7 AUTOMATON 0
-11.7 AUTOMOBILE 0
-11.7 AUTOMOBILES 0
-11.7 AUTOMOBILI 0
-11.7 AUTOMOTIVE 0
-11.7 AUTOMOTIVE'S 0
-11.7 AUTOMOVILES 0
-11.7 AUTON 0
-11.7 AUTONOMIC 0
-11.7 AUTONOMOUS 0
-11.7 AUTONOMOUSLY 0
-11.7 AUTONOMY 0
-11.7 AUTOPACIFIC 0
-11.7 AUTOPART 0
-11.7 AUTOPARTS 0
-11.7 AUTOPILOT 0
-11.7 AUTOPSIED 0
-11.7 AUTOPSIES 0
-11.7 AUTOPSY 0
-11.7 AUTORAD 0
-11.7 AUTORADIOGRAPH 0
-11.7 AUTORADS 0
-11.7 AUTOS 0
-11.7 AUTOSPA 0
-11.7 AUTOTOTE 0
-11.7 AUTOTROPHIC 0
-11.7 AUTOWORKER 0
-11.7 AUTOWORKERS 0
-11.7 AUTREY 0
-11.7 AUTRY 0
-11.7 AUTUMN 0
-11.7 AUTUMN'S 0
-11.7 AUTUMNAL 0
-11.7 AUVIL 0
-11.7 AUX 0
-11.7 AUXIER 0
-11.7 AUXILIARY 0
-11.7 AUXTON 0
-11.7 AUYEUNG 0
-11.7 AUZENNE 0
-11.7 AVA 0
-11.7 AVAIL 0
-11.7 AVAILABILITIES 0
-11.7 AVAILABILITY 0
-11.7 AVAILABLE 0
-11.7 AVAILED 0
-11.7 AVAKIAN 0
-11.7 AVALANCHE 0
-11.7 AVALANCHES 0
-11.7 AVALLONE 0
-11.7 AVALON 0
-11.7 AVALON'S 0
-11.7 AVALOS 0
-11.7 AVANA 0
-11.7 AVANA'S 0
-11.7 AVANEX 0
-11.7 AVANT 0
-11.7 AVANT-GARDE 0
-11.7 AVANTEK 0
-11.7 AVANTI 0
-11.7 AVANTS 0
-11.7 AVARICE 0
-11.7 AVASSO 0
-11.7 AVCO 0
-11.7 AVDEL 0
-11.7 AVE 0
-11.7 AVEDISIAN 0
-11.7 AVEDON 0
-11.7 AVELAR 0
-11.7 AVELINE 0
-11.7 AVELLA 0
-11.7 AVELLINO 0
-11.7 AVELLINO'S 0
-11.7 AVEMCO 0
