#############################################################################
## Copyright (c) 1996, Carnegie Mellon University, Cambridge University,
## Ronald Rosenfeld and Philip Clarkson
#############################################################################
=============================================================================
===============  This file was produced by the CMU-Cambridge  ===============
===============     Statistical Language Modeling Toolkit     ===============
=============================================================================
This is a 1-gram language model, based on a vocabulary of 993 words,
  which begins "<s>", "</s>", "A"...
This is an OPEN-vocabulary model (type 1)
  (OOVs were mapped to UNK, which is treated as any other vocabulary word)
Good-Turing discounting was applied.
1-gram frequency of frequency : 994 
1-gram discounting ratios : 1.00 
This file is in the ARPA-standard format introduced by Doug Paul.

p(wd3|wd1,wd2)= if(trigram exists)           p_3(wd1,wd2,wd3)
                else if(bigram w1,w2 exists) bo_wt_2(w1,w2)*p(wd3|wd2)
                else                         p(wd3|w2)

p(wd2|wd1)= if(bigram exists) p_2(wd1,wd2)
            else              bo_wt_1(wd1)*p_1(wd2)

All probs and back-off weights (bo_wt) are given in log10 form.

Data formats:

Beginning of data mark: \data\
ngram 1=nr            # number of 1-grams
ngram 2=1

\1-grams:
p_1     wd_1 

end of data mark: \end\

\data\
ngram 1=994
ngram 2=1

\1-grams:
-2.9965 <UNK>	0.0000
-98.9996 <s>	0.0000
-98.9996 </s>	0.0000
-2.9965 A	0.0000
-2.9965 A42128	0.0000
-2.9965 AAW	0.0000
-2.9965 ABERDEEN	0.0000
-2.9965 ABOARD	0.0000
-2.9965 ABOVE	0.0000
-2.9965 ADD	0.0000
-2.9965 ADDED	0.0000
-2.9965 ADDING	0.0000
-2.9965 AFFECT	0.0000
-2.9965 AFTER	0.0000
-2.9965 AGAIN	0.0000
-2.9965 AJAX	0.0000
-2.9965 AJAX'S	0.0000
-2.9965 ALASKA	0.0000
-2.9965 ALERT	0.0000
-2.9965 ALERTS	0.0000
-2.9965 ALEXANDRIA	0.0000
-2.9965 ALL	0.0000
-2.9965 AN	0.0000
-2.9965 ANCHORAGE	0.0000
-2.9965 AND	0.0000
-2.9965 ANY	0.0000
-2.9965 ANYBODY	0.0000
-2.9965 APALACHICOLA	0.0000
-2.9965 APALACHICOLA'S	0.0000
-2.9965 APRIL	0.0000
-2.9965 ARABIAN	0.0000
-2.9965 ARCTIC	0.0000
-2.9965 ARE	0.0000
-2.9965 AREA	0.0000
-2.9965 AREAS	0.0000
-2.9965 AREN'T	0.0000
-2.9965 ARKANSAS	0.0000
-2.9965 ARKANSAS'S	0.0000
-2.9965 AROUND	0.0000
-2.9965 ARRIVAL	0.0000
-2.9965 ARRIVE	0.0000
-2.9965 ARRIVED	0.0000
-2.9965 ARRIVING	0.0000
-2.9965 ARROW	0.0000
-2.9965 AS	0.0000
-2.9965 ASTORIA	0.0000
-2.9965 ASUW	0.0000
-2.9965 ASW	0.0000
-2.9965 AT	0.0000
-2.9965 ATLANTIC	0.0000
-2.9965 AUGUST	0.0000
-2.9965 AVAILABLE	0.0000
-2.9965 AVERAGE	0.0000
-2.9965 BAD	0.0000
-2.9965 BADGER	0.0000
-2.9965 BADGER'S	0.0000
-2.9965 BAINBRIDGE	0.0000
-2.9965 BAINBRIDGE'S	0.0000
-2.9965 BANGKOK	0.0000
-2.9965 BARGE	0.0000
-2.9965 BASS	0.0000
-2.9965 BAY	0.0000
-2.9965 BE	0.0000
-2.9965 BEAM	0.0000
-2.9965 BEAMS	0.0000
-2.9965 BEEN	0.0000
-2.9965 BEFORE	0.0000
-2.9965 BELOW	0.0000
-2.9965 BERING	0.0000
-2.9965 BETTER	0.0000
-2.9965 BETWEEN	0.0000
-2.9965 BIDDLE	0.0000
-2.9965 BIDDLE'S	0.0000
-2.9965 BISMARK	0.0000
-2.9965 BOMBAY	0.0000
-2.9965 BOTH	0.0000
-2.9965 BOX	0.0000
-2.9965 BRIGHT	0.0000
-2.9965 BRITISH	0.0000
-2.9965 BROOKE	0.0000
-2.9965 BROOKE'S	0.0000
-2.9965 BRUNSWICK	0.0000
-2.9965 BRUNSWICK'S	0.0000
-2.9965 BUD-TEST	0.0000
-2.9965 BUMP	0.0000
-2.9965 BY	0.0000
-2.9965 C-CODE	0.0000
-2.9965 C-CODES	0.0000
-2.9965 C-RATING	0.0000
-2.9965 C-RATINGS	0.0000
-2.9965 C1	0.0000
-2.9965 C2	0.0000
-2.9965 C3	0.0000
-2.9965 C4	0.0000
-2.9965 C5	0.0000
-2.9965 CALEDONIA	0.0000
-2.9965 CALIFORNIA	0.0000
-2.9965 CAMDEN	0.0000
-2.9965 CAMDEN'S	0.0000
-2.9965 CAMPBELL	0.0000
-2.9965 CAMPBELL'S	0.0000
-2.9965 CAN	0.0000
-2.9965 CANADA	0.0000
-2.9965 CAPABILITIES	0.0000
-2.9965 CAPABILITY	0.0000
-2.9965 CAPABLE	0.0000
-2.9965 CAPACITIES	0.0000
-2.9965 CAPACITY	0.0000
-2.9965 CARRIER	0.0000
-2.9965 CARRIER'S	0.0000
-2.9965 CARRIERS	0.0000
-2.9965 CARRY	0.0000
-2.9965 CASREP	0.0000
-2.9965 CASREPED	0.0000
-2.9965 CASREPS	0.0000
-2.9965 CASUALTY	0.0000
-2.9965 CAT-2	0.0000
-2.9965 CAT-3	0.0000
-2.9965 CAT-4	0.0000
-2.9965 CATEGORIES	0.0000
-2.9965 CATEGORY	0.0000
-2.9965 CENTER	0.0000
-2.9965 CENTERED	0.0000
-2.9965 CENTERING	0.0000
-2.9965 CEP	0.0000
-2.9965 CHANGE	0.0000
-2.9965 CHANGED	0.0000
-2.9965 CHANGING	0.0000
-2.9965 CHANNEL	0.0000
-2.9965 CHART	0.0000
-2.9965 CHARTS	0.0000
-2.9965 CHATTAHOOCHEE	0.0000
-2.9965 CHATTAHOOCHEE'S	0.0000
-2.9965 CHESHIRE	0.0000
-2.9965 CHINA	0.0000
-2.9965 CHOP	0.0000
-2.9965 CHOPPED	0.0000
-2.9965 CHOPPING	0.0000
-2.9965 CIRCLE	0.0000
-2.9965 CITRUS	0.0000
-2.9965 CITRUS'S	0.0000
-2.9965 CITY	0.0000
-2.9965 CLEAR	0.0000
-2.9965 CLEARED	0.0000
-2.9965 CLEARING	0.0000
-2.9965 CLEVELAND	0.0000
-2.9965 CLEVELAND'S	0.0000
-2.9965 CLOSE	0.0000
-2.9965 CLOSER	0.0000
-2.9965 CLOSEST	0.0000
-2.9965 CODAG	0.0000
-2.9965 CODE	0.0000
-2.9965 CODES	0.0000
-2.9965 COLOR	0.0000
-2.9965 COMPARED	0.0000
-2.9965 CONFIDENCE	0.0000
-2.9965 CONFIDENCE'S	0.0000
-2.9965 CONIFER	0.0000
-2.9965 CONIFER'S	0.0000
-2.9965 CONQUEST	0.0000
-2.9965 CONQUEST'S	0.0000
-2.9965 CONSTANT	0.0000
-2.9965 CONSTANT'S	0.0000
-2.9965 CONSTELLATION	0.0000
-2.9965 CONSTELLATION'S	0.0000
-2.9965 CONVENTIONAL	0.0000
-2.9965 COOK	0.0000
-2.9965 COPELAND	0.0000
-2.9965 COPELAND'S	0.0000
-2.9965 CORAL	0.0000
-2.9965 COULD	0.0000
-2.9965 COULDN'T	0.0000
-2.9965 COUNT	0.0000
-2.9965 COUNTED	0.0000
-2.9965 COUNTING	0.0000
-2.9965 CROVL	0.0000
-2.9965 CROVLS	0.0000
-2.9965 CRUISER	0.0000
-2.9965 CRUISER'S	0.0000
-2.9965 CRUISERS	0.0000
-2.9965 CRUISERS'S	0.0000
-2.9965 CRUISING	0.0000
-2.9965 CURRENT	0.0000
-2.9965 CURRENTLY	0.0000
-2.9965 DALE	0.0000
-2.9965 DALE'S	0.0000
-2.9965 DARWIN	0.0000
-2.9965 DATA	0.0000
-2.9965 DATE	0.0000
-2.9965 DATED	0.0000
-2.9965 DATES	0.0000
-2.9965 DAVIDSON	0.0000
-2.9965 DAVIDSON'S	0.0000
-2.9965 DAY	0.0000
-2.9965 DAYS	0.0000
-2.9965 DDD992	0.0000
-2.9965 DECEMBER	0.0000
-2.9965 DECREASE	0.0000
-2.9965 DECREASED	0.0000
-2.9965 DECREASING	0.0000
-2.9965 DEFAULT	0.0000
-2.9965 DEFAULTS	0.0000
-2.9965 DEFINE	0.0000
-2.9965 DEFINED	0.0000
-2.9965 DEFINING	0.0000
-2.9965 DEFINITION	0.0000
-2.9965 DEFINITIONS	0.0000
-2.9965 DEGRADATION	0.0000
-2.9965 DEGRADATIONS	0.0000
-2.9965 DEGRADE	0.0000
-2.9965 DEGRADED	0.0000
-2.9965 DEGRADING	0.0000
-2.9965 DEGREES	0.0000
-2.9965 DELETE	0.0000
-2.9965 DELETED	0.0000
-2.9965 DELETING	0.0000
-2.9965 DENVER	0.0000
-2.9965 DENVER'S	0.0000
-2.9965 DEPLOYED	0.0000
-2.9965 DEPLOYMENT	0.0000
-2.9965 DEPLOYMENTS	0.0000
-2.9965 DEPTH	0.0000
-2.9965 DEPTHS	0.0000
-2.9965 DESTINATION	0.0000
-2.9965 DESTINATIONS	0.0000
-2.9965 DID	0.0000
-2.9965 DIDN'T	0.0000
-2.9965 DIEGO-GARCIA	0.0000
-2.9965 DIESEL	0.0000
-2.9965 DIM	0.0000
-2.9965 DISPLACEMENT	0.0000
-2.9965 DISPLACEMENTS	0.0000
-2.9965 DISPLAY	0.0000
-2.9965 DISPLAYED	0.0000
-2.9965 DISPLAYING	0.0000
-2.9965 DISTANCE	0.0000
-2.9965 DIXON	0.0000
-2.9965 DIXON'S	0.0000
-2.9965 DMDS	0.0000
-2.9965 DO	0.0000
-2.9965 DOES	0.0000
-2.9965 DOESN'T	0.0000
-2.9965 DON'T	0.0000
-2.9965 DOWNES	0.0000
-2.9965 DOWNES'S	0.0000
-2.9965 DOWNGRADE	0.0000
-2.9965 DOWNGRADED	0.0000
-2.9965 DRAFT	0.0000
-2.9965 DRAFTS	0.0000
-2.9965 DRAW	0.0000
-2.9965 DUBUQUE	0.0000
-2.9965 DUBUQUE'S	0.0000
-2.9965 DUE	0.0000
-2.9965 DURING	0.0000
-2.9965 EACH	0.0000
-2.9965 EARLIER	0.0000
-2.9965 EARLIEST	0.0000
-2.9965 EARLY	0.0000
-2.9965 EAST	0.0000
-2.9965 EASTERN	0.0000
-2.9965 EASTPAC	0.0000
-2.9965 EASTPAC'S	0.0000
-2.9965 ECG041	0.0000
-2.9965 ECHO	0.0000
-2.9965 ECONOMIC	0.0000
-2.9965 EDIT	0.0000
-2.9965 EDITED	0.0000
-2.9965 EDITING	0.0000
-2.9965 EIGHT	0.0000
-2.9965 EIGHTEEN	0.0000
-2.9965 EIGHTEENTH	0.0000
-2.9965 EIGHTH	0.0000
-2.9965 EIGHTY	0.0000
-2.9965 EISENHOWER	0.0000
-2.9965 EISENHOWER'S	0.0000
-2.9965 ELEVEN	0.0000
-2.9965 ELEVENTH	0.0000
-2.9965 ELIZABETH	0.0000
-2.9965 EMPLOYED	0.0000
-2.9965 END	0.0000
-2.9965 ENDING	0.0000
-2.9965 ENGLAND	0.0000
-2.9965 ENGLAND'S	0.0000
-2.9965 ENGLISH	0.0000
-2.9965 ENOUGH	0.0000
-2.9965 ENROUTE	0.0000
-2.9965 ENTERPRISE	0.0000
-2.9965 ENTERPRISE'S	0.0000
-2.9965 EQUIPMENT	0.0000
-2.9965 EQUIPPED	0.0000
-2.9965 ESTEEM	0.0000
-2.9965 ESTEEM'S	0.0000
-2.9965 ESTIMATED	0.0000
-2.9965 ETA	0.0000
-2.9965 ETR	0.0000
-2.9965 EVER	0.0000
-2.9965 EVERETT	0.0000
-2.9965 EXPECTED	0.0000
-2.9965 FANNING	0.0000
-2.9965 FANNING'S	0.0000
-2.9965 FAR	0.0000
-2.9965 FARTHER	0.0000
-2.9965 FARTHEST	0.0000
-2.9965 FAST	0.0000
-2.9965 FASTER	0.0000
-2.9965 FASTEST	0.0000
-2.9965 FEBRUARY	0.0000
-2.9965 FEET	0.0000
-2.9965 FFF088	0.0000
-2.9965 FIFTEEN	0.0000
-2.9965 FIFTEENTH	0.0000
-2.9965 FIFTH	0.0000
-2.9965 FIFTY	0.0000
-2.9965 FIGURE	0.0000
-2.9965 FIGURES	0.0000
-2.9965 FIJI	0.0000
-2.9965 FIND	0.0000
-2.9965 FIREBUSH	0.0000
-2.9965 FIREBUSH'S	0.0000
-2.9965 FIRST	0.0000
-2.9965 FIVE	0.0000
-2.9965 FIXED	0.0000
-2.9965 FLASHER	0.0000
-2.9965 FLASHER'S	0.0000
-2.9965 FLEET	0.0000
-2.9965 FLEETS	0.0000
-2.9965 FLINT	0.0000
-2.9965 FLINT'S	0.0000
-2.9965 FOOTER	0.0000
-2.9965 FOR	0.0000
-2.9965 FORMOSA	0.0000
-2.9965 FORTY	0.0000
-2.9965 FOUR	0.0000
-2.9965 FOURTEEN	0.0000
-2.9965 FOURTEENTH	0.0000
-2.9965 FOURTH	0.0000
-2.9965 FOX	0.0000
-2.9965 FOX'S	0.0000
-2.9965 FREDERICK	0.0000
-2.9965 FREDERICK'S	0.0000
-2.9965 FRENCH	0.0000
-2.9965 FRESNO	0.0000
-2.9965 FRESNO'S	0.0000
-2.9965 FRIDAY	0.0000
-2.9965 FRIDAY'S	0.0000
-2.9965 FRIGATE	0.0000
-2.9965 FRIGATE'S	0.0000
-2.9965 FRIGATES	0.0000
-2.9965 FRIGATES'S	0.0000
-2.9965 FROM	0.0000
-2.9965 FUEL	0.0000
-2.9965 FULL	0.0000
-2.9965 GALLONS	0.0000
-2.9965 GALVESTON	0.0000
-2.9965 GAS	0.0000
-2.9965 GET	0.0000
-2.9965 GIVE	0.0000
-2.9965 GLACIER	0.0000
-2.9965 GLACIER'S	0.0000
-2.9965 GNOMONIC	0.0000
-2.9965 GO	0.0000
-2.9965 GOING	0.0000
-2.9965 GONE	0.0000
-2.9965 GREAT	0.0000
-2.9965 GREATER	0.0000
-2.9965 GREATEST	0.0000
-2.9965 GREEN	0.0000
-2.9965 GRID	0.0000
-2.9965 GRIDLEY	0.0000
-2.9965 GRIDLEY'S	0.0000
-2.9965 GRILL	0.0000
-2.9965 GROSS	0.0000
-2.9965 GROUP	0.0000
-2.9965 GROUPS	0.0000
-2.9965 GUARDFISH	0.0000
-2.9965 GUARDFISH'S	0.0000
-2.9965 GUITARRO	0.0000
-2.9965 GUITARRO'S	0.0000
-2.9965 GULF	0.0000
-2.9965 HAD	0.0000
-2.9965 HALF	0.0000
-2.9965 HARBOR	0.0000
-2.9965 HARPOON	0.0000
-2.9965 HAS	0.0000
-2.9965 HASN'T	0.0000
-2.9965 HAVE	0.0000
-2.9965 HAVEN'T	0.0000
-2.9965 HAWKBILL	0.0000
-2.9965 HAWKBILL'S	0.0000
-2.9965 HE	0.0000
-2.9965 HE'S	0.0000
-2.9965 HECTOR	0.0000
-2.9965 HECTOR'S	0.0000
-2.9965 HEPBURN	0.0000
-2.9965 HEPBURN'S	0.0000
-2.9965 HER	0.0000
-2.9965 HERS	0.0000
-2.9965 HFDF	0.0000
-2.9965 HIGH	0.0000
-2.9965 HIGHER	0.0000
-2.9965 HIGHEST	0.0000
-2.9965 HIM	0.0000
-2.9965 HIS	0.0000
-2.9965 HOME	0.0000
-2.9965 HOMER	0.0000
-2.9965 HONG-KONG	0.0000
-2.9965 HONOLULU	0.0000
-2.9965 HOOKED	0.0000
-2.9965 HORNE	0.0000
-2.9965 HORNE'S	0.0000
-2.9965 HOUR	0.0000
-2.9965 HOURS	0.0000
-2.9965 HOW	0.0000
-2.9965 HUNDRED	0.0000
-2.9965 ICE-NINE	0.0000
-2.9965 ID	0.0000
-2.9965 IDENTIFICATION	0.0000
-2.9965 IDENTIFICATIONS	0.0000
-2.9965 IF	0.0000
-2.9965 IN	0.0000
-2.9965 INCLUDE	0.0000
-2.9965 INCLUDED	0.0000
-2.9965 INCLUDING	0.0000
-2.9965 INCREASE	0.0000
-2.9965 INCREASED	0.0000
-2.9965 INCREASING	0.0000
-2.9965 INDEPENDENCE	0.0000
-2.9965 INDEPENDENCE'S	0.0000
-2.9965 INDIAN	0.0000
-2.9965 INDONESIA	0.0000
-2.9965 INFORMATION	0.0000
-2.9965 INSTALLED	0.0000
-2.9965 INSTEAD	0.0000
-2.9965 INSUFFICIENT	0.0000
-2.9965 INVOLVED	0.0000
-2.9965 INVOLVING	0.0000
-2.9965 IRONWOOD	0.0000
-2.9965 IRONWOOD'S	0.0000
-2.9965 IS	0.0000
-2.9965 ISLANDS	0.0000
-2.9965 ISN'T	0.0000
-2.9965 IT	0.0000
-2.9965 IT'S	0.0000
-2.9965 ITS	0.0000
-2.9965 JANUARY	0.0000
-2.9965 JAPAN	0.0000
-2.9965 JARRETT	0.0000
-2.9965 JARRETT'S	0.0000
-2.9965 JARVIS	0.0000
-2.9965 JARVIS'S	0.0000
-2.9965 JASON	0.0000
-2.9965 JASON'S	0.0000
-2.9965 JULY	0.0000
-2.9965 JUNE	0.0000
-2.9965 JUPITER	0.0000
-2.9965 JUPITER'S	0.0000
-2.9965 KENNEDY	0.0000
-2.9965 KENNEDY'S	0.0000
-2.9965 KILOMETER	0.0000
-2.9965 KILOMETERS	0.0000
-2.9965 KIRK	0.0000
-2.9965 KIRK'S	0.0000
-2.9965 KISKA	0.0000
-2.9965 KISKA'S	0.0000
-2.9965 KNOT	0.0000
-2.9965 KNOTS	0.0000
-2.9965 KODIAK	0.0000
-2.9965 KOREA	0.0000
-2.9965 KOREAN	0.0000
-2.9965 LAMPS	0.0000
-2.9965 LANTFLT	0.0000
-2.9965 LARGE	0.0000
-2.9965 LARGER	0.0000
-2.9965 LARGEST	0.0000
-2.9965 LAST	0.0000
-2.9965 LAT	0.0000
-2.9965 LAT-LON	0.0000
-2.9965 LAT-LONS	0.0000
-2.9965 LATER	0.0000
-2.9965 LATEST	0.0000
-2.9965 LATITUDE	0.0000
-2.9965 LATITUDES	0.0000
-2.9965 LATS	0.0000
-2.9965 LEAST	0.0000
-2.9965 LEFT	0.0000
-2.9965 LENGTH	0.0000
-2.9965 LENGTHS	0.0000
-2.9965 LENINGRAD	0.0000
-2.9965 LESS	0.0000
-2.9965 LETTER	0.0000
-2.9965 LETTERS	0.0000
-2.9965 LEVEL	0.0000
-2.9965 LEVELS	0.0000
-2.9965 LINK-11	0.0000
-2.9965 LIST	0.0000
-2.9965 LOCATED	0.0000
-2.9965 LOCATION	0.0000
-2.9965 LOCATIONS	0.0000
-2.9965 LOCKWOOD	0.0000
-2.9965 LOCKWOOD'S	0.0000
-2.9965 LON	0.0000
-2.9965 LONG	0.0000
-2.9965 LONGER	0.0000
-2.9965 LONGEST	0.0000
-2.9965 LONGITUDE	0.0000
-2.9965 LONGITUDES	0.0000
-2.9965 LONS	0.0000
-2.9965 LOW	0.0000
-2.9965 LOWER	0.0000
-2.9965 LOWEST	0.0000
-2.9965 M-CODE	0.0000
-2.9965 M-CODES	0.0000
-2.9965 M-RATING	0.0000
-2.9965 M-RATINGS	0.0000
-2.9965 M1	0.0000
-2.9965 M2	0.0000
-2.9965 M3	0.0000
-2.9965 M4	0.0000
-2.9965 M5	0.0000
-2.9965 MADAGASCAR	0.0000
-2.9965 MADE	0.0000
-2.9965 MAKE	0.0000
-2.9965 MAKING	0.0000
-2.9965 MANCHESTER	0.0000
-2.9965 MANHATTAN	0.0000
-2.9965 MANHATTAN'S	0.0000
-2.9965 MANILA	0.0000
-2.9965 MANY	0.0000
-2.9965 MARCH	0.0000
-2.9965 MARS	0.0000
-2.9965 MARS'S	0.0000
-2.9965 MAX	0.0000
-2.9965 MAXIMUM	0.0000
-2.9965 MAY	0.0000
-2.9965 MCCLUSKY	0.0000
-2.9965 MCCLUSKY'S	0.0000
-2.9965 ME	0.0000
-2.9965 MEASURE	0.0000
-2.9965 MERCATOR	0.0000
-2.9965 MERCURY	0.0000
-2.9965 MERCURY'S	0.0000
-2.9965 METEOR	0.0000
-2.9965 METEOR'S	0.0000
-2.9965 METERS	0.0000
-2.9965 METRIC	0.0000
-2.9965 MEXICO	0.0000
-2.9965 MIAMI	0.0000
-2.9965 MIDGETT	0.0000
-2.9965 MIDGETT'S	0.0000
-2.9965 MIDPAC	0.0000
-2.9965 MIDPAC'S	0.0000
-2.9965 MIDWAY	0.0000
-2.9965 MIDWAY'S	0.0000
-2.9965 MILE	0.0000
-2.9965 MILES	0.0000
-2.9965 MIND	0.0000
-2.9965 MINUTES	0.0000
-2.9965 MISHAWAKA	0.0000
-2.9965 MISHAWAKA'S	0.0000
-2.9965 MISSION	0.0000
-2.9965 MISSIONS	0.0000
-2.9965 MISSISSIPPI	0.0000
-2.9965 MISSISSIPPI'S	0.0000
-2.9965 MIW	0.0000
-2.9965 MOB	0.0000
-2.9965 MONDAY	0.0000
-2.9965 MONDAY'S	0.0000
-2.9965 MONGOLIA	0.0000
-2.9965 MONTH	0.0000
-2.9965 MONTH'S	0.0000
-2.9965 MONTHS	0.0000
-2.9965 MONTICELLO	0.0000
-2.9965 MONTICELLO'S	0.0000
-2.9965 MORE	0.0000
-2.9965 MOST	0.0000
-2.9965 MOZAMBIQUE	0.0000
-2.9965 MUCH	0.0000
-2.9965 N92762	0.0000
-2.9965 NAME	0.0000
-2.9965 NAMES	0.0000
-2.9965 NAPLES	0.0000
-2.9965 NASHUA	0.0000
-2.9965 NASHUA'S	0.0000
-2.9965 NEAR	0.0000
-2.9965 NEARER	0.0000
-2.9965 NEAREST	0.0000
-2.9965 NEVER	0.0000
-2.9965 NEW	0.0000
-2.9965 NEW-YORK	0.0000
-2.9965 NEW-ZEALAND	0.0000
-2.9965 NEWCASTLE	0.0000
-2.9965 NEWER	0.0000
-2.9965 NEWEST	0.0000
-2.9965 NEXT	0.0000
-2.9965 NINE	0.0000
-2.9965 NINETEEN	0.0000
-2.9965 NINETEENTH	0.0000
-2.9965 NINETY	0.0000
-2.9965 NINTH	0.0000
-2.9965 NO	0.0000
-2.9965 NOME	0.0000
-2.9965 NORTH	0.0000
-2.9965 NORTHERN	0.0000
-2.9965 NOT	0.0000
-2.9965 NOVA	0.0000
-2.9965 NOVEMBER	0.0000
-2.9965 NOW	0.0000
-2.9965 NTDS	0.0000
-2.9965 NUCLEAR	0.0000
-2.9965 NUMBER	0.0000
-2.9965 OAKLAND	0.0000
-2.9965 OCEAN	0.0000
-2.9965 OCTOBER	0.0000
-2.9965 OF	0.0000
-2.9965 OFF	0.0000
-2.9965 OLD	0.0000
-2.9965 OLDER	0.0000
-2.9965 OLDEST	0.0000
-2.9965 OLYMPIA	0.0000
-2.9965 ON	0.0000
-2.9965 ONE	0.0000
-2.9965 ONLY	0.0000
-2.9965 OPEN	0.0000
-2.9965 OR	0.0000
-2.9965 ORANGE	0.0000
-2.9965 OSGP	0.0000
-2.9965 OVERALL	0.0000
-2.9965 OVERLAY	0.0000
-2.9965 OVERLAYS	0.0000
-2.9965 PAC	0.0000
-2.9965 PACFLT	0.0000
-2.9965 PACIFIC	0.0000
-2.9965 PANAMA	0.0000
-2.9965 PARAMETER	0.0000
-2.9965 PARAMETERS	0.0000
-2.9965 PEARL	0.0000
-2.9965 PEORIA	0.0000
-2.9965 PEORIA'S	0.0000
-2.9965 PERCENT	0.0000
-2.9965 PERSIAN	0.0000
-2.9965 PERSONNEL	0.0000
-2.9965 PHILIPPINE	0.0000
-2.9965 PHILIPPINES	0.0000
-2.9965 PIGEON	0.0000
-2.9965 PIGEON'S	0.0000
-2.9965 PLH003	0.0000
-2.9965 PLUCK	0.0000
-2.9965 PLUCK'S	0.0000
-2.9965 PLUNGER	0.0000
-2.9965 PLUNGER'S	0.0000
-2.9965 POLLACK	0.0000
-2.9965 POLLACK'S	0.0000
-2.9965 POLYNESIA	0.0000
-2.9965 PORT	0.0000
-2.9965 PORTS	0.0000
-2.9965 POSIT	0.0000
-2.9965 POSITION	0.0000
-2.9965 POSITIONS	0.0000
-2.9965 POSITS	0.0000
-2.9965 POUGHKEEPSIE	0.0000
-2.9965 POUGHKEEPSIE'S	0.0000
-2.9965 POWERED	0.0000
-2.9965 PRAIRIE	0.0000
-2.9965 PRAIRIE'S	0.0000
-2.9965 PRESENT	0.0000
-2.9965 PREVIOUS	0.0000
-2.9965 PROBLEM	0.0000
-2.9965 PROBLEMS	0.0000
-2.9965 PROJECTION	0.0000
-2.9965 PROPELLED	0.0000
-2.9965 PROPULSION	0.0000
-2.9965 PUFFER	0.0000
-2.9965 PUFFER'S	0.0000
-2.9965 PUGET-1	0.0000
-2.9965 QUARTER	0.0000
-2.9965 QUARTERS	0.0000
-2.9965 QUEENFISH	0.0000
-2.9965 QUEENFISH'S	0.0000
-2.9965 RADAR	0.0000
-2.9965 RAMSEY	0.0000
-2.9965 RAMSEY'S	0.0000
-2.9965 RANGER	0.0000
-2.9965 RANGER'S	0.0000
-2.9965 RATED	0.0000
-2.9965 RATHBURNE	0.0000
-2.9965 RATHBURNE'S	0.0000
-2.9965 RATING	0.0000
-2.9965 RATINGS	0.0000
-2.9965 READINESS	0.0000
-2.9965 REASON	0.0000
-2.9965 REASONER	0.0000
-2.9965 REASONER'S	0.0000
-2.9965 REASONS	0.0000
-2.9965 RECENT	0.0000
-2.9965 RECLAIMER	0.0000
-2.9965 RECLAIMER'S	0.0000
-2.9965 RED	0.0000
-2.9965 REDEFINE	0.0000
-2.9965 REDEFINED	0.0000
-2.9965 REDEFINING	0.0000
-2.9965 REDISPLAY	0.0000
-2.9965 REDO	0.0000
-2.9965 REDRAW	0.0000
-2.9965 REEVES	0.0000
-2.9965 REEVES'S	0.0000
-2.9965 REMAINING	0.0000
-2.9965 REMARK	0.0000
-2.9965 REMARKS	0.0000
-2.9965 REPAIR	0.0000
-2.9965 REPAIRED	0.0000
-2.9965 REPAIRING	0.0000
-2.9965 REPLACED	0.0000
-2.9965 REPORT	0.0000
-2.9965 REPORTED	0.0000
-2.9965 REPORTING	0.0000
-2.9965 REPORTS	0.0000
-2.9965 RESET	0.0000
-2.9965 RESOLUTION	0.0000
-2.9965 RESOLVED	0.0000
-2.9965 RESOURCE	0.0000
-2.9965 RESOURCES	0.0000
-2.9965 REVIEW	0.0000
-2.9965 ROSS	0.0000
-2.9965 SACRAMENTO	0.0000
-2.9965 SACRAMENTO'S	0.0000
-2.9965 SAIL	0.0000
-2.9965 SAME	0.0000
-2.9965 SAMPLE	0.0000
-2.9965 SAMPLE'S	0.0000
-2.9965 SAN-DIEGO	0.0000
-2.9965 SAN-FRAN	0.0000
-2.9965 SASSAFRAS	0.0000
-2.9965 SASSAFRAS'S	0.0000
-2.9965 SATURDAY	0.0000
-2.9965 SATURDAY'S	0.0000
-2.9965 SAVE	0.0000
-2.9965 SCHENECTADY	0.0000
-2.9965 SCHENECTADY'S	0.0000
-2.9965 SCREEN	0.0000
-2.9965 SCREENS	0.0000
-2.9965 SEA	0.0000
-2.9965 SEAWOLF	0.0000
-2.9965 SEAWOLF'S	0.0000
-2.9965 SECOND	0.0000
-2.9965 SECURITY	0.0000
-2.9965 SENSOR	0.0000
-2.9965 SENSORS	0.0000
-2.9965 SEPTEMBER	0.0000
-2.9965 SET	0.0000
-2.9965 SETTING	0.0000
-2.9965 SETTINGS	0.0000
-2.9965 SEVEN	0.0000
-2.9965 SEVENTEEN	0.0000
-2.9965 SEVENTEENTH	0.0000
-2.9965 SEVENTH	0.0000
-2.9965 SEVENTY	0.0000
-2.9965 SHASTA	0.0000
-2.9965 SHASTA'S	0.0000
-2.9965 SHE	0.0000
-2.9965 SHE'S	0.0000
-2.9965 SHERMAN	0.0000
-2.9965 SHERMAN'S	0.0000
-2.9965 SHIP	0.0000
-2.9965 SHIPS	0.0000
-2.9965 SHIPS'S	0.0000
-2.9965 SHOW	0.0000
-2.9965 SHOWING	0.0000
-2.9965 SHOWN	0.0000
-2.9965 SIBERIAN	0.0000
-2.9965 SIDNEY	0.0000
-2.9965 SINCE	0.0000
-2.9965 SINGAPORE	0.0000
-2.9965 SIX	0.0000
-2.9965 SIXTEEN	0.0000
-2.9965 SIXTEENTH	0.0000
-2.9965 SIXTH	0.0000
-2.9965 SIXTY	0.0000
-2.9965 SIZE	0.0000
-2.9965 SLOW	0.0000
-2.9965 SLOWER	0.0000
-2.9965 SLOWEST	0.0000
-2.9965 SLQ-32	0.0000
-2.9965 SMALL	0.0000
-2.9965 SMALLER	0.0000
-2.9965 SMALLEST	0.0000
-2.9965 SOHO	0.0000
-2.9965 SOLOMON	0.0000
-2.9965 SONAR	0.0000
-2.9965 SOON	0.0000
-2.9965 SOONER	0.0000
-2.9965 SOUTH	0.0000
-2.9965 SOUTHERN	0.0000
-2.9965 SOVIET	0.0000
-2.9965 SPEED	0.0000
-2.9965 SPEEDS	0.0000
-2.9965 SPS-40	0.0000
-2.9965 SPS-48	0.0000
-2.9965 SQQ-23	0.0000
-2.9965 START	0.0000
-2.9965 STARTED	0.0000
-2.9965 STARTING	0.0000
-2.9965 STATES	0.0000
-2.9965 STATION	0.0000
-2.9965 STATUS	0.0000
-2.9965 STEAM	0.0000
-2.9965 STEREOGRAPHIC	0.0000
-2.9965 STERETT	0.0000
-2.9965 STERETT'S	0.0000
-2.9965 STRAIT	0.0000
-2.9965 SUB	0.0000
-2.9965 SUB'S	0.0000
-2.9965 SUBIC	0.0000
-2.9965 SUBMARINE	0.0000
-2.9965 SUBMARINE'S	0.0000
-2.9965 SUBMARINES	0.0000
-2.9965 SUBS	0.0000
-2.9965 SUFFICIENT	0.0000
-2.9965 SUMMARIZE	0.0000
-2.9965 SUNDAY	0.0000
-2.9965 SUNDAY'S	0.0000
-2.9965 SUPPLIES	0.0000
-2.9965 SUPPLY	0.0000
-2.9965 SUPPOSED	0.0000
-2.9965 SURFACE	0.0000
-2.9965 SUSTAINED	0.0000
-2.9965 SWITCH	0.0000
-2.9965 SWITCHES	0.0000
-2.9965 SWORDFISH	0.0000
-2.9965 SWORDFISH'S	0.0000
-2.9965 SYSTEM	0.0000
-2.9965 T-LAM	0.0000
-2.9965 TACAN	0.0000
-2.9965 TAIWAN	0.0000
-2.9965 TAKE	0.0000
-2.9965 TAKEN	0.0000
-2.9965 TASM	0.0000
-2.9965 TEN	0.0000
-2.9965 TENTH	0.0000
-2.9965 TEST	0.0000
-2.9965 TEXAS	0.0000
-2.9965 TEXAS'S	0.0000
-2.9965 TFCC	0.0000
-2.9965 THAILAND	0.0000
-2.9965 THAN	0.0000
-2.9965 THAT	0.0000
-2.9965 THE	0.0000
-2.9965 THEIR	0.0000
-2.9965 THEM	0.0000
-2.9965 THERE	0.0000
-2.9965 THESE	0.0000
-2.9965 THEY	0.0000
-2.9965 THIRD	0.0000
-2.9965 THIRTEEN	0.0000
-2.9965 THIRTEENTH	0.0000
-2.9965 THIRTIETH	0.0000
-2.9965 THIRTY	0.0000
-2.9965 THIS	0.0000
-2.9965 THOSE	0.0000
-2.9965 THOUSAND	0.0000
-2.9965 THREAT	0.0000
-2.9965 THREATS	0.0000
-2.9965 THREE	0.0000
-2.9965 THURSDAY	0.0000
-2.9965 THURSDAY'S	0.0000
-2.9965 TICONDEROGA	0.0000
-2.9965 TICONDEROGA'S	0.0000
-2.9965 TIME	0.0000
-2.9965 TIMES	0.0000
-2.9965 TO	0.0000
-2.9965 TODAY	0.0000
-2.9965 TODAY'S	0.0000
-2.9965 TOGGLE	0.0000
-2.9965 TOGGLED	0.0000
-2.9965 TOGGLING	0.0000
-2.9965 TOKYO	0.0000
-2.9965 TOMORROW	0.0000
-2.9965 TOMORROW'S	0.0000
-2.9965 TONKIN	0.0000
-2.9965 TONS	0.0000
-2.9965 TOTAL	0.0000
-2.9965 TOWNSVILLE	0.0000
-2.9965 TRACK	0.0000
-2.9965 TRACKS	0.0000
-2.9965 TRAINING	0.0000
-2.9965 TRIPOLI	0.0000
-2.9965 TRIPOLI'S	0.0000
-2.9965 TRUE-VIEW	0.0000
-2.9965 TUESDAY	0.0000
-2.9965 TUESDAY'S	0.0000
-2.9965 TURBINE	0.0000
-2.9965 TURN	0.0000
-2.9965 TURNED	0.0000
-2.9965 TURNING	0.0000
-2.9965 TUSCALOOSA	0.0000
-2.9965 TUSCALOOSA'S	0.0000
-2.9965 TWELFTH	0.0000
-2.9965 TWELVE	0.0000
-2.9965 TWENTIETH	0.0000
-2.9965 TWENTY	0.0000
-2.9965 TWO	0.0000
-2.9965 TYPE	0.0000
-2.9965 TYPES	0.0000
-2.9965 UNION	0.0000
-2.9965 UNIT	0.0000
-2.9965 UNITED	0.0000
-2.9965 UNTIL	0.0000
-2.9965 UOM	0.0000
-2.9965 UPDATE	0.0000
-2.9965 UPDATED	0.0000
-2.9965 UPDATES	0.0000
-2.9965 UPGRADE	0.0000
-2.9965 UPGRADED	0.0000
-2.9965 USA	0.0000
-2.9965 USE	0.0000
-2.9965 USING	0.0000
-2.9965 USN	0.0000
-2.9965 VALUE	0.0000
-2.9965 VALUES	0.0000
-2.9965 VANCOUVER	0.0000
-2.9965 VANCOUVER'S	0.0000
-2.9965 VANDERGRIFT	0.0000
-2.9965 VANDERGRIFT'S	0.0000
-2.9965 VARIOUS	0.0000
-2.9965 VESSEL	0.0000
-2.9965 VESSELS	0.0000
-2.9965 VICTORIA	0.0000
-2.9965 VIRGINIA	0.0000
-2.9965 VIRGINIA'S	0.0000
-2.9965 VISUAL	0.0000
-2.9965 WABASH	0.0000
-2.9965 WABASH'S	0.0000
-2.9965 WADSWORTH	0.0000
-2.9965 WADSWORTH'S	0.0000
-2.9965 WAS	0.0000
-2.9965 WASN'T	0.0000
-2.9965 WASP	0.0000
-2.9965 WASP'S	0.0000
-2.9965 WE	0.0000
-2.9965 WEDNESDAY	0.0000
-2.9965 WEDNESDAY'S	0.0000
-2.9965 WEEK	0.0000
-2.9965 WEEK'S	0.0000
-2.9965 WEEKS	0.0000
-2.9965 WELLINGTON	0.0000
-2.9965 WENT	0.0000
-2.9965 WERE	0.0000
-2.9965 WEREN'T	0.0000
-2.9965 WEST	0.0000
-2.9965 WESTERN	0.0000
-2.9965 WESTPAC	0.0000
-2.9965 WESTPAC'S	0.0000
-2.9965 WHAT	0.0000
-2.9965 WHAT'RE	0.0000
-2.9965 WHAT'S	0.0000
-2.9965 WHEN	0.0000
-2.9965 WHEN'LL	0.0000
-2.9965 WHEN'S	0.0000
-2.9965 WHERE	0.0000
-2.9965 WHERE'S	0.0000
-2.9965 WHICH	0.0000
-2.9965 WHIPPLE	0.0000
-2.9965 WHIPPLE'S	0.0000
-2.9965 WHO	0.0000
-2.9965 WHO'S	0.0000
-2.9965 WHOSE	0.0000
-2.9965 WHY	0.0000
-2.9965 WHY'S	0.0000
-2.9965 WICHITA	0.0000
-2.9965 WICHITA'S	0.0000
-2.9965 WILL	0.0000
-2.9965 WILLAMETTE	0.0000
-2.9965 WILLAMETTE'S	0.0000
-2.9965 WINAMAC	0.0000
-2.9965 WINAMAC'S	0.0000
-2.9965 WINDOW	0.0000
-2.9965 WINDOWS	0.0000
-2.9965 WITH	0.0000
-2.9965 WITHIN	0.0000
-2.9965 WITHOUT	0.0000
-2.9965 WON'T	0.0000
-2.9965 WORSE	0.0000
-2.9965 WORST	0.0000
-2.9965 WOULD	0.0000
-2.9965 WOULDN'T	0.0000
-2.9965 YANKEE	0.0000
-2.9965 YEAR	0.0000
-2.9965 YEARS	0.0000
-2.9965 YELLOW	0.0000
-2.9965 YESTERDAY	0.0000
-2.9965 YESTERDAY'S	0.0000
-2.9965 YET	0.0000
-2.9965 YORKTOWN	0.0000
-2.9965 YORKTOWN'S	0.0000
-2.9965 ZULU	0.0000

\2-grams:
 0.0000 <s> </s>

\end\
