#############################################################################
## Copyright (c) 1996, Carnegie Mellon University, Cambridge University,
## Ronald Rosenfeld and Philip Clarkson
#############################################################################
=============================================================================
===============  This file was produced by the CMU-Cambridge  ===============
===============     Statistical Language Modeling Toolkit     ===============
=============================================================================
This is a 3-gram language model, based on a vocabulary of 297 words,
  which begins "'TILL", "</s>", "<s>"...
This is an OPEN-vocabulary model (type 1)
  (OOVs were mapped to UNK, which is treated as any other vocabulary word)
Good-Turing discounting was applied.
1-gram frequency of frequency : 110 
2-gram frequency of frequency : 832 184 74 48 33 23 23 
3-gram frequency of frequency : 1871 298 135 67 44 31 40 
1-gram discounting ratios : 0.98 
2-gram discounting ratios : 0.33 0.52 0.84 0.83 0.80 
3-gram discounting ratios : 0.24 0.64 0.62 0.80 0.83 
This file is in the ARPA-standard format introduced by Doug Paul.

p(wd3|wd1,wd2)= if(trigram exists)           p_3(wd1,wd2,wd3)
                else if(bigram w1,w2 exists) bo_wt_2(w1,w2)*p(wd3|wd2)
                else                         p(wd3|w2)

p(wd2|wd1)= if(bigram exists) p_2(wd1,wd2)
            else              bo_wt_1(wd1)*p_1(wd2)

All probs and back-off weights (bo_wt) are given in log10 form.

Data formats:

Beginning of data mark: \data\
ngram 1=nr            # number of 1-grams
ngram 2=nr            # number of 2-grams
ngram 3=nr            # number of 3-grams

\1-grams:
p_1     wd_1 bo_wt_1
\2-grams:
p_2     wd_1 wd_2 bo_wt_2
\3-grams:
p_3     wd_1 wd_2 wd_3 

end of data mark: \end\

\data\
ngram 1=298
ngram 2=1381
ngram 3=2642

\1-grams:
-3.8407 <UNK>	0.0000
-3.8407 'TILL	-0.1745
-3.8407 </s>	0.0000
-3.8407 <s>	-0.1748
-1.5406 A	-1.6021
-3.3558 ABOUT	-0.2639
-2.1994 ABOVE	-0.9657
-3.5319 ACTION	-0.1428
-3.2308 ACTUALLY	-0.2106
-2.9878 ADD	-0.3575
-3.0547 AGAIN	-0.1550
-3.8407 AGAINST	-0.1057
-2.6024 ALL	-0.9478
-3.8407 ALREADY	-0.1727
-3.3558 ALRIGHT	-0.1729
-3.8407 AM	-0.1748
-3.5319 AMOUNT	-0.1531
-2.2201 AN	-1.7846
-2.0405 AND	-0.4935
-3.3558 ANOTHER	-0.2335
-3.1339 ARE	-0.1376
-2.8329 AS	-0.3205
-2.9298 AT	-0.7006
-3.8407 AWAY	-0.1620
-2.8786 BACK	-0.2423
-3.8407 BACKWARDS	-0.1747
-3.8407 BAD	-0.1512
-1.7360 BALL	-0.5315
-3.8407 BARRIERS	-0.1057
-3.8407 BASKET	-0.1620
-3.2308 BASKETS	-0.1903
-3.8407 BEEN	-0.1748
-2.4015 BELOW	-0.9189
-3.8407 BENEATH	-0.1057
-2.6568 BETWEEN	-1.2817
-3.8407 BIG	-0.1727
-3.5319 BIN	-0.1400
-3.8407 BINS	-0.1620
-1.8552 BIT	-0.9336
-3.8407 BLOCKS	-0.1435
-2.0405 BLUE	-1.7913
-3.5319 BOO	-0.1502
-3.3558 BOTH	-0.1964
-1.8835 BOTTOM	-0.5459
-3.5319 BOWLING	-0.3147
-3.8407 BOXES	-0.1700
-3.2308 BRACE	-0.2191
-3.8407 BROUGHT	-0.1745
-2.9878 BUT	-0.1516
-3.3558 BY	-0.7213
-3.0547 CAN	-0.4606
-3.5319 CAN'T	-0.1738
-2.7915 CENTER	-0.3228
-2.9878 CENTIMETER	-0.2132
-3.5319 CENTIMETERS	-0.1376
-3.8407 CLOCKWISE	-0.1435
-3.3558 CLOSER	-0.7727
-3.8407 COMES	-0.1709
-3.8407 COMING	-0.1743
-2.2766 CORNER	-0.3080
-3.8407 CORNERS	-0.1709
-3.8407 DEGREES	-0.1748
-3.5319 DELETE	-0.0778
-3.8407 DIAGONAL	-0.1571
-3.8407 DIRECTION	-0.1746
-2.4527 DIRECTLY	-1.0971
-3.2308 DO	-0.5383
-3.8407 DOES	-0.1700
-3.8407 DOING	-0.1723
-3.8407 DON'T	-0.1748
-1.7760 DOWN	-0.6405
-3.3558 DRAT	-0.2544
-3.5319 EACH	-0.1729
-2.9878 EDGE	-0.9457
-3.8407 EIGHT	-0.1743
-3.8407 EIGHTH	-0.1663
-3.8407 ELEVEN	-0.1747
-3.8407 EVEN	-0.1747
-3.8407 EVIL	-0.1748
-3.8407 EXCELLENT	-0.1512
-1.9578 EXECUTE	-0.8606
-3.1339 FAR	-0.2649
-3.5319 FARTHER	-0.1437
-3.8407 FEET	-0.1435
-3.8407 FIELD	-0.1435
-3.8407 FIGURE	-0.1747
-3.8407 FIND	-0.1747
-3.8407 FINISH	-0.1748
-2.6024 FIRST	-1.3690
-3.8407 FIVE	-0.1748
-3.8407 FOR	-0.1745
-3.8407 FORM	-0.1622
-3.5319 FOUR	-0.1743
-3.3558 FROM	-0.7213
-3.8407 FUDGE	-0.1512
-3.8407 FURTHER	-0.1571
-3.8407 GAME	-0.1748
-2.6868 GET	-0.7822
-3.8407 GETTING	-0.1741
-3.5319 GIVE	-0.3162
-1.5362 GO	-0.9439
-3.3558 GOAL	-0.2324
-3.5319 GOES	-0.1734
-3.2308 GOOD	-0.3098
-2.5776 HALF	-1.1050
-3.3558 HALFWAY	-0.1099
-2.4712 HAND	-1.3779
-3.8407 HANG	-0.1663
-3.3558 HAVE	-0.2491
-3.8407 HEAD	-0.1435
-3.5319 HEIGHT	-0.1343
-3.2308 HELLO	-0.4828
-3.5319 HELP	-0.3224
-3.8407 HIGH	-0.1742
-3.3558 HIGHER	-0.1244
-3.5319 HIGHEST	-0.1369
-3.5319 HIT	-0.1056
-3.8407 HOLE	-0.1739
-3.3558 HOW	-0.2496
-2.6868 I	-0.2087
-3.8407 I'M	-0.1748
-3.8407 I'VE	-0.1748
-3.8407 IMAGE	-0.1747
-3.5319 IMMEDIATELY	-0.3050
-2.0770 IN	-1.2687
-2.1701 INCH	-0.6313
-2.9298 INCHES	-0.1672
-3.8407 INSIDE	-0.1663
-3.8407 INTERESTING	-0.1722
-3.8407 INTO	-0.1057
-2.4179 IS	-0.3587
-1.9035 IT	-0.6684
-2.4905 IT'S	-0.4420
-3.5319 JOB	-0.1376
-2.5776 JUST	-0.4652
-3.8407 KAIYUH	-0.1744
-3.8407 KEEP	-0.1435
-3.5319 L	-0.1747
-2.9878 LARGE	-1.0582
-2.9298 LAST	-0.4515
-3.8407 LEDGE	-0.1686
-1.3857 LEFT	-0.8696
-3.8407 LENGTH	-0.1571
-3.0547 LESS	-0.4614
-2.8329 LET'S	-0.4457
-3.3558 LEVEL	-0.2669
-3.8407 LIFE	-0.1732
-3.2308 LIKE	-0.5358
-3.5319 LINE	-0.1682
-1.7610 LITTLE	-0.9196
-3.3558 LOAD	-0.2640
-3.3558 LOT	-0.2491
-3.8407 LOW	-0.1700
-2.7189 LOWER	-0.9815
-3.2308 LOWEST	-0.7422
-1.1626 MAGNET	-0.9535
-2.3857 MAGNETS	-0.3279
-3.3558 MAKE	-0.1016
-3.8407 MAYBE	-0.1435
-3.1339 ME	-0.1087
-3.8407 MEAN	-0.1686
-3.8407 MEANING	-0.1663
-1.9035 MIDDLE	-0.8517
-3.8407 MONITOR	-0.1737
-2.5541 MORE	-0.3213
-2.3014 MOST	-1.0097
-1.1571 MOVE	-1.2466
-3.8407 MOVED	-0.1571
-3.8407 MOVES	-0.1747
-3.8407 MOVING	-0.1435
-3.8407 MY	-0.1748
-3.0547 NEAR	-0.7759
-2.4905 NEW	-1.3308
-2.5107 NEXT	-1.1730
-3.8407 NINETY	-0.1748
-2.7915 NO	-0.2994
-3.2308 NOT	-0.2241
-3.3558 NOW	-0.2353
-1.9408 OBJECT	-0.6471
-1.7123 OF	-1.0945
-3.5319 OFF	-0.1056
-2.9298 OH	-0.2638
-1.8461 OK	-0.7501
-3.3558 OKAY	-0.1179
-2.3014 ON	-1.0050
-3.8407 ONCE	-0.1747
-2.6868 ONE	-0.2011
-3.5319 ONLY	-0.1698
-3.8407 ONTO	-0.1057
-3.2308 OR	-0.1033
-3.1339 OTHER	-0.1393
-3.3558 OUT	-0.1983
-2.9878 OVER	-0.1501
-3.8407 PEOPLE	-0.1745
-3.2308 PINK	-0.7651
-2.2201 PLACE	-1.5126
-2.9298 PLEASE	-0.3630
-3.5319 PROGRAM	-0.1431
-3.5319 PULLS	-0.1380
-2.0547 PUT	-0.4401
-2.2766 PUZZLE	-0.5058
-2.6288 QUARTER	-1.2468
-3.8407 READ	-0.1668
-3.5319 REALLY	-0.3222
-2.3144 RED	-1.5234
-2.8329 REMOVE	-1.0993
-3.3558 RESET	-0.1139
-3.3558 RESTART	-0.7668
-2.7915 RID	-1.0707
-1.4509 RIGHT	-0.7028
-3.8407 ROOM	-0.1435
-3.3558 ROTATE	-0.1981
-3.8407 ROW	-0.1744
-1.9578 RUN	-0.9888
-3.1339 SAME	-0.2214
-3.8407 SAVER	-0.1709
-2.4179 SCREEN	-0.3167
-2.4712 SECOND	-0.9623
-3.5319 SEE	-0.1708
-3.8407 SESSION	-0.1735
-3.8407 SHAPE	-0.1566
-3.8407 SHAPED	-0.1739
-3.8407 SHUT	-0.1747
-3.8407 SIMULATION	-0.1700
-2.6288 SLIGHTLY	-0.4105
-1.9940 SMALL	-1.2384
-2.1253 SO	-0.8133
-3.0547 SOLVE	-0.8339
-3.8407 SOLVED	-0.1620
-3.2308 SOME	-0.1930
-3.5319 SOMETHING	-0.1297
-3.8407 SORRY	-0.1739
-3.8407 STACK	-0.1663
-2.0847 START	-1.0633
-1.2754 STOP	-0.8485
-3.8407 STRAIGHT	-0.1747
-3.8407 STRONGER	-0.1747
-3.8407 STUPID	-0.1727
-3.5319 SUCH	-0.3202
-3.8407 SURROUNDING	-0.1057
-3.0547 TAKE	-0.3064
-2.4350 TARGET	-0.1483
-3.8407 TARGET'S	-0.1057
-3.0547 TARGETS	-0.3384
-3.8407 TELL	-0.1745
-3.8407 TEN	-0.1710
-3.8407 THANK	-0.1746
-2.2308 THAT	-0.3441
-2.4905 THAT'S	-0.3741
-0.8320 THE	-1.1266
-3.1339 THEM	-0.1702
-3.1339 THEN	-0.5326
-3.8407 THESE	-0.1745
-3.0547 THEY	-0.2177
-3.8407 THEY'RE	-0.1748
-3.8407 THINK	-0.1723
-2.5776 THIRD	-1.2478
-3.2308 THIS	-0.1350
-3.8407 THOUGHT	-0.1746
-3.1339 THREE	-0.7056
-3.8407 THROUGH	-0.1057
-2.7537 TINY	-1.1078
-1.3967 TO	-1.0920
-3.8407 TOO	-0.1716
-2.1005 TOP	-0.4585
-2.9878 TOUCHES	-0.8339
-3.2308 TOUCHING	-0.7040
-3.8407 TRYING	-0.1571
-3.5319 TURN	-0.1055
-2.4015 TWO	-0.5793
-3.8407 UH	-0.1748
-3.3558 UM	-0.1389
-2.5319 UNDER	-0.6906
-3.1339 UNDERNEATH	-0.5010
-2.9298 UNDO	-0.5844
-3.8407 UNIT	-0.1571
-3.8407 UNTIL	-0.1694
-1.8286 UP	-0.6513
-2.8329 UPPER	-0.9871
-3.5319 UPSIDE	-0.3154
-2.9298 VERY	-0.4700
-3.2308 WAIT	-0.2414
-2.6568 WALL	-0.1193
-3.2308 WALLS	-0.1099
-3.2308 WAS	-0.1491
-2.7537 WAY	-0.6536
-3.8407 WEIRD	-0.1512
-3.8407 WELL	-0.1700
-3.3558 WHAT	-0.0973
-3.8407 WHAT'S	-0.1057
-3.5319 WHERE	-0.2536
-3.5319 WHOA	-0.1429
-3.8407 WITH	-0.1057
-3.8407 WORK	-0.1723
-3.8407 WOW	-0.1620
-3.5319 YEAH	-0.1368
-3.2308 YOU	-0.1616
-3.8407 YOUR	-0.1592

\2-grams:
-0.4796 'TILL THEY -0.0964
-0.4796 <s> ELEVEN 0.0538
-2.7785 A ABOUT -0.0702
-2.7785 A BIT -0.0931
-1.4538 A CENTIMETER -0.0246
-0.2575 A LITTLE -0.0139
-1.8985 A LOT -0.0426
-0.8839 A MAGNET -0.3110
-1.1527 A NEW 0.2156
-1.1849 A QUARTER 0.1413
-2.2782 A SECOND 0.3109
-2.7785 A STRAIGHT 0.0538
-2.2782 A THIRD 0.8300
-1.1849 A TINY 0.0000
-1.5207 A VERY -0.1641
-0.4565 ABOUT AN 1.1640
-0.9568 ABOUT HALF -0.0964
-2.1131 ABOVE AND 0.0655
-2.1131 ABOVE BALL -0.1070
-2.1131 ABOVE LEFT -0.1195
-1.2331 ABOVE MOVE 0.3708
-2.1131 ABOVE RIGHT -0.1138
-0.0772 ABOVE THE -0.3621
-0.7807 ACTION MOVE 0.4033
-0.7807 ACTION REMOVE 0.8789
-1.0817 ACTUALLY DOES 0.0538
-0.5814 ACTUALLY MOVE 0.5600
-1.0817 ACTUALLY UNDO 0.0427
-0.2410 ADD A -0.4106
-1.3247 ADD MOVE 0.4033
-1.3247 ADD THE -0.1197
-1.2578 AGAIN FARTHER -0.0424
-0.7575 AGAIN MOVE 0.0757
-1.2578 AGAIN PLACE 0.4917
-1.2578 AGAIN SO 0.0183
-1.2578 AGAIN STOP 0.2033
-0.4796 AGAINST THE -0.0898
-0.7086 ALL MAGNETS 0.0188
-0.1891 ALL THE -0.9843
-1.2098 ALL THREE 0.2586
-0.4796 ALREADY ON 0.2769
-0.9568 ALRIGHT I -0.0873
-0.9568 ALRIGHT LET'S 0.0047
-0.9568 ALRIGHT SOLVE 0.7820
-0.4796 AM SORRY 0.0538
-0.7807 AMOUNT PUT 0.0443
-0.7807 AMOUNT TO 0.9001
-2.0924 AN EIGHTH 0.0538
-0.0107 AN INCH 0.1293
-2.2790 AND A -0.1078
-1.7787 AND DOWN 0.0588
-1.7787 AND GO 0.4432
-2.2790 AND IT -0.1194
-2.2790 AND LET'S 0.0047
-0.8963 AND MOVE 0.1461
-2.2790 AND ONE 0.0259
-0.7579 AND PUT -0.5024
-2.2790 AND RESTART 0.6694
-2.2790 AND RUN -0.1014
-2.2790 AND SLIGHTLY -0.0916
-2.2790 AND SO -0.1183
-2.2790 AND STOP 0.2033
-1.7787 AND THE -0.0961
-1.2775 AND THEN 0.2438
-0.4569 AND TO -0.3212
-1.7787 AND UP -0.2769
-2.2790 AND UPPER -0.0730
-0.9568 ANOTHER INCH -0.0604
-0.4565 ANOTHER MAGNET -0.1065
-1.1786 ARE COMING 0.0538
-1.1786 ARE IN 0.9358
-1.1786 ARE MOVE -0.1081
-1.1786 ARE NEXT 0.5022
-1.1786 ARE THEY -0.0964
-0.5996 AS FAR -0.1700
-1.4796 AS HIGH 0.0538
-0.9793 AS IT -0.4435
-0.9793 AS THE -0.0222
-0.9793 AS THEY -0.3653
-1.3827 AT BOTTOM -0.1195
-1.3827 AT ME -0.0913
-0.1249 AT THE -0.3605
-0.4796 AWAY GO -0.1204
-0.5539 BACK MOVE 0.6161
-0.9336 BACK PUT -0.0645
-1.4339 BACK RUN 0.6748
-1.4339 BACK THE -0.0440
-0.9336 BACK TO 0.5725
-0.4796 BACKWARDS L -0.0424
-0.4796 BAD STOP 0.2033
-2.0797 BALL A -0.0993
-2.5800 BALL ADD 0.2497
-2.5800 BALL AGAIN -0.0377
-1.5785 BALL AND 0.1185
-2.5800 BALL BUT -0.1000
-1.0590 BALL DOWN -0.0476
-1.4962 BALL EXECUTE -0.0810
-2.5800 BALL GET 0.5779
-1.1004 BALL GO -0.5422
-2.5800 BALL HELP 0.2016
-2.5800 BALL HIT -0.0424
-2.0797 BALL JUST -0.4227
-2.5800 BALL LIKE 0.3089
-1.0590 BALL MOVE 0.0065
-2.5800 BALL NEAR 0.7240
-2.5800 BALL NOT -0.0835
-2.5800 BALL OH -0.1027
-1.1004 BALL OK -0.0009
-1.5785 BALL ON -0.3035
-2.5800 BALL OVER -0.0506
-1.3222 BALL PLACE 0.7118
-2.5800 BALL PUT -0.1134
-0.9542 BALL RUN -0.1456
-2.5800 BALL SECOND 0.6386
-2.0797 BALL SLIGHTLY -0.1027
-2.5800 BALL SMALL 0.0581
-2.5800 BALL SO 0.0183
-2.0797 BALL START 0.4587
-2.5800 BALL STOP 0.2033
-2.5800 BALL TAKE 0.1147
-2.5800 BALL THE -0.0921
-0.8216 BALL TO -0.3731
-1.3222 BALL UP -0.1713
-0.4796 BARRIERS THE -0.0660
-0.4796 BASKET GO 0.3367
-0.5814 BASKETS A -0.0993
-1.0817 BASKETS MOVE 0.4033
-1.0817 BASKETS UP -0.0853
-0.4796 BEEN TRYING 0.0538
-1.9110 BELOW BLUE 1.6783
-1.9110 BELOW DIRECTLY -0.0071
-1.9110 BELOW IT -0.1158
-1.9110 BELOW THAT -0.1175
-0.0696 BELOW THE 0.0415
-0.4796 BENEATH THE -0.1150
-1.6557 BETWEEN BINS 0.0538
-0.0300 BETWEEN THE -0.4050
-0.4796 BIG RED 1.4104
-0.7807 BIN MOVE 0.4033
-0.7807 BIN SO -0.1183
-0.4796 BINS GO 0.3367
-1.9616 BIT A 0.2300
-1.9616 BIT AND -0.1064
-1.1372 BIT DOWN -0.2232
-0.5843 BIT GO 0.0695
-2.4619 BIT MAYBE 0.0538
-1.2041 BIT MORE -0.0119
-0.8062 BIT MOVE 0.4603
-2.4619 BIT OK -0.0275
-2.4619 BIT PLEASE -0.1027
-1.9616 BIT PUT 0.0555
-1.2041 BIT RUN 0.2380
-1.3781 BIT START 0.3122
-1.9616 BIT STOP 0.2041
-0.7035 BIT TO -0.2576
-1.9616 BIT UP -0.0708
-0.4796 BLOCKS MOVE 0.4033
-0.0069 BLUE BALL -0.0564
-0.7807 BOO I -0.1107
-0.7807 BOO STOP 0.2033
-0.4565 BOTH MAGNETS -0.0478
-0.9568 BOTH THE -0.0440
-2.4339 BOTTOM CENTER -0.1078
-2.4339 BOTTOM CORNER -0.0697
-2.4339 BOTTOM DIRECTLY -0.0071
-2.4339 BOTTOM EXECUTE -0.0532
-2.4339 BOTTOM GO 0.3367
-2.4339 BOTTOM GOOD 0.0110
-1.0512 BOTTOM LEFT -0.2123
-0.4357 BOTTOM MAGNET -0.5582
-2.4339 BOTTOM MAGNETS -0.0662
-2.4339 BOTTOM MIDDLE -0.1082
-1.9336 BOTTOM MOVE 0.0757
-0.8751 BOTTOM OBJECT 0.1347
-0.9542 BOTTOM OF -0.4076
-2.4339 BOTTOM ON 0.2769
-2.4339 BOTTOM PLACE -0.1098
-1.0000 BOTTOM RIGHT -0.6401
-2.4339 BOTTOM START 0.2731
-2.4339 BOTTOM STOP 0.2033
-2.4339 BOTTOM THAT -0.1096
-2.4339 BOTTOM THE -0.0660
-2.4339 BOTTOM TWO -0.1039
-2.4339 BOTTOM WALL -0.0896
-0.2804 BOWLING BALL -0.4347
-0.4796 BOXES RUN 0.6748
-1.0817 BRACE REMOVE 0.8789
-0.5814 BRACE RUN 0.3471
-1.0817 BRACE TO -0.1206
-0.4796 BROUGHT THEM -0.0913
-1.3247 BUT AT 0.4810
-1.3247 BUT BELOW 0.7082
-1.3247 BUT DIRECTLY 0.0386
-1.3247 BUT I -0.0873
-1.3247 BUT NOT 0.0110
-1.3247 BUT SAME -0.0913
-1.3247 BUT TO 0.9001
-0.0768 BY THE -0.0397
-0.2563 CAN GO -0.2373
-1.2578 CAN I -0.1107
-1.2578 CAN YOU -0.0835
-0.7807 CAN'T I -0.1107
-0.7807 CAN'T MAKE -0.0702
-1.0207 CENTER BOTTOM -0.3866
-1.0207 CENTER MAGNET -0.4450
-1.0207 CENTER OF 0.1436
-1.5210 CENTER TARGET -0.1025
-1.5210 CENTER UM -0.0702
-0.6410 CENTER WALLS 0.0030
-1.3247 CENTIMETER ACTUALLY 0.0110
-1.3247 CENTIMETER AND 0.0655
-0.8244 CENTIMETER GO 0.0091
-1.3247 CENTIMETER PUT 0.0443
-0.8244 CENTIMETER TO 0.9057
-0.7807 CENTIMETERS GO 0.3367
-0.7807 CENTIMETERS STOP -0.0977
-0.4796 CLOCKWISE MOVE -0.1188
-0.0768 CLOSER TO 0.5959
-0.4796 COMES AND -0.1188
-0.4796 COMING AT -0.1027
-2.0359 CORNER ALRIGHT -0.0702
-1.1559 CORNER AND -0.1544
-2.0359 CORNER BLUE 1.6783
-0.9522 CORNER DIRECTLY 0.3555
-2.0359 CORNER DO 0.3089
-1.5356 CORNER EXECUTE -0.3238
-1.1559 CORNER GO 0.5274
-2.0359 CORNER IN 0.9358
-2.0359 CORNER IS -0.1032
-1.5356 CORNER MOVE 0.4417
-2.0359 CORNER NOW 0.0657
-1.5356 CORNER OF 0.1436
-0.9522 CORNER OK -0.1818
-1.1559 CORNER OVER 0.0640
-2.0359 CORNER PUT 0.0443
-2.0359 CORNER SO 0.0183
-2.0359 CORNER STOP -0.1040
-1.5356 CORNER THAT'S -0.0254
-0.4796 CORNERS AND -0.0378
-0.4796 DEGREES CLOCKWISE 0.0538
-0.7807 DELETE STOP -0.1207
-0.7807 DELETE THE -0.1013
-0.4796 DIAGONAL TO 0.9001
-0.4796 DIRECTION OR -0.0835
-0.5119 DIRECTLY ABOVE -0.1147
-0.6368 DIRECTLY BELOW 0.4932
-1.8946 DIRECTLY DOWN -0.1198
-1.8946 DIRECTLY STOP -0.1207
-0.5699 DIRECTLY TO 0.1761
-1.0146 DIRECTLY UNDER 0.3216
-0.2017 DO I -0.0891
-1.0817 DO THEY -0.0964
-0.4796 DOES EXECUTE 0.0038
-0.4796 DOING THAT -0.0929
-0.4796 DON'T THINK 0.0538
-0.5693 DOWN A -0.4141
-2.5403 DOWN AGAINST 0.0538
-1.6603 DOWN AN 1.1875
-1.1576 DOWN AND -0.8341
-2.5403 DOWN AS -0.0730
-2.5403 DOWN AT 0.4810
-2.5403 DOWN BACKWARDS 0.0538
-2.5403 DOWN DOWN -0.0335
-1.6603 DOWN EXECUTE -0.0179
-2.5403 DOWN FIVE 0.0538
-1.1576 DOWN GO -0.4453
-2.5403 DOWN HALF 0.4587
-2.5403 DOWN IN 0.9358
-2.5403 DOWN JUST 0.1342
-2.5403 DOWN LESS -0.0964
-2.5403 DOWN MORE -0.0595
-0.7385 DOWN MOVE 0.0745
-2.5403 DOWN OK -0.1196
-2.5403 DOWN ONE 0.0259
-2.5403 DOWN OR -0.0835
-2.0400 DOWN PUT -0.1110
-2.5403 DOWN QUARTER 1.1342
-1.4566 DOWN RUN 0.0304
-1.6603 DOWN SLIGHTLY 0.0091
-1.4566 DOWN SO 0.4550
-2.5403 DOWN SOME 0.0110
-2.5403 DOWN START 0.2731
-1.5388 DOWN STOP 0.0567
-1.6603 DOWN TWO -0.1789
-2.5403 DOWN UNDO -0.0601
-2.5403 DOWN WHOA -0.0424
-0.4565 DRAT GO 0.5035
-0.9568 DRAT TAKE -0.0964
-0.7807 EACH OTHER -0.0913
-0.7807 EACH TARGET -0.1025
-0.0512 EDGE OF -0.3107
-0.4796 EIGHT INCHES -0.1027
-0.4796 EIGHTH OF -0.0579
-0.4796 ELEVEN LOAD 0.0657
-0.4796 EVEN CLOSER 0.6694
-0.4796 EVIL PEOPLE 0.0538
-0.4796 EXCELLENT STOP -0.0939
-2.3604 EXECUTE EXECUTE 0.1065
-2.3604 EXECUTE IT -0.1194
-2.3604 EXECUTE MIDDLE 0.0072
-0.8394 EXECUTE MOVE 0.3213
-1.8601 EXECUTE OK -0.0327
-2.3604 EXECUTE PLACE -0.0268
-1.2767 EXECUTE PUT -0.1302
-1.8601 EXECUTE PUZZLE -0.3396
-2.3604 EXECUTE REMOVE -0.1065
-0.3895 EXECUTE STOP -0.2371
-2.3604 EXECUTE STUPID 0.0538
-0.6021 EXECUTE THE -1.2683
-0.6783 FAR AS -0.0189
-1.1786 FAR DOWN -0.1198
-0.6783 FAR RIGHT -0.1132
-0.7807 FARTHER GO 0.3367
-0.7807 FARTHER TO 0.9001
-0.4796 FEET MOVE 0.4033
-0.4796 FIELD MOVE 0.4033
-0.4796 FIGURE OUT -0.0702
-0.4796 FIND OUT 0.0657
-0.4796 FINISH SESSION 0.0538
-0.0263 FIRST MAGNET 0.0736
-1.7101 FIRST OBJECT -0.1192
-0.4796 FIVE FEET 0.0538
-0.4796 FOR ME -0.0913
-0.4796 FORM A -0.1204
-0.7807 FOUR BOXES 0.0538
-0.7807 FOUR INCHES -0.1027
-0.0768 FROM THE 0.0016
-0.4796 FUDGE STOP -0.0977
-0.4796 FURTHER TO 0.9001
-0.4796 GAME FINISH 0.0538
-1.6557 GET A -0.0894
-1.6557 GET IT -0.1194
-0.0969 GET RID 0.0000
-1.6557 GET THE -0.1209
-0.4796 GETTING NO -0.1078
-0.2804 GIVE UP -0.0742
-2.7763 GO ABOVE 0.6673
-2.7763 GO BAD 0.0538
-2.7763 GO BOO -0.0424
-2.7763 GO DELETE -0.0424
-1.8963 GO DRAT -0.0426
-2.7763 GO GET 0.5779
-0.9542 GO GO -0.0245
-2.7763 GO HELLO -0.0835
-2.7763 GO LESS 0.2298
-1.1206 GO MOVE 0.0418
-2.7763 GO NEXT -0.0462
-1.5185 GO OK -0.4481
-1.8963 GO ON -0.3929
-2.2760 GO PLACE 1.1907
-2.7763 GO PLEASE 0.1123
-2.7763 GO PUT -0.1134
-2.7763 GO PUZZLE -0.1171
-2.7763 GO RESTART 0.6694
-2.7763 GO SO -0.0991
-0.1861 GO STOP -0.0446
-2.7763 GO THAT'S -0.1145
-2.7763 GO THE -0.1013
-2.7763 GO TURN -0.0424
-2.7763 GO UP -0.1166
-2.7763 GO WAIT 0.0110
-0.9568 GOAL IN -0.1186
-0.4565 GOAL MOVE 0.5600
-0.7807 GOES NEXT 0.5022
-0.7807 GOES THROUGH 0.0538
-0.5814 GOOD GO 0.0091
-0.5814 GOOD JOB 0.0538
-0.8784 HALF A -0.4097
-0.1326 HALF AN 0.4667
-1.2581 HALF WAY 0.4284
-0.9568 HALFWAY GO 0.3367
-0.9568 HALFWAY MOVE -0.1174
-0.9568 HALFWAY TO 0.9001
-0.0185 HAND CORNER -0.0701
-0.4796 HANG OF -0.1177
-0.9568 HAVE NO -0.1078
-0.4565 HAVE TO -0.1189
-0.4796 HEAD MOVE -0.1188
-0.7807 HEIGHT MOVE 0.4033
-0.7807 HEIGHT OF 0.4713
-0.2017 HELLO MOVE 0.2151
-1.0817 HELLO STOP 0.2033
-0.2804 HELP ME -0.0593
-0.4796 HIGH AS -0.0730
-0.9568 HIGHER GO 0.3367
-0.9568 HIGHER MOVE -0.0799
-0.9568 HIGHER RUN 0.6748
-0.7807 HIGHEST MAGNET -0.0712
-0.7807 HIGHEST UP -0.0853
-0.7807 HIT KAIYUH 0.0538
-0.7807 HIT THE -0.1194
-0.4796 HOLE BETWEEN 1.0550
-0.4565 HOW DO -0.0187
-0.9568 HOW TO -0.1194
-1.6258 I AM 0.0538
-1.6258 I DON'T 0.0538
-1.6258 I EXECUTE 0.1065
-1.1255 I GIVE -0.1260
-1.6258 I GO -0.1155
-1.1255 I HAVE 0.1466
-1.1255 I JUST -0.1048
-1.6258 I MEAN 0.0538
-1.6258 I ONLY -0.0424
-1.6258 I START -0.1186
-1.6258 I THOUGHT 0.0538
-0.4796 I'M GETTING 0.0538
-0.4796 I'VE BEEN 0.0538
-0.4796 IMAGE HELP 0.2016
-0.2804 IMMEDIATELY TO 0.5725
-1.7352 IN BETWEEN 0.7274
-1.7352 IN MIDDLE -0.1141
-0.0399 IN THE -0.9239
-2.2355 IN THIS -0.0835
-2.1424 INCH ACTUALLY 0.0110
-1.0586 INCH AND -0.2847
-0.4323 INCH EXECUTE -0.5925
-0.8846 INCH GO 0.2691
-2.1424 INCH HELLO 0.3089
-2.1424 INCH LEFT -0.0823
-1.0586 INCH MOVE -0.0055
-1.2624 INCH OK 0.0148
-2.1424 INCH SO -0.1183
-2.1424 INCH STOP -0.1181
-2.1424 INCH TAKE -0.0964
-1.2624 INCH TO 0.5959
-2.1424 INCH UP -0.0758
-1.3827 INCHES EXECUTE 0.1065
-0.8824 INCHES MOVE -0.4075
-1.3827 INCHES RIGHT -0.0595
-0.8824 INCHES TO 0.5725
-1.3827 INCHES UNDER 0.4810
-1.3827 INCHES WOW 0.0538
-0.4796 INSIDE OF 0.4713
-0.4796 INTERESTING PLACE 0.4917
-0.4796 INTO THE -0.1197
-0.8931 IS ABOVE 0.6545
-1.8946 IS AND -0.0378
-1.3943 IS DIRECTLY 0.0228
-1.8946 IS HALF -0.0964
-1.8946 IS HIGHEST -0.0424
-1.3943 IS IN -0.4407
-1.3943 IS IT -0.0429
-1.8946 IS ON -0.0084
-1.8946 IS PLACE 0.4917
-1.8946 IS THAT -0.1175
-1.8946 IS THIS -0.0835
-0.8931 IS TO 0.3198
-1.8946 IS TOUCHING 0.6521
-0.8931 IS UNDERNEATH -0.2263
-1.4176 IT A 0.0348
-2.4192 IT ACTUALLY -0.0835
-2.4192 IT BACK -0.1048
-2.4192 IT BUT -0.1000
-1.9189 IT CAN -0.0978
-1.9189 IT DIRECTLY 0.0467
-1.0944 IT DOWN 0.1217
-2.4192 IT GO 0.3367
-2.4192 IT GOOD 0.0110
-1.9189 IT IN 0.6082
-0.7934 IT IS -0.0165
-2.4192 IT JUST -0.1130
-2.4192 IT MORE -0.1134
-1.9189 IT MOVE 0.0757
-1.5392 IT NEXT 0.1980
-2.4192 IT ON 0.2769
-2.4192 IT ONCE 0.0538
-1.9189 IT PULLS 0.0538
-2.4192 IT RUN 0.6748
-2.4192 IT SO 0.0183
-0.6385 IT TO -0.2798
-1.0364 IT TOUCHES 0.0000
-0.9853 IT UP 0.1354
-2.4192 IT WHAT -0.0702
-1.3218 IT'S AT 0.1533
-0.4973 IT'S DIRECTLY 0.3495
-1.3218 IT'S IN 0.6082
-1.3218 IT'S JUST 0.1823
-1.8221 IT'S LEVEL -0.0702
-1.8221 IT'S NOT -0.0835
-1.8221 IT'S ON 0.2769
-1.8221 IT'S RIGHT -0.1205
-0.9421 IT'S TOUCHING 0.3479
-1.8221 IT'S UNDER 0.4810
-1.8221 IT'S UP -0.1197
-0.7807 JOB GO 0.3367
-0.7807 JOB STOP -0.1015
-0.3522 JUST A -0.6061
-1.2346 JUST ABOVE 0.3396
-1.7349 JUST BELOW 0.7082
-1.7349 JUST CAN'T -0.0424
-1.7349 JUST GOES -0.0424
-1.7349 JUST HAVE 0.0657
-1.7349 JUST MOVED 0.0538
-1.7349 JUST SHUT 0.0538
-1.2346 JUST WAS -0.0424
-0.4796 KAIYUH OVER -0.1000
-0.4796 KEEP MOVE -0.1208
-0.7807 L SHAPE 0.0538
-0.7807 L SHAPED 0.0538
-0.0580 LARGE BLUE 0.9542
-1.3827 LARGE RIGHT -0.1192
-0.8824 LAST ACTION 0.0538
-0.2990 LAST MAGNET -0.1517
-1.3827 LAST OBJECT -0.1192
-0.4796 LEDGE OK -0.0275
-1.0870 LEFT A -0.9833
-2.9283 LEFT ACTUALLY -0.0835
-2.9283 LEFT ADD -0.1000
-2.9283 LEFT AGAIN -0.0377
-2.9283 LEFT AN 1.4917
-2.4280 LEFT AND -0.0595
-2.9283 LEFT ANOTHER -0.0702
-2.9283 LEFT AS 0.0047
-2.9283 LEFT BALL -0.0852
-2.9283 LEFT BASKET 0.0538
-2.4280 LEFT BIN 0.0538
-2.9283 LEFT BRACE -0.0835
-1.4945 LEFT CORNER -0.0906
-2.0483 LEFT DOWN -0.0489
-2.0483 LEFT EDGE 0.5290
-2.0483 LEFT EXECUTE -0.2147
-1.1934 LEFT GO 0.1278
-1.9268 LEFT HALF 0.4345
-1.3026 LEFT HAND 0.2341
-2.4280 LEFT JUST -0.1935
-0.7083 LEFT MAGNET -0.1849
-1.6036 LEFT MAGNETS -0.2718
-2.9283 LEFT MORE -0.0179
-1.1063 LEFT MOST 0.2348
-1.0685 LEFT MOVE -0.3580
-2.9283 LEFT NEXT 0.5022
-2.9283 LEFT NO 0.0353
-1.3348 LEFT OBJECT -0.0342
-0.9573 LEFT OF -0.5301
-1.9268 LEFT OK -0.0558
-2.9283 LEFT RESET -0.0702
-2.9283 LEFT RUN 0.6748
-2.9283 LEFT SLIGHTLY 0.1799
-1.6706 LEFT SO 0.2514
-2.9283 LEFT STACK 0.0538
-1.6706 LEFT START 0.0098
-1.8446 LEFT STOP 0.2672
-2.9283 LEFT SUCH 0.2016
-2.4280 LEFT TARGET -0.0543
-2.9283 LEFT TARGETS 0.1147
-2.9283 LEFT TWO -0.0119
-2.9283 LEFT UNDO 0.0427
-2.0483 LEFT WALL -0.0913
-0.4796 LENGTH TO 0.9001
-1.2578 LESS BOO -0.0424
-0.2563 LESS GO 0.2372
-1.2578 LESS GOOD 0.0110
-1.4796 LET'S EXECUTE 0.0038
-1.4796 LET'S MAKE -0.0702
-0.5996 LET'S MOVE 0.2266
-0.5996 LET'S PUT -0.1001
-0.9793 LET'S SEE 0.0538
-0.4565 LEVEL AS -0.4006
-0.9568 LEVEL WITH 0.0538
-0.4796 LIFE IS -0.1155
-0.2017 LIKE IN 0.6316
-1.0817 LIKE ONLY -0.0424
-0.7807 LINE BUT -0.1000
-0.7807 LINE OK -0.0489
-2.5515 LITTLE ABOVE -0.0949
-2.5515 LITTLE AND -0.1188
-0.1581 LITTLE BIT 0.0572
-1.1688 LITTLE EXECUTE -0.4891
-2.5515 LITTLE GAME 0.0538
-2.5515 LITTLE HIGHER -0.0702
-2.5515 LITTLE LEFT -0.1159
-1.6715 LITTLE LESS -0.0743
-2.5515 LITTLE LITTLE 0.3945
-1.2268 LITTLE MORE -0.0267
-1.5500 LITTLE MOVE -0.4155
-2.5515 LITTLE PLACE 0.4917
-2.5515 LITTLE RED 1.4104
-2.5515 LITTLE RIGHT -0.1166
-2.0512 LITTLE STOP 0.2457
-2.0512 LITTLE TO 0.5725
-2.5515 LITTLE VERY 0.1820
-0.9568 LOAD NEXT -0.0462
-0.4565 LOAD PUZZLE -0.1041
-0.4565 LOT NO 0.0991
-0.9568 LOT TO 0.9001
-0.4796 LOW RUN 0.6748
-0.1919 LOWER LEFT -0.9320
-1.6258 LOWER MAGNETS -0.0164
-0.6243 LOWER RIGHT -0.6812
-0.0802 LOWEST MAGNET -0.2243
-1.2571 MAGNET A -0.5607
-1.3933 MAGNET ABOVE -0.0839
-1.8270 MAGNET ALL -0.3928
-3.1517 MAGNET ALREADY 0.0538
-3.1517 MAGNET AN 1.4917
-2.2717 MAGNET AND -0.1982
-3.1517 MAGNET AS -0.1065
-3.1517 MAGNET AWAY 0.0538
-2.2717 MAGNET BACK -0.0914
-1.5260 MAGNET BELOW -0.4004
-3.1517 MAGNET BENEATH 0.0538
-1.7690 MAGNET BETWEEN 0.3268
-3.1517 MAGNET BUT -0.1000
-2.2717 MAGNET BY 0.3652
-2.6514 MAGNET CLOSER 0.3417
-2.2717 MAGNET DIRECTLY -0.0853
-0.9645 MAGNET DOWN -0.2094
-3.1517 MAGNET EVEN 0.0538
-2.6514 MAGNET EXECUTE 0.1097
-3.1517 MAGNET FARTHER -0.0424
-2.6514 MAGNET FROM 0.3417
-3.1517 MAGNET FURTHER 0.0538
-1.4680 MAGNET GO -0.0696
-3.1517 MAGNET GOES -0.0424
-2.6514 MAGNET HALF 0.7622
-3.1517 MAGNET HALFWAY -0.0702
-3.1517 MAGNET HELLO 0.3089
-3.1517 MAGNET HIGHER -0.0702
-1.1536 MAGNET IN -0.4616
-3.1517 MAGNET IS -0.1155
-2.1502 MAGNET LEFT -0.1640
-1.6307 MAGNET MOVE -0.6371
-3.1517 MAGNET MOVES 0.0538
-2.2717 MAGNET NEAR 0.4198
-2.0680 MAGNET NEXT -0.1422
-3.1517 MAGNET NINETY 0.0538
-3.1517 MAGNET OH 0.1123
-2.0680 MAGNET OK 0.1042
-1.5582 MAGNET ON -0.1324
-2.2717 MAGNET PLACE 1.0015
-3.1517 MAGNET PUT -0.0589
-2.2717 MAGNET RIGHT -0.3011
-3.1517 MAGNET ROTATE 0.0657
-2.0680 MAGNET RUN 0.6764
-1.4168 MAGNET SO -0.3707
-2.1502 MAGNET START 0.0734
-2.2717 MAGNET STOP 0.2196
-3.1517 MAGNET SUCH 0.2016
-3.1517 MAGNET TELL 0.0538
-1.7690 MAGNET THAT -0.6210
-1.3933 MAGNET THAT'S -0.0090
-3.1517 MAGNET THEN 0.3540
-0.6944 MAGNET TO -0.2561
-1.7179 MAGNET UNDER -0.1105
-3.1517 MAGNET UNDERNEATH -0.0913
-1.0189 MAGNET UP -0.1052
-1.9268 MAGNETS AGAIN -0.0964
-1.9268 MAGNETS AS 0.0047
-0.8430 MAGNETS DOWN 0.0421
-1.9268 MAGNETS IN 0.9358
-1.9268 MAGNETS MOVE 0.4033
-1.9268 MAGNETS OK -0.0383
-1.9268 MAGNETS ONE -0.1107
-1.9268 MAGNETS OR -0.0835
-1.4265 MAGNETS PLACE 0.1640
-1.9268 MAGNETS PUT -0.1187
-1.9268 MAGNETS STOP -0.1090
-1.9268 MAGNETS THAT -0.1175
-0.9253 MAGNETS TO 0.3198
-0.6690 MAGNETS UP 0.0151
-1.9268 MAGNETS UPSIDE 0.2016
-0.9568 MAKE ONE -0.1107
-0.9568 MAKE THAT -0.0834
-0.9568 MAKE THE -0.1197
-0.4796 MAYBE MOVE -0.0799
-1.1786 ME GO 0.3367
-1.1786 ME I -0.0873
-1.1786 ME MOVE 0.4033
-1.1786 ME TO -0.1206
-1.1786 ME WHAT -0.0702
-0.4796 MEAN OK -0.1196
-0.4796 MEANING OF -0.1200
-2.4141 MIDDLE 'TILL 0.0538
-2.4141 MIDDLE ALL 0.3312
-1.5341 MIDDLE AND -0.3419
-2.4141 MIDDLE AT 0.4810
-2.4141 MIDDLE CENTER -0.0776
-2.4141 MIDDLE GOAL 0.0657
-0.3782 MIDDLE MAGNET -0.2947
-2.4141 MIDDLE MAGNETS -0.0662
-1.9138 MIDDLE MOVE 0.4728
-2.4141 MIDDLE NO 0.0353
-0.5921 MIDDLE OBJECT -0.2437
-1.0894 MIDDLE OF -0.2527
-1.9138 MIDDLE OK -0.0274
-2.4141 MIDDLE PUT -0.0963
-2.4141 MIDDLE SO -0.1183
-1.3304 MIDDLE TARGET -0.0337
-0.4796 MONITOR JUST -0.1130
-0.7569 MORE GO 0.4292
-1.7584 MORE LESS -0.0964
-0.8784 MORE MOVE 0.3708
-1.7584 MORE OK -0.1098
-1.7584 MORE PUT 0.0443
-0.6746 MORE RUN 0.4011
-1.7584 MORE STOP -0.1198
-1.7584 MORE THAT -0.1175
-1.7584 MORE TO 0.9001
-1.7584 MORE UP -0.0853
-1.5108 MOST BRACE -0.3167
-2.0111 MOST CORNER -0.0897
-0.1165 MOST MAGNET -0.4076
-1.5108 MOST TARGET -0.0830
-1.1311 MOST WALL -0.2684
-3.1563 MOVE A -0.1188
-3.1563 MOVE ADD 0.2497
-2.2763 MOVE ALL 0.8983
-3.1563 MOVE BENEATH -0.1210
-2.2763 MOVE BOTH -0.0426
-1.5975 MOVE BOTTOM -0.5263
-3.1563 MOVE DOWN -0.1198
-2.2763 MOVE GO 0.1496
-1.0432 MOVE IT -0.6824
-1.5306 MOVE LEFT -1.1252
-3.1563 MOVE MAGNET -0.0774
-1.3545 MOVE MIDDLE -1.1939
-2.1548 MOVE MOVE 0.3540
-3.1563 MOVE NOW 0.0657
-3.1563 MOVE OBJECT -0.1152
-3.1563 MOVE ONE -0.0873
-3.1563 MOVE PUT -0.1187
-1.3545 MOVE RIGHT -0.6649
-3.1563 MOVE SOMETHING -0.0424
-3.1563 MOVE STOP 0.2033
-2.0726 MOVE THAT -0.2230
-0.1542 MOVE THE -0.6710
-2.6560 MOVE UP -0.0837
-0.4796 MOVED TO 0.9001
-0.4796 MOVES FROM 0.6694
-0.4796 MOVING MOVE 0.4033
-0.4796 MY MONITOR 0.0538
-0.0669 NEAR THE -0.5375
-0.0193 NEW MAGNET 0.0777
-1.8019 NEXT ONE -0.1107
-0.8003 NEXT PUZZLE -0.0957
-0.1181 NEXT TO 0.3271
-0.4796 NINETY DEGREES 0.0538
-1.5210 NO GET -0.1114
-1.5210 NO IMAGE 0.0538
-0.5195 NO MOVE -0.1770
-1.5210 NO OK -0.0275
-1.5210 NO PUT -0.1134
-1.5210 NO SCREEN -0.1155
-1.0207 NO UNDO 0.3089
-1.0817 NOT MOVING 0.0538
-0.5814 NOT RIGHT -0.1173
-1.0817 NOT THAT -0.1175
-0.9568 NOW I -0.0873
-0.4565 NOW MOVE 0.0757
-1.8714 OBJECT A 0.2969
-1.4917 OBJECT ABOVE -0.1109
-2.3717 OBJECT AT -0.1027
-1.4917 OBJECT BACK -0.0914
-2.3717 OBJECT BETWEEN 1.0550
-2.3717 OBJECT CENTER -0.0776
-2.3717 OBJECT DIAGONAL 0.0538
-2.3717 OBJECT DIRECTLY -0.0769
-0.7160 OBJECT DOWN -0.1950
-2.3717 OBJECT EIGHT 0.0538
-1.8714 OBJECT EXECUTE 0.2282
-2.3717 OBJECT FOUR -0.0424
-2.3717 OBJECT IN -0.1130
-0.7782 OBJECT LEFT -0.6447
-2.3717 OBJECT MOVE -0.1015
-1.8714 OBJECT NEXT 0.1745
-2.3717 OBJECT ON -0.1170
-0.9379 OBJECT RIGHT -0.3364
-1.8714 OBJECT TO -0.4447
-1.8714 OBJECT UNDER -0.1065
-0.7160 OBJECT UP -0.2817
-1.5197 OF ALL 0.3687
-0.8686 OF AN 0.3575
-2.6035 OF BLOCKS 0.0538
-2.6035 OF BLUE 1.6783
-2.6035 OF BOWLING 0.2016
-2.6035 OF EACH -0.0424
-2.6035 OF FIRST -0.1125
-2.1032 OF IT -0.1178
-2.6035 OF LIFE 0.0538
-2.6035 OF MOVE 0.4033
-2.6035 OF THAT -0.1175
-0.1282 OF THE -0.2472
-2.6035 OF THEM -0.0913
-0.7807 OFF I'M 0.0538
-0.7807 OFF THE -0.1102
-1.3827 OH FUDGE 0.0538
-1.3827 OH MOVE -0.0799
-0.3812 OH OK 0.1324
-1.3827 OH REALLY 0.2016
-1.3827 OH THE -0.1209
-1.5909 OK AND -0.2429
-0.8151 OK EXECUTE -1.0512
-2.4709 OK GO 0.3367
-2.4709 OK HOW 0.0657
-2.4709 OK I -0.1107
-2.4709 OK KEEP 0.0538
-1.1461 OK LET'S 0.2090
-1.9706 OK LIKE -0.0187
-0.7125 OK MOVE 0.3027
-2.4709 OK NEAR 0.7240
-1.1461 OK OK 0.3604
-1.1461 OK PUT -0.2192
-2.4709 OK PUZZLE -0.0119
-1.9706 OK SO 0.0593
-1.3871 OK SOLVE 0.1376
-2.4709 OK START 0.2731
-0.7608 OK STOP -0.2172
-2.4709 OK TAKE 0.1147
-2.4709 OK TO 0.9001
-2.4709 OK TWO -0.0119
-2.4709 OK UM -0.0702
-2.4709 OK UNDO 0.0427
-2.4709 OK WELL 0.0538
-2.4709 OK WHAT'S 0.0538
-0.9568 OKAY MOVE -0.0799
-0.9568 OKAY STOP 0.2033
-0.9568 OKAY THANK 0.0538
-2.0237 ON MOVE -0.1208
-2.0237 ON OK -0.0275
-0.2218 ON THE -0.4764
-2.0237 ON THIS -0.0835
-1.1437 ON TO 0.5959
-0.6410 ON TOP -0.8239
-0.4796 ONCE BOWLING 0.2016
-0.5420 ONE INCH -0.0064
-1.6258 ONE LENGTH 0.0538
-1.1255 ONE MAGNET -0.0964
-1.6258 ONE OF -0.1200
-1.6258 ONE ON -0.0084
-1.6258 ONE ONE -0.1107
-1.6258 ONE ONTO 0.0538
-1.6258 ONE THE -0.1209
-1.6258 ONE UNIT 0.0538
-0.7807 ONLY EXECUTE -0.1192
-0.7807 ONLY THIS -0.0835
-0.4796 ONTO THE -0.0440
-1.0817 OR DO -0.0835
-1.0817 OR IS -0.1155
-1.0817 OR SOMETHING -0.0424
-1.0817 OR THE -0.1197
-1.1786 OTHER MAGNET -0.0895
-1.1786 OTHER ON -0.0084
-1.1786 OTHER ROOM 0.0538
-1.1786 OTHER THREE 0.5863
-1.1786 OTHER TWO -0.1039
-0.9568 OUT HOW -0.0702
-0.4565 OUT THE -0.0576
-1.3247 OVER OK -0.0889
-0.8244 OVER ONE -0.1000
-1.3247 OVER SO 0.0183
-1.3247 OVER THE -0.1209
-0.8244 OVER TO 0.9443
-0.4796 PEOPLE ARE -0.0913
-0.0802 PINK BALL -0.1944
-0.1214 PLACE A -1.2213
-1.5921 PLACE MAGNET -0.1142
-0.7097 PLACE THE -0.1091
-1.3827 PLEASE MOVE 0.4033
-0.8824 PLEASE OK 0.0009
-1.3827 PLEASE PUT 0.0443
-0.3812 PLEASE STOP 0.2755
-0.7807 PROGRAM AGAIN -0.0964
-0.7807 PROGRAM MOVE 0.4033
-0.7807 PULLS IT -0.1158
-0.7807 PULLS MAGNET -0.1032
-1.1740 PUT A -0.3370
-2.2578 PUT ALL -0.0934
-2.2578 PUT ANOTHER 0.0657
-2.2578 PUT BACK -0.1048
-2.2578 PUT BOTTOM -0.0589
-0.8751 PUT IT -0.1427
-2.2578 PUT LAST -0.1027
-1.7575 PUT LEFT -0.4282
-1.7575 PUT MAGNET -0.4366
-2.2578 PUT MOVE -0.1100
-1.7575 PUT NEW 0.9130
-0.9331 PUT OBJECT -0.1963
-1.2563 PUT RIGHT -0.2857
-2.2578 PUT SECOND -0.1148
-2.2578 PUT THAT -0.1175
-0.4994 PUT THE -0.5730
-2.2578 PUT THEM -0.0913
-2.2578 PUT THREE 0.5863
-2.2578 PUT TOP -0.1184
-2.0359 PUZZLE ADD 0.2497
-1.5356 PUZZLE GO 0.0091
-2.0359 PUZZLE GOOD 0.0110
-2.0359 PUZZLE LOAD -0.0702
-1.5356 PUZZLE MOVE 0.4043
-2.0359 PUZZLE OH -0.1027
-0.6532 PUZZLE OK 0.2224
-0.9522 PUZZLE PLEASE -0.0908
-2.0359 PUZZLE PUT -0.1187
-2.0359 PUZZLE SOLVED 0.0538
-0.4771 PUZZLE STOP -0.4795
-2.0359 PUZZLE THE -0.0660
-0.0248 QUARTER OF -1.1673
-0.4796 READ BALL -0.1175
-0.2804 REALLY OH 0.1442
-0.0130 RED BALL 0.3438
-1.4796 REMOVE MIDDLE 0.0072
-0.0458 REMOVE THE -0.2360
-0.9568 RESET MOVE 0.4033
-0.9568 RESET START 0.2731
-0.9568 RESET STOP 0.2033
-0.0768 RESTART STOP 0.0348
-0.0378 RID OF -0.4609
-1.2699 RIGHT A -0.4802
-1.9835 RIGHT ABOVE 0.3631
-2.8634 RIGHT ALL 0.3312
-1.7797 RIGHT AND -0.1998
-2.3631 RIGHT BALL -0.0378
-2.8634 RIGHT BOTTOM -0.1195
-2.3631 RIGHT CORNER -0.1041
-2.8634 RIGHT CORNERS 0.0538
-2.3631 RIGHT DOWN -0.0957
-1.9835 RIGHT EXECUTE -0.0724
-1.2377 RIGHT GO 0.4096
-1.7797 RIGHT HALF -0.1857
-1.3424 RIGHT HAND 0.3388
-2.3631 RIGHT IN 0.6082
-2.3631 RIGHT JUST -0.1935
-0.6848 RIGHT MAGNET -0.1429
-2.3631 RIGHT MORE -0.3455
-1.3424 RIGHT MOST -0.1010
-1.2377 RIGHT MOVE 0.2125
-2.3631 RIGHT NEXT 0.1745
-2.8634 RIGHT NO -0.1078
-1.1285 RIGHT OBJECT 0.0405
-0.8787 RIGHT OF -0.5343
-1.8619 RIGHT OK -0.2167
-2.8634 RIGHT PLACE 0.4917
-2.3631 RIGHT QUARTER 0.8065
-1.8619 RIGHT RIGHT -0.2948
-1.9835 RIGHT RUN 0.3706
-1.9835 RIGHT SLIGHTLY 0.0091
-1.8619 RIGHT SO 0.4115
-2.3631 RIGHT SOME 0.0627
-1.8619 RIGHT START 0.7230
-1.6057 RIGHT STOP -0.0192
-1.7797 RIGHT TARGET -0.0337
-2.3631 RIGHT TARGETS 0.1581
-2.8634 RIGHT UNDER 0.4810
-2.8634 RIGHT UNDO -0.0601
-2.8634 RIGHT UNTIL 0.0538
-2.8634 RIGHT UP -0.1166
-2.8634 RIGHT WAIT -0.0835
-0.4796 ROOM MOVE 0.4033
-0.4565 ROTATE THE 0.0155
-0.9568 ROTATE THEM -0.0913
-0.4796 ROW BUT -0.1000
-2.3547 RUN AND -0.1188
-2.3547 RUN IMMEDIATELY 0.2016
-2.3547 RUN PLACE 0.4917
-2.3547 RUN PROGRAM -0.0424
-2.3547 RUN RESET -0.0702
-1.8544 RUN RUN 0.3471
-0.0757 RUN STOP -0.8281
-1.3532 RUN THE -0.0234
-2.3547 RUN TO 0.9001
-1.1786 SAME HEIGHT -0.0424
-0.6783 SAME LEVEL -0.2619
-1.1786 SAME LINE -0.0424
-1.1786 SAME OK -0.1164
-0.4796 SAVER AND -0.1188
-1.8946 SCREEN A 0.2284
-1.3943 SCREEN AND -0.0350
-1.8946 SCREEN BELOW 0.7082
-0.8931 SCREEN GO 0.5368
-1.8946 SCREEN IN 0.9358
-0.5699 SCREEN MOVE 0.2020
-1.8946 SCREEN NEAR 0.7240
-1.8946 SCREEN OH -0.1027
-1.8946 SCREEN REALLY 0.2016
-1.3943 SCREEN RUN 0.3471
-1.8946 SCREEN SAVER 0.0538
-1.8946 SCREEN SLIGHTLY -0.0916
-1.8946 SCREEN TO 0.9001
-1.8946 SCREEN UH 0.0538
-1.8946 SCREEN UNDER 0.4810
-0.0830 SECOND MAGNET 0.1093
-1.8414 SECOND OBJECT -0.1192
-1.8414 SECOND PUZZLE -0.1083
-1.3411 SECOND WALL -0.0557
-0.7807 SEE CAN -0.0964
-0.7807 SEE IN 0.9358
-0.4796 SESSION NEXT -0.0462
-0.4796 SHAPE LEFT -0.0703
-0.4796 SHAPED WALL -0.1114
-0.4796 SHUT OFF -0.0424
-0.4796 SIMULATION RUN 0.6748
-1.6838 SLIGHTLY BACK -0.0673
-1.6838 SLIGHTLY BELOW 0.7082
-1.6838 SLIGHTLY DOWN -0.0898
-1.6838 SLIGHTLY MOVE -0.0799
-1.6838 SLIGHTLY PLACE 0.4917
-0.3010 SLIGHTLY RUN -0.0874
-1.6838 SLIGHTLY STOP -0.0977
-1.1835 SLIGHTLY TO 0.5725
-1.8306 SMALL AMOUNT 0.0538
-2.3309 SMALL BALL -0.0814
-0.2385 SMALL BLUE 0.1866
-2.3309 SMALL MAGNET -0.1108
-2.3309 SMALL OK -0.0889
-2.3309 SMALL READ 0.0538
-0.4710 SMALL RED 0.1513
-2.1872 SO CAN -0.0964
-2.1872 SO HOW 0.0657
-0.4771 SO IT -0.8887
-0.5614 SO IT'S -0.1344
-1.3072 SO MOVE 0.4849
-2.1872 SO NOW -0.0702
-2.1872 SO OK -0.0275
-0.7533 SO THAT -0.5693
-2.1872 SO THE -0.0660
-2.1872 SO THESE 0.0538
-2.1872 SO THEY -0.0964
-2.1872 SO THEY'RE 0.0538
-0.0580 SOLVE THE -0.8346
-0.4796 SOLVED GO -0.1155
-1.0817 SOME AND -0.0621
-0.5814 SOME GO -0.0637
-1.0817 SOME MOVE 0.4033
-0.7807 SOMETHING GO -0.1077
-0.7807 SOMETHING MOVE 0.4033
-0.4796 SORRY I -0.0873
-0.4796 STACK OF -0.1200
-2.2355 START ADD 0.2497
-2.2355 START AND -0.1188
-2.2355 START EXCELLENT 0.0538
-0.8016 START MOVE -0.4298
-2.2355 START OVER -0.1000
-2.2355 START SECOND 0.6386
-0.8528 START START -0.1216
-0.2244 START STOP -0.3650
-2.2355 START TO 0.9001
-3.0395 STOP A 0.2284
-2.5392 STOP ADD 0.3009
-2.5392 STOP ALRIGHT -0.0127
-2.5392 STOP AND -0.1165
-3.0395 STOP BETWEEN 1.0550
-3.0395 STOP DELETE -0.0424
-3.0395 STOP DOING 0.0538
-2.1595 STOP EXECUTE 0.0390
-1.5599 STOP GET -0.3010
-1.3558 STOP GO 0.0810
-3.0395 STOP I -0.0873
-3.0395 STOP I'VE 0.0538
-3.0395 STOP IN 0.9358
-3.0395 STOP INTERESTING 0.0538
-3.0395 STOP IT'S -0.1145
-3.0395 STOP LOAD 0.0657
-3.0395 STOP MAGNET -0.1060
-0.2789 STOP MOVE -0.6123
-3.0395 STOP NEXT 0.5022
-3.0395 STOP NO -0.1078
-3.0395 STOP OH 0.1123
-1.4138 STOP OK -0.0586
-2.1595 STOP OKAY 0.0538
-3.0395 STOP ON 0.2769
-1.3295 STOP PLACE 0.1332
-3.0395 STOP PLEASE -0.1027
-1.4807 STOP PUT -0.0007
-1.6568 STOP REMOVE 0.0969
-3.0395 STOP RESET -0.0702
-3.0395 STOP RESTART 0.6694
-3.0395 STOP ROTATE 0.0657
-1.6568 STOP RUN 0.5635
-3.0395 STOP SO -0.0991
-1.2175 STOP START 0.3033
-1.2812 STOP STOP 0.2266
-2.5392 STOP TAKE 0.1581
-1.7818 STOP THE 0.1069
-3.0395 STOP TO 0.9001
-3.0395 STOP TURN -0.0424
-3.0395 STOP TWO -0.0119
-3.0395 STOP UP 0.0507
-3.0395 STOP YEAH -0.0424
-3.0395 STOP YOU -0.0835
-0.4796 STRAIGHT LINE -0.0424
-0.4796 STRONGER YEAH -0.0424
-0.4796 STUPID RED 1.4104
-0.2804 SUCH THAT -0.0977
-0.4796 SURROUNDING THE -0.0963
-1.2578 TAKE ANOTHER 0.0657
-1.2578 TAKE EXECUTE 0.1065
-1.2578 TAKE OUT 0.0657
-0.3778 TAKE THE -0.2468
-1.8776 TARGET BUT -0.1000
-0.9976 TARGET EXECUTE 0.0390
-1.3773 TARGET GO 0.3388
-1.8776 TARGET HALF 0.4587
-1.3773 TARGET IN 1.0380
-1.8776 TARGET MAGNET -0.0895
-0.9976 TARGET MOVE 0.4146
-1.3773 TARGET OK -0.0356
-1.8776 TARGET ON 0.2769
-1.8776 TARGET PLACE -0.1098
-1.8776 TARGET PUZZLE -0.0119
-1.8776 TARGET RIGHT -0.1151
-1.3773 TARGET RUN 0.3471
-1.3773 TARGET STOP 0.2457
-1.3773 TARGET TO 0.5725
-0.4796 TARGET'S THE -0.1209
-1.2578 TARGETS AND -0.0378
-1.2578 TARGETS EXECUTE -0.1192
-0.3778 TARGETS MOVE 0.0991
-1.2578 TARGETS ON 0.2769
-0.4796 TELL ME -0.0913
-0.4796 TEN PUT 0.0443
-0.4796 THANK YOU -0.0835
-2.0817 THAT ARE -0.0913
-2.0817 THAT COMES 0.0538
-2.0817 THAT FOR 0.0538
-0.7570 THAT IS 0.0227
-1.5814 THAT IT 0.0055
-0.7570 THAT IT'S 0.0061
-2.0817 THAT LAST 0.1820
-2.0817 THAT LOW 0.0538
-1.0802 THAT MAGNET -0.0669
-1.2017 THAT MOVE 0.3708
-1.5814 THAT OK -0.0217
-2.0817 THAT ONE -0.0873
-2.0817 THAT SECOND 0.6386
-2.0817 THAT TARGET -0.1025
-1.5814 THAT THE -0.0883
-2.0817 THAT TOP 0.0315
-1.5814 THAT WAS -0.0424
-1.5814 THAT WAY -0.0984
-0.9421 THAT'S ABOVE 0.3631
-1.3218 THAT'S BELOW 0.7458
-1.8221 THAT'S DIRECTLY -0.0071
-1.8221 THAT'S DOWN -0.1198
-1.3218 THAT'S IN 0.6082
-1.8221 THAT'S NOT 0.0110
-1.8221 THAT'S ON 0.2769
-0.9421 THAT'S RIGHT -0.4207
-0.7383 THAT'S TO 0.2557
-1.8221 THAT'S UM -0.0702
-1.3218 THAT'S UNDER 0.1533
-3.4831 THE AT 0.4810
-1.7482 THE BALL -0.0055
-2.6031 THE BASKETS -0.1265
-3.4831 THE BIG 0.0538
-1.8573 THE BLUE 0.6532
-1.1584 THE BOTTOM -0.2594
-3.4831 THE BRACE -0.0835
-3.4831 THE BUT -0.1000
-2.3993 THE CENTER -0.2521
-3.4831 THE DOWN 0.0153
-2.4816 THE EDGE 0.2528
-3.4831 THE EVIL 0.0538
-2.9828 THE FAR -0.3465
-3.4831 THE FIELD 0.0538
-1.7730 THE FIRST 0.0000
-3.4831 THE FOUR -0.0424
-3.4831 THE GO 0.3367
-2.9828 THE GOAL 0.1466
-3.4831 THE HANG 0.0538
-3.4831 THE HEAD 0.0538
-3.4831 THE HEIGHT -0.0424
-3.4831 THE HIGHEST -0.0424
-3.4831 THE HOLE 0.0538
-3.4831 THE INSIDE 0.0538
-3.4831 THE L -0.0424
-2.1584 THE LARGE 0.1117
-2.4816 THE LAST -0.3983
-0.6981 THE LEFT -0.2344
-3.4831 THE LITTLE -0.1199
-1.9243 THE LOWER -0.2563
-2.4816 THE LOWEST 0.0718
-0.9243 THE MAGNET 0.0689
-2.3993 THE MAGNETS -0.0422
-3.4831 THE MEANING 0.0538
-1.2553 THE MIDDLE -0.4488
-3.4831 THE MOVE 0.4033
-2.1004 THE NEW 0.4586
-2.9828 THE NEXT -0.0380
-3.4831 THE ONE -0.1107
-2.4816 THE OTHER 0.0127
-2.4816 THE PINK 0.0718
-3.4831 THE PLACE 0.4917
-3.4831 THE PROGRAM -0.0424
-1.6232 THE PUZZLE -0.2418
-2.1004 THE RED 0.6284
-0.7886 THE RIGHT -0.3811
-2.4816 THE SAME -0.0727
-1.6055 THE SCREEN -0.0036
-1.7730 THE SECOND -0.1202
-3.4831 THE SIMULATION 0.0538
-1.1905 THE SMALL -0.1504
-2.3993 THE TARGET -0.1595
-3.4831 THE TARGET'S 0.0538
-2.9828 THE TARGETS 0.1581
-3.4831 THE TEN 0.0538
-2.9828 THE THE -0.0961
-1.7730 THE THIRD 0.0483
-3.4831 THE THREE 0.5863
-1.3502 THE TOP 0.1008
-1.7730 THE TWO -0.2070
-2.0492 THE UPPER -0.2553
-3.4831 THE UPSIDE 0.2016
-3.4831 THE VERY -0.1027
-2.4816 THE WALL -0.0809
-3.4831 THE WALLS -0.0835
-2.1004 THE WAY -0.4747
-1.1786 THEM ARE -0.0913
-1.1786 THEM I -0.1107
-1.1786 THEM INTO 0.0538
-1.1786 THEM SO -0.1183
-1.1786 THEM STRONGER 0.0538
-0.1771 THEN MOVE 0.3540
-1.1786 THEN UP -0.1197
-0.4796 THESE ARE -0.0913
-1.2578 THEY ARE -0.0913
-0.7575 THEY CAN -0.0978
-1.2578 THEY FORM 0.0538
-1.2578 THEY LIKE -0.0835
-1.2578 THEY WORK 0.0538
-0.4796 THEY'RE SURROUNDING 0.0538
-0.4796 THINK THAT -0.1096
-0.0235 THIRD MAGNET -0.0972
-1.0817 THIS DIRECTION 0.0538
-1.0817 THIS LITTLE -0.1199
-1.0817 THIS MAKE -0.0702
-1.0817 THIS MOVE 0.4033
-0.4796 THOUGHT YOU -0.0835
-0.0948 THREE MAGNETS -0.1388
-0.4796 THROUGH THE -0.1209
-0.0348 TINY BIT -0.9928
-2.9158 TO BELOW 0.7082
-2.9158 TO BETWEEN 1.0550
-2.9158 TO FIGURE 0.0538
-2.9158 TO FIND 0.0538
-2.4155 TO GET -0.1015
-2.9158 TO HIT -0.0424
-2.9158 TO IMMEDIATELY 0.2016
-2.9158 TO IT -0.1194
-2.4155 TO JUST -0.0864
-2.0358 TO LEFT -0.2589
-2.9158 TO MOVE 0.4033
-2.9158 TO SLIGHTLY -0.1120
-2.4155 TO TARGET -0.4027
-2.9158 TO THAT -0.1096
-0.0435 TO THE -0.7539
-2.9158 TO THEM -0.0913
-2.9158 TO TO -0.1194
-2.9158 TO UP -0.0853
-2.9158 TO UPPER -0.0730
-2.4155 TO WHERE -0.1260
-2.9158 TO YOUR 0.0538
-0.4796 TOO SO -0.0991
-2.2120 TOP DOWN -0.0898
-2.2120 TOP GO -0.1204
-2.2120 TOP HELLO 0.3089
-2.2120 TOP IN 0.9358
-0.9542 TOP LEFT -0.3221
-0.5283 TOP MAGNET -0.1144
-1.2105 TOP MIDDLE -0.2346
-2.2120 TOP MOST 0.5073
-2.2120 TOP MOVE 0.4033
-2.2120 TOP OBJECT -0.1069
-0.7782 TOP OF -0.4787
-2.2120 TOP OK -0.1098
-0.9542 TOP RIGHT -0.3862
-2.2120 TOP ROW 0.0538
-1.7117 TOP THE -0.0709
-2.2120 TOP TO 0.9001
-2.2120 TOP WALL -0.0896
-0.0580 TOUCHES THE -0.4582
-0.0802 TOUCHING THE -0.2769
-0.4796 TRYING TO -0.1206
-0.7807 TURN OFF -0.0424
-0.7807 TURN THE -0.1194
-1.9110 TWO BARRIERS 0.0538
-1.9110 TWO BASKETS -0.0835
-1.9110 TWO BOTTOM -0.1195
-1.0310 TWO CENTER -0.3126
-1.4107 TWO CENTIMETERS 0.0538
-0.6532 TWO INCHES -0.1265
-0.5283 TWO LEFT -1.0127
-1.9110 TWO LOWER -0.1107
-1.4107 TWO MAGNETS -0.0603
-1.9110 TWO RIGHT -0.1192
-1.9110 TWO TARGETS -0.0964
-0.4796 UH MY 0.0538
-0.9568 UM MOVE 0.4033
-0.9568 UM OVER -0.0506
-0.9568 UM PUT 0.0443
-1.7807 UNDER EACH -0.0424
-1.7807 UNDER OBJECT -0.1152
-1.7807 UNDER SMALL 0.0581
-1.7807 UNDER SO -0.1183
-1.7807 UNDER TARGET -0.0751
-0.1249 UNDER THE -0.3969
-1.1786 UNDERNEATH LET'S -0.0730
-0.1771 UNDERNEATH THE -0.1987
-0.8824 UNDO LAST -0.3877
-0.5027 UNDO MOVE 0.0991
-0.5027 UNDO THAT -0.2698
-0.4796 UNIT TO 0.9001
-0.4796 UNTIL IT -0.0792
-0.4858 UP A -0.4867
-1.9837 UP ABOUT -0.2619
-1.9837 UP AGAIN -0.0702
-1.4824 UP AN 1.4605
-1.1012 UP AND -0.7434
-1.0043 UP GO 0.1359
-1.6040 UP HALF 0.1545
-1.9837 UP HALFWAY -0.0127
-2.4840 UP HIGHER -0.0702
-1.9837 UP JUST -0.1935
-2.4840 UP LEDGE 0.0538
-2.4840 UP MAGNET -0.1201
-2.4840 UP MORE -0.0595
-1.1012 UP MOVE 0.3786
-2.4840 UP NO -0.1078
-2.4840 UP OH 0.1123
-2.4840 UP ON -0.1170
-1.6040 UP ONE -0.2783
-2.4840 UP PUT -0.1187
-2.4840 UP QUARTER 1.1342
-1.6040 UP RUN 0.3706
-1.4824 UP SLIGHTLY -0.0077
-1.9837 UP SO 0.1393
-2.4840 UP SOME -0.0835
-1.4824 UP TO 0.3198
-2.4840 UP TWO -0.0119
-0.0969 UPPER LEFT -0.3739
-0.9793 UPPER RIGHT -0.1003
-0.2804 UPSIDE DOWN -0.1071
-1.3827 VERY BOTTOM -0.0753
-0.2990 VERY LITTLE -0.2499
-0.8824 VERY SMALL -0.4423
-1.0817 WAIT NO 0.0353
-0.5814 WAIT WAIT 0.0627
-1.0817 WAIT WHAT -0.0702
-1.6557 WALL AND -0.1138
-1.6557 WALL AS 0.0047
-1.6557 WALL IT -0.0449
-1.6557 WALL MOVE 0.4033
-1.6557 WALL ON 0.2769
-1.6557 WALL OR -0.0835
-1.1554 WALL RUN 0.3471
-1.1554 WALL STOP 0.2485
-1.1554 WALL TO 0.9057
-1.6557 WALL TWO -0.1039
-1.6557 WALL UP 0.0507
-1.6557 WALL WHOA -0.0424
-1.0817 WALLS MOVE 0.4033
-1.0817 WALLS OK -0.0889
-1.0817 WALLS TO -0.1194
-1.0817 WALLS UP -0.1065
-1.0817 WAS JUST -0.1130
-1.0817 WAS NO -0.0776
-1.0817 WAS STOP 0.2033
-1.0817 WAS WEIRD 0.0538
-1.5936 WAY BETWEEN 1.0550
-1.5936 WAY DOWN -0.1198
-1.5936 WAY OK -0.1196
-0.1597 WAY TO 0.0669
-1.5936 WAY TOO 0.0538
-0.4796 WEIRD STOP -0.1015
-0.4796 WELL EXECUTE -0.1192
-0.9568 WHAT IS -0.1155
-0.9568 WHAT IT -0.1194
-0.9568 WHAT THE -0.1209
-0.4796 WHAT'S THE -0.1206
-0.2804 WHERE THE -0.4409
-0.7807 WHOA MOVE 0.4033
-0.7807 WHOA UNDO 0.0427
-0.4796 WITH THE -0.1137
-0.4796 WORK THAT -0.1096
-0.4796 WOW GO -0.0869
-0.7807 YEAH MOVE -0.1015
-0.7807 YEAH OK -0.1196
-1.0817 YOU BROUGHT 0.0538
-1.0817 YOU CAN'T -0.0424
-1.0817 YOU GO -0.1204
-1.0817 YOU ROTATE -0.0702
-0.4796 YOUR RIGHT -0.0952

\3-grams:
-0.6138 'TILL THEY FORM 
-0.6138 <s> ELEVEN LOAD 
-0.6138 A ABOUT HALF 
-0.6138 A BIT MORE 
-1.4589 A CENTIMETER ACTUALLY 
-1.4589 A CENTIMETER AND 
-0.7351 A CENTIMETER GO 
-1.4589 A CENTIMETER PUT 
-0.7351 A CENTIMETER TO 
-2.6552 A LITTLE ABOVE 
-2.6552 A LITTLE AND 
-0.1606 A LITTLE BIT 
-1.1383 A LITTLE EXECUTE 
-2.6552 A LITTLE HIGHER 
-2.6552 A LITTLE LEFT 
-1.7688 A LITTLE LESS 
-2.6552 A LITTLE LITTLE 
-1.1963 A LITTLE MORE 
-1.5356 A LITTLE MOVE 
-2.6552 A LITTLE PLACE 
-2.6552 A LITTLE RIGHT 
-1.9314 A LITTLE STOP 
-1.9314 A LITTLE TO 
-2.6552 A LITTLE VERY 
-0.3671 A LOT NO 
-1.0909 A LOT TO 
-1.1424 A MAGNET ABOVE 
-1.3050 A MAGNET BELOW 
-1.3050 A MAGNET DIRECTLY 
-2.0288 A MAGNET EXECUTE 
-0.7978 A MAGNET IN 
-1.3050 A MAGNET MOVE 
-2.0288 A MAGNET RUN 
-2.0288 A MAGNET START 
-0.6368 A MAGNET TO 
-1.1424 A MAGNET UNDER 
-0.0322 A NEW MAGNET 
-0.0348 A QUARTER OF 
-0.1910 A SECOND MAGNET 
-0.6138 A STRAIGHT LINE 
-0.1910 A THIRD MAGNET 
-0.0348 A TINY BIT 
-0.2724 A VERY LITTLE 
-0.6681 A VERY SMALL 
-0.1910 ABOUT AN INCH 
-0.6138 ABOUT HALF WAY 
-0.6138 ABOVE AND TO 
-0.6138 ABOVE BALL EXECUTE 
-0.6138 ABOVE LEFT TARGET 
-1.0909 ABOVE MOVE IT 
-0.3671 ABOVE MOVE THE 
-0.6138 ABOVE RIGHT TARGET 
-2.1701 ABOVE THE BALL 
-2.1701 ABOVE THE BIG 
-1.2837 ABOVE THE BLUE 
-2.1701 ABOVE THE BUT 
-2.1701 ABOVE THE GOAL 
-1.0505 ABOVE THE LARGE 
-0.7112 ABOVE THE LEFT 
-1.2837 ABOVE THE MAGNET 
-1.4463 ABOVE THE PINK 
-1.2837 ABOVE THE SECOND 
-0.6532 ABOVE THE SMALL 
-1.4463 ABOVE THE TARGET 
-0.6138 ACTION MOVE THE 
-0.6138 ACTION REMOVE THE 
-0.6138 ACTUALLY DOES EXECUTE 
-0.9148 ACTUALLY MOVE IT 
-0.9148 ACTUALLY MOVE THE 
-0.6138 ACTUALLY UNDO THAT 
-0.1932 ADD A MAGNET 
-1.3128 ADD A NEW 
-0.6138 ADD MOVE THE 
-0.6138 ADD THE LAST 
-0.6138 AGAIN FARTHER GO 
-0.1910 AGAIN MOVE THE 
-0.6138 AGAIN PLACE A 
-0.6138 AGAIN SO IT'S 
-0.6138 AGAIN STOP MOVE 
-0.6138 AGAINST THE BOTTOM 
-1.2159 ALL MAGNETS AGAIN 
-1.2159 ALL MAGNETS MOVE 
-1.2159 ALL MAGNETS PLACE 
-1.2159 ALL MAGNETS UP 
-0.7688 ALL THE MAGNETS 
-0.1383 ALL THE WAY 
-0.1910 ALL THREE MAGNETS 
-0.6138 ALREADY ON THE 
-0.6138 ALRIGHT I GIVE 
-0.6138 ALRIGHT LET'S PUT 
-0.6138 ALRIGHT SOLVE THE 
-0.6138 AM SORRY I 
-0.6138 AMOUNT PUT THE 
-0.6138 AMOUNT TO THE 
-0.6138 AN EIGHTH OF 
-2.2159 AN INCH ACTUALLY 
-0.9849 AN INCH AND 
-0.4559 AN INCH EXECUTE 
-0.9849 AN INCH GO 
-2.2159 AN INCH HELLO 
-2.2159 AN INCH LEFT 
-1.0963 AN INCH MOVE 
-1.3295 AN INCH OK 
-2.2159 AN INCH SO 
-2.2159 AN INCH STOP 
-2.2159 AN INCH TAKE 
-1.3295 AN INCH TO 
-0.6138 AND A VERY 
-0.9148 AND DOWN A 
-0.9148 AND DOWN GO 
-0.9148 AND GO MOVE 
-0.9148 AND GO STOP 
-0.6138 AND IT JUST 
-0.6138 AND LET'S MOVE 
-1.5169 AND MOVE BENEATH 
-0.7931 AND MOVE IT 
-0.2859 AND MOVE THE 
-0.6138 AND ONE INCH 
-0.1963 AND PUT IT 
-0.7688 AND PUT THE 
-1.6552 AND PUT THEM 
-0.6138 AND RESTART STOP 
-0.6138 AND RUN THE 
-0.6138 AND SLIGHTLY TO 
-0.6138 AND SO OK 
-0.6138 AND STOP MOVE 
-0.9148 AND THE MIDDLE 
-0.9148 AND THE UPSIDE 
-0.3295 AND THEN MOVE 
-1.2159 AND THEN UP 
-0.0202 AND TO THE 
-0.1910 AND UP A 
-0.6138 AND UPPER RIGHT 
-0.6138 ANOTHER INCH GO 
-0.9148 ANOTHER MAGNET AND 
-0.9148 ANOTHER MAGNET ON 
-0.6138 ARE COMING AT 
-0.6138 ARE IN THE 
-0.6138 ARE MOVE LEFT 
-0.6138 ARE NEXT TO 
-0.6138 ARE THEY LIKE 
-0.3671 AS FAR AS 
-1.0909 AS FAR DOWN 
-0.6138 AS HIGH AS 
-0.1910 AS IT CAN 
-0.9148 AS THE LEFT 
-0.9148 AS THE WALL 
-0.1910 AS THEY CAN 
-0.6138 AT BOTTOM EXECUTE 
-0.6138 AT ME MOVE 
-0.2724 AT THE BOTTOM 
-1.3920 AT THE SAME 
-1.3920 AT THE TOP 
-0.6138 AWAY GO ABOVE 
-1.0909 BACK MOVE BOTTOM 
-1.0909 BACK MOVE IT 
-1.0909 BACK MOVE THE 
-0.9148 BACK PUT OBJECT 
-0.9148 BACK PUT TOP 
-0.6138 BACK RUN STOP 
-0.6138 BACK THE RIGHT 
-0.1910 BACK TO THE 
-0.6138 BACKWARDS L SHAPED 
-0.6138 BAD STOP MOVE 
-0.1910 BALL A LITTLE 
-0.6138 BALL ADD A 
-0.6138 BALL AGAIN MOVE 
-0.4920 BALL AND PUT 
-1.2159 BALL AND THEN 
-1.2159 BALL AND TO 
-0.6138 BALL BUT BELOW 
-1.6552 BALL DOWN A 
-1.6552 BALL DOWN MOVE 
-0.4242 BALL DOWN RUN 
-0.9314 BALL DOWN SLIGHTLY 
-1.6552 BALL DOWN TWO 
-1.6552 BALL DOWN UNDO 
-1.3128 BALL EXECUTE OK 
-0.5889 BALL EXECUTE PUT 
-0.5889 BALL EXECUTE STOP 
-0.6138 BALL GET RID 
-0.0458 BALL GO STOP 
-0.6138 BALL HELP ME 
-0.6138 BALL HIT KAIYUH 
-0.1910 BALL JUST WAS 
-0.6138 BALL LIKE IN 
-0.9314 BALL MOVE IT 
-1.6552 BALL MOVE STOP 
-1.6552 BALL MOVE THAT 
-0.1963 BALL MOVE THE 
-0.6138 BALL NEAR THE 
-0.6138 BALL NOT THAT 
-0.6138 BALL OH FUDGE 
-0.8900 BALL OK LET'S 
-0.7274 BALL OK MOVE 
-1.6138 BALL OK PUT 
-1.6138 BALL OK SOLVE 
-0.7274 BALL OK STOP 
-0.0963 BALL ON THE 
-0.6138 BALL OVER TO 
-0.2724 BALL PLACE A 
-0.6681 BALL PLACE THE 
-0.6138 BALL PUT MAGNET 
-1.7599 BALL RUN PROGRAM 
-0.0669 BALL RUN STOP 
-1.7599 BALL RUN TO 
-0.6138 BALL SECOND MAGNET 
-0.9148 BALL SLIGHTLY BACK 
-0.9148 BALL SLIGHTLY DOWN 
-0.6138 BALL SMALL RED 
-0.6138 BALL SO IT'S 
-0.9148 BALL START START 
-0.9148 BALL START STOP 
-0.6138 BALL STOP MOVE 
-0.6138 BALL TAKE THE 
-0.6138 BALL THE SMALL 
-0.0235 BALL TO THE 
-1.8926 BALL TO UPPER 
-1.3920 BALL UP GO 
-1.3920 BALL UP HIGHER 
-1.3920 BALL UP RUN 
-0.5056 BALL UP SLIGHTLY 
-0.6138 BARRIERS THE MAGNET 
-0.6138 BASKET GO STOP 
-0.1910 BASKETS A LITTLE 
-0.6138 BASKETS MOVE THE 
-0.6138 BASKETS UP MOVE 
-0.6138 BEEN TRYING TO 
-0.6138 BELOW BLUE BALL 
-0.6138 BELOW DIRECTLY BELOW 
-0.6138 BELOW IT PULLS 
-0.6138 BELOW THAT TARGET 
-1.2517 BELOW THE BALL 
-1.0892 BELOW THE BLUE 
-1.9755 BELOW THE CENTER 
-1.9755 BELOW THE LARGE 
-1.9755 BELOW THE LEFT 
-1.2517 BELOW THE MAGNET 
-1.2517 BELOW THE MIDDLE 
-1.9755 BELOW THE RIGHT 
-0.5166 BELOW THE SMALL 
-1.9755 BELOW THE TARGET 
-1.2517 BELOW THE TOP 
-0.6138 BENEATH THE BLUE 
-0.6138 BETWEEN BINS GO 
-0.8736 BETWEEN THE BASKETS 
-1.7599 BETWEEN THE LEFT 
-1.7599 BETWEEN THE RIGHT 
-1.7599 BETWEEN THE TARGETS 
-0.2430 BETWEEN THE TWO 
-0.6138 BIG RED BALL 
-0.6138 BIN MOVE THE 
-0.6138 BIN SO THESE 
-0.6138 BINS GO STOP 
-0.9148 BIT A BIT 
-0.9148 BIT A LITTLE 
-0.9148 BIT AND DOWN 
-0.9148 BIT AND GO 
-0.5725 BIT DOWN GO 
-0.5725 BIT DOWN MOVE 
-1.4589 BIT DOWN STOP 
-2.0118 BIT GO BAD 
-1.2879 BIT GO GO 
-1.2879 BIT GO MOVE 
-1.2879 BIT GO OK 
-2.0118 BIT GO PLACE 
-0.1675 BIT GO STOP 
-0.6138 BIT MAYBE MOVE 
-0.6681 BIT MORE GO 
-1.3920 BIT MORE LESS 
-1.3920 BIT MORE MOVE 
-1.3920 BIT MORE STOP 
-1.3920 BIT MORE TO 
-1.7899 BIT MOVE ADD 
-1.0661 BIT MOVE IT 
-1.7899 BIT MOVE MIDDLE 
-1.7899 BIT MOVE MOVE 
-1.7899 BIT MOVE RIGHT 
-1.7899 BIT MOVE THAT 
-0.2730 BIT MOVE THE 
-0.6138 BIT OK MOVE 
-0.6138 BIT PLEASE MOVE 
-0.9148 BIT PUT NEW 
-0.9148 BIT PUT THE 
-1.3920 BIT RUN AND 
-0.1609 BIT RUN STOP 
-1.3128 BIT START OVER 
-1.3128 BIT START START 
-0.4264 BIT START STOP 
-0.9148 BIT STOP A 
-0.9148 BIT STOP MOVE 
-0.0235 BIT TO THE 
-0.9148 BIT UP AGAIN 
-0.9148 BIT UP GO 
-0.6138 BLOCKS MOVE THE 
-1.6824 BLUE BALL A 
-1.5198 BLUE BALL AND 
-0.8381 BLUE BALL DOWN 
-2.4062 BLUE BALL EXECUTE 
-1.6824 BLUE BALL GO 
-1.1752 BLUE BALL MOVE 
-1.0142 BLUE BALL OK 
-1.6824 BLUE BALL ON 
-1.6824 BLUE BALL PLACE 
-0.8381 BLUE BALL RUN 
-2.4062 BLUE BALL SECOND 
-2.4062 BLUE BALL SLIGHTLY 
-2.4062 BLUE BALL SO 
-1.6824 BLUE BALL START 
-2.4062 BLUE BALL THE 
-0.7132 BLUE BALL TO 
-1.5198 BLUE BALL UP 
-0.6138 BOO I THOUGHT 
-0.6138 BOO STOP MOVE 
-0.9148 BOTH MAGNETS AS 
-0.9148 BOTH MAGNETS DOWN 
-0.6138 BOTH THE RIGHT 
-0.6138 BOTTOM CENTER UM 
-0.6138 BOTTOM CORNER OK 
-0.6138 BOTTOM DIRECTLY BELOW 
-0.6138 BOTTOM EXECUTE MOVE 
-0.6138 BOTTOM GO STOP 
-0.6138 BOTTOM GOOD JOB 
-0.7931 BOTTOM LEFT CORNER 
-0.3973 BOTTOM LEFT MAGNET 
-1.5169 BOTTOM LEFT OBJECT 
-1.5169 BOTTOM LEFT OF 
-0.7404 BOTTOM MAGNET A 
-2.1323 BOTTOM MAGNET BACK 
-0.7404 BOTTOM MAGNET DOWN 
-2.1323 BOTTOM MAGNET FARTHER 
-1.4085 BOTTOM MAGNET GO 
-2.1323 BOTTOM MAGNET NINETY 
-2.1323 BOTTOM MAGNET THEN 
-0.4771 BOTTOM MAGNET TO 
-1.0128 BOTTOM MAGNET UP 
-0.6138 BOTTOM MAGNETS TO 
-0.6138 BOTTOM MIDDLE AND 
-0.1910 BOTTOM MOVE THE 
-1.6930 BOTTOM OBJECT AT 
-1.6930 BOTTOM OBJECT CENTER 
-1.6930 BOTTOM OBJECT DIRECTLY 
-0.9692 BOTTOM OBJECT DOWN 
-0.9692 BOTTOM OBJECT LEFT 
-1.6930 BOTTOM OBJECT RIGHT 
-0.5734 BOTTOM OBJECT UP 
-0.0458 BOTTOM OF THE 
-0.6138 BOTTOM ON THE 
-0.6138 BOTTOM PLACE MAGNET 
-1.5681 BOTTOM RIGHT HAND 
-0.1091 BOTTOM RIGHT MAGNET 
-1.5681 BOTTOM RIGHT START 
-0.6138 BOTTOM START STOP 
-0.6138 BOTTOM STOP MOVE 
-0.6138 BOTTOM THAT WAS 
-0.6138 BOTTOM THE MAGNET 
-0.6138 BOTTOM TWO MAGNETS 
-0.6138 BOTTOM WALL STOP 
-0.1910 BOWLING BALL EXECUTE 
-0.6138 BOXES RUN STOP 
-0.6138 BRACE REMOVE THE 
-0.1910 BRACE RUN STOP 
-0.6138 BRACE TO SLIGHTLY 
-0.6138 BROUGHT THEM INTO 
-0.6138 BUT AT THE 
-0.6138 BUT BELOW THE 
-0.6138 BUT DIRECTLY ABOVE 
-0.6138 BUT I JUST 
-0.6138 BUT NOT RIGHT 
-0.6138 BUT SAME HEIGHT 
-0.6138 BUT TO THE 
-1.0909 BY THE L 
-1.0909 BY THE RED 
-1.0909 BY THE RIGHT 
-1.2159 CAN GO GO 
-0.3295 CAN GO MOVE 
-0.6138 CAN I ONLY 
-0.6138 CAN YOU ROTATE 
-0.6138 CAN'T I DON'T 
-0.6138 CAN'T MAKE ONE 
-0.1910 CENTER BOTTOM OBJECT 
-0.1910 CENTER MAGNET RUN 
-0.1910 CENTER OF THE 
-0.6138 CENTER TARGET RUN 
-0.6138 CENTER UM OVER 
-1.0909 CENTER WALLS MOVE 
-1.0909 CENTER WALLS TO 
-1.0909 CENTER WALLS UP 
-0.6138 CENTIMETER ACTUALLY MOVE 
-0.6138 CENTIMETER AND TO 
-0.1910 CENTIMETER GO STOP 
-0.6138 CENTIMETER PUT THE 
-0.9148 CENTIMETER TO THE 
-0.9148 CENTIMETER TO YOUR 
-0.6138 CENTIMETERS GO STOP 
-0.6138 CENTIMETERS STOP STOP 
-0.6138 CLOCKWISE MOVE BOTH 
-0.2045 CLOSER TO THE 
-0.6138 COMES AND LET'S 
-0.6138 COMING AT ME 
-0.6138 CORNER ALRIGHT SOLVE 
-0.3671 CORNER AND MOVE 
-1.0909 CORNER AND PUT 
-0.6138 CORNER BLUE BALL 
-1.3128 CORNER DIRECTLY ABOVE 
-0.5889 CORNER DIRECTLY BELOW 
-0.5889 CORNER DIRECTLY TO 
-0.6138 CORNER DO I 
-0.1910 CORNER EXECUTE THE 
-1.0909 CORNER GO DRAT 
-1.0909 CORNER GO GO 
-1.0909 CORNER GO STOP 
-0.6138 CORNER IN THE 
-0.6138 CORNER IS IT 
-0.9148 CORNER MOVE BOTTOM 
-0.9148 CORNER MOVE THE 
-0.6138 CORNER NOW MOVE 
-0.1910 CORNER OF THE 
-0.4264 CORNER OK EXECUTE 
-1.3128 CORNER OK SOLVE 
-1.3128 CORNER OK TO 
-1.0909 CORNER OVER ONE 
-1.0909 CORNER OVER SO 
-1.0909 CORNER OVER TO 
-0.6138 CORNER PUT THE 
-0.6138 CORNER SO IT'S 
-0.6138 CORNER STOP OK 
-0.9148 CORNER THAT'S TO 
-0.9148 CORNER THAT'S UM 
-0.6138 CORNERS AND PUT 
-0.6138 DEGREES CLOCKWISE MOVE 
-0.6138 DELETE STOP DELETE 
-0.6138 DELETE THE TOP 
-0.6138 DIAGONAL TO THE 
-0.6138 DIRECTION OR DO 
-0.0580 DIRECTLY ABOVE THE 
-1.3920 DIRECTLY BELOW IT 
-1.3920 DIRECTLY BELOW THAT 
-0.2724 DIRECTLY BELOW THE 
-0.6138 DIRECTLY DOWN OR 
-0.6138 DIRECTLY STOP BETWEEN 
-0.0669 DIRECTLY TO THE 
-1.0909 DIRECTLY UNDER OBJECT 
-0.3671 DIRECTLY UNDER THE 
-1.0909 DO I EXECUTE 
-1.0909 DO I GO 
-1.0909 DO I START 
-0.6138 DO THEY WORK 
-0.6138 DOES EXECUTE THE 
-0.6138 DOING THAT MOVE 
-0.6138 DON'T THINK THAT 
-2.1052 DOWN A ABOUT 
-2.1052 DOWN A CENTIMETER 
-0.2361 DOWN A LITTLE 
-1.3813 DOWN A QUARTER 
-0.5883 DOWN A TINY 
-2.1052 DOWN A VERY 
-0.6138 DOWN AGAINST THE 
-0.2045 DOWN AN INCH 
-1.5169 DOWN AND SLIGHTLY 
-0.0580 DOWN AND TO 
-0.6138 DOWN AS THEY 
-0.6138 DOWN AT THE 
-0.6138 DOWN BACKWARDS L 
-0.6138 DOWN DOWN MOVE 
-1.0909 DOWN EXECUTE MOVE 
-1.0909 DOWN EXECUTE PUT 
-1.0909 DOWN EXECUTE PUZZLE 
-0.6138 DOWN FIVE FEET 
-0.0580 DOWN GO STOP 
-0.6138 DOWN HALF AN 
-0.6138 DOWN IN THE 
-0.6138 DOWN JUST A 
-0.6138 DOWN LESS BOO 
-0.6138 DOWN MORE MOVE 
-1.9360 DOWN MOVE IT 
-1.2122 DOWN MOVE MIDDLE 
-1.2122 DOWN MOVE RIGHT 
-0.1461 DOWN MOVE THE 
-1.9360 DOWN MOVE UP 
-0.6138 DOWN OK I 
-0.6138 DOWN ONE INCH 
-0.6138 DOWN OR IS 
-0.9148 DOWN PUT MAGNET 
-0.9148 DOWN PUT MOVE 
-0.6138 DOWN QUARTER OF 
-0.0818 DOWN RUN STOP 
-0.3671 DOWN SLIGHTLY RUN 
-1.0909 DOWN SLIGHTLY STOP 
-0.5889 DOWN SO IT 
-1.3128 DOWN SO IT'S 
-1.3128 DOWN SO THAT 
-1.3128 DOWN SO THEY 
-0.6138 DOWN SOME GO 
-0.6138 DOWN START STOP 
-0.3295 DOWN STOP MOVE 
-1.2159 DOWN STOP START 
-1.0909 DOWN TWO CENTIMETERS 
-0.3671 DOWN TWO INCHES 
-0.6138 DOWN UNDO LAST 
-0.6138 DOWN WHOA UNDO 
-0.9148 DRAT GO GO 
-0.9148 DRAT GO STOP 
-0.6138 DRAT TAKE OUT 
-0.6138 EACH OTHER ON 
-0.6138 EACH TARGET STOP 
-0.0580 EDGE OF THE 
-0.6138 EIGHT INCHES UNDER 
-0.6138 EIGHTH OF AN 
-0.6138 ELEVEN LOAD PUZZLE 
-0.6138 EVEN CLOSER TO 
-0.6138 EVIL PEOPLE ARE 
-0.6138 EXCELLENT STOP START 
-0.6138 EXECUTE EXECUTE STOP 
-0.6138 EXECUTE IT ONCE 
-0.6138 EXECUTE MIDDLE OBJECT 
-0.4242 EXECUTE MOVE BOTTOM 
-0.7688 EXECUTE MOVE MIDDLE 
-1.6552 EXECUTE MOVE ONE 
-1.6552 EXECUTE MOVE RIGHT 
-1.6552 EXECUTE MOVE THE 
-0.9148 EXECUTE OK SO 
-0.9148 EXECUTE OK STOP 
-0.6138 EXECUTE PLACE THE 
-1.3128 EXECUTE PUT BOTTOM 
-1.3128 EXECUTE PUT LEFT 
-0.5889 EXECUTE PUT OBJECT 
-1.3128 EXECUTE PUT RIGHT 
-0.1910 EXECUTE PUZZLE OK 
-0.6138 EXECUTE REMOVE MIDDLE 
-2.1052 EXECUTE STOP EXECUTE 
-0.1903 EXECUTE STOP MOVE 
-2.1052 EXECUTE STOP NO 
-2.1052 EXECUTE STOP OH 
-2.1052 EXECUTE STOP OK 
-0.9856 EXECUTE STOP PUT 
-2.1052 EXECUTE STOP STOP 
-2.1052 EXECUTE STOP YEAH 
-2.1052 EXECUTE STOP YOU 
-0.6138 EXECUTE STUPID RED 
-0.0235 EXECUTE THE PUZZLE 
-0.9148 FAR AS IT 
-0.9148 FAR AS THEY 
-0.6138 FAR DOWN AS 
-0.9148 FAR RIGHT BOTTOM 
-0.9148 FAR RIGHT TARGET 
-0.6138 FARTHER GO STOP 
-0.6138 FARTHER TO THE 
-0.6138 FEET MOVE THE 
-0.6138 FIELD MOVE THE 
-0.6138 FIGURE OUT HOW 
-0.6138 FIND OUT THE 
-0.6138 FINISH SESSION NEXT 
-1.8179 FIRST MAGNET A 
-1.8179 FIRST MAGNET BELOW 
-1.0941 FIRST MAGNET DOWN 
-1.8179 FIRST MAGNET MOVE 
-1.8179 FIRST MAGNET OK 
-0.9315 FIRST MAGNET SO 
-1.8179 FIRST MAGNET TO 
-1.8179 FIRST MAGNET UNDER 
-1.8179 FIRST MAGNET UNDERNEATH 
-0.6984 FIRST MAGNET UP 
-0.6138 FIRST OBJECT MOVE 
-0.6138 FIVE FEET MOVE 
-0.6138 FOR ME TO 
-0.6138 FORM A STRAIGHT 
-0.6138 FOUR BOXES RUN 
-0.6138 FOUR INCHES RIGHT 
-1.0909 FROM THE BLUE 
-1.0909 FROM THE BOTTOM 
-1.0909 FROM THE RIGHT 
-0.6138 FUDGE STOP STOP 
-0.6138 FURTHER TO THE 
-0.6138 GAME FINISH SESSION 
-0.6138 GET A NEW 
-0.6138 GET IT BUT 
-0.0378 GET RID OF 
-0.6138 GET THE HANG 
-0.6138 GETTING NO IMAGE 
-0.9148 GIVE UP GO 
-0.9148 GIVE UP ON 
-0.6138 GO ABOVE THE 
-0.6138 GO BAD STOP 
-0.6138 GO BOO STOP 
-0.6138 GO DELETE STOP 
-0.3671 GO DRAT GO 
-1.0909 GO DRAT TAKE 
-0.6138 GO GET RID 
-1.9562 GO GO DRAT 
-0.5643 GO GO GO 
-1.9562 GO GO MOVE 
-1.9562 GO GO NEXT 
-1.9562 GO GO PLEASE 
-0.2632 GO GO STOP 
-0.6138 GO HELLO STOP 
-0.6138 GO LESS GO 
-1.7899 GO MOVE IT 
-1.0661 GO MOVE LEFT 
-1.7899 GO MOVE RIGHT 
-0.1347 GO MOVE THE 
-0.6138 GO NEXT PUZZLE 
-1.3920 GO OK OK 
-0.1609 GO OK STOP 
-0.2045 GO ON TO 
-0.9148 GO PLACE A 
-0.9148 GO PLACE THE 
-0.6138 GO PLEASE STOP 
-0.6138 GO PUT NEW 
-0.6138 GO PUZZLE SOLVED 
-0.6138 GO RESTART STOP 
-0.6138 GO SO MOVE 
-2.7244 GO STOP ALRIGHT 
-2.7244 GO STOP DOING 
-1.3324 GO STOP GET 
-1.2655 GO STOP GO 
-2.7244 GO STOP I 
-2.7244 GO STOP INTERESTING 
-2.7244 GO STOP LOAD 
-0.2075 GO STOP MOVE 
-2.7244 GO STOP NEXT 
-2.7244 GO STOP OK 
-2.7244 GO STOP OKAY 
-2.7244 GO STOP ON 
-1.8380 GO STOP PLACE 
-1.3324 GO STOP PUT 
-2.7244 GO STOP REMOVE 
-2.7244 GO STOP RESTART 
-2.7244 GO STOP ROTATE 
-2.7244 GO STOP SO 
-2.0006 GO STOP START 
-1.1106 GO STOP STOP 
-2.7244 GO STOP THE 
-2.7244 GO STOP UP 
-0.6138 GO THAT'S NOT 
-0.6138 GO THE TOP 
-0.6138 GO TURN THE 
-0.6138 GO UP AGAIN 
-0.6138 GO WAIT WAIT 
-0.6138 GOAL IN THIS 
-0.9148 GOAL MOVE IT 
-0.9148 GOAL MOVE THE 
-0.6138 GOES NEXT TO 
-0.6138 GOES THROUGH THE 
-0.1910 GOOD GO STOP 
-0.9148 GOOD JOB GO 
-0.9148 GOOD JOB STOP 
-0.2045 HALF A CENTIMETER 
-0.0322 HALF AN INCH 
-0.9148 HALF WAY BETWEEN 
-0.9148 HALF WAY TO 
-0.6138 HALFWAY GO STOP 
-0.6138 HALFWAY MOVE THAT 
-0.6138 HALFWAY TO THE 
-1.9755 HAND CORNER ALRIGHT 
-1.0892 HAND CORNER AND 
-0.7445 HAND CORNER DIRECTLY 
-1.2517 HAND CORNER EXECUTE 
-1.9755 HAND CORNER IN 
-1.9755 HAND CORNER IS 
-1.9755 HAND CORNER NOW 
-1.0892 HAND CORNER OK 
-1.0892 HAND CORNER OVER 
-1.9755 HAND CORNER SO 
-1.9755 HAND CORNER STOP 
-1.9755 HAND CORNER THAT'S 
-0.6138 HANG OF IT 
-0.6138 HAVE NO SCREEN 
-0.9148 HAVE TO GET 
-0.9148 HAVE TO HIT 
-0.6138 HEAD MOVE GO 
-0.6138 HEIGHT MOVE THE 
-0.6138 HEIGHT OF THE 
-1.0909 HELLO MOVE SOMETHING 
-0.3671 HELLO MOVE THE 
-0.6138 HELLO STOP MOVE 
-0.9148 HELP ME GO 
-0.9148 HELP ME I 
-0.6138 HIGH AS IT 
-0.6138 HIGHER GO STOP 
-0.6138 HIGHER MOVE IT 
-0.6138 HIGHER RUN STOP 
-0.6138 HIGHEST MAGNET DOWN 
-0.6138 HIGHEST UP AND 
-0.6138 HIT KAIYUH OVER 
-0.6138 HIT THE TARGET 
-0.6138 HOLE BETWEEN THE 
-0.1910 HOW DO I 
-0.6138 HOW TO GET 
-0.6138 I AM SORRY 
-0.6138 I DON'T THINK 
-0.6138 I EXECUTE STOP 
-0.1910 I GIVE UP 
-0.6138 I GO ON 
-0.9148 I HAVE NO 
-0.9148 I HAVE TO 
-0.9148 I JUST CAN'T 
-0.9148 I JUST HAVE 
-0.6138 I MEAN OK 
-0.6138 I ONLY EXECUTE 
-0.6138 I START SECOND 
-0.6138 I THOUGHT YOU 
-0.6138 I'M GETTING NO 
-0.6138 I'VE BEEN TRYING 
-0.6138 IMAGE HELP ME 
-0.1910 IMMEDIATELY TO THE 
-0.1910 IN BETWEEN THE 
-0.9148 IN MIDDLE MOVE 
-0.9148 IN MIDDLE PUT 
-0.8709 IN THE BOTTOM 
-2.3298 IN THE FAR 
-2.3298 IN THE HOLE 
-2.3298 IN THE LEFT 
-0.6746 IN THE LOWER 
-0.7618 IN THE MIDDLE 
-1.6060 IN THE SAME 
-2.3298 IN THE THE 
-0.6746 IN THE TOP 
-0.8129 IN THE UPPER 
-0.6138 IN THIS MAKE 
-0.6138 INCH ACTUALLY MOVE 
-1.3128 INCH AND THEN 
-0.1932 INCH AND TO 
-0.9579 INCH EXECUTE MOVE 
-1.8443 INCH EXECUTE OK 
-0.1165 INCH EXECUTE STOP 
-1.3920 INCH GO GO 
-1.3920 INCH GO OK 
-0.2724 INCH GO STOP 
-0.6138 INCH HELLO MOVE 
-0.6138 INCH LEFT MOVE 
-1.3128 INCH MOVE BOTTOM 
-1.3128 INCH MOVE IT 
-1.3128 INCH MOVE LEFT 
-1.3128 INCH MOVE MIDDLE 
-1.3128 INCH MOVE RIGHT 
-1.0909 INCH OK MOVE 
-1.0909 INCH OK PUT 
-1.0909 INCH OK UNDO 
-0.6138 INCH SO HOW 
-0.6138 INCH STOP OKAY 
-0.6138 INCH TAKE EXECUTE 
-0.2045 INCH TO THE 
-0.6138 INCH UP GO 
-0.6138 INCHES EXECUTE STOP 
-0.1910 INCHES MOVE IT 
-0.6138 INCHES RIGHT OF 
-0.1910 INCHES TO THE 
-0.6138 INCHES UNDER THE 
-0.6138 INCHES WOW GO 
-0.6138 INSIDE OF THE 
-0.6138 INTERESTING PLACE A 
-0.6138 INTO THE OTHER 
-1.2159 IS ABOVE MOVE 
-0.3295 IS ABOVE THE 
-0.6138 IS AND PUT 
-0.9148 IS DIRECTLY STOP 
-0.9148 IS DIRECTLY TO 
-0.6138 IS HALF WAY 
-0.6138 IS HIGHEST UP 
-0.1910 IS IN BETWEEN 
-0.9148 IS IT IS 
-0.9148 IS IT MORE 
-0.6138 IS ON TOP 
-0.6138 IS PLACE A 
-0.6138 IS THAT FOR 
-0.6138 IS THIS MOVE 
-0.0963 IS TO THE 
-0.6138 IS TOUCHING THE 
-0.0963 IS UNDERNEATH THE 
-0.3295 IT A LITTLE 
-1.2159 IT A LOT 
-0.6138 IT ACTUALLY DOES 
-0.6138 IT BACK RUN 
-0.6138 IT BUT I 
-0.1910 IT CAN GO 
-0.9148 IT DIRECTLY ABOVE 
-0.9148 IT DIRECTLY DOWN 
-0.7351 IT DOWN A 
-1.4589 IT DOWN MORE 
-1.4589 IT DOWN MOVE 
-1.4589 IT DOWN SO 
-1.4589 IT DOWN SOME 
-1.4589 IT DOWN TWO 
-0.6138 IT GO STOP 
-0.6138 IT GOOD GO 
-0.1910 IT IN THE 
-0.8736 IT IS ABOVE 
-1.7599 IT IS AND 
-1.0361 IT IS DIRECTLY 
-1.7599 IT IS HALF 
-1.0361 IT IS IN 
-1.7599 IT IS ON 
-1.7599 IT IS TO 
-0.8736 IT IS UNDERNEATH 
-0.6138 IT JUST GOES 
-0.6138 IT MORE THAT 
-0.1910 IT MOVE THE 
-0.2045 IT NEXT TO 
-0.6138 IT ON THE 
-0.6138 IT ONCE BOWLING 
-0.9148 IT PULLS IT 
-0.9148 IT PULLS MAGNET 
-0.6138 IT RUN STOP 
-0.6138 IT SO IT'S 
-0.0223 IT TO THE 
-0.0580 IT TOUCHES THE 
-0.8442 IT UP A 
-0.8442 IT UP ABOUT 
-1.5681 IT UP AN 
-1.5681 IT UP AND 
-1.5681 IT UP GO 
-1.5681 IT UP HALF 
-1.5681 IT UP MORE 
-0.6138 IT WHAT IT 
-0.1910 IT'S AT THE 
-0.5725 IT'S DIRECTLY ABOVE 
-1.4589 IT'S DIRECTLY BELOW 
-0.5725 IT'S DIRECTLY TO 
-0.1910 IT'S IN THE 
-0.9148 IT'S JUST A 
-0.9148 IT'S JUST ABOVE 
-0.6138 IT'S LEVEL WITH 
-0.6138 IT'S NOT MOVING 
-0.6138 IT'S ON THE 
-0.6138 IT'S RIGHT UNDER 
-0.2045 IT'S TOUCHING THE 
-0.6138 IT'S UNDER THE 
-0.6138 IT'S UP LEDGE 
-0.6138 JOB GO STOP 
-0.6138 JOB STOP GO 
-0.0580 JUST A LITTLE 
-1.5169 JUST A TINY 
-0.1910 JUST ABOVE THE 
-0.6138 JUST BELOW THE 
-0.6138 JUST CAN'T I 
-0.6138 JUST GOES NEXT 
-0.6138 JUST HAVE TO 
-0.6138 JUST MOVED TO 
-0.6138 JUST SHUT OFF 
-0.9148 JUST WAS NO 
-0.9148 JUST WAS STOP 
-0.6138 KAIYUH OVER THE 
-0.6138 KEEP MOVE A 
-0.6138 L SHAPE LEFT 
-0.6138 L SHAPED WALL 
-0.0669 LARGE BLUE BALL 
-0.6138 LARGE RIGHT BALL 
-0.9148 LAST ACTION MOVE 
-0.9148 LAST ACTION REMOVE 
-0.5889 LAST MAGNET A 
-1.3128 LAST MAGNET BACK 
-1.3128 LAST MAGNET IN 
-1.3128 LAST MAGNET MOVE 
-0.6138 LAST OBJECT ON 
-0.6138 LEDGE OK MOVE 
-0.1576 LEFT A LITTLE 
-0.5836 LEFT A QUARTER 
-1.9755 LEFT A TINY 
-0.6138 LEFT ACTUALLY UNDO 
-0.6138 LEFT ADD THE 
-0.6138 LEFT AGAIN MOVE 
-0.6138 LEFT AN INCH 
-0.9148 LEFT AND MOVE 
-0.9148 LEFT AND UPPER 
-0.6138 LEFT ANOTHER INCH 
-0.6138 LEFT AS FAR 
-0.6138 LEFT BALL OK 
-0.6138 LEFT BASKET GO 
-0.9148 LEFT BIN MOVE 
-0.9148 LEFT BIN SO 
-0.6138 LEFT BRACE REMOVE 
-1.5681 LEFT CORNER BLUE 
-1.5681 LEFT CORNER DO 
-0.8442 LEFT CORNER GO 
-0.8442 LEFT CORNER MOVE 
-1.5681 LEFT CORNER OF 
-1.5681 LEFT CORNER OK 
-1.5681 LEFT CORNER THAT'S 
-1.0909 LEFT DOWN A 
-0.3671 LEFT DOWN MOVE 
-0.2045 LEFT EDGE OF 
-1.0909 LEFT EXECUTE MOVE 
-0.3671 LEFT EXECUTE PUT 
-1.8691 LEFT GO GO 
-1.8691 LEFT GO MOVE 
-1.8691 LEFT GO PUT 
-1.8691 LEFT GO PUZZLE 
-1.8691 LEFT GO SO 
-0.1413 LEFT GO STOP 
-0.4920 LEFT HALF A 
-0.4920 LEFT HALF AN 
-0.0322 LEFT HAND CORNER 
-0.1910 LEFT JUST A 
-1.6303 LEFT MAGNET A 
-2.3542 LEFT MAGNET ABOVE 
-1.6303 LEFT MAGNET ALL 
-2.3542 LEFT MAGNET BELOW 
-2.3542 LEFT MAGNET BUT 
-0.7404 LEFT MAGNET DOWN 
-2.3542 LEFT MAGNET FURTHER 
-1.4678 LEFT MAGNET GO 
-2.3542 LEFT MAGNET MOVE 
-2.3542 LEFT MAGNET PLACE 
-1.6303 LEFT MAGNET RIGHT 
-2.3542 LEFT MAGNET ROTATE 
-1.4678 LEFT MAGNET SO 
-2.3542 LEFT MAGNET START 
-1.6303 LEFT MAGNET STOP 
-2.3542 LEFT MAGNET TELL 
-0.5362 LEFT MAGNET TO 
-0.9622 LEFT MAGNET UP 
-0.7351 LEFT MAGNETS DOWN 
-1.4589 LEFT MAGNETS PLACE 
-0.3393 LEFT MAGNETS UP 
-0.6138 LEFT MORE RUN 
-1.9562 LEFT MOST BRACE 
-1.9562 LEFT MOST CORNER 
-0.1383 LEFT MOST MAGNET 
-1.9562 LEFT MOST TARGET 
-1.0698 LEFT MOST WALL 
-1.1076 LEFT MOVE IT 
-1.9940 LEFT MOVE LEFT 
-0.0792 LEFT MOVE THE 
-0.6138 LEFT NEXT TO 
-0.6138 LEFT NO MOVE 
-1.7278 LEFT OBJECT A 
-1.0039 LEFT OBJECT BACK 
-0.8414 LEFT OBJECT LEFT 
-1.7278 LEFT OBJECT NEXT 
-0.8414 LEFT OBJECT RIGHT 
-0.8414 LEFT OBJECT UP 
-2.1052 LEFT OF BLUE 
-2.1052 LEFT OF BOWLING 
-2.1052 LEFT OF MOVE 
-0.0442 LEFT OF THE 
-0.4920 LEFT OK EXECUTE 
-1.2159 LEFT OK SOLVE 
-1.2159 LEFT OK STOP 
-0.6138 LEFT RESET START 
-0.6138 LEFT RUN STOP 
-0.6138 LEFT SLIGHTLY RUN 
-0.2724 LEFT SO IT 
-1.3920 LEFT SO IT'S 
-1.3920 LEFT SO THAT 
-0.6138 LEFT STACK OF 
-0.6681 LEFT START MOVE 
-0.2724 LEFT START STOP 
-1.3128 LEFT STOP GO 
-1.3128 LEFT STOP MOVE 
-1.3128 LEFT STOP PLACE 
-0.5889 LEFT STOP START 
-0.6138 LEFT SUCH THAT 
-0.9148 LEFT TARGET GO 
-0.9148 LEFT TARGET MOVE 
-0.6138 LEFT TARGETS MOVE 
-0.6138 LEFT TWO INCHES 
-0.6138 LEFT UNDO MOVE 
-1.0909 LEFT WALL AND 
-1.0909 LEFT WALL AS 
-1.0909 LEFT WALL MOVE 
-0.6138 LENGTH TO THE 
-0.6138 LESS BOO I 
-1.2159 LESS GO MOVE 
-0.3295 LESS GO STOP 
-0.6138 LESS GOOD GO 
-0.6138 LET'S EXECUTE THE 
-0.6138 LET'S MAKE THAT 
-0.3671 LET'S MOVE THAT 
-1.0909 LET'S MOVE THE 
-0.3671 LET'S PUT A 
-1.0909 LET'S PUT THE 
-0.9148 LET'S SEE CAN 
-0.9148 LET'S SEE IN 
-0.1910 LEVEL AS THE 
-0.6138 LEVEL WITH THE 
-0.6138 LIFE IS PLACE 
-0.2045 LIKE IN THE 
-0.6138 LIKE ONLY THIS 
-0.6138 LINE BUT AT 
-0.6138 LINE OK EXECUTE 
-0.6138 LITTLE ABOVE MOVE 
-0.6138 LITTLE AND A 
-1.8038 LITTLE BIT A 
-1.8038 LITTLE BIT AND 
-1.0687 LITTLE BIT DOWN 
-0.7377 LITTLE BIT GO 
-2.5276 LITTLE BIT MAYBE 
-1.2966 LITTLE BIT MORE 
-0.7999 LITTLE BIT MOVE 
-2.5276 LITTLE BIT OK 
-2.5276 LITTLE BIT PLEASE 
-1.8038 LITTLE BIT PUT 
-1.1357 LITTLE BIT RUN 
-1.2966 LITTLE BIT START 
-1.8038 LITTLE BIT STOP 
-0.6585 LITTLE BIT TO 
-1.8038 LITTLE BIT UP 
-1.5169 LITTLE EXECUTE EXECUTE 
-1.5169 LITTLE EXECUTE MIDDLE 
-0.1249 LITTLE EXECUTE STOP 
-0.6138 LITTLE GAME FINISH 
-0.6138 LITTLE HIGHER RUN 
-0.6138 LITTLE LEFT OK 
-0.2045 LITTLE LESS GO 
-0.6138 LITTLE LITTLE BIT 
-0.7351 LITTLE MORE GO 
-1.4589 LITTLE MORE OK 
-1.4589 LITTLE MORE PUT 
-0.7351 LITTLE MORE RUN 
-1.4589 LITTLE MORE UP 
-0.4920 LITTLE MOVE LEFT 
-0.4920 LITTLE MOVE MIDDLE 
-0.6138 LITTLE PLACE A 
-0.6138 LITTLE RED BALL 
-0.6138 LITTLE RIGHT EXECUTE 
-0.9148 LITTLE STOP GO 
-0.9148 LITTLE STOP MOVE 
-0.1910 LITTLE TO THE 
-0.6138 LITTLE VERY LITTLE 
-0.6138 LOAD NEXT PUZZLE 
-0.9148 LOAD PUZZLE GOOD 
-0.9148 LOAD PUZZLE MOVE 
-0.9148 LOT NO MOVE 
-0.9148 LOT NO UNDO 
-0.6138 LOT TO THE 
-0.6138 LOW RUN STOP 
-0.0512 LOWER LEFT HAND 
-0.6138 LOWER MAGNETS UP 
-0.0963 LOWER RIGHT HAND 
-1.2159 LOWEST MAGNET RUN 
-0.3295 LOWEST MAGNET TO 
-2.0288 MAGNET A CENTIMETER 
-0.0928 MAGNET A LITTLE 
-2.0288 MAGNET A LOT 
-1.1424 MAGNET A VERY 
-1.8926 MAGNET ABOVE AND 
-1.8926 MAGNET ABOVE MOVE 
-0.0483 MAGNET ABOVE THE 
-0.0669 MAGNET ALL THE 
-0.6138 MAGNET ALREADY ON 
-0.6138 MAGNET AN INCH 
-0.3671 MAGNET AND PUT 
-1.0909 MAGNET AND THEN 
-0.6138 MAGNET AS HIGH 
-0.6138 MAGNET AWAY GO 
-0.3671 MAGNET BACK MOVE 
-1.0909 MAGNET BACK TO 
-1.7599 MAGNET BELOW BLUE 
-0.0322 MAGNET BELOW THE 
-0.6138 MAGNET BENEATH THE 
-1.5169 MAGNET BETWEEN BINS 
-0.0580 MAGNET BETWEEN THE 
-0.6138 MAGNET BUT TO 
-0.2045 MAGNET BY THE 
-0.1910 MAGNET CLOSER TO 
-1.0909 MAGNET DIRECTLY ABOVE 
-0.3671 MAGNET DIRECTLY UNDER 
-0.4523 MAGNET DOWN A 
-2.3214 MAGNET DOWN AGAINST 
-1.5975 MAGNET DOWN AN 
-0.8625 MAGNET DOWN AND 
-1.5975 MAGNET DOWN GO 
-2.3214 MAGNET DOWN IN 
-2.3214 MAGNET DOWN LESS 
-0.6662 MAGNET DOWN MOVE 
-2.3214 MAGNET DOWN PUT 
-2.3214 MAGNET DOWN SLIGHTLY 
-1.5975 MAGNET DOWN SO 
-1.5975 MAGNET DOWN STOP 
-2.3214 MAGNET DOWN TWO 
-2.3214 MAGNET DOWN WHOA 
-0.6138 MAGNET EVEN CLOSER 
-0.9148 MAGNET EXECUTE PLACE 
-0.9148 MAGNET EXECUTE STOP 
-0.6138 MAGNET FARTHER TO 
-0.1910 MAGNET FROM THE 
-0.6138 MAGNET FURTHER TO 
-1.8179 MAGNET GO DELETE 
-1.0941 MAGNET GO GO 
-1.0941 MAGNET GO MOVE 
-0.1627 MAGNET GO STOP 
-0.6138 MAGNET GOES THROUGH 
-0.9148 MAGNET HALF A 
-0.9148 MAGNET HALF AN 
-0.6138 MAGNET HALFWAY TO 
-0.6138 MAGNET HELLO MOVE 
-0.6138 MAGNET HIGHER GO 
-0.0134 MAGNET IN THE 
-0.6138 MAGNET IS TOUCHING 
-1.2159 MAGNET LEFT A 
-1.2159 MAGNET LEFT MOVE 
-0.4920 MAGNET LEFT START 
-1.6552 MAGNET MOVE MAGNET 
-0.0414 MAGNET MOVE THE 
-0.6138 MAGNET MOVES FROM 
-0.2045 MAGNET NEAR THE 
-0.0818 MAGNET NEXT TO 
-0.6138 MAGNET NINETY DEGREES 
-0.6138 MAGNET OH OK 
-1.3128 MAGNET OK EXECUTE 
-1.3128 MAGNET OK GO 
-1.3128 MAGNET OK NEAR 
-1.3128 MAGNET OK PUT 
-1.3128 MAGNET OK STOP 
-1.7278 MAGNET ON MOVE 
-0.2109 MAGNET ON THE 
-0.6082 MAGNET ON TOP 
-0.3671 MAGNET PLACE A 
-1.0909 MAGNET PLACE THE 
-0.6138 MAGNET PUT IT 
-0.3671 MAGNET RIGHT AND 
-1.0909 MAGNET RIGHT NEXT 
-0.6138 MAGNET ROTATE THE 
-1.3128 MAGNET RUN IMMEDIATELY 
-0.4264 MAGNET RUN STOP 
-1.3128 MAGNET RUN THE 
-0.3010 MAGNET SO IT 
-0.7495 MAGNET SO IT'S 
-0.6381 MAGNET SO THAT 
-1.2159 MAGNET START EXCELLENT 
-0.3295 MAGNET START STOP 
-1.0909 MAGNET STOP MOVE 
-1.0909 MAGNET STOP THE 
-1.0909 MAGNET STOP TWO 
-0.6138 MAGNET SUCH THAT 
-0.6138 MAGNET TELL ME 
-1.5169 MAGNET THAT COMES 
-0.1249 MAGNET THAT IS 
-1.5169 MAGNET THAT WAS 
-1.0062 MAGNET THAT'S ABOVE 
-1.1687 MAGNET THAT'S BELOW 
-1.8926 MAGNET THAT'S DIRECTLY 
-1.8926 MAGNET THAT'S DOWN 
-1.1687 MAGNET THAT'S IN 
-1.8926 MAGNET THAT'S ON 
-1.0062 MAGNET THAT'S RIGHT 
-0.7730 MAGNET THAT'S TO 
-1.1687 MAGNET THAT'S UNDER 
-0.6138 MAGNET THEN MOVE 
-2.5915 MAGNET TO BELOW 
-2.5915 MAGNET TO BETWEEN 
-2.5915 MAGNET TO IMMEDIATELY 
-2.5915 MAGNET TO MOVE 
-0.0332 MAGNET TO THE 
-2.5915 MAGNET TO TO 
-1.8677 MAGNET TO WHERE 
-1.5681 MAGNET UNDER EACH 
-1.5681 MAGNET UNDER SMALL 
-0.1091 MAGNET UNDER THE 
-0.6138 MAGNET UNDERNEATH LET'S 
-0.4228 MAGNET UP A 
-2.2670 MAGNET UP AN 
-1.1475 MAGNET UP AND 
-1.0360 MAGNET UP GO 
-2.2670 MAGNET UP HALF 
-2.2670 MAGNET UP HALFWAY 
-1.5432 MAGNET UP JUST 
-1.0360 MAGNET UP MOVE 
-2.2670 MAGNET UP NO 
-1.5432 MAGNET UP RUN 
-2.2670 MAGNET UP SO 
-2.2670 MAGNET UP SOME 
-1.1475 MAGNET UP TO 
-0.6138 MAGNETS AGAIN PLACE 
-0.6138 MAGNETS AS FAR 
-1.3128 MAGNETS DOWN A 
-1.3128 MAGNETS DOWN FIVE 
-1.3128 MAGNETS DOWN JUST 
-1.3128 MAGNETS DOWN OK 
-1.3128 MAGNETS DOWN SO 
-0.6138 MAGNETS IN THE 
-0.6138 MAGNETS MOVE THE 
-0.6138 MAGNETS OK STOP 
-0.6138 MAGNETS ONE ON 
-0.6138 MAGNETS OR THE 
-0.1910 MAGNETS PLACE A 
-0.6138 MAGNETS PUT THAT 
-0.6138 MAGNETS STOP GET 
-0.6138 MAGNETS THAT ARE 
-0.0963 MAGNETS TO THE 
-0.6681 MAGNETS UP A 
-1.3920 MAGNETS UP AN 
-1.3920 MAGNETS UP HALF 
-1.3920 MAGNETS UP HALFWAY 
-1.3920 MAGNETS UP TWO 
-0.6138 MAGNETS UPSIDE DOWN 
-0.6138 MAKE ONE OF 
-0.6138 MAKE THAT MAGNET 
-0.6138 MAKE THE PINK 
-0.6138 MAYBE MOVE IT 
-0.6138 ME GO STOP 
-0.6138 ME I HAVE 
-0.6138 ME MOVE THE 
-0.6138 ME TO FIND 
-0.6138 ME WHAT THE 
-0.6138 MEAN OK KEEP 
-0.6138 MEANING OF LIFE 
-0.6138 MIDDLE 'TILL THEY 
-0.6138 MIDDLE ALL THE 
-0.2045 MIDDLE AND PUT 
-0.6138 MIDDLE AT THE 
-0.6138 MIDDLE CENTER BOTTOM 
-0.6138 MIDDLE GOAL MOVE 
-0.9391 MIDDLE MAGNET A 
-2.1701 MIDDLE MAGNET ALL 
-1.0505 MIDDLE MAGNET DOWN 
-2.1701 MIDDLE MAGNET GO 
-2.1701 MIDDLE MAGNET HIGHER 
-1.2837 MIDDLE MAGNET LEFT 
-1.2837 MIDDLE MAGNET SO 
-0.5149 MIDDLE MAGNET TO 
-1.4463 MIDDLE MAGNET UNDER 
-0.9391 MIDDLE MAGNET UP 
-0.6138 MIDDLE MAGNETS TO 
-0.9148 MIDDLE MOVE RIGHT 
-0.9148 MIDDLE MOVE THE 
-0.6138 MIDDLE NO MOVE 
-1.9562 MIDDLE OBJECT DIAGONAL 
-0.4973 MIDDLE OBJECT DOWN 
-1.9562 MIDDLE OBJECT EXECUTE 
-0.7252 MIDDLE OBJECT LEFT 
-0.8367 MIDDLE OBJECT RIGHT 
-0.8367 MIDDLE OBJECT UP 
-0.0669 MIDDLE OF THE 
-0.9148 MIDDLE OK EXECUTE 
-0.9148 MIDDLE OK SOLVE 
-0.6138 MIDDLE PUT RIGHT 
-0.6138 MIDDLE SO THE 
-1.3128 MIDDLE TARGET BUT 
-1.3128 MIDDLE TARGET MAGNET 
-1.3128 MIDDLE TARGET MOVE 
-1.3128 MIDDLE TARGET ON 
-1.3128 MIDDLE TARGET TO 
-0.6138 MONITOR JUST SHUT 
-1.2159 MORE GO GO 
-1.2159 MORE GO OK 
-0.4920 MORE GO STOP 
-0.6138 MORE LESS GOOD 
-1.0909 MORE MOVE IT 
-0.3671 MORE MOVE THE 
-0.6138 MORE OK AND 
-0.6138 MORE PUT THE 
-0.5889 MORE RUN RUN 
-0.4264 MORE RUN STOP 
-0.6138 MORE STOP ADD 
-0.6138 MORE THAT ONE 
-0.6138 MORE TO THE 
-0.6138 MORE UP AND 
-0.1910 MOST BRACE RUN 
-0.6138 MOST CORNER GO 
-1.3050 MOST MAGNET ABOVE 
-2.0288 MOST MAGNET BELOW 
-0.9092 MOST MAGNET DOWN 
-2.0288 MOST MAGNET GO 
-2.0288 MOST MAGNET PLACE 
-2.0288 MOST MAGNET SO 
-0.5699 MOST MAGNET TO 
-0.4607 MOST MAGNET UP 
-0.9148 MOST TARGET RUN 
-0.9148 MOST TARGET STOP 
-0.3671 MOST WALL RUN 
-1.0909 MOST WALL UP 
-0.6138 MOVE A SECOND 
-0.6138 MOVE ADD A 
-1.0909 MOVE ALL MAGNETS 
-1.0909 MOVE ALL THE 
-1.0909 MOVE ALL THREE 
-0.6138 MOVE BENEATH </s> 
-0.3671 MOVE BOTH MAGNETS 
-1.0909 MOVE BOTH THE 
-1.6930 MOVE BOTTOM LEFT 
-0.9692 MOVE BOTTOM MAGNET 
-0.1249 MOVE BOTTOM OBJECT 
-0.6138 MOVE DOWN DOWN 
-0.3671 MOVE GO STOP 
-1.0909 MOVE GO THE 
-1.1277 MOVE IT A 
-2.2473 MOVE IT BACK 
-2.2473 MOVE IT DIRECTLY 
-0.7884 MOVE IT DOWN 
-2.2473 MOVE IT GO 
-2.2473 MOVE IT MOVE 
-2.2473 MOVE IT SO 
-0.3782 MOVE IT TO 
-0.6792 MOVE IT UP 
-0.6404 MOVE LEFT MAGNET 
-0.1461 MOVE LEFT OBJECT 
-0.6138 MOVE MAGNET UP 
-0.0212 MOVE MIDDLE OBJECT 
-1.2159 MOVE MOVE IT 
-0.3295 MOVE MOVE THE 
-0.6138 MOVE NOW MOVE 
-0.6138 MOVE OBJECT TO 
-0.6138 MOVE ONE MAGNET 
-0.6138 MOVE PUT LAST 
-1.9360 MOVE RIGHT BALL 
-1.9360 MOVE RIGHT EXECUTE 
-1.2122 MOVE RIGHT MAGNET 
-1.2122 MOVE RIGHT MOVE 
-0.1461 MOVE RIGHT OBJECT 
-0.6138 MOVE SOMETHING GO 
-0.6138 MOVE STOP MOVE 
-0.4264 MOVE THAT MAGNET 
-1.3128 MOVE THAT OK 
-1.3128 MOVE THAT SECOND 
-3.1363 MOVE THE BALL 
-0.9314 MOVE THE BOTTOM 
-3.1363 MOVE THE DOWN 
-1.3763 MOVE THE FIRST 
-3.1363 MOVE THE GO 
-3.1363 MOVE THE HIGHEST 
-2.2499 MOVE THE LAST 
-0.7743 MOVE THE LEFT 
-2.2499 MOVE THE LOWEST 
-0.5780 MOVE THE MAGNET 
-3.1363 MOVE THE MAGNETS 
-0.9427 MOVE THE MIDDLE 
-3.1363 MOVE THE MOVE 
-2.2499 MOVE THE NEW 
-3.1363 MOVE THE PLACE 
-3.1363 MOVE THE RED 
-0.8890 MOVE THE RIGHT 
-1.5224 MOVE THE SECOND 
-3.1363 MOVE THE SMALL 
-2.2499 MOVE THE THIRD 
-3.1363 MOVE THE THREE 
-1.3464 MOVE THE TOP 
-1.6194 MOVE THE TWO 
-0.9148 MOVE UP MOVE 
-0.9148 MOVE UP PUT 
-0.6138 MOVED TO THE 
-0.6138 MOVES FROM THE 
-0.6138 MOVING MOVE THE 
-0.6138 MY MONITOR JUST 
-0.6681 NEAR THE BOTTOM 
-0.2724 NEAR THE SMALL 
-1.0698 NEW MAGNET ABOVE 
-1.9562 NEW MAGNET BELOW 
-1.9562 NEW MAGNET BETWEEN 
-1.9562 NEW MAGNET BY 
-1.9562 NEW MAGNET IN 
-1.9562 NEW MAGNET IS 
-1.9562 NEW MAGNET MOVE 
-1.9562 NEW MAGNET NEXT 
-1.0698 NEW MAGNET ON 
-1.9562 NEW MAGNET PLACE 
-1.9562 NEW MAGNET PUT 
-1.9562 NEW MAGNET SO 
-0.7252 NEW MAGNET TO 
-1.9562 NEW MAGNET UP 
-0.6138 NEXT ONE THE 
-1.2159 NEXT PUZZLE ADD 
-1.2159 NEXT PUZZLE GO 
-1.2159 NEXT PUZZLE LOAD 
-1.2159 NEXT PUZZLE OH 
-1.8179 NEXT TO IT 
-1.0941 NEXT TO TARGET 
-1.8179 NEXT TO THAT 
-0.1627 NEXT TO THE 
-1.8179 NEXT TO THEM 
-0.6138 NINETY DEGREES CLOCKWISE 
-0.6138 NO GET A 
-0.6138 NO IMAGE HELP 
-0.0963 NO MOVE THE 
-0.6138 NO OK MOVE 
-0.6138 NO PUT LEFT 
-0.6138 NO SCREEN UH 
-0.9148 NO UNDO MOVE 
-0.9148 NO UNDO THAT 
-0.6138 NOT MOVING MOVE 
-0.9148 NOT RIGHT DOWN 
-0.9148 NOT RIGHT NEXT 
-0.6138 NOT THAT LOW 
-0.6138 NOW I HAVE 
-0.1910 NOW MOVE THE 
-0.9148 OBJECT A LITTLE 
-0.9148 OBJECT A QUARTER 
-1.0909 OBJECT ABOVE BALL 
-1.0909 OBJECT ABOVE LEFT 
-1.0909 OBJECT ABOVE RIGHT 
-0.6138 OBJECT AT BOTTOM 
-1.0909 OBJECT BACK MOVE 
-0.3671 OBJECT BACK PUT 
-0.6138 OBJECT BETWEEN THE 
-0.6138 OBJECT CENTER BOTTOM 
-0.6138 OBJECT DIAGONAL TO 
-0.6138 OBJECT DIRECTLY UNDER 
-0.3979 OBJECT DOWN A 
-0.9035 OBJECT DOWN EXECUTE 
-1.7899 OBJECT DOWN HALF 
-1.0661 OBJECT DOWN MOVE 
-1.7899 OBJECT DOWN ONE 
-1.7899 OBJECT DOWN PUT 
-1.7899 OBJECT DOWN QUARTER 
-0.6138 OBJECT EIGHT INCHES 
-0.9148 OBJECT EXECUTE MOVE 
-0.9148 OBJECT EXECUTE STOP 
-0.6138 OBJECT FOUR INCHES 
-0.6138 OBJECT IN MIDDLE 
-0.2109 OBJECT LEFT A 
-0.8414 OBJECT LEFT EXECUTE 
-1.7278 OBJECT LEFT HALF 
-1.7278 OBJECT LEFT TWO 
-0.6138 OBJECT MOVE RIGHT 
-0.1910 OBJECT NEXT TO 
-0.6138 OBJECT ON OK 
-0.4485 OBJECT RIGHT A 
-1.5681 OBJECT RIGHT EXECUTE 
-1.5681 OBJECT RIGHT HALF 
-1.5681 OBJECT RIGHT IN 
-0.8442 OBJECT RIGHT QUARTER 
-0.1910 OBJECT TO LEFT 
-0.9148 OBJECT UNDER SO 
-0.9148 OBJECT UNDER TARGET 
-0.2730 OBJECT UP A 
-1.7899 OBJECT UP AN 
-1.7899 OBJECT UP MAGNET 
-1.7899 OBJECT UP MOVE 
-0.9035 OBJECT UP ONE 
-1.7899 OBJECT UP QUARTER 
-0.4264 OF ALL MAGNETS 
-0.5889 OF ALL THE 
-0.0248 OF AN INCH 
-0.6138 OF BLOCKS MOVE 
-0.6138 OF BLUE BALL 
-0.6138 OF BOWLING BALL 
-0.6138 OF EACH OTHER 
-0.6138 OF FIRST OBJECT 
-0.9148 OF IT GOOD 
-0.9148 OF IT WHAT 
-0.6138 OF LIFE IS 
-0.6138 OF MOVE THE 
-0.6138 OF THAT TOP 
-1.1505 OF THE BALL 
-2.6095 OF THE BLUE 
-1.8856 OF THE BOTTOM 
-2.6095 OF THE BRACE 
-2.6095 OF THE CENTER 
-2.6095 OF THE FIELD 
-2.6095 OF THE FOUR 
-0.9542 OF THE LEFT 
-2.6095 OF THE LITTLE 
-2.6095 OF THE LOWEST 
-1.3784 OF THE MAGNET 
-2.6095 OF THE NEW 
-2.6095 OF THE PINK 
-1.8856 OF THE RED 
-1.1505 OF THE RIGHT 
-0.6532 OF THE SCREEN 
-0.5332 OF THE SMALL 
-2.6095 OF THE TARGET 
-2.6095 OF THE TARGETS 
-2.6095 OF THE TOP 
-2.6095 OF THE TWO 
-2.6095 OF THE WALL 
-0.6138 OF THEM STRONGER 
-0.6138 OFF I'M GETTING 
-0.6138 OFF THE SCREEN 
-0.6138 OH FUDGE STOP 
-0.6138 OH MOVE IT 
-1.2159 OH OK MOVE 
-1.2159 OH OK OK 
-1.2159 OH OK STOP 
-1.2159 OH OK TWO 
-0.6138 OH REALLY OH 
-0.6138 OH THE EVIL 
-1.0909 OK AND GO 
-0.3671 OK AND MOVE 
-0.0300 OK EXECUTE THE 
-0.6138 OK GO STOP 
-0.6138 OK HOW DO 
-0.6138 OK I AM 
-0.6138 OK KEEP MOVE 
-1.4589 OK LET'S EXECUTE 
-1.4589 OK LET'S MAKE 
-0.7351 OK LET'S MOVE 
-0.7351 OK LET'S PUT 
-1.4589 OK LET'S SEE 
-0.1910 OK LIKE IN 
-1.8926 OK MOVE ALL 
-1.0062 OK MOVE IT 
-1.8926 OK MOVE MIDDLE 
-1.8926 OK MOVE MOVE 
-1.1687 OK MOVE RIGHT 
-0.2374 OK MOVE THE 
-0.6138 OK NEAR THE 
-1.4589 OK OK EXECUTE 
-1.4589 OK OK HOW 
-1.4589 OK OK LET'S 
-1.4589 OK OK MOVE 
-1.4589 OK OK OK 
-1.4589 OK OK PUZZLE 
-1.4589 OK OK STOP 
-1.4589 OK PUT OBJECT 
-1.4589 OK PUT SECOND 
-0.2279 OK PUT THE 
-0.6138 OK PUZZLE OK 
-0.9148 OK SO IT 
-0.9148 OK SO NOW 
-0.0818 OK SOLVE THE 
-0.6138 OK START STOP 
-0.1891 OK STOP MOVE 
-1.8443 OK STOP OK 
-1.8443 OK STOP STOP 
-1.8443 OK STOP TAKE 
-1.1204 OK STOP THE 
-1.8443 OK STOP TO 
-0.6138 OK TAKE THE 
-0.6138 OK TO THE 
-0.6138 OK TWO INCHES 
-0.6138 OK UM MOVE 
-0.6138 OK UNDO THAT 
-0.6138 OK WELL EXECUTE 
-0.6138 OK WHAT'S THE 
-0.6138 OKAY MOVE IT 
-0.6138 OKAY STOP MOVE 
-0.6138 OKAY THANK YOU 
-0.6138 ON MOVE DOWN 
-0.6138 ON OK MOVE 
-0.8165 ON THE BOTTOM 
-0.4771 ON THE LEFT 
-0.7050 ON THE RIGHT 
-1.2122 ON THE SCREEN 
-1.0496 ON THE TOP 
-0.6138 ON THIS LITTLE 
-0.2045 ON TO THE 
-0.0580 ON TOP OF 
-0.6138 ONCE BOWLING BALL 
-0.4264 ONE INCH EXECUTE 
-1.3128 ONE INCH MOVE 
-1.3128 ONE INCH UP 
-0.6138 ONE LENGTH TO 
-0.9148 ONE MAGNET SO 
-0.9148 ONE MAGNET THAT 
-0.6138 ONE OF THEM 
-0.6138 ONE ON TOP 
-0.6138 ONE ONE LENGTH 
-0.6138 ONE ONTO THE 
-0.6138 ONE THE TARGET'S 
-0.6138 ONE UNIT TO 
-0.6138 ONLY EXECUTE IT 
-0.6138 ONLY THIS DIRECTION 
-0.6138 ONTO THE RIGHT 
-0.6138 OR DO THEY 
-0.6138 OR IS THAT 
-0.6138 OR SOMETHING MOVE 
-0.6138 OR THE OTHER 
-0.6138 OTHER MAGNET IN 
-0.6138 OTHER ON TOP 
-0.6138 OTHER ROOM MOVE 
-0.6138 OTHER THREE MAGNETS 
-0.6138 OTHER TWO MAGNETS 
-0.6138 OUT HOW TO 
-0.9148 OUT THE MAGNET 
-0.9148 OUT THE THIRD 
-0.6138 OVER OK PUT 
-0.9148 OVER ONE ONE 
-0.9148 OVER ONE UNIT 
-0.6138 OVER SO IT'S 
-0.6138 OVER THE HEAD 
-0.9148 OVER TO LEFT 
-0.9148 OVER TO THE 
-0.6138 PEOPLE ARE COMING 
-1.2159 PINK BALL ADD 
-0.4920 PINK BALL OK 
-1.2159 PINK BALL UP 
-0.2126 PLACE A MAGNET 
-0.5371 PLACE A NEW 
-2.1052 PLACE A SECOND 
-1.3813 PLACE A THIRD 
-0.9148 PLACE MAGNET OK 
-0.9148 PLACE MAGNET START 
-1.5169 PLACE THE BOTTOM 
-1.5169 PLACE THE LEFT 
-0.7931 PLACE THE MAGNET 
-0.7931 PLACE THE NEW 
-0.7931 PLACE THE THIRD 
-0.6138 PLEASE MOVE THE 
-0.9148 PLEASE OK PUT 
-0.9148 PLEASE OK STOP 
-0.6138 PLEASE PUT THE 
-1.2159 PLEASE STOP MOVE 
-1.2159 PLEASE STOP OK 
-1.2159 PLEASE STOP PLEASE 
-1.2159 PLEASE STOP PUT 
-0.6138 PROGRAM AGAIN STOP 
-0.6138 PROGRAM MOVE THE 
-0.6138 PULLS IT DIRECTLY 
-0.6138 PULLS MAGNET THAT'S 
-0.4264 PUT A MAGNET 
-0.5889 PUT A NEW 
-0.6138 PUT ALL THREE 
-0.6138 PUT ANOTHER MAGNET 
-0.6138 PUT BACK THE 
-0.6138 PUT BOTTOM OBJECT 
-0.7931 PUT IT IN 
-1.5169 PUT IT MOVE 
-0.6305 PUT IT NEXT 
-1.5169 PUT IT ON 
-1.5169 PUT IT TO 
-0.6138 PUT LAST OBJECT 
-0.1910 PUT LEFT OBJECT 
-0.1910 PUT MAGNET ON 
-0.6138 PUT MOVE BOTTOM 
-0.1910 PUT NEW MAGNET 
-0.5725 PUT OBJECT ABOVE 
-1.4589 PUT OBJECT BETWEEN 
-1.4589 PUT OBJECT EIGHT 
-1.4589 PUT OBJECT TO 
-1.4589 PUT OBJECT UNDER 
-0.3295 PUT RIGHT OBJECT 
-1.2159 PUT RIGHT TARGET 
-0.6138 PUT SECOND OBJECT 
-0.6138 PUT THAT LAST 
-1.1687 PUT THE FIRST 
-0.3245 PUT THE MAGNET 
-1.8926 PUT THE RIGHT 
-1.0062 PUT THE SECOND 
-0.7730 PUT THE THIRD 
-0.6138 PUT THEM SO 
-0.6138 PUT THREE MAGNETS 
-0.6138 PUT TOP OBJECT 
-0.6138 PUZZLE ADD A 
-0.1910 PUZZLE GO STOP 
-0.6138 PUZZLE GOOD JOB 
-0.6138 PUZZLE LOAD NEXT 
-0.9148 PUZZLE MOVE NOW 
-0.9148 PUZZLE MOVE THE 
-0.6138 PUZZLE OH THE 
-1.5169 PUZZLE OK EXECUTE 
-1.5169 PUZZLE OK LET'S 
-0.7931 PUZZLE OK MOVE 
-1.5169 PUZZLE OK OK 
-0.7931 PUZZLE OK STOP 
-1.5169 PUZZLE OK TAKE 
-0.5889 PUZZLE PLEASE OK 
-0.4264 PUZZLE PLEASE STOP 
-0.6138 PUZZLE PUT ALL 
-0.6138 PUZZLE SOLVED GO 
-1.6930 PUZZLE STOP ALRIGHT 
-1.6930 PUZZLE STOP AND 
-1.6930 PUZZLE STOP I'VE 
-1.6930 PUZZLE STOP IN 
-0.2341 PUZZLE STOP OK 
-1.6930 PUZZLE STOP TAKE 
-0.6138 PUZZLE THE MAGNET 
-0.0263 QUARTER OF AN 
-0.6138 READ BALL SLIGHTLY 
-0.9148 REALLY OH OK 
-0.9148 REALLY OH REALLY 
-2.1323 RED BALL AGAIN 
-2.1323 RED BALL AND 
-2.1323 RED BALL DOWN 
-2.1323 RED BALL EXECUTE 
-1.0128 RED BALL GO 
-2.1323 RED BALL HELP 
-2.1323 RED BALL LIKE 
-1.4085 RED BALL MOVE 
-2.1323 RED BALL OH 
-2.1323 RED BALL OK 
-1.4085 RED BALL ON 
-2.1323 RED BALL OVER 
-2.1323 RED BALL PLACE 
-2.1323 RED BALL PUT 
-1.2459 RED BALL RUN 
-2.1323 RED BALL SMALL 
-2.1323 RED BALL STOP 
-2.1323 RED BALL TAKE 
-0.7404 RED BALL TO 
-1.4085 RED BALL UP 
-0.6138 REMOVE MIDDLE OBJECT 
-0.8442 REMOVE THE CENTER 
-0.8442 REMOVE THE MAGNET 
-1.5681 REMOVE THE NEW 
-0.8442 REMOVE THE RIGHT 
-0.8442 REMOVE THE THIRD 
-0.6138 RESET MOVE THE 
-0.6138 RESET START STOP 
-0.6138 RESET STOP MOVE 
-0.3671 RESTART STOP MOVE 
-1.0909 RESTART STOP REMOVE 
-0.4242 RID OF ALL 
-0.2632 RID OF THE 
-0.0726 RIGHT A LITTLE 
-1.7278 RIGHT A QUARTER 
-1.7278 RIGHT A VERY 
-0.2045 RIGHT ABOVE THE 
-0.6138 RIGHT ALL THE 
-1.3128 RIGHT AND DOWN 
-1.3128 RIGHT AND ONE 
-1.3128 RIGHT AND THE 
-0.5889 RIGHT AND UP 
-0.9148 RIGHT BALL DOWN 
-0.9148 RIGHT BALL MOVE 
-0.6138 RIGHT BOTTOM CORNER 
-0.9148 RIGHT CORNER OF 
-0.9148 RIGHT CORNER PUT 
-0.6138 RIGHT CORNERS AND 
-0.9148 RIGHT DOWN AN 
-0.9148 RIGHT DOWN SO 
-1.0909 RIGHT EXECUTE PUZZLE 
-0.3671 RIGHT EXECUTE STOP 
-1.7599 RIGHT GO BOO 
-1.7599 RIGHT GO GET 
-1.7599 RIGHT GO GO 
-1.7599 RIGHT GO LESS 
-1.7599 RIGHT GO MOVE 
-1.7599 RIGHT GO OK 
-0.2430 RIGHT GO STOP 
-0.0818 RIGHT HALF AN 
-0.0414 RIGHT HAND CORNER 
-0.1910 RIGHT IN THE 
-0.1910 RIGHT JUST A 
-1.0818 RIGHT MAGNET A 
-1.5889 RIGHT MAGNET ALL 
-2.3128 RIGHT MAGNET BACK 
-2.3128 RIGHT MAGNET BY 
-1.5889 RIGHT MAGNET CLOSER 
-0.7447 RIGHT MAGNET DOWN 
-2.3128 RIGHT MAGNET EVEN 
-0.9208 RIGHT MAGNET GO 
-2.3128 RIGHT MAGNET HALF 
-2.3128 RIGHT MAGNET HALFWAY 
-2.3128 RIGHT MAGNET IN 
-2.3128 RIGHT MAGNET MOVE 
-2.3128 RIGHT MAGNET ON 
-2.3128 RIGHT MAGNET RIGHT 
-1.4264 RIGHT MAGNET SO 
-1.0818 RIGHT MAGNET TO 
-0.7447 RIGHT MAGNET UP 
-0.1910 RIGHT MORE RUN 
-1.6552 RIGHT MOST BRACE 
-0.0872 RIGHT MOST MAGNET 
-1.6552 RIGHT MOST TARGET 
-1.7599 RIGHT MOVE IT 
-1.7599 RIGHT MOVE LEFT 
-1.7599 RIGHT MOVE RIGHT 
-0.1461 RIGHT MOVE THE 
-1.7599 RIGHT MOVE UP 
-0.1910 RIGHT NEXT TO 
-0.6138 RIGHT NO GET 
-1.8691 RIGHT OBJECT A 
-0.4771 RIGHT OBJECT DOWN 
-1.8691 RIGHT OBJECT IN 
-0.9827 RIGHT OBJECT LEFT 
-1.8691 RIGHT OBJECT NEXT 
-1.8691 RIGHT OBJECT RIGHT 
-1.8691 RIGHT OBJECT UNDER 
-0.7495 RIGHT OBJECT UP 
-2.1190 RIGHT OF FIRST 
-2.1190 RIGHT OF IT 
-2.1190 RIGHT OF THAT 
-0.0428 RIGHT OF THE 
-0.3295 RIGHT OK EXECUTE 
-1.2159 RIGHT OK OK 
-0.6138 RIGHT PLACE A 
-0.1910 RIGHT QUARTER OF 
-1.2159 RIGHT RIGHT MOVE 
-0.3295 RIGHT RIGHT RIGHT 
-0.2045 RIGHT RUN STOP 
-1.0909 RIGHT SLIGHTLY MOVE 
-0.3671 RIGHT SLIGHTLY RUN 
-1.2159 RIGHT SO IT 
-0.4920 RIGHT SO IT'S 
-1.2159 RIGHT SO THAT 
-0.9148 RIGHT SOME AND 
-0.9148 RIGHT SOME GO 
-1.2159 RIGHT START MOVE 
-1.2159 RIGHT START START 
-0.4920 RIGHT START STOP 
-1.3920 RIGHT STOP GET 
-1.3920 RIGHT STOP GO 
-0.2724 RIGHT STOP MOVE 
-1.3128 RIGHT TARGET HALF 
-1.3128 RIGHT TARGET IN 
-1.3128 RIGHT TARGET MOVE 
-1.3128 RIGHT TARGET PUZZLE 
-1.3128 RIGHT TARGET RIGHT 
-0.9148 RIGHT TARGETS EXECUTE 
-0.9148 RIGHT TARGETS MOVE 
-0.6138 RIGHT UNDER THE 
-0.6138 RIGHT UNDO LAST 
-0.6138 RIGHT UNTIL IT 
-0.6138 RIGHT UP SO 
-0.6138 RIGHT WAIT NO 
-0.6138 ROOM MOVE THE 
-0.9148 ROTATE THE BOTTOM 
-0.9148 ROTATE THE LEFT 
-0.6138 ROTATE THEM ARE 
-0.6138 ROW BUT DIRECTLY 
-0.6138 RUN AND RESTART 
-0.6138 RUN IMMEDIATELY TO 
-0.6138 RUN PLACE A 
-0.6138 RUN PROGRAM MOVE 
-0.6138 RUN RESET STOP 
-0.1910 RUN RUN STOP 
-0.2553 RUN STOP MOVE 
-2.4132 RUN STOP OKAY 
-0.7202 RUN STOP PLACE 
-1.2936 RUN STOP REMOVE 
-0.8963 RUN STOP RUN 
-1.6893 RUN STOP STOP 
-2.4132 RUN STOP TURN 
-1.2159 RUN THE AT 
-1.2159 RUN THE LEFT 
-1.2159 RUN THE PROGRAM 
-1.2159 RUN THE SIMULATION 
-0.6138 RUN TO THE 
-0.6138 SAME HEIGHT MOVE 
-0.1910 SAME LEVEL AS 
-0.6138 SAME LINE BUT 
-0.6138 SAME OK LIKE 
-0.6138 SAVER AND RUN 
-0.6138 SCREEN A LITTLE 
-0.9148 SCREEN AND MOVE 
-0.9148 SCREEN AND THEN 
-0.6138 SCREEN BELOW THE 
-1.2159 SCREEN GO GO 
-1.2159 SCREEN GO MOVE 
-0.4920 SCREEN GO STOP 
-0.6138 SCREEN IN THE 
-0.7351 SCREEN MOVE GO 
-1.4589 SCREEN MOVE IT 
-0.3393 SCREEN MOVE THE 
-0.6138 SCREEN NEAR THE 
-0.6138 SCREEN OH MOVE 
-0.6138 SCREEN REALLY OH 
-0.1910 SCREEN RUN STOP 
-0.6138 SCREEN SAVER AND 
-0.6138 SCREEN SLIGHTLY TO 
-0.6138 SCREEN TO THE 
-0.6138 SCREEN UH MY 
-0.6138 SCREEN UNDER THE 
-1.8926 SECOND MAGNET A 
-1.8926 SECOND MAGNET AND 
-1.1687 SECOND MAGNET BELOW 
-1.8926 SECOND MAGNET BETWEEN 
-1.1687 SECOND MAGNET DOWN 
-1.8926 SECOND MAGNET HALF 
-1.8926 SECOND MAGNET IN 
-1.8926 SECOND MAGNET OH 
-1.8926 SECOND MAGNET ON 
-1.8926 SECOND MAGNET SUCH 
-0.7730 SECOND MAGNET TO 
-1.0062 SECOND MAGNET UP 
-0.6138 SECOND OBJECT FOUR 
-0.6138 SECOND PUZZLE GO 
-0.9148 SECOND WALL STOP 
-0.9148 SECOND WALL TO 
-0.6138 SEE CAN YOU 
-0.6138 SEE IN THE 
-0.6138 SESSION NEXT PUZZLE 
-0.6138 SHAPE LEFT OF 
-0.6138 SHAPED WALL WHOA 
-0.6138 SHUT OFF I'M 
-0.6138 SIMULATION RUN STOP 
-0.6138 SLIGHTLY BACK TO 
-0.6138 SLIGHTLY BELOW THE 
-0.6138 SLIGHTLY DOWN AND 
-0.6138 SLIGHTLY MOVE IT 
-0.6138 SLIGHTLY PLACE A 
-0.0580 SLIGHTLY RUN STOP 
-1.5169 SLIGHTLY RUN THE 
-0.6138 SLIGHTLY STOP STOP 
-0.1910 SLIGHTLY TO THE 
-0.9148 SMALL AMOUNT PUT 
-0.9148 SMALL AMOUNT TO 
-0.6138 SMALL BALL MOVE 
-0.0107 SMALL BLUE BALL 
-0.6138 SMALL MAGNET MOVE 
-0.6138 SMALL OK PUT 
-0.6138 SMALL READ BALL 
-0.0185 SMALL RED BALL 
-0.6138 SO CAN I 
-0.6138 SO HOW DO 
-0.1891 SO IT IS 
-1.8443 SO IT PULLS 
-0.6132 SO IT TOUCHES 
-0.3680 SO IT'S DIRECTLY 
-1.0361 SO IT'S IN 
-1.7599 SO IT'S JUST 
-1.7599 SO IT'S LEVEL 
-1.7599 SO IT'S ON 
-1.7599 SO IT'S RIGHT 
-1.7599 SO IT'S UNDER 
-1.7599 SO IT'S UP 
-1.0909 SO MOVE MOVE 
-1.0909 SO MOVE RIGHT 
-1.0909 SO MOVE THE 
-0.6138 SO NOW I 
-0.6138 SO OK MOVE 
-1.5681 SO THAT IS 
-1.5681 SO THAT IT 
-0.1091 SO THAT IT'S 
-0.6138 SO THE MAGNET 
-0.6138 SO THESE ARE 
-0.6138 SO THEY ARE 
-0.6138 SO THEY'RE SURROUNDING 
-0.0669 SOLVE THE PUZZLE 
-0.6138 SOLVED GO ON 
-0.6138 SOME AND MOVE 
-0.9148 SOME GO DRAT 
-0.9148 SOME GO GO 
-0.6138 SOME MOVE THE 
-0.6138 SOMETHING GO OK 
-0.6138 SOMETHING MOVE THE 
-0.6138 SORRY I JUST 
-0.6138 STACK OF BLOCKS 
-0.6138 START ADD A 
-0.6138 START AND STOP 
-0.6138 START EXCELLENT STOP 
-0.0512 START MOVE THE 
-0.6138 START OVER OK 
-0.6138 START SECOND MAGNET 
-0.3973 START START START 
-0.3973 START START STOP 
-2.1453 START STOP ADD 
-1.4215 START STOP EXECUTE 
-1.4215 START STOP GO 
-0.5315 START STOP MOVE 
-2.1453 START STOP OK 
-2.1453 START STOP RESET 
-0.3274 START STOP START 
-2.1453 START STOP THE 
-0.6138 START TO THE 
-0.6138 STOP A LITTLE 
-0.9148 STOP ADD A 
-0.9148 STOP ADD MOVE 
-0.9148 STOP ALRIGHT I 
-0.9148 STOP ALRIGHT LET'S 
-0.9148 STOP AND IT 
-0.9148 STOP AND SO 
-0.6138 STOP BETWEEN THE 
-0.6138 STOP DELETE THE 
-0.6138 STOP DOING THAT 
-0.3671 STOP EXECUTE MOVE 
-1.0909 STOP EXECUTE STOP 
-0.0458 STOP GET RID 
-1.0941 STOP GO GO 
-1.8179 STOP GO MOVE 
-1.8179 STOP GO PLACE 
-1.8179 STOP GO RESTART 
-0.1627 STOP GO STOP 
-0.6138 STOP I GIVE 
-0.6138 STOP I'VE BEEN 
-0.6138 STOP IN THE 
-0.6138 STOP INTERESTING PLACE 
-0.6138 STOP IT'S NOT 
-0.6138 STOP LOAD PUZZLE 
-0.6138 STOP MAGNET GO 
-2.1710 STOP MOVE ALL 
-2.1710 STOP MOVE BOTH 
-2.0085 STOP MOVE BOTTOM 
-1.3779 STOP MOVE IT 
-1.5029 STOP MOVE LEFT 
-1.3779 STOP MOVE MIDDLE 
-1.3268 STOP MOVE RIGHT 
-0.0963 STOP MOVE THE 
-0.6138 STOP NEXT TO 
-0.6138 STOP NO PUT 
-0.6138 STOP OH OK 
-0.8736 STOP OK LET'S 
-1.7599 STOP OK LIKE 
-0.5289 STOP OK MOVE 
-1.7599 STOP OK OK 
-1.7599 STOP OK PUT 
-1.7599 STOP OK SOLVE 
-1.7599 STOP OK START 
-1.7599 STOP OK UM 
-1.0909 STOP OKAY MOVE 
-1.0909 STOP OKAY STOP 
-1.0909 STOP OKAY THANK 
-0.6138 STOP ON THE 
-0.0843 STOP PLACE A 
-0.9579 STOP PLACE THE 
-0.6138 STOP PLEASE PUT 
-0.8066 STOP PUT A 
-1.6930 STOP PUT BACK 
-0.8066 STOP PUT OBJECT 
-0.9692 STOP PUT RIGHT 
-0.9692 STOP PUT THE 
-1.6930 STOP PUT THREE 
-0.0580 STOP REMOVE THE 
-0.6138 STOP RESET MOVE 
-0.6138 STOP RESTART STOP 
-0.6138 STOP ROTATE THE 
-1.5169 STOP RUN PLACE 
-1.5169 STOP RUN RESET 
-0.2859 STOP RUN STOP 
-1.5169 STOP RUN THE 
-0.6138 STOP SO MOVE 
-1.9562 STOP START ADD 
-1.9562 STOP START AND 
-0.7252 STOP START MOVE 
-1.9562 STOP START START 
-0.2285 STOP START STOP 
-1.9562 STOP START TO 
-1.8926 STOP STOP AND 
-1.8926 STOP STOP GET 
-1.8926 STOP STOP GO 
-1.8926 STOP STOP IT'S 
-1.8926 STOP STOP MAGNET 
-0.3757 STOP STOP MOVE 
-1.8926 STOP STOP OK 
-1.8926 STOP STOP PUT 
-1.8926 STOP STOP REMOVE 
-1.1687 STOP STOP STOP 
-1.8926 STOP STOP THE 
-0.9148 STOP TAKE ANOTHER 
-0.9148 STOP TAKE THE 
-1.3920 STOP THE BLUE 
-1.3920 STOP THE LEFT 
-1.3920 STOP THE MAGNET 
-1.3920 STOP THE RIGHT 
-0.6681 STOP THE THIRD 
-0.6138 STOP TO THE 
-0.6138 STOP TURN OFF 
-0.6138 STOP TWO INCHES 
-0.6138 STOP UP A 
-0.6138 STOP YEAH MOVE 
-0.6138 STOP YOU CAN'T 
-0.6138 STRAIGHT LINE OK 
-0.6138 STRONGER YEAH OK 
-0.6138 STUPID RED BALL 
-0.9148 SUCH THAT IT 
-0.9148 SUCH THAT THE 
-0.6138 SURROUNDING THE MIDDLE 
-0.6138 TAKE ANOTHER MAGNET 
-0.6138 TAKE EXECUTE STOP 
-0.6138 TAKE OUT THE 
-0.3671 TAKE THE MAGNET 
-1.0909 TAKE THE THIRD 
-0.6138 TARGET BUT SAME 
-0.3671 TARGET EXECUTE MOVE 
-1.0909 TARGET EXECUTE STOP 
-0.9148 TARGET GO STOP 
-0.9148 TARGET GO THAT'S 
-0.6138 TARGET HALF AN 
-0.9148 TARGET IN MIDDLE 
-0.9148 TARGET IN THE 
-0.6138 TARGET MAGNET IN 
-1.0909 TARGET MOVE MOVE 
-1.0909 TARGET MOVE OBJECT 
-1.0909 TARGET MOVE THE 
-0.9148 TARGET OK AND 
-0.9148 TARGET OK EXECUTE 
-0.6138 TARGET ON THE 
-0.6138 TARGET PLACE MAGNET 
-0.6138 TARGET PUZZLE OK 
-0.6138 TARGET RIGHT RIGHT 
-0.1910 TARGET RUN STOP 
-0.9148 TARGET STOP GO 
-0.9148 TARGET STOP MOVE 
-0.1910 TARGET TO THE 
-0.6138 TARGET'S THE TEN 
-0.6138 TARGETS AND PUT 
-0.6138 TARGETS EXECUTE REMOVE 
-0.2045 TARGETS MOVE THE 
-0.6138 TARGETS ON THE 
-0.6138 TELL ME WHAT 
-0.6138 TEN PUT THE 
-0.6138 THANK YOU GO 
-0.6138 THAT ARE IN 
-0.6138 THAT COMES AND 
-0.6138 THAT FOR ME 
-1.4589 THAT IS ABOVE 
-1.4589 THAT IS HIGHEST 
-1.4589 THAT IS IT 
-0.5725 THAT IS TO 
-1.4589 THAT IS UNDERNEATH 
-0.9148 THAT IT IS 
-0.9148 THAT IT TOUCHES 
-0.7351 THAT IT'S AT 
-1.4589 THAT IT'S DIRECTLY 
-1.4589 THAT IT'S JUST 
-0.5725 THAT IT'S TOUCHING 
-0.6138 THAT LAST MAGNET 
-0.6138 THAT LOW RUN 
-0.4920 THAT MAGNET DOWN 
-1.2159 THAT MAGNET THAT'S 
-1.2159 THAT MAGNET TO 
-1.0909 THAT MOVE IT 
-0.3671 THAT MOVE THE 
-0.9148 THAT OK MOVE 
-0.9148 THAT OK SO 
-0.6138 THAT ONE MAGNET 
-0.6138 THAT SECOND MAGNET 
-0.6138 THAT TARGET IN 
-0.9148 THAT THE BOTTOM 
-0.9148 THAT THE OTHER 
-0.6138 THAT TOP MAGNET 
-0.9148 THAT WAS JUST 
-0.9148 THAT WAS WEIRD 
-0.9148 THAT WAY OK 
-0.9148 THAT WAY TOO 
-0.2045 THAT'S ABOVE THE 
-0.9148 THAT'S BELOW DIRECTLY 
-0.9148 THAT'S BELOW THE 
-0.6138 THAT'S DIRECTLY BELOW 
-0.6138 THAT'S DOWN AT 
-0.1910 THAT'S IN THE 
-0.6138 THAT'S NOT RIGHT 
-0.6138 THAT'S ON THE 
-0.2045 THAT'S RIGHT ABOVE 
-0.0818 THAT'S TO THE 
-0.6138 THAT'S UM PUT 
-0.1910 THAT'S UNDER THE 
-0.6138 THE AT THE 
-1.8691 THE BALL BUT 
-1.8691 THE BALL GET 
-0.9827 THE BALL GO 
-1.8691 THE BALL HIT 
-1.1453 THE BALL JUST 
-1.1453 THE BALL MOVE 
-1.8691 THE BALL NEAR 
-1.8691 THE BALL NOT 
-0.9827 THE BALL PLACE 
-1.1453 THE BALL RUN 
-1.8691 THE BALL TO 
-0.3671 THE BASKETS A 
-1.0909 THE BASKETS UP 
-0.6138 THE BIG RED 
-0.0322 THE BLUE BALL 
-2.4589 THE BOTTOM CENTER 
-2.4589 THE BOTTOM DIRECTLY 
-2.4589 THE BOTTOM GO 
-2.4589 THE BOTTOM GOOD 
-1.0000 THE BOTTOM LEFT 
-0.3537 THE BOTTOM MAGNET 
-2.4589 THE BOTTOM MIDDLE 
-1.7351 THE BOTTOM MOVE 
-0.8909 THE BOTTOM OF 
-2.4589 THE BOTTOM ON 
-2.4589 THE BOTTOM PLACE 
-0.9420 THE BOTTOM RIGHT 
-2.4589 THE BOTTOM START 
-2.4589 THE BOTTOM STOP 
-2.4589 THE BOTTOM THAT 
-2.4589 THE BOTTOM THE 
-2.4589 THE BOTTOM TWO 
-2.4589 THE BOTTOM WALL 
-0.6138 THE BRACE TO 
-0.6138 THE BUT NOT 
-0.5889 THE CENTER MAGNET 
-0.5889 THE CENTER OF 
-1.3128 THE CENTER TARGET 
-0.6138 THE DOWN A 
-0.0963 THE EDGE OF 
-0.6138 THE EVIL PEOPLE 
-0.1910 THE FAR RIGHT 
-0.6138 THE FIELD MOVE 
-0.0263 THE FIRST MAGNET 
-0.6138 THE FOUR BOXES 
-0.6138 THE GO STOP 
-0.9148 THE GOAL IN 
-0.9148 THE GOAL MOVE 
-0.6138 THE HANG OF 
-0.6138 THE HEAD MOVE 
-0.6138 THE HEIGHT OF 
-0.6138 THE HIGHEST MAGNET 
-0.6138 THE HOLE BETWEEN 
-0.6138 THE INSIDE OF 
-0.6138 THE L SHAPE 
-0.0669 THE LARGE BLUE 
-1.4589 THE LARGE RIGHT 
-0.0963 THE LAST MAGNET 
-1.1592 THE LEFT A 
-2.9192 THE LEFT ACTUALLY 
-2.9192 THE LEFT ADD 
-2.9192 THE LEFT AGAIN 
-2.9192 THE LEFT AN 
-2.9192 THE LEFT AND 
-2.9192 THE LEFT ANOTHER 
-2.9192 THE LEFT AS 
-2.9192 THE LEFT BALL 
-2.9192 THE LEFT BASKET 
-2.1953 THE LEFT BIN 
-2.9192 THE LEFT BRACE 
-2.9192 THE LEFT CORNER 
-2.0328 THE LEFT DOWN 
-2.0328 THE LEFT EDGE 
-1.0501 THE LEFT GO 
-2.0328 THE LEFT HALF 
-2.1953 THE LEFT JUST 
-0.6333 THE LEFT MAGNET 
-2.9192 THE LEFT MORE 
-0.9629 THE LEFT MOST 
-0.9629 THE LEFT MOVE 
-2.9192 THE LEFT NO 
-0.8904 THE LEFT OF 
-2.0328 THE LEFT OK 
-2.9192 THE LEFT RESET 
-2.9192 THE LEFT RUN 
-2.9192 THE LEFT SLIGHTLY 
-1.6881 THE LEFT SO 
-2.9192 THE LEFT STACK 
-1.7996 THE LEFT START 
-1.6881 THE LEFT STOP 
-2.9192 THE LEFT SUCH 
-2.9192 THE LEFT TARGET 
-2.9192 THE LEFT UNDO 
-2.0328 THE LEFT WALL 
-0.6138 THE LITTLE RED 
-0.1761 THE LOWER LEFT 
-0.5734 THE LOWER RIGHT 
-0.0963 THE LOWEST MAGNET 
-1.9692 THE MAGNET A 
-1.2341 THE MAGNET ABOVE 
-2.6930 THE MAGNET ALL 
-2.6930 THE MAGNET ALREADY 
-2.6930 THE MAGNET AN 
-2.6930 THE MAGNET AS 
-1.4620 THE MAGNET BELOW 
-2.6930 THE MAGNET BENEATH 
-1.3010 THE MAGNET BETWEEN 
-2.6930 THE MAGNET BY 
-2.6930 THE MAGNET DIRECTLY 
-1.5734 THE MAGNET DOWN 
-1.9692 THE MAGNET FROM 
-2.6930 THE MAGNET GOES 
-2.6930 THE MAGNET HELLO 
-0.8487 THE MAGNET IN 
-2.6930 THE MAGNET LEFT 
-2.6930 THE MAGNET MOVE 
-2.6930 THE MAGNET MOVES 
-1.8066 THE MAGNET NEAR 
-1.5734 THE MAGNET NEXT 
-1.9692 THE MAGNET OK 
-1.4620 THE MAGNET ON 
-1.9692 THE MAGNET SO 
-2.6930 THE MAGNET START 
-2.6930 THE MAGNET STOP 
-1.2341 THE MAGNET THAT 
-0.8487 THE MAGNET THAT'S 
-0.8239 THE MAGNET TO 
-1.8066 THE MAGNET UNDER 
-1.9692 THE MAGNET UP 
-1.3128 THE MAGNETS PUT 
-1.3128 THE MAGNETS STOP 
-1.3128 THE MAGNETS THAT 
-1.3128 THE MAGNETS TO 
-1.3128 THE MAGNETS UPSIDE 
-0.6138 THE MEANING OF 
-2.3620 THE MIDDLE 'TILL 
-2.3620 THE MIDDLE ALL 
-2.3620 THE MIDDLE AND 
-2.3620 THE MIDDLE AT 
-2.3620 THE MIDDLE CENTER 
-2.3620 THE MIDDLE GOAL 
-0.1919 THE MIDDLE MAGNET 
-2.3620 THE MIDDLE MAGNETS 
-2.3620 THE MIDDLE MOVE 
-2.3620 THE MIDDLE NO 
-0.9700 THE MIDDLE OF 
-1.1310 THE MIDDLE TARGET 
-0.6138 THE MOVE THE 
-0.0580 THE NEW MAGNET 
-0.9148 THE NEXT ONE 
-0.9148 THE NEXT PUZZLE 
-0.6138 THE ONE ONTO 
-1.2159 THE OTHER MAGNET 
-1.2159 THE OTHER ROOM 
-1.2159 THE OTHER THREE 
-1.2159 THE OTHER TWO 
-0.0963 THE PINK BALL 
-0.6138 THE PLACE A 
-0.6138 THE PROGRAM AGAIN 
-1.9940 THE PUZZLE MOVE 
-0.8745 THE PUZZLE OK 
-0.7630 THE PUZZLE PLEASE 
-1.9940 THE PUZZLE PUT 
-0.3010 THE PUZZLE STOP 
-1.9940 THE PUZZLE THE 
-0.0580 THE RED BALL 
-1.2606 THE RIGHT A 
-2.8287 THE RIGHT ALL 
-1.9423 THE RIGHT AND 
-2.8287 THE RIGHT CORNER 
-2.8287 THE RIGHT DOWN 
-1.1009 THE RIGHT GO 
-1.7091 THE RIGHT HALF 
-2.8287 THE RIGHT IN 
-2.1048 THE RIGHT JUST 
-0.6021 THE RIGHT MAGNET 
-2.1048 THE RIGHT MORE 
-1.1735 THE RIGHT MOST 
-1.1735 THE RIGHT MOVE 
-2.8287 THE RIGHT NO 
-0.7235 THE RIGHT OF 
-1.9423 THE RIGHT OK 
-2.8287 THE RIGHT PLACE 
-1.9423 THE RIGHT RUN 
-1.9423 THE RIGHT SLIGHTLY 
-1.7091 THE RIGHT SO 
-2.1048 THE RIGHT SOME 
-1.9423 THE RIGHT START 
-1.4367 THE RIGHT STOP 
-2.1048 THE RIGHT TARGET 
-2.8287 THE RIGHT TARGETS 
-2.8287 THE RIGHT UNDO 
-2.8287 THE RIGHT UNTIL 
-2.8287 THE RIGHT UP 
-2.8287 THE RIGHT WAIT 
-0.4920 THE SAME LEVEL 
-1.2159 THE SAME LINE 
-1.2159 THE SAME OK 
-2.0118 THE SCREEN A 
-1.2879 THE SCREEN AND 
-2.0118 THE SCREEN BELOW 
-0.8922 THE SCREEN GO 
-2.0118 THE SCREEN IN 
-0.5528 THE SCREEN MOVE 
-2.0118 THE SCREEN NEAR 
-2.0118 THE SCREEN OH 
-2.0118 THE SCREEN REALLY 
-1.2879 THE SCREEN RUN 
-2.0118 THE SCREEN SAVER 
-2.0118 THE SCREEN SLIGHTLY 
-2.0118 THE SCREEN TO 
-2.0118 THE SCREEN UNDER 
-0.0843 THE SECOND MAGNET 
-1.8443 THE SECOND PUZZLE 
-1.1204 THE SECOND WALL 
-0.6138 THE SIMULATION RUN 
-2.4267 THE SMALL BALL 
-0.2109 THE SMALL BLUE 
-2.4267 THE SMALL MAGNET 
