#############################################################################
## Copyright (c) 1996, Carnegie Mellon University, Cambridge University,
## Ronald Rosenfeld and Philip Clarkson
#############################################################################
=============================================================================
===============  This file was produced by the CMU-Cambridge  ===============
===============     Statistical Language Modeling Toolkit     ===============
=============================================================================
This is a 3-gram language model, based on a vocabulary of 305 words,
  which begins "</s>", "<s>", "A"...
This is an OPEN-vocabulary model (type 1)
  (OOVs were mapped to UNK, which is treated as any other vocabulary word)
Good-Turing discounting was applied.
1-gram frequency of frequency : 56 
2-gram frequency of frequency : 740 203 80 47 25 22 22 
3-gram frequency of frequency : 1470 349 145 67 42 32 39 
1-gram discounting ratios : 0.98 
2-gram discounting ratios : 0.46 0.51 0.74 0.60 
3-gram discounting ratios : 0.40 0.57 0.56 0.75 0.90 
This file is in the ARPA-standard format introduced by Doug Paul.

p(wd3|wd1,wd2)= if(trigram exists)           p_3(wd1,wd2,wd3)
                else if(bigram w1,w2 exists) bo_wt_2(w1,w2)*p(wd3|wd2)
                else                         p(wd3|w2)

p(wd2|wd1)= if(bigram exists) p_2(wd1,wd2)
            else              bo_wt_1(wd1)*p_1(wd2)

All probs and back-off weights (bo_wt) are given in log10 form.

Data formats:

Beginning of data mark: \data\
ngram 1=nr            # number of 1-grams
ngram 2=nr            # number of 2-grams
ngram 3=nr            # number of 3-grams

\1-grams:
p_1     wd_1 bo_wt_1
\2-grams:
p_2     wd_1 wd_2 bo_wt_2
\3-grams:
p_3     wd_1 wd_2 wd_3 

end of data mark: \end\

\data\
ngram 1=306
ngram 2=1288
ngram 3=2322

\1-grams:
-4.0041 <UNK>	0.0000
-0.7126 </s>	-3.1903
-0.7122 <s>	2.0825
-1.7108 A	-1.5727
-3.3943 ABOUT	-0.1892
-2.4523 ABOVE	-1.1654
-3.5193 ACTION	-0.4903
-3.3943 ACTUALLY	-0.1667
-3.0933 ADD	-0.5665
-3.2182 AGAIN	-0.8095
-3.6954 AGAINST	-0.1243
-2.8503 ALL	-0.6702
-3.6954 ALREADY	-0.1700
-3.6954 ALRIGHT	-0.1711
-4.0041 AM	-0.1716
-3.5193 AMOUNT	-0.4903
-2.3731 AN	-1.4911
-2.3432 AND	-0.4606
-3.5193 ANOTHER	-0.1457
-3.3943 ARE	-0.1921
-2.9550 AS	-0.2126
-3.1513 AT	-0.1882
-3.6954 AWAY	-0.2145
-2.9964 BACK	-0.7020
-3.6954 BACKWARDS	-0.1715
-3.6954 BAD	-0.2145
-1.9472 BALL	-0.9670
-4.0041 BARRIERS	-0.1716
-3.6954 BASKET	-0.2145
-3.2974 BASKETS	-0.3179
-4.0041 BEEN	-0.1716
-2.6954 BELOW	-1.1672
-3.6954 BENEATH	-0.2145
-2.8824 BETWEEN	-0.7891
-4.0041 BETWEN	-0.1716
-3.6954 BIG	-0.1699
-3.5193 BIN	-0.4903
-3.6954 BINS	-0.2145
-2.0141 BIT	-1.6851
-3.6954 BLOCKS	-0.2145
-2.2560 BLUE	-1.9058
-3.5193 BOO	-0.1809
-3.3943 BOTH	-0.1438
-2.0933 BOTTOM	-1.5408
-3.5193 BOWLING	-0.1936
-3.6954 BOXES	-0.2145
-3.2974 BRACE	-0.6846
-3.6954 BROUGHT	-0.1713
-3.2974 BUT	-0.1568
-3.5193 BY	-0.1524
-3.1513 CAN	-0.2291
-3.6954 CAN'T	-0.1715
-2.9550 CENTER	-0.2284
-3.0933 CENTIMETER	-0.6100
-3.5193 CENTIMETERS	-0.4903
-3.6954 CLOCKWISE	-0.2145
-3.3943 CLOSER	-0.3730
-4.0041 COMES	-0.1716
-3.6954 COMING	-0.1712
-3.0933 CORNER	-0.8609
-4.0041 CORNERS	-0.1716
-3.6954 DEGREES	-0.1715
-3.5193 DELETE	-0.1032
-3.6954 DIAGONAL	-0.2145
-3.6954 DIRECTION	-0.1714
-3.0933 DIRECTLY	-0.2612
-3.5193 DO	-0.1709
-4.0041 DOES	-0.1716
-3.6954 DOING	-0.1700
-4.0041 DON'T	-0.1716
-1.9550 DOWN	-0.9900
-3.3943 DRAT	-0.3009
-3.5193 EACH	-0.1703
-3.0933 EDGE	-1.1190
-3.6954 EIGHT	-0.1711
-3.6954 EIGHTH	-0.1648
-3.6954 ELEVEN	-0.2145
-3.6954 EVEN	-0.1713
-3.6954 EVIL	-0.1715
-3.6954 EXCELLENT	-0.2145
-2.2330 EXECUTE	-1.4890
-3.2974 FAR	-0.1698
-3.5193 FARTHER	-0.1865
-3.6954 FEET	-0.2145
-3.6954 FIELD	-0.2145
-4.0041 FIGURE	-0.1716
-4.0041 FIND	-0.1716
-4.0041 FINISH	-0.2651
-2.7923 FIRST	-1.0470
-3.6954 FIVE	-0.1715
-4.0041 FOR	-0.1716
-4.0041 FORM	-0.1716
-3.5193 FOUR	-0.1710
-3.5193 FROM	-0.1524
-3.6954 FUDGE	-0.2145
-4.0041 FURTHER	-0.2545
-3.6954 GAME	-0.2145
-2.8824 GET	-1.0054
-3.6954 GETTING	-0.1709
-3.5193 GIVE	-0.1944
-1.7019 GO	-1.8967
-3.5193 GOAL	-0.4903
-4.0041 GOES	-0.1716
-3.2974 GOOD	-0.1946
-2.7176 HALF	-0.8305
-3.3943 HALFWAY	-0.3730
-4.0041 HAND	-0.1716
-4.0041 HANG	-0.1716
-3.5193 HAVE	-0.1577
-4.0041 HEAD	-0.1716
-3.5193 HEIGHT	-0.1929
-3.2974 HELLO	-0.6846
-3.5193 HELP	-0.1994
-4.0041 HIGH	-0.2646
-3.3943 HIGHER	-0.3009
-3.5193 HIGHEST	-0.1428
-3.5193 HIT	-0.1242
-3.6954 HOLE	-0.1709
-3.6954 HOW	-0.1714
-3.0933 I	-0.2028
-3.6954 I'M	-0.1715
-4.0041 I'VE	-0.1716
-3.6954 IMAGE	-0.2145
-3.5193 IMMEDIATELY	-0.1865
-2.7659 IN	-0.6844
-2.3243 INCH	-1.2356
-3.0421 INCHES	-0.6680
-3.6954 INSIDE	-0.1648
-3.6954 INTERESTING	-0.2145
-3.6954 INTO	-0.1243
-2.6540 IS	-0.2729
-2.1575 IT	-1.1266
-2.8503 IT'S	-0.2277
-3.5193 JOB	-0.4903
-2.8203 JUST	-0.5125
-4.0041 KAIYUH	-0.2650
-4.0041 KEEP	-0.1716
-3.6954 L	-0.2650
-3.2182 LARGE	-0.2386
-3.0933 LAST	-0.2155
-4.0041 LEDGE	-0.1716
-1.5881 LEFT	-1.0563
-4.0041 LEFTMOST	-0.1716
-4.0041 LENGTH	-0.1716
-3.1513 LESS	-0.8607
-4.0041 LET'S	-0.2650
-4.0041 LETS	-0.1716
-3.3943 LEVEL	-0.2139
-3.6954 LIFE	-0.1704
-3.6954 LIKE	-0.1714
-4.0041 LINE	-0.1716
-1.9208 LITTLE	-1.2326
-3.3943 LOAD	-0.1913
-3.3943 LOT	-0.3730
-3.6954 LOW	-0.2145
-3.6954 LOWER	-0.1703
-3.2974 LOWEST	-0.2486
-4.0041 MAGNER	-0.1716
-1.3783 MAGNET	-1.2198
-2.6347 MAGNETS	-0.6003
-3.6954 MAKE	-0.1711
-3.6954 MAYBE	-0.2145
-3.2974 ME	-0.3334
-4.0041 MEAN	-0.1716
-3.6954 MEANING	-0.1648
-2.1271 MIDDLE	-1.3339
-4.0041 MO	-0.1716
-4.0041 MOCE	-0.1716
-3.6954 MONITOR	-0.1708
-2.7176 MORE	-1.4594
-2.4523 MOST	-0.8406
-1.3403 MOVE	-1.5226
-4.0041 MOVED	-0.1716
-4.0041 MOVES	-0.1716
-3.6954 MOVING	-0.2145
-3.6954 MY	-0.1715
-3.1513 NEAR	-0.9694
-2.6347 NEW	-1.5101
-2.9550 NEXT	-0.5195
-3.6954 NINETY	-0.1715
-2.9172 NO	-0.6544
-3.2974 NOT	-0.1749
-3.6954 NOW	-0.1711
-2.0988 OBJECT	-0.9187
-1.9030 OF	-1.2821
-3.5193 OFF	-0.1241
-3.1513 OH	-0.1171
-2.3731 OK	-1.1145
-3.3943 OKAY	-0.1671
-2.5492 ON	-0.9407
-3.6954 ONCE	-0.2145
-3.0421 ONE	-0.4890
-3.5193 ONLY	-0.1682
-4.0041 ONTO	-0.1716
-3.5193 OR	-0.1712
-3.5193 OTHER	-0.1996
-3.6954 OUT	-0.1243
-3.3943 OVER	-0.1305
-3.6954 PEOPLE	-0.1713
-3.6954 PINK	-0.1654
-2.3731 PLACE	-1.2601
-3.5193 PLEASE	-0.1744
-3.5193 PROGRAM	-0.1994
-4.0041 PULLS	-0.1716
-2.4166 PUT	-0.3217
-2.9172 PUZZLE	-1.2854
-2.7659 QUARTER	-1.4201
-3.6954 READ	-0.1654
-4.0041 REALLY	-0.1716
-2.5050 RED	-1.6568
-2.9550 REMOVE	-0.8601
-3.3943 RESET	-0.3009
-3.3943 RESTART	-0.3009
-2.9172 RID	-1.2440
-1.6700 RIGHT	-0.9898
-4.0041 RIGHTMOST	-0.1716
-3.6954 ROOM	-0.2145
-3.3943 ROTATE	-0.1450
-4.0041 ROW	-0.1716
-2.1156 RUN	-1.8524
-3.3943 SAME	-0.1921
-3.6954 SAVER	-0.2145
-2.5984 SCREEN	-0.8720
-2.7176 SECOND	-0.7387
-3.6954 SEE	-0.2145
-4.0041 SESSION	-0.1716
-3.6954 SHAPE	-0.2145
-3.6954 SHAPED	-0.1707
-3.6954 SHUT	-0.1714
-3.6954 SIMULATION	-0.2145
-2.7659 SLIGHTLY	-0.7234
-2.1703 SMALL	-1.2112
-2.4282 SO	-0.8468
-4.0041 SOLVE	-0.1716
-3.6954 SOLVED	-0.2145
-3.2974 SOME	-0.6846
-3.5193 SOMETHING	-0.4903
-4.0041 SORRY	-0.1716
-3.6954 STACK	-0.1648
-2.2482 START	-1.9272
-1.4662 STOP	-1.9187
-4.0041 STRAIGHT	-0.1716
-3.6954 STRONGER	-0.2145
-3.6954 STUPID	-0.1699
-3.5193 SUCH	-0.1982
-4.0041 SURROUNDING	-0.1716
-3.5193 TAKE	-0.1996
-4.0041 TARGER	-0.1716
-2.6954 TARGET	-1.1786
-3.2974 TARGETS	-0.6846
-3.6954 TELL	-0.1713
-4.0041 TEN	-0.1716
-3.6954 THANK	-0.1713
-2.5492 THAT	-0.6206
-2.8824 THAT'S	-0.2515
-1.0799 THE	-1.4193
-3.3943 THEM	-0.1923
-3.2182 THEN	-0.2224
-3.6954 THESE	-0.1713
-3.2974 THEY	-0.1876
-4.0041 THEY'RE	-0.1716
-4.0041 THINK	-0.1716
-2.7923 THIRD	-1.3525
-3.3943 THIS	-0.1392
-3.6954 THOUGHT	-0.1713
-3.6954 THREE	-0.1703
-4.0041 THROUGH	-0.1716
-2.8824 TINY	-1.3124
-1.6180 TO	-1.4210
-3.6954 TOO	-0.2145
-2.4166 TOP	-0.7536
-4.0041 TOPMOST	-0.1716
-3.0933 TOUCHES	-1.0274
-3.2974 TOUCHING	-0.2245
-4.0041 TRYING	-0.1716
-3.5193 TURN	-0.1241
-2.5984 TWO	-0.5693
-3.6954 UH	-0.1715
-4.0041 UM	-0.1716
-2.6742 UNDER	-0.7936
-3.2974 UNDERNEATH	-0.2245
-3.0421 UNDO	-0.3299
-4.0041 UNIT	-0.1716
-3.6954 UNTIL	-0.1678
-2.0052 UP	-0.8546
-4.0041 UPPER	-0.1716
-3.5193 UPSIDE	-0.1937
-4.0041 UPSIDE-DOWN	-0.1716
-3.0421 VERY	-0.5300
-3.2974 WAIT	-0.1871
-2.7923 WALL	-0.7886
-3.3943 WALLS	-0.3809
-3.3943 WAS	-0.3861
-2.9964 WAY	-0.5907
-3.6954 WEIRD	-0.2145
-3.6954 WELL	-0.1684
-3.5193 WHAT	-0.1229
-4.0041 WHAT'S	-0.1716
-3.5193 WHERE	-0.1524
-3.5193 WHOA	-0.1992
-3.6954 WITH	-0.1243
-3.6954 WORK	-0.1700
-3.6954 WOW	-0.2145
-3.5193 YEAH	-0.1974
-3.2974 YOU	-0.1878
-3.6954 YOUR	-0.1599

\2-grams:
-0.0002 </s> <s> 0.0288
-3.6244 <s> </s> 3.0651
-3.6244 <s> <s> -0.2132
-1.8863 <s> A -0.3505
-2.9383 <s> ABOUT 0.0672
-2.2428 <s> ABOVE -0.1934
-3.6244 <s> ACTION 0.3649
-2.9063 <s> ACTUALLY 0.0010
-2.3811 <s> ADD 0.1093
-2.9383 <s> AGAIN 0.5481
-3.6244 <s> AGAINST -0.1063
-3.6244 <s> ALL -0.2045
-3.6244 <s> ALREADY -0.1063
-3.2773 <s> ALRIGHT 0.0462
-3.6244 <s> AM 0.0462
-3.6244 <s> AMOUNT 0.3649
-2.9063 <s> AN 1.1181
-2.0538 <s> AND 0.3001
-3.2773 <s> ANOTHER -0.0611
-3.2773 <s> ARE -0.0195
-3.6244 <s> AS -0.2005
-3.2773 <s> AT 0.0075
-3.6244 <s> AWAY 0.0891
-3.2773 <s> BACK 0.5250
-3.6244 <s> BACKWARDS -0.1063
-3.2773 <s> BAD -0.0551
-3.2773 <s> BALL 0.0310
-3.6244 <s> BARRIERS 0.0462
-3.6244 <s> BASKET 0.0891
-3.6244 <s> BASKETS 0.0357
-3.6244 <s> BEEN 0.0462
-2.5852 <s> BELOW 0.9498
-3.2773 <s> BENEATH -0.0551
-3.2773 <s> BETWEEN 0.5975
-3.6244 <s> BETWEN 0.0462
-3.6244 <s> BIG -0.1063
-3.6244 <s> BIN 0.3649
-3.6244 <s> BINS 0.0891
-3.6244 <s> BIT 0.2160
-3.6244 <s> BLOCKS 0.0891
-2.9383 <s> BLUE 1.6959
-2.9383 <s> BOO -0.0163
-3.6244 <s> BOTH -0.1662
-3.2773 <s> BOTTOM 0.1151
-2.9383 <s> BOWLING -0.0163
-3.6244 <s> BOXES 0.0891
-3.6244 <s> BRACE 0.5592
-3.6244 <s> BROUGHT -0.1063
-2.9383 <s> BUT -0.0798
-2.9383 <s> BY -0.0163
-3.2773 <s> CAN -0.1582
-3.6244 <s> CAN'T -0.1063
-2.9383 <s> CENTER -0.2471
-3.6244 <s> CENTIMETER 0.2071
-3.6244 <s> CENTIMETERS 0.3649
-3.6244 <s> CLOCKWISE 0.0891
-3.6244 <s> CLOSER -0.1662
-3.6244 <s> COMES 0.0462
-3.6244 <s> COMING -0.1063
-3.6244 <s> CORNER 0.4343
-3.6244 <s> CORNERS 0.0462
-3.6244 <s> DEGREES -0.1063
-2.9383 <s> DELETE 0.0462
-3.2773 <s> DIAGONAL -0.0551
-3.6244 <s> DIRECTION -0.1063
-3.2773 <s> DIRECTLY -0.0422
-3.6244 <s> DO -0.1472
-3.6244 <s> DOES 0.0462
-3.6244 <s> DOING -0.1063
-3.6244 <s> DON'T 0.0462
-1.9620 <s> DOWN 0.2043
-2.9063 <s> DRAT -0.2095
-3.6244 <s> EACH -0.1472
-3.6244 <s> EDGE -0.1963
-3.2773 <s> EIGHT 0.0462
-3.6244 <s> EIGHTH -0.1063
-3.2773 <s> ELEVEN -0.0551
-3.6244 <s> EVEN -0.1063
-3.6244 <s> EVIL -0.1063
-3.2773 <s> EXCELLENT -0.0551
-1.5360 <s> EXECUTE -0.3369
-3.6244 <s> FAR -0.1773
-3.2773 <s> FARTHER -0.1835
-3.6244 <s> FEET 0.0891
-3.6244 <s> FIELD 0.0891
-3.6244 <s> FIGURE 0.0462
-3.6244 <s> FIND 0.0462
-3.6244 <s> FINISH 0.0462
-3.6244 <s> FIRST -0.2063
-3.2773 <s> FIVE 0.0462
-3.6244 <s> FOR 0.0462
-3.6244 <s> FORM 0.0462
-3.6244 <s> FOUR -0.1472
-3.6244 <s> FROM -0.1472
-3.6244 <s> FUDGE 0.0891
-3.6244 <s> GAME 0.0891
-2.2050 <s> GET 0.1132
-3.6244 <s> GETTING -0.1063
-3.6244 <s> GIVE -0.1472
-1.0147 <s> GO -0.1847
-3.2773 <s> GOAL 0.2207
-3.6244 <s> GOES 0.0462
-2.5852 <s> GOOD -0.0311
-2.3811 <s> HALF 0.1692
-3.6244 <s> HALFWAY 0.1322
-3.6244 <s> HAND 0.0462
-3.6244 <s> HANG 0.0462
-3.6244 <s> HAVE -0.1472
-3.6244 <s> HEIGHT -0.0393
-2.5852 <s> HELLO -0.2280
-2.9383 <s> HELP -0.0163
-3.6244 <s> HIGHER 0.1755
-3.6244 <s> HIGHEST -0.1472
-3.2773 <s> HIT -0.0611
-3.6244 <s> HOLE -0.1063
-3.6244 <s> HOW -0.1063
-2.9383 <s> I -0.0571
-3.6244 <s> I'M -0.1063
-3.6244 <s> I'VE 0.0462
-3.6244 <s> IMAGE 0.0891
-2.9383 <s> IMMEDIATELY -0.0163
-2.9063 <s> IN 0.2563
-3.6244 <s> INCH 0.5081
-3.6244 <s> INCHES 0.3040
-3.2773 <s> INSIDE 0.0462
-3.2773 <s> INTERESTING -0.0551
-3.6244 <s> INTO -0.1063
-3.6244 <s> IS -0.1728
-3.6244 <s> IT -0.1609
-3.2773 <s> IT'S -0.1896
-3.6244 <s> JOB 0.3649
-3.2773 <s> JUST -0.1916
-3.6244 <s> KEEP 0.0462
-3.6244 <s> LARGE -0.1845
-3.6244 <s> LAST -0.1934
-3.6244 <s> LEDGE 0.0462
-2.5061 <s> LEFT 0.1608
-3.6244 <s> LEFTMOST 0.0462
-3.6244 <s> LENGTH 0.0462
-2.9063 <s> LESS 0.3503
-3.6244 <s> LET'S 0.0462
-3.6244 <s> LETS 0.0462
-3.6244 <s> LEVEL -0.0916
-3.6244 <s> LIFE -0.1063
-3.6244 <s> LIKE -0.1063
-3.6244 <s> LINE 0.0462
-3.6244 <s> LITTLE -0.1361
-2.9063 <s> LOAD 0.0010
-3.6244 <s> LOT 0.1322
-3.6244 <s> LOW 0.0891
-3.6244 <s> LOWER -0.1063
-3.6244 <s> LOWEST -0.1773
-3.6244 <s> MAGNER 0.0462
-2.4391 <s> MAGNET 0.0063
-3.6244 <s> MAGNETS -0.0692
-3.6244 <s> MAKE -0.1063
-3.2773 <s> MAYBE -0.0551
-3.6244 <s> ME 0.0357
-3.6244 <s> MEAN 0.0462
-3.6244 <s> MEANING -0.1063
-3.2773 <s> MIDDLE -0.0066
-3.6244 <s> MO 0.0462
-3.6244 <s> MOCE 0.0462
-3.6244 <s> MONITOR -0.1063
-3.2773 <s> MORE 0.9379
-3.6244 <s> MOST -0.2132
-0.6538 <s> MOVE 0.0211
-3.6244 <s> MOVED 0.0462
-3.6244 <s> MOVES 0.0462
-3.6244 <s> MOVING 0.0891
-3.6244 <s> MY -0.1063
-2.9063 <s> NEAR 0.7935
-3.6244 <s> NEW -0.2102
-2.5061 <s> NEXT 0.2638
-3.6244 <s> NINETY -0.1063
-2.3300 <s> NO -0.6086
-3.2773 <s> NOT -0.1313
-3.6244 <s> NOW -0.1063
-3.2773 <s> OBJECT -0.2594
-3.6244 <s> OF -0.2111
-3.6244 <s> OFF -0.1472
-2.4391 <s> OH -0.0062
-1.6931 <s> OK 0.2300
-2.9063 <s> OKAY 0.0010
-2.9383 <s> ON 0.6657
-3.6244 <s> ONCE 0.0891
-2.9063 <s> ONE 0.0881
-3.6244 <s> ONLY -0.1472
-3.6244 <s> ONTO 0.0462
-3.2773 <s> OR -0.0611
-3.6244 <s> OTHER -0.0393
-3.6244 <s> OUT -0.1063
-3.6244 <s> OVER -0.0916
-3.6244 <s> PEOPLE -0.1063
-3.6244 <s> PINK -0.1063
-1.6931 <s> PLACE 0.0159
-2.9383 <s> PLEASE -0.0163
-2.9383 <s> PROGRAM -0.0163
-3.6244 <s> PULLS 0.0462
-1.7657 <s> PUT -0.0403
-2.9383 <s> PUZZLE 1.0695
-2.9383 <s> QUARTER 1.2109
-3.6244 <s> READ -0.1063
-3.6244 <s> REALLY 0.0462
-3.6244 <s> RED -0.2125
-2.2428 <s> REMOVE 0.0462
-2.9063 <s> RESET -0.2095
-2.9383 <s> RESTART 0.0395
-3.6244 <s> RID -0.2021
-2.2842 <s> RIGHT 0.0677
-3.6244 <s> RIGHTMOST 0.0462
-3.6244 <s> ROOM 0.0891
-2.9383 <s> ROTATE -0.1101
-3.6244 <s> ROW 0.0462
-1.4091 <s> RUN 0.0561
-3.6244 <s> SAME -0.1662
-3.6244 <s> SAVER 0.0891
-3.6244 <s> SCREEN 0.4971
-3.2773 <s> SECOND 0.4025
-3.6244 <s> SEE 0.0891
-3.6244 <s> SHAPE 0.0891
-3.6244 <s> SHAPED -0.1063
-3.6244 <s> SHUT -0.1063
-3.6244 <s> SIMULATION 0.0891
-2.9063 <s> SLIGHTLY 0.3382
-3.2773 <s> SMALL 0.1644
-2.1081 <s> SO 0.1486
-3.6244 <s> SOLVE 0.0462
-3.6244 <s> SOLVED 0.0891
-2.9383 <s> SOME 0.4232
-3.2773 <s> SOMETHING 0.2207
-3.6244 <s> SORRY 0.0462
-3.6244 <s> STACK -0.1063
-1.5360 <s> START 0.0539
-0.7683 <s> STOP 0.1181
-3.6244 <s> STRAIGHT 0.0462
-3.6244 <s> STRONGER 0.0891
-3.2773 <s> STUPID 0.0462
-3.2773 <s> SUCH 0.0744
-3.6244 <s> SURROUNDING 0.0462
-2.9383 <s> TAKE -0.0163
-3.6244 <s> TARGER 0.0462
-3.2773 <s> TARGET 0.6581
-3.6244 <s> TARGETS 0.5592
-3.2773 <s> TELL 0.0462
-3.6244 <s> TEN 0.0462
-3.6244 <s> THANK -0.1063
-2.9063 <s> THAT -0.0565
-3.2773 <s> THAT'S -0.1873
-1.9620 <s> THE 0.3055
-3.6244 <s> THEM -0.0916
-3.2773 <s> THEN 0.0601
-3.6244 <s> THESE -0.1063
-3.6244 <s> THEY -0.1773
-3.6244 <s> THEY'RE 0.0462
-3.6244 <s> THINK 0.0462
-3.2773 <s> THIRD 1.2503
-3.6244 <s> THIS -0.1662
-3.6244 <s> THOUGHT -0.1063
-3.2773 <s> THREE 0.0462
-3.6244 <s> THROUGH 0.0462
-3.6244 <s> TINY -0.2045
-1.6714 <s> TO 0.0814
-3.6244 <s> TOO 0.0891
-2.9383 <s> TOP 0.4066
-3.6244 <s> TOPMOST 0.0462
-3.6244 <s> TOUCHES -0.1934
-3.6244 <s> TOUCHING -0.1773
-3.6244 <s> TRYING 0.0462
-2.9383 <s> TURN 0.0462
-2.4391 <s> TWO -0.2988
-3.2773 <s> UH 0.0462
-3.6244 <s> UM 0.0462
-3.2773 <s> UNDER 0.5256
-3.6244 <s> UNDERNEATH -0.1773
-2.5061 <s> UNDO 0.0938
-3.6244 <s> UNIT 0.0462
-3.6244 <s> UNTIL -0.1063
-2.0055 <s> UP -0.3286
-3.6244 <s> UPPER 0.0462
-3.2773 <s> UPSIDE 0.0744
-3.6244 <s> UPSIDE-DOWN 0.0462
-3.6244 <s> VERY -0.1963
-2.9383 <s> WAIT -0.0071
-3.6244 <s> WALL 0.4095
-3.6244 <s> WALLS 0.1322
-3.6244 <s> WAS 0.1322
-3.6244 <s> WAY -0.2005
-3.6244 <s> WEIRD 0.0891
-3.2773 <s> WELL 0.0462
-3.6244 <s> WHAT -0.1472
-3.6244 <s> WHAT'S 0.0462
-3.6244 <s> WHERE -0.1472
-2.9383 <s> WHOA -0.0163
-3.2773 <s> WITH 0.0462
-3.6244 <s> WORK -0.1063
-3.2773 <s> WOW -0.0551
-2.9383 <s> YEAH -0.0163
-3.2773 <s> YOU -0.0674
-3.6244 <s> YOUR -0.1063
-2.2853 A </s> 2.9209
-2.6324 A BIT -0.1915
-1.4472 A CENTIMETER 0.2662
-0.2509 A LITTLE -0.0452
-1.9463 A LOT 0.1702
-0.9120 A MAGNET -0.2926
-1.1461 A NEW 0.2156
-1.1783 A QUARTER 0.1413
-2.6324 A SECOND 0.3609
-2.2853 A THIRD 0.8410
-1.1783 A TINY 0.0322
-1.5141 A VERY -0.0286
-0.9422 ABOUT </s> 3.0651
-0.5951 ABOUT AN 0.9591
-0.9422 ABOUT HALF -0.1963
-0.8451 ABOVE </s> 2.2778
-1.8842 ABOVE AND 0.0382
-1.8842 ABOVE BALL 0.1752
-1.8842 ABOVE LEFT -0.2172
-0.1127 ABOVE THE -0.4211
-0.1312 ACTION </s> 2.9290
-0.9422 ACTUALLY </s> 3.0651
-0.5951 ACTUALLY MOVE 0.4263
-0.9422 ACTUALLY UNDO -0.0960
-0.8962 ADD </s> 2.9209
-0.2041 ADD A -0.4013
-1.2433 ADD THE -0.2178
-0.0580 AGAIN </s> 2.4389
-0.6412 AGAINST </s> 3.0651
-0.6412 AGAINST THE -0.1863
-1.4863 ALL </s> 3.0651
-0.7683 ALL MAGNETS 0.0722
-0.1919 ALL THE -0.8277
-0.6412 ALREADY </s> 3.0651
-0.6412 ALREADY ON 0.0974
-0.6412 ALRIGHT </s> 3.0651
-0.6412 ALRIGHT I -0.1599
-0.3402 AM </s> 3.0651
-0.1312 AMOUNT </s> 2.9290
-1.9634 AN </s> 3.0651
-1.9634 AN EIGHTH -0.1063
-0.0212 AN INCH -0.0303
-0.7690 AND </s> 2.3809
-2.0123 AND A -0.2054
-2.0123 AND DOWN 0.0860
-2.0123 AND GO 1.4757
-1.6652 AND MOVE 0.4263
-2.0123 AND ONE 0.1333
-2.0123 AND RESTART 0.1755
-2.0123 AND RUN -0.2062
-2.0123 AND SLIGHTLY -0.1937
-2.0123 AND STOP 1.4675
-1.6652 AND THE -0.1784
-1.2942 AND THEN -0.0377
-0.3499 AND TO -0.2430
-1.6652 AND UP -0.2264
-0.8173 ANOTHER </s> 3.0651
-0.8173 ANOTHER INCH 0.5081
-0.8173 ANOTHER MAGNET -0.2063
-0.5951 ARE </s> 2.9209
-0.9422 ARE COMING -0.1063
-0.9422 ARE THEY -0.1773
-1.3816 AS </s> 3.0651
-0.6955 AS FAR -0.1580
-1.3816 AS HIGH 0.0462
-1.0345 AS IT -0.3569
-1.0345 AS THE -0.1010
-1.0345 AS THEY -0.2645
-1.1853 AT </s> 3.0651
-1.1853 AT BOTTOM -0.1439
-1.1853 AT ME 0.0357
-0.4672 AT THE -0.2836
-0.2941 AWAY </s> 2.9209
-0.1383 BACK </s> 2.3809
-1.3816 BACK THE -0.1336
-1.0345 BACK TO 0.7161
-0.6412 BACKWARDS </s> 3.0651
-0.6412 BACKWARDS L -0.1063
-0.2941 BAD </s> 2.9209
-0.2244 BALL </s> 1.4515
-2.3971 BALL A 0.1388
-2.3971 BALL AND 0.0382
-2.3971 BALL BUT -0.1773
-1.0569 BALL DOWN -0.1670
-2.0500 BALL JUST -0.3327
-1.6790 BALL ON -0.2877
-2.3971 BALL OVER -0.1662
-2.0500 BALL PLACE 0.2187
-2.0500 BALL SLIGHTLY -0.1963
-2.3971 BALL SMALL -0.0428
-2.3971 BALL THE -0.1858
-0.8808 BALL TO -0.0969
-1.3579 BALL UP -0.0290
-0.3402 BARRIERS </s> 3.0651
-0.2941 BASKET </s> 2.9209
-0.3530 BASKETS </s> 2.9290
-1.0391 BASKETS A 0.1388
-1.0391 BASKETS UP 0.0252
-0.3402 BEEN </s> 3.0651
-1.2941 BELOW </s> 2.9209
-0.0458 BELOW THE -0.1005
-0.2941 BENEATH </s> 2.9209
-1.1070 BETWEEN </s> 2.9209
-1.4541 BETWEEN BINS 0.0891
-0.1139 BETWEEN THE -0.5865
-0.3402 BETWEN </s> 3.0651
-0.6412 BIG </s> 3.0651
-0.6412 BIG RED 1.2724
-0.1312 BIN </s> 2.9290
-0.2941 BINS </s> 2.9209
-0.1988 BIT </s> 1.3921
-2.3314 BIT AND -0.1379
-1.0881 BIT DOWN -0.5981
-1.2131 BIT MORE 0.8282
-0.7125 BIT TO -0.1996
-1.9843 BIT UP -0.1190
-0.2941 BLOCKS </s> 2.9209
-2.0805 BLUE </s> 3.0651
-0.0080 BLUE BALL -0.0400
-0.4702 BOO </s> 2.9209
-0.8173 BOO STOP 1.4675
-0.9422 BOTH </s> 3.0651
-0.5951 BOTH MAGNETS -0.1676
-0.9422 BOTH THE -0.1336
-0.7999 BOTTOM </s> 2.1700
-1.0687 BOTTOM LEFT -0.1788
-0.4225 BOTTOM MAGNET -0.4965
-2.2540 BOTTOM MAGNETS -0.1734
-0.8346 BOTTOM OBJECT -0.0105
-1.0107 BOTTOM OF -0.3247
-1.0107 BOTTOM RIGHT -0.8189
-2.2540 BOTTOM TWO -0.2109
-2.2540 BOTTOM WALL 0.4095
-0.8173 BOWLING </s> 3.0651
-0.4702 BOWLING BALL 0.0310
-0.2941 BOXES </s> 2.9209
-0.0792 BRACE </s> 2.2778
-0.6412 BROUGHT </s> 3.0651
-0.6412 BROUGHT THEM -0.1662
-1.0391 BUT </s> 3.0651
-1.0391 BUT BELOW 0.7811
-1.0391 BUT NOT -0.1203
-1.0391 BUT SAME -0.1662
-1.0391 BUT TO 0.8603
-0.8173 BY </s> 3.0651
-0.4702 BY THE -0.1333
-1.1853 CAN </s> 3.0651
-0.4672 CAN GO 1.0907
-1.1853 CAN I -0.1934
-1.1853 CAN YOU -0.1773
-0.6412 CAN'T </s> 3.0651
-0.6412 CAN'T MAKE -0.1063
-1.3816 CENTER </s> 3.0651
-1.0345 CENTER BOTTOM -0.2944
-1.0345 CENTER MAGNET -0.1942
-1.0345 CENTER OF 0.2153
-1.3816 CENTER TARGET 0.8023
-0.6955 CENTER WALLS 0.1702
-0.2041 CENTIMETER </s> 2.2778
-1.2433 CENTIMETER AND 0.0382
-0.8962 CENTIMETER TO 0.8703
-0.1312 CENTIMETERS </s> 2.9290
-0.2941 CLOCKWISE </s> 2.9209
-0.9422 CLOSER </s> 3.0651
-0.2561 CLOSER TO 0.7242
-0.3402 COMES </s> 3.0651
-0.6412 COMING </s> 3.0651
-0.6412 COMING AT -0.1896
-0.1091 CORNER </s> 2.4389
-0.9473 CORNER OF 0.2153
-0.3402 CORNERS </s> 3.0651
-0.6412 DEGREES </s> 3.0651
-0.6412 DEGREES CLOCKWISE 0.0891
-0.8173 DELETE </s> 3.0651
-0.8173 DELETE STOP 1.4675
-0.8173 DELETE THE -0.2046
-0.2941 DIAGONAL </s> 2.9209
-0.6412 DIRECTION </s> 3.0651
-0.6412 DIRECTION OR -0.1472
-1.2433 DIRECTLY </s> 3.0651
-1.2433 DIRECTLY ABOVE 0.4221
-1.2433 DIRECTLY BELOW 0.7811
-0.8962 DIRECTLY TO 0.7161
-0.5572 DIRECTLY UNDER 0.4349
-0.8173 DO </s> 3.0651
-0.8173 DO I -0.1599
-0.8173 DO THEY -0.1773
-0.3402 DOES </s> 3.0651
-0.6412 DOING </s> 3.0651
-0.6412 DOING THAT -0.1335
-0.3402 DON'T </s> 3.0651
-0.2971 DOWN </s> 1.5358
-0.5682 DOWN A -0.4195
-2.3855 DOWN AGAINST -0.1063
-1.6994 DOWN AN 0.9672
-1.2002 DOWN AND -0.7992
-2.3855 DOWN AS -0.1768
-2.3855 DOWN AT -0.0378
-2.3855 DOWN BACKWARDS -0.1063
-2.3855 DOWN HALF 0.3040
-2.3855 DOWN IN 0.3126
-2.3855 DOWN JUST 0.1121
-2.3855 DOWN MORE 1.0821
-2.3855 DOWN QUARTER 1.0364
-2.0384 DOWN SLIGHTLY 0.1932
-2.0384 DOWN SO 0.2032
-2.0384 DOWN TWO -0.2439
-0.2242 DRAT </s> 2.6801
-0.8173 EACH </s> 3.0651
-0.8173 EACH OTHER -0.0393
-0.8173 EACH TARGET 0.8023
-1.2944 EDGE </s> 3.0651
-0.0512 EDGE OF -0.3247
-0.6412 EIGHT </s> 3.0651
-0.6412 EIGHT INCHES -0.1986
-0.6412 EIGHTH </s> 3.0651
-0.6412 EIGHTH OF -0.1514
-0.2941 ELEVEN </s> 2.9209
-0.6412 EVEN </s> 3.0651
-0.6412 EVEN CLOSER 0.1322
-0.6412 EVIL </s> 3.0651
-0.6412 EVIL PEOPLE -0.1063
-0.2941 EXCELLENT </s> 2.9209
-0.0227 EXECUTE </s> 1.5358
-2.1110 EXECUTE IT -0.2161
-1.7639 EXECUTE PUZZLE 0.7508
-1.0391 FAR </s> 3.0651
-0.6921 FAR AS -0.1302
-1.0391 FAR DOWN -0.2171
-1.0391 FAR RIGHT -0.2086
-0.4702 FARTHER </s> 2.9209
-0.8173 FARTHER TO 0.8603
-0.2941 FEET </s> 2.9209
-0.2941 FIELD </s> 2.9209
-0.3402 FIGURE </s> 3.0651
-0.3402 FIND </s> 3.0651
-0.3402 FINISH SESSION 0.0462
-1.5443 FIRST </s> 3.0651
-0.0580 FIRST MAGNET -0.1659
-1.5443 FIRST OBJECT -0.1152
-0.6412 FIVE </s> 3.0651
-0.6412 FIVE FEET 0.0891
-0.3402 FOR </s> 3.0651
-0.3402 FORM </s> 3.0651
-0.8173 FOUR </s> 3.0651
-0.8173 FOUR BOXES 0.0891
-0.8173 FOUR INCHES -0.1986
-0.8173 FROM </s> 3.0651
-0.4702 FROM THE -0.0936
-0.2941 FUDGE </s> 2.9209
-0.3402 FURTHER TO 0.8603
-0.2941 GAME </s> 2.9209
-1.4863 GET </s> 3.0651
-1.4863 GET A -0.1867
-0.0669 GET RID 0.0000
-0.6412 GETTING </s> 3.0651
-0.6412 GETTING NO -0.2034
-0.8173 GIVE </s> 3.0651
-0.4702 GIVE UP -0.2149
-0.0089 GO </s> 0.9962
-2.2897 GO GO 1.6030
-2.2897 GO ON -0.3476
-0.1312 GOAL </s> 2.9290
-0.3402 GOES </s> 3.0651
-0.6921 GOOD </s> 2.9209
-1.0391 GOOD GO 1.4757
-0.6921 GOOD JOB 0.2207
-1.6412 HALF </s> 3.0651
-0.9551 HALF A -0.3392
-0.1549 HALF AN 0.1761
-1.2941 HALF WAY 0.2731
-0.2561 HALFWAY </s> 2.9290
-0.9422 HALFWAY TO 0.8603
-0.3402 HAND </s> 3.0651
-0.3402 HANG </s> 3.0651
-0.8173 HAVE </s> 3.0651
-0.8173 HAVE NO -0.2034
-0.8173 HAVE TO -0.2181
-0.3402 HEAD </s> 3.0651
-0.4702 HEIGHT </s> 2.9209
-0.8173 HEIGHT OF 0.3595
-0.0792 HELLO </s> 2.2778
-0.8173 HELP </s> 3.0651
-0.4702 HELP ME 0.1136
-0.3402 HIGH AS -0.1768
-0.2242 HIGHER </s> 2.6801
-0.8173 HIGHEST </s> 3.0651
-0.8173 HIGHEST MAGNET -0.1765
-0.8173 HIGHEST UP -0.1874
-0.8173 HIT </s> 3.0651
-0.8173 HIT KAIYUH 0.0462
-0.8173 HIT THE -0.2187
-0.6412 HOLE </s> 3.0651
-0.6412 HOLE BETWEEN 0.4179
-0.6412 HOW </s> 3.0651
-0.6412 HOW DO -0.1472
-0.8962 I </s> 2.9209
-0.8962 I GIVE -0.1835
-0.8962 I HAVE -0.0611
-1.2433 I ONLY -0.1472
-1.2433 I THOUGHT -0.1063
-0.6412 I'M </s> 3.0651
-0.6412 I'M GETTING -0.1063
-0.3402 I'VE </s> 3.0651
-0.2941 IMAGE </s> 2.9209
-0.8173 IMMEDIATELY </s> 3.0651
-0.4702 IMMEDIATELY TO 0.7161
-1.5706 IN </s> 3.0651
-1.2235 IN BETWEEN 0.2737
-1.2235 IN MIDDLE -0.3206
-0.1513 IN THE -0.5547
-0.0902 INCH </s> 1.6929
-0.9823 INCH AND 0.1833
-2.0214 INCH LEFT -0.0667
-1.6743 INCH TO 0.7161
-2.0214 INCH UP 0.0252
-0.1549 INCHES </s> 2.4389
-1.3402 INCHES RIGHT -0.1600
-1.3402 INCHES TO 0.8603
-1.3402 INCHES UNDER 0.3252
-0.6412 INSIDE </s> 3.0651
-0.6412 INSIDE OF 0.3595
-0.2941 INTERESTING </s> 2.9209
-0.6412 INTO </s> 3.0651
-0.6412 INTO THE -0.2187
-0.9965 IS </s> 2.9290
-0.9965 IS ABOVE 0.7574
-1.6826 IS DIRECTLY -0.1599
-1.6826 IS HALF -0.1963
-1.6826 IS HIGHEST -0.1472
-1.3355 IS IN -0.3363
-1.6826 IS ON -0.0787
-1.6826 IS THIS -0.1662
-0.9645 IS TO 0.4753
-1.6826 IS TOUCHING 0.0629
-0.9645 IS UNDERNEATH -0.3221
-0.9031 IT </s> 2.3297
-1.5114 IT A 0.0028
-2.1975 IT BACK 0.3454
-1.8504 IT CAN -0.1820
-2.1975 IT DIRECTLY -0.1934
-1.0792 IT DOWN 0.4311
-0.7782 IT IS -0.0646
-2.1975 IT ONCE 0.0891
-2.1975 IT SO -0.1559
-0.5563 IT TO -0.2218
-0.9542 IT TOUCHES 0.0000
-0.9542 IT UP 0.0683
-1.4863 IT'S </s> 3.0651
-1.1392 IT'S AT -0.1820
-1.1392 IT'S DIRECTLY -0.1305
-1.1392 IT'S JUST 0.1802
-1.4863 IT'S LEVEL -0.0916
-1.4863 IT'S NOT -0.1773
-1.4863 IT'S RIGHT -0.2180
-0.8002 IT'S TOUCHING -0.0731
-1.4863 IT'S UNDER 0.3252
-0.1312 JOB </s> 2.9290
-1.5163 JUST </s> 3.0651
-0.2730 JUST A -0.6931
-1.1692 JUST ABOVE 0.2779
-1.5163 JUST BELOW 0.7811
-1.5163 JUST SHUT -0.1063
-1.1692 JUST WAS -0.0120
-0.3402 KAIYUH OVER -0.1662
-0.3402 KEEP </s> 3.0651
-0.6412 L SHAPE 0.0891
-0.6412 L SHAPED -0.1063
-1.1183 LARGE </s> 3.0651
-0.4003 LARGE BLUE 1.1364
-1.1183 LARGE RIGHT -0.2168
-1.2433 LAST </s> 3.0651
-0.8962 LAST ACTION 0.2207
-0.5252 LAST MAGNET -0.0811
-1.2433 LAST OBJECT -0.2164
-0.3402 LEDGE </s> 3.0651
-0.5291 LEFT </s> 1.4032
-1.1312 LEFT A -0.7244
-2.7501 LEFT AGAIN 0.6842
-2.7501 LEFT ANOTHER -0.1472
-2.7501 LEFT AS -0.1211
-2.7501 LEFT BALL 0.1752
-2.7501 LEFT BASKET 0.0891
-2.4030 LEFT BIN 0.2207
-2.7501 LEFT BRACE 0.5592
-2.0321 LEFT CORNER 0.6445
-2.4030 LEFT DOWN 0.4285
-2.0640 LEFT EDGE 0.5993
-2.7501 LEFT GO 1.4757
-2.4030 LEFT HALF 0.5044
-2.4030 LEFT JUST -0.0321
-0.6696 LEFT MAGNET -0.2434
-1.5648 LEFT MAGNETS -0.0164
-2.7501 LEFT MORE 1.0821
-1.0675 LEFT MOST 0.0654
-1.2960 LEFT OBJECT 0.1611
-0.9186 LEFT OF -0.7087
-2.0640 LEFT SO -0.1292
-2.7501 LEFT STACK -0.1063
-2.7501 LEFT SUCH -0.0393
-2.4030 LEFT TARGET 0.6581
-2.7501 LEFT TARGETS 0.5592
-2.0640 LEFT WALL 0.3715
-0.3402 LEFTMOST </s> 3.0651
-0.3402 LENGTH </s> 3.0651
-0.0512 LESS </s> 2.3809
-0.3402 LET'S SEE 0.0891
-0.3402 LETS </s> 3.0651
-0.5951 LEVEL </s> 2.9209
-0.5951 LEVEL AS -0.3210
-0.6412 LIFE </s> 3.0651
-0.6412 LIFE IS -0.1728
-0.6412 LIKE </s> 3.0651
-0.6412 LIKE ONLY -0.1472
-0.3402 LINE </s> 3.0651
-0.7606 LITTLE </s> 1.9618
-2.4230 LITTLE ABOVE -0.1520
-0.1690 LITTLE BIT 0.1867
-2.4230 LITTLE GAME 0.0891
-2.4230 LITTLE HIGHER 0.1755
-2.4230 LITTLE LEFT -0.0667
-1.7368 LITTLE LESS 0.5993
-2.4230 LITTLE LITTLE 0.2728
-1.2377 LITTLE MORE 0.4559
-2.4230 LITTLE RED 1.2724
-2.4230 LITTLE TO 0.8603
-2.4230 LITTLE VERY 0.1333
-0.9422 LOAD </s> 3.0651
-0.9422 LOAD NEXT -0.1127
-0.5951 LOAD PUZZLE 0.7508
-0.2561 LOT </s> 2.9290
-0.9422 LOT TO 0.8603
-0.2941 LOW </s> 2.9209
-0.6412 LOWER </s> 3.0651
-0.6412 LOWER MAGNETS -0.0940
-1.0391 LOWEST </s> 3.0651
-0.3211 LOWEST MAGNET -0.0188
-0.3402 MAGNER </s> 3.0651
-0.4919 MAGNET </s> 1.1536
-1.3000 MAGNET A -0.8109
-1.5808 MAGNET ABOVE 0.1794
-1.7771 MAGNET ALL -0.3979
-2.9624 MAGNET ALREADY -0.1063
-2.9624 MAGNET AS -0.2005
-2.9624 MAGNET AWAY 0.0891
-2.6153 MAGNET BACK 0.2012
-1.6222 MAGNET BELOW 0.0000
-1.8441 MAGNET BETWEEN -0.0294
-2.9624 MAGNET BUT -0.1773
-2.6153 MAGNET CLOSER -0.0120
-2.6153 MAGNET DIRECTLY -0.2221
-1.0311 MAGNET DOWN -0.4738
-2.9624 MAGNET EVEN -0.1063
-2.9624 MAGNET FARTHER -0.1472
-2.6153 MAGNET FROM -0.1835
-2.9624 MAGNET FURTHER 0.0462
-2.9624 MAGNET GO 1.4757
-2.9624 MAGNET HALF 0.3040
-2.9624 MAGNET HALFWAY -0.1662
-2.9624 MAGNET HIGHER 0.1755
-1.6680 MAGNET IN -0.4228
-2.9624 MAGNET IS -0.2098
-2.2443 MAGNET LEFT -0.1163
-2.2763 MAGNET NEAR 0.4901
-2.9624 MAGNET NINETY -0.1063
-1.5430 MAGNET ON 0.0095
-2.9624 MAGNET PUT -0.2138
-2.9624 MAGNET RIGHT -0.2140
-1.5808 MAGNET SO 0.0698
-2.2443 MAGNET THAT -0.4992
-1.5808 MAGNET THAT'S -0.0950
-0.7589 MAGNET TO -0.1884
-1.7191 MAGNET UNDER -0.2051
-1.1171 MAGNET UP -0.1374
-0.5351 MAGNETS </s> 2.4389
-1.7204 MAGNETS AGAIN 0.6842
-1.7204 MAGNETS AS -0.1211
-1.0343 MAGNETS DOWN 0.4365
-1.7204 MAGNETS ONE -0.1963
-1.0023 MAGNETS TO 0.4753
-0.6021 MAGNETS UP 0.2629
-1.7204 MAGNETS UPSIDE -0.0393
-0.6412 MAKE </s> 3.0651
-0.6412 MAKE ONE -0.1963
-0.2941 MAYBE </s> 2.9209
-0.3530 ME </s> 2.9290
-1.0391 ME I -0.1599
-1.0391 ME WHAT -0.1472
-0.3402 MEAN </s> 3.0651
-0.6412 MEANING </s> 3.0651
-0.6412 MEANING OF -0.2173
-1.0300 MIDDLE </s> 2.4389
-2.2152 MIDDLE GOAL 0.3649
-0.3310 MIDDLE MAGNET 0.0030
-2.2152 MIDDLE MAGNETS -0.1734
-2.2152 MIDDLE MOVE 0.2747
-0.5326 MIDDLE OBJECT -0.0266
-1.1761 MIDDLE OF -0.4278
-1.5291 MIDDLE TARGET 0.8243
-0.3402 MO </s> 3.0651
-0.3402 MOCE </s> 3.0651
-0.6412 MONITOR </s> 3.0651
-0.6412 MONITOR JUST -0.2055
-0.0223 MORE </s> 2.0052
-1.6412 MORE TO 0.8603
-1.8842 MOST </s> 3.0651
-1.5371 MOST BRACE 0.4150
-1.8842 MOST CORNER 0.4343
-0.1291 MOST MAGNET -0.3207
-1.5371 MOST TARGET 0.6581
-1.1981 MOST WALL 0.3715
-1.3570 MOVE </s> 1.9829
-2.6511 MOVE ALL 0.5101
-2.3121 MOVE BOTH -0.1101
-1.5788 MOVE BOTTOM -0.5029
-2.9982 MOVE DOWN 0.0860
-1.0245 MOVE IT -0.6213
-1.5441 MOVE LEFT -0.8583
-2.9982 MOVE MAGNET -0.1844
-1.3358 MOVE MIDDLE -1.1714
-2.9982 MOVE MOVE 0.2747
-2.9982 MOVE OBJECT -0.1152
-2.9982 MOVE ONE -0.1963
-1.3358 MOVE RIGHT -0.4868
-2.9982 MOVE STOP 1.4675
-2.3121 MOVE THAT -0.3191
-0.1681 MOVE THE -0.6776
-2.6511 MOVE UP -0.1190
-0.3402 MOVED </s> 3.0651
-0.3402 MOVES </s> 3.0651
-0.2941 MOVING </s> 2.9209
-0.6412 MY </s> 3.0651
-0.6412 MY MONITOR -0.1063
-1.1853 NEAR </s> 3.0651
-0.0669 NEAR THE -0.4396
-1.7019 NEW </s> 3.0651
-0.0193 NEW MAGNET 0.0929
-1.0345 NEXT </s> 2.9209
-0.6635 NEXT PUZZLE 0.5100
-0.3424 NEXT TO 0.7822
-0.6412 NINETY </s> 3.0651
-0.6412 NINETY DEGREES -0.1063
-0.1597 NO </s> 2.3297
-1.4541 NO IMAGE 0.0891
-1.4541 NO MOVE 0.2747
-1.4541 NO PUT -0.2074
-1.4541 NO SCREEN 0.4971
-1.0391 NOT </s> 3.0651
-1.0391 NOT MOVING 0.0891
-0.6921 NOT RIGHT -0.0808
-1.0391 NOT THAT -0.2118
-0.6412 NOW </s> 3.0651
-0.6412 NOW I -0.1599
-0.6726 OBJECT </s> 2.0535
-1.8962 OBJECT A 0.2100
-1.5572 OBJECT ABOVE -0.1385
-2.2433 OBJECT AT -0.1896
-1.5572 OBJECT BACK 0.2093
-2.2433 OBJECT BETWEEN -0.1836
-0.7570 OBJECT DOWN -0.4005
-2.2433 OBJECT FOUR -0.1472
-2.2433 OBJECT IN -0.1921
-0.8239 OBJECT LEFT -0.6720
-2.2433 OBJECT NEXT 0.0443
-2.2433 OBJECT ON -0.1844
-1.0580 OBJECT RIGHT -0.2846
-1.8962 OBJECT UNDER -0.1597
-0.7570 OBJECT UP -0.3520
-1.7510 OF </s> 2.9290
-1.3979 OF ALL 0.3708
-0.8416 OF AN 0.0669
-2.4371 OF BLOCKS 0.0891
-2.4371 OF BLUE 1.5214
-2.4371 OF EACH -0.1472
-2.4371 OF FIRST -0.2063
-2.4371 OF IT -0.1609
-2.4371 OF LIFE -0.1063
-0.1331 OF THE -0.3334
-2.4371 OF THEM -0.1662
-0.8173 OFF </s> 3.0651
-0.8173 OFF I'M -0.1063
-0.8173 OFF THE -0.2067
-0.8382 OH </s> 2.9209
-1.1853 OH FUDGE 0.0891
-1.1853 OH MOVE -0.1758
-0.8382 OH OK 0.0251
-1.1853 OH THE -0.2187
-0.2285 OK </s> 1.8690
-1.9836 OK AND -0.1379
-0.9445 OK MOVE 0.2673
-1.2975 OK PUT -0.0774
-1.9836 OK SO -0.2135
-0.7984 OK STOP 0.8413
-1.9836 OK UNDO -0.0960
-0.5951 OKAY </s> 2.9209
-0.9422 OKAY MOVE -0.1758
-0.9422 OKAY THANK -0.1063
-1.1165 ON </s> 2.9290
-0.2863 ON THE -0.3461
-1.8026 ON THIS -0.1662
-1.4555 ON TO 0.7161
-0.5593 ON TOP -0.7857
-0.2941 ONCE </s> 2.9209
-1.2944 ONE </s> 3.0651
-0.2553 ONE INCH 0.2547
-1.2944 ONE MAGNET -0.0500
-1.2944 ONE OF -0.2173
-1.2944 ONE ON -0.0787
-0.8173 ONLY </s> 3.0651
-0.8173 ONLY EXECUTE -0.2155
-0.8173 ONLY THIS -0.1662
-0.3402 ONTO </s> 3.0651
-0.8173 OR </s> 3.0651
-0.8173 OR DO -0.1472
-0.8173 OR SOMETHING 0.3649
-0.4702 OTHER </s> 2.9209
-0.8173 OTHER ROOM 0.0891
-0.6412 OUT </s> 3.0651
-0.6412 OUT THE -0.2121
-0.5951 OVER </s> 2.9209
-0.9422 OVER THE -0.2187
-0.9422 OVER TO 0.8603
-0.6412 PEOPLE </s> 3.0651
-0.6412 PEOPLE ARE -0.1662
-0.6412 PINK </s> 3.0651
-0.6412 PINK BALL 0.1752
-1.9634 PLACE </s> 3.0651
-0.1319 PLACE A -1.2261
-1.6163 PLACE MAGNET -0.1942
-0.7202 PLACE THE -0.0134
-0.4702 PLEASE </s> 2.9209
-0.8173 PLEASE MOVE 0.2747
-0.4702 PROGRAM </s> 2.9209
-0.8173 PROGRAM AGAIN 0.6842
-0.3402 PULLS </s> 3.0651
-0.6880 PUT </s> 2.3809
-1.2451 PUT A -0.2159
-1.9312 PUT BACK -0.2005
-1.9312 PUT BOTTOM -0.1502
-1.9312 PUT IT -0.0776
-1.9312 PUT LAST -0.1934
-1.5841 PUT LEFT -0.3406
-1.5841 PUT MAGNET -0.3505
-1.5841 PUT NEW 0.9986
-0.7460 PUT OBJECT -0.1837
-1.2132 PUT RIGHT -0.2671
-1.9312 PUT SECOND -0.2083
-1.9312 PUT THAT -0.2118
-1.2132 PUT THE -0.1816
-1.9312 PUT TOP -0.2137
-0.0348 PUZZLE </s> 2.2048
-1.4541 PUZZLE SOLVED 0.0891
-1.5954 QUARTER </s> 3.0651
-0.0248 QUARTER OF -1.1629
-0.6412 READ </s> 3.0651
-0.6412 READ BALL -0.2150
-0.3402 REALLY </s> 3.0651
-1.8315 RED </s> 3.0651
-0.0142 RED BALL 0.2034
-1.3816 REMOVE </s> 3.0651
-1.3816 REMOVE MIDDLE -0.0681
-0.0872 REMOVE THE -0.1821
-0.2242 RESET </s> 2.6801
-0.2242 RESTART </s> 2.6801
-1.4194 RID </s> 3.0651
-0.0378 RID OF -0.6988
-0.5725 RIGHT </s> 1.5281
-1.2870 RIGHT A -0.4931
-1.9505 RIGHT AND -0.2614
-2.3215 RIGHT BALL 0.2817
-2.3215 RIGHT CORNER 0.7424
-1.9505 RIGHT HALF -0.0810
-2.3215 RIGHT JUST -0.0321
-0.6294 RIGHT MAGNET -0.0428
-2.3215 RIGHT MORE 0.9379
-1.2870 RIGHT MOST -0.2583
-2.3215 RIGHT NEXT -0.0999
-1.0731 RIGHT OBJECT 0.2447
-0.8970 RIGHT OF -0.7587
-2.6685 RIGHT QUARTER 1.0364
-1.9505 RIGHT RIGHT -0.1748
-1.9824 RIGHT SLIGHTLY 0.2013
-1.9824 RIGHT SO 0.3950
-2.6685 RIGHT SOME 0.5592
-1.6294 RIGHT TARGET 0.6389
-2.3215 RIGHT TARGETS 0.4150
-2.6685 RIGHT UNDER 0.3252
-2.6685 RIGHT UNTIL -0.1063
-0.3402 RIGHTMOST </s> 3.0651
-0.2941 ROOM </s> 2.9209
-0.9422 ROTATE </s> 3.0651
-0.5951 ROTATE THE -0.0595
-0.9422 ROTATE THEM -0.0916
-0.3402 ROW </s> 3.0651
-0.0173 RUN </s> 1.4147
-1.5406 RUN THE -0.2960
-0.9422 SAME </s> 3.0651
-0.9422 SAME HEIGHT -0.0393
-0.5951 SAME LEVEL -0.2358
-0.2941 SAVER </s> 2.9209
-0.0928 SCREEN </s> 1.9618
-1.7551 SCREEN A 0.1388
-1.7551 SCREEN AND -0.1963
-1.7551 SCREEN BELOW 0.7811
-1.7551 SCREEN SAVER 0.0891
-1.7551 SCREEN UNDER 0.3252
-1.6189 SECOND </s> 3.0651
-0.1326 SECOND MAGNET -0.3830
-1.6189 SECOND OBJECT -0.2164
-1.6189 SECOND PUZZLE 0.8950
-1.2718 SECOND WALL 0.2653
-0.2941 SEE </s> 2.9209
-0.3402 SESSION </s> 3.0651
-0.2941 SHAPE </s> 2.9209
-0.6412 SHAPED </s> 3.0651
-0.6412 SHAPED WALL 0.4095
-0.6412 SHUT </s> 3.0651
-0.6412 SHUT OFF -0.1472
-0.2941 SIMULATION </s> 2.9209
-0.1413 SLIGHTLY </s> 2.1700
-1.5954 SLIGHTLY BACK -0.1768
-1.5954 SLIGHTLY BELOW 0.7811
-1.5954 SLIGHTLY DOWN -0.1906
-1.2484 SLIGHTLY TO 0.7161
-2.1790 SMALL </s> 3.0651
-1.8319 SMALL AMOUNT 0.2207
-2.1790 SMALL BALL 0.1752
-0.2368 SMALL BLUE 0.1383
-2.1790 SMALL MAGNET -0.0500
-2.1790 SMALL READ -0.1063
-0.4771 SMALL RED 0.1296
-1.2223 SO </s> 2.9290
-1.9084 SO CAN -0.1896
-1.9084 SO HOW -0.1063
-0.3921 SO IT -1.3420
-0.8692 SO IT'S -0.0980
-1.5613 SO MOVE -0.1779
-1.9084 SO NOW -0.1063
-0.6651 SO THAT -0.9755
-1.9084 SO THESE -0.1063
-0.3402 SOLVE </s> 3.0651
-0.2941 SOLVED </s> 2.9209
-0.0792 SOME </s> 2.2778
-0.1312 SOMETHING </s> 2.9290
-0.3402 SORRY </s> 3.0651
-0.6412 STACK </s> 3.0651
-0.6412 STACK OF -0.2173
-0.0077 START </s> 1.5358
-2.0960 START OVER -0.0916
-0.0090 STOP </s> 0.7615
-2.8716 STOP DOING -0.1063
-2.8716 STOP GET 0.6262
-2.1855 STOP MOVE 0.3153
-2.8716 STOP PLACE 0.3629
-2.8716 STOP STOP 1.4675
-0.3402 STRAIGHT </s> 3.0651
-0.2941 STRONGER </s> 2.9209
-0.6412 STUPID </s> 3.0651
-0.6412 STUPID RED 1.2724
-0.8173 SUCH </s> 3.0651
-0.4702 SUCH THAT -0.1954
-0.3402 SURROUNDING </s> 3.0651
-0.4702 TAKE </s> 2.9209
-0.8173 TAKE OUT -0.1063
-0.3402 TARGER </s> 3.0651
-0.0435 TARGET </s> 2.0052
-1.6624 TARGET IN -0.1921
-1.6624 TARGET TO 0.8603
-0.0792 TARGETS </s> 2.2778
-0.6412 TELL </s> 3.0651
-0.6412 TELL ME -0.1773
-0.3402 TEN </s> 3.0651
-0.6412 THANK </s> 3.0651
-0.6412 THANK YOU -0.1203
-0.7482 THAT </s> 2.2778
-0.6690 THAT IS -0.1021
-1.4402 THAT IT -0.0776
-0.6021 THAT IT'S -0.1087
-1.7873 THAT LAST -0.0650
-1.7873 THAT LOW 0.0891
-1.1012 THAT MAGNET -0.1745
-1.7873 THAT THE -0.1863
-1.7873 THAT WAS -0.1662
-1.7873 THAT WAY -0.2005
-1.4541 THAT'S </s> 3.0651
-0.7680 THAT'S ABOVE 0.2860
-1.4541 THAT'S DOWN -0.2171
-1.4541 THAT'S NOT -0.1203
-1.4541 THAT'S ON 0.0974
-0.7361 THAT'S TO 0.4753
-1.1070 THAT'S UNDER 0.1810
-1.5211 THE </s> 1.8860
-1.6886 THE BALL -0.2006
-2.5731 THE BASKETS 0.2086
-3.2592 THE BIG -0.1063
-1.9648 THE BLUE 0.7861
-1.1409 THE BOTTOM -0.9310
-3.2592 THE BRACE 0.5592
-2.2201 THE CENTER -0.2188
-2.5412 THE EDGE 0.3503
-3.2592 THE EVIL -0.1063
-3.2592 THE FAR -0.1773
-3.2592 THE FIELD 0.0891
-1.7430 THE FIRST -0.2730
-3.2592 THE FOUR -0.1472
-3.2592 THE HEAD 0.0462
-3.2592 THE HEIGHT -0.1472
-3.2592 THE HIGHEST -0.1472
-3.2592 THE HOLE -0.1063
-3.2592 THE L -0.1063
-2.2201 THE LARGE -0.2159
-2.5731 THE LAST -0.2011
-0.6290 THE LEFT -0.3304
-3.2592 THE LITTLE -0.2173
-2.5412 THE LOWEST -0.3221
-0.9897 THE MAGNET 0.4303
-2.5412 THE MAGNETS -0.0558
-3.2592 THE MEANING -0.1063
-1.2289 THE MIDDLE -0.5077
-2.0160 THE NEW 0.4586
-3.2592 THE NEXT -0.1127
-3.2592 THE OTHER -0.1472
-3.2592 THE PINK -0.1063
-2.2201 THE RED 0.4852
-0.7488 THE RIGHT -0.4405
-2.9122 THE SAME -0.2358
-1.5574 THE SCREEN 0.0995
-1.7430 THE SECOND -0.2772
-3.2592 THE SIMULATION 0.0891
-1.1337 THE SMALL -0.3538
-3.2592 THE TARGET 0.8023
-3.2592 THE TARGETS 0.5592
-1.8051 THE THIRD 0.0902
-1.4877 THE TOP 0.1685
-1.7430 THE TWO -0.3176
-3.2592 THE VERY -0.1963
-2.5412 THE WALL 0.4560
-2.1409 THE WAY -0.2459
-0.5951 THEM </s> 2.9209
-0.9422 THEM INTO -0.1063
-0.9422 THEM STRONGER 0.0891
-1.1183 THEN </s> 3.0651
-0.4003 THEN MOVE 0.3284
-1.1183 THEN UP 0.0252
-0.6412 THESE </s> 3.0651
-0.6412 THESE ARE -0.0916
-1.0391 THEY </s> 3.0651
-0.6921 THEY CAN -0.1820
-1.0391 THEY LIKE -0.1063
-1.0391 THEY WORK -0.1063
-0.3402 THEY'RE </s> 3.0651
-0.3402 THINK </s> 3.0651
-1.5443 THIRD </s> 3.0651
-0.0280 THIRD MAGNET -0.4118
-0.9422 THIS </s> 3.0651
-0.9422 THIS DIRECTION -0.1063
-0.9422 THIS LITTLE -0.2173
-0.9422 THIS MOVE 0.2747
-0.6412 THOUGHT </s> 3.0651
-0.6412 THOUGHT YOU -0.1773
-0.6412 THREE </s> 3.0651
-0.6412 THREE MAGNETS -0.2106
-0.3402 THROUGH </s> 3.0651
-1.4863 TINY </s> 3.0651
-0.0322 TINY BIT -0.6790
-1.4771 TO </s> 2.3809
-2.7204 TO BELOW 0.7811
-2.7204 TO HIT -0.1472
-2.7204 TO IT -0.1609
-2.7204 TO JUST -0.1885
-2.3733 TO LEFT -0.3073
-2.7204 TO SLIGHTLY -0.2077
-2.3733 TO TARGET 0.6581
-0.0378 TO THE -1.0783
-2.3733 TO WHERE -0.1835
-2.7204 TO YOUR -0.1063
-0.2941 TOO </s> 2.9209
-0.8808 TOP </s> 2.2778
-1.2019 TOP LEFT -0.2563
-0.4037 TOP MAGNET -0.3852
-1.9200 TOP MOST 0.3709
-1.9200 TOP MOVE 0.2747
-1.9200 TOP OBJECT -0.2067
-0.6255 TOP OF -0.5887
-1.9200 TOP RIGHT -0.2168
-1.9200 TOP WALL 0.4095
-0.3402 TOPMOST </s> 3.0651
-1.2433 TOUCHES </s> 3.0651
-0.0580 TOUCHES THE -0.4171
-1.0391 TOUCHING </s> 3.0651
-0.3211 TOUCHING THE -0.2681
-0.3402 TRYING </s> 3.0651
-0.8173 TURN </s> 3.0651
-0.8173 TURN OFF -0.1472
-0.8173 TURN THE -0.2177
-1.7381 TWO </s> 3.0651
-1.7381 TWO BASKETS 0.0357
-1.7381 TWO BOTTOM -0.2165
-1.0520 TWO CENTER -0.2572
-1.3910 TWO CENTIMETERS 0.2207
-0.6198 TWO INCHES -0.1433
-0.4949 TWO LEFT -1.1092
-1.7381 TWO LOWER -0.1063
-1.7381 TWO MAGNETS -0.1734
-1.7381 TWO RIGHT -0.2168
-0.6412 UH </s> 3.0651
-0.6412 UH MY -0.1063
-0.3402 UM </s> 3.0651
-0.9763 UNDER </s> 2.9290
-1.6624 UNDER EACH -0.1472
-1.6624 UNDER SMALL -0.0428
-1.6624 UNDER TARGET 0.8023
-0.1461 UNDER THE -0.4335
-1.0391 UNDERNEATH </s> 3.0651
-0.3211 UNDERNEATH THE -0.2230
-0.5764 UNDO </s> 2.6801
-0.9473 UNDO LAST -0.3041
-0.6083 UNDO THAT -0.2696
-0.3402 UNIT </s> 3.0651
-0.6412 UNTIL </s> 3.0651
-0.6412 UNTIL IT -0.1678
-0.3665 UP </s> 1.6505
-0.5686 UP A -0.3762
-2.3402 UP ABOUT -0.0916
-1.6541 UP AN 1.1253
-1.1549 UP AND -0.5880
-2.3402 UP GO -0.2167
-2.3402 UP HALF 0.3040
-1.9931 UP HALFWAY -0.0120
-2.3402 UP HIGHER 0.1755
-1.9931 UP JUST -0.0321
-2.3402 UP MORE 1.0821
-2.3402 UP ON -0.2120
-2.3402 UP ONE 0.1333
-1.6221 UP SLIGHTLY -0.0476
-2.3402 UP SO -0.1131
-2.3402 UP SOME 0.5592
-1.6541 UP TO 0.7242
-0.3402 UPPER </s> 3.0651
-0.8173 UPSIDE </s> 3.0651
-0.4702 UPSIDE DOWN 0.0897
-0.3402 UPSIDE-DOWN </s> 3.0651
-1.2944 VERY </s> 3.0651
-1.2944 VERY BOTTOM -0.1743
-0.2553 VERY LITTLE -0.5144
-0.9473 VERY SMALL -0.3567
-1.0391 WAIT </s> 3.0651
-1.0391 WAIT NO -0.2034
-0.6921 WAIT WAIT -0.0674
-1.0391 WAIT WHAT -0.1472
-0.1165 WALL </s> 2.1700
-1.5706 WALL AS -0.1211
-1.5706 WALL IT -0.1397
-1.5706 WALL ON 0.0974
-1.5706 WALL UP 0.0252
-0.2561 WALLS </s> 2.9290
-0.9422 WALLS UP -0.2084
-0.2561 WAS </s> 2.9290
-0.9422 WAS WEIRD 0.0891
-1.3816 WAY </s> 3.0651
-1.3816 WAY BETWEEN 0.4179
-1.3816 WAY DOWN 0.0860
-0.1963 WAY TO 0.2341
-1.3816 WAY TOO 0.0891
-0.2941 WEIRD </s> 2.9209
-0.6412 WELL </s> 3.0651
-0.6412 WELL EXECUTE 1.0748
-0.8173 WHAT </s> 3.0651
-0.8173 WHAT IS -0.2098
-0.8173 WHAT THE -0.2187
-0.3402 WHAT'S </s> 3.0651
-0.8173 WHERE </s> 3.0651
-0.4702 WHERE THE -0.3541
-0.4702 WHOA </s> 2.9209
-0.8173 WHOA UNDO -0.0851
-0.6412 WITH </s> 3.0651
-0.6412 WITH THE -0.2121
-0.6412 WORK </s> 3.0651
-0.6412 WORK THAT -0.2118
-0.2941 WOW </s> 2.9209
-0.4702 YEAH </s> 2.9209
-0.8173 YEAH OK 0.1693
-0.6921 YOU </s> 2.9209
-1.0391 YOU BROUGHT -0.1063
-1.0391 YOU CAN'T -0.1063
-1.0391 YOU ROTATE -0.1662
-0.6412 YOUR </s> 3.0651
-0.6412 YOUR RIGHT -0.0837

\3-grams:
-3.6861 </s> <s> </s> 
-1.9035 </s> <s> A 
-3.0597 </s> <s> ABOUT 
-2.2424 </s> <s> ABOVE 
-3.6861 </s> <s> ACTION 
-2.8060 </s> <s> ACTUALLY 
-2.3807 </s> <s> ADD 
-3.0597 </s> <s> AGAIN 
-3.6861 </s> <s> AGAINST 
-3.6861 </s> <s> ALL 
-3.6861 </s> <s> ALREADY 
-3.2294 </s> <s> ALRIGHT 
-3.6861 </s> <s> AM 
-3.6861 </s> <s> AMOUNT 
-2.8060 </s> <s> AN 
-2.0533 </s> <s> AND 
-3.2294 </s> <s> ANOTHER 
-3.2294 </s> <s> ARE 
-3.6861 </s> <s> AS 
-3.2294 </s> <s> AT 
-3.6861 </s> <s> AWAY 
-3.2294 </s> <s> BACK 
-3.6861 </s> <s> BACKWARDS 
-3.2294 </s> <s> BAD 
-3.2294 </s> <s> BALL 
-3.6861 </s> <s> BARRIERS 
-3.6861 </s> <s> BASKET 
-3.6861 </s> <s> BASKETS 
-3.6861 </s> <s> BEEN 
-2.6299 </s> <s> BELOW 
-3.2294 </s> <s> BENEATH 
-3.2294 </s> <s> BETWEEN 
-3.6861 </s> <s> BETWEN 
-3.6861 </s> <s> BIG 
-3.6861 </s> <s> BIN 
-3.6861 </s> <s> BINS 
-3.6861 </s> <s> BIT 
-3.6861 </s> <s> BLOCKS 
-3.0597 </s> <s> BLUE 
-3.0597 </s> <s> BOO 
-3.6861 </s> <s> BOTH 
-3.2294 </s> <s> BOTTOM 
-3.0597 </s> <s> BOWLING 
-3.6861 </s> <s> BOXES 
-3.6861 </s> <s> BRACE 
-3.6861 </s> <s> BROUGHT 
-3.0597 </s> <s> BUT 
-3.0597 </s> <s> BY 
-3.2294 </s> <s> CAN 
-3.6861 </s> <s> CAN'T 
-3.0597 </s> <s> CENTER 
-3.6861 </s> <s> CENTIMETER 
-3.6861 </s> <s> CENTIMETERS 
-3.6861 </s> <s> CLOCKWISE 
-3.6861 </s> <s> CLOSER 
-3.6861 </s> <s> COMES 
-3.6861 </s> <s> COMING 
-3.6861 </s> <s> CORNER 
-3.6861 </s> <s> CORNERS 
-3.6861 </s> <s> DEGREES 
-3.0597 </s> <s> DELETE 
-3.2294 </s> <s> DIAGONAL 
-3.6861 </s> <s> DIRECTION 
-3.2294 </s> <s> DIRECTLY 
-3.6861 </s> <s> DO 
-3.6861 </s> <s> DOES 
-3.6861 </s> <s> DOING 
-3.6861 </s> <s> DON'T 
-1.9615 </s> <s> DOWN 
-2.8060 </s> <s> DRAT 
-3.6861 </s> <s> EACH 
-3.6861 </s> <s> EDGE 
-3.2294 </s> <s> EIGHT 
-3.6861 </s> <s> EIGHTH 
-3.2294 </s> <s> ELEVEN 
-3.6861 </s> <s> EVEN 
-3.6861 </s> <s> EVIL 
-3.2294 </s> <s> EXCELLENT 
-1.5356 </s> <s> EXECUTE 
-3.6861 </s> <s> FAR 
-3.2294 </s> <s> FARTHER 
-3.6861 </s> <s> FEET 
-3.6861 </s> <s> FIELD 
-3.6861 </s> <s> FIGURE 
-3.6861 </s> <s> FIND 
-3.6861 </s> <s> FINISH 
-3.6861 </s> <s> FIRST 
-3.2294 </s> <s> FIVE 
-3.6861 </s> <s> FOR 
-3.6861 </s> <s> FORM 
-3.6861 </s> <s> FOUR 
-3.6861 </s> <s> FROM 
-3.6861 </s> <s> FUDGE 
-3.6861 </s> <s> GAME 
-2.2046 </s> <s> GET 
-3.6861 </s> <s> GETTING 
-3.6861 </s> <s> GIVE 
-1.0142 </s> <s> GO 
-3.2294 </s> <s> GOAL 
-3.6861 </s> <s> GOES 
-2.6299 </s> <s> GOOD 
-2.3807 </s> <s> HALF 
-3.6861 </s> <s> HALFWAY 
-3.6861 </s> <s> HAND 
-3.6861 </s> <s> HANG 
-3.6861 </s> <s> HAVE 
-3.6861 </s> <s> HEIGHT 
-2.6299 </s> <s> HELLO 
-3.0597 </s> <s> HELP 
-3.6861 </s> <s> HIGHER 
-3.6861 </s> <s> HIGHEST 
-3.2294 </s> <s> HIT 
-3.6861 </s> <s> HOLE 
-3.6861 </s> <s> HOW 
-3.0597 </s> <s> I 
-3.6861 </s> <s> I'M 
-3.6861 </s> <s> I'VE 
-3.6861 </s> <s> IMAGE 
-3.0597 </s> <s> IMMEDIATELY 
-2.8060 </s> <s> IN 
-3.6861 </s> <s> INCH 
-3.6861 </s> <s> INCHES 
-3.2294 </s> <s> INSIDE 
-3.2294 </s> <s> INTERESTING 
-3.6861 </s> <s> INTO 
-3.6861 </s> <s> IS 
-3.6861 </s> <s> IT 
-3.2294 </s> <s> IT'S 
-3.6861 </s> <s> JOB 
-3.2294 </s> <s> JUST 
-3.6861 </s> <s> KEEP 
-3.6861 </s> <s> LARGE 
-3.6861 </s> <s> LAST 
-3.6861 </s> <s> LEDGE 
-2.5056 </s> <s> LEFT 
-3.6861 </s> <s> LEFTMOST 
-3.6861 </s> <s> LENGTH 
-2.8060 </s> <s> LESS 
-3.6861 </s> <s> LET'S 
-3.6861 </s> <s> LETS 
-3.6861 </s> <s> LEVEL 
-3.6861 </s> <s> LIFE 
-3.6861 </s> <s> LIKE 
-3.6861 </s> <s> LINE 
-3.6861 </s> <s> LITTLE 
-2.8060 </s> <s> LOAD 
-3.6861 </s> <s> LOT 
-3.6861 </s> <s> LOW 
-3.6861 </s> <s> LOWER 
-3.6861 </s> <s> LOWEST 
-3.6861 </s> <s> MAGNER 
-2.4387 </s> <s> MAGNET 
-3.6861 </s> <s> MAGNETS 
-3.6861 </s> <s> MAKE 
-3.2294 </s> <s> MAYBE 
-3.6861 </s> <s> ME 
-3.6861 </s> <s> MEAN 
-3.6861 </s> <s> MEANING 
-3.2294 </s> <s> MIDDLE 
-3.6861 </s> <s> MO 
-3.6861 </s> <s> MOCE 
-3.6861 </s> <s> MONITOR 
-3.2294 </s> <s> MORE 
-3.6861 </s> <s> MOST 
-0.6533 </s> <s> MOVE 
-3.6861 </s> <s> MOVED 
-3.6861 </s> <s> MOVES 
-3.6861 </s> <s> MOVING 
-3.6861 </s> <s> MY 
-2.8060 </s> <s> NEAR 
-3.6861 </s> <s> NEW 
-2.5056 </s> <s> NEXT 
-3.6861 </s> <s> NINETY 
-2.3295 </s> <s> NO 
-3.2294 </s> <s> NOT 
-3.6861 </s> <s> NOW 
-3.2294 </s> <s> OBJECT 
-3.6861 </s> <s> OF 
-3.6861 </s> <s> OFF 
-2.4387 </s> <s> OH 
-1.6927 </s> <s> OK 
-2.8060 </s> <s> OKAY 
-3.0597 </s> <s> ON 
-3.6861 </s> <s> ONCE 
-2.8060 </s> <s> ONE 
-3.6861 </s> <s> ONLY 
-3.6861 </s> <s> ONTO 
-3.2294 </s> <s> OR 
-3.6861 </s> <s> OTHER 
-3.6861 </s> <s> OUT 
-3.6861 </s> <s> OVER 
-3.6861 </s> <s> PEOPLE 
-3.6861 </s> <s> PINK 
-1.6927 </s> <s> PLACE 
-3.0597 </s> <s> PLEASE 
-3.0597 </s> <s> PROGRAM 
-3.6861 </s> <s> PULLS 
-1.7652 </s> <s> PUT 
-3.0597 </s> <s> PUZZLE 
-3.0597 </s> <s> QUARTER 
-3.6861 </s> <s> READ 
-3.6861 </s> <s> REALLY 
-3.6861 </s> <s> RED 
-2.2424 </s> <s> REMOVE 
-2.8060 </s> <s> RESET 
-3.0597 </s> <s> RESTART 
-3.6861 </s> <s> RID 
-2.2838 </s> <s> RIGHT 
-3.6861 </s> <s> RIGHTMOST 
-3.6861 </s> <s> ROOM 
-3.0597 </s> <s> ROTATE 
-3.6861 </s> <s> ROW 
-1.4087 </s> <s> RUN 
-3.6861 </s> <s> SAME 
-3.6861 </s> <s> SAVER 
-3.6861 </s> <s> SCREEN 
-3.2294 </s> <s> SECOND 
-3.6861 </s> <s> SEE 
-3.6861 </s> <s> SHAPE 
-3.6861 </s> <s> SHAPED 
-3.6861 </s> <s> SHUT 
-3.6861 </s> <s> SIMULATION 
-2.8060 </s> <s> SLIGHTLY 
-3.2294 </s> <s> SMALL 
-2.1077 </s> <s> SO 
-3.6861 </s> <s> SOLVE 
-3.6861 </s> <s> SOLVED 
-3.0597 </s> <s> SOME 
-3.2294 </s> <s> SOMETHING 
-3.6861 </s> <s> SORRY 
-3.6861 </s> <s> STACK 
-1.5356 </s> <s> START 
-0.7679 </s> <s> STOP 
-3.6861 </s> <s> STRAIGHT 
-3.6861 </s> <s> STRONGER 
-3.2294 </s> <s> STUPID 
-3.2294 </s> <s> SUCH 
-3.6861 </s> <s> SURROUNDING 
-3.0597 </s> <s> TAKE 
-3.6861 </s> <s> TARGER 
-3.2294 </s> <s> TARGET 
-3.6861 </s> <s> TARGETS 
-3.2294 </s> <s> TELL 
-3.6861 </s> <s> TEN 
-3.6861 </s> <s> THANK 
-2.8060 </s> <s> THAT 
-3.2294 </s> <s> THAT'S 
-1.9615 </s> <s> THE 
-3.6861 </s> <s> THEM 
-3.2294 </s> <s> THEN 
-3.6861 </s> <s> THESE 
-3.6861 </s> <s> THEY 
-3.6861 </s> <s> THEY'RE 
-3.6861 </s> <s> THINK 
-3.2294 </s> <s> THIRD 
-3.6861 </s> <s> THIS 
-3.6861 </s> <s> THOUGHT 
-3.2294 </s> <s> THREE 
-3.6861 </s> <s> THROUGH 
-3.6861 </s> <s> TINY 
-1.6710 </s> <s> TO 
-3.6861 </s> <s> TOO 
-3.0597 </s> <s> TOP 
-3.6861 </s> <s> TOPMOST 
-3.6861 </s> <s> TOUCHES 
-3.6861 </s> <s> TOUCHING 
-3.6861 </s> <s> TRYING 
-3.0597 </s> <s> TURN 
-2.4387 </s> <s> TWO 
-3.2294 </s> <s> UH 
-3.6861 </s> <s> UM 
-3.2294 </s> <s> UNDER 
-3.6861 </s> <s> UNDERNEATH 
-2.5056 </s> <s> UNDO 
-3.6861 </s> <s> UNIT 
-3.6861 </s> <s> UNTIL 
-2.0050 </s> <s> UP 
-3.6861 </s> <s> UPPER 
-3.2294 </s> <s> UPSIDE 
-3.6861 </s> <s> UPSIDE-DOWN 
-3.6861 </s> <s> VERY 
-3.0597 </s> <s> WAIT 
-3.6861 </s> <s> WALL 
-3.6861 </s> <s> WALLS 
-3.6861 </s> <s> WAS 
-3.6861 </s> <s> WAY 
-3.6861 </s> <s> WEIRD 
-3.2294 </s> <s> WELL 
-3.6861 </s> <s> WHAT 
-3.6861 </s> <s> WHAT'S 
-3.6861 </s> <s> WHERE 
-3.0597 </s> <s> WHOA 
-3.2294 </s> <s> WITH 
-3.6861 </s> <s> WORK 
-3.2294 </s> <s> WOW 
-3.0597 </s> <s> YEAH 
-3.2294 </s> <s> YOU 
-3.6861 </s> <s> YOUR 
-0.4024 <s> </s> <s> 
-0.4024 <s> <s> A 
-1.8003 <s> A </s> 
-1.8003 <s> A BIT 
-1.3436 <s> A CENTIMETER 
-0.1427 <s> A LITTLE 
-1.3436 <s> A LOT 
-1.8003 <s> A QUARTER 
-0.8795 <s> ABOUT </s> 
-0.8795 <s> ABOUT AN 
-0.8795 <s> ABOUT HALF 
-1.4438 <s> ABOVE </s> 
-0.0414 <s> ABOVE THE 
-0.4024 <s> ACTION </s> 
-1.0044 <s> ACTUALLY </s> 
-0.5478 <s> ACTUALLY MOVE 
-1.0044 <s> ACTUALLY UNDO 
-0.8488 <s> ADD </s> 
-0.2492 <s> ADD A 
-1.3055 <s> ADD THE 
-0.2530 <s> AGAIN </s> 
-0.4024 <s> AGAINST </s> 
-0.4024 <s> ALL </s> 
-0.4024 <s> ALREADY </s> 
-0.7034 <s> ALRIGHT </s> 
-0.7034 <s> ALRIGHT I 
-0.4024 <s> AM </s> 
-0.4024 <s> AMOUNT </s> 
-1.0044 <s> AN </s> 
-0.3780 <s> AN INCH 
-0.7527 <s> AND </s> 
-1.6328 <s> AND A 
-1.6328 <s> AND GO 
-1.1761 <s> AND MOVE 
-1.6328 <s> AND ONE 
-1.6328 <s> AND RESTART 
-1.6328 <s> AND RUN 
-1.6328 <s> AND STOP 
-1.6328 <s> AND THE 
-1.1761 <s> AND THEN 
-1.1761 <s> AND TO 
-0.7034 <s> ANOTHER </s> 
-0.7034 <s> ANOTHER MAGNET 
-0.7034 <s> ARE </s> 
-0.7034 <s> ARE THEY 
-0.4024 <s> AS </s> 
-0.7034 <s> AT </s> 
-0.7034 <s> AT THE 
-0.4024 <s> AWAY </s> 
-0.7034 <s> BACK </s> 
-0.7034 <s> BACK TO 
-0.4024 <s> BACKWARDS </s> 
-0.2467 <s> BAD </s> 
-0.2467 <s> BALL </s> 
-0.4024 <s> BARRIERS </s> 
-0.4024 <s> BASKET </s> 
-0.4024 <s> BASKETS </s> 
-0.4024 <s> BEEN </s> 
-0.6447 <s> BELOW </s> 
-0.4749 <s> BELOW THE 
-0.2467 <s> BENEATH </s> 
-0.7034 <s> BETWEEN </s> 
-0.7034 <s> BETWEEN THE 
-0.4024 <s> BETWEN </s> 
-0.4024 <s> BIG </s> 
-0.4024 <s> BIN </s> 
-0.4024 <s> BINS </s> 
-0.4024 <s> BIT </s> 
-0.4024 <s> BLOCKS </s> 
-0.8795 <s> BLUE </s> 
-0.4228 <s> BLUE BALL 
-0.4228 <s> BOO </s> 
-0.8795 <s> BOO STOP 
-0.4024 <s> BOTH </s> 
-0.7034 <s> BOTTOM </s> 
-0.7034 <s> BOTTOM MAGNET 
-0.8795 <s> BOWLING </s> 
-0.4228 <s> BOWLING BALL 
-0.4024 <s> BOXES </s> 
-0.4024 <s> BRACE </s> 
-0.4024 <s> BROUGHT </s> 
-0.8795 <s> BUT </s> 
-0.8795 <s> BUT NOT 
-0.8795 <s> BUT SAME 
-0.8795 <s> BY </s> 
-0.4228 <s> BY THE 
-0.7034 <s> CAN </s> 
-0.7034 <s> CAN YOU 
-0.4024 <s> CAN'T </s> 
-0.8795 <s> CENTER </s> 
-0.4228 <s> CENTER BOTTOM 
-0.4024 <s> CENTIMETER </s> 
-0.4024 <s> CENTIMETERS </s> 
-0.4024 <s> CLOCKWISE </s> 
-0.4024 <s> CLOSER </s> 
-0.4024 <s> COMES </s> 
-0.4024 <s> COMING </s> 
-0.4024 <s> CORNER </s> 
-0.4024 <s> CORNERS </s> 
-0.4024 <s> DEGREES </s> 
-0.8795 <s> DELETE </s> 
-0.8795 <s> DELETE STOP 
-0.8795 <s> DELETE THE 
-0.2467 <s> DIAGONAL </s> 
-0.4024 <s> DIRECTION </s> 
-0.7034 <s> DIRECTLY </s> 
-0.7034 <s> DIRECTLY UNDER 
-0.4024 <s> DO </s> 
-0.4024 <s> DOES </s> 
-0.4024 <s> DOING </s> 
-0.4024 <s> DON'T </s> 
-0.4191 <s> DOWN </s> 
-0.5441 <s> DOWN A 
-1.7246 <s> DOWN AGAINST 
-1.7246 <s> DOWN AN 
-1.2679 <s> DOWN AND 
-1.7246 <s> DOWN IN 
-1.7246 <s> DOWN SO 
-1.7246 <s> DOWN TWO 
-0.1243 <s> DRAT </s> 
-0.4024 <s> EACH </s> 
-0.4024 <s> EDGE </s> 
-0.7034 <s> EIGHT </s> 
-0.7034 <s> EIGHT INCHES 
-0.4024 <s> EIGHTH </s> 
-0.2467 <s> ELEVEN </s> 
-0.4024 <s> EVEN </s> 
-0.4024 <s> EVIL </s> 
-0.2467 <s> EXCELLENT </s> 
-0.0158 <s> EXECUTE </s> 
-1.6939 <s> EXECUTE PUZZLE 
-0.4024 <s> FAR </s> 
-0.2467 <s> FARTHER </s> 
-0.4024 <s> FEET </s> 
-0.4024 <s> FIELD </s> 
-0.4024 <s> FIGURE </s> 
-0.4024 <s> FIND </s> 
-0.4024 <s> FINISH SESSION 
-0.4024 <s> FIRST </s> 
-0.7034 <s> FIVE </s> 
-0.7034 <s> FIVE FEET 
-0.4024 <s> FOR </s> 
-0.4024 <s> FORM </s> 
-0.4024 <s> FOUR </s> 
-0.4024 <s> FROM </s> 
-0.4024 <s> FUDGE </s> 
-0.4024 <s> GAME </s> 
-1.4816 <s> GET </s> 
-1.4816 <s> GET A 
-0.0792 <s> GET RID 
-0.4024 <s> GETTING </s> 
-0.4024 <s> GIVE </s> 
-0.0047 <s> GO </s> 
-2.6719 <s> GO GO 
-2.6719 <s> GO ON 
-0.2467 <s> GOAL </s> 
-0.4024 <s> GOES </s> 
-0.6447 <s> GOOD </s> 
-1.1014 <s> GOOD GO 
-0.6447 <s> GOOD JOB 
-1.3055 <s> HALF </s> 
-0.8488 <s> HALF A 
-0.2492 <s> HALF AN 
-0.4024 <s> HALFWAY </s> 
-0.4024 <s> HAND </s> 
-0.4024 <s> HANG </s> 
-0.4024 <s> HAVE </s> 
-0.4024 <s> HEIGHT </s> 
-0.0451 <s> HELLO </s> 
-0.8795 <s> HELP </s> 
-0.4228 <s> HELP ME 
-0.4024 <s> HIGHER </s> 
-0.4024 <s> HIGHEST </s> 
-0.7034 <s> HIT </s> 
-0.7034 <s> HIT KAIYUH 
-0.4024 <s> HOLE </s> 
-0.4024 <s> HOW </s> 
-0.8795 <s> I </s> 
-0.8795 <s> I GIVE 
-0.8795 <s> I THOUGHT 
-0.4024 <s> I'M </s> 
-0.4024 <s> I'VE </s> 
-0.4024 <s> IMAGE </s> 
-0.8795 <s> IMMEDIATELY </s> 
-0.4228 <s> IMMEDIATELY TO 
-1.0044 <s> IN </s> 
-0.3780 <s> IN THE 
-0.4024 <s> INCH </s> 
-0.4024 <s> INCHES </s> 
-0.7034 <s> INSIDE </s> 
-0.7034 <s> INSIDE OF 
-0.2467 <s> INTERESTING </s> 
-0.4024 <s> INTO </s> 
-0.4024 <s> IS </s> 
-0.4024 <s> IT </s> 
-0.7034 <s> IT'S </s> 
-0.7034 <s> IT'S NOT 
-0.4024 <s> JOB </s> 
-0.7034 <s> JUST </s> 
-0.7034 <s> JUST BELOW 
-0.4024 <s> KEEP </s> 
-0.4024 <s> LARGE </s> 
-0.4024 <s> LAST </s> 
-0.4024 <s> LEDGE </s> 
-0.5541 <s> LEFT </s> 
-1.1805 <s> LEFT EDGE 
-1.1805 <s> LEFT MAGNET 
-1.1805 <s> LEFT OF 
-0.4024 <s> LEFTMOST </s> 
-0.4024 <s> LENGTH </s> 
-0.1243 <s> LESS </s> 
-0.4024 <s> LET'S SEE 
-0.4024 <s> LETS </s> 
-0.4024 <s> LEVEL </s> 
-0.4024 <s> LIFE </s> 
-0.4024 <s> LIKE </s> 
-0.4024 <s> LINE </s> 
-0.4024 <s> LITTLE </s> 
-1.0044 <s> LOAD </s> 
-1.0044 <s> LOAD NEXT 
-0.5478 <s> LOAD PUZZLE 
-0.4024 <s> LOT </s> 
-0.4024 <s> LOW </s> 
-0.4024 <s> LOWER </s> 
-0.4024 <s> LOWEST </s> 
-0.4024 <s> MAGNER </s> 
-0.6210 <s> MAGNET </s> 
-1.2475 <s> MAGNET BELOW 
-1.2475 <s> MAGNET NINETY 
-0.7908 <s> MAGNET TO 
-0.4024 <s> MAGNETS </s> 
-0.4024 <s> MAKE </s> 
-0.2467 <s> MAYBE </s> 
-0.4024 <s> ME </s> 
-0.4024 <s> MEAN </s> 
-0.4024 <s> MEANING </s> 
-0.7034 <s> MIDDLE </s> 
-0.7034 <s> MIDDLE OBJECT 
-0.4024 <s> MO </s> 
-0.4024 <s> MOCE </s> 
-0.4024 <s> MONITOR </s> 
-0.2467 <s> MORE </s> 
-0.4024 <s> MOST </s> 
-1.3752 <s> MOVE </s> 
-3.0328 <s> MOVE ALL 
-2.4063 <s> MOVE BOTH 
-1.5890 <s> MOVE BOTTOM 
-3.0328 <s> MOVE DOWN 
-1.0741 <s> MOVE IT 
-1.5165 <s> MOVE LEFT 
-3.0328 <s> MOVE MAGNET 
-1.3517 <s> MOVE MIDDLE 
-3.0328 <s> MOVE OBJECT 
-3.0328 <s> MOVE ONE 
-1.3294 <s> MOVE RIGHT 
-3.0328 <s> MOVE STOP 
-2.4063 <s> MOVE THAT 
-0.1591 <s> MOVE THE 
-2.5761 <s> MOVE UP 
-0.4024 <s> MOVED </s> 
-0.4024 <s> MOVES </s> 
-0.4024 <s> MOVING </s> 
-0.4024 <s> MY </s> 
-1.0044 <s> NEAR </s> 
-0.3780 <s> NEAR THE 
-0.4024 <s> NEW </s> 
-0.7238 <s> NEXT </s> 
-0.7238 <s> NEXT PUZZLE 
-0.7238 <s> NEXT TO 
-0.4024 <s> NINETY </s> 
-0.0512 <s> NO </s> 
-1.3566 <s> NO PUT 
-0.7034 <s> NOT </s> 
-0.7034 <s> NOT THAT 
-0.4024 <s> NOW </s> 
-0.2467 <s> OBJECT </s> 
-0.4024 <s> OF </s> 
-0.4024 <s> OFF </s> 
-0.7908 <s> OH </s> 
-1.2475 <s> OH FUDGE 
-1.2475 <s> OH MOVE 
-0.7908 <s> OH OK 
-1.2475 <s> OH THE 
-0.2486 <s> OK </s> 
-1.9934 <s> OK AND 
-0.9372 <s> OK MOVE 
-1.3670 <s> OK PUT 
-1.9934 <s> OK SO 
-0.8129 <s> OK STOP 
-1.9934 <s> OK UNDO 
-0.5478 <s> OKAY </s> 
-1.0044 <s> OKAY MOVE 
-1.0044 <s> OKAY THANK 
-0.8795 <s> ON </s> 
-0.8795 <s> ON THE 
-0.8795 <s> ON TOP 
-0.4024 <s> ONCE </s> 
-1.0044 <s> ONE </s> 
-0.3780 <s> ONE INCH 
-0.4024 <s> ONLY </s> 
-0.4024 <s> ONTO </s> 
-0.7034 <s> OR </s> 
-0.7034 <s> OR SOMETHING 
-0.4024 <s> OTHER </s> 
-0.4024 <s> OUT </s> 
-0.4024 <s> OVER </s> 
-0.4024 <s> PEOPLE </s> 
-0.4024 <s> PINK </s> 
-1.9934 <s> PLACE </s> 
-0.1439 <s> PLACE A 
-1.5368 <s> PLACE MAGNET 
-0.6880 <s> PLACE THE 
-0.4228 <s> PLEASE </s> 
-0.8795 <s> PLEASE MOVE 
-0.4228 <s> PROGRAM </s> 
-0.8795 <s> PROGRAM AGAIN 
-0.4024 <s> PULLS </s> 
-0.7404 <s> PUT </s> 
-1.2944 <s> PUT A 
-1.9209 <s> PUT BACK 
-1.9209 <s> PUT BOTTOM 
-1.9209 <s> PUT LAST 
-1.9209 <s> PUT LEFT 
-1.4642 <s> PUT MAGNET 
-1.4642 <s> PUT NEW 
-0.6734 <s> PUT OBJECT 
-1.0408 <s> PUT RIGHT 
-1.9209 <s> PUT THAT 
-1.2944 <s> PUT THE 
-1.9209 <s> PUT TOP 
-0.4228 <s> PUZZLE </s> 
-0.8795 <s> PUZZLE SOLVED 
-0.8795 <s> QUARTER </s> 
-0.4228 <s> QUARTER OF 
-0.4024 <s> READ </s> 
-0.4024 <s> REALLY </s> 
-0.4024 <s> RED </s> 
-1.4438 <s> REMOVE </s> 
-1.4438 <s> REMOVE MIDDLE 
-0.0872 <s> REMOVE THE 
-0.1243 <s> RESET </s> 
-0.2530 <s> RESTART </s> 
-0.4024 <s> RID </s> 
-0.5223 <s> RIGHT </s> 
-1.4024 <s> RIGHT A 
-1.4024 <s> RIGHT AND 
-1.4024 <s> RIGHT MAGNET 
-1.4024 <s> RIGHT NEXT 
-1.4024 <s> RIGHT RIGHT 
-1.4024 <s> RIGHT TARGET 
-0.4024 <s> RIGHTMOST </s> 
-0.4024 <s> ROOM </s> 
-0.8795 <s> ROTATE </s> 
-0.4228 <s> ROTATE THE 
-0.4024 <s> ROW </s> 
-0.0117 <s> RUN </s> 
-1.8208 <s> RUN THE 
-0.4024 <s> SAME </s> 
-0.4024 <s> SAVER </s> 
-0.4024 <s> SCREEN </s> 
-0.7034 <s> SECOND </s> 
-0.7034 <s> SECOND MAGNET 
-0.4024 <s> SEE </s> 
-0.4024 <s> SHAPE </s> 
-0.4024 <s> SHAPED </s> 
-0.4024 <s> SHUT </s> 
-0.4024 <s> SIMULATION </s> 
-0.3780 <s> SLIGHTLY </s> 
-1.0044 <s> SLIGHTLY TO 
-0.7034 <s> SMALL </s> 
-0.7034 <s> SMALL BLUE 
-0.9520 <s> SO </s> 
-1.5785 <s> SO CAN 
-1.5785 <s> SO HOW 
-0.5222 <s> SO IT 
-1.1218 <s> SO MOVE 
-1.1218 <s> SO THAT 
-1.5785 <s> SO THESE 
-0.4024 <s> SOLVE </s> 
-0.4024 <s> SOLVED </s> 
-0.2530 <s> SOME </s> 
-0.2467 <s> SOMETHING </s> 
-0.4024 <s> SORRY </s> 
-0.4024 <s> STACK </s> 
-0.0078 <s> START </s> 
-2.1506 <s> START OVER 
-0.0094 <s> STOP </s> 
-2.9183 <s> STOP DOING 
-2.9183 <s> STOP GET 
-2.2918 <s> STOP MOVE 
-2.9183 <s> STOP PLACE 
-2.9183 <s> STOP STOP 
-0.4024 <s> STRAIGHT </s> 
-0.4024 <s> STRONGER </s> 
-0.7034 <s> STUPID </s> 
-0.7034 <s> STUPID RED 
-0.7034 <s> SUCH </s> 
-0.7034 <s> SUCH THAT 
-0.4024 <s> SURROUNDING </s> 
-0.4228 <s> TAKE </s> 
-0.8795 <s> TAKE OUT 
-0.4024 <s> TARGER </s> 
-0.2467 <s> TARGET </s> 
-0.4024 <s> TARGETS </s> 
-0.7034 <s> TELL </s> 
-0.7034 <s> TELL ME 
-0.4024 <s> TEN </s> 
-0.4024 <s> THANK </s> 
-1.0044 <s> THAT </s> 
-0.5478 <s> THAT IS 
-1.0044 <s> THAT WAS 
-0.7034 <s> THAT'S </s> 
-0.7034 <s> THAT'S NOT 
-1.2679 <s> THE </s> 
-1.2679 <s> THE BLUE 
-1.7246 <s> THE BOTTOM 
-1.7246 <s> THE FIRST 
-1.0981 <s> THE LEFT 
-1.2679 <s> THE MAGNET 
-1.7246 <s> THE MIDDLE 
-1.2679 <s> THE RIGHT 
-1.2679 <s> THE SECOND 
-1.0981 <s> THE THIRD 
-1.2679 <s> THE TOP 
-0.4024 <s> THEM </s> 
-0.7034 <s> THEN </s> 
-0.7034 <s> THEN MOVE 
-0.4024 <s> THESE </s> 
-0.4024 <s> THEY </s> 
-0.4024 <s> THEY'RE </s> 
-0.4024 <s> THINK </s> 
-0.7034 <s> THIRD </s> 
-0.7034 <s> THIRD MAGNET 
-0.4024 <s> THIS </s> 
-0.4024 <s> THOUGHT </s> 
-0.7034 <s> THREE </s> 
-0.7034 <s> THREE MAGNETS 
-0.4024 <s> THROUGH </s> 
-0.4024 <s> TINY </s> 
-0.8346 <s> TO </s> 
-2.0152 <s> TO JUST 
-1.5585 <s> TO LEFT 
-2.0152 <s> TO SLIGHTLY 
-0.1214 <s> TO THE 
-0.4024 <s> TOO </s> 
-0.8795 <s> TOP </s> 
-0.8795 <s> TOP MAGNET 
-0.8795 <s> TOP OF 
-0.4024 <s> TOPMOST </s> 
-0.4024 <s> TOUCHES </s> 
-0.4024 <s> TOUCHING </s> 
-0.4024 <s> TRYING </s> 
-0.8795 <s> TURN </s> 
-0.8795 <s> TURN OFF 
-0.8795 <s> TURN THE 
-1.2475 <s> TWO </s> 
-0.7908 <s> TWO CENTIMETERS 
-0.3674 <s> TWO INCHES 
-0.7034 <s> UH </s> 
-0.7034 <s> UH MY 
-0.4024 <s> UM </s> 
-0.7034 <s> UNDER </s> 
-0.7034 <s> UNDER THE 
-0.4024 <s> UNDERNEATH </s> 
-0.5541 <s> UNDO </s> 
-0.7238 <s> UNDO LAST 
-1.1805 <s> UNDO THAT 
-0.4024 <s> UNIT </s> 
-0.4024 <s> UNTIL </s> 
-0.3245 <s> UP </s> 
-0.4337 <s> UP A 
-1.6811 <s> UP AND 
-1.6811 <s> UP SO 
-1.6811 <s> UP TO 
-0.4024 <s> UPPER </s> 
-0.7034 <s> UPSIDE </s> 
-0.7034 <s> UPSIDE DOWN 
-0.4024 <s> UPSIDE-DOWN </s> 
-0.4024 <s> VERY </s> 
-0.8795 <s> WAIT </s> 
-0.8795 <s> WAIT NO 
-0.8795 <s> WAIT WAIT 
-0.4024 <s> WALL </s> 
-0.4024 <s> WALLS </s> 
-0.4024 <s> WAS </s> 
-0.4024 <s> WAY </s> 
-0.4024 <s> WEIRD </s> 
-0.7034 <s> WELL </s> 
-0.7034 <s> WELL EXECUTE 
-0.4024 <s> WHAT </s> 
-0.4024 <s> WHAT'S </s> 
-0.4024 <s> WHERE </s> 
-0.4228 <s> WHOA </s> 
-0.8795 <s> WHOA UNDO 
-0.7034 <s> WITH </s> 
-0.7034 <s> WITH THE 
-0.4024 <s> WORK </s> 
-0.2467 <s> WOW </s> 
-0.4228 <s> YEAH </s> 
-0.8795 <s> YEAH OK 
-0.7034 <s> YOU </s> 
-0.7034 <s> YOU CAN'T 
-0.4024 <s> YOUR </s> 
-0.2467 A </s> <s> 
-0.4024 A BIT MORE 
-0.3674 A CENTIMETER </s> 
-1.2475 A CENTIMETER AND 
-0.7908 A CENTIMETER TO 
-0.7626 A LITTLE </s> 
-2.4438 A LITTLE ABOVE 
-0.1606 A LITTLE BIT 
-2.4438 A LITTLE HIGHER 
-2.4438 A LITTLE LEFT 
-1.8173 A LITTLE LESS 
-2.4438 A LITTLE LITTLE 
-1.2632 A LITTLE MORE 
-2.4438 A LITTLE TO 
-2.4438 A LITTLE VERY 
-0.4228 A LOT </s> 
-0.8795 A LOT TO 
-0.4260 A MAGNET </s> 
-1.3259 A MAGNET ABOVE 
-1.7826 A MAGNET BELOW 
-1.3259 A MAGNET DIRECTLY 
-1.3259 A MAGNET IN 
-0.7263 A MAGNET TO 
-1.1561 A MAGNET UNDER 
-0.0322 A NEW MAGNET 
-0.0348 A QUARTER OF 
-0.4024 A SECOND MAGNET 
-0.2467 A THIRD MAGNET 
-0.0348 A TINY BIT 
-0.3004 A VERY LITTLE 
-0.7238 A VERY SMALL 
-0.4024 ABOUT </s> <s> 
-0.2467 ABOUT AN INCH 
-0.4024 ABOUT HALF WAY 
-0.0451 ABOVE </s> <s> 
-0.4024 ABOVE AND TO 
-0.4024 ABOVE BALL </s> 
-0.4024 ABOVE LEFT TARGET 
-1.2073 ABOVE THE </s> 
-1.8337 ABOVE THE BALL 
-1.8337 ABOVE THE BIG 
-0.9536 ABOVE THE LARGE 
-0.5863 ABOVE THE LEFT 
-1.3771 ABOVE THE MAGNET 
-1.3771 ABOVE THE SECOND 
-0.5863 ABOVE THE SMALL 
-0.2530 ACTION </s> <s> 
-0.4024 ACTUALLY </s> <s> 
-0.7034 ACTUALLY MOVE IT 
-0.7034 ACTUALLY MOVE THE 
-0.4024 ACTUALLY UNDO THAT 
-0.2467 ADD </s> <s> 
-0.2212 ADD A MAGNET 
-1.1014 ADD A NEW 
-0.4024 ADD THE LAST 
-0.0669 AGAIN </s> <s> 
-0.4024 AGAINST </s> <s> 
-0.4024 AGAINST THE BOTTOM 
-0.4024 ALL </s> <s> 
-0.5478 ALL MAGNETS </s> 
-1.0044 ALL MAGNETS AGAIN 
-1.0044 ALL MAGNETS UP 
-0.7302 ALL THE MAGNETS 
-0.1761 ALL THE WAY 
-0.4024 ALREADY </s> <s> 
-0.4024 ALREADY ON THE 
-0.4024 ALRIGHT </s> <s> 
-0.4024 ALRIGHT I GIVE 
-0.4024 AM </s> <s> 
-0.2530 AMOUNT </s> <s> 
-0.4024 AN </s> <s> 
-0.4024 AN EIGHTH OF 
-0.0969 AN INCH </s> 
-0.9482 AN INCH AND 
-2.0044 AN INCH LEFT 
-1.5478 AN INCH TO 
-0.0580 AND </s> <s> 
-0.4024 AND A VERY 
-0.4024 AND DOWN </s> 
-0.4024 AND GO </s> 
-0.7034 AND MOVE IT 
-0.7034 AND MOVE THE 
-0.4024 AND ONE INCH 
-0.4024 AND RESTART </s> 
-0.4024 AND RUN THE 
-0.4024 AND SLIGHTLY TO 
-0.4024 AND STOP </s> 
-0.7034 AND THE </s> 
-0.7034 AND THE MIDDLE 
-0.3780 AND THEN MOVE 
-1.0044 AND THEN UP 
-0.0212 AND TO THE 
-0.2467 AND UP A 
-0.4024 ANOTHER </s> <s> 
-0.4024 ANOTHER INCH </s> 
-0.4024 ANOTHER MAGNET ON 
-0.2467 ARE </s> <s> 
-0.4024 ARE COMING AT 
-0.4024 ARE THEY LIKE 
-0.4024 AS </s> <s> 
-0.4228 AS FAR AS 
-0.8795 AS FAR DOWN 
-0.4024 AS HIGH AS 
-0.2467 AS IT CAN 
-0.7034 AS THE LEFT 
-0.7034 AS THE WALL 
-0.2467 AS THEY CAN 
-0.4024 AT </s> <s> 
-0.4024 AT BOTTOM </s> 
-0.4024 AT ME </s> 
-0.3780 AT THE BOTTOM 
-1.0044 AT THE SAME 
-0.2467 AWAY </s> <s> 
-0.0580 BACK </s> <s> 
-0.4024 BACK THE RIGHT 
-0.2467 BACK TO THE 
-0.4024 BACKWARDS </s> <s> 
-0.4024 BACKWARDS L SHAPED 
-0.2467 BAD </s> <s> 
-0.0064 BALL </s> <s> 
-0.4024 BALL A LITTLE 
-0.4024 BALL AND TO 
-0.4024 BALL BUT BELOW 
-0.1549 BALL DOWN </s> 
-1.4024 BALL DOWN A 
-0.9457 BALL DOWN SLIGHTLY 
-0.2467 BALL JUST WAS 
-0.1243 BALL ON THE 
-0.4024 BALL OVER TO 
-0.2467 BALL PLACE A 
-0.7034 BALL SLIGHTLY BACK 
-0.7034 BALL SLIGHTLY DOWN 
-0.4024 BALL SMALL RED 
-0.4024 BALL THE SMALL 
-0.0300 BALL TO THE 
-1.1014 BALL UP </s> 
-1.1014 BALL UP HIGHER 
-0.4749 BALL UP SLIGHTLY 
-0.4024 BARRIERS </s> <s> 
-0.2467 BASKET </s> <s> 
-0.2530 BASKETS </s> <s> 
-0.4024 BASKETS A LITTLE 
-0.4024 BASKETS UP </s> 
-0.4024 BEEN </s> <s> 
-0.2467 BELOW </s> <s> 
-1.2010 BELOW THE </s> 
-1.6577 BELOW THE BALL 
-1.0312 BELOW THE BLUE 
-1.6577 BELOW THE CENTER 
-1.6577 BELOW THE LARGE 
-1.6577 BELOW THE LEFT 
-1.6577 BELOW THE RIGHT 
-0.4102 BELOW THE SMALL 
-1.6577 BELOW THE TOP 
-0.2467 BENEATH </s> <s> 
-0.2467 BETWEEN </s> <s> 
-0.4024 BETWEEN BINS </s> 
-0.7759 BETWEEN THE BASKETS 
-1.4024 BETWEEN THE LEFT 
-0.2218 BETWEEN THE TWO 
-0.4024 BETWEN </s> <s> 
-0.4024 BIG </s> <s> 
-0.4024 BIG RED BALL 
-0.2530 BIN </s> <s> 
-0.2467 BINS </s> <s> 
-2.1948 BIT </s> </s> 
-0.0071 BIT </s> <s> 
-0.4024 BIT AND </s> 
-0.0580 BIT DOWN </s> 
-0.1243 BIT MORE </s> 
-1.1805 BIT MORE TO 
-0.0235 BIT TO THE 
-0.2467 BIT UP </s> 
-0.2467 BLOCKS </s> <s> 
-0.4024 BLUE </s> <s> 
-0.2852 BLUE BALL </s> 
-2.1348 BLUE BALL A 
-0.8293 BLUE BALL DOWN 
-1.6781 BLUE BALL ON 
-2.1348 BLUE BALL PLACE 
-2.1348 BLUE BALL SLIGHTLY 
-2.1348 BLUE BALL THE 
-0.7782 BLUE BALL TO 
-1.5083 BLUE BALL UP 
-0.2467 BOO </s> <s> 
-0.4024 BOO STOP </s> 
-0.4024 BOTH </s> <s> 
-0.7034 BOTH MAGNETS AS 
-0.7034 BOTH MAGNETS DOWN 
-0.4024 BOTH THE RIGHT 
-0.0348 BOTTOM </s> <s> 
-1.2475 BOTTOM LEFT CORNER 
-0.3674 BOTTOM LEFT MAGNET 
-1.2475 BOTTOM LEFT OBJECT 
-1.2475 BOTTOM LEFT OF 
-0.4500 BOTTOM MAGNET </s> 
-0.7132 BOTTOM MAGNET A 
-1.2673 BOTTOM MAGNET DOWN 
-1.8937 BOTTOM MAGNET FARTHER 
-0.5883 BOTTOM MAGNET TO 
-1.4371 BOTTOM MAGNET UP 
-0.4024 BOTTOM MAGNETS TO 
-0.4253 BOTTOM OBJECT </s> 
-1.4816 BOTTOM OBJECT AT 
-1.4816 BOTTOM OBJECT DOWN 
-1.4816 BOTTOM OBJECT LEFT 
-0.6014 BOTTOM OBJECT UP 
-0.0580 BOTTOM OF THE 
-1.3055 BOTTOM RIGHT </s> 
-0.0580 BOTTOM RIGHT MAGNET 
-0.4024 BOTTOM TWO MAGNETS 
-0.4024 BOTTOM WALL </s> 
-0.4024 BOWLING </s> <s> 
-0.2467 BOWLING BALL </s> 
-0.2467 BOXES </s> <s> 
-0.0451 BRACE </s> <s> 
-0.4024 BROUGHT </s> <s> 
-0.4024 BROUGHT THEM INTO 
-0.4024 BUT </s> <s> 
-0.4024 BUT BELOW THE 
-0.4024 BUT NOT RIGHT 
-0.4024 BUT SAME HEIGHT 
-0.4024 BUT TO THE 
-0.4024 BY </s> <s> 
-0.7034 BY THE L 
-0.7034 BY THE RIGHT 
-0.4024 CAN </s> <s> 
-0.1243 CAN GO </s> 
-0.4024 CAN I ONLY 
-0.4024 CAN YOU ROTATE 
-0.4024 CAN'T </s> <s> 
-0.4024 CAN'T MAKE ONE 
-0.4024 CENTER </s> <s> 
-0.2467 CENTER BOTTOM OBJECT 
-0.2467 CENTER MAGNET </s> 
-0.2467 CENTER OF THE 
-0.4024 CENTER TARGET </s> 
-0.4228 CENTER WALLS </s> 
-0.8795 CENTER WALLS UP 
-0.0451 CENTIMETER </s> <s> 
-0.4024 CENTIMETER AND TO 
-0.7034 CENTIMETER TO THE 
-0.7034 CENTIMETER TO YOUR 
-0.2530 CENTIMETERS </s> <s> 
-0.2467 CLOCKWISE </s> <s> 
-0.4024 CLOSER </s> <s> 
-0.2530 CLOSER TO THE 
-0.4024 COMES </s> <s> 
-0.4024 COMING </s> <s> 
-0.4024 COMING AT ME 
-0.0669 CORNER </s> <s> 
-0.2467 CORNER OF THE 
-0.4024 CORNERS </s> <s> 
-0.4024 DEGREES </s> <s> 
-0.4024 DEGREES CLOCKWISE </s> 
-0.4024 DELETE </s> <s> 
-0.4024 DELETE STOP </s> 
-0.4024 DELETE THE TOP 
-0.2467 DIAGONAL </s> <s> 
-0.4024 DIRECTION </s> <s> 
-0.4024 DIRECTION OR DO 
-0.4024 DIRECTLY </s> <s> 
-0.4024 DIRECTLY ABOVE THE 
-0.4024 DIRECTLY BELOW THE 
-0.2467 DIRECTLY TO THE 
-0.8795 DIRECTLY UNDER </s> 
-0.4228 DIRECTLY UNDER THE 
-0.4024 DO </s> <s> 
-0.4024 DO I </s> 
-0.4024 DO THEY WORK 
-0.4024 DOES </s> <s> 
-0.4024 DOING </s> <s> 
-0.4024 DOING THAT </s> 
-0.4024 DON'T </s> <s> 
-0.0078 DOWN </s> <s> 
-1.8795 DOWN A </s> 
-1.8795 DOWN A CENTIMETER 
-0.2467 DOWN A LITTLE 
-1.4228 DOWN A QUARTER 
-0.5740 DOWN A TINY 
-1.8795 DOWN A VERY 
-0.4024 DOWN AGAINST THE 
-0.2530 DOWN AN INCH 
-1.2475 DOWN AND SLIGHTLY 
-0.0669 DOWN AND TO 
-0.4024 DOWN AS THEY 
-0.4024 DOWN AT THE 
-0.4024 DOWN BACKWARDS L 
-0.4024 DOWN HALF AN 
-0.4024 DOWN IN THE 
-0.4024 DOWN JUST A 
-0.4024 DOWN MORE </s> 
-0.4024 DOWN QUARTER OF 
-0.2467 DOWN SLIGHTLY </s> 
-0.7034 DOWN SO IT 
-0.7034 DOWN SO THAT 
-0.2467 DOWN TWO INCHES 
-0.1243 DRAT </s> <s> 
-0.4024 EACH </s> <s> 
-0.4024 EACH OTHER </s> 
-0.4024 EACH TARGET </s> 
-0.4024 EDGE </s> <s> 
-0.0580 EDGE OF THE 
-0.4024 EIGHT </s> <s> 
-0.4024 EIGHT INCHES UNDER 
-0.4024 EIGHTH </s> <s> 
-0.4024 EIGHTH OF AN 
-0.2467 ELEVEN </s> <s> 
-0.4024 EVEN </s> <s> 
-0.4024 EVEN CLOSER TO 
-0.4024 EVIL </s> <s> 
-0.4024 EVIL PEOPLE ARE 
-0.2467 EXCELLENT </s> <s> 
-0.0078 EXECUTE </s> <s> 
-0.4024 EXECUTE IT ONCE 
-0.2467 EXECUTE PUZZLE </s> 
-0.4024 FAR </s> <s> 
-0.7034 FAR AS IT 
-0.7034 FAR AS THEY 
-0.4024 FAR DOWN AS 
-0.4024 FAR RIGHT TARGET 
-0.2467 FARTHER </s> <s> 
-0.4024 FARTHER TO THE 
-0.2467 FEET </s> <s> 
-0.2467 FIELD </s> <s> 
-0.4024 FIGURE </s> <s> 
-0.4024 FIND </s> <s> 
-0.4024 FINISH SESSION </s> 
-0.4024 FIRST </s> <s> 
-0.2430 FIRST MAGNET </s> 
-1.5485 FIRST MAGNET DOWN 
-1.0918 FIRST MAGNET SO 
-1.5485 FIRST MAGNET TO 
-1.0918 FIRST MAGNET UP 
-0.4024 FIRST OBJECT </s> 
-0.4024 FIVE </s> <s> 
-0.4024 FIVE FEET </s> 
-0.4024 FOR </s> <s> 
-0.4024 FORM </s> <s> 
-0.4024 FOUR </s> <s> 
-0.4024 FOUR BOXES </s> 
-0.4024 FOUR INCHES RIGHT 
-0.4024 FROM </s> <s> 
-0.7034 FROM THE BOTTOM 
-0.7034 FROM THE RIGHT 
-0.2467 FUDGE </s> <s> 
-0.4024 FURTHER TO THE 
-0.2467 GAME </s> <s> 
-0.4024 GET </s> <s> 
-0.4024 GET A NEW 
-0.0378 GET RID OF 
-0.4024 GETTING </s> <s> 
-0.4024 GETTING NO IMAGE 
-0.4024 GIVE </s> <s> 
-0.7034 GIVE UP GO 
-0.7034 GIVE UP ON 
-0.0022 GO </s> <s> 
-0.7034 GO GO </s> 
-0.7034 GO GO GO 
-0.2467 GO ON TO 
-0.2530 GOAL </s> <s> 
-0.4024 GOES </s> <s> 
-0.2467 GOOD </s> <s> 
-0.4024 GOOD GO </s> 
-0.2467 GOOD JOB </s> 
-0.4024 HALF </s> <s> 
-0.2530 HALF A CENTIMETER 
-0.0322 HALF AN INCH 
-0.7034 HALF WAY BETWEEN 
-0.7034 HALF WAY TO 
-0.2530 HALFWAY </s> <s> 
-0.4024 HALFWAY TO THE 
-0.4024 HAND </s> <s> 
-0.4024 HANG </s> <s> 
-0.4024 HAVE </s> <s> 
-0.4024 HAVE NO SCREEN 
-0.4024 HAVE TO HIT 
-0.4024 HEAD </s> <s> 
-0.2467 HEIGHT </s> <s> 
-0.4024 HEIGHT OF THE 
-0.0451 HELLO </s> <s> 
-0.4024 HELP </s> <s> 
-0.7034 HELP ME </s> 
-0.7034 HELP ME I 
-0.4024 HIGH AS IT 
-0.1243 HIGHER </s> <s> 
-0.4024 HIGHEST </s> <s> 
-0.4024 HIGHEST MAGNET DOWN 
-0.4024 HIGHEST UP AND 
-0.4024 HIT </s> <s> 
-0.4024 HIT KAIYUH OVER 
-0.4024 HIT THE TARGET 
-0.4024 HOLE </s> <s> 
-0.4024 HOLE BETWEEN THE 
-0.4024 HOW </s> <s> 
-0.4024 HOW DO I 
-0.2467 I </s> <s> 
-0.2467 I GIVE UP 
-0.7034 I HAVE NO 
-0.7034 I HAVE TO 
-0.4024 I ONLY EXECUTE 
-0.4024 I THOUGHT YOU 
-0.4024 I'M </s> <s> 
-0.4024 I'M GETTING NO 
-0.4024 I'VE </s> <s> 
-0.2467 IMAGE </s> <s> 
-0.4024 IMMEDIATELY </s> <s> 
-0.2467 IMMEDIATELY TO THE 
-0.4024 IN </s> <s> 
-0.2467 IN BETWEEN THE 
-0.2467 IN MIDDLE </s> 
-1.0249 IN THE BOTTOM 
-1.4816 IN THE HOLE 
-0.3010 IN THE MIDDLE 
-0.8551 IN THE TOP 
-0.0113 INCH </s> <s> 
-1.1014 INCH AND </s> 
-1.1014 INCH AND THEN 
-0.4749 INCH AND TO 
-0.4024 INCH LEFT </s> 
-0.2467 INCH TO THE 
-0.4024 INCH UP </s> 
-0.0669 INCHES </s> <s> 
-0.4024 INCHES RIGHT OF 
-0.4024 INCHES TO THE 
-0.4024 INCHES UNDER THE 
-0.4024 INSIDE </s> <s> 
-0.4024 INSIDE OF THE 
-0.2467 INTERESTING </s> <s> 
-0.4024 INTO </s> <s> 
-0.4024 INTO THE OTHER 
-0.2530 IS </s> <s> 
-0.8795 IS ABOVE </s> 
-0.4228 IS ABOVE THE 
-0.4024 IS DIRECTLY TO 
-0.4024 IS HALF WAY 
-0.4024 IS HIGHEST UP 
-0.2467 IS IN BETWEEN 
-0.4024 IS ON TOP 
-0.4024 IS THIS MOVE 
-0.1243 IS TO THE 
-0.4024 IS TOUCHING THE 
-0.1243 IS UNDERNEATH THE 
-0.0512 IT </s> <s> 
-0.2530 IT A LITTLE 
-0.4024 IT BACK </s> 
-0.2467 IT CAN GO 
-0.4024 IT DIRECTLY ABOVE 
-1.1805 IT DOWN </s> 
-0.7238 IT DOWN A 
-1.1805 IT DOWN MORE 
-1.1805 IT DOWN SO 
-1.1805 IT DOWN TWO 
-0.8551 IT IS ABOVE 
-1.4816 IT IS DIRECTLY 
-1.4816 IT IS HALF 
-1.0249 IT IS IN 
-1.4816 IT IS ON 
-1.4816 IT IS TO 
-0.8551 IT IS UNDERNEATH 
-0.4024 IT ONCE </s> 
-0.4024 IT SO IT'S 
-0.0223 IT TO THE 
-0.0580 IT TOUCHES THE 
-0.6790 IT UP </s> 
-1.3055 IT UP ABOUT 
-1.3055 IT UP AN 
-1.3055 IT UP AND 
-1.3055 IT UP HALF 
-1.3055 IT UP MORE 
-0.4024 IT'S </s> <s> 
-0.2467 IT'S AT THE 
-0.7034 IT'S DIRECTLY BELOW 
-0.7034 IT'S DIRECTLY TO 
-0.7034 IT'S JUST A 
-0.7034 IT'S JUST ABOVE 
-0.4024 IT'S LEVEL </s> 
-0.4024 IT'S NOT MOVING 
-0.4024 IT'S RIGHT UNDER 
-0.2530 IT'S TOUCHING THE 
-0.4024 IT'S UNDER THE 
-0.2530 JOB </s> <s> 
-0.4024 JUST </s> <s> 
-0.0580 JUST A LITTLE 
-1.3055 JUST A TINY 
-0.2467 JUST ABOVE THE 
-0.4024 JUST BELOW THE 
-0.4024 JUST SHUT OFF 
-0.2467 JUST WAS </s> 
-0.4024 KAIYUH OVER THE 
-0.4024 KEEP </s> <s> 
-0.4024 L SHAPE </s> 
-0.4024 L SHAPED WALL 
-0.4024 LARGE </s> <s> 
-0.1243 LARGE BLUE BALL 
-0.4024 LARGE RIGHT BALL 
-0.4024 LAST </s> <s> 
-0.2467 LAST ACTION </s> 
-1.0044 LAST MAGNET </s> 
-0.5478 LAST MAGNET A 
-1.0044 LAST MAGNET BACK 
-0.4024 LAST OBJECT ON 
-0.4024 LEDGE </s> <s> 
-0.0058 LEFT </s> <s> 
-0.1648 LEFT A LITTLE 
-0.6249 LEFT A QUARTER 
-1.6811 LEFT A TINY 
-0.4024 LEFT AGAIN </s> 
-0.4024 LEFT ANOTHER INCH 
-0.4024 LEFT AS FAR 
-0.4024 LEFT BALL </s> 
-0.4024 LEFT BASKET </s> 
-0.2467 LEFT BIN </s> 
-0.4024 LEFT BRACE </s> 
-0.3780 LEFT CORNER </s> 
-1.0044 LEFT CORNER OF 
-0.7034 LEFT DOWN </s> 
-0.7034 LEFT DOWN A 
-0.2530 LEFT EDGE OF 
-0.4024 LEFT GO </s> 
-0.7034 LEFT HALF A 
-0.7034 LEFT HALF AN 
-0.2467 LEFT JUST A 
-0.4616 LEFT MAGNET </s> 
-2.1427 LEFT MAGNET A 
-1.6861 LEFT MAGNET ALL 
-2.1427 LEFT MAGNET BELOW 
-2.1427 LEFT MAGNET BUT 
-0.7861 LEFT MAGNET DOWN 
-2.1427 LEFT MAGNET FURTHER 
-2.1427 LEFT MAGNET GO 
-2.1427 LEFT MAGNET RIGHT 
-1.6861 LEFT MAGNET SO 
-0.5942 LEFT MAGNET TO 
-1.5163 LEFT MAGNET UP 
-1.2475 LEFT MAGNETS </s> 
-0.7908 LEFT MAGNETS DOWN 
-0.3674 LEFT MAGNETS UP 
-0.4024 LEFT MORE </s> 
-1.7448 LEFT MOST BRACE 
-1.7448 LEFT MOST CORNER 
-0.1383 LEFT MOST MAGNET 
-1.7448 LEFT MOST TARGET 
-1.1183 LEFT MOST WALL 
-1.5163 LEFT OBJECT </s> 
-1.5163 LEFT OBJECT A 
-1.0596 LEFT OBJECT BACK 
-0.8899 LEFT OBJECT LEFT 
-1.5163 LEFT OBJECT NEXT 
-1.0596 LEFT OBJECT RIGHT 
-0.8899 LEFT OBJECT UP 
-1.4371 LEFT OF </s> 
-1.8937 LEFT OF BLUE 
-0.0442 LEFT OF THE 
-0.2530 LEFT SO IT 
-0.4024 LEFT STACK OF 
-0.4024 LEFT SUCH THAT 
-0.2467 LEFT TARGET </s> 
-0.4024 LEFT TARGETS </s> 
-0.4228 LEFT WALL </s> 
-0.8795 LEFT WALL AS 
-0.4024 LEFTMOST </s> <s> 
-0.4024 LENGTH </s> <s> 
-0.0580 LESS </s> <s> 
-0.4024 LET'S SEE </s> 
-0.4024 LETS </s> <s> 
-0.2467 LEVEL </s> <s> 
-0.2467 LEVEL AS THE 
-0.4024 LIFE </s> <s> 
-0.4024 LIFE IS </s> 
-0.4024 LIKE </s> <s> 
-0.4024 LIKE ONLY THIS 
-0.4024 LINE </s> <s> 
-0.0212 LITTLE </s> <s> 
-0.4024 LITTLE ABOVE </s> 
-0.2236 LITTLE BIT </s> 
-2.3162 LITTLE BIT AND 
-1.0687 LITTLE BIT DOWN 
-1.2599 LITTLE BIT MORE 
-0.6585 LITTLE BIT TO 
-1.8595 LITTLE BIT UP 
-0.4024 LITTLE GAME </s> 
-0.4024 LITTLE HIGHER </s> 
-0.4024 LITTLE LEFT </s> 
-0.2530 LITTLE LESS </s> 
-0.4024 LITTLE LITTLE BIT 
-0.0669 LITTLE MORE </s> 
-0.4024 LITTLE RED BALL 
-0.4024 LITTLE TO THE 
-0.4024 LITTLE VERY LITTLE 
-0.4024 LOAD </s> <s> 
-0.4024 LOAD NEXT PUZZLE 
-0.2467 LOAD PUZZLE </s> 
-0.2530 LOT </s> <s> 
-0.4024 LOT TO THE 
-0.2467 LOW </s> <s> 
-0.4024 LOWER </s> <s> 
-0.4024 LOWER MAGNETS UP 
-0.4024 LOWEST </s> <s> 
-1.0044 LOWEST MAGNET </s> 
-0.3780 LOWEST MAGNET TO 
-0.4024 MAGNER </s> <s> 
-0.0032 MAGNET </s> <s> 
-0.0669 MAGNET A LITTLE 
-1.0981 MAGNET A VERY 
-1.4438 MAGNET ABOVE </s> 
-1.4438 MAGNET ABOVE AND 
-0.0872 MAGNET ABOVE THE 
-0.0669 MAGNET ALL THE 
-0.4024 MAGNET ALREADY ON 
-0.4024 MAGNET AS HIGH 
-0.4024 MAGNET AWAY </s> 
-0.2467 MAGNET BACK </s> 
-0.0458 MAGNET BELOW THE 
-1.1805 MAGNET BETWEEN BINS 
-0.1243 MAGNET BETWEEN THE 
-0.4024 MAGNET BUT TO 
-0.2467 MAGNET CLOSER TO 
-0.2467 MAGNET DIRECTLY UNDER 
-0.2900 MAGNET DOWN </s> 
-0.4771 MAGNET DOWN A 
-1.5368 MAGNET DOWN AN 
-1.1133 MAGNET DOWN AND 
-0.4024 MAGNET EVEN CLOSER 
-0.4024 MAGNET FARTHER TO 
-0.2467 MAGNET FROM THE 
-0.4024 MAGNET FURTHER TO 
-0.4024 MAGNET GO </s> 
-0.4024 MAGNET HALF AN 
-0.4024 MAGNET HALFWAY TO 
-0.4024 MAGNET HIGHER </s> 
-0.0512 MAGNET IN THE 
-0.4024 MAGNET IS TOUCHING 
-0.3780 MAGNET LEFT </s> 
-1.0044 MAGNET LEFT A 
-0.2530 MAGNET NEAR THE 
-0.4024 MAGNET NINETY DEGREES 
-1.4816 MAGNET ON </s> 
-0.2341 MAGNET ON THE 
-0.6014 MAGNET ON TOP 
-0.4024 MAGNET PUT IT 
-0.4024 MAGNET RIGHT AND 
-0.3875 MAGNET SO IT 
-0.8173 MAGNET SO IT'S 
-0.8173 MAGNET SO THAT 
-0.1243 MAGNET THAT IS 
-0.8173 MAGNET THAT'S ABOVE 
-1.4438 MAGNET THAT'S DOWN 
-1.4438 MAGNET THAT'S ON 
-0.5637 MAGNET THAT'S TO 
-0.9871 MAGNET THAT'S UNDER 
-2.2657 MAGNET TO </s> 
-2.2657 MAGNET TO BELOW 
-0.0245 MAGNET TO THE 
-1.8090 MAGNET TO WHERE 
-1.3055 MAGNET UNDER EACH 
-1.3055 MAGNET UNDER SMALL 
-0.1249 MAGNET UNDER THE 
-0.3590 MAGNET UP </s> 
-0.5509 MAGNET UP A 
-1.2811 MAGNET UP AND 
-1.9075 MAGNET UP HALFWAY 
-1.4508 MAGNET UP JUST 
-1.9075 MAGNET UP SOME 
-1.4508 MAGNET UP TO 
-0.0669 MAGNETS </s> <s> 
-0.4024 MAGNETS AGAIN </s> 
-0.4024 MAGNETS AS FAR 
-0.8795 MAGNETS DOWN </s> 
-0.8795 MAGNETS DOWN A 
-0.8795 MAGNETS DOWN JUST 
-0.4024 MAGNETS ONE ON 
-0.1243 MAGNETS TO THE 
-0.7238 MAGNETS UP </s> 
-0.7238 MAGNETS UP A 
-1.1805 MAGNETS UP AN 
-1.1805 MAGNETS UP HALFWAY 
-0.4024 MAGNETS UPSIDE DOWN 
-0.4024 MAKE </s> <s> 
-0.4024 MAKE ONE OF 
-0.2467 MAYBE </s> <s> 
-0.2530 ME </s> <s> 
-0.4024 ME I HAVE 
-0.4024 ME WHAT THE 
-0.4024 MEAN </s> <s> 
-0.4024 MEANING </s> <s> 
-0.4024 MEANING OF LIFE 
-0.0669 MIDDLE </s> <s> 
-0.4024 MIDDLE GOAL </s> 
-0.6990 MIDDLE MAGNET </s> 
-1.0663 MIDDLE MAGNET A 
-1.9464 MIDDLE MAGNET ALL 
-1.3200 MIDDLE MAGNET DOWN 
-1.9464 MIDDLE MAGNET HIGHER 
-1.3200 MIDDLE MAGNET LEFT 
-1.4898 MIDDLE MAGNET SO 
-0.6410 MIDDLE MAGNET TO 
-1.4898 MIDDLE MAGNET UNDER 
-1.0663 MIDDLE MAGNET UP 
-0.4024 MIDDLE MAGNETS TO 
-0.4024 MIDDLE MOVE THE 
-1.1183 MIDDLE OBJECT </s> 
-0.4973 MIDDLE OBJECT DOWN 
-0.6885 MIDDLE OBJECT LEFT 
-0.8647 MIDDLE OBJECT RIGHT 
-1.1183 MIDDLE OBJECT UP 
-0.0451 MIDDLE OF THE 
-0.4228 MIDDLE TARGET </s> 
-0.8795 MIDDLE TARGET TO 
-0.4024 MO </s> <s> 
-0.4024 MOCE </s> <s> 
-0.4024 MONITOR </s> <s> 
-0.4024 MONITOR JUST SHUT 
-0.0235 MORE </s> <s> 
-0.4024 MORE TO THE 
-0.4024 MOST </s> <s> 
-0.2467 MOST BRACE </s> 
-0.4024 MOST CORNER </s> 
-0.4150 MOST MAGNET </s> 
-1.8174 MOST MAGNET BELOW 
-1.1909 MOST MAGNET DOWN 
-1.8174 MOST MAGNET SO 
-0.9372 MOST MAGNET TO 
-0.5699 MOST MAGNET UP 
-0.2467 MOST TARGET </s> 
-0.4228 MOST WALL </s> 
-0.8795 MOST WALL UP 
-0.0223 MOVE </s> <s> 
-0.7034 MOVE ALL MAGNETS 
-0.7034 MOVE ALL THE 
-0.4228 MOVE BOTH MAGNETS 
-0.8795 MOVE BOTH THE 
-1.4816 MOVE BOTTOM LEFT 
-1.0249 MOVE BOTTOM MAGNET 
-0.1249 MOVE BOTTOM OBJECT 
-0.4024 MOVE DOWN </s> 
-0.9796 MOVE IT </s> 
-1.4094 MOVE IT A 
-2.0358 MOVE IT BACK 
-2.0358 MOVE IT DIRECTLY 
-0.8553 MOVE IT DOWN 
-2.0358 MOVE IT SO 
-0.3782 MOVE IT TO 
-0.7304 MOVE IT UP 
-0.8899 MOVE LEFT MAGNET 
-0.1139 MOVE LEFT OBJECT 
-0.4024 MOVE MAGNET UP 
-0.0212 MOVE MIDDLE OBJECT 
-0.4024 MOVE MOVE THE 
-0.4024 MOVE OBJECT </s> 
-0.4024 MOVE ONE MAGNET 
-1.0981 MOVE RIGHT </s> 
-1.7246 MOVE RIGHT BALL 
-1.2679 MOVE RIGHT MAGNET 
-0.1461 MOVE RIGHT OBJECT 
-0.4024 MOVE STOP </s> 
-0.2530 MOVE THAT MAGNET 
-1.5869 MOVE THE </s> 
-2.8923 MOVE THE BALL 
-0.9218 MOVE THE BOTTOM 
-1.4108 MOVE THE FIRST 
-2.8923 MOVE THE HIGHEST 
-2.4357 MOVE THE LAST 
-0.7576 MOVE THE LEFT 
-2.2659 MOVE THE LOWEST 
-0.6149 MOVE THE MAGNET 
-0.9218 MOVE THE MIDDLE 
-2.2659 MOVE THE NEW 
-2.8923 MOVE THE RED 
-0.8772 MOVE THE RIGHT 
-1.4900 MOVE THE SECOND 
-2.8923 MOVE THE SMALL 
-2.4357 MOVE THE THIRD 
-1.3760 MOVE THE TOP 
-1.5869 MOVE THE TWO 
-0.2467 MOVE UP </s> 
-0.4024 MOVED </s> <s> 
-0.4024 MOVES </s> <s> 
-0.2467 MOVING </s> <s> 
-0.4024 MY </s> <s> 
-0.4024 MY MONITOR JUST 
-0.4024 NEAR </s> <s> 
-0.7238 NEAR THE BOTTOM 
-0.3004 NEAR THE SMALL 
-0.4024 NEW </s> <s> 
-0.4973 NEW MAGNET </s> 
-1.2881 NEW MAGNET ABOVE 
-1.7448 NEW MAGNET BELOW 
-1.7448 NEW MAGNET BETWEEN 
-1.7448 NEW MAGNET IN 
-1.7448 NEW MAGNET IS 
-1.1183 NEW MAGNET ON 
-1.7448 NEW MAGNET PUT 
-1.7448 NEW MAGNET SO 
-1.1183 NEW MAGNET TO 
-1.7448 NEW MAGNET UP 
-0.2467 NEXT </s> <s> 
-0.1243 NEXT PUZZLE </s> 
-1.1014 NEXT TO IT 
-0.6447 NEXT TO TARGET 
-0.6447 NEXT TO THE 
-0.4024 NINETY </s> <s> 
-0.4024 NINETY DEGREES CLOCKWISE 
-0.0512 NO </s> <s> 
-0.4024 NO IMAGE </s> 
-0.4024 NO MOVE THE 
-0.4024 NO PUT LEFT 
-0.4024 NO SCREEN </s> 
-0.4024 NOT </s> <s> 
-0.4024 NOT MOVING </s> 
-0.7034 NOT RIGHT </s> 
-0.7034 NOT RIGHT NEXT 
-0.4024 NOT THAT LOW 
-0.4024 NOW </s> <s> 
-0.4024 NOW I HAVE 
-0.0263 OBJECT </s> <s> 
-0.7034 OBJECT A LITTLE 
-0.7034 OBJECT A QUARTER 
-0.8795 OBJECT ABOVE </s> 
-0.8795 OBJECT ABOVE BALL 
-0.8795 OBJECT ABOVE LEFT 
-0.4024 OBJECT AT BOTTOM 
-0.2530 OBJECT BACK </s> 
-0.4024 OBJECT BETWEEN </s> 
-0.3680 OBJECT DOWN </s> 
-0.3680 OBJECT DOWN A 
-1.5485 OBJECT DOWN HALF 
-1.5485 OBJECT DOWN QUARTER 
-0.4024 OBJECT FOUR INCHES 
-0.4024 OBJECT IN MIDDLE 
-0.6014 OBJECT LEFT </s> 
-0.2341 OBJECT LEFT A 
-1.4816 OBJECT LEFT HALF 
-0.4024 OBJECT NEXT TO 
-0.4024 OBJECT ON </s> 
-0.7908 OBJECT RIGHT </s> 
-0.3674 OBJECT RIGHT A 
-1.2475 OBJECT RIGHT QUARTER 
-0.7034 OBJECT UNDER </s> 
-0.7034 OBJECT UNDER TARGET 
-0.4922 OBJECT UP </s> 
-0.3010 OBJECT UP A 
-1.5485 OBJECT UP AN 
-1.5485 OBJECT UP ONE 
-0.2530 OF </s> <s> 
-0.4749 OF ALL MAGNETS 
-0.6447 OF ALL THE 
-0.0248 OF AN INCH 
-0.4024 OF BLOCKS </s> 
-0.4024 OF BLUE BALL 
-0.4024 OF EACH OTHER 
-0.4024 OF FIRST OBJECT 
-0.4024 OF IT </s> 
-0.4024 OF LIFE IS 
-1.1187 OF THE BALL 
-2.3662 OF THE BLUE 
-1.9095 OF THE BOTTOM 
-2.3662 OF THE BRACE 
-2.3662 OF THE CENTER 
-2.3662 OF THE FIELD 
-2.3662 OF THE FOUR 
-0.9224 OF THE LEFT 
-2.3662 OF THE LITTLE 
-2.3662 OF THE LOWEST 
-1.9095 OF THE MAGNET 
-2.3662 OF THE NEW 
-2.3662 OF THE PINK 
-1.9095 OF THE RED 
-1.1187 OF THE RIGHT 
-0.6628 OF THE SCREEN 
-0.5014 OF THE SMALL 
-2.3662 OF THE TARGETS 
-2.3662 OF THE TWO 
-2.3662 OF THE WALL 
-0.4024 OF THEM STRONGER 
-0.4024 OFF </s> <s> 
-0.4024 OFF I'M GETTING 
-0.4024 OFF THE SCREEN 
-0.2467 OH </s> <s> 
-0.4024 OH FUDGE </s> 
-0.4024 OH MOVE IT 
-0.2467 OH OK </s> 
-0.4024 OH THE EVIL 
-0.0170 OK </s> <s> 
-0.4024 OK AND </s> 
-1.1014 OK MOVE MIDDLE 
-1.1014 OK MOVE MOVE 
-0.4749 OK MOVE THE 
-0.8795 OK PUT </s> 
-0.8795 OK PUT SECOND 
-0.8795 OK PUT THE 
-0.4024 OK SO NOW 
-0.0669 OK STOP </s> 
-0.4024 OK UNDO THAT 
-0.2467 OKAY </s> <s> 
-0.4024 OKAY MOVE IT 
-0.4024 OKAY THANK YOU 
-0.2530 ON </s> <s> 
-1.5785 ON THE BOTTOM 
-0.3310 ON THE LEFT 
-0.6984 ON THE RIGHT 
-1.1218 ON THE SCREEN 
-1.5785 ON THE TOP 
-0.4024 ON THIS LITTLE 
-0.2467 ON TO THE 
-0.0580 ON TOP OF 
-0.2467 ONCE </s> <s> 
-0.4024 ONE </s> <s> 
-0.2212 ONE INCH </s> 
-1.1014 ONE INCH UP 
-0.4024 ONE MAGNET </s> 
-0.4024 ONE OF THEM 
-0.4024 ONE ON TOP 
-0.4024 ONLY </s> <s> 
-0.4024 ONLY EXECUTE IT 
-0.4024 ONLY THIS DIRECTION 
-0.4024 ONTO </s> <s> 
-0.4024 OR </s> <s> 
-0.4024 OR DO THEY 
-0.4024 OR SOMETHING </s> 
-0.2467 OTHER </s> <s> 
-0.4024 OTHER ROOM </s> 
-0.4024 OUT </s> <s> 
-0.4024 OUT THE THIRD 
-0.2467 OVER </s> <s> 
-0.4024 OVER THE HEAD 
-0.4024 OVER TO THE 
-0.4024 PEOPLE </s> <s> 
-0.4024 PEOPLE ARE COMING 
-0.4024 PINK </s> <s> 
-0.4024 PINK BALL </s> 
-0.4024 PLACE </s> <s> 
-0.2126 PLACE A MAGNET 
-0.5371 PLACE A NEW 
-1.8937 PLACE A SECOND 
-1.4371 PLACE A THIRD 
-0.2467 PLACE MAGNET </s> 
-1.3055 PLACE THE </s> 
-1.3055 PLACE THE BOTTOM 
-1.3055 PLACE THE LEFT 
-0.8488 PLACE THE MAGNET 
-0.8488 PLACE THE NEW 
-1.3055 PLACE THE THIRD 
-0.2467 PLEASE </s> <s> 
-0.4024 PLEASE MOVE THE 
-0.2467 PROGRAM </s> <s> 
-0.4024 PROGRAM AGAIN </s> 
-0.4024 PULLS </s> <s> 
-0.0580 PUT </s> <s> 
-0.8795 PUT A MAGNET 
-0.4228 PUT A NEW 
-0.4024 PUT BACK THE 
-0.4024 PUT BOTTOM OBJECT 
-0.4024 PUT IT TO 
-0.4024 PUT LAST OBJECT 
-0.2467 PUT LEFT OBJECT 
-0.2467 PUT MAGNET ON 
-0.2467 PUT NEW MAGNET 
-0.7908 PUT OBJECT </s> 
-0.6210 PUT OBJECT ABOVE 
-1.2475 PUT OBJECT BETWEEN 
-1.2475 PUT OBJECT UNDER 
-0.3780 PUT RIGHT OBJECT 
-1.0044 PUT RIGHT TARGET 
-0.4024 PUT SECOND OBJECT 
-0.4024 PUT THAT LAST 
-1.0044 PUT THE FIRST 
-1.0044 PUT THE RIGHT 
-0.5478 PUT THE THIRD 
-0.4024 PUT TOP OBJECT 
-0.0378 PUZZLE </s> <s> 
-0.4024 PUZZLE SOLVED </s> 
-0.4024 QUARTER </s> <s> 
-0.0263 QUARTER OF AN 
-0.4024 READ </s> <s> 
-0.4024 READ BALL SLIGHTLY 
-0.4024 REALLY </s> <s> 
-0.4024 RED </s> <s> 
-0.2218 RED BALL </s> 
-1.8795 RED BALL AND 
-1.8795 RED BALL DOWN 
-1.4228 RED BALL ON 
-1.8795 RED BALL OVER 
-1.8795 RED BALL SMALL 
-0.9994 RED BALL TO 
-1.4228 RED BALL UP 
-0.4024 REMOVE </s> <s> 
-0.4024 REMOVE MIDDLE OBJECT 
-0.8999 REMOVE THE CENTER 
-0.8999 REMOVE THE MAGNET 
-1.3566 REMOVE THE NEW 
-0.8999 REMOVE THE RIGHT 
-0.8999 REMOVE THE THIRD 
-0.1243 RESET </s> <s> 
-0.1243 RESTART </s> <s> 
-0.4024 RID </s> <s> 
-0.3875 RID OF ALL 
-0.2632 RID OF THE 
-0.0077 RIGHT </s> <s> 
-0.0872 RIGHT A LITTLE 
-1.4438 RIGHT A QUARTER 
-1.4438 RIGHT A VERY 
-1.0044 RIGHT AND DOWN 
-1.0044 RIGHT AND THE 
-0.5478 RIGHT AND UP 
-0.7034 RIGHT BALL </s> 
-0.7034 RIGHT BALL DOWN 
-0.7034 RIGHT CORNER </s> 
-0.7034 RIGHT CORNER OF 
-0.1243 RIGHT HALF AN 
-0.2467 RIGHT JUST A 
-0.4949 RIGHT MAGNET </s> 
-1.2212 RIGHT MAGNET A 
-1.6447 RIGHT MAGNET ALL 
-2.1014 RIGHT MAGNET BACK 
-1.6447 RIGHT MAGNET CLOSER 
-0.7959 RIGHT MAGNET DOWN 
-2.1014 RIGHT MAGNET EVEN 
-2.1014 RIGHT MAGNET HALF 
-2.1014 RIGHT MAGNET HALFWAY 
-2.1014 RIGHT MAGNET IN 
-2.1014 RIGHT MAGNET ON 
-2.1014 RIGHT MAGNET SO 
-1.4749 RIGHT MAGNET TO 
-0.7959 RIGHT MAGNET UP 
-0.2467 RIGHT MORE </s> 
-1.4438 RIGHT MOST BRACE 
-0.0872 RIGHT MOST MAGNET 
-1.4438 RIGHT MOST TARGET 
-0.2467 RIGHT NEXT TO 
-1.6577 RIGHT OBJECT </s> 
-1.6577 RIGHT OBJECT A 
-0.4771 RIGHT OBJECT DOWN 
-1.6577 RIGHT OBJECT IN 
-1.0312 RIGHT OBJECT LEFT 
-1.6577 RIGHT OBJECT RIGHT 
-1.6577 RIGHT OBJECT UNDER 
-0.7775 RIGHT OBJECT UP 
-1.8337 RIGHT OF FIRST 
-1.8337 RIGHT OF IT 
-0.0334 RIGHT OF THE 
-0.4024 RIGHT QUARTER OF 
-1.0044 RIGHT RIGHT </s> 
-0.3780 RIGHT RIGHT RIGHT 
-0.2530 RIGHT SLIGHTLY </s> 
-0.8795 RIGHT SO IT 
-0.8795 RIGHT SO IT'S 
-0.8795 RIGHT SO THAT 
-0.4024 RIGHT SOME </s> 
-0.2212 RIGHT TARGET </s> 
-1.1014 RIGHT TARGET IN 
-0.2467 RIGHT TARGETS </s> 
-0.4024 RIGHT UNDER THE 
-0.4024 RIGHT UNTIL IT 
-0.4024 RIGHTMOST </s> <s> 
-0.2467 ROOM </s> <s> 
-0.4024 ROTATE </s> <s> 
-0.7034 ROTATE THE BOTTOM 
-0.7034 ROTATE THE LEFT 
-0.4024 ROTATE THEM </s> 
-0.4024 ROW </s> <s> 
-0.0059 RUN </s> <s> 
-0.4228 RUN THE </s> 
-0.8795 RUN THE SIMULATION 
-0.4024 SAME </s> <s> 
-0.4024 SAME HEIGHT </s> 
-0.2467 SAME LEVEL AS 
-0.2467 SAVER </s> <s> 
-0.0212 SCREEN </s> <s> 
-0.4024 SCREEN A LITTLE 
-0.4024 SCREEN AND THEN 
-0.4024 SCREEN BELOW THE 
-0.4024 SCREEN SAVER </s> 
-0.4024 SCREEN UNDER THE 
-0.4024 SECOND </s> <s> 
-0.1919 SECOND MAGNET </s> 
-1.5485 SECOND MAGNET BELOW 
-1.0918 SECOND MAGNET TO 
-1.0918 SECOND MAGNET UP 
-0.4024 SECOND OBJECT FOUR 
-0.4024 SECOND PUZZLE </s> 
-0.2467 SECOND WALL </s> 
-0.2467 SEE </s> <s> 
-0.4024 SESSION </s> <s> 
-0.2467 SHAPE </s> <s> 
-0.4024 SHAPED </s> <s> 
-0.4024 SHAPED WALL </s> 
-0.4024 SHUT </s> <s> 
-0.4024 SHUT OFF I'M 
-0.2467 SIMULATION </s> <s> 
-0.0348 SLIGHTLY </s> <s> 
-0.4024 SLIGHTLY BACK TO 
-0.4024 SLIGHTLY BELOW THE 
-0.4024 SLIGHTLY DOWN AND 
-0.2467 SLIGHTLY TO THE 
-0.4024 SMALL </s> <s> 
-0.2467 SMALL AMOUNT </s> 
-0.4024 SMALL BALL </s> 
-0.0110 SMALL BLUE BALL 
-0.4024 SMALL MAGNET </s> 
-0.4024 SMALL READ BALL 
-0.0193 SMALL RED BALL 
-0.2530 SO </s> <s> 
-0.4024 SO CAN I 
-0.4024 SO HOW DO 
-0.1761 SO IT IS 
-0.5222 SO IT TOUCHES 
-1.1014 SO IT'S DIRECTLY 
-1.1014 SO IT'S JUST 
-1.1014 SO IT'S LEVEL 
-1.1014 SO IT'S RIGHT 
-1.1014 SO IT'S UNDER 
-0.7034 SO MOVE </s> 
-0.7034 SO MOVE RIGHT 
-0.4024 SO NOW I 
-1.3055 SO THAT IT 
-0.0580 SO THAT IT'S 
-0.4024 SO THESE ARE 
-0.4024 SOLVE </s> <s> 
-0.2467 SOLVED </s> <s> 
-0.0451 SOME </s> <s> 
-0.2530 SOMETHING </s> <s> 
-0.4024 SORRY </s> <s> 
-0.4024 STACK </s> <s> 
-0.4024 STACK OF BLOCKS 
-0.0078 START </s> <s> 
-0.4024 START OVER </s> 
-0.0013 STOP </s> <s> 
-0.4024 STOP DOING THAT 
-0.4024 STOP GET RID 
-0.8795 STOP MOVE ALL 
-0.8795 STOP MOVE BOTTOM 
-0.8795 STOP MOVE THE 
-0.4024 STOP PLACE A 
-0.4024 STOP STOP </s> 
-0.4024 STRAIGHT </s> <s> 
-0.2467 STRONGER </s> <s> 
-0.4024 STUPID </s> <s> 
-0.4024 STUPID RED BALL 
-0.4024 SUCH </s> <s> 
-0.7034 SUCH THAT IT 
-0.7034 SUCH THAT THE 
-0.4024 SURROUNDING </s> <s> 
-0.2467 TAKE </s> <s> 
-0.4024 TAKE OUT THE 
-0.4024 TARGER </s> <s> 
-0.0235 TARGET </s> <s> 
-0.4024 TARGET IN MIDDLE 
-0.4024 TARGET TO THE 
-0.0451 TARGETS </s> <s> 
-0.4024 TELL </s> <s> 
-0.4024 TELL ME WHAT 
-0.4024 TEN </s> <s> 
-0.4024 THANK </s> <s> 
-0.4024 THANK YOU </s> 
-0.0451 THAT </s> <s> 
-1.1805 THAT IS </s> 
-1.1805 THAT IS HIGHEST 
-0.5541 THAT IS TO 
-1.1805 THAT IS UNDERNEATH 
-0.7034 THAT IT IS 
-0.7034 THAT IT TOUCHES 
-0.7908 THAT IT'S AT 
-1.2475 THAT IT'S DIRECTLY 
-1.2475 THAT IT'S JUST 
-0.6210 THAT IT'S TOUCHING 
-0.4024 THAT LAST MAGNET 
-0.4024 THAT LOW </s> 
-0.4228 THAT MAGNET DOWN 
-0.8795 THAT MAGNET TO 
-0.4024 THAT THE BOTTOM 
-0.4024 THAT WAS WEIRD 
-0.4024 THAT WAY TOO 
-0.4024 THAT'S </s> <s> 
-0.2530 THAT'S ABOVE THE 
-0.4024 THAT'S DOWN AT 
-0.4024 THAT'S NOT RIGHT 
-0.4024 THAT'S ON THE 
-0.1243 THAT'S TO THE 
-0.2467 THAT'S UNDER THE 
-0.0177 THE </s> <s> 
-0.1513 THE BALL </s> 
-1.6328 THE BALL BUT 
-1.1761 THE BALL JUST 
-1.6328 THE BALL PLACE 
-1.6328 THE BALL TO 
-0.8795 THE BASKETS </s> 
-0.8795 THE BASKETS A 
-0.8795 THE BASKETS UP 
-0.4024 THE BIG RED 
-0.0512 THE BLUE BALL 
-0.7782 THE BOTTOM </s> 
-1.0000 THE BOTTOM LEFT 
-0.3310 THE BOTTOM MAGNET 
-0.9331 THE BOTTOM OF 
-0.9331 THE BOTTOM RIGHT 
-2.1805 THE BOTTOM TWO 
-2.1805 THE BOTTOM WALL 
-0.4024 THE BRACE </s> 
-0.6447 THE CENTER MAGNET 
-0.6447 THE CENTER OF 
-1.1014 THE CENTER TARGET 
-0.1243 THE EDGE OF 
-0.4024 THE EVIL PEOPLE 
-0.4024 THE FAR RIGHT 
-0.4024 THE FIELD </s> 
-0.0300 THE FIRST MAGNET 
-0.4024 THE FOUR BOXES 
-0.4024 THE HEAD </s> 
-0.4024 THE HEIGHT OF 
-0.4024 THE HIGHEST MAGNET 
-0.4024 THE HOLE BETWEEN 
-0.4024 THE L SHAPE 
-0.2212 THE LARGE BLUE 
-1.1014 THE LARGE RIGHT 
-0.2530 THE LAST MAGNET 
-0.4907 THE LEFT </s> 
-1.2486 THE LEFT A 
-2.6924 THE LEFT AGAIN 
-2.6924 THE LEFT ANOTHER 
-2.6924 THE LEFT AS 
-2.6924 THE LEFT BALL 
-2.6924 THE LEFT BASKET 
-2.2357 THE LEFT BIN 
-2.6924 THE LEFT BRACE 
-2.2357 THE LEFT DOWN 
-2.2357 THE LEFT EDGE 
-2.6924 THE LEFT GO 
-2.6924 THE LEFT HALF 
-2.2357 THE LEFT JUST 
-0.6179 THE LEFT MAGNET 
-2.6924 THE LEFT MORE 
-0.9476 THE LEFT MOST 
-0.8751 THE LEFT OF 
-2.0660 THE LEFT SO 
-2.6924 THE LEFT STACK 
-2.6924 THE LEFT SUCH 
-2.6924 THE LEFT TARGET 
-2.0660 THE LEFT WALL 
-0.4024 THE LITTLE RED 
-0.1243 THE LOWEST MAGNET 
-0.8502 THE MAGNET </s> 
-1.8751 THE MAGNET A 
-1.0843 THE MAGNET ABOVE 
-2.3318 THE MAGNET ALL 
-2.3318 THE MAGNET ALREADY 
-2.3318 THE MAGNET AS 
-1.7053 THE MAGNET BELOW 
-1.2755 THE MAGNET BETWEEN 
-1.4517 THE MAGNET DOWN 
-1.8751 THE MAGNET FROM 
-1.8751 THE MAGNET IN 
-2.3318 THE MAGNET LEFT 
-1.7053 THE MAGNET NEAR 
-1.2755 THE MAGNET ON 
-1.8751 THE MAGNET SO 
-1.4517 THE MAGNET THAT 
-0.8880 THE MAGNET THAT'S 
-0.7833 THE MAGNET TO 
-1.7053 THE MAGNET UNDER 
-1.8751 THE MAGNET UP 
-0.5478 THE MAGNETS </s> 
-1.0044 THE MAGNETS TO 
-1.0044 THE MAGNETS UPSIDE 
-0.4024 THE MEANING OF 
-1.4661 THE MIDDLE </s> 
-2.0926 THE MIDDLE GOAL 
-0.1461 THE MIDDLE MAGNET 
-2.0926 THE MIDDLE MAGNETS 
-2.0926 THE MIDDLE MOVE 
-1.0363 THE MIDDLE OF 
-1.4661 THE MIDDLE TARGET 
-0.0580 THE NEW MAGNET 
-0.4024 THE NEXT PUZZLE 
-0.4024 THE OTHER ROOM 
-0.4024 THE PINK BALL 
-0.0451 THE RED BALL 
-0.5368 THE RIGHT </s> 
-1.3921 THE RIGHT A 
-2.1160 THE RIGHT AND 
-2.5726 THE RIGHT CORNER 
-1.6925 THE RIGHT HALF 
-2.1160 THE RIGHT JUST 
-0.5682 THE RIGHT MAGNET 
-2.1160 THE RIGHT MORE 
-1.1289 THE RIGHT MOST 
-0.7553 THE RIGHT OF 
-1.9462 THE RIGHT SLIGHTLY 
-1.9462 THE RIGHT SO 
-2.5726 THE RIGHT SOME 
-2.1160 THE RIGHT TARGET 
-2.5726 THE RIGHT TARGETS 
-2.5726 THE RIGHT UNTIL 
-0.2467 THE SAME LEVEL 
-0.1065 THE SCREEN </s> 
-1.7641 THE SCREEN A 
-1.7641 THE SCREEN AND 
-1.7641 THE SCREEN BELOW 
-1.7641 THE SCREEN SAVER 
-1.7641 THE SCREEN UNDER 
-0.0969 THE SECOND MAGNET 
-1.5785 THE SECOND PUZZLE 
-1.1218 THE SECOND WALL 
-0.4024 THE SIMULATION </s> 
-2.1877 THE SMALL BALL 
-0.2055 THE SMALL BLUE 
-2.1877 THE SMALL MAGNET 
-2.1877 THE SMALL READ 
-0.4843 THE SMALL RED 
-0.4024 THE TARGET </s> 
-0.4024 THE TARGETS </s> 
-0.0348 THE THIRD MAGNET 
-0.9536 THE TOP </s> 
-0.9536 THE TOP LEFT 
-0.2852 THE TOP MAGNET 
-1.8337 THE TOP MOST 
-1.8337 THE TOP MOVE 
-1.8337 THE TOP OF 
-1.8337 THE TOP RIGHT 
-1.8337 THE TOP WALL 
-1.5785 THE TWO BASKETS 
-1.5785 THE TWO BOTTOM 
-0.9520 THE TWO CENTER 
-0.2730 THE TWO LEFT 
-1.5785 THE TWO LOWER 
-1.5785 THE TWO RIGHT 
-0.4024 THE VERY BOTTOM 
-0.5478 THE WALL </s> 
-1.0044 THE WALL IT 
-1.0044 THE WALL ON 
-1.1805 THE WAY DOWN 
-0.1243 THE WAY TO 
-0.2467 THEM </s> <s> 
-0.4024 THEM INTO THE 
-0.4024 THEM STRONGER </s> 
-0.4024 THEN </s> <s> 
-0.3780 THEN MOVE IT 
-1.0044 THEN MOVE THE 
-0.4024 THEN UP </s> 
-0.4024 THESE </s> <s> 
-0.4024 THESE ARE </s> 
-0.4024 THEY </s> <s> 
-0.2467 THEY CAN GO 
-0.4024 THEY LIKE ONLY 
-0.4024 THEY WORK THAT 
-0.4024 THEY'RE </s> <s> 
-0.4024 THINK </s> <s> 
-0.4024 THIRD </s> <s> 
-0.2218 THIRD MAGNET </s> 
-1.5785 THIRD MAGNET AWAY 
-1.1218 THIRD MAGNET IN 
-0.9520 THIRD MAGNET TO 
-0.4024 THIS </s> <s> 
-0.4024 THIS DIRECTION OR 
-0.4024 THIS LITTLE GAME 
-0.4024 THIS MOVE THE 
-0.4024 THOUGHT </s> <s> 
-0.4024 THOUGHT YOU BROUGHT 
-0.4024 THREE </s> <s> 
-0.4024 THREE MAGNETS ONE 
-0.4024 THROUGH </s> <s> 
-0.4024 TINY </s> <s> 
-0.0348 TINY BIT </s> 
-0.0580 TO </s> <s> 
-0.4024 TO BELOW THE 
-0.4024 TO HIT THE 
-0.4024 TO IT </s> 
-0.4024 TO JUST ABOVE 
-0.2467 TO LEFT OF 
-0.4024 TO SLIGHTLY BELOW 
-0.2467 TO TARGET </s> 
-1.6885 TO THE </s> 
-1.4973 TO THE BOTTOM 
-2.7448 TO THE CENTER 
-2.7448 TO THE HEIGHT 
-0.3130 TO THE LEFT 
-2.7448 TO THE NEXT 
-2.2881 TO THE RED 
-0.4079 TO THE RIGHT 
-2.7448 TO THE SAME 
-2.7448 TO THE SECOND 
-2.2881 TO THE SMALL 
-1.6885 TO THE TOP 
-2.7448 TO THE VERY 
-0.2467 TO WHERE THE 
-0.4024 TO YOUR RIGHT 
-0.2467 TOO </s> <s> 
-0.0451 TOP </s> <s> 
-0.3780 TOP LEFT CORNER 
-1.0044 TOP LEFT OF 
-0.3979 TOP MAGNET </s> 
-1.1218 TOP MAGNET A 
-0.5222 TOP MAGNET DOWN 
-1.1218 TOP MAGNET TO 
-0.4024 TOP MOST MAGNET 
-0.4024 TOP MOVE THE 
-0.4024 TOP OBJECT BACK 
-1.3566 TOP OF EACH 
-0.0512 TOP OF THE 
-0.4024 TOP RIGHT CORNER 
-0.4024 TOP WALL </s> 
-0.4024 TOPMOST </s> <s> 
-0.4024 TOUCHES </s> <s> 
-0.3674 TOUCHES THE EDGE 
-1.2475 TOUCHES THE SMALL 
-0.7908 TOUCHES THE WALL 
-0.4024 TOUCHING </s> <s> 
-0.3780 TOUCHING THE SMALL 
-1.0044 TOUCHING THE TOP 
-0.4024 TRYING </s> <s> 
-0.4024 TURN </s> <s> 
-0.4024 TURN OFF THE 
-0.4024 TURN THE MAGNETS 
-0.4024 TWO </s> <s> 
-0.4024 TWO BASKETS </s> 
-0.4024 TWO BOTTOM MAGNETS 
-0.2530 TWO CENTER WALLS 
-0.2467 TWO CENTIMETERS </s> 
-0.1243 TWO INCHES </s> 
-1.1805 TWO INCHES TO 
-0.0580 TWO LEFT MAGNETS 
-1.3055 TWO LEFT TARGETS 
-0.4024 TWO LOWER MAGNETS 
-0.4024 TWO MAGNETS TO 
-0.4024 TWO RIGHT TARGETS 
-0.4024 UH </s> <s> 
-0.4024 UH MY MONITOR 
-0.4024 UM </s> <s> 
-0.2530 UNDER </s> <s> 
-0.4024 UNDER EACH TARGET 
-0.4024 UNDER SMALL RED 
-0.4024 UNDER TARGET </s> 
-0.5222 UNDER THE BALL 
-1.1218 UNDER THE BLUE 
-1.5785 UNDER THE LEFT 
-1.1218 UNDER THE MIDDLE 
-0.5222 UNDER THE SMALL 
-0.4024 UNDERNEATH </s> <s> 
-1.0044 UNDERNEATH THE FAR 
-0.5478 UNDERNEATH THE MIDDLE 
-1.0044 UNDERNEATH THE SMALL 
-0.1243 UNDO </s> <s> 
-0.2467 UNDO LAST ACTION 
-0.2530 UNDO THAT </s> 
-0.4024 UNIT </s> <s> 
-0.4024 UNTIL </s> <s> 
-0.4024 UNTIL IT TOUCHES 
-0.0102 UP </s> <s> 
-1.8337 UP A CENTIMETER 
-0.1091 UP A LITTLE 
-1.8337 UP A LOT 
-1.3771 UP A QUARTER 
-1.3771 UP A TINY 
-0.4024 UP ABOUT AN 
-0.8795 UP AN EIGHTH 
-0.4228 UP AN INCH 
-0.0669 UP AND TO 
-0.4024 UP GO ON 
-0.4024 UP HALF AN 
-0.2467 UP HALFWAY </s> 
-0.4024 UP HIGHER </s> 
-0.2467 UP JUST A 
-0.4024 UP MORE </s> 
-0.4024 UP ON THIS 
-0.4024 UP ONE INCH 
-0.1243 UP SLIGHTLY </s> 
-0.4024 UP SO THAT 
-0.4024 UP SOME </s> 
-0.2530 UP TO THE 
-0.4024 UPPER </s> <s> 
-0.4024 UPSIDE </s> <s> 
-0.7034 UPSIDE DOWN </s> 
-0.7034 UPSIDE DOWN BACKWARDS 
-0.4024 UPSIDE-DOWN </s> <s> 
-0.4024 VERY </s> <s> 
-0.4024 VERY BOTTOM RIGHT 
-0.0451 VERY LITTLE BIT 
-0.2467 VERY SMALL AMOUNT 
-0.4024 WAIT </s> <s> 
-0.4024 WAIT NO MOVE 
-0.7034 WAIT WAIT WAIT 
-0.7034 WAIT WAIT WHAT 
-0.4024 WAIT WHAT IS 
-0.0348 WALL </s> <s> 
-0.4024 WALL AS FAR 
-0.4024 WALL IT IS 
-0.4024 WALL ON THE 
-0.4024 WALL UP </s> 
-0.2530 WALLS </s> <s> 
-0.4024 WALLS UP SLIGHTLY 
-0.2530 WAS </s> <s> 
-0.4024 WAS WEIRD </s> 
-0.4024 WAY </s> <s> 
-0.4024 WAY BETWEEN THE 
-0.4024 WAY DOWN </s> 
-0.0669 WAY TO THE 
-0.4024 WAY TOO </s> 
-0.2467 WEIRD </s> <s> 
-0.4024 WELL </s> <s> 
-0.4024 WELL EXECUTE </s> 
-0.4024 WHAT </s> <s> 
-0.4024 WHAT IS THIS 
-0.4024 WHAT THE MEANING 
-0.4024 WHAT'S </s> <s> 
-0.4024 WHERE </s> <s> 
-0.2467 WHERE THE BALL 
-0.2467 WHOA </s> <s> 
-0.4024 WHOA UNDO </s> 
-0.4024 WITH </s> <s> 
-0.4024 WITH THE THIRD 
-0.4024 WORK </s> <s> 
-0.4024 WORK THAT WAY 
-0.2467 WOW </s> <s> 
-0.2467 YEAH </s> <s> 
-0.4024 YEAH OK </s> 
-0.2467 YOU </s> <s> 
-0.4024 YOU BROUGHT THEM 
-0.4024 YOU CAN'T MAKE 
-0.4024 YOU ROTATE THEM 
-0.4024 YOUR </s> <s> 
-0.4024 YOUR RIGHT </s> 

\end\
