#############################################################################
This is a 1-gram language model, based on a vocabulary of 298 words,
This is an OPEN-vocabulary model (type 1)
  (OOVs were mapped to UNK, which is treated as any other vocabulary word)
This file is in the ARPA-standard format introduced by Doug Paul.

p(wd3|wd1,wd2)= if(trigram exists)           p_3(wd1,wd2,wd3)
                else if(bigram w1,w2 exists) bo_wt_2(w1,w2)*p(wd3|wd2)
                else                         p(wd3|w2)

p(wd2|wd1)= if(bigram exists) p_2(wd1,wd2)
            else              bo_wt_1(wd1)*p_1(wd2)

All probs and back-off weights (bo_wt) are given in log10 form.

Data formats:

Beginning of data mark: \data\
ngram 1=nr            # number of 1-grams
ngram 2=nr            # number of 2-grams

\1-grams:
p_1     wd_1 bo_wt_1
\2-grams:
p_2     wd_1 wd_2 

end of data mark: \end\

\data\
ngram 1=298
ngram 2=1

\1-grams:
-99.0000	<s>	 0.0000
-2.4698	        <UNK>	0.0000
-2.4698	        </s>	-99.0000
-2.4698 A 0.000
-2.4698 ABOUT 0.000
-2.4698 ABOVE 0.000
-2.4698 ACTION 0.000
-2.4698 ACTUALLY 0.000
-2.4698 ADD 0.000
-2.4698 AGAIN 0.000
-2.4698 AGAINST 0.000
-2.4698 ALL 0.000
-2.4698 ALREADY 0.000
-2.4698 ALRIGHT 0.000
-2.4698 AM 0.000
-2.4698 AMOUNT 0.000
-2.4698 AN 0.000
-2.4698 AND 0.000
-2.4698 ANOTHER 0.000
-2.4698 ARE 0.000
-2.4698 AS 0.000
-2.4698 AT 0.000
-2.4698 AWAY 0.000
-2.4698 BACK 0.000
-2.4698 BACKWARDS 0.000
-2.4698 BAD 0.000
-2.4698 BALL 0.000
-2.4698 BARRIERS 0.000
-2.4698 BASKET 0.000
-2.4698 BASKETS 0.000
-2.4698 BEEN 0.000
-2.4698 BELOW 0.000
-2.4698 BENEATH 0.000
-2.4698 BETWEEN 0.000
-2.4698 BETWEN 0.000
-2.4698 BIG 0.000
-2.4698 BIN 0.000
-2.4698 BINS 0.000
-2.4698 BIT 0.000
-2.4698 BLOCKS 0.000
-2.4698 BLUE 0.000
-2.4698 BOO 0.000
-2.4698 BOTH 0.000
-2.4698 BOTTOM 0.000
-2.4698 BOWLING 0.000
-2.4698 BOXES 0.000
-2.4698 BRACE 0.000
-2.4698 BROUGHT 0.000
-2.4698 BUT 0.000
-2.4698 BY 0.000
-2.4698 CAN 0.000
-2.4698 CAN'T 0.000
-2.4698 CENTER 0.000
-2.4698 CENTIMETER 0.000
-2.4698 CENTIMETERS 0.000
-2.4698 CLOCKWISE 0.000
-2.4698 CLOSER 0.000
-2.4698 COMES 0.000
-2.4698 COMING 0.000
-2.4698 CORNER 0.000
-2.4698 CORNERS 0.000
-2.4698 DEGREES 0.000
-2.4698 DELETE 0.000
-2.4698 DIAGONAL 0.000
-2.4698 DIRECTION 0.000
-2.4698 DIRECTLY 0.000
-2.4698 DO 0.000
-2.4698 DOES 0.000
-2.4698 DOING 0.000
-2.4698 DON'T 0.000
-2.4698 DOWN 0.000
-2.4698 DRAT 0.000
-2.4698 EACH 0.000
-2.4698 EDGE 0.000
-2.4698 EIGHT 0.000
-2.4698 EIGHTH 0.000
-2.4698 ELEVEN 0.000
-2.4698 EVEN 0.000
-2.4698 EVIL 0.000
-2.4698 EXCELLENT 0.000
-2.4698 EXECUTE 0.000
-2.4698 FAR 0.000
-2.4698 FARTHER 0.000
-2.4698 FEET 0.000
-2.4698 FIELD 0.000
-2.4698 FIGURE 0.000
-2.4698 FIND 0.000
-2.4698 FIRST 0.000
-2.4698 FIVE 0.000
-2.4698 FOR 0.000
-2.4698 FORM 0.000
-2.4698 FOUR 0.000
-2.4698 FROM 0.000
-2.4698 FUDGE 0.000
-2.4698 GAME 0.000
-2.4698 GET 0.000
-2.4698 GETTING 0.000
-2.4698 GIVE 0.000
-2.4698 GO 0.000
-2.4698 GOAL 0.000
-2.4698 GOES 0.000
-2.4698 GOOD 0.000
-2.4698 HALF 0.000
-2.4698 HALFWAY 0.000
-2.4698 HAND 0.000
-2.4698 HANG 0.000
-2.4698 HAVE 0.000
-2.4698 HEIGHT 0.000
-2.4698 HELLO 0.000
-2.4698 HELP 0.000
-2.4698 HIGHER 0.000
-2.4698 HIGHEST 0.000
-2.4698 HIT 0.000
-2.4698 HOLE 0.000
-2.4698 HOW 0.000
-2.4698 I 0.000
-2.4698 I'M 0.000
-2.4698 I'VE 0.000
-2.4698 IMAGE 0.000
-2.4698 IMMEDIATELY 0.000
-2.4698 IN 0.000
-2.4698 INCH 0.000
-2.4698 INCHES 0.000
-2.4698 INSIDE 0.000
-2.4698 INTERESTING 0.000
-2.4698 INTO 0.000
-2.4698 IS 0.000
-2.4698 IT 0.000
-2.4698 IT'S 0.000
-2.4698 JOB 0.000
-2.4698 JUST 0.000
-2.4698 KEEP 0.000
-2.4698 LARGE 0.000
-2.4698 LAST 0.000
-2.4698 LEDGE 0.000
-2.4698 LEFT 0.000
-2.4698 LEFTMOST 0.000
-2.4698 LENGTH 0.000
-2.4698 LESS 0.000
-2.4698 LETS 0.000
-2.4698 LEVEL 0.000
-2.4698 LIFE 0.000
-2.4698 LIKE 0.000
-2.4698 LINE 0.000
-2.4698 LITTLE 0.000
-2.4698 LOAD 0.000
-2.4698 LOT 0.000
-2.4698 LOW 0.000
-2.4698 LOWER 0.000
-2.4698 LOWEST 0.000
-2.4698 MAGNER 0.000
-2.4698 MAGNET 0.000
-2.4698 MAGNETS 0.000
-2.4698 MAKE 0.000
-2.4698 MAYBE 0.000
-2.4698 ME 0.000
-2.4698 MEAN 0.000
-2.4698 MEANING 0.000
-2.4698 MIDDLE 0.000
-2.4698 MO 0.000
-2.4698 MOCE 0.000
-2.4698 MONITOR 0.000
-2.4698 MORE 0.000
-2.4698 MOST 0.000
-2.4698 MOVE 0.000
-2.4698 MOVED 0.000
-2.4698 MOVES 0.000
-2.4698 MOVING 0.000
-2.4698 MY 0.000
-2.4698 NEAR 0.000
-2.4698 NEW 0.000
-2.4698 NEXT 0.000
-2.4698 NINETY 0.000
-2.4698 NO 0.000
-2.4698 NOT 0.000
-2.4698 NOW 0.000
-2.4698 OBJECT 0.000
-2.4698 OF 0.000
-2.4698 OFF 0.000
-2.4698 OH 0.000
-2.4698 OK 0.000
-2.4698 OKAY 0.000
-2.4698 ON 0.000
-2.4698 ONCE 0.000
-2.4698 ONE 0.000
-2.4698 ONLY 0.000
-2.4698 ONTO 0.000
-2.4698 OR 0.000
-2.4698 OTHER 0.000
-2.4698 OUT 0.000
-2.4698 OVER 0.000
-2.4698 PEOPLE 0.000
-2.4698 PINK 0.000
-2.4698 PLACE 0.000
-2.4698 PLEASE 0.000
-2.4698 PROGRAM 0.000
-2.4698 PULLS 0.000
-2.4698 PUT 0.000
-2.4698 PUZZLE 0.000
-2.4698 QUARTER 0.000
-2.4698 READ 0.000
-2.4698 REALLY 0.000
-2.4698 RED 0.000
-2.4698 REMOVE 0.000
-2.4698 RESET 0.000
-2.4698 RESTART 0.000
-2.4698 RID 0.000
-2.4698 RIGHT 0.000
-2.4698 RIGHTMOST 0.000
-2.4698 ROOM 0.000
-2.4698 ROTATE 0.000
-2.4698 ROW 0.000
-2.4698 RUN 0.000
-2.4698 SAME 0.000
-2.4698 SAVER 0.000
-2.4698 SCREEN 0.000
-2.4698 SECOND 0.000
-2.4698 SEE 0.000
-2.4698 SHAPE 0.000
-2.4698 SHAPED 0.000
-2.4698 SHUT 0.000
-2.4698 SIMULATION 0.000
-2.4698 SLIGHTLY 0.000
-2.4698 SMALL 0.000
-2.4698 SO 0.000
-2.4698 SOLVE 0.000
-2.4698 SOLVED 0.000
-2.4698 SOME 0.000
-2.4698 SOMETHING 0.000
-2.4698 SORRY 0.000
-2.4698 STACK 0.000
-2.4698 START 0.000
-2.4698 STOP 0.000
-2.4698 STRAIGHT 0.000
-2.4698 STRONGER 0.000
-2.4698 STUPID 0.000
-2.4698 SUCH 0.000
-2.4698 SURROUNDING 0.000
-2.4698 TAKE 0.000
-2.4698 TARGER 0.000
-2.4698 TARGET 0.000
-2.4698 TARGETS 0.000
-2.4698 TELL 0.000
-2.4698 TEN 0.000
-2.4698 THANK 0.000
-2.4698 THAT 0.000
-2.4698 THAT'S 0.000
-2.4698 THE 0.000
-2.4698 THEM 0.000
-2.4698 THEN 0.000
-2.4698 THESE 0.000
-2.4698 THEY 0.000
-2.4698 THEY'RE 0.000
-2.4698 THINK 0.000
-2.4698 THIRD 0.000
-2.4698 THIS 0.000
-2.4698 THOUGHT 0.000
-2.4698 THREE 0.000
-2.4698 THROUGH 0.000
-2.4698 TINY 0.000
-2.4698 TO 0.000
-2.4698 TOO 0.000
-2.4698 TOP 0.000
-2.4698 TOPMOST 0.000
-2.4698 TOUCHES 0.000
-2.4698 TOUCHING 0.000
-2.4698 TRYING 0.000
-2.4698 TURN 0.000
-2.4698 TWO 0.000
-2.4698 UH 0.000
-2.4698 UM 0.000
-2.4698 UNDER 0.000
-2.4698 UNDERNEATH 0.000
-2.4698 UNDO 0.000
-2.4698 UNIT 0.000
-2.4698 UNTIL 0.000
-2.4698 UP 0.000
-2.4698 UPPER 0.000
-2.4698 UPSIDE 0.000
-2.4698 UPSIDE-DOWN 0.000
-2.4698 VERY 0.000
-2.4698 WAIT 0.000
-2.4698 WALL 0.000
-2.4698 WALLS 0.000
-2.4698 WAS 0.000
-2.4698 WAY 0.000
-2.4698 WEIRD 0.000
-2.4698 WELL 0.000
-2.4698 WHAT 0.000
-2.4698 WHAT'S 0.000
-2.4698 WHERE 0.000
-2.4698 WHOA 0.000
-2.4698 WITH 0.000
-2.4698 WORK 0.000
-2.4698 WOW 0.000
-2.4698 YEAH 0.000
-2.4698 YOU 0.000
-2.4698 YOUR 0.000

\2-grams:
-99.0000 <s> </s>

\end\
