#############################################################################
## Copyright (c) 1996, Carnegie Mellon University, Cambridge University,
## Ronald Rosenfeld and Philip Clarkson
#############################################################################
=============================================================================
===============  This file was produced by the CMU-Cambridge  ===============
===============     Statistical Language Modeling Toolkit     ===============
=============================================================================
This is a 3-gram language model, based on a vocabulary of 27 words,
  which begins "</s>", "a", "b"...
This is an OPEN-vocabulary model (type 1)
  (OOVs were mapped to UNK, which is treated as any other vocabulary word)
Good-Turing discounting was applied.
1-gram frequency of frequency : 2 
2-gram frequency of frequency : 102 38 26 26 22 16 16 
3-gram frequency of frequency : 673 222 90 46 28 12 8 
1-gram discounting ratios : 0.67 
2-gram discounting ratios : 0.00 
3-gram discounting ratios : 0.63 0.58 0.66 0.74 0.48 0.76 0.85 
This file is in the ARPA-standard format introduced by Doug Paul.

p(wd3|wd1,wd2)= if(trigram exists)           p_3(wd1,wd2,wd3)
                else if(bigram w1,w2 exists) bo_wt_2(w1,w2)*p(wd3|wd2)
                else                         p(wd3|w2)

p(wd2|wd1)= if(bigram exists) p_2(wd1,wd2)
            else              bo_wt_1(wd1)*p_1(wd2)

All probs and back-off weights (bo_wt) are given in log10 form.

Data formats:

Beginning of data mark: \data\
ngram 1=nr            # number of 1-grams
ngram 2=nr            # number of 2-grams
ngram 3=nr            # number of 3-grams

\1-grams:
p_1     wd_1 bo_wt_1
\2-grams:
p_2     wd_1 wd_2 bo_wt_2
\3-grams:
p_3     wd_1 wd_2 wd_3 

end of data mark: \end\

\data\
ngram 1=28
ngram 2=338
ngram 3=1103

\1-grams:
-3.5628 <UNK>	0.0000
-0.9288 </s>	-1.6765
-1.1992 a	-0.8549
-1.4573 b	-1.1527
-1.6877 c	-0.5869
-1.5478 d	-0.2561
-1.0813 e	-0.8145
-1.9717 f	-0.5736
-1.5059 g	-0.7276
-1.3414 h	-1.0764
-1.2375 i	-0.6138
-2.2405 j	-1.0322
-1.8552 k	-0.3151
-1.3493 l	-0.7395
-1.6463 m	-0.7938
-1.2727 n	-0.7514
-1.2829 o	-0.5399
-1.5002 p	-0.8778
-3.5628 q	0.0143
-1.1079 r	-1.0682
-1.2829 s	-0.9890
-1.1537 t	-1.4104
-1.4891 u	-0.7586
-1.8682 v	-1.4117
-1.7432 w	-0.3488
-3.5628 x	0.0059
-1.8426 y	-0.2794
-2.4836 z	-0.7731

\2-grams:
-1.5036 </s> a -0.1480
-1.1155 </s> b 0.3608
-1.2538 </s> c 0.0877
-1.4579 </s> d -0.3172
-1.3787 </s> e -0.2360
-1.4579 </s> f 0.0498
-1.5036 </s> g -0.3065
-1.4579 </s> h -0.2206
-2.1569 </s> i -0.2263
-1.3439 </s> j 0.8411
-1.6797 </s> k -0.2768
-1.5036 </s> l -0.0426
-1.0265 </s> m -0.2843
-1.5036 </s> n -0.3857
-1.8558 </s> o -0.2917
-0.6945 </s> p -0.3050
-1.5036 </s> r -0.1898
-1.0429 </s> s -0.3014
-1.4165 </s> t -0.2547
-1.7589 </s> v 0.2470
-1.5036 </s> w -0.2355
-99.9990 </s> z -0.2319
-1.1083 a </s> -0.0605
-99.9990 a a -0.3658
-1.2333 a c -0.0246
-1.2844 a d -0.0849
-1.8865 a e -0.3246
-99.9990 a f -0.3828
-1.8865 a h -0.3250
-99.9990 a k -0.4360
-1.0736 a l -0.0620
-1.3424 a m -0.3323
-0.8258 a n 0.2411
-1.8865 a p -0.3884
-0.6193 a r 0.5024
-1.2333 a s 0.1043
-1.2333 a t -0.0709
-99.9990 a u -0.4192
-1.1875 a v 0.1254
-1.8865 a w -0.3608
-1.4886 a y -0.3435
-1.3274 b a -0.4699
-99.9990 b b -0.4204
-1.0263 b e -0.2770
-99.9990 b i -0.3660
-99.9990 b l -0.3763
-1.3274 b o -0.2752
-0.8880 b r -0.3020
-1.4523 b s -0.2860
-0.2134 b u -1.6524
-1.3979 c </s> -0.2941
-0.8539 c a -0.1092
-99.9990 c c -0.3053
-0.8539 c e -0.1532
-0.5850 c h 0.1256
-99.9990 c i -0.3660
-0.7959 c k -0.0125
-1.3979 c l -0.3529
-99.9990 c m -0.4360
-0.9208 c o -0.3032
-99.9990 c r -0.4101
-99.9990 c y -0.0381
-0.4409 d </s> -0.2073
-0.8388 d a -0.1255
-99.9990 d b -0.4151
-99.9990 d d -0.3825
-1.1399 d e -0.2450
-99.9990 d f -0.3828
-99.9990 d h -0.4078
-99.9990 d i -0.3660
-99.9990 d l -0.3229
-0.9358 d o -0.1136
-99.9990 d p -0.4069
-1.0607 d r -0.3962
-99.9990 d s -0.3736
-99.9990 d u -0.4249
-1.2368 d w -0.1936
-1.5378 d y 0.0232
-0.7033 e </s> -0.0222
-1.1293 e a 0.1983
-2.0043 e c -0.3053
-1.7033 e d -0.2730
-1.5272 e e -0.1662
-2.0043 e f -0.2998
-2.0043 e g -0.3681
-99.9990 e h -0.4360
-1.7033 e i -0.4154
-99.9990 e k -0.2663
-0.9629 e l 0.2393
-2.0043 e m -0.2977
-0.9074 e n -0.2991
-1.7033 e p -0.4221
-0.8430 e r -0.0983
-1.4023 e s 0.0224
-1.5272 e t -0.2446
-99.9990 e u -0.4192
-1.4023 e v -0.0703
-1.1592 e w 0.1827
-1.5272 e y 0.0942
-99.9990 f </s> -0.4111
-99.9990 f a -0.3167
-99.9990 f b -0.4151
-0.7160 f e -0.2026
-1.1139 f f -0.3433
-0.7160 f i -0.2525
-0.9379 f o -0.3944
-0.7160 f r -0.2506
-0.9379 f t -0.3373
-1.4037 g </s> -0.3474
-1.2788 g a -0.3033
-0.1732 g h -1.0877
-1.1027 g i -0.3344
-1.1818 g l -0.3616
-99.9990 g n -0.4225
-99.9990 g o -0.4292
-1.5798 g r -0.3305
-99.9990 g s -0.3736
-99.9990 g t -0.4205
-99.9990 g v -0.3489
-0.3129 h </s> 0.6966
-0.7666 h a 0.0884
-1.2002 h e -0.1553
-99.9990 h f -0.3433
-1.2672 h i -0.0192
-99.9990 h l -0.3763
-1.5682 h n -0.2666
-0.9661 h o 0.0360
-1.7443 h r -0.3289
-1.5682 h t -0.1865
-99.9990 h u 0.0636
-1.7443 h y 0.1538
-1.4502 i </s> -0.2989
-1.5472 i a -0.2660
-1.6721 i b -0.3786
-1.0700 i c 0.0599
-1.5472 i d -0.1095
-1.1950 i e 0.0916
-1.5472 i f -0.1033
-1.6721 i g 0.2079
-99.9990 i k -0.2663
-1.1950 i l -0.1995
-1.6721 i m -0.2771
-0.8270 i n 0.2602
-99.9990 i o -0.4186
-99.9990 i p -0.4188
-99.9990 i r -0.3877
-1.4502 i s -0.3177
-0.4590 i t -1.3829
-99.9990 i u 0.0636
-1.4502 i v 0.1195
-0.8451 j a -0.3545
-0.4472 j e -0.2926
-0.3680 j o -0.2299
-99.9990 j u -0.4192
-0.4901 k </s> -0.0929
-0.9294 k a -0.4699
-99.9990 k d -0.3680
-0.7533 k e -0.1305
-99.9990 k h -0.3545
-1.0544 k i -0.3057
-99.9990 k l -0.3229
-99.9990 k r -0.3852
-99.9990 k s -0.3736
-99.9990 k u -0.4249
-1.2304 k w -0.3241
-1.2304 k y 0.0232
-0.9235 l </s> 0.0355
-0.8913 l a -0.0740
-1.0832 l d 0.0329
-0.6395 l e -0.0042
-99.9990 l f -0.3828
-99.9990 l g -0.4003
-0.9582 l i -0.2787
-99.9990 l k -0.3959
-0.8333 l l -0.0520
-99.9990 l m -0.3391
-1.3385 l o -0.0646
-1.5603 l s -0.3657
-99.9990 l t -0.4360
-1.5603 l u -0.4076
-1.5603 l y -0.0668
-99.9990 l z -0.2319
-1.2632 m </s> -0.3377
-0.4616 m a -0.1503
-99.9990 m c -0.3603
-0.8953 m e -0.2941
-1.0414 m i -0.1179
-1.4393 m m -0.3489
-0.6990 m o -0.2349
-1.1383 m p -0.3566
-99.9990 m s -0.3736
-99.9990 m u -0.4360
-99.9990 m y -0.0381
-0.5342 n </s> 0.4169
-1.2688 n a -0.2284
-99.9990 n b -0.0251
-1.5119 n c -0.1677
-1.0000 n d 0.0539
-0.8352 n e -0.0798
-99.9990 n f -0.3433
-1.2688 n g 0.2327
-1.0726 n i -0.1898
-99.9990 n k -0.3517
-1.2688 n n -0.0264
-1.5119 n o -0.3322
-1.5119 n s -0.2865
-1.2688 n t -0.3515
-1.6368 n u -0.4422
-99.9990 n x -0.4360
-99.9990 n y -0.4360
-99.9990 n z -0.4360
-1.4048 o </s> -0.2162
-1.5017 o a -0.4342
-1.5017 o b -0.3086
-99.9990 o c -0.3603
-1.1496 o d -0.2677
-99.9990 o e -0.3402
-1.8028 o f -0.4013
-1.6267 o h -0.4528
-99.9990 o k -0.4360
-1.3257 o l 0.1243
-1.3257 o m -0.0493
-0.6724 o n -0.1295
-1.0624 o o -0.4514
-1.8028 o p -0.3691
-0.8251 o r -0.1170
-1.4048 o s -0.3621
-1.8028 o t -0.2116
-1.2587 o u 0.2936
-1.1496 o w -0.3029
-1.8028 o y 0.0232
-99.9990 o z -0.2319
-1.4094 p a -0.2738
-99.9990 p e -0.3687
-1.4094 p g 0.0181
-1.1083 p h 0.0279
-0.2237 p i -1.8008
-1.1875 p l -0.2341
-99.9990 p n -0.3674
-1.2844 p o -0.2828
-1.4094 p r -0.4190
-1.4094 p s -0.3100
-99.9990 p u -0.4076
-99.9990 p y -0.4360
-99.9990 q u -0.4135
-1.2374 r </s> -0.0508
-1.2374 r a -0.1701
-1.9777 r b 0.0310
-1.9777 r c -0.2439
-1.3757 r d -0.3301
-0.9777 r e -0.0618
-99.9990 r f -0.3433
-0.5975 r g -0.8283
-1.0000 r i -0.2199
-1.3757 r k -0.0322
-1.3757 r l -0.1250
-1.5798 r n -0.1172
-0.9565 r o -0.0128
-1.5798 r r -0.3266
-1.6767 r s -0.3579
-1.4337 r t -0.2272
-1.9777 r u -0.3957
-99.9990 r w -0.3608
-1.4337 r y 0.0729
-0.8734 s </s> -0.0191
-1.8028 s a -0.3947
-0.4317 s b -1.6411
-99.9990 s c -0.3705
-1.2587 s e -0.0900
-1.5017 s h -0.2566
-1.4048 s k -0.1577
-99.9990 s l -0.3229
-1.6267 s m -0.1452
-99.9990 s n -0.4225
-1.0624 s o -1.0171
-1.5017 s p -0.3629
-1.8028 s s -0.4186
-0.9277 s t -0.7342
-1.8028 s u -0.4135
-1.8028 s v -0.2397
-1.6267 s w -0.1350
-1.0869 t </s> -0.1587
-1.9320 t a -0.3489
-0.9542 t e 0.1533
-1.0569 t h 0.2939
-1.5340 t i -0.2705
-99.9990 t m -0.2520
-99.9990 t n -0.3674
-1.4548 t o -0.1800
-1.6309 t r -0.3800
-0.5702 t s -1.8871
-0.5006 t t -0.8676
-1.6309 t z -0.2882
-99.9990 u </s> -0.3380
-99.9990 u b -0.4360
-99.9990 u c -0.3603
-99.9990 u d -0.4101
-1.2956 u e -0.3452
-1.5966 u g -0.4065
-1.4205 u l -0.3013
-1.5966 u m -0.3769
-1.5966 u n -0.3866
-99.9990 u q -0.4360
-0.1652 u r -0.9839
-1.1987 u s -0.2995
-1.5966 u t -0.3820
-0.7404 v a -0.1015
-0.2175 v e -0.4669
-0.7404 v i -0.2362
-99.9990 v k -0.2663
-0.7984 w </s> -0.2339
-0.7984 w a -0.2836
-99.9990 w b -0.0251
-1.1663 w e -0.3344
-99.9990 w g -0.4126
-1.3424 w h -0.3819
-0.7984 w i -0.2069
-99.9990 w l -0.3854
-1.1663 w n -0.1887
-0.7404 w o -0.6267
-99.9990 w r -0.3903
-99.9990 w t -0.3962
-1.3424 w y -0.3691
-99.9990 x v -0.3489
-0.2218 y </s> 0.3523
-99.9990 y b -0.3759
-99.9990 y d -0.3965
-99.9990 y e -0.3687
-99.9990 y h -0.3864
-99.9990 y j -0.1930
-0.8451 y l -0.0007
-99.9990 y n -0.3674
-99.9990 y o -0.3657
-99.9990 y p -0.4069
-99.9990 y v -0.3489
-0.3010 z </s> -0.2453
-0.4260 z e -0.3244
-99.9990 z i -0.3660

\3-grams:
-0.6595 </s> a l 
-0.8913 </s> a m 
-1.1524 </s> a r 
-0.8913 </s> a s 
-1.1524 </s> a y 
-1.5406 </s> b a 
-0.6831 </s> b e 
-1.5406 </s> b l 
-1.5406 </s> b o 
-0.3424 </s> b r 
-1.0477 </s> b u 
-0.9094 </s> c a 
-0.9094 </s> c e 
-0.9094 </s> c h 
-1.4023 </s> c i 
-1.1412 </s> c l 
-1.4023 </s> c m 
-1.1412 </s> c o 
-1.4023 </s> c r 
-0.5272 </s> d a 
-1.1982 </s> d e 
-0.5272 </s> d o 
-1.1982 </s> d r 
-0.6064 </s> e a 
-1.2774 </s> e d 
-1.2774 </s> e f 
-1.0162 </s> e l 
-0.7845 </s> e r 
-1.2774 </s> e w 
-1.1982 </s> f a 
-0.9370 </s> f e 
-0.5272 </s> f i 
-1.1982 </s> f o 
-0.9370 </s> f r 
-1.1524 </s> g a 
-0.6595 </s> g i 
-0.8913 </s> g l 
-1.1524 </s> g o 
-0.8913 </s> g r 
-0.5272 </s> h a 
-1.1982 </s> h i 
-0.6225 </s> h o 
-0.4992 </s> i t 
-0.4992 </s> i v 
-1.0510 </s> j a 
-0.7365 </s> j e 
-0.7365 </s> j o 
-1.3121 </s> j u 
-0.4835 </s> k a 
-0.7152 </s> k e 
-0.9763 </s> k u 
-1.1524 </s> l a 
-0.8913 </s> l e 
-0.8913 </s> l i 
-0.8913 </s> l o 
-0.8913 </s> l u 
-0.2852 </s> m a 
-1.6295 </s> m c 
-1.3684 </s> m e 
-1.1367 </s> m i 
-0.6588 </s> m o 
-1.1524 </s> n a 
-0.2949 </s> n e 
-1.1524 </s> n i 
-1.1524 </s> n o 
-0.8002 </s> o a 
-0.5391 </s> o l 
-0.8002 </s> o r 
-1.7005 </s> p a 
-1.4687 </s> p g 
-1.7005 </s> p h 
-0.1007 </s> p i 
-1.4687 </s> p o 
-1.9616 </s> p r 
-1.9616 </s> p u 
-1.1524 </s> r a 
-0.8913 </s> r i 
-0.5768 </s> r o 
-1.1524 </s> r u 
-1.3520 </s> s a 
-1.6132 </s> s c 
-1.3520 </s> s e 
-1.3520 </s> s h 
-1.6132 </s> s k 
-1.6132 </s> s l 
-1.6132 </s> s m 
-1.6132 </s> s n 
-1.6132 </s> s o 
-1.3520 </s> s p 
-0.5119 </s> s t 
-1.3520 </s> s u 
-1.3520 </s> s w 
-0.9784 </s> t a 
-1.2396 </s> t e 
-0.7467 </s> t h 
-0.9784 </s> t i 
-1.2396 </s> t o 
-0.9784 </s> t r 
-0.6360 </s> v a 
-0.4043 </s> v e 
-0.4815 </s> w a 
-1.1524 </s> w e 
-1.1524 </s> w h 
-0.8913 </s> w i 
-1.1524 </s> w r 
-0.1982 </s> z e 
-1.2774 a </s> c 
-1.2774 a </s> e 
-1.2774 a </s> f 
-0.7845 a </s> h 
-0.7845 a </s> m 
-1.2774 a </s> p 
-1.2774 a </s> s 
-1.2774 a </s> t 
-0.1982 a a n 
-0.8913 a c a 
-0.8913 a c e 
-0.8913 a c k 
-0.8913 a c o 
-1.1524 a c y 
-0.6084 a d </s> 
-1.1013 a d d 
-1.1013 a d f 
-1.1013 a d h 
-1.1013 a d o 
-1.1013 a d r 
-0.2381 a e l 
-0.1982 a f t 
-0.2381 a h o 
-0.1982 a k d 
-1.0510 a l d 
-0.6412 a l e 
-1.3121 a l i 
-1.0510 a l l 
-1.3121 a l m 
-1.3121 a l t 
-1.3121 a l u 
-1.3121 a l z 
-0.7821 a m e 
-0.5504 a m p 
-1.0433 a m s 
-1.0433 a m y 
-0.5892 a n </s> 
-1.5599 a n c 
-0.9843 a n d 
-0.8890 a n e 
-1.5599 a n g 
-1.5599 a n i 
-1.5599 a n n 
-1.2988 a n t 
-1.5599 a n z 
-0.4992 a p a 
-0.4992 a p l 
-1.7664 a r </s> 
-1.7664 a r a 
-1.7664 a r b 
-1.1907 a r d 
-1.2735 a r e 
-1.5052 a r g 
-1.1907 a r k 
-1.1907 a r l 
-1.2735 a r n 
-1.7664 a r o 
-1.0954 a r r 
-1.7664 a r s 
-1.2735 a r t 
-1.5052 a r y 
-0.8913 a s </s> 
-1.1524 a s b 
-1.1524 a s o 
-1.1524 a s p 
-0.4815 a s t 
-1.1524 a t </s> 
-0.8913 a t e 
-0.8913 a t h 
-0.4815 a t t 
-0.1982 a u l 
-0.3406 a v e 
-0.7053 a v i 
-1.1982 a v k 
-0.4992 a w </s> 
-0.4992 a w t 
-0.8972 a y b 
-0.8972 a y e 
-0.6360 a y l 
-0.8972 a y n 
-0.1293 b a r 
-0.1982 b b s 
-0.8401 b e a 
-1.1013 b e c 
-1.1013 b e e 
-0.6084 b e r 
-1.1013 b e v 
-0.1982 b i n 
-0.1982 b l a 
-0.5391 b o r 
-0.5391 b o u 
-0.9784 b r a 
-1.2396 b r e 
-1.2396 b r i 
-0.3820 b r o 
-1.2396 b r u 
-0.6753 b s </s> 
-0.4142 b s o 
-1.9142 b u c 
-0.0084 b u r 
-0.4992 c </s> b 
-0.4992 c </s> p 
-0.7821 c a </s> 
-0.7821 c a l 
-0.7821 c a r 
-1.0433 c a v 
-0.1982 c c h 
-0.5504 c e </s> 
-1.0433 c e l 
-0.7821 c e n 
-1.0433 c e s 
-1.3121 c h </s> 
-0.4546 c h a 
-1.3121 c h f 
-1.3121 c h i 
-1.0510 c h r 
-1.0510 c h t 
-0.1982 c i n 
-0.6084 c k </s> 
-1.1013 c k e 
-1.1013 c k l 
-0.8401 c k w 
-1.1013 c k y 
-0.4992 c l a 
-0.4992 c l o 
-0.1982 c m u 
-0.9763 c o l 
-0.3054 c o n 
-0.9763 c o r 
-0.1982 c r a 
-0.1982 c y </s> 
-1.5961 d </s> c 
-1.5961 d </s> d 
-1.3350 d </s> e 
-1.3350 d </s> f 
-1.5961 d </s> h 
-1.5961 d </s> i 
-1.5961 d </s> j 
-0.4949 d </s> p 
-0.9252 d </s> s 
-1.5961 d </s> t 
-1.1032 d </s> w 
-0.9370 d a </s> 
-0.9370 d a l 
-1.1982 d a n 
-0.6225 d a v 
-0.1982 d b a 
-0.1982 d d o 
-0.6360 d e </s> 
-0.4043 d e r 
-0.1982 d f o 
-0.1982 d h e 
-0.1982 d i n 
-0.1982 d l e 
-1.1013 d o c 
-1.1013 d o l 
-1.1013 d o n 
-1.1013 d o r 
-1.1013 d o u 
-0.6084 d o w 
-0.1982 d p l 
-0.9763 d r a 
-0.3054 d r i 
-0.9763 d r o 
-0.1982 d s </s> 
-0.1982 d u g 
-0.5391 d w i 
-0.5391 d w o 
-0.2381 d y </s> 
-1.2246 e </s> b 
-1.8002 e </s> d 
-1.5391 e </s> e 
-1.5391 e </s> g 
-1.8002 e </s> i 
-1.5391 e </s> j 
-1.5391 e </s> m 
-1.8002 e </s> n 
-0.4260 e </s> p 
-1.8002 e </s> r 
-1.1293 e </s> s 
-1.5391 e </s> v 
-1.8002 e </s> w 
-1.8002 e </s> z 
-1.3743 e a </s> 
-1.1131 e a c 
-1.1131 e a d 
-0.8814 e a n 
-1.3743 e a r 
-0.8814 e a s 
-1.3743 e a t 
-1.1131 e a v 
-0.4992 e c c 
-0.4992 e c h 
-0.8002 e d o 
-0.5391 e d r 
-0.8002 e d w 
-0.9763 e e l 
-0.9763 e e n 
-0.9763 e e p 
-0.9763 e e r 
-0.7152 e e s 
-0.4992 e f f 
-0.4992 e f r 
-0.4992 e g i 
-0.4992 e g l 
-0.1982 e h u 
-0.8002 e i d 
-0.3074 e i l 
-0.1982 e k </s> 
-0.9649 e l </s> 
-1.5406 e l a 
-1.0477 e l d 
-1.2795 e l e 
-1.5406 e l g 
-1.5406 e l i 
-0.4393 e l l 
-1.5406 e l s 
-0.4992 e m o 
-0.4992 e m p 
-0.4437 e n </s> 
-1.1032 e n d 
-1.5961 e n f 
-0.9252 e n n 
-1.5961 e n o 
-1.5961 e n s 
-1.1032 e n t 
-1.1032 e n u 
-0.3074 e p h 
-0.8002 e p y 
-0.6898 e r </s> 
-1.3994 e r a 
-1.6606 e r b 
-1.1677 e r e 
-1.6606 e r f 
-0.9896 e r i 
-1.6606 e r k 
-1.1677 e r l 
-1.6606 e r n 
-1.3994 e r o 
-1.3994 e r s 
-1.3994 e r t 
-0.5256 e s </s> 
-1.1013 e s b 
-1.1013 e s m 
-1.1013 e s p 
-0.4835 e t </s> 
-0.4835 e t t 
-0.1982 e u l 
-1.1013 e v a 
-0.1305 e v e 
-0.8514 e w </s> 
-1.3443 e w a 
-1.3443 e w b 
-1.3443 e w e 
-1.0832 e w i 
-0.6734 e w o 
-1.0832 e w y 
-0.4007 e y </s> 
-0.9763 e y d 
-0.1982 f </s> c 
-0.1982 f a r 
-0.1982 f b o 
-0.8972 f e d 
-0.8972 f e i 
-0.8972 f e l 
-0.8972 f e n 
-0.8972 f e r 
-0.4992 f f </s> 
-0.4992 f f r 
-0.8972 f i e 
-0.6360 f i f 
-0.8972 f i l 
-0.8972 f i n 
-0.1824 f o r 
-0.6360 f r a 
-0.8972 f r i 
-0.6360 f r o 
-0.4142 f t h 
-0.6753 f t o 
-0.6753 g </s> c 
-0.6753 g </s> d 
-0.6753 g </s> m 
-0.3074 g a r 
-0.8002 g a t 
-0.0355 g h </s> 
-1.9058 g h l 
-1.6446 g h o 
-1.9058 g h t 
-0.4835 g i b 
-0.9763 g i e 
-0.9763 g i n 
-0.9763 g i u 
-0.8972 g l a 
-0.2262 g l e 
-0.1982 g n o 
-0.1982 g o t 
-0.4992 g r e 
-0.4992 g r o 
-0.1982 g s </s> 
-0.1982 g t o 
-0.1982 g v i 
-1.3549 h </s> a 
-1.3549 h </s> b 
-1.4377 h </s> c 
-1.9306 h </s> d 
-1.4377 h </s> f 
-1.4377 h </s> g 
-1.4377 h </s> h 
-1.6694 h </s> j 
-1.2596 h </s> l 
-1.3549 h </s> m 
-1.9306 h </s> n 
-1.9306 h </s> o 
-1.2596 h </s> p 
-1.9306 h </s> r 
-0.9598 h </s> s 
-1.4377 h </s> t 
-1.6694 h </s> v 
-1.9306 h </s> w 
-1.4769 h a c 
-1.4769 h a d 
-1.2158 h a e 
-1.4769 h a m 
-0.9841 h a n 
-0.6194 h a r 
-1.4769 h a s 
-1.4769 h a v 
-1.2158 h a w 
-1.4769 h a y 
-0.7821 h e a 
-1.0433 h e i 
-1.0433 h e n 
-1.0433 h e r 
-0.7821 h e w 
-0.1982 h f e 
-0.9763 h i </s> 
-0.9763 h i g 
-0.9763 h i l 
-0.9763 h i n 
-0.9763 h i r 
-0.9763 h i t 
-0.1982 h l a 
-0.6753 h n </s> 
-0.6753 h n k 
-0.6753 h n s 
-1.0162 h o b 
-1.2774 h o e 
-1.2774 h o f 
-1.2774 h o l 
-1.2774 h o m 
-1.2774 h o n 
-1.2774 h o r 
-1.0162 h o u 
-1.2774 h o w 
-1.2774 h o y 
-0.2381 h r i 
-0.4142 h t e 
-0.6753 h t s 
-0.1982 h u r 
-0.4992 h y </s> 
-0.4992 h y l 
-0.8972 i </s> c 
-0.8972 i </s> j 
-0.6360 i </s> m 
-0.8972 i </s> n 
-0.5391 i a </s> 
-0.8002 i a m 
-0.8002 i a n 
-0.6753 i b b 
-0.4142 i b s 
-1.0162 i c </s> 
-1.2774 i c a 
-0.4198 i c h 
-1.0162 i c k 
-1.2774 i c o 
-0.5391 i d </s> 
-0.8002 i d e 
-0.8002 i d w 
-0.8913 i e </s> 
-0.8913 i e l 
-1.1524 i e n 
-0.8913 i e r 
-1.1524 i e t 
-1.1524 i e w 
-0.8002 i f e 
-0.8002 i f r 
-0.5391 i f t 
-0.4142 i g h 
-0.6753 i g i 
-0.1982 i k </s> 
-0.8913 i l </s> 
-1.1524 i l a 
-1.1524 i l d 
-1.1524 i l k 
-0.4815 i l l 
-0.6753 i m m 
-0.4142 i m o 
-0.8495 i n </s> 
-1.5204 i n a 
-1.2593 i n c 
-0.8495 i n d 
-1.5204 i n e 
-0.9447 i n g 
-1.2593 i n i 
-1.2593 i n s 
-0.1982 i o </s> 
-0.1982 i p s 
-0.1982 i r e 
-0.4043 i s </s> 
-0.8972 i s s 
-0.8972 i s t 
-1.6272 i t h 
-1.8884 i t n 
-0.0274 i t t 
-0.1982 i u r 
-0.8972 i v a 
-0.2262 i v e 
-0.2381 j a m 
-0.6360 j e a 
-0.8972 j e f 
-0.8972 j e n 
-0.8972 j e t 
-0.9763 j o </s> 
-0.7152 j o h 
-0.9763 j o n 
-0.7152 j o s 
-0.1982 j u l 
-0.9784 k </s> b 
-1.2396 k </s> c 
-1.2396 k </s> e 
-1.2396 k </s> f 
-1.2396 k </s> g 
-1.2396 k </s> j 
-0.9784 k </s> k 
-0.9784 k </s> p 
-0.1293 k a r 
-0.1982 k d a 
-0.9763 k e a 
-0.7152 k e e 
-0.9763 k e l 
-0.9763 k e n 
-0.9763 k e r 
-0.1982 k h a 
-0.6753 k i </s> 
-0.4142 k i n 
-0.1982 k l e 
-0.1982 k r o 
-0.1982 k s </s> 
-0.1982 k u n 
-0.4992 k w h 
-0.4992 k w o 
-0.2381 k y </s> 
-0.8192 l </s> b 
-1.3121 l </s> c 
-1.0510 l </s> d 
-1.3121 l </s> j 
-1.3121 l </s> k 
-1.0510 l </s> m 
-1.3121 l </s> p 
-1.3121 l </s> s 
-1.3121 l </s> w 
-1.0832 l a </s> 
-1.3443 l a a 
-0.6734 l a c 
-1.3443 l a m 
-0.6734 l a n 
-1.3443 l a r 
-1.3443 l a s 
-0.5768 l d </s> 
-1.1524 l d a 
-1.1524 l d b 
-1.1524 l d e 
-1.1524 l d i 
-0.4437 l e </s> 
-1.5961 l e a 
-1.5961 l e d 
-1.5961 l e e 
-1.3350 l e n 
-1.5961 l e r 
-1.3350 l e s 
-1.5961 l e u 
-1.5961 l e v 
-1.3350 l e w 
-0.9252 l e y 
-0.1982 l f o 
-0.1982 l g i 
-1.2774 l i a 
-0.7845 l i e 
-1.2774 l i f 
-1.2774 l i g 
-0.7845 l i n 
-1.2774 l i o 
-1.2774 l i p 
-1.2774 l i s 
-0.1982 l k i 
-0.8266 l l </s> 
-0.9094 l l e 
-0.7314 l l i 
-1.4023 l l o 
-1.4023 l l s 
-1.1412 l l y 
-0.1982 l m o 
-0.8972 l o n 
-0.8972 l o o 
-0.8972 l o r 
-0.8972 l o u 
-0.8972 l o w 
-0.6753 l s k 
-0.6753 l s o 
-0.6753 l s w 
-0.1982 l t m 
-0.6753 l u b 
-0.6753 l u d 
-0.6753 l u s 
-0.1824 l y </s> 
-0.1982 l z e 
-0.6753 m </s> n 
-0.4142 m </s> s 
-1.4769 m a c 
-1.4769 m a h 
-1.4769 m a l 
-1.2158 m a n 
-1.4769 m a p 
-0.3757 m a r 
-1.2158 m a s 
-1.2158 m a t 
-1.4769 m a u 
-0.1982 m c k 
-1.0433 m e a 
-1.0433 m e m 
-0.5504 m e r 
-0.7821 m e s 
-0.6360 m i c 
-0.8972 m i d 
-0.6360 m i t 
-0.4992 m m </s> 
-0.4992 m m e 
-1.2396 m o d 
-1.2396 m o h 
-0.9784 m o n 
-0.3820 m o r 
-1.2396 m o t 
-0.8002 m p e 
-0.8002 m p l 
-0.5391 m p s 
-0.1982 m s </s> 
-0.1982 m u </s> 
-0.1982 m y </s> 
-1.5168 n </s> a 
-1.7780 n </s> b 
-1.2851 n </s> c 
-1.2851 n </s> e 
-1.5168 n </s> f 
-1.7780 n </s> g 
-1.7780 n </s> h 
-1.7780 n </s> j 
-1.5168 n </s> k 
-1.7780 n </s> l 
-1.1070 n </s> m 
-1.7780 n </s> n 
-0.6767 n </s> p 
-1.2851 n </s> r 
-1.2851 n </s> s 
-1.5168 n </s> t 
-0.5504 n a </s> 
-1.0433 n a l 
-1.0433 n a n 
-0.7821 n a t 
-0.1982 n b u 
-0.5391 n c e 
-0.8002 n c k 
-0.8002 n c o 
-0.8192 n d </s> 
-0.6412 n d a 
-1.0510 n d e 
-1.3121 n d l 
-1.3121 n d r 
-1.0510 n d y 
-0.9013 n e </s> 
-1.2158 n e g 
-1.4769 n e h 
-1.4769 n e i 
-0.9841 n e l 
-1.4769 n e s 
-1.4769 n e t 
-0.9841 n e w 
-1.2158 n e y 
-0.1982 n f e 
-1.0433 n g </s> 
-0.7821 n g h 
-1.0433 n g l 
-1.0433 n g s 
-1.0433 n g t 
-1.0433 n g v 
-0.9784 n i </s> 
-0.9784 n i a 
-0.7467 n i c 
-1.2396 n i e 
-1.2396 n i f 
-1.2396 n i m 
-1.2396 n i n 
-0.1982 n k e 
-0.7821 n n </s> 
-1.0433 n n a 
-1.0433 n n e 
-0.7821 n n i 
-1.0433 n n y 
-0.8002 n o </s> 
-0.8002 n o o 
-0.8002 n o p 
-0.8002 n o w 
-0.8002 n s </s> 
-0.8002 n s h 
-0.8002 n s k 
-0.8002 n s o 
-1.0433 n t </s> 
-1.0433 n t o 
-0.7821 n t r 
-0.5504 n t z 
-0.1824 n u e 
-0.1982 n x v 
-0.1982 n y v 
-0.1982 n z i 
-0.8972 o </s> d 
-0.8972 o </s> f 
-0.8972 o </s> l 
-0.8972 o </s> m 
-0.8972 o </s> p 
-0.3074 o a d 
-0.8002 o a k 
-0.5391 o b a 
-0.5391 o b e 
-0.1982 o c k 
-0.2949 o d </s> 
-1.1524 o d o 
-1.1524 o d s 
-1.1524 o d u 
-0.1982 o e </s> 
-0.4992 o f b 
-0.4992 o f f 
-0.1824 o h n 
-0.1982 o k h 
-0.9763 o l a 
-0.9763 o l d 
-0.9763 o l e 
-0.9763 o l i 
-0.9763 o l l 
-0.9763 o l s 
-0.7152 o m </s> 
-0.7152 o m a 
-0.7152 o m e 
-0.3522 o n </s> 
-0.9586 o n a 
-1.6295 o n b 
-1.6295 o n c 
-1.6295 o n e 
-1.6295 o n g 
-0.9586 o n i 
-1.6295 o n n 
-1.6295 o n t 
-1.6295 o n x 
-0.2688 o o d 
-1.2396 o o f 
-1.2396 o o k 
-1.2396 o o m 
-1.2396 o o n 
-0.4992 o p h 
-0.4992 o p l 
-0.9841 o r </s> 
-1.4769 o r c 
-0.9841 o r d 
-0.9013 o r e 
-1.4769 o r k 
-1.4769 o r n 
-1.4769 o r o 
-1.2158 o r t 
-1.4769 o r w 
-1.4769 o r y 
-0.4043 o s e 
-0.8972 o s s 
-0.8972 o s t 
-0.4992 o t h 
-0.4992 o t t 
-1.0433 o u g 
-1.0433 o u q 
-1.0433 o u r 
-0.7821 o u s 
-0.7821 o u t 
-0.6595 o w </s> 
-1.1524 o w e 
-1.1524 o w g 
-1.1524 o w l 
-0.6595 o w n 
-0.2381 o y </s> 
-0.1982 o z e 
-0.6753 p a h 
-0.6753 p a r 
-0.6753 p a t 
-0.1982 p e r 
-0.1824 p g h 
-0.7152 p h </s> 
-0.7152 p h e 
-0.9763 p h i 
-0.9763 p h y 
-1.8609 p i n 
-0.0095 p i t 
-0.6360 p l a 
-0.4043 p l e 
-0.1982 p n e 
-0.8002 p o l 
-0.5391 p o m 
-0.8002 p o r 
-0.1824 p r i 
-0.6753 p s </s> 
-0.6753 p s h 
-0.6753 p s o 
-0.1982 p u s 
-0.1982 p y h 
-0.1982 q u e 
-0.9784 r </s> b 
-1.2396 r </s> c 
-1.2396 r </s> e 
-1.2396 r </s> k 
-1.2396 r </s> l 
-0.9784 r </s> m 
-1.2396 r </s> p 
-0.9784 r </s> r 
-1.2396 r a c 
-0.9784 r a d 
-1.2396 r a f 
-0.6639 r a n 
-1.2396 r a p 
-1.2396 r a v 
-0.4992 r b o 
-0.4992 r b u 
-0.2381 r c h 
-0.2437 r d </s> 
-1.1013 r d p 
-1.1013 r d w 
-0.8283 r e </s> 
-1.2381 r e a 
-1.4992 r e e 
-1.4992 r e k 
-1.2381 r e l 
-0.8283 r e n 
-1.2381 r e t 
-0.8283 r e w 
-0.1982 r f i 
-1.6183 r g </s> 
-1.6183 r g a 
-0.0378 r g h 
-1.4769 r i </s> 
-1.4769 r i a 
-0.9013 r i c 
-1.4769 r i g 
-1.4769 r i k 
-0.8060 r i n 
-1.2158 r i s 
-0.8060 r i v 
-0.5256 r k </s> 
-1.1013 r k e 
-1.1013 r k r 
-1.1013 r k s 
-1.1013 r l </s> 
-0.6084 r l a 
-0.8401 r l e 
-1.1013 r l f 
-1.1013 r l y 
-0.8972 r n </s> 
-0.8972 r n d 
-0.4043 r n e 
-1.5204 r o </s> 
-1.0275 r o a 
-1.2593 r o b 
-1.5204 r o m 
-0.9447 r o n 
-1.2593 r o o 
-1.0275 r o s 
-1.2593 r o w 
-1.5204 r o y 
-1.5204 r o z 
-0.4043 r r e 
-0.8972 r r o 
-0.8972 r r y 
-0.3074 r s o 
-0.8002 r s t 
-0.4676 r t </s> 
-1.0433 r t h 
-1.0433 r t z 
-0.4992 r u m 
-0.4992 r u s 
-0.1982 r w a 
-0.3723 r y </s> 
-1.0433 r y j 
-1.0433 r y l 
-1.0433 r y p 
-1.4286 s </s> a 
-1.1675 s </s> e 
-1.4286 s </s> h 
-1.1675 s </s> j 
-1.1675 s </s> m 
-0.7577 s </s> p 
-1.1675 s </s> s 
-1.1675 s </s> t 
-1.4286 s </s> w 
-0.4992 s a t 
-0.4992 s a y 
-1.8703 s b o 
-0.0093 s b u 
-0.1982 s c a 
-1.0433 s e </s> 
-1.0433 s e l 
-1.0433 s e m 
-1.0433 s e n 
-0.7821 s e p 
-1.0433 s e w 
-0.5391 s h a 
-0.8002 s h e 
-0.8002 s h i 
-0.8972 s k a 
-0.8972 s k e 
-0.6360 s k i 
-0.8972 s k y 
-0.1982 s l e 
-0.4142 s m a 
-0.6753 s m i 
-0.1982 s n o 
-1.2396 s o </s> 
-0.0872 s o n 
-1.2396 s o u 
-0.8002 s p n 
-0.8002 s p o 
-0.5391 s p r 
-0.4992 s s m 
-0.4992 s s v 
-1.1131 s t </s> 
-0.1761 s t e 
-1.3743 s t i 
-1.1131 s t o 
-0.4992 s u m 
-0.4992 s u n 
-0.4992 s v a 
-0.4992 s v i 
-0.6753 s w a 
-0.6753 s w i 
-0.6753 s w o 
-1.3443 t </s> b 
-1.3443 t </s> g 
-1.3443 t </s> l 
-1.3443 t </s> m 
-1.3443 t </s> n 
-1.3443 t </s> o 
-0.4868 t </s> p 
-1.3443 t </s> r 
-1.3443 t </s> t 
-0.4992 t a n 
-0.4992 t a y 
-1.2158 t e </s> 
-1.4769 t e d 
-1.4769 t e e 
-1.4769 t e l 
-0.9841 t e n 
-1.4769 t e p 
-0.9013 t e r 
-0.9013 t e v 
-0.7033 t h </s> 
-0.5167 t h a 
-1.1131 t h e 
-1.1131 t h o 
-1.3743 t h y 
-0.6360 t i e 
-0.6360 t i m 
-0.8972 t i n 
-0.1982 t m a 
-0.1982 t n e 
-0.9763 t o d 
-0.9763 t o m 
-0.7152 t o n 
-0.9763 t o p 
-0.9763 t o w 
-0.8002 t r a 
-0.3074 t r e 
-0.0095 t s b 
-1.8609 t s v 
-1.6694 t t </s> 
-1.2596 t t e 
-1.6694 t t h 
-1.9306 t t i 
-0.0792 t t s 
-0.1293 t z </s> 
-0.1982 u </s> p 
-0.1982 u b i 
-0.1982 u c k 
-0.1982 u d w 
-0.3074 u e </s> 
-0.8002 u e t 
-0.4992 u g l 
-0.4992 u g n 
-0.6753 u l d 
-0.4142 u l i 
-0.4992 u m i 
-0.4992 u m m 
-0.4992 u n n 
-0.4992 u n t 
-0.1982 u q u 
-1.9306 u r c 
-0.0696 u r g 
-1.9306 u r i 
-1.9306 u r k 
-1.9306 u r r 
-1.9306 u r s 
-1.4377 u r y 
-0.6360 u s e 
-0.6360 u s k 
-0.8972 u s o 
-0.4992 u t h 
-0.4992 u t i 
-0.9763 v a </s> 
-0.4835 v a l 
-0.9763 v a n 
-0.9763 v a r 
-0.3979 v e </s> 
-1.4992 v e c 
-1.4992 v e l 
-0.5285 v e n 
-1.0063 v e r 
-0.7152 v i d 
-0.9763 v i e 
-0.7152 v i l 
-0.9763 v i n 
-0.1982 v k </s> 
-1.0433 w </s> d 
-0.7821 w </s> n 
-1.0433 w </s> o 
-1.0433 w </s> p 
-1.0433 w </s> r 
-1.0433 w </s> w 
-1.0433 w a l 
-0.3723 w a r 
-1.0433 w a t 
-1.0433 w a y 
-0.1982 w b u 
-0.6753 w e i 
-0.4142 w e l 
-0.1982 w g a 
-0.4992 w h e 
-0.4992 w h i 
-0.7821 w i c 
-0.7821 w i l 
-1.0433 w i n 
-0.7821 w i s 
-0.1982 w l i 
-0.4142 w n </s> 
-0.6753 w n i 
-0.1305 w o o 
-1.1013 w o r 
-0.1982 w r i 
-0.1982 w t h 
-0.4992 w y l 
-0.4992 w y o 
-0.1982 x v i 
-1.5204 y </s> a 
-1.5204 y </s> b 
-1.2593 y </s> c 
-1.2593 y </s> d 
-1.5204 y </s> g 
-1.5204 y </s> h 
-1.5204 y </s> j 
-1.2593 y </s> m 
-1.5204 y </s> n 
-1.5204 y </s> o 
-1.0275 y </s> p 
-1.2593 y </s> s 
-1.5204 y </s> t 
-1.5204 y </s> v 
-1.5204 y </s> w 
-0.1982 y b r 
-0.1982 y d r 
-0.1982 y e r 
-0.1982 y h o 
-0.1982 y j o 
-0.8972 y l a 
-0.8972 y l d 
-0.8972 y l e 
-0.8972 y l l 
-0.8972 y l o 
-0.1982 y n e 
-0.1982 y o r 
-0.1982 y p l 
-0.1982 y v a 
-0.8002 z </s> b 
-0.8002 z </s> j 
-0.8002 z </s> l 
-0.8002 z </s> p 
-0.4142 z e l 
-0.6753 z e v 
-0.1982 z i n 

\end\
