#############################################################################
## Copyright (c) 1996, Carnegie Mellon University, Cambridge University,
## Ronald Rosenfeld and Philip Clarkson
#############################################################################
=============================================================================
===============  This file was produced by the CMU-Cambridge  ===============
===============     Statistical Language Modeling Toolkit     ===============
=============================================================================
This is a 3-gram language model, based on a vocabulary of 214 words,
  which begins "a", "about", "after"...
This is an OPEN-vocabulary model (type 1)
  (OOVs were mapped to UNK, which is treated as any other vocabulary word)
Good-Turing discounting was applied.
1-gram frequency of frequency : 14 
2-gram frequency of frequency : 509 226 126 61 53 47 26 
3-gram frequency of frequency : 2688 538 188 87 56 27 16 
1-gram discounting ratios : 0.11 
2-gram discounting ratios : 0.78 0.69 0.32 
3-gram discounting ratios : 0.37 0.50 0.60 0.80 0.56 0.68 1.00 
This file is in the ARPA-standard format introduced by Doug Paul.

p(wd3|wd1,wd2)= if(trigram exists)           p_3(wd1,wd2,wd3)
                else if(bigram w1,w2 exists) bo_wt_2(w1,w2)*p(wd3|wd2)
                else                         p(wd3|w2)

p(wd2|wd1)= if(bigram exists) p_2(wd1,wd2)
            else              bo_wt_1(wd1)*p_1(wd2)

All probs and back-off weights (bo_wt) are given in log10 form.

Data formats:

Beginning of data mark: \data\
ngram 1=nr            # number of 1-grams
ngram 2=nr            # number of 2-grams
ngram 3=nr            # number of 3-grams

\1-grams:
p_1     wd_1 bo_wt_1
\2-grams:
p_2     wd_1 wd_2 bo_wt_2
\3-grams:
p_3     wd_1 wd_2 wd_3 

end of data mark: \end\

\data\
ngram 1=215
ngram 2=1256
ngram 3=3661

\1-grams:
-4.7698 <UNK>	0.0000
-0.8286 a	-1.0133
-1.4831 about	-0.6548
-2.9023 after	-0.3563
-4.7698 all	-0.6573
-4.7698 an	-0.6672
-4.7698 and	-0.6674
-3.2033 any	-0.2457
-1.7298 apostrophe	-0.6545
-1.9303 april	-0.3902
-4.7698 are	-0.6559
-1.8010 area	-0.4211
-4.7698 as	-0.6674
-1.4092 at	-0.7435
-1.6207 august	-1.1299
-4.7698 b	-0.6672
-4.7698 back	-0.6653
-4.7698 be	-0.6653
-2.6293 been	-0.5229
-3.2033 before	-0.5823
-4.7698 but	-0.6653
-1.8811 by	-0.8748
-2.2869 c	-0.2520
-1.9925 called	-0.3121
-3.5043 can	-0.6653
-3.1064 code	-0.2278
-3.5043 could	-0.5004
-3.5043 d	-0.6549
-2.2491 day	-0.6861
-3.3282 december	-0.1649
-1.5000 did	-1.6118
-2.3740 do	-0.3500
-1.5853 down	-1.2030
-2.8511 e	-0.1844
-4.7698 each	-0.6653
-1.7447 eight	-0.6143
-2.8054 eighteen	-0.9716
-1.6380 eighteenth	-0.4326
-3.5043 eighth	-0.4327
-2.7262 eighty	-1.0442
-2.7262 eleven	-0.7749
-1.5879 eleventh	-0.7639
-2.1241 enter	-0.2910
-3.5043 erase	-0.6671
-3.3282 f	-0.6644
-3.5043 february	-0.6647
-1.9603 fifteen	-0.2856
-1.6624 fifteenth	-0.4532
-1.8560 fifth	-0.2819
-3.3282 fifty	-0.6645
-3.3282 find	-0.6625
-1.5826 first	-0.7253
-1.7600 five	-0.8643
-2.3282 for	-0.9173
-2.8054 forty	-0.4483
-3.5043 four	-0.6623
-2.6012 fourteen	-1.1607
-1.6067 fourth	-0.7851
-3.3282 from	-0.6643
-3.5043 g	-0.6621
-1.9665 get	-0.9350
-1.3629 go	-1.4618
-1.8054 good	-0.6436
-2.3282 h	-0.1947
-1.4571 had	-1.1751
-2.5749 half	-1.1855
-2.0345 hall	-0.2168
-1.6264 has	-0.6513
-3.5043 have	-0.5004
-3.1064 he	-0.6623
-1.6500 help	-0.7515
-3.1064 her	-0.4553
-4.7698 him	-0.6653
-2.3904 his	-0.5666
-1.5905 how	-1.4488
-3.3282 hundred	-0.5440
-4.7698 i	-0.6653
-4.7698 if	-0.6653
-1.9480 in	-1.2889
-2.7640 into	-1.0094
-2.6012 is	-1.1607
-1.4915 it	-0.8214
-2.6592 its	-0.8592
-3.3282 j	-0.1649
-3.3282 january	-0.1649
-2.2613 july	-0.6533
-2.8511 june	-0.4264
-1.6815 just	-1.1769
-3.5043 k	-0.5004
-2.8511 know	-0.5161
-4.7698 l	-0.6653
-2.2143 lane	-0.5291
-1.3838 like	-1.5146
-1.7760 little	-0.2676
-1.9992 long	-0.7193
-1.9480 look	-0.3381
-2.3002 m	-0.3025
-1.9992 made	-0.2379
-2.4831 make	-1.2727
-2.1522 man	-0.0416
-2.2491 many	-0.6964
-4.7698 march	0.0000
-4.7698 may	0.0000
-4.7698 me	0.0000
-4.7698 memory	0.0000
-4.7698 more	0.0000
-4.7698 most	0.0000
-4.7698 much	0.0000
-4.7698 my	0.0000
-4.7698 n	0.0000
-4.7698 new	0.0000
-4.7698 nine	0.0000
-4.7698 nineteen	0.0000
-4.7698 ninety	0.0000
-4.7698 ninth	0.0000
-4.7698 no	0.0000
-4.7698 not	0.0000
-4.7698 now	0.0000
-4.7698 o	0.0000
-4.7698 october	0.0000
-4.7698 of	0.0000
-4.7698 oh	0.0000
-4.7698 on	0.0000
-4.7698 one	0.0000
-4.7698 only	0.0000
-4.7698 or	0.0000
-4.7698 other	0.0000
-4.7698 our	0.0000
-4.7698 out	0.0000
-4.7698 over	0.0000
-4.7698 p	0.0000
-4.7698 people	0.0000
-4.7698 q	0.0000
-4.7698 r	0.0000
-4.7698 repeat	0.0000
-4.7698 right	0.0000
-4.7698 rubout	0.0000
-4.7698 s	0.0000
-4.7698 said	0.0000
-4.7698 same	0.0000
-4.7698 second	0.0000
-4.7698 see	0.0000
-4.7698 september	0.0000
-4.7698 seven	0.0000
-4.7698 seventeen	0.0000
-4.7698 seventh	0.0000
-4.7698 seventy	0.0000
-4.7698 she	0.0000
-4.7698 six	0.0000
-4.7698 sixteen	0.0000
-4.7698 sixteenth	0.0000
-4.7698 sixth	0.0000
-4.7698 sixty	0.0000
-4.7698 so	0.0000
-4.7698 some	0.0000
-4.7698 start	0.0000
-4.7698 stop	0.0000
-4.7698 t	0.0000
-4.7698 ten	0.0000
-4.7698 than	0.0000
-4.7698 that	0.0000
-4.7698 the	0.0000
-4.7698 their	0.0000
-4.7698 them	0.0000
-4.7698 then	0.0000
-4.7698 there	0.0000
-4.7698 these	0.0000
-4.7698 they	0.0000
-4.7698 think	0.0000
-4.7698 third	0.0000
-4.7698 thirtieth	0.0000
-4.7698 thirty	0.0000
-4.7698 this	0.0000
-4.7698 thousand	0.0000
-4.7698 three	0.0000
-4.7698 through	0.0000
-4.7698 time	0.0000
-4.7698 to	0.0000
-4.7698 too	0.0000
-4.7698 twelfth	0.0000
-4.7698 twelve	0.0000
-4.7698 twelvth	0.0000
-4.7698 twentieth	0.0000
-4.7698 twenty	0.0000
-4.7698 two	0.0000
-4.7698 u	0.0000
-4.7698 up	0.0000
-4.7698 use	0.0000
-4.7698 used	0.0000
-4.7698 v	0.0000
-4.7698 very	0.0000
-4.7698 w	0.0000
-4.7698 was	0.0000
-4.7698 water	0.0000
-4.7698 way	0.0000
-4.7698 we	0.0000
-4.7698 wean	0.0000
-4.7698 were	0.0000
-4.7698 what	0.0000
-4.7698 when	0.0000
-4.7698 where	0.0000
-4.7698 which	0.0000
-4.7698 who	0.0000
-4.7698 will	0.0000
-4.7698 with	0.0000
-4.7698 words	0.0000
-4.7698 would	0.0000
-4.7698 write	0.0000
-4.7698 x	0.0000
-4.7698 y	0.0000
-4.7698 yes	0.0000
-4.7698 you	0.0000
-4.7698 your	0.0000
-4.7698 z	0.0000
-4.7698 zero	0.0000

\2-grams:
-1.8039 a about 0.0352
-3.0852 a an 0.4638
-3.0852 a and 0.4638
-2.3779 a any -0.0925
-1.5328 a apostrophe 0.0990
-1.7496 a april -0.0007
-1.9008 a area -0.2555
-3.0852 a as 0.4638
-1.8039 a at -0.0788
-2.0769 a august -0.0649
-3.0852 a b 0.4638
-2.8429 a before 0.0128
-1.0557 a by 0.3652
-1.4615 a c 0.1761
-1.8039 a called -0.1115
-3.0852 a can 0.0128
-2.0769 a day 0.0517
-1.7759 a did -0.0231
-3.0852 a do -0.1339
-1.4886 a down -0.2608
-3.0852 a e -0.1640
-1.8039 a eight -0.1500
-1.9386 a eighteen 0.0000
-1.7496 a eighteenth -0.1207
-1.8661 a eighty 0.0000
-2.3779 a eleventh 0.0009
-1.7012 a enter -0.0231
-2.8429 a erase 0.4638
-2.9990 a f 0.4638
-2.8429 a february 0.4638
-2.0769 a fifteen -0.1497
-1.9008 a fifteenth -0.0275
-1.5029 a fifth -0.4548
-2.9990 a fifty 0.4638
-2.8429 a find 0.1181
-1.8661 a first -0.0964
-2.2019 a five -0.1089
-3.0852 a four 0.0128
-1.7496 a fourteen 0.0000
-2.0258 a fourth -0.1785
-2.9990 a from 0.4638
-2.9990 a get -0.1193
-1.0210 a go -0.2871
-1.1876 a good -0.4928
-2.8429 a h -0.1712
-1.8661 a had 0.1168
-1.7247 a half 0.0000
-1.2092 a hall 0.0993
-1.5029 a has -0.1717
-2.3779 a he 0.2258
-1.9386 a help -0.1518
-1.6790 a how -0.0829
-2.8429 a in -0.0825
-1.9008 a into 0.0000
-1.7496 a is 0.0000
-1.9008 a it -0.1559
-2.2810 a its -0.0607
-2.3779 a july 0.1196
-1.7759 a just -0.1265
-2.2019 a know 0.0675
-3.0852 a lane -0.1880
-1.5998 a like -0.0665
-2.8429 a little -0.1744
-1.9008 a long 0.0084
-1.9800 a look -0.1987
-2.2810 a m -0.1468
-2.9990 a made -0.1777
-1.6376 a make 0.0000
-2.3779 a man -0.1686
-1.1461 about a -0.4108
-1.7202 about about -0.1125
-2.1852 about apostrophe -0.1978
-1.2430 about april -0.0129
-1.3222 about area 0.0501
-2.3412 about at -0.2251
-2.1852 about called -0.1661
-1.7202 about eight -0.2041
-1.7202 about eighteenth -0.2037
-2.1852 about eighth 0.1984
-2.3412 about eleventh -0.1715
-2.4274 about enter -0.1948
-2.3412 about fifteen -0.1887
-1.1761 about fifteenth -0.0042
-1.2083 about fifth -0.1667
-0.9243 about first 0.1046
-2.4274 about forty -0.1395
-2.3412 about good -0.1589
-0.7094 about had 0.3853
-1.3222 about has 0.1596
-2.3412 about how 0.0326
-1.3222 about it 0.0138
-2.4274 about like -0.0937
-2.1852 about little -0.1965
-1.2430 about long -0.3787
-2.3412 about look -0.1445
-2.4274 about m -0.1846
-1.6232 about made -0.1789
-2.4274 about man -0.1901
-0.7660 after about -0.3012
-0.9220 after been -0.0563
-1.0083 after day -0.1524
-1.0083 after in -0.1979
-1.0083 after lane -0.1440
-0.1052 all eighteenth -0.1297
-0.1052 an january -0.0367
-0.1052 and are 0.4638
-0.7072 any i 0.4638
-0.6210 any lane -0.2432
-1.2304 apostrophe about -0.2832
-2.1807 apostrophe apostrophe -0.2001
-2.1807 apostrophe area -0.1994
-1.0342 apostrophe at -0.1954
-2.1807 apostrophe august -0.0275
-2.1807 apostrophe did -0.0829
-1.9385 apostrophe do -0.1716
-2.1807 apostrophe eight -0.1682
-2.1807 apostrophe eighteenth -0.2013
-2.1807 apostrophe eleventh -0.1445
-1.9385 apostrophe enter -0.1836
-2.1807 apostrophe fifteen -0.1950
-2.1807 apostrophe fifteenth -0.1575
-2.0945 apostrophe fifth -0.1500
-1.3766 apostrophe fourth -0.1913
-2.1807 apostrophe go -0.1892
-2.1807 apostrophe good -0.2002
-1.0342 apostrophe had -0.1719
-2.0945 apostrophe has -0.1753
-1.9385 apostrophe help -0.1755
-1.9385 apostrophe his -0.2884
-2.1807 apostrophe how -0.0181
-0.3595 apostrophe little -1.6080
-2.1807 apostrophe long -0.1533
-2.1807 apostrophe look -0.1952
-2.0945 apostrophe m -0.1704
-2.1807 apostrophe made -0.1942
-2.1807 apostrophe man -0.1959
-1.7380 april a -0.1869
-1.0300 april about -0.0732
-1.7380 april apostrophe -0.1559
-1.9802 april april -0.1067
-1.9802 april area -0.1630
-1.0300 april at -0.0909
-1.9802 april called -0.1971
-1.7380 april did -0.1677
-0.6990 april eighteenth 0.1218
-1.9802 april eleventh -0.1445
-1.9802 april enter -0.1910
-0.9208 april fifteen -0.0757
-1.8940 april fifteenth -0.1369
-1.9802 april fifth -0.1989
-1.0969 april fourth -0.2770
-1.9802 april had -0.1775
-1.9802 april has -0.2013
-1.9802 april help -0.1881
-1.9802 april it -0.2016
-1.7380 april july -0.2224
-1.9802 april like -0.0937
-1.9802 april little -0.2004
-1.9802 april long -0.1970
-1.7380 april look -0.1672
-1.7380 april made -0.0229
-1.8940 april man -0.1802
-0.1052 are down -0.1418
-0.6064 area a -0.2776
-0.9629 area about -0.1398
-1.8673 area apostrophe -0.1719
-2.0233 area area -0.1556
-1.1592 area at -0.1551
-1.8673 area called -0.1389
-2.1095 area do -0.1339
-2.1095 area eighteenth -0.1793
-1.8673 area eleventh -0.1000
-2.1095 area enter -0.1910
-2.0233 area fifteen -0.1838
-2.1095 area fifteenth -0.1059
-1.8673 area fifth -0.1929
-2.1095 area first -0.1482
-1.0501 area fourth 0.0232
-2.1095 area get -0.1571
-1.8673 area go -0.1870
-2.1095 area good -0.1813
-1.8673 area h -0.1712
-1.0501 area had -0.0738
-1.8673 area has -0.1318
-1.8673 area like -0.1475
-2.1095 area little -0.1997
-2.1095 area long -0.1942
-1.3054 area look -0.1667
-2.0233 area made -0.0872
-2.1095 area man -0.1959
-0.1052 as back 0.4638
-0.7834 at a -0.3605
-1.1658 at about 0.0972
-2.2591 at apostrophe -0.1956
-2.2591 at april -0.1010
-1.5511 at area -0.1011
-1.3962 at at 0.0458
-2.2591 at august -0.1650
-2.4152 at called -0.1560
-2.4152 at down -0.1602
-1.7941 at eight -0.1271
-2.5014 at eighteenth -0.1995
-1.7941 at eleventh -0.2995
-2.2591 at enter -0.2915
-2.5014 at fifteen -0.1293
-1.0538 at fifteenth 0.0149
-1.7941 at fifth -0.1626
-0.9812 at first -0.3411
-2.5014 at fourth -0.1839
-1.6180 at good -0.2514
-2.5014 at h -0.1833
-0.9048 at had -0.0775
-1.4420 at has -0.0043
-2.5014 at his -0.1908
-1.4931 at it -0.1884
-2.5014 at july -0.1219
-2.2591 at just -0.1625
-2.5014 at like -0.1834
-2.4152 at little -0.1908
-1.4420 at long -0.5450
-1.1921 at look -0.0348
-2.5014 at m -0.1846
-1.6180 at made -0.1447
-2.2591 at man -0.1548
-0.4771 august a -0.0546
-1.4065 august august -0.1477
-1.1847 august did 0.0731
-2.2899 august do -0.1809
-1.0086 august down 0.1221
-2.2899 august e -0.1547
-2.2036 august eleven 0.1458
-1.4857 august five 0.0821
-1.4065 august get 0.1575
-1.3396 august go 0.0003
-1.2816 august help 0.1806
-2.0476 august his -0.1280
-1.4065 august how 0.2094
-2.2036 august in 0.0124
-2.2899 august july -0.1509
-2.2899 august june -0.1640
-1.1055 august just 0.2539
-2.0476 august lane -0.1261
-1.2304 august like -0.0286
-1.5826 august many 0.2789
-0.1052 b can 0.0128
-0.1052 back for -0.1833
-0.1052 be for -0.1833
-1.2813 been august -0.0275
-1.2813 been d 0.0128
-1.2813 been did -0.0829
-1.2813 been down -0.0479
-1.1950 been five -0.0095
-1.2813 been go -0.1075
-1.2813 been help 0.0709
-0.4771 been how -0.1713
-1.2813 been just -0.0242
-0.7072 before a -0.1995
-0.7072 before five -0.2005
-0.7072 before her -0.0644
-0.7072 before in -0.1337
-0.1052 but for 0.3705
-1.0212 by august -0.0461
-2.0295 by been -0.1749
-2.0295 by code -0.1113
-1.2253 by day -0.0871
-1.1461 by did 0.1640
-1.9432 by do -0.0184
-1.1461 by down -0.0982
-2.0295 by e -0.1547
-1.3222 by five 0.0674
-1.9432 by forty 0.0265
-1.3222 by go -0.1812
-0.9700 by help 0.0833
-1.3222 by his 0.0594
-1.0212 by how 0.1092
-1.0212 by in -0.0875
-1.9432 by july -0.0856
-1.7872 by just -0.0203
-2.0295 by lane -0.1566
-1.1461 by like -0.0450
-2.0295 by many 0.0974
-1.6237 c about -0.1736
-1.6237 c apostrophe -0.2001
-1.3815 c april -0.1389
-1.3815 c at -0.2008
-1.6237 c called -0.1943
-1.3815 c eight 0.0673
-1.3815 c eleventh -0.1764
-1.3815 c enter -0.1891
-1.6237 c fifteen -0.1950
-1.6237 c fifth -0.1968
-1.6237 c first -0.1795
-1.5375 c fourth -0.2489
-1.3815 c h -0.1620
-1.6237 c had -0.1957
-1.3815 c has -0.1980
-1.6237 c it -0.2007
-1.5375 c long -0.1861
-1.3815 c look -0.1699
-1.6237 c m -0.1928
-1.6237 c made -0.1942
-1.6237 c man -0.1901
-1.9181 called a -0.1892
-1.9181 called about -0.1092
-1.6759 called apostrophe -0.1813
-1.9181 called area -0.1815
-0.9098 called at 0.0100
-1.9181 called august -0.0275
-1.8319 called called -0.1573
-1.6759 called did -0.1865
-1.9181 called eight -0.1723
-1.6759 called eighteenth -0.1892
-0.9678 called eleventh -0.0875
-1.6759 called enter -0.1836
-1.6759 called fifteen -0.1661
-1.6759 called fifth -0.1959
-1.1139 called fourth -0.2486
-1.9181 called h -0.1895
-1.1139 called had -0.1642
-1.9181 called has -0.1676
-1.9181 called how -0.2015
-1.2109 called it -0.1976
-1.9181 called july -0.1915
-1.9181 called lane -0.1928
-1.8319 called like -0.1319
-1.9181 called long -0.1982
-1.2109 called m -0.1314
-1.6759 called made -0.1846
-1.9181 called man -0.1959
-0.4062 can be 0.4638
-0.4062 can for -0.1895
-0.7179 code a -0.1416
-0.8042 code for -0.1895
-0.8042 code in -0.1732
-0.1640 could for 0.2700
-0.4062 d for 0.3705
-0.4062 d has -0.1517
-1.4192 day a -0.1621
-0.7782 day august -0.2568
-0.9542 day did -0.2163
-1.5753 day down -0.2427
-1.6615 day five 0.0494
-0.8573 day go -0.2041
-1.4192 day help 0.0788
-0.7782 day how -0.0677
-1.6615 day in -0.1604
-1.4192 day just -0.0174
-0.9542 day like -0.2294
-0.4961 december for 0.1757
-0.6152 did a 0.0615
-1.5272 did august -0.2126
-1.5272 did did 0.2646
-2.4105 did do -0.1339
-1.5272 did down 0.0228
-2.1683 did eleven 0.2101
-2.4105 did fifth -0.0867
-1.4603 did five 0.2833
-1.4023 did get 0.1102
-1.1293 did go 0.1929
-1.5272 did help 0.1240
-1.4603 did how 0.1179
-2.4105 did hundred 0.0616
-2.4105 did it -0.1662
-2.4105 did its 0.0974
-2.1683 did july -0.0397
-1.3511 did just 0.0682
-2.4105 did lane -0.1440
-0.4728 did like 0.0925
-1.6064 did many 0.2478
-1.4503 do august -0.2223
-0.8293 do did -0.5699
-1.4503 do down -0.2427
-1.4503 do five -0.0095
-1.2943 do go -0.2079
-0.8293 do help -0.0608
-1.5365 do how -0.0181
-0.8293 do just -0.0086
-1.4503 do like -0.2885
-0.5211 down a -0.0427
-2.3253 down after -0.1219
-1.3170 down august 0.1703
-2.0830 down day -0.0452
-1.3750 down did 0.1260
-2.0830 down do -0.1716
-1.0440 down down 0.1682
-1.6180 down five 0.1409
-2.3253 down forty -0.1681
-1.4420 down get 0.1419
-0.8777 down go -0.4158
-1.2659 down help 0.1013
-2.3253 down his -0.0275
-1.3170 down how 0.1066
-2.0830 down in -0.0978
-2.3253 down july -0.1862
-2.2391 down june -0.0317
-1.5211 down just 0.0503
-2.0830 down lane -0.1261
-1.0160 down like -0.2462
-2.3253 down many 0.0974
-0.9732 e a -0.2455
-1.0594 e about -0.1714
-1.0594 e been -0.1802
-1.0594 e e -0.1547
-0.9732 e in -0.0156
-0.1052 each for -0.1833
-2.0797 eight a -0.1384
-1.1065 eight about -0.2228
-2.1659 eight apostrophe -0.1985
-1.9236 eight april -0.1944
-1.9236 eight area -0.1287
-1.9236 eight at -0.1840
-2.1659 eight been -0.0275
-2.1659 eight do -0.1879
-0.3447 eight eighteenth -0.9766
-1.1576 eight eleventh -0.1208
-1.9236 eight enter -0.1836
-1.9236 eight fifteen -0.1937
-1.1065 eight fifteenth -0.1326
-1.4586 eight first -0.1634
-1.9236 eight five -0.1450
-2.1659 eight fourth -0.1868
-2.1659 eight good -0.1976
-2.1659 eight h -0.1921
-1.9236 eight had -0.1057
-2.1659 eight has -0.1517
-2.1659 eight his -0.1879
-2.1659 eight it -0.1907
-1.9236 eight like -0.2010
-2.1659 eight little -0.2004
-1.9236 eight long -0.1427
-1.9236 eight look -0.1672
-0.0414 eighteen a -0.1202
-0.4349 eighteenth a -0.9879
-0.8056 eighteenth about 0.0161
-1.5653 eighteenth apostrophe -0.1673
-1.2642 eighteenth at -0.0428
-2.1863 eighteenth called -0.0828
-2.2725 eighteenth day -0.1524
-2.2725 eighteenth down -0.0479
-2.0303 eighteenth eight -0.1954
-2.2725 eighteenth eighteenth -0.1995
-1.3892 eighteenth eleventh 0.1444
-2.0303 eighteenth fifteen -0.1889
-2.0303 eighteenth fifteenth -0.0473
-1.5653 eighteenth first -0.0535
-2.2725 eighteenth five -0.1876
-1.0534 eighteenth fourth 0.1611
-2.2725 eighteenth go -0.1075
-2.2725 eighteenth good -0.1976
-2.2725 eighteenth h -0.1921
-2.1863 eighteenth had -0.2276
-2.2725 eighteenth help -0.1786
-2.2725 eighteenth his -0.1879
-2.2725 eighteenth how -0.0181
-2.1863 eighteenth it -0.0939
-2.2725 eighteenth just -0.1991
-2.2725 eighteenth like -0.0937
-2.0303 eighteenth little 0.1129
-2.2725 eighteenth look -0.1456
-2.2725 eighteenth m -0.1928
-2.1863 eighteenth made 0.0339
-2.2725 eighteenth man -0.1632
-0.1640 eighth a -0.1888
-0.0348 eighty a -0.1272
-0.9421 eleven a -0.1850
-0.3010 eleven after -0.0580
-0.9421 eleven been -0.1556
-1.1844 eleven do -0.1879
-1.1844 eleven lane -0.1440
-1.5185 eleventh a -0.2035
-1.6154 eleventh about -0.1246
-2.2364 eleventh apostrophe -0.2615
-1.0714 eleventh april -0.0009
-1.5185 eleventh area -0.0335
-1.2632 eleventh at 0.1071
-1.6154 eleventh called -0.1192
-2.3227 eleventh code -0.1113
-2.0804 eleventh did -0.0685
-2.3227 eleventh down -0.0479
-1.6154 eleventh eight 0.1022
-2.0804 eleventh fifteen -0.1191
-1.2175 eleventh fifteenth -0.1375
-1.6154 eleventh fifth -0.1531
-0.8953 eleventh first 0.0587
-2.3227 eleventh fourth -0.1896
-2.2364 eleventh good -0.1636
-2.2364 eleventh h -0.1654
-2.2364 eleventh had -0.1081
-1.4393 eleventh has -0.1706
-2.3227 eleventh in -0.1473
-0.5185 eleventh it -1.1554
-2.3227 eleventh july -0.1509
-2.3227 eleventh little 0.1015
-1.4393 eleventh long -0.1486
-2.3227 eleventh made -0.1982
-1.7002 enter about -0.1812
-1.7864 enter apostrophe -0.2001
-1.5442 enter april -0.0997
-1.7864 enter area -0.1976
-0.9823 enter at -0.1394
-1.7864 enter did -0.1905
-1.5442 enter down -0.1990
-1.7864 enter eight -0.2006
-1.5442 enter eighteenth -0.1874
-1.7864 enter enter -0.1910
-1.5442 enter fifteen -0.1900
-1.7864 enter fifteenth -0.1877
-1.7864 enter fifth -0.1997
-1.7864 enter first -0.2000
-0.8361 enter fourth -0.1210
-1.5442 enter go 0.0686
-1.5442 enter h -0.1712
-1.7864 enter has -0.1890
-1.7002 enter help -0.1845
-1.7864 enter it -0.2007
-1.5442 enter little -0.1965
-1.5442 enter long -0.1928
-1.7864 enter look -0.1952
-1.7864 enter m -0.1928
-1.5442 enter man -0.1548
-0.4062 erase could 0.2989
-0.4062 erase k 0.2989
-0.5823 f january -0.0367
-0.5823 f k 0.2989
-0.5823 f lane -0.1566
-0.4062 february but 0.4638
-0.4062 february lane -0.1880
-0.8037 fifteen a -0.1328
-1.1461 fifteen about -0.4423
-1.9503 fifteen april -0.1956
-1.9503 fifteen area -0.1535
-0.9420 fifteen at 0.0450
-1.9503 fifteen august -0.1742
-1.9503 fifteen been -0.1802
-1.7080 fifteen called -0.1889
-1.7080 fifteen eighteenth -0.1269
-1.2430 fifteen eleventh -0.1740
-1.7080 fifteen enter -0.1836
-1.9503 fifteen fifteen -0.1987
-1.7080 fifteen fifteenth -0.1005
-1.9503 fifteen fifth -0.1997
-1.9503 fifteen five 0.0494
-1.9503 fifteen forty -0.1395
-1.9503 fifteen fourth -0.2014
-1.9503 fifteen had -0.1606
-1.7080 fifteen has -0.1492
-1.7080 fifteen how -0.1712
-1.8641 fifteen it -0.1504
-1.9503 fifteen just -0.2010
-1.9503 fifteen lane -0.1440
-1.7080 fifteen like -0.1820
-1.7080 fifteen little -0.1957
-1.9503 fifteen long -0.1982
-1.2430 fifteen look -0.1236
-1.7080 fifteen m -0.1647
-1.7080 fifteen made -0.1313
-1.7080 fifteen man -0.1805
-1.0291 fifteenth a -0.0525
-0.9969 fifteenth about -0.0683
-2.2482 fifteenth april -0.1980
-1.1430 fifteenth area 0.0657
-0.6959 fifteenth at 0.0570
-2.2482 fifteenth august -0.1588
-2.1620 fifteenth called -0.1327
-2.2482 fifteenth day -0.1386
-2.1620 fifteenth eight -0.1984
-2.2482 fifteenth eighteenth -0.1916
-1.0638 fifteenth eleventh -0.1343
-2.1620 fifteenth fifteen -0.1596
-0.8877 fifteenth fifteenth -0.0903
-2.0060 fifteenth fifth -0.1409
-2.2482 fifteenth first -0.1904
-2.2482 fifteenth five -0.1876
-1.4440 fifteenth fourth 0.0974
-2.1620 fifteenth had -0.1696
-2.1620 fifteenth has -0.1352
-2.2482 fifteenth his -0.1879
-2.2482 fifteenth it -0.2007
-2.2482 fifteenth july -0.0909
-2.2482 fifteenth just -0.1869
-2.2482 fifteenth like -0.0937
-2.1620 fifteenth little -0.1717
-1.4440 fifteenth made -0.1084
-2.0060 fifteenth man -0.1805
-2.2482 fifteenth many 0.0974
-1.9683 fifth a -0.1797
-0.6272 fifth about -0.1302
-1.8123 fifth apostrophe -0.1583
-2.0546 fifth april -0.1481
-2.0546 fifth area -0.1976
-1.0463 fifth at -0.1478
-2.0546 fifth august -0.1588
-2.0546 fifth called -0.1983
-2.0546 fifth day -0.1919
-2.0546 fifth do -0.1339
-2.0546 fifth down -0.2015
-2.0546 fifth eight -0.1984
-1.8123 fifth eighteenth -0.1984
-1.1712 fifth eleventh -0.0291
-1.8123 fifth enter -0.1820
-2.0546 fifth fifteen -0.1987
-1.9683 fifth fifth -0.1500
-1.9683 fifth first -0.1742
-0.9080 fifth fourth -0.1250
-1.3473 fifth good -0.2034
-2.0546 fifth h -0.1895
-1.8123 fifth has -0.1492
-2.0546 fifth help 0.0709
-2.0546 fifth it -0.2016
-2.0546 fifth july -0.1862
-2.0546 fifth like -0.0937
-1.9683 fifth little -0.1908
-1.8123 fifth long -0.1887
-2.0546 fifth m -0.1928
-1.8123 fifth made -0.0229
-0.5823 fifty j -0.0367
-0.5823 fifty l 0.4638
-0.5823 fifty lane -0.1948
-0.5823 find for -0.1833
-0.5823 find four 0.0128
-0.5823 find lane -0.1948
-0.6429 first a -0.0858
-1.1813 first about -0.0370
-1.6207 first apostrophe 0.1066
-1.5237 first april -0.0789
-1.1088 first area -0.0638
-0.9217 first at -0.0355
-2.3279 first called -0.1465
-2.3279 first down -0.0479
-1.3196 first eight 0.1704
-2.0857 first eighteenth -0.1608
-1.1813 first eleventh -0.0860
-2.3279 first enter -0.1910
-2.3279 first fifteen -0.1509
-2.0857 first fifteenth -0.1405
-2.3279 first fifth -0.1997
-1.2685 first first 0.0515
-1.6207 first fourth -0.1176
-2.2417 first good -0.1925
-2.0857 first had -0.0539
-1.5237 first has -0.0645
-2.3279 first his -0.0275
-2.3279 first how -0.1874
-1.2685 first it -0.2074
-2.3279 first just -0.1903
-1.5237 first little -0.5135
-2.0857 first m -0.1817
-2.2417 first made -0.1819
-2.2417 first man -0.1724
-0.3551 five a 0.0548
-2.1505 five after -0.1219
-2.0643 five august -0.1427
-2.1505 five been -0.1749
-1.9083 five day -0.1129
-1.2002 five did 0.3852
-2.1505 five do -0.1339
-1.4433 five down -0.0394
-2.1505 five eleven -0.1509
-1.4433 five five -0.0590
-2.1505 five for 0.3705
-2.1505 five g 0.0128
-2.1505 five get -0.1949
-1.3464 five go -0.1391
-2.0643 five help -0.1690
-2.1505 five his -0.1339
-1.0453 five how 0.0234
-2.1505 five in -0.1732
-1.9083 five july -0.1760
-1.3464 five just -0.0215
-1.9083 five lane -0.1261
-1.3464 five like -0.0753
-2.1505 five many 0.0974
-1.3401 for day -0.2529
-1.3401 for do -0.2884
-1.4961 for his -0.3094
-0.1347 for in 0.2499
-1.5823 for lane -0.1440
-0.8629 forty august -0.0216
-0.8629 forty did -0.1834
-0.8629 forty down -0.1484
-1.1052 forty go -0.1075
-1.1052 forty help 0.0709
-0.8629 forty how -0.1186
-0.4062 four g 0.0128
-0.4062 four in -0.1732
-0.0263 fourteen a -0.0591
-1.4997 fourth a -0.1353
-1.3536 fourth about -0.1927
-2.3038 fourth all 0.4638
-1.4997 fourth apostrophe -0.2074
-2.3038 fourth april -0.1481
-1.2444 fourth area -0.1809
-2.3038 fourth at -0.1254
-2.3038 fourth august -0.0275
-2.2176 fourth called -0.1781
-2.3038 fourth did -0.0829
-2.3038 fourth do -0.1908
-2.3038 fourth down -0.0479
-2.3038 fourth eight -0.1984
-1.5966 fourth eighteenth -0.3247
-2.3038 fourth enter -0.1964
-2.0616 fourth fifteen -0.1889
-1.2956 fourth fifteenth 0.2046
-1.4205 fourth fifth -0.1258
-0.7515 fourth first -0.1001
-2.3038 fourth forty -0.1395
-1.0847 fourth fourth -0.3696
-2.0616 fourth good -0.1530
-2.3038 fourth h -0.1921
-0.9199 fourth had -0.0507
-1.4997 fourth has -0.2278
-2.3038 fourth in -0.1732
-1.4205 fourth it 0.0409
-2.3038 fourth like -0.1530
-1.1987 fourth little 0.2022
-1.2444 fourth look -0.2004
-2.3038 fourth m -0.1928
-2.0616 fourth made -0.1313
-2.3038 fourth man -0.1942
-0.5823 from december -0.0367
-0.5823 from january -0.0367
-0.5823 from lane -0.1880
-0.4062 g he -0.1294
-0.4062 g in -0.1604
-0.9938 get a -0.1547
-0.8388 get august 0.0964
-1.0607 get did -0.3036
-1.8578 get down -0.2062
-1.8578 get five 0.1323
-1.7018 get get -0.0723
-1.1399 get go 0.0942
-0.9358 get help 0.0843
-0.7597 get how 0.0011
-1.1399 get just 0.0766
-0.9358 get like -0.1366
-0.7021 go a 0.1243
-1.4882 go august 0.2178
-2.5477 go before -0.1087
-2.5477 go code -0.1113
-1.8404 go day -0.0493
-0.5732 go did -0.0786
-2.5477 go do -0.1879
-1.4882 go down -0.1921
-2.3054 go eleven 0.2101
-2.5477 go enter -0.1948
-1.4011 go five 0.1872
-2.5477 go forty -0.1395
-1.2964 go get 0.2520
-1.5974 go go 0.2213
-1.1414 go help -0.5540
-2.3054 go his -0.0989
-1.5974 go how 0.0351
-2.5477 go hundred -0.0719
-1.8404 go in -0.0842
-2.3054 go its -0.0030
-2.3054 go july -0.1914
-2.3054 go june -0.2323
-1.2964 go just -0.6823
-2.3054 go lane -0.1719
-1.0275 go like 0.3724
-1.7435 go many -0.0736
-1.3979 good about -0.0367
-2.1052 good apostrophe -0.2007
-2.1052 good april -0.1990
-1.8629 good area -0.1916
-1.8629 good at -0.1431
-2.1052 good august -0.2009
-2.1052 good called -0.1943
-2.1052 good do -0.1339
-2.1052 good down -0.0479
-2.0190 good eight -0.1370
-1.2218 good eighteenth 0.0071
-0.3279 good eleventh -1.3239
-1.3010 good fifteenth -0.2019
-1.8629 good first -0.1144
-2.1052 good forty -0.1681
-1.2218 good fourth -0.0445
-2.0190 good had -0.3597
-1.3979 good has -0.0877
-2.1052 good her -0.0644
-2.0190 good it -0.1480
-2.1052 good just -0.1589
-2.0190 good little -0.1691
-2.1052 good made -0.1970
-1.5823 h april -0.1990
-1.4961 h area -0.1855
-1.3401 h at -0.1833
-1.5823 h called -0.1760
-1.3401 h day -0.0275
-1.5823 h did -0.1860
-1.5823 h eight -0.2006
-1.5823 h eleventh -0.1929
-1.3401 h fifteen -0.1862
-1.4961 h first -0.1943
-1.5823 h go -0.1075
-1.5823 h good -0.2002
-1.4961 h h -0.1560
-1.5823 h how -0.1846
-1.3401 h it -0.2003
-1.5823 h like -0.1834
-1.5823 h little -0.1828
-1.5823 h look -0.1952
-1.5823 h made -0.1942
-1.5823 h man -0.1959
-1.3069 had a -0.1175
-1.2344 had about -0.0734
-1.7462 had apostrophe 0.0949
-2.2112 had april -0.2071
-1.3941 had area -0.2095
-0.9681 had at -0.0479
-2.2112 had called -0.1149
-0.6323 had eight -0.7405
-2.4535 had eighteenth -0.2013
-1.0696 had eleventh -0.2119
-1.3069 had fifteen -0.0790
-1.3941 had fifteenth -0.0565
-1.5702 had first 0.0032
-1.0261 had fourth -0.0114
-2.4535 had go -0.1608
-2.4535 had h -0.1921
-1.5032 had had -0.1130
-1.7462 had has -0.2483
-2.4535 had help -0.2007
-2.4535 had in -0.1473
-1.5032 had it -0.2213
-2.4535 had july -0.0909
-2.2112 had little -0.1744
-2.2112 had long -0.1928
-2.2112 had look -0.1401
-1.4452 had made -0.1207
-2.2112 had man -0.1805
-0.0248 half a -0.0628
-1.8760 hall about -0.1824
-1.7898 hall april -0.0908
-1.8760 hall area -0.1976
-1.6338 hall at -0.1995
-1.1688 hall called -0.1457
-1.6338 hall eight -0.1954
-1.7898 hall eighteenth -0.1235
-1.6338 hall eleventh -0.0432
-1.7898 hall enter -0.1761
-1.8760 hall fifteenth -0.1712
-1.7898 hall fifth -0.1881
-1.0719 hall first -0.1935
-1.1688 hall fourth -0.1841
-1.6338 hall good -0.1703
-1.6338 hall h -0.1749
-1.7898 hall had -0.1355
-1.8760 hall has -0.1890
-1.7898 hall it -0.1982
-1.0719 hall little -0.2086
-1.6338 hall long 0.0974
-1.6338 hall look -0.1929
-1.8760 hall m -0.1846
-1.8760 hall made -0.1982
-1.7898 hall man -0.1724
-0.9485 has a -0.2062
-2.0419 has about -0.1714
-0.5069 has apostrophe -1.5925
-2.2842 has april -0.1610
-1.2759 has at 0.0023
-2.0419 has called -0.1930
-1.4800 has eighteenth -0.1097
-2.2842 has eleventh -0.2011
-2.2842 has enter -0.1948
-1.4008 has fifteen -0.0907
-2.0419 has fifteenth -0.1021
-2.1979 has fifth -0.1109
-2.2842 has first -0.1931
-1.0998 has fourth -0.6364
-2.0419 has go -0.0657
-1.4800 has good -0.1839
-2.1979 has has -0.1862
-2.2842 has help -0.2007
-0.9485 has it -0.5092
-2.2842 has july -0.1219
-2.1979 has little -0.1925
-2.1979 has long -0.0715
-1.5769 has look -0.0094
-2.2842 has m -0.1846
-2.0419 has man -0.1864
-2.2842 has many 0.0974
-0.1640 have for 0.2700
-0.8042 he could 0.2989
-0.8042 he december -0.0367
-0.8042 he for 0.3705
-0.8042 he if 0.4638
-0.8042 he lane -0.1948
-0.3293 help a 0.0085
-1.2522 help august 0.0650
-2.2605 help code -0.1294
-2.2605 help day -0.1524
-1.4564 help did 0.0349
-2.1743 help do -0.1798
-1.5533 help down 0.0347
-2.0183 help e -0.1101
-2.2605 help eleven -0.1742
-2.2605 help find -0.0719
-1.3772 help five -0.1720
-1.3772 help get 0.1729
-1.4564 help go -0.0329
-2.1743 help help 0.0362
-2.2605 help her -0.0644
-2.2605 help his -0.1339
-1.5533 help how 0.0194
-2.1743 help in -0.0504
-2.0183 help its -0.0030
-2.0183 help july -0.1225
-2.2605 help june -0.1640
-1.5533 help just 0.0629
-2.1743 help lane -0.2111
-1.3772 help like 0.2403
-2.1743 help many 0.0568
-0.5619 her a -0.1331
-0.5619 her day -0.1190
-0.8042 her july -0.1862
-0.1052 him for 0.3705
-0.7324 his a -0.1157
-1.5365 his august -0.0275
-1.5365 his did -0.0829
-1.4503 his five -0.0053
-0.4771 his go -0.8581
-1.4503 his help 0.0121
-1.5365 his how -0.2015
-0.8293 his like -0.5807
-0.4590 how a 0.2294
-0.8169 how august 0.0002
-2.3200 how been -0.1802
-1.4367 how did -0.1021
-2.3200 how do -0.1339
-1.1735 how down 0.0136
-2.3200 how eleven -0.1742
-1.4367 how five -0.1164
-1.4367 how get 0.1893
-1.3118 how go 0.2048
-1.4367 how help 0.1392
-2.3200 how her -0.1294
-1.2148 how how 0.2339
-2.3200 how hundred 0.0616
-2.0778 how in -0.0504
-2.0778 how july -0.0745
-2.3200 how june -0.1318
-1.2606 how just 0.1795
-2.3200 how know -0.1640
-2.3200 how lane -0.1440
-1.3697 how like 0.1502
-2.3200 how many -0.1919
-0.5823 hundred do -0.1879
-0.3401 hundred in -0.0504
-0.1052 i for 0.3705
-0.1052 if for 0.3705
-1.0241 in a -0.1845
-1.1703 in august -0.1807
-1.9744 in day -0.1524
-1.1703 in did -0.2361
-1.0911 in down -0.1686
-0.6931 in five -0.9232
-0.9150 in go -0.8581
-0.8278 in help -0.9625
-1.8882 in how -0.2129
-1.0241 in just -0.2376
-1.1703 in like -0.4283
-0.0378 into a -0.1722
-0.0263 is a -0.1633
-1.1097 it a -0.3328
-2.1768 it about -0.1366
-2.4190 it apostrophe -0.2007
-2.3328 it area -0.1421
-0.9714 it at 0.1216
-2.4190 it been -0.1802
-2.1768 it called -0.1906
-2.4190 it day -0.1867
-2.4190 it down -0.1418
-2.3328 it eight -0.1878
-1.0834 it eighteenth -0.1282
-1.6149 it eleventh -0.1818
-2.4190 it enter -0.1964
-2.1768 it fifteen -0.1862
-2.3328 it fifteenth -0.1671
-2.1768 it fifth -0.1872
-2.4190 it first -0.1482
-1.5357 it fourth -0.0556
-2.4190 it good -0.2002
-2.1768 it h -0.1776
-1.6149 it had -0.4614
-0.6511 it has -1.7004
-2.4190 it his -0.1879
-2.4190 it in -0.1604
-0.5735 it it -0.8145
-2.4190 it long -0.1378
-2.4190 it look -0.1988
-1.7118 it man -0.6502
-0.3010 its a -0.0754
-1.2513 its go -0.1973
-1.2513 its his -0.0275
-1.2513 its in -0.1052
-1.2513 its its 0.0974
-1.2513 its july -0.0909
-1.2513 its know -0.1640
-1.2513 its lane -0.1440
-0.4961 j for 0.3510
-0.4961 january for 0.1757
-0.8451 july a -0.1711
-1.5630 july august -0.0877
-0.7659 july did -0.2026
-1.4070 july five -0.0511
-0.6410 july go -0.2390
-1.4070 july help -0.0295
-1.4070 july how -0.1186
-1.6493 july in -0.1732
-1.4070 july just -0.1247
-0.9420 july like -0.2290
-0.8172 june a -0.1596
-0.8172 june august -0.3013
-1.0594 june did -0.2006
-1.0594 june five -0.1982
-1.0594 june go -0.2014
-1.0594 june help -0.2012
-1.0594 june just -0.2010
-0.4706 just a -0.0002
-1.3457 just august -0.2126
-2.2290 just been -0.0275
-2.2290 just before -0.1087
-1.2788 just did 0.2972
-1.9868 just do -0.1155
-1.3457 just down 0.0771
-2.2290 just e -0.1547
-2.2290 just eleven 0.0974
-1.5218 just five 0.0868
-1.4249 just get 0.0907
-1.3457 just go 0.1909
-1.4249 just help -0.1793
-2.2290 just her -0.0644
-1.9868 just his 0.1138
-1.3457 just how 0.2479
-1.5218 just in -0.1299
-2.2290 just july -0.1862
-1.2208 just just 0.0948
-2.2290 just know -0.1640
-2.1428 just lane -0.0539
-1.0099 just like -0.1309
-1.5218 just many 0.2789
-0.1640 k for 0.2700
-1.0594 know a -0.1636
-1.0594 know day -0.1244
-1.0594 know down -0.2000
-1.0594 know five -0.2005
-1.0594 know for 0.3705
-1.0594 know in -0.1337
-1.0594 know its -0.1785
-0.8172 know lane -0.1768
-0.1052 l for -0.1895
-1.4540 lane a -0.1576
-0.8921 lane august -0.0959
-1.6962 lane d 0.0128
-1.6962 lane december -0.0367
-1.6962 lane did -0.0829
-1.6100 lane down -0.1801
-1.6962 lane each 0.4638
-0.9890 lane five 0.0174
-1.4540 lane go -0.0996
-1.4540 lane have 0.1984
-1.4540 lane help 0.0764
-1.6962 lane him 0.4638
-0.8921 lane how -0.1154
-1.4540 lane j -0.1371
-0.8921 lane just -0.3406
-1.4540 lane like -0.0908
-0.6508 like a 0.2666
-1.3424 like august 0.0508
-2.5268 like been -0.1749
-2.5268 like code -0.1294
-2.5268 like day -0.1867
-1.3424 like did 0.3642
-1.1663 like down -0.5229
-2.5268 like e -0.1547
-2.5268 like eleven 0.0974
-1.5185 like five 0.1914
-1.3802 like get 0.3763
-0.7314 like go 0.1755
-1.3802 like help 0.1740
-1.0414 like how -0.4819
-2.5268 like in -0.1604
-2.5268 like its 0.0974
-2.4406 like july -0.1326
-2.5268 like june -0.1640
-1.3424 like just 0.0633
-2.2845 like lane -0.1316
-0.9592 like like 0.5283
-1.6435 like many 0.2016
-2.1346 little a -0.1744
-1.8923 little about -0.1068
-2.1346 little apostrophe -0.2007
-2.1346 little april -0.1481
-2.1346 little area -0.1815
-1.3304 little at -0.4450
-2.1346 little been -0.0275
-1.8923 little called -0.1918
-1.8923 little did 0.1724
-2.0483 little down -0.1556
-2.0483 little eight -0.1114
-2.1346 little eleventh -0.2011
-1.8923 little enter -0.1267
-2.1346 little fifteen -0.1509
-2.0483 little fifteenth -0.1931
-2.0483 little fifth -0.1631
-2.0483 little first -0.1422
-2.1346 little fourth -0.1752
-2.1346 little go -0.1973
-2.1346 little h -0.1921
-0.2970 little had -0.8293
-1.2512 little has -0.1831
-2.1346 little help -0.1913
-1.4273 little it -0.1490
-2.1346 little just -0.0242
-2.1346 little like -0.1729
-2.1346 little m -0.1928
-2.1346 little made -0.1982
-0.8519 long about 0.0353
-1.9114 long april -0.1956
-0.4445 long at -0.5831
-1.9114 long called -0.1688
-1.9114 long day -0.1524
-0.9611 long eleventh -0.1163
-1.6691 long fifteen -0.1191
-1.9114 long fifteenth -0.2011
-1.6691 long fifth -0.1950
-1.9114 long first -0.2011
-1.9114 long five 0.0494
-1.9114 long fourth -0.1663
-1.9114 long good -0.1976
-1.6691 long h -0.2900
-1.9114 long had -0.2009
-1.9114 long has -0.1996
-1.6691 long help -0.0295
-1.9114 long july -0.1366
-1.9114 long look -0.1456
-1.9114 long m -0.1846
-1.8251 long made -0.1777
-1.9114 long man -0.1959
-1.0122 look a -0.1882
-0.9031 look about -0.1652
-1.7203 look apostrophe 0.0549
-1.9625 look april -0.1990
-1.9625 look area -0.1994
-1.2553 look at -0.1851
-1.7203 look august -0.1280
-1.7203 look called -0.1889
-1.9625 look did -0.1927
-1.9625 look e -0.1640
-1.9625 look eight -0.1682
-1.7203 look eighteenth -0.1601
-1.0122 look eleventh -0.1276
-1.8763 look fifteenth -0.1578
-1.1584 look first -0.0822
-0.9031 look fourth -0.6494
-1.9625 look good -0.2002
-1.9625 look h -0.1921
-1.9625 look had -0.1649
-1.9625 look it -0.1662
-1.9625 look lane -0.1440
-1.7203 look like -0.2007
-1.9625 look look -0.1952
-1.9625 look m -0.1928
-1.8763 look made -0.1521
-1.8763 look man -0.1443
-1.6103 m apostrophe -0.2001
-1.3681 m april -0.1899
-1.6103 m at -0.1912
-1.6103 m august -0.1862
-1.6103 m called -0.1465
-1.6103 m did -0.2006
-1.6103 m down -0.2011
-1.6103 m eight -0.1723
-1.6103 m eighteenth -0.1916
-1.6103 m eleventh -0.2015
-1.6103 m fifteen -0.1987
-1.6103 m fifteenth -0.2011
-1.6103 m first -0.2015
-1.6103 m five 0.0494
-1.6103 m good 0.0721
-1.6103 m had -0.2009
-1.3681 m has -0.1990
-1.6103 m his -0.1339
-1.6103 m just -0.1903
-1.3681 m like -0.1715
-1.6103 m long -0.1533
-1.6103 m look -0.1988
-1.3681 m m -0.1733
-1.3681 m made -0.1887
-1.6103 m man -0.1942
-1.3681 m many -0.0030
-0.4840 made a -0.0662
-1.9114 made about -0.1758
-1.6691 made apostrophe -0.1148
-1.8251 made area -0.1547
-1.9114 made at -0.1458
-1.6691 made august -0.1556
-1.6691 made called -0.1661
-1.9114 made eight -0.1882
-1.8251 made eighteenth -0.1583
-1.9114 made enter -0.1351
-1.1072 made fifteenth 0.1333
-1.9114 made fifth -0.1968
-1.6691 made first -0.1453
-1.9114 made fourth -0.1479
-1.6691 made go -0.0854
-1.9114 made good -0.1813
-1.9114 made h -0.1833
-1.9114 made had -0.1957
-1.9114 made help -0.1850
-1.9114 made it -0.2016
-1.9114 made its -0.1785
-1.9114 made just -0.1903
-1.6691 made little -0.1972
-1.6691 made long -0.1268
-1.6691 made look -0.1389
-1.9114 made made -0.1942
-1.6691 made man -0.1864
-0.0202 make a -0.1106
-1.0512 man a -0.1447
-1.0512 man about -0.1891
-1.7584 man april -0.1956
-1.7584 man area -0.2002
-1.6722 man at -0.2102
-1.7584 man august -0.1862
-1.7584 man called -0.1943
-1.7584 man eight -0.1984
-1.7584 man eighteenth -0.2013
-1.6722 man eleventh -0.1230
-1.7584 man fifteen -0.1780
-1.7584 man fifteenth -0.2011
-1.6722 man five 0.1373
-1.7584 man forty -0.1395
-1.6722 man fourth -0.1823
-1.5161 man had -0.3014
-1.7584 man help -0.2012
-1.7584 man how -0.1318
-1.5161 man in -0.2057
-1.7584 man it -0.2019
-1.7584 man lane -0.1440
-1.7584 man like -0.0937
-1.7584 man little -0.1980
-1.7584 man look -0.1952
-1.5161 man m -0.1733
-1.5161 man made -0.1928
-1.7584 man man -0.1901
-0.3010 many a 0.0349
-1.6615 many august -0.1773
-1.6615 many did -0.1905
-1.4192 many down -0.1170
-1.5753 many go -0.1177
-1.4192 many help 0.1067
-0.7782 many how 0.0216
-1.4192 many like -0.0698
-1.6615 many many -0.1244

\3-grams:
-1.6030 a about about 
-1.1731 a about eight 
-0.9206 a about fifteenth 
-0.9206 a about fifth 
-1.6030 a about had 
-1.1731 a about has 
-1.6030 a about it 
-1.6030 a about long 
-1.6030 a about made 
-0.4269 a an january 
-0.4269 a and are 
-1.0289 a any i 
-0.3465 a any lane 
-1.4442 a apostrophe about 
-0.8378 a apostrophe at 
-1.8740 a apostrophe enter 
-1.8740 a apostrophe fifteenth 
-1.4442 a apostrophe fourth 
-0.4472 a apostrophe had 
-1.8740 a apostrophe help 
-1.1916 a apostrophe little 
-1.8740 a apostrophe long 
-1.8740 a apostrophe made 
-0.9749 a april about 
-0.9749 a april at 
-0.9749 a april eighteenth 
-1.6573 a april eleventh 
-1.2274 a april fifteenth 
-1.6573 a april fifth 
-1.2274 a april fourth 
-1.6573 a april had 
-1.6573 a april man 
-0.5762 a area about 
-1.5061 a area at 
-0.5762 a area fourth 
-1.5061 a area had 
-1.5061 a area has 
-1.5061 a area made 
-0.4269 a as back 
-0.7287 a at about 
-1.6030 a at area 
-1.6030 a at called 
-1.1731 a at fifteenth 
-1.6030 a at fifth 
-0.9206 a at had 
-1.6030 a at look 
-1.6030 a at man 
-0.9001 a august august 
-1.3300 a august did 
-1.3300 a august do 
-1.3300 a august down 
-1.3300 a august e 
-1.3300 a august get 
-1.3300 a august like 
-0.4269 a b can 
-0.7279 a before five 
-0.7279 a before her 
-1.0212 a by august 
-2.3511 a by been 
-2.3511 a by code 
-1.4769 a by day 
-1.3149 a by did 
-1.6687 a by do 
-1.3149 a by down 
-2.3511 a by e 
-1.4213 a by five 
-1.6687 a by forty 
-1.4213 a by go 
-0.9700 a by help 
-1.4213 a by his 
-1.0212 a by how 
-1.0212 a by in 
-1.6687 a by july 
-1.9213 a by just 
-2.3511 a by lane 
-1.3149 a by like 
-2.3511 a by many 
-1.9454 a c about 
-1.9454 a c apostrophe 
-1.5155 a c april 
-1.5155 a c at 
-1.9454 a c called 
-1.5155 a c eight 
-1.5155 a c eleventh 
-1.5155 a c enter 
-1.9454 a c fifteen 
-1.9454 a c fifth 
-1.9454 a c first 
-1.2630 a c fourth 
-1.5155 a c h 
-1.9454 a c had 
-1.5155 a c has 
-1.9454 a c it 
-1.2630 a c long 
-1.5155 a c look 
-1.9454 a c m 
-1.9454 a c made 
-1.9454 a c man 
-1.6030 a called about 
-0.6731 a called at 
-0.7287 a called eleventh 
-1.6030 a called fifteen 
-1.6030 a called fourth 
-1.1731 a called had 
-1.6030 a called made 
-0.4269 a can be 
-1.3300 a day august 
-0.9001 a day go 
-1.3300 a day help 
-0.6475 a day how 
-1.3300 a day just 
-1.6310 a did did 
-0.9486 a did go 
-0.9486 a did how 
-1.6310 a did hundred 
-1.6310 a did it 
-1.6310 a did its 
-1.6310 a did lane 
-0.7568 a did like 
-0.4269 a do just 
-1.4884 a down august 
-1.9182 a down did 
-1.0440 a down down 
-1.4884 a down get 
-0.4122 a down go 
-1.4884 a down help 
-1.9182 a down lane 
-0.8820 a down like 
-0.4269 a e e 
-1.1731 a eight about 
-1.6030 a eight april 
-1.6030 a eight at 
-0.9206 a eight eleventh 
-0.9206 a eight fifteenth 
-1.6030 a eight fourth 
-1.1731 a eight had 
-1.6030 a eight like 
-1.6030 a eight look 
-0.0414 a eighteen a 
-0.7831 a eighteenth about 
-1.6573 a eighteenth apostrophe 
-1.2274 a eighteenth eleventh 
-1.6573 a eighteenth fifteen 
-0.7831 a eighteenth fourth 
-1.6573 a eighteenth good 
-1.6573 a eighteenth h 
-1.6573 a eighteenth man 
-0.0348 a eighty a 
-1.0289 a eleventh area 
-1.0289 a eleventh good 
-1.0289 a eleventh it 
-1.0289 a eleventh long 
-1.2757 a enter about 
-1.7056 a enter april 
-0.8314 a enter at 
-1.7056 a enter down 
-1.7056 a enter eighteenth 
-0.8314 a enter fourth 
-1.7056 a enter has 
-1.7056 a enter little 
-1.7056 a enter long 
-1.7056 a enter man 
-0.7279 a erase could 
-0.7279 a erase k 
-0.9040 a f january 
-0.9040 a f k 
-0.9040 a f lane 
-0.7279 a february but 
-0.7279 a february lane 
-0.6475 a fifteen about 
-0.9001 a fifteen at 
-1.3300 a fifteen fifteenth 
-1.3300 a fifteen little 
-1.3300 a fifteen look 
-1.5061 a fifteenth about 
-1.0762 a fifteenth at 
-1.0762 a fifteenth eleventh 
-1.0762 a fifteenth fourth 
-1.0762 a fifteenth had 
-1.0762 a fifteenth little 
-1.5061 a fifteenth man 
-0.3310 a fifth about 
-1.9040 a fifth april 
-1.4741 a fifth at 
-1.9040 a fifth called 
-1.9040 a fifth eight 
-1.2216 a fifth eleventh 
-1.9040 a fifth fifth 
-0.6320 a fifth fourth 
-0.9040 a fifty j 
-0.9040 a fifty l 
-0.9040 a fifty lane 
-0.7279 a find four 
-0.7279 a find lane 
-1.5408 a first about 
-0.5046 a first at 
-1.5408 a first eight 
-1.5408 a first eighteenth 
-1.5408 a first eleventh 
-1.5408 a first fifteenth 
-1.5408 a first first 
-1.5408 a first fourth 
-1.2050 a five down 
-1.2050 a five go 
-1.2050 a five july 
-1.2050 a five just 
-1.2050 a five lane 
-1.2050 a five like 
-0.4269 a four g 
-0.0263 a fourteen a 
-0.6987 a fourth about 
-1.3811 a fourth all 
-0.6987 a fourth fifteenth 
-1.3811 a fourth had 
-1.3811 a fourth little 
-0.9040 a from december 
-0.9040 a from january 
-0.9040 a from lane 
-0.9040 a get help 
-0.4741 a get how 
-2.3859 a go before 
-2.3859 a go day 
-0.1737 a go did 
-1.9560 a go down 
-2.3859 a go eleven 
-1.9560 a go five 
-1.4560 a go get 
-1.9560 a go help 
-2.3859 a go how 
-2.3859 a go hundred 
-1.9560 a go its 
-2.3859 a go july 
-1.9560 a go june 
-2.3859 a go just 
-1.9560 a go lane 
-1.5117 a go like 
-1.9560 a go many 
-1.7894 a good about 
-1.5369 a good eight 
-1.7894 a good eighteenth 
-0.1296 a good eleventh 
-1.2894 a good fourth 
-2.2193 a good had 
-1.7894 a good it 
-1.7894 a good little 
-0.7279 a h april 
-0.7279 a h at 
-1.5408 a had about 
-1.5408 a had at 
-1.5408 a had eight 
-1.5408 a had eighteenth 
-1.1109 a had eleventh 
-0.6666 a had fourth 
-1.5408 a had h 
-1.5408 a had little 
-0.0248 a half a 
-2.1977 a hall about 
-1.5153 a hall april 
-2.1977 a hall area 
-1.7678 a hall at 
-1.2678 a hall called 
-1.7678 a hall eight 
-1.5153 a hall eighteenth 
-1.7678 a hall eleventh 
-1.5153 a hall enter 
-2.1977 a hall fifteenth 
-1.5153 a hall fifth 
-1.3235 a hall first 
-1.2678 a hall fourth 
-1.7678 a hall good 
-1.7678 a hall h 
-1.5153 a hall had 
-2.1977 a hall has 
-1.5153 a hall it 
-1.3235 a hall little 
-1.7678 a hall long 
-1.7678 a hall look 
-2.1977 a hall m 
-2.1977 a hall made 
-1.5153 a hall man 
-1.4741 a has about 
-1.9040 a has april 
-1.2216 a has at 
-1.9040 a has called 
-1.4741 a has eighteenth 
-1.9040 a has fifteen 
-1.9040 a has fifteenth 
-1.9040 a has fifth 
-1.9040 a has first 
-1.9040 a has fourth 
-1.4741 a has good 
-0.5740 a has it 
-1.2216 a has little 
-1.4741 a has look 
-1.9040 a has man 
-1.0289 a he could 
-1.0289 a he december 
-1.0289 a he if 
-1.0289 a he lane 
-1.4683 a help code 
-1.4683 a help day 
-1.4683 a help down 
-1.4683 a help e 
-1.4683 a help find 
-1.4683 a help five 
-1.4683 a help her 
-1.4683 a help july 
-1.0384 a help just 
-1.4683 a help lane 
-0.8537 a how august 
-1.7279 a how did 
-1.7279 a how down 
-1.7279 a how her 
-0.7980 a how how 
-1.7279 a how hundred 
-1.7279 a how july 
-1.0455 a how just 
-1.7279 a how lane 
-1.7279 a how like 
-1.7279 a how many 
-0.7279 a in help 
-0.7279 a in just 
-0.0378 a into a 
-0.0263 a is a 
-1.0762 a it about 
-1.5061 a it at 
-0.8236 a it eighteenth 
-1.0762 a it eleventh 
-1.5061 a it fourth 
-1.0762 a it had 
-1.5061 a it long 
-1.1258 a its go 
-1.1258 a its his 
-1.1258 a its july 
-1.1258 a its know 
-1.1258 a its lane 
-1.0289 a july a 
-1.0289 a july go 
-1.0289 a july just 
-1.0289 a july like 
-1.6310 a just before 
-1.2011 a just down 
-1.6310 a just e 
-0.9486 a just get 
-1.6310 a just go 
-1.6310 a just his 
-1.2011 a just how 
-1.6310 a just know 
-1.2011 a just lane 
-1.2011 a just like 
-1.2050 a know down 
-1.2050 a know five 
-1.2050 a know for 
-1.2050 a know its 
-0.7751 a know lane 
-0.4269 a lane like 
-1.8071 a like code 
-1.8071 a like did 
-1.3772 a like down 
-1.8071 a like five 
-1.3772 a like get 
-1.3772 a like go 
-1.3772 a like help 
-0.3802 a like how 
-1.8071 a like its 
-1.8071 a like lane 
-1.8071 a like like 
-0.7279 a little fifth 
-0.7279 a little has 
-0.8236 a long about 
-0.5762 a long at 
-1.5061 a long called 
-1.5061 a long fifteen 
-1.5061 a long fifteenth 
-1.5061 a long h 
-1.5061 a long look 
-0.4970 a look about 
-1.4269 a look april 
-1.4269 a look at 
-1.4269 a look eighteenth 
-0.9970 a look eleventh 
-1.4269 a look had 
-1.1258 a m at 
-1.1258 a m eight 
-1.1258 a m eighteenth 
-1.1258 a m eleventh 
-1.1258 a m man 
-0.9040 a made area 
-0.9040 a made called 
-0.9040 a made look 
-0.0202 a make a 
-1.0289 a man april 
-1.0289 a man at 
-1.0289 a man august 
-1.0289 a man eleventh 
-1.6030 about a apostrophe 
-1.6030 about a called 
-1.6030 about a day 
-1.6030 about a did 
-0.2730 about a go 
-1.6030 about a good 
-1.6030 about a just 
-1.6030 about a lane 
-1.0289 about about eleventh 
-1.0289 about about fifth 
-1.0289 about about first 
-1.0289 about about forty 
-0.7279 about apostrophe eighteenth 
-0.7279 about apostrophe look 
-1.0762 about april about 
-1.0762 about april at 
-1.5061 about april called 
-1.5061 about april did 
-1.0762 about april fifteen 
-1.0762 about april fourth 
-1.5061 about april little 
-1.5061 about april made 
-0.7445 about area a 
-1.4269 about area area 
-1.4269 about area at 
-1.4269 about area called 
-1.4269 about area eighteenth 
-1.4269 about area fourth 
-0.9970 about area had 
-0.4741 about at fifteenth 
-0.9040 about at just 
-0.7279 about called fifteen 
-0.7279 about called it 
-1.0289 about eight fifteen 
-0.5991 about eight fifteenth 
-1.0289 about eight like 
-1.0289 about eighteenth day 
-1.0289 about eighteenth fifteenth 
-0.5991 about eighteenth fourth 
-0.2980 about eighth a 
-0.9040 about eleventh code 
-0.9040 about eleventh fifteenth 
-0.9040 about eleventh h 
-0.4269 about enter help 
-0.9040 about fifteen area 
-0.9040 about fifteen forty 
-0.9040 about fifteen fourth 
-1.1431 about fifteenth area 
-0.6431 about fifteenth at 
-1.5730 about fifteenth eighteenth 
-1.5730 about fifteenth eleventh 
-1.1431 about fifteenth fifteenth 
-1.5730 about fifteenth fifth 
-1.5730 about fifteenth it 
-1.5730 about fifteenth little 
-1.5730 about fifteenth man 
-1.1109 about fifth at 
-1.5408 about fifth enter 
-0.8584 about fifth good 
-1.1109 about fifth has 
-1.5408 about fifth help 
-1.5408 about fifth july 
-1.5408 about fifth like 
-1.5408 about fifth m 
-1.5408 about fifth made 
-0.5528 about first a 
-1.8248 about first apostrophe 
-1.8248 about first april 
-0.9506 about first area 
-0.8949 about first at 
-1.8248 about first eight 
-1.8248 about first eleventh 
-1.8248 about first first 
-1.3949 about first it 
-1.8248 about first little 
-1.8248 about first man 
-0.4269 about forty down 
-0.9040 about good about 
-0.9040 about good fifteenth 
-0.9040 about good her 
-2.0397 about had a 
-1.6098 about had about 
-2.0397 about had apostrophe 
-1.1654 about had area 
-1.1098 about had at 
-1.3572 about had eight 
-1.1654 about had fifteen 
-1.1654 about had fifteenth 
-1.3572 about had first 
-2.0397 about had fourth 
-1.1098 about had had 
-2.0397 about had has 
-1.3572 about had it 
-1.3572 about had made 
-0.9970 about has a 
-1.4269 about has apostrophe 
-1.4269 about has fourth 
-1.4269 about has good 
-0.5526 about has it 
-0.9040 about how a 
-0.9040 about how down 
-0.9040 about how eleven 
-1.4269 about it a 
-0.9970 about it at 
-0.9970 about it eighteenth 
-0.5526 about it it 
-0.4269 about like a 
-0.7279 about little fifteenth 
-0.7279 about little like 
-0.2341 about long at 
-0.8236 about long eleventh 
-1.5061 about long fifteen 
-1.5061 about long fifth 
-0.9040 about look a 
-0.9040 about look called 
-0.9040 about look it 
-0.4269 about m m 
-1.1258 about made apostrophe 
-1.1258 about made at 
-0.6960 about made fifteenth 
-1.1258 about made first 
-0.4269 about man m 
-0.2980 after about eighth 
-0.9040 after been go 
-0.4741 after been how 
-0.4269 after day like 
-0.4269 after in how 
-0.4269 after lane just 
-0.4269 all eighteenth about 
-0.4269 an january for 
-0.4269 and are down 
-0.4269 any i for 
-0.9040 any lane each 
-0.4741 any lane have 
-1.2720 apostrophe about april 
-1.2720 apostrophe about eleventh 
-1.2720 apostrophe about fifteen 
-0.3421 apostrophe about had 
-0.4269 apostrophe apostrophe has 
-0.4269 apostrophe area fifteen 
-1.0384 apostrophe at about 
-1.4683 apostrophe at april 
-1.4683 apostrophe at at 
-1.4683 apostrophe at eight 
-1.4683 apostrophe at enter 
-0.5384 apostrophe at had 
-1.4683 apostrophe at long 
-0.4269 apostrophe august a 
-0.4269 apostrophe did a 
-0.7279 apostrophe do august 
-0.7279 apostrophe do five 
-0.4269 apostrophe eight fifteenth 
-0.4269 apostrophe eighteenth like 
-0.4269 apostrophe eleventh first 
-0.7279 apostrophe enter long 
-0.7279 apostrophe enter m 
-0.4269 apostrophe fifteen man 
-0.4269 apostrophe fifteenth about 
-0.9040 apostrophe fifth at 
-0.9040 apostrophe fifth enter 
-0.9040 apostrophe fifth first 
-0.6960 apostrophe fourth had 
-0.6960 apostrophe fourth little 
-1.1258 apostrophe fourth m 
-0.4269 apostrophe go august 
-0.4269 apostrophe good apostrophe 
-1.0384 apostrophe had about 
-1.4683 apostrophe had at 
-1.4683 apostrophe had eleventh 
-0.4321 apostrophe had fourth 
-1.4683 apostrophe had little 
-0.9040 apostrophe has a 
-0.4741 apostrophe has fourth 
-0.7279 apostrophe help august 
-0.7279 apostrophe help lane 
-0.2980 apostrophe his five 
-0.4269 apostrophe how a 
-2.1429 apostrophe little april 
-0.0084 apostrophe little had 
-0.4269 apostrophe long eleventh 
-0.4269 apostrophe look like 
-0.9040 apostrophe m five 
-0.9040 apostrophe m had 
-0.9040 apostrophe m just 
-0.4269 apostrophe made long 
-0.4269 apostrophe man how 
-0.7279 april a apostrophe 
-0.7279 april a day 
-0.8421 april about a 
-0.8421 april about fifteenth 
-0.8421 april about had 
-1.2720 april about long 
-0.7279 april apostrophe at 
-0.7279 april apostrophe enter 
-0.4269 april april eighteenth 
-0.4269 april area fourth 
-0.5896 april at a 
-1.2720 april at fifteenth 
-0.8421 april at first 
-1.2720 april at has 
-0.4269 april called like 
-0.7279 april did five 
-0.7279 april did just 
-1.6030 april eighteenth a 
-0.5667 april eighteenth about 
-1.6030 april eighteenth at 
-1.6030 april eighteenth called 
-1.6030 april eighteenth eleventh 
-1.1731 april eighteenth had 
-1.1731 april eighteenth it 
-1.6030 april eighteenth made 
-0.4269 april eleventh first 
-0.4269 april enter fifteen 
-0.6987 april fifteen a 
-1.3811 april fifteen april 
-1.3811 april fifteen at 
-1.3811 april fifteen fifteenth 
-0.9512 april fifteen look 
-1.3811 april fifteen made 
-0.9040 april fifteenth about 
-0.9040 april fifteenth fourth 
-0.9040 april fifteenth like 
-0.4269 april fifth little 
-1.2050 april fourth fifteenth 
-0.2751 april fourth first 
-1.2050 april fourth had 
-0.4269 april had about 
-0.4269 april has help 
-0.4269 april help go 
-0.4269 april it fifteenth 
-0.2980 april july did 
-0.4269 april like a 
-0.4269 april little just 
-0.4269 april long made 
-0.7279 april look e 
-0.7279 april look first 
-0.7279 april made a 
-0.7279 april made had 
-0.9040 april man area 
-0.9040 april man it 
-0.9040 april man lane 
-0.4269 are down go 
-1.8248 area a april 
-1.8248 area a area 
-1.8248 area a at 
-1.8248 area a did 
-1.8248 area a e 
-1.8248 area a eleventh 
-1.8248 area a enter 
-1.3949 area a go 
-0.4949 area a good 
-1.3949 area a has 
-1.3949 area a in 
-1.8248 area a it 
-1.1424 area a look 
-1.0384 area about a 
-1.0384 area about fifteenth 
-1.4683 area about first 
-1.4683 area about like 
-0.5940 area about long 
-0.7279 area apostrophe about 
-0.7279 area apostrophe do 
-0.9040 area area enter 
-0.9040 area area fourth 
-0.9040 area area get 
-0.8421 area at a 
-1.2720 area at down 
-0.5896 area at had 
-1.2720 area at little 
-0.7279 area called fourth 
-0.7279 area called it 
-0.4269 area do help 
-0.4269 area eighteenth at 
-0.7279 area eleventh april 
-0.7279 area eleventh first 
-0.4269 area enter go 
-0.9040 area fifteen called 
-0.9040 area fifteen fifth 
-0.9040 area fifteen it 
-0.4269 area fifteenth at 
-0.7279 area fifth eighteenth 
-0.7279 area fifth it 
-0.4269 area first at 
-1.3811 area fourth april 
-1.3811 area fourth down 
-1.3811 area fourth fifteenth 
-1.3811 area fourth first 
-1.3811 area fourth had 
-1.3811 area fourth little 
-0.6987 area fourth look 
-0.4269 area get a 
-0.7279 area go august 
-0.7279 area go his 
-0.4269 area good fifteenth 
-0.7279 area h go 
-0.7279 area h it 
-1.3811 area had about 
-1.3811 area had eight 
-0.4512 area had eleventh 
-1.3811 area had fourth 
-1.3811 area had july 
-1.3811 area had look 
-0.7279 area has a 
-0.7279 area has fifteen 
-0.7279 area like five 
-0.7279 area like how 
-0.4269 area little eight 
-0.4269 area long help 
-0.6960 area look eleventh 
-0.6960 area look fourth 
-1.1258 area look h 
-0.4741 area made a 
-0.9040 area made fifth 
-0.4269 area man look 
-0.4269 as back for 
-1.6098 at a apostrophe 
-2.0397 at a area 
-2.0397 at a at 
-2.0397 at a day 
-1.6098 at a eight 
-1.6098 at a enter 
-2.0397 at a fifth 
-2.0397 at a five 
-2.0397 at a fourth 
-0.6585 at a go 
-0.4988 at a good 
-2.0397 at a had 
-1.6098 at a has 
-2.0397 at a help 
-2.0397 at a long 
-2.0397 at a look 
-2.0397 at a man 
-1.6573 at about a 
-1.2274 at about april 
-1.2274 at about area 
-0.9749 at about first 
-1.6573 at about had 
-0.7274 at about has 
-1.6573 at about how 
-1.6573 at about it 
-1.2274 at about long 
-0.7279 at apostrophe go 
-0.7279 at apostrophe his 
-0.7279 at april april 
-0.7279 at april eighteenth 
-1.2720 at area do 
-1.2720 at area fourth 
-1.2720 at area go 
-0.8421 at area had 
-1.2720 at area long 
-1.2720 at area look 
-1.4269 at at about 
-1.4269 at at fifteenth 
-1.4269 at at first 
-0.9970 at at good 
-1.4269 at at had 
-0.9970 at at has 
-1.4269 at at it 
-1.4269 at at just 
-0.7279 at august five 
-0.7279 at august help 
-0.9040 at called called 
-0.9040 at called had 
-0.9040 at called long 
-0.9040 at down forty 
-0.9040 at down get 
-0.9040 at down help 
-1.0289 at eight apostrophe 
-1.0289 at eight eleventh 
-1.0289 at eight fifteenth 
-1.0289 at eight his 
-0.4269 at eighteenth little 
-1.0289 at eleventh area 
-0.3465 at eleventh fifteenth 
-0.2980 at enter h 
-0.4269 at fifteen a 
-0.8951 at fifteenth a 
-1.7693 at fifteenth about 
-1.0869 at fifteenth area 
-1.3394 at fifteenth at 
-1.7693 at fifteenth eight 
-1.7693 at fifteenth eleventh 
-0.4393 at fifteenth fifteenth 
-1.7693 at fifteenth has 
-0.5991 at fifth apostrophe 
-1.0289 at fifth fourth 
-1.0289 at fifth good 
-0.4607 at first a 
-1.1594 at first area 
-1.8418 at first called 
-0.9119 at first first 
-1.8418 at first fourth 
-1.8418 at first has 
-1.1594 at first it 
-0.9119 at first little 
-0.4269 at fourth about 
-1.2050 at good april 
-0.5226 at good eighteenth 
-1.2050 at good it 
-1.2050 at good made 
-0.4269 at h day 
-0.6463 at had a 
-1.4884 at had about 
-1.9182 at had apostrophe 
-1.2358 at had at 
-1.9182 at had called 
-0.9883 at had eleventh 
-1.4884 at had fifteen 
-1.2358 at had fifteenth 
-1.9182 at had first 
-1.4884 at had fourth 
-1.9182 at had go 
-1.4884 at had has 
-1.4884 at had it 
-0.5069 at has a 
-1.3811 at has apostrophe 
-1.3811 at has called 
-1.3811 at has fifth 
-1.3811 at has good 
-0.4269 at his how 
-0.4557 at it a 
-0.6475 at it it 
-0.4269 at july did 
-0.7279 at just did 
-0.7279 at just help 
-0.4269 at like august 
-0.9040 at little enter 
-0.9040 at little fifteenth 
-0.9040 at little made 
-1.3811 at long about 
-0.1091 at long at 
-1.3811 at long five 
-0.9486 at look a 
-1.6310 at look about 
-1.6310 at look apostrophe 
-1.6310 at look at 
-1.2011 at look eleventh 
-0.7011 at look fourth 
-0.9486 at look made 
-1.6310 at look man 
-0.4269 at m m 
-0.3308 at made a 
-1.2050 at made area 
-0.7279 at man about 
-0.7279 at man little 
-2.1344 august a about 
-2.1344 august a an 
-2.1344 august a any 
-1.7046 august a apostrophe 
-2.1344 august a april 
-2.1344 august a at 
-0.8045 august a by 
-1.4520 august a c 
-2.1344 august a called 
-2.1344 august a down 
-1.7046 august a eight 
-2.1344 august a enter 
-2.1344 august a february 
-2.1344 august a fifteen 
-2.1344 august a fifteenth 
-2.1344 august a first 
-2.1344 august a five 
-1.7046 august a fourth 
-2.1344 august a h 
-1.7046 august a half 
-1.2045 august a hall 
-2.1344 august a has 
-2.1344 august a how 
-2.1344 august a is 
-2.1344 august a its 
-1.2045 august a just 
-2.1344 august a know 
-1.2045 august a like 
-2.1344 august a m 
-0.7751 august august down 
-0.7751 august august five 
-1.2050 august august help 
-1.2050 august august like 
-0.9970 august did a 
-1.4269 august did august 
-1.4269 august did did 
-1.4269 august did down 
-1.4269 august did five 
-1.4269 august did get 
-1.4269 august did go 
-0.9970 august did how 
-0.4269 august do go 
-0.7287 august down a 
-0.9206 august down down 
-1.1731 august down go 
-0.9206 august down how 
-1.1731 august down like 
-0.4269 august e in 
-0.4741 august eleven after 
-0.9040 august eleven been 
-0.6960 august five a 
-1.1258 august five five 
-0.6960 august five how 
-1.2050 august get a 
-1.2050 august get august 
-1.2050 august get five 
-1.2050 august get help 
-1.2050 august get just 
-1.2050 august get like 
-1.2720 august go a 
-0.8421 august go five 
-1.2720 august go get 
-1.2720 august go go 
-1.2720 august go help 
-1.2720 august go how 
-0.6475 august help a 
-1.3300 august help august 
-1.3300 august help did 
-1.3300 august help five 
-1.3300 august help go 
-1.3300 august help many 
-0.2980 august his go 
-0.7751 august how a 
-1.2050 august how august 
-1.2050 august how five 
-1.2050 august how go 
-1.2050 august how just 
-0.9040 august in did 
-0.9040 august in five 
-0.9040 august in go 
-0.4269 august july like 
-0.4269 august june five 
-0.8236 august just a 
-1.5061 august just august 
-1.5061 august just did 
-1.5061 august just get 
-1.0762 august just go 
-1.5061 august just just 
-1.5061 august just like 
-1.0762 august just many 
-0.7279 august lane august 
-0.7279 august lane help 
-1.3811 august like a 
-0.9512 august like august 
-0.9512 august like down 
-0.6987 august like how 
-1.3811 august like just 
-0.5991 august many a 
-1.0289 august many how 
-1.0289 august many like 
-0.4269 b can for 
-0.4269 back for do 
-0.4269 be for day 
-0.4269 been august a 
-0.4269 been d has 
-0.4269 been did a 
-0.4269 been down a 
-0.4741 been five a 
-0.9040 been five do 
-0.4269 been go a 
-0.4269 been help a 
-0.2516 been how a 
-0.4269 been just a 
-0.4269 before a fourth 
-0.4269 before five in 
-0.4269 before her day 
-0.4269 before in help 
-0.4269 but for in 
-1.3300 by august down 
-1.3300 by august go 
-1.3300 by august help 
-1.3300 by august his 
-1.3300 by august july 
-1.3300 by august lane 
-1.3300 by august like 
-1.3300 by august many 
-0.4269 by been five 
-0.4269 by code a 
-1.1258 by day did 
-0.6960 by day down 
-1.1258 by day go 
-1.1258 by day in 
-0.5226 by did a 
-1.2050 by did just 
-1.2050 by did like 
-1.2050 by did many 
-0.9040 by do go 
-0.9040 by do help 
-0.9040 by do just 
-0.7751 by down a 
-0.7751 by down day 
-1.2050 by down june 
-1.2050 by down lane 
-0.4269 by e a 
-1.0289 by five a 
-1.0289 by five august 
-1.0289 by five been 
-1.0289 by five his 
-0.9040 by forty august 
-0.9040 by forty did 
-0.9040 by forty down 
-1.0289 by go do 
-1.0289 by go five 
-1.0289 by go forty 
-1.0289 by go july 
-0.5069 by help a 
-1.3811 by help get 
-1.3811 by help help 
-1.3811 by help july 
-1.3811 by help like 
-1.0289 by his august 
-0.5991 by his go 
-1.0289 by his like 
-0.6475 by how a 
-1.3300 by how down 
-1.3300 by how get 
-1.3300 by how go 
-1.3300 by how help 
-1.3300 by how like 
-0.6475 by in a 
-1.3300 by in down 
-0.9001 by in go 
-1.3300 by in how 
-1.3300 by in like 
-0.9040 by july august 
-0.9040 by july did 
-0.9040 by july help 
-0.7279 by just a 
-0.7279 by just been 
-0.4269 by lane five 
-0.7751 by like a 
-1.2050 by like did 
-0.7751 by like get 
-1.2050 by like how 
-0.4269 by many a 
-0.4269 c about fifteenth 
-0.4269 c apostrophe fifth 
-0.7279 c april apostrophe 
-0.7279 c april fifteen 
-0.7279 c at fourth 
-0.7279 c at m 
-0.4269 c called eighteenth 
-0.7279 c eight eighteenth 
-0.7279 c eight look 
-0.7279 c eleventh eight 
-0.7279 c eleventh has 
-0.7279 c enter eight 
-0.7279 c enter first 
-0.4269 c fifteen enter 
-0.4269 c fifth made 
-0.4269 c first it 
-0.9040 c fourth enter 
-0.4741 c fourth it 
-0.7279 c h at 
-0.7279 c h fifteen 
-0.4269 c had apostrophe 
-0.7279 c has has 
-0.7279 c has long 
-0.4269 c it fifth 
-0.9040 c long had 
-0.9040 c long m 
-0.9040 c long made 
-0.7279 c look at 
-0.7279 c look called 
-0.4269 c m apostrophe 
-0.4269 c made apostrophe 
-0.4269 c man made 
-0.4269 called a down 
-0.4269 called about had 
-0.7279 called apostrophe fifth 
-0.7279 called apostrophe fourth 
-0.4269 called area look 
-1.3300 called at apostrophe 
-1.3300 called at area 
-1.3300 called at august 
-1.3300 called at eight 
-1.3300 called at eleventh 
-1.3300 called at fifteenth 
-1.3300 called at first 
-1.3300 called at had 
-0.4269 called august a 
-0.9040 called called a 
-0.9040 called called august 
-0.9040 called called had 
-0.7279 called did do 
-0.7279 called did five 
-0.4269 called eight eleventh 
-0.7279 called eighteenth apostrophe 
-0.7279 called eighteenth five 
-1.2720 called eleventh at 
-0.8421 called eleventh called 
-1.2720 called eleventh did 
-1.2720 called eleventh fifteenth 
-1.2720 called eleventh first 
-1.2720 called eleventh made 
-0.7279 called enter area 
-0.7279 called enter fifteen 
-0.7279 called fifteen about 
-0.7279 called fifteen long 
-0.7279 called fifth day 
-0.7279 called fifth h 
-1.1258 called fourth called 
-1.1258 called fourth did 
-0.4434 called fourth had 
-0.4269 called h h 
-0.6960 called had about 
-1.1258 called had eleventh 
-0.6960 called had fourth 
-0.4269 called has fourth 
-0.4269 called how been 
-0.5991 called it eighteenth 
-1.0289 called it fourth 
-1.0289 called it in 
-0.4269 called july august 
-0.4269 called lane down 
-0.4741 called like a 
-0.9040 called like did 
-0.4269 called long has 
-1.0289 called m april 
-1.0289 called m down 
-1.0289 called m made 
-1.0289 called m many 
-0.7279 called made first 
-0.7279 called made man 
-0.4269 called man man 
-0.4269 can be for 
-0.4269 can for his 
-0.9040 code a by 
-0.9040 code a fifth 
-0.9040 code a first 
-0.4269 code for his 
-0.4269 code in like 
-0.2980 could for in 
-0.4269 d for in 
-0.4269 d has it 
-0.7279 day a apostrophe 
-0.7279 day a hall 
-0.2751 day august a 
-1.2050 day august get 
-1.2050 day august june 
-0.3465 day did a 
-1.0289 day did july 
-0.2216 day down a 
-0.4269 day five a 
-0.4434 day go a 
-1.1258 day go code 
-1.1258 day go day 
-0.7279 day help a 
-0.7279 day help e 
-0.5226 day how a 
-1.2050 day how get 
-1.2050 day how in 
-1.2050 day how july 
-0.4269 day in just 
-0.7279 day just a 
-0.7279 day just do 
-0.3465 day like a 
-1.0289 day like day 
-0.2216 december for in 
-2.1171 did a about 
-1.6872 did a apostrophe 
-2.1171 did a april 
-2.1171 did a area 
-2.1171 did a at 
-0.7360 did a by 
-1.6872 did a c 
-1.4347 did a called 
-1.6872 did a did 
-2.1171 did a eight 
-2.1171 did a eighteenth 
-1.6872 did a eighty 
-2.1171 did a enter 
-2.1171 did a fifteen 
-1.6872 did a fifth 
-2.1171 did a find 
-1.6872 did a five 
-2.1171 did a four 
-2.1171 did a fourteen 
-2.1171 did a from 
-2.1171 did a good 
-2.1171 did a h 
-1.6872 did a half 
-1.6872 did a hall 
-2.1171 did a how 
-2.1171 did a july 
-2.1171 did a just 
-2.1171 did a like 
-1.4347 did a make 
-0.2751 did august a 
-1.2050 did august did 
-1.2050 did august get 
-0.7751 did did a 
-1.2050 did did august 
-1.2050 did did did 
-1.2050 did did just 
-1.2050 did did like 
-0.4269 did do did 
-0.7751 did down a 
-1.2050 did down did 
-0.7751 did down how 
-1.2050 did down like 
-0.7279 did eleven after 
-0.7279 did eleven been 
-0.4269 did fifth about 
-0.8421 did five a 
-1.2720 did five did 
-1.2720 did five go 
-1.2720 did five help 
-1.2720 did five how 
-1.2720 did five like 
-0.9001 did get a 
-1.3300 did get did 
-0.9001 did get down 
-1.3300 did get go 
-1.3300 did get help 
-1.3300 did get how 
-0.9206 did go a 
-1.6030 did go august 
-1.6030 did go did 
-0.9206 did go down 
-1.6030 did go five 
-1.6030 did go get 
-0.9206 did go go 
-1.1731 did go just 
-0.7751 did help a 
-0.7751 did help august 
-1.2050 did help get 
-1.2050 did help how 
-1.2720 did how a 
-0.8421 did how down 
-0.8421 did how go 
-1.2720 did how how 
-1.2720 did how just 
-0.4269 did hundred in 
-0.4269 did it eighteenth 
-0.4269 did its a 
-0.7279 did july a 
-0.7279 did july did 
-1.3811 did just a 
-1.3811 did just did 
-0.6987 did just down 
-0.6987 did just just 
-1.3811 did just like 
-0.4269 did lane how 
-1.3295 did like a 
-2.2594 did like august 
-2.2594 did like did 
-1.5770 did like down 
-1.3295 did like get 
-0.3010 did like go 
-1.8295 did like help 
-2.2594 did like how 
-0.9874 did like just 
-0.8783 did like like 
-1.8295 did like many 
-0.6960 did many a 
-0.6960 did many down 
-1.1258 did many how 
-0.2216 do august a 
-0.0990 do did a 
-0.2216 do down a 
-0.4741 do five a 
-0.9040 do five eleven 
-0.2980 do go a 
-0.3465 do help a 
-1.0289 do help do 
-0.4269 do how a 
-1.0289 do just a 
-1.0289 do just do 
-1.0289 do just her 
-1.0289 do just lane 
-0.2216 do like a 
-2.1258 down a any 
-2.1258 down a apostrophe 
-2.1258 down a area 
-1.6960 down a august 
-2.1258 down a before 
-1.0896 down a by 
-1.6960 down a c 
-2.1258 down a called 
-1.4434 down a down 
-2.1258 down a eighteenth 
-2.1258 down a eighty 
-1.6960 down a erase 
-2.1258 down a fifteenth 
-2.1258 down a fifty 
-1.4434 down a fourteen 
-2.1258 down a had 
-1.4434 down a half 
-1.0896 down a hall 
-1.6960 down a has 
-2.1258 down a he 
-1.4434 down a how 
-2.1258 down a into 
-1.4434 down a is 
-2.1258 down a know 
-2.1258 down a m 
-2.1258 down a man 
-0.4269 down after about 
-1.3300 down august a 
-1.3300 down august did 
-0.9001 down august down 
-1.3300 down august how 
-0.9001 down august like 
-1.3300 down august many 
-0.7279 down day go 
-0.7279 down day how 
-1.2720 down did august 
-1.2720 down did five 
-1.2720 down did get 
-0.8421 down did go 
-1.2720 down did just 
-1.2720 down did like 
-0.7279 down do five 
-0.7279 down do like 
-0.5667 down down a 
-1.6030 down down august 
-1.1731 down down down 
-1.6030 down down get 
-1.1731 down down go 
-1.1731 down down help 
-1.6030 down down just 
-1.0289 down five a 
-1.0289 down five did 
-1.0289 down five five 
-1.0289 down five many 
-0.4269 down forty go 
-1.2050 down get august 
-1.2050 down get go 
-1.2050 down get how 
-0.7751 down get just 
-1.2050 down get like 
-1.0869 down go a 
-1.7693 down go august 
-1.3394 down go get 
-1.7693 down go go 
-1.7693 down go how 
-0.2285 down go like 
-1.7693 down go many 
-0.6987 down help a 
-1.3811 down help did 
-1.3811 down help down 
-1.3811 down help in 
-1.3811 down help lane 
-0.9512 down help like 
-0.4269 down his go 
-0.9001 down how a 
-1.3300 down how did 
-1.3300 down how down 
-1.3300 down how five 
-1.3300 down how get 
-0.9001 down how help 
-0.7279 down in august 
-0.7279 down in help 
-0.4269 down july just 
-0.9040 down june august 
-0.9040 down june help 
-0.9040 down june just 
-0.6960 down just a 
-1.1258 down just august 
-1.1258 down just how 
-1.1258 down just just 
-0.7279 down lane august 
-0.7279 down lane go 
-0.9486 down like a 
-1.6310 down like five 
-0.7011 down like go 
-1.6310 down like how 
-0.3590 down like like 
-0.4269 down many a 
-0.4741 e a half 
-0.9040 e a has 
-0.4269 e about a 
-0.4269 e been did 
-0.4269 e e a 
-0.9040 e in down 
-0.9040 e in go 
-0.9040 e in help 
-0.4269 each for day 
-0.9040 eight a area 
-0.9040 eight a fifth 
-0.9040 eight a go 
-1.3811 eight about apostrophe 
-1.3811 eight about fifth 
-0.4512 eight about had 
-0.9512 eight about how 
-1.3811 eight about it 
-0.4269 eight apostrophe do 
-0.7279 eight april area 
-0.7279 eight april has 
-0.7279 eight area at 
-0.7279 eight area had 
-0.7279 eight at at 
-0.7279 eight at down 
-0.4269 eight been how 
-0.4269 eight do august 
-0.0439 eight eighteenth a 
-2.1429 eight eighteenth fifteenth 
-1.7130 eight eighteenth fourth 
-2.1429 eight eighteenth it 
-2.1429 eight eighteenth m 
-0.6475 eight eleventh apostrophe 
-1.3300 eight eleventh april 
-1.3300 eight eleventh at 
-1.3300 eight eleventh fifteen 
-1.3300 eight eleventh first 
-1.3300 eight eleventh little 
-0.7279 eight enter eighteenth 
-0.7279 eight enter look 
-0.7279 eight fifteen been 
-0.7279 eight fifteen fifteen 
-1.3811 eight fifteenth about 
-0.4512 eight fifteenth at 
-0.9512 eight fifteenth eight 
-1.3811 eight fifteenth fifteenth 
-1.3811 eight fifteenth his 
-1.0289 eight first fifth 
-1.0289 eight first first 
-1.0289 eight first fourth 
-1.0289 eight first good 
-0.7279 eight five five 
-0.7279 eight five how 
-0.4269 eight fourth it 
-0.4269 eight good area 
-0.4269 eight h made 
-0.7279 eight had at 
-0.7279 eight had fourth 
-0.4269 eight has a 
-0.4269 eight his five 
-0.4269 eight it fourth 
-0.7279 eight like been 
-0.7279 eight like eleven 
-0.4269 eight little fifteen 
-0.7279 eight long eleventh 
-0.7279 eight long help 
-0.7279 eight look area 
-0.7279 eight look first 
-1.4269 eighteen a by 
-1.4269 eighteen a eight 
-1.4269 eighteen a eighteenth 
-1.4269 eighteen a fifteenth 
-0.9970 eighteen a half 
-1.4269 eighteen a hall 
-1.4269 eighteen a m 
-0.9970 eighteen a make 
-2.1593 eighteenth a about 
-0.0603 eighteenth a go 
-1.7294 eighteenth a good 
-2.1593 eighteenth a has 
-2.1593 eighteenth a it 
-2.1593 eighteenth a like 
-2.1593 eighteenth a long 
-1.7886 eighteenth about april 
-1.7886 eighteenth about area 
-1.3587 eighteenth about at 
-1.7886 eighteenth about eighteenth 
-1.7886 eighteenth about fifth 
-1.1062 eighteenth about first 
-0.5166 eighteenth about had 
-1.7886 eighteenth about has 
-1.3587 eighteenth about long 
-1.3587 eighteenth about look 
-1.7886 eighteenth about m 
-1.7886 eighteenth about made 
-1.0289 eighteenth apostrophe about 
-1.0289 eighteenth apostrophe eight 
-1.0289 eighteenth apostrophe fifteen 
-1.0289 eighteenth apostrophe m 
-0.9001 eighteenth at about 
-1.3300 eighteenth at eleventh 
-1.3300 eighteenth at first 
-1.3300 eighteenth at h 
-1.3300 eighteenth at had 
-0.9001 eighteenth at look 
-0.9040 eighteenth called area 
-0.9040 eighteenth called at 
-0.9040 eighteenth called eleventh 
-0.4269 eighteenth day like 
-0.4269 eighteenth down a 
-0.7279 eighteenth eight good 
-0.7279 eighteenth eight long 
-0.4269 eighteenth eighteenth little 
-1.2050 eighteenth eleventh a 
-1.2050 eighteenth eleventh eight 
-1.2050 eighteenth eleventh fifteenth 
-1.2050 eighteenth eleventh first 
-1.2050 eighteenth eleventh had 
-1.2050 eighteenth eleventh it 
-0.7279 eighteenth fifteen enter 
-0.7279 eighteenth fifteen it 
-0.7279 eighteenth fifteenth about 
-0.7279 eighteenth fifteenth at 
-1.0289 eighteenth first a 
-1.0289 eighteenth first april 
-1.0289 eighteenth first fifteen 
-1.0289 eighteenth first has 
-0.4269 eighteenth five down 
-1.1109 eighteenth fourth apostrophe 
-1.5408 eighteenth fourth at 
-1.5408 eighteenth fourth called 
-1.5408 eighteenth fourth fifteenth 
-1.5408 eighteenth fourth fifth 
-1.5408 eighteenth fourth first 
-1.5408 eighteenth fourth had 
-1.5408 eighteenth fourth it 
-1.1109 eighteenth fourth little 
-1.5408 eighteenth fourth look 
-1.5408 eighteenth fourth made 
-0.4269 eighteenth go a 
-0.4269 eighteenth good area 
-0.4269 eighteenth h called 
-0.4741 eighteenth had eleventh 
-0.9040 eighteenth had in 
-0.4269 eighteenth help august 
-0.4269 eighteenth his help 
-0.4269 eighteenth how a 
-0.4741 eighteenth it at 
-0.9040 eighteenth it has 
-0.4269 eighteenth just his 
-0.4269 eighteenth like a 
-0.7279 eighteenth little called 
-0.7279 eighteenth little had 
-0.4269 eighteenth look fourth 
-0.4269 eighteenth m look 
-0.9040 eighteenth made a 
-0.9040 eighteenth made area 
-0.9040 eighteenth made fifteenth 
-0.4269 eighteenth man about 
-0.7279 eighth a called 
-0.7279 eighth a eighteenth 
-1.5061 eighty a about 
-1.5061 eighty a apostrophe 
-0.8236 eighty a by 
-1.0762 eighty a eighteen 
-1.5061 eighty a eighty 
-1.5061 eighty a enter 
-1.5061 eighty a first 
-1.5061 eighty a hall 
-1.5061 eighty a long 
-0.7279 eleven a has 
-0.7279 eleven a look 
-0.5226 eleven after been 
-1.2050 eleven after day 
-1.2050 eleven after in 
-1.2050 eleven after lane 
-0.7279 eleven been help 
-0.7279 eleven been just 
-0.4269 eleven do five 
-0.4269 eleven lane just 
-1.1258 eleventh a april 
-1.1258 eleventh a enter 
-0.6960 eleventh a fifth 
-1.1258 eleventh a first 
-0.5991 eleventh about a 
-1.0289 eleventh about fifth 
-1.0289 eleventh about first 
-0.9040 eleventh apostrophe apostrophe 
-0.4741 eleventh apostrophe has 
-1.1431 eleventh april a 
-1.5730 eleventh april about 
-1.5730 eleventh april did 
-0.5368 eleventh april eighteenth 
-1.1431 eleventh april fifteen 
-1.5730 eleventh april fourth 
-1.5730 eleventh april like 
-0.6960 eleventh area a 
-1.1258 eleventh area at 
-1.1258 eleventh area fifth 
-1.1258 eleventh area look 
-0.9512 eleventh at a 
-0.9512 eleventh at fifteenth 
-1.3811 eleventh at first 
-0.9512 eleventh at had 
-1.3811 eleventh at it 
-1.3811 eleventh at look 
-1.0289 eleventh called at 
-1.0289 eleventh called had 
-0.5991 eleventh called it 
-0.4269 eleventh code a 
-0.7279 eleventh did a 
-0.7279 eleventh did many 
-0.4269 eleventh down a 
-0.5991 eleventh eight eighteenth 
-1.0289 eleventh eight eleventh 
-1.0289 eleventh eight first 
-0.7279 eleventh fifteen a 
-0.7279 eleventh fifteen like 
-0.9970 eleventh fifteenth a 
-1.4269 eleventh fifteenth about 
-1.4269 eleventh fifteenth area 
-1.4269 eleventh fifteenth fifteen 
-0.4970 eleventh fifteenth fifteenth 
-1.4269 eleventh fifteenth many 
-1.0289 eleventh fifth eleventh 
-1.0289 eleventh fifth fifth 
-0.5991 eleventh fifth fourth 
-0.8192 eleventh first a 
-1.7491 eleventh first about 
-1.3192 eleventh first april 
-0.8192 eleventh first area 
-1.7491 eleventh first at 
-0.8749 eleventh first eight 
-1.3192 eleventh first eleventh 
-1.3192 eleventh first has 
-0.4269 eleventh fourth a 
-0.9040 eleventh good about 
-0.9040 eleventh good has 
-0.9040 eleventh good just 
-0.9040 eleventh h eight 
-0.9040 eleventh h first 
-0.9040 eleventh h look 
-0.9040 eleventh had area 
-0.9040 eleventh had at 
-0.9040 eleventh had fifteen 
-0.5226 eleventh has a 
-1.2050 eleventh has fifteenth 
-1.2050 eleventh has has 
-1.2050 eleventh has it 
-0.4269 eleventh in go 
-2.1258 eleventh it area 
-1.6960 eleventh it eighteenth 
-2.1258 eleventh it first 
-0.0362 eleventh it it 
-0.4269 eleventh july like 
-0.4269 eleventh little had 
-1.2050 eleventh long about 
-0.2751 eleventh long at 
-1.2050 eleventh long made 
-0.4269 eleventh made h 
-0.4741 enter about fifth 
-0.9040 enter about first 
-0.4269 enter apostrophe m 
-0.7279 enter april eighteenth 
-0.7279 enter april fifteenth 
-0.4269 enter area like 
-0.6960 enter at about 
-1.1258 enter at called 
-1.1258 enter at first 
-1.1258 enter at it 
-0.4269 enter did help 
-0.7279 enter down july 
-0.7279 enter down june 
-0.4269 enter eight h 
-0.7279 enter eighteenth apostrophe 
-0.7279 enter eighteenth eight 
-0.4269 enter enter april 
-0.7279 enter fifteen august 
-0.7279 enter fifteen like 
-0.4269 enter fifteenth made 
-0.4269 enter fifth fifteen 
-0.4269 enter first had 
-1.2720 enter fourth a 
-0.8421 enter fourth eighteenth 
-1.2720 enter fourth first 
-1.2720 enter fourth forty 
-0.8421 enter fourth has 
-0.7279 enter go a 
-0.7279 enter go did 
-0.7279 enter h did 
-0.7279 enter h it 
-0.4269 enter has good 
-0.9040 enter help down 
-0.9040 enter help its 
-0.9040 enter help june 
-0.4269 enter it fifteen 
-0.7279 enter little eleventh 
-0.7279 enter little fifteenth 
-0.7279 enter long april 
-0.7279 enter long good 
-0.4269 enter look apostrophe 
-0.4269 enter m fifteen 
-0.7279 enter man about 
-0.7279 enter man called 
-0.4269 erase could for 
-0.4269 erase k for 
-0.4269 f january for 
-0.4269 f k for 
-0.4269 f lane five 
-0.4269 february but for 
-0.4269 february lane j 
-1.4683 fifteen a day 
-1.4683 fifteen a enter 
-1.4683 fifteen a fifteen 
-1.0384 fifteen a go 
-1.0384 fifteen a good 
-1.4683 fifteen a help 
-1.0384 fifteen a how 
-1.4683 fifteen a just 
-0.1959 fifteen about had 
-1.1258 fifteen about little 
-0.4269 fifteen april look 
-0.4269 fifteen area about 
-1.3300 fifteen at about 
-0.9001 fifteen at at 
-1.3300 fifteen at fifteenth 
-1.3300 fifteen at first 
-1.3300 fifteen at had 
-1.3300 fifteen at july 
-1.3300 fifteen at long 
-0.4269 fifteen august did 
-0.4269 fifteen been down 
-0.7279 fifteen called did 
-0.7279 fifteen called how 
-0.7279 fifteen eighteenth about 
-0.7279 fifteen eighteenth go 
-1.0289 fifteen eleventh a 
-1.0289 fifteen eleventh down 
-0.5991 fifteen eleventh first 
-0.7279 fifteen enter did 
-0.7279 fifteen enter man 
-0.4269 fifteen fifteen just 
-0.7279 fifteen fifteenth at 
-0.7279 fifteen fifteenth fifth 
-0.4269 fifteen fifth down 
-0.4269 fifteen five a 
-0.4269 fifteen forty how 
-0.4269 fifteen fourth august 
-0.4269 fifteen had fourth 
-0.7279 fifteen has a 
-0.7279 fifteen has july 
-0.7279 fifteen how down 
-0.7279 fifteen how june 
-0.9040 fifteen it at 
-0.9040 fifteen it day 
-0.9040 fifteen it fifteenth 
-0.4269 fifteen just july 
-0.4269 fifteen lane just 
-0.7279 fifteen like august 
-0.7279 fifteen like in 
-0.7279 fifteen little down 
-0.7279 fifteen little first 
-0.4269 fifteen long july 
-1.0289 fifteen look eighteenth 
-1.0289 fifteen look fourth 
-1.0289 fifteen look look 
-1.0289 fifteen look man 
-0.7279 fifteen m made 
-0.7279 fifteen m many 
-0.2980 fifteen made a 
-0.7279 fifteen man fourth 
-0.7279 fifteen man in 
-1.5408 fifteenth a apostrophe 
-1.5408 fifteenth a april 
-1.5408 fifteenth a area 
-1.5408 fifteenth a day 
-1.1109 fifteenth a did 
-1.5408 fifteenth a enter 
-1.5408 fifteenth a fifteen 
-1.5408 fifteenth a go 
-1.5408 fifteenth a good 
-1.5408 fifteenth a how 
-1.5408 fifteenth a its 
-1.5408 fifteenth a just 
-1.1431 fifteenth about a 
-1.5730 fifteenth about about 
-0.6431 fifteenth about april 
-1.5730 fifteenth about fifth 
-0.6431 fifteenth about first 
-1.5730 fifteenth about had 
-1.5730 fifteenth about has 
-0.4269 fifteenth april man 
-0.5526 fifteenth area a 
-1.4269 fifteenth area about 
-1.4269 fifteenth area apostrophe 
-1.4269 fifteenth area at 
-1.4269 fifteenth area eleventh 
-1.4269 fifteenth area had 
-0.4929 fifteenth at a 
-1.8740 fifteenth at about 
-1.8740 fifteenth at area 
-1.8740 fifteenth at at 
-1.8740 fifteenth at down 
-1.4442 fifteenth at first 
-1.8740 fifteenth at had 
-1.4442 fifteenth at has 
-1.8740 fifteenth at his 
-1.8740 fifteenth at like 
-1.8740 fifteenth at little 
-1.8740 fifteenth at long 
-1.4442 fifteenth at look 
-0.9441 fifteenth at made 
-0.4269 fifteenth august down 
-0.9040 fifteenth called fourth 
-0.9040 fifteenth called july 
-0.9040 fifteenth called m 
-0.4269 fifteenth day go 
-0.4741 fifteenth eight about 
-0.9040 fifteenth eight eleventh 
-0.4269 fifteenth eighteenth first 
-1.5061 fifteenth eleventh about 
-0.8236 fifteenth eleventh at 
-1.5061 fifteenth eleventh called 
-1.5061 fifteenth eleventh eight 
-0.8236 fifteenth eleventh first 
-1.5061 fifteenth eleventh fourth 
-1.5061 fifteenth eleventh good 
-1.5061 fifteenth eleventh has 
-0.9040 fifteenth fifteen called 
-0.9040 fifteenth fifteen eighteenth 
-0.9040 fifteenth fifteen eleventh 
-0.8079 fifteenth fifteenth a 
-0.9997 fifteenth fifteenth at 
-0.7522 fifteenth fifteenth eleventh 
-1.6821 fifteenth fifteenth fifteen 
-1.6821 fifteenth fifteenth five 
-1.6821 fifteenth fifteenth fourth 
-1.6821 fifteenth fifteenth has 
-1.2523 fifteenth fifteenth made 
-0.7279 fifteenth fifth fourth 
-0.7279 fifteenth fifth little 
-0.4269 fifteenth first has 
-0.4269 fifteenth five down 
-1.1258 fifteenth fourth first 
-1.1258 fifteenth fourth fourth 
-1.1258 fifteenth fourth had 
-1.1258 fifteenth fourth little 
-1.1258 fifteenth fourth look 
-0.9040 fifteenth had fifteenth 
-0.9040 fifteenth had had 
-0.9040 fifteenth had help 
-0.9040 fifteenth has fifteen 
-0.9040 fifteenth has fourth 
-0.9040 fifteenth has look 
-0.4269 fifteenth his help 
-0.4269 fifteenth it fifth 
-0.4269 fifteenth july go 
-0.4269 fifteenth just help 
-0.4269 fifteenth like a 
-0.9040 fifteenth little apostrophe 
-0.9040 fifteenth little area 
-0.9040 fifteenth little has 
-0.4434 fifteenth made a 
-1.1258 fifteenth made little 
-1.1258 fifteenth made man 
-0.7279 fifteenth man at 
-0.7279 fifteenth man had 
-0.4269 fifteenth many a 
-0.9040 fifth a august 
-0.9040 fifth a first 
-0.9040 fifth a has 
-1.7491 fifth about april 
-1.7491 fifth about eighteenth 
-1.7491 fifth about fifteenth 
-1.3192 fifth about first 
-1.7491 fifth about good 
-0.3680 fifth about had 
-1.3192 fifth about has 
-1.3192 fifth about it 
-1.7491 fifth about little 
-1.7491 fifth about man 
-0.7279 fifth apostrophe at 
-0.7279 fifth apostrophe man 
-0.4269 fifth april fifteen 
-0.4269 fifth area fifth 
-1.3300 fifth at about 
-1.3300 fifth at at 
-1.3300 fifth at fifth 
-0.6475 fifth at had 
-0.9001 fifth at has 
-0.4269 fifth august down 
-0.4269 fifth called eight 
-0.4269 fifth day down 
-0.4269 fifth do just 
-0.4269 fifth down his 
-0.4269 fifth eight at 
-0.7279 fifth eighteenth had 
-0.7279 fifth eighteenth help 
-0.7751 fifth eleventh april 
-1.2050 fifth eleventh area 
-0.7751 fifth eleventh it 
-1.2050 fifth eleventh july 
-0.7279 fifth enter go 
-0.7279 fifth enter help 
-0.4269 fifth fifteen five 
-0.9040 fifth fifth a 
-0.9040 fifth fifth at 
-0.9040 fifth fifth long 
-0.9040 fifth first it 
-0.9040 fifth first made 
-0.9040 fifth first man 
-1.4683 fifth fourth area 
-1.4683 fifth fourth eighteenth 
-1.0384 fifth fourth first 
-0.4321 fifth fourth had 
-1.4683 fifth fourth it 
-1.0289 fifth good at 
-1.0289 fifth good fifteenth 
-0.5991 fifth good has 
-0.4269 fifth h first 
-0.7279 fifth has a 
-0.7279 fifth has enter 
-0.4269 fifth help a 
-0.4269 fifth it eight 
-0.4269 fifth july five 
-0.4269 fifth like a 
-0.9040 fifth little a 
-0.9040 fifth little did 
-0.9040 fifth little down 
-0.7279 fifth long fourth 
-0.7279 fifth long h 
-0.4269 fifth m his 
-0.7279 fifth made a 
-0.7279 fifth made about 
-0.4269 fifty j for 
-0.4269 fifty l for 
-0.4269 fifty lane d 
-0.4269 find for do 
-0.4269 find four in 
-0.4269 find lane december 
-1.3242 first a april 
-2.0067 first a at 
-2.0067 first a august 
-1.3242 first a did 
-2.0067 first a down 
-2.0067 first a enter 
-1.5768 first a fifteen 
-1.5768 first a fifth 
-0.9704 first a go 
-1.1324 first a good 
-1.5768 first a had 
-1.5768 first a has 
-2.0067 first a how 
-1.5768 first a it 
-1.5768 first a july 
-1.5768 first a just 
-1.5768 first a like 
-0.7859 first about a 
-1.4683 first about about 
-1.4683 first about called 
-1.4683 first about eight 
-1.4683 first about fifteenth 
-1.4683 first about fifth 
-1.4683 first about first 
-1.0384 first about it 
-1.0289 first apostrophe about 
-1.0289 first apostrophe did 
-1.0289 first apostrophe little 
-1.0289 first apostrophe m 
-0.6960 first april at 
-1.1258 first april fifteen 
-1.1258 first april fourth 
-1.1258 first april july 
-0.8584 first area a 
-0.6109 first area about 
-1.1109 first area at 
-1.5408 first area fifteenth 
-1.5408 first area had 
-1.1109 first area made 
-0.8537 first at a 
-1.7279 first at area 
-1.2980 first at eight 
-1.7279 first at eighteenth 
-1.7279 first at eleventh 
-1.0455 first at fifteenth 
-1.7279 first at has 
-1.7279 first at it 
-1.0455 first at look 
-1.2980 first at made 
-0.4269 first called at 
-0.4269 first down a 
-1.3300 first eight a 
-0.9001 first eight eighteenth 
-1.3300 first eight fifteenth 
-1.3300 first eight first 
-1.3300 first eight has 
-1.3300 first eight it 
-1.3300 first eight long 
-0.7279 first eighteenth fourth 
-0.7279 first eighteenth just 
-1.0384 first eleventh a 
-1.0384 first eleventh about 
-0.7859 first eleventh april 
-1.4683 first eleventh at 
-1.4683 first eleventh called 
-1.4683 first eleventh fifth 
-1.4683 first eleventh first 
-0.4269 first enter down 
-0.4269 first fifteen at 
-0.7279 first fifteenth fifteenth 
-0.7279 first fifteenth first 
-0.4269 first fifth do 
-0.9512 first first a 
-1.3811 first first about 
-1.3811 first first at 
-0.9512 first first eleventh 
-1.3811 first first good 
-1.3811 first first just 
-1.3811 first first made 
-1.0289 first fourth a 
-1.0289 first fourth fourth 
-1.0289 first fourth good 
-1.0289 first fourth look 
-0.9040 first good august 
-0.9040 first good forty 
-0.9040 first good little 
-0.7279 first had about 
-0.7279 first had eight 
-1.1258 first has a 
-1.1258 first has eighteenth 
-1.1258 first has fifteen 
-1.1258 first has fourth 
-1.1258 first has go 
-0.4269 first his go 
-0.4269 first how help 
-1.3811 first it a 
-1.3811 first it area 
-1.3811 first it down 
-1.3811 first it fourth 
-0.9512 first it had 
-0.6987 first it man 
-0.4269 first just five 
-1.1258 first little about 
-0.1959 first little at 
-0.7279 first m called 
-0.7279 first m long 
-0.9040 first made eighteenth 
-0.9040 first made its 
-0.9040 first made long 
-0.9040 first man eleventh 
-0.9040 first man fifteenth 
-0.9040 first man m 
-1.6872 five a about 
-2.1171 five a any 
-1.4347 five a apostrophe 
-2.1171 five a before 
-1.1872 five a by 
-1.1872 five a c 
-2.1171 five a called 
-2.1171 five a did 
-2.1171 five a eight 
-2.1171 five a eighteen 
-2.1171 five a eighty 
-2.1171 five a enter 
-2.1171 five a f 
-2.1171 five a february 
-1.6872 five a fifth 
-1.6872 five a first 
-1.4347 five a fourteen 
-2.1171 five a fourth 
-2.1171 five a good 
-2.1171 five a had 
-1.4347 five a hall 
-1.4347 five a has 
-2.1171 five a he 
-1.6872 five a like 
-1.6872 five a long 
-2.1171 five a look 
-2.1171 five a m 
-1.4347 five a make 
-0.4269 five after about 
-0.9040 five august august 
-0.9040 five august five 
-0.9040 five august like 
-0.4269 five been five 
-0.7279 five day august 
-0.7279 five day five 
-1.2720 five did a 
-1.2720 five did down 
-1.2720 five did five 
-1.2720 five did get 
-1.2720 five did go 
-0.8421 five did like 
-0.4269 five do just 
-0.5991 five down a 
-1.0289 five down get 
-1.0289 five down how 
-0.4269 five eleven a 
-0.3465 five five a 
-1.0289 five five down 
-0.4269 five for in 
-0.4269 five g in 
-0.4269 five get get 
-0.4434 five go a 
-1.1258 five go down 
-1.1258 five go like 
-0.9040 five help how 
-0.9040 five help like 
-0.9040 five help many 
-0.4269 five his like 
-0.4970 five how a 
-1.4269 five how down 
-1.4269 five how five 
-1.4269 five how help 
-0.9970 five how how 
-1.4269 five how like 
-0.4269 five in august 
-0.7279 five july five 
-0.7279 five july in 
-0.6960 five just a 
-0.6960 five just did 
-1.1258 five just just 
-0.7279 five lane a 
-0.7279 five lane just 
-0.6960 five like a 
-1.1258 five like just 
-0.6960 five like like 
-0.4269 five many a 
-0.2980 for day like 
-0.2980 for do down 
-0.2216 for his a 
-1.7693 for in a 
-1.0869 for in did 
-1.7693 for in down 
-0.4393 for in five 
-1.3394 for in go 
-0.8951 for in help 
-1.7693 for in how 
-1.7693 for in just 
-0.4269 for lane august 
-0.7279 forty august a 
-0.7279 forty august lane 
-0.2980 forty did a 
-0.2980 forty down a 
-0.4269 forty go a 
-0.4269 forty help a 
-0.2980 forty how a 
-0.4269 four g he 
-0.4269 four in like 
-1.6310 fourteen a april 
-1.6310 fourteen a by 
-0.9486 fourteen a c 
-1.6310 fourteen a called 
-1.6310 fourteen a eighteenth 
-1.6310 fourteen a eighty 
-1.6310 fourteen a fourth 
-1.6310 fourteen a good 
-0.9486 fourteen a hall 
-1.6310 fourteen a has 
-1.6310 fourteen a into 
-1.6310 fourteen a it 
-1.1258 fourth a called 
-1.1258 fourth a fifteenth 
-1.1258 fourth a fifth 
-1.1258 fourth a good 
-1.1258 fourth a how 
-1.2720 fourth about april 
-0.5896 fourth about area 
-1.2720 fourth about fifteen 
-1.2720 fourth about fifth 
-1.2720 fourth about look 
-0.4269 fourth all eighteenth 
-0.6960 fourth apostrophe about 
-0.6960 fourth apostrophe at 
-1.1258 fourth apostrophe august 
-0.4269 fourth april fifteen 
-0.3449 fourth area a 
-1.3811 fourth area fourth 
-1.3811 fourth area has 
-1.3811 fourth area little 
-0.4269 fourth at a 
-0.4269 fourth august a 
-0.9040 fourth called apostrophe 
-0.9040 fourth called called 
-0.9040 fourth called eighteenth 
-0.4269 fourth did a 
-0.4269 fourth do how 
-0.4269 fourth down a 
-0.4269 fourth eight area 
-1.0289 fourth eighteenth eight 
-0.3465 fourth eighteenth first 
-0.4269 fourth enter it 
-0.7279 fourth fifteen eighteenth 
-0.7279 fourth fifteen it 
-1.3300 fourth fifteenth about 
-1.3300 fourth fifteenth area 
-1.3300 fourth fifteenth at 
-1.3300 fourth fifteenth august 
-1.3300 fourth fifteenth eleventh 
-1.3300 fourth fifteenth fifteen 
-1.3300 fourth fifteenth fifteenth 
-1.3300 fourth fifteenth has 
-0.7751 fourth fifth a 
-0.7751 fourth fifth about 
-0.7751 fourth fifth at 
-0.3680 fourth first a 
-0.9441 fourth first about 
-1.8740 fourth first apostrophe 
-1.8740 fourth first april 
-1.8740 fourth first at 
-1.8740 fourth first eight 
-0.9441 fourth first eleventh 
-1.8740 fourth first enter 
-1.8740 fourth first first 
-1.8740 fourth first it 
-1.8740 fourth first m 
-0.4269 fourth forty did 
-1.5408 fourth fourth apostrophe 
-0.2688 fourth fourth area 
-1.5408 fourth fourth called 
-1.5408 fourth fourth do 
-1.5408 fourth fourth fifteen 
-1.5408 fourth fourth fifth 
-1.5408 fourth fourth first 
-0.7279 fourth good eighteenth 
-0.7279 fourth good fifteenth 
-0.4269 fourth h eleventh 
-1.0232 fourth had a 
-1.7056 fourth had april 
-1.0232 fourth had area 
-0.8314 fourth had at 
-1.7056 fourth had fifteen 
-1.7056 fourth had first 
-1.7056 fourth had fourth 
-1.2757 fourth had it 
-1.7056 fourth had look 
-1.7056 fourth had made 
-0.4434 fourth has at 
-1.1258 fourth has has 
-1.1258 fourth has it 
-0.4269 fourth in like 
-1.2050 fourth it at 
-1.2050 fourth it called 
-0.7751 fourth it eighteenth 
-1.2050 fourth it h 
-1.2050 fourth it it 
-0.4269 fourth like like 
-1.4269 fourth little been 
-1.4269 fourth little down 
-1.4269 fourth little eight 
-1.4269 fourth little first 
-1.4269 fourth little h 
-1.4269 fourth little had 
-0.9970 fourth little has 
-0.9970 fourth little it 
-0.6987 fourth look a 
-1.3811 fourth look at 
-1.3811 fourth look eight 
-1.3811 fourth look fifteenth 
-0.6987 fourth look first 
-0.4269 fourth m august 
-0.2980 fourth made a 
-0.4269 fourth man at 
-0.4269 from december for 
-0.4269 from january for 
-0.4269 from lane j 
-0.4269 g he for 
-0.4269 g in a 
-1.2720 get a august 
-0.8421 get a by 
-1.2720 get a enter 
-1.2720 get a help 
-1.2720 get a know 
-1.2720 get a like 
-0.4970 get august a 
-1.4269 get august did 
-1.4269 get august five 
-1.4269 get august get 
-1.4269 get august go 
-1.4269 get august how 
-1.4269 get august just 
-0.2751 get did a 
-1.2050 get did down 
-1.2050 get did five 
-0.9040 get down did 
-0.4741 get down down 
-0.9040 get five a 
-0.9040 get five after 
-0.9040 get five how 
-0.7279 get get august 
-0.7279 get get like 
-0.6960 get go a 
-1.1258 get go did 
-1.1258 get go down 
-1.1258 get go five 
-0.4557 get help a 
-1.3300 get help five 
-1.3300 get help get 
-1.3300 get help how 
-0.4698 get how a 
-1.5061 get how did 
-1.0762 get how five 
-1.5061 get how get 
-1.5061 get how help 
-1.5061 get how just 
-0.6960 get just a 
-1.1258 get just august 
-1.1258 get just help 
-1.1258 get just like 
-0.4001 get like a 
-1.3300 get like august 
-1.3300 get like five 
-1.3300 get like help 
-1.3300 get like how 
-1.7374 go a about 
-2.1672 go a any 
-1.7374 go a apostrophe 
-2.1672 go a april 
-1.7374 go a at 
-1.1310 go a by 
-2.1672 go a called 
-2.1672 go a can 
-1.7374 go a down 
-1.4848 go a eighteen 
-2.1672 go a eighteenth 
-1.7374 go a eighty 
-1.7374 go a eleventh 
-2.1672 go a f 
-2.1672 go a fifteenth 
-2.1672 go a fifth 
-2.1672 go a first 
-2.1672 go a five 
-2.1672 go a good 
-2.1672 go a had 
-2.1672 go a half 
-1.2373 go a hall 
-2.1672 go a has 
-1.7374 go a help 
-1.7374 go a into 
-1.7374 go a is 
-2.1672 go a it 
-1.2373 go a like 
-2.1672 go a little 
-2.1672 go a look 
-2.1672 go a made 
-2.1672 go a make 
-2.1672 go a man 
-0.6987 go august a 
-1.3811 go august august 
-1.3811 go august down 
-1.3811 go august go 
-1.3811 go august help 
-1.3811 go august how 
-1.3811 go august like 
-0.4269 go before a 
-0.4269 go code a 
-1.0289 go day a 
-0.5991 go day august 
-1.0289 go day how 
-1.3662 go did a 
-1.8662 go did did 
-2.2961 go did down 
-2.2961 go did fifth 
-1.6137 go did get 
-1.2599 go did go 
-1.8662 go did how 
-1.3662 go did just 
-0.1703 go did like 
-2.2961 go did many 
-0.4269 go do like 
-0.9512 go down august 
-0.9512 go down five 
-0.9512 go down help 
-1.3811 go down how 
-0.9512 go down just 
-0.7279 go eleven a 
-0.7279 go eleven after 
-0.4269 go enter about 
-1.0384 go five a 
-1.4683 go five august 
-1.0384 go five did 
-1.4683 go five get 
-1.4683 go five help 
-0.7859 go five how 
-1.4683 go five just 
-0.4269 go forty how 
-1.5730 go get a 
-1.5730 go get did 
-1.5730 go get down 
-1.5730 go get five 
-1.5730 go get get 
-1.5730 go get go 
-0.8906 go get help 
-1.1431 go get how 
-0.8906 go get like 
-1.2720 go go a 
-1.2720 go go august 
-0.8421 go go did 
-1.2720 go go help 
-1.2720 go go how 
-1.2720 go go just 
-0.0969 go help a 
-1.7279 go help do 
-1.7279 go help help 
-1.7279 go help just 
-1.7279 go help like 
-0.7279 go his a 
-0.7279 go his did 
-0.5896 go how a 
-1.2720 go how five 
-1.2720 go how get 
-1.2720 go how go 
-1.2720 go how like 
-0.4269 go hundred do 
-1.0289 go in august 
-1.0289 go in day 
-1.0289 go in just 
-1.0289 go in like 
-0.2980 go its a 
-0.2980 go july go 
-0.2980 go june a 
-0.1047 go just a 
-1.5730 go just how 
-1.1431 go just just 
-0.7279 go lane a 
-0.7279 go lane like 
-1.1594 go like a 
-1.4120 go like august 
-0.8056 go like did 
-0.9676 go like down 
-1.8418 go like go 
-1.8418 go like help 
-1.1594 go like how 
-0.9119 go like like 
-1.8418 go like many 
-1.1258 go many august 
-1.1258 go many did 
-1.1258 go many go 
-1.1258 go many how 
-1.1258 go many many 
-1.0289 good about april 
-1.0289 good about eighteenth 
-1.0289 good about had 
-1.0289 good about it 
-0.4269 good apostrophe how 
-0.4269 good april help 
-0.7279 good area called 
-0.7279 good area like 
-0.7279 good at august 
-0.7279 good at had 
-0.4269 good august eleven 
-0.4269 good called enter 
-0.4269 good do did 
-0.4269 good down a 
-0.2216 good eight eighteenth 
-0.7751 good eighteenth a 
-0.7751 good eighteenth at 
-1.2050 good eighteenth eleventh 
-1.2050 good eighteenth made 
-2.0990 good eleventh did 
-2.0990 good eleventh first 
-0.0189 good eleventh it 
-0.6960 good fifteenth about 
-0.4434 good fifteenth at 
-0.7279 good first about 
-0.7279 good first at 
-0.4269 good forty help 
-1.2050 good fourth fifteenth 
-0.7751 good fourth fifth 
-1.2050 good fourth fourth 
-1.2050 good fourth had 
-1.2050 good fourth little 
-0.2216 good had eleventh 
-1.0289 good has a 
-1.0289 good has eighteenth 
-1.0289 good has fourth 
-1.0289 good has man 
-0.4269 good her a 
-0.9040 good it at 
-0.9040 good it fifteen 
-0.9040 good it h 
-0.4269 good just like 
-0.9040 good little did 
-0.9040 good little has 
-0.9040 good little m 
-0.4269 good made eighteenth 
-0.4269 h april enter 
-0.9040 h area apostrophe 
-0.9040 h area go 
-0.9040 h area h 
-0.7279 h at at 
-0.7279 h at enter 
-0.4269 h called m 
-0.7279 h day august 
-0.7279 h day how 
-0.4269 h did get 
-0.4269 h eight been 
-0.4269 h eleventh fifth 
-0.7279 h fifteen how 
-0.7279 h fifteen m 
-0.9040 h first eighteenth 
-0.9040 h first had 
-0.9040 h first his 
-0.4269 h go a 
-0.4269 h good do 
-0.9040 h h fifteen 
-0.9040 h h good 
-0.9040 h h h 
-0.4269 h how like 
-0.7279 h it his 
-0.7279 h it look 
-0.4269 h like august 
-0.4269 h little at 
-0.4269 h look august 
-0.4269 h made august 
-0.4269 h man eighteenth 
-1.0384 had a apostrophe 
-1.4683 had a april 
-1.4683 had a at 
-1.0384 had a fifth 
-1.4683 had a go 
-1.4683 had a good 
-1.0384 had a had 
-1.4683 had a july 
-1.5408 had about a 
-1.5408 had about april 
-1.1109 had about area 
-1.5408 had about called 
-1.5408 had about enter 
-0.6666 had about first 
-1.5408 had about good 
-1.5408 had about long 
-1.0289 had apostrophe area 
-1.0289 had apostrophe fourth 
-1.0289 had apostrophe help 
-1.0289 had apostrophe little 
-0.2980 had april eighteenth 
-0.3449 had area a 
-1.3811 had area area 
-1.3811 had area good 
-1.3811 had area look 
-0.8772 had at a 
-1.3772 had at about 
