#############################################################################
## Copyright (c) 1996, Carnegie Mellon University, Cambridge University,
## Ronald Rosenfeld and Philip Clarkson
#############################################################################
=============================================================================
===============  This file was produced by the CMU-Cambridge  ===============
===============     Statistical Language Modeling Toolkit     ===============
=============================================================================
This is a 3-gram language model, based on a vocabulary of 28 words,
  which begins "</s>", "<s>", "a"...
This is an OPEN-vocabulary model (type 1)
  (OOVs were mapped to UNK, which is treated as any other vocabulary word)
Absolute discounting was applied.
1-gram discounting constant : 1
2-gram discounting constant : 0.573034
3-gram discounting constant : 0.603306
This file is in the ARPA-standard format introduced by Doug Paul.

p(wd3|wd1,wd2)= if(trigram exists)           p_3(wd1,wd2,wd3)
                else if(bigram w1,w2 exists) bo_wt_2(w1,w2)*p(wd3|wd2)
                else                         p(wd3|w2)

p(wd2|wd1)= if(bigram exists) p_2(wd1,wd2)
            else              bo_wt_1(wd1)*p_1(wd2)

All probs and back-off weights (bo_wt) are given in log10 form.

Data formats:

Beginning of data mark: \data\
ngram 1=nr            # number of 1-grams
ngram 2=nr            # number of 2-grams
ngram 3=nr            # number of 3-grams

\1-grams:
p_1     wd_1 bo_wt_1
\2-grams:
p_2     wd_1 wd_2 bo_wt_2
\3-grams:
p_3     wd_1 wd_2 wd_3 

end of data mark: \end\

\data\
ngram 1=29
ngram 2=339
ngram 3=992

\1-grams:
-99.9990 <UNK>	0.0000
-0.9255 </s>	-2.6997
-98.9952 <s>	-0.5768
-1.1971 a	-0.4171
-1.4576 b	-0.9158
-1.6916 c	-0.4464
-1.5493 d	-0.2444
-1.0786 e	-0.2048
-1.9839 f	-0.3357
-1.5068 g	-0.6237
-1.3404 h	-0.7126
-1.2357 i	-0.2708
-2.2679 j	-0.6715
-1.8633 k	-0.2533
-1.3484 l	-0.5536
-1.6494 m	-0.5948
-1.2712 n	-0.5145
-1.2815 o	-0.0565
-1.5010 p	-0.6404
-99.9990 q	-0.2275
-1.1054 r	-0.3254
-1.2815 s	-0.4745
-1.1514 t	-0.8699
-1.4897 u	-0.5832
-1.8767 v	-1.0511
-1.7484 w	-0.1705
-99.9990 x	-0.2360
-1.8504 y	-0.4331
-2.5367 z	-0.5369

\2-grams:
-0.0009 </s> <s> 0.0239
-1.5337 <s> a -0.2210
-1.1284 <s> b 0.2194
-1.2711 <s> c -0.0412
-1.4850 <s> d -0.4048
-1.4015 <s> e -0.2923
-1.4850 <s> f -0.0996
-1.5337 <s> g -0.3783
-1.4412 <s> h -0.6176
-2.3050 <s> i -0.0154
-1.3650 <s> j 0.0545
-1.7248 <s> k -0.3820
-1.5337 <s> l -0.1605
-1.0373 <s> m -0.3837
-1.5337 <s> n -0.4181
-1.9245 <s> o -0.2394
-0.7003 <s> p -0.4277
-1.5337 <s> r -0.4368
-1.0541 <s> s -0.2943
-1.4412 <s> t -0.3412
-1.8133 <s> v -0.0098
-1.5337 <s> w -0.2605
-2.8290 <s> z -0.0625
-1.1296 a </s> 1.4011
-2.5571 a a -0.1511
-1.2618 a c -0.1535
-1.3167 a d 0.0110
-2.0331 a e -0.4718
-2.5571 a f -0.1769
-2.0331 a h -0.4733
-2.5571 a k -0.2140
-1.0932 a l -0.0517
-1.3795 a m -0.3685
-0.8368 a n 0.0374
-2.0331 a p -0.1790
-0.6261 a r 0.1184
-1.2618 a s 0.0744
-1.2618 a t -0.1917
-2.5571 a u -0.2059
-1.2131 a v -0.1114
-2.0331 a w -0.1459
-1.5414 a y -0.2391
-1.3945 b a -0.7043
-2.2990 b b -0.2069
-1.0586 b e -0.2792
-2.2990 b i -0.1515
-2.2990 b l -0.1624
-1.3945 b o -0.4259
-0.9113 b r -0.3618
-1.5444 b s -0.2924
-0.2182 b u -1.1373
-1.5446 c </s> 2.1792
-0.8910 c a -0.2008
-2.0686 c c -0.0954
-0.8910 c e -0.1957
-0.6046 c h 0.0212
-2.0686 c i -0.1515
-0.8282 c k -0.0643
-1.5446 c l -0.1418
-2.0686 c m -0.2161
-0.9644 c o -0.3016
-2.0686 c r -0.1950
-2.0686 c y 0.1611
-0.4510 d </s> 1.0823
-0.8645 d a -0.4224
-2.2085 d b -0.2016
-2.2085 d d -0.1700
-1.1927 d e -0.4396
-2.2085 d f -0.1769
-2.2085 d h -0.1936
-2.2085 d i -0.1515
-2.2085 d l -0.1093
-0.9680 d o -0.0290
-2.2085 d p -0.1937
-1.1043 d r -0.3901
-2.2085 d s -0.1593
-2.2085 d u -0.2115
-1.3039 d w -0.3563
-1.6844 d y -0.1400
-0.7096 e </s> 0.8782
-1.1462 e a 0.0761
-2.1509 e c -0.0904
-1.7704 e d -0.2275
-1.5708 e e -0.0610
-2.1509 e f -0.1087
-2.1509 e g -0.1592
-2.6750 e h -0.2178
-1.7704 e i -0.4824
-2.6750 e k -0.0604
-0.9744 e l 0.0651
-2.1509 e m -0.0934
-0.9175 e n -0.3607
-1.7704 e p -0.4862
-0.8516 e r -0.2263
-1.4345 e s -0.1823
-1.5708 e t -0.4812
-2.6750 e u -0.2059
-1.4345 e v -0.2140
-1.1774 e w 0.0086
-1.5708 e y -0.3032
-1.7846 f </s> 2.4802
-1.7846 f a -0.1022
-1.7846 f b -0.2016
-0.7689 f e 0.0036
-1.2606 f f -0.1297
-0.7689 f i -0.1684
-1.0299 f o -0.6285
-0.7689 f r -0.3109
-1.0299 f t -0.3420
-1.4957 g </s> 2.0031
-1.3459 g a -0.3710
-0.1782 g h -0.9161
-1.1463 g i -0.2849
-1.2347 g l -0.4321
-2.2504 g n -0.2079
-2.2504 g o -0.2146
-1.7264 g r -0.1172
-2.2504 g s -0.1593
-2.2504 g t -0.2055
-2.2504 g v -0.1414
-0.3176 h </s> 0.7478
-0.7799 h a 0.0105
-1.2373 h e -0.1316
-2.4149 h f -0.1384
-1.3108 h i 0.1782
-2.4149 h l -0.1624
-1.6603 h n -0.0535
-0.9874 h o 0.1085
-1.8909 h r -0.4762
-1.6603 h t -0.1925
-2.4149 h u 0.2704
-1.8909 h y 0.3183
-1.5031 i </s> 1.7813
-1.6143 i a -0.2127
-1.7642 i b -0.3807
-1.0913 i c -0.1277
-1.6143 i d -0.0704
-1.2235 i e 0.0682
-1.6143 i f -0.0973
-1.7642 i g 0.1811
-2.5188 i k -0.0604
-1.2235 i l -0.2072
-1.7642 i m -0.2901
-0.8390 i n -0.0241
-2.5188 i o -0.2041
-2.5188 i p -0.2056
-2.5188 i r -0.1726
-1.5031 i s -0.3139
-0.4641 i t -1.2112
-2.5188 i u 0.2704
-1.5031 i v -0.0098
-0.9917 j a -0.5020
-0.5000 j e -0.2050
-0.4116 j o -0.2426
-1.5157 j u -0.2059
-0.5133 k </s> 1.4388
-0.9966 k a -0.7043
-1.9011 k d -0.1557
-0.7969 k e -0.0262
-1.9011 k h -0.1406
-1.1464 k i -0.3113
-1.9011 k l -0.1093
-1.9011 k r -0.1701
-1.9011 k s -0.1593
-1.9011 k u -0.2115
-1.3771 k w -0.1219
-1.3771 k y -0.1400
-0.9431 l </s> 1.3663
-0.9094 l a -0.1112
-1.1118 l d -0.1111
-0.6496 l e 0.0108
-2.4070 l f -0.1769
-2.4070 l g -0.1873
-0.9795 l i -0.2357
-2.4070 l k -0.1873
-0.8491 l l -0.3193
-2.4070 l m -0.1282
-1.3913 l o 0.1295
-1.6524 l s -0.1559
-2.4070 l t -0.2184
-1.6524 l u -0.1894
-1.6524 l y -0.3161
-2.4070 l z -0.0625
-1.3553 m </s> 2.0031
-0.4749 m a -0.0901
-2.1100 m c -0.1496
-0.9324 m e -0.3341
-1.0943 m i -0.1826
-1.5859 m m -0.1432
-0.7222 m o -0.3023
-1.2055 m p -0.3013
-2.1100 m s -0.1593
-2.1100 m u -0.2171
-2.1100 m y 0.1611
-0.5408 n </s> 0.9005
-1.3059 n a -0.2719
-2.4835 n b 0.1840
-1.5790 n c -0.1328
-1.0196 n d -0.0863
-0.8485 n e -0.2563
-2.4835 n f -0.1384
-1.3059 n g 0.3529
-1.0958 n i -0.2061
-2.4835 n k -0.1439
-1.3059 n n -0.0065
-1.5790 n o -0.1255
-1.5790 n s -0.0808
-1.3059 n t -0.3917
-1.7289 n u -0.6773
-2.4835 n x 0.0224
-2.4835 n y -0.2141
-2.4835 n z -0.1956
-1.4577 o </s> 1.7813
-1.5689 o a -0.4978
-1.5689 o b -0.4612
-2.4734 o c -0.1496
-1.1781 o d -0.2926
-2.4734 o e -0.1252
-1.9494 o f -0.1873
-1.7187 o h -0.6870
-2.4734 o k -0.2140
-1.3692 o l 0.2937
-1.3692 o m -0.2229
-0.6818 o n -0.0649
-1.0856 o o -0.3868
-1.9494 o p -0.1600
-0.8383 o r -0.2437
-1.4577 o s -0.3575
-1.9494 o t 0.0001
-1.2958 o u 0.2800
-1.1781 o w -0.3346
-1.9494 o y -0.1400
-2.4734 o z -0.0625
-1.5014 p a -0.0642
-2.2561 p e -0.1536
-1.5014 p g -0.2236
-1.1519 p h 0.0034
-0.2292 p i -1.2902
-1.2404 p l -0.4321
-2.2561 p n -0.1531
-1.3516 p o -0.2306
-1.5014 p r -0.6523
-1.5014 p s -0.1012
-2.2561 p u -0.1944
-2.2561 p y -0.2141
-0.3696 q u -0.2002
-1.2606 r </s> 1.4388
-1.2606 r a -0.3140
-2.1243 r b 0.2307
-2.1243 r c -0.3964
-1.4079 r d -0.4164
-0.9903 r e -0.2018
-2.6484 r f -0.1384
-0.6027 r g -0.8377
-1.0133 r i -0.3981
-1.4079 r k -0.2269
-1.4079 r l -0.1333
-1.6326 r n -0.1178
-0.9685 r o -0.2067
-1.6326 r r -0.3201
-1.7438 r s -0.4259
-1.4707 r t -0.4997
-2.1243 r u -0.1860
-2.6484 r w -0.1509
-1.4707 r y 0.1135
-0.8882 s </s> 1.2498
-1.9494 s a -0.1816
-0.4370 s b -1.1403
-2.4734 s c -0.1597
-1.2958 s e 0.0258
-1.5689 s h -0.2061
-1.4577 s k -0.1131
-2.4734 s l -0.1093
-1.7187 s m -0.1623
-2.4734 s n -0.2079
-1.0856 s o -0.6328
-1.5689 s p -0.3074
-1.9494 s s -0.2061
-0.9446 s t -0.6721
-1.9494 s u -0.2035
-1.9494 s v -0.0462
-1.7187 s w 0.0489
-1.1050 t </s> 1.3341
-2.0786 t a -0.1362
-0.9675 t e -0.1260
-1.0738 t h 0.0506
-1.5869 t i -0.3324
-2.6026 t m -0.0423
-2.6026 t n -0.1531
-1.4984 t o -0.0806
-1.6981 t r -0.4463
-0.5757 t s -1.3758
-0.5052 t t -0.8942
-1.6981 t z -0.5786
-2.2672 u </s> 2.4802
-2.2672 u b -0.2173
-2.2672 u c -0.1496
-2.2672 u d -0.1973
-1.3627 u e -0.4114
-1.7432 u g -0.1908
-1.5126 u l -0.3082
-1.7432 u m -0.1706
-1.7432 u n -0.1742
-2.2672 u q 0.0224
-0.1699 u r -0.8324
-1.2515 u s -0.3617
-1.7432 u t -0.1687
-0.7840 v a -0.0611
-0.2301 v e -0.4550
-0.7840 v i -0.2476
-1.8881 v k -0.0604
-0.8354 w </s> 1.6351
-0.8354 w a -0.2401
-2.0131 w b 0.1840
-1.2584 w e -0.3385
-2.0131 w g -0.1994
-1.4890 w h -0.1704
-0.8354 w i -0.2969
-2.0131 w l -0.1714
-1.2584 w n -0.1962
-0.7726 w o -0.7096
-2.0131 w r -0.1752
-2.0131 w t -0.1812
-1.4890 w y -0.1546
-0.3696 x v -0.1414
-0.2339 y </s> 1.1580
-1.9137 y b -0.1626
-1.9137 y d -0.1839
-1.9137 y e -0.1536
-1.9137 y h -0.1723
-1.9137 y j -0.0065
-0.8980 y l 0.1859
-1.9137 y n -0.1531
-1.9137 y o -0.1514
-1.9137 y p -0.1937
-1.9137 y v -0.1414
-0.3682 z </s> 1.8782
-0.5180 z e -0.3286
-1.2727 z i -0.1515

\3-grams:
-1.5338 </s> <s> a 
-1.1275 </s> <s> b 
-1.2705 </s> <s> c 
-1.4849 </s> <s> d 
-1.4011 </s> <s> e 
-1.4849 </s> <s> f 
-1.5338 </s> <s> g 
-1.4849 </s> <s> h 
-2.3128 </s> <s> i 
-1.3646 </s> <s> j 
-1.7258 </s> <s> k 
-1.5338 </s> <s> l 
-1.0363 </s> <s> m 
-1.5338 </s> <s> n 
-1.9268 </s> <s> o 
-0.6990 </s> <s> p 
-1.5338 </s> <s> r 
-1.0531 </s> <s> s 
-1.4410 </s> <s> t 
-1.8148 </s> <s> v 
-1.5338 </s> <s> w 
-2.8594 </s> <s> z 
-0.5746 <s> a l 
-0.8091 <s> a m 
-1.3558 <s> a r 
-0.8091 <s> a s 
-1.3558 <s> a y 
-1.7440 <s> b a 
-0.6103 <s> b e 
-1.7440 <s> b l 
-1.7440 <s> b o 
-0.3694 <s> b r 
-0.9628 <s> b u 
-0.8245 <s> c a 
-0.8245 <s> c e 
-0.8245 <s> c h 
-1.6057 <s> c i 
-1.0590 <s> c l 
-1.6057 <s> c m 
-1.0590 <s> c o 
-1.6057 <s> c r 
-0.4689 <s> d a 
-1.4015 <s> d e 
-0.4689 <s> d o 
-1.4015 <s> d r 
-0.5481 <s> e a 
-1.4807 <s> e d 
-1.4807 <s> e f 
-0.9341 <s> e l 
-0.6996 <s> e r 
-1.4807 <s> e w 
-1.4015 <s> f a 
-0.8549 <s> f e 
-0.4689 <s> f i 
-1.4015 <s> f o 
-0.8549 <s> f r 
-1.3558 <s> g a 
-0.5746 <s> g i 
-0.8091 <s> g l 
-1.3558 <s> g o 
-0.8091 <s> g r 
-0.5103 <s> h a 
-0.8963 <s> h i 
-0.3983 <s> h o 
-0.7026 <s> i t 
-0.7026 <s> i v 
-0.9688 <s> j a 
-0.4708 <s> j e 
-0.4708 <s> j o 
-1.5155 <s> j u 
-0.3985 <s> k a 
-0.6330 <s> k e 
-1.1797 <s> k u 
-1.3558 <s> l a 
-0.8091 <s> l e 
-0.8091 <s> l i 
-0.8091 <s> l o 
-0.8091 <s> l u 
-0.3044 <s> m a 
-1.8329 <s> m c 
-1.2863 <s> m e 
-1.0518 <s> m i 
-0.6254 <s> m o 
-1.3558 <s> n a 
-0.2221 <s> n e 
-1.3558 <s> n i 
-1.3558 <s> n o 
-1.0036 <s> o a 
-0.4570 <s> o l 
-1.0036 <s> o r 
-1.6183 <s> p a 
-1.3838 <s> p g 
-1.6183 <s> p h 
-0.1064 <s> p i 
-1.3838 <s> p o 
-2.1650 <s> p r 
-2.1650 <s> p u 
-1.3558 <s> r a 
-0.8091 <s> r i 
-0.3111 <s> r o 
-1.3558 <s> r u 
-1.2699 <s> s a 
-1.8165 <s> s c 
-1.2699 <s> s e 
-1.2699 <s> s h 
-1.8165 <s> s k 
-1.8165 <s> s l 
-1.8165 <s> s m 
-1.8165 <s> s n 
-1.8165 <s> s o 
-1.2699 <s> s p 
-0.5459 <s> s t 
-1.2699 <s> s u 
-1.2699 <s> s w 
-0.8963 <s> t a 
-1.4429 <s> t e 
-0.6618 <s> t h 
-0.8963 <s> t i 
-1.4429 <s> t o 
-0.8963 <s> t r 
-0.5539 <s> v a 
-0.3194 <s> v e 
-0.4232 <s> w a 
-1.3558 <s> w e 
-1.3558 <s> w h 
-0.8091 <s> w i 
-1.3558 <s> w r 
-0.4015 <s> z e 
-0.0224 a </s> <s> 
-0.4015 a a n 
-0.8091 a c a 
-0.8091 a c e 
-0.8091 a c k 
-0.8091 a c o 
-1.3558 a c y 
-0.5235 a d </s> 
-1.3046 a d d 
-1.3046 a d f 
-1.3046 a d h 
-1.3046 a d o 
-1.3046 a d r 
-0.1559 a e l 
-0.4015 a f t 
-0.1559 a h o 
-0.4015 a k d 
-0.9688 a l d 
-0.5829 a l e 
-1.5155 a l i 
-0.9688 a l l 
-1.5155 a l m 
-1.5155 a l t 
-1.5155 a l u 
-1.5155 a l z 
-0.7000 a m e 
-0.4655 a m p 
-1.2466 a m s 
-1.2466 a m y 
-0.5558 a n </s> 
-1.7633 a n c 
-0.7186 a n d 
-0.8307 a n e 
-1.7633 a n g 
-1.7633 a n i 
-1.7633 a n n 
-1.2166 a n t 
-1.7633 a n z 
-0.7026 a p a 
-0.7026 a p l 
-1.9697 a r </s> 
-1.9697 a r a 
-1.9697 a r b 
-0.9251 a r d 
-1.1886 a r e 
-1.4231 a r g 
-0.9251 a r k 
-0.9251 a r l 
-1.1886 a r n 
-1.9697 a r o 
-1.0371 a r r 
-1.9697 a r s 
-1.1886 a r t 
-1.4231 a r y 
-0.8091 a s </s> 
-1.3558 a s b 
-1.3558 a s o 
-1.3558 a s p 
-0.4232 a s t 
-1.3558 a t </s> 
-0.8091 a t e 
-0.8091 a t h 
-0.4232 a t t 
-0.4015 a u l 
-0.2679 a v e 
-0.6204 a v i 
-1.4015 a v k 
-0.7026 a w </s> 
-0.7026 a w t 
-1.1005 a y b 
-1.1005 a y e 
-0.5539 a y l 
-1.1005 a y n 
-0.0710 b a r 
-0.4015 b b s 
-0.7580 b e a 
-1.3046 b e c 
-1.3046 b e e 
-0.5235 b e r 
-1.3046 b e v 
-0.4015 b i n 
-0.4015 b l a 
-0.4570 b o r 
-0.4570 b o u 
-0.8963 b r a 
-1.4429 b r e 
-1.4429 b r i 
-0.3093 b r o 
-1.4429 b r u 
-0.8787 b s </s> 
-0.3320 b s o 
-2.1175 b u c 
-0.0136 b u r 
-0.1559 c </s> <s> 
-0.7000 c a </s> 
-0.7000 c a l 
-0.7000 c a r 
-1.2466 c a v 
-0.4015 c c h 
-0.4655 c e </s> 
-1.2466 c e l 
-0.7000 c e n 
-1.2466 c e s 
-1.5155 c h </s> 
-0.3818 c h a 
-1.5155 c h f 
-1.5155 c h i 
-0.9688 c h r 
-0.9688 c h t 
-0.4015 c i n 
-0.5235 c k </s> 
-1.3046 c k e 
-1.3046 c k l 
-0.7580 c k w 
-1.3046 c k y 
-0.7026 c l a 
-0.7026 c l o 
-0.4015 c m u 
-1.1797 c o l 
-0.2471 c o n 
-1.1797 c o r 
-0.4015 c r a 
-0.4015 c y </s> 
-0.0106 d </s> <s> 
-0.8549 d a </s> 
-0.8549 d a l 
-1.4015 d a n 
-0.3569 d a v 
-0.4015 d b a 
-0.4015 d d o 
-0.5539 d e </s> 
-0.3194 d e r 
-0.4015 d f o 
-0.4015 d h e 
-0.4015 d i n 
-0.4015 d l e 
-1.3046 d o c 
-1.3046 d o l 
-1.3046 d o n 
-1.3046 d o r 
-1.3046 d o u 
-0.5235 d o w 
-0.4015 d p l 
-1.1797 d r a 
-0.2471 d r i 
-1.1797 d r o 
-0.4015 d s </s> 
-0.4015 d u g 
-0.4570 d w i 
-0.4570 d w o 
-0.1559 d y </s> 
-0.0066 e </s> <s> 
-1.5776 e a </s> 
-1.0310 e a c 
-1.0310 e a d 
-0.7965 e a n 
-1.5776 e a r 
-0.7965 e a s 
-1.5776 e a t 
-1.0310 e a v 
-0.7026 e c c 
-0.7026 e c h 
-1.0036 e d o 
-0.4570 e d r 
-1.0036 e d w 
-1.1797 e e l 
-1.1797 e e n 
-1.1797 e e p 
-1.1797 e e r 
-0.6330 e e s 
-0.7026 e f f 
-0.7026 e f r 
-0.7026 e g i 
-0.7026 e g l 
-0.4015 e h u 
-1.0036 e i d 
-0.2224 e i l 
-0.4015 e k </s> 
-0.6993 e l </s> 
-1.7440 e l a 
-0.9628 e l d 
-1.1973 e l e 
-1.7440 e l g 
-1.7440 e l i 
-0.4734 e l l 
-1.7440 e l s 
-0.7026 e m o 
-0.7026 e m p 
-0.4738 e n </s> 
-1.0183 e n d 
-1.7995 e n f 
-0.8669 e n n 
-1.7995 e n o 
-1.7995 e n s 
-1.0183 e n t 
-1.0183 e n u 
-0.2224 e p h 
-1.0036 e p y 
-0.6564 e r </s> 
-1.3173 e r a 
-1.8639 e r b 
-1.0828 e r e 
-1.8639 e r f 
-0.9313 e r i 
-1.8639 e r k 
-1.0828 e r l 
-1.8639 e r n 
-1.3173 e r o 
-1.3173 e r s 
-1.3173 e r t 
-0.2600 e s </s> 
-1.3046 e s b 
-1.3046 e s m 
-1.3046 e s p 
-0.3985 e t </s> 
-0.3985 e t t 
-0.4015 e u l 
-1.3046 e v a 
-0.0971 e v e 
-0.7665 e w </s> 
-1.5477 e w a 
-1.5477 e w b 
-1.5477 e w e 
-1.0010 e w i 
-0.6151 e w o 
-1.0010 e w y 
-0.1350 e y </s> 
-1.1797 e y d 
-0.4015 f </s> <s> 
-0.4015 f a r 
-0.4015 f b o 
-1.1005 f e d 
-1.1005 f e i 
-1.1005 f e l 
-1.1005 f e n 
-1.1005 f e r 
-0.7026 f f </s> 
-0.7026 f f r 
-1.1005 f i e 
-0.5539 f i f 
-1.1005 f i l 
-1.1005 f i n 
-0.0975 f o r 
-0.5539 f r a 
-1.1005 f r i 
-0.5539 f r o 
-0.3320 f t h 
-0.8787 f t o 
-0.0975 g </s> <s> 
-0.2224 g a r 
-1.0036 g a t 
-0.0411 g h </s> 
-2.1091 g h l 
-1.5625 g h o 
-2.1091 g h t 
-0.3985 g i b 
-1.1797 g i e 
-1.1797 g i n 
-1.1797 g i u 
-1.1005 g l a 
-0.1679 g l e 
-0.4015 g n o 
-0.4015 g o t 
-0.7026 g r e 
-0.7026 g r o 
-0.4015 g s </s> 
-0.4015 g t o 
-0.4015 g v i 
-0.0049 h </s> <s> 
-1.6803 h a c 
-1.6803 h a d 
-1.1337 h a e 
-1.6803 h a m 
-0.8991 h a n 
-0.5466 h a r 
-1.6803 h a s 
-1.6803 h a v 
-1.1337 h a w 
-1.6803 h a y 
-0.7000 h e a 
-1.2466 h e i 
-1.2466 h e n 
-1.2466 h e r 
-0.7000 h e w 
-0.4015 h f e 
-1.1797 h i </s> 
-1.1797 h i g 
-1.1797 h i l 
-1.1797 h i n 
-1.1797 h i r 
-1.1797 h i t 
-0.4015 h l a 
-0.8787 h n </s> 
-0.8787 h n k 
-0.8787 h n s 
-0.9341 h o b 
-1.4807 h o e 
-1.4807 h o f 
-1.4807 h o l 
-1.4807 h o m 
-1.4807 h o n 
-1.4807 h o r 
-0.9341 h o u 
-1.4807 h o w 
-1.4807 h o y 
-0.1559 h r i 
-0.3320 h t e 
-0.8787 h t s 
-0.4015 h u r 
-0.7026 h y </s> 
-0.7026 h y l 
-0.0558 i </s> <s> 
-0.4570 i a </s> 
-1.0036 i a m 
-1.0036 i a n 
-0.8787 i b b 
-0.3320 i b s 
-0.9341 i c </s> 
-1.4807 i c a 
-0.3471 i c h 
-0.9341 i c k 
-1.4807 i c o 
-0.4570 i d </s> 
-1.0036 i d e 
-1.0036 i d w 
-0.8091 i e </s> 
-0.8091 i e l 
-1.3558 i e n 
-0.8091 i e r 
-1.3558 i e t 
-1.3558 i e w 
-1.0036 i f e 
-1.0036 i f r 
-0.4570 i f t 
-0.3320 i g h 
-0.8787 i g i 
-0.4015 i k </s> 
-0.8091 i l </s> 
-1.3558 i l a 
-1.3558 i l d 
-1.3558 i l k 
-0.4232 i l l 
-0.8787 i m m 
-0.3320 i m o 
-0.7912 i n </s> 
-1.7238 i n a 
-1.1771 i n c 
-0.7912 i n d 
-1.7238 i n e 
-0.6791 i n g 
-1.1771 i n i 
-1.1771 i n s 
-0.4015 i o </s> 
-0.4015 i p s 
-0.4015 i r e 
-0.3194 i s </s> 
-1.1005 i s s 
-1.1005 i s t 
-1.5451 i t h 
-2.0917 i t n 
-0.0332 i t t 
-0.4015 i u r 
-1.1005 i v a 
-0.1679 i v e 
-0.1559 j a m 
-0.5539 j e a 
-1.1005 j e f 
-1.1005 j e n 
-1.1005 j e t 
-1.1797 j o </s> 
-0.6330 j o h 
-1.1797 j o n 
-0.6330 j o s 
-0.4015 j u l 
-0.0245 k </s> <s> 
-0.0710 k a r 
-0.4015 k d a 
-1.1797 k e a 
-0.6330 k e e 
-1.1797 k e l 
-1.1797 k e n 
-1.1797 k e r 
-0.4015 k h a 
-0.8787 k i </s> 
-0.3320 k i n 
-0.4015 k l e 
-0.4015 k r o 
-0.4015 k s </s> 
-0.4015 k u n 
-0.7026 k w h 
-0.7026 k w o 
-0.1559 k y </s> 
-0.0206 l </s> <s> 
-1.0010 l a </s> 
-1.5477 l a a 
-0.6151 l a c 
-1.5477 l a m 
-0.6151 l a n 
-1.5477 l a r 
-1.5477 l a s 
-0.3111 l d </s> 
-1.3558 l d a 
-1.3558 l d b 
-1.3558 l d e 
-1.3558 l d i 
-0.4738 l e </s> 
-1.7995 l e a 
-1.7995 l e d 
-1.7995 l e e 
-1.2528 l e n 
-1.7995 l e r 
-1.2528 l e s 
-1.7995 l e u 
-1.7995 l e v 
-1.2528 l e w 
-0.8669 l e y 
-0.4015 l f o 
-0.4015 l g i 
-1.4807 l i a 
-0.6996 l i e 
-1.4807 l i f 
-1.4807 l i g 
-0.6996 l i n 
-1.4807 l i o 
-1.4807 l i p 
-1.4807 l i s 
-0.4015 l k i 
-0.5610 l l </s> 
-0.8245 l l e 
-0.6731 l l i 
-1.6057 l l o 
-1.6057 l l s 
-1.0590 l l y 
-0.4015 l m o 
-1.1005 l o n 
-1.1005 l o o 
-1.1005 l o r 
-1.1005 l o u 
-1.1005 l o w 
-0.8787 l s k 
-0.8787 l s o 
-0.8787 l s w 
-0.4015 l t m 
-0.8787 l u b 
-0.8787 l u d 
-0.8787 l u s 
-0.0975 l y </s> 
-0.4015 l z e 
-0.0975 m </s> <s> 
-1.6803 m a c 
-1.6803 m a h 
-1.6803 m a l 
-1.1337 m a n 
-1.6803 m a p 
-0.4097 m a r 
-1.1337 m a s 
-1.1337 m a t 
-1.6803 m a u 
-0.4015 m c k 
-1.2466 m e a 
-1.2466 m e m 
-0.4655 m e r 
-0.7000 m e s 
-0.5539 m i c 
-1.1005 m i d 
-0.5539 m i t 
-0.7026 m m </s> 
-0.7026 m m e 
-1.4429 m o d 
-1.4429 m o h 
-0.8963 m o n 
-0.3093 m o r 
-1.4429 m o t 
-1.0036 m p e 
-1.0036 m p l 
-0.4570 m p s 
-0.4015 m s </s> 
-0.4015 m u </s> 
-0.4015 m y </s> 
-0.0070 n </s> <s> 
-0.4655 n a </s> 
-1.2466 n a l 
-1.2466 n a n 
-0.7000 n a t 
-0.4015 n b u 
-0.4570 n c e 
-1.0036 n c k 
-1.0036 n c o 
-0.7343 n d </s> 
-0.5829 n d a 
-0.9688 n d e 
-1.5155 n d l 
-1.5155 n d r 
-0.9688 n d y 
-0.6356 n e </s> 
-1.1337 n e g 
-1.6803 n e h 
-1.6803 n e i 
-0.8991 n e l 
-1.6803 n e s 
-1.6803 n e t 
-0.8991 n e w 
-1.1337 n e y 
-0.4015 n f e 
-1.2466 n g </s> 
-0.7000 n g h 
-1.2466 n g l 
-1.2466 n g s 
-1.2466 n g t 
-1.2466 n g v 
-0.8963 n i </s> 
-0.8963 n i a 
-0.6618 n i c 
-1.4429 n i e 
-1.4429 n i f 
-1.4429 n i m 
-1.4429 n i n 
-0.4015 n k e 
-0.7000 n n </s> 
-1.2466 n n a 
-1.2466 n n e 
-0.7000 n n i 
-1.2466 n n y 
-1.0036 n o </s> 
-1.0036 n o o 
-1.0036 n o p 
-1.0036 n o w 
-1.0036 n s </s> 
-1.0036 n s h 
-1.0036 n s k 
-1.0036 n s o 
-1.2466 n t </s> 
-1.2466 n t o 
-0.7000 n t r 
-0.4655 n t z 
-0.0975 n u e 
-0.4015 n x v 
-0.4015 n y v 
-0.4015 n z i 
-0.0558 o </s> <s> 
-0.2224 o a d 
-1.0036 o a k 
-0.4570 o b a 
-0.4570 o b e 
-0.4015 o c k 
-0.2221 o d </s> 
-1.3558 o d o 
-1.3558 o d s 
-1.3558 o d u 
-0.4015 o e </s> 
-0.7026 o f b 
-0.7026 o f f 
-0.0975 o h n 
-0.4015 o k h 
-1.1797 o l a 
-1.1797 o l d 
-1.1797 o l e 
-1.1797 o l i 
-1.1797 o l l 
-1.1797 o l s 
-0.6330 o m </s> 
-0.6330 o m a 
-0.6330 o m e 
-0.3746 o n </s> 
-0.9003 o n a 
-1.8329 o n b 
-1.8329 o n c 
-1.8329 o n e 
-1.8329 o n g 
-0.9003 o n i 
-1.8329 o n n 
-1.8329 o n t 
-1.8329 o n x 
-0.2354 o o d 
-1.4429 o o f 
-1.4429 o o k 
-1.4429 o o m 
-1.4429 o o n 
-0.7026 o p h 
-0.7026 o p l 
-0.8991 o r </s> 
-1.6803 o r c 
-0.8991 o r d 
-0.6356 o r e 
-1.6803 o r k 
-1.6803 o r n 
-1.6803 o r o 
-1.1337 o r t 
-1.6803 o r w 
-1.6803 o r y 
-0.3194 o s e 
-1.1005 o s s 
-1.1005 o s t 
-0.7026 o t h 
-0.7026 o t t 
-1.2466 o u g 
-1.2466 o u q 
-1.2466 o u r 
-0.7000 o u s 
-0.7000 o u t 
-0.5746 o w </s> 
-1.3558 o w e 
-1.3558 o w g 
-1.3558 o w l 
-0.5746 o w n 
-0.1559 o y </s> 
-0.4015 o z e 
-0.8787 p a h 
-0.8787 p a r 
-0.8787 p a t 
-0.4015 p e r 
-0.0975 p g h 
-0.6330 p h </s> 
-0.6330 p h e 
-1.1797 p h i 
-1.1797 p h y 
-2.0643 p i n 
-0.0154 p i t 
-0.5539 p l a 
-0.3194 p l e 
-0.4015 p n e 
-1.0036 p o l 
-0.4570 p o m 
-1.0036 p o r 
-0.0975 p r i 
-0.8787 p s </s> 
-0.8787 p s h 
-0.8787 p s o 
-0.4015 p u s 
-0.4015 p y h 
-0.4015 q u e 
-0.0245 r </s> <s> 
-1.4429 r a c 
-0.8963 r a d 
-1.4429 r a f 
-0.3983 r a n 
-1.4429 r a p 
-1.4429 r a v 
-0.7026 r b o 
-0.7026 r b u 
-0.1559 r c h 
-0.1710 r d </s> 
-1.3046 r d p 
-1.3046 r d w 
-0.7700 r e </s> 
-1.1559 r e a 
-1.7026 r e e 
-1.7026 r e k 
-1.1559 r e l 
-0.7700 r e n 
-1.1559 r e t 
-0.7700 r e w 
-0.4015 r f i 
-1.5361 r g </s> 
-1.5361 r g a 
-0.0438 r g h 
-1.6803 r i </s> 
-1.6803 r i a 
-0.6356 r i c 
-1.6803 r i g 
-1.6803 r i k 
-0.7477 r i n 
-1.1337 r i s 
-0.7477 r i v 
-0.2600 r k </s> 
-1.3046 r k e 
-1.3046 r k r 
-1.3046 r k s 
-1.3046 r l </s> 
-0.5235 r l a 
-0.7580 r l e 
-1.3046 r l f 
-1.3046 r l y 
-1.1005 r n </s> 
-1.1005 r n d 
-0.3194 r n e 
-1.7238 r o </s> 
-0.9426 r o a 
-1.1771 r o b 
-1.7238 r o m 
-0.6791 r o n 
-1.1771 r o o 
-0.9426 r o s 
-1.1771 r o w 
-1.7238 r o y 
-1.7238 r o z 
-0.3194 r r e 
-1.1005 r r o 
-1.1005 r r y 
-0.2224 r s o 
-1.0036 r s t 
-0.2020 r t </s> 
-1.2466 r t h 
-1.2466 r t z 
-0.7026 r u m 
-0.7026 r u s 
-0.4015 r w a 
-0.3140 r y </s> 
-1.2466 r y j 
-1.2466 r y l 
-1.2466 r y p 
-0.0157 s </s> <s> 
-0.7026 s a t 
-0.7026 s a y 
-2.0736 s b o 
-0.0151 s b u 
-0.4015 s c a 
-1.2466 s e </s> 
-1.2466 s e l 
-1.2466 s e m 
-1.2466 s e n 
-0.7000 s e p 
-1.2466 s e w 
-0.4570 s h a 
-1.0036 s h e 
-1.0036 s h i 
-1.1005 s k a 
-1.1005 s k e 
-0.5539 s k i 
-1.1005 s k y 
-0.4015 s l e 
-0.3320 s m a 
-0.8787 s m i 
-0.4015 s n o 
-1.4429 s o </s> 
-0.1173 s o n 
-1.4429 s o u 
-1.0036 s p n 
-1.0036 s p o 
-0.4570 s p r 
-0.7026 s s m 
-0.7026 s s v 
-1.0310 s t </s> 
-0.2031 s t e 
-1.5776 s t i 
-1.0310 s t o 
-0.7026 s u m 
-0.7026 s u n 
-0.7026 s v a 
-0.7026 s v i 
-0.8787 s w a 
-0.8787 s w i 
-0.8787 s w o 
-0.0191 t </s> <s> 
-0.7026 t a n 
-0.7026 t a y 
-1.1337 t e </s> 
-1.6803 t e d 
-1.6803 t e e 
-1.6803 t e l 
-0.8991 t e n 
-1.6803 t e p 
-0.6356 t e r 
-0.6356 t e v 
-0.6450 t h </s> 
-0.4440 t h a 
-1.0310 t h e 
-1.0310 t h o 
-1.5776 t h y 
-0.5539 t i e 
-0.5539 t i m 
-1.1005 t i n 
-0.4015 t m a 
-0.4015 t n e 
-1.1797 t o d 
-1.1797 t o m 
-0.6330 t o n 
-1.1797 t o p 
-1.1797 t o w 
-1.0036 t r a 
-0.2224 t r e 
-0.0154 t s b 
-2.0643 t s v 
-1.5873 t t </s> 
-1.2013 t t e 
-1.5873 t t h 
-2.1339 t t i 
-0.0850 t t s 
-0.0710 t z </s> 
-0.4015 u </s> <s> 
-0.4015 u b i 
-0.4015 u c k 
-0.4015 u d w 
-0.2224 u e </s> 
-1.0036 u e t 
-0.7026 u g l 
-0.7026 u g n 
-0.8787 u l d 
-0.3320 u l i 
-0.7026 u m i 
-0.7026 u m m 
-0.7026 u n n 
-0.7026 u n t 
-0.4015 u q u 
-2.1339 u r c 
-0.0754 u r g 
-2.1339 u r i 
-2.1339 u r k 
-2.1339 u r r 
-2.1339 u r s 
-1.3528 u r y 
-0.5539 u s e 
-0.5539 u s k 
-1.1005 u s o 
-0.7026 u t h 
-0.7026 u t i 
-1.1797 v a </s> 
-0.3985 v a l 
-1.1797 v a n 
-1.1797 v a r 
-0.4320 v e </s> 
-1.7026 v e c 
-1.7026 v e l 
-0.4951 v e n 
-0.9214 v e r 
-0.6330 v i d 
-1.1797 v i e 
-0.6330 v i l 
-1.1797 v i n 
-0.4015 v k </s> 
-0.0391 w </s> <s> 
-1.2466 w a l 
-0.3140 w a r 
-1.2466 w a t 
-1.2466 w a y 
-0.4015 w b u 
-0.8787 w e i 
-0.3320 w e l 
-0.4015 w g a 
-0.7026 w h e 
-0.7026 w h i 
-0.7000 w i c 
-0.7000 w i l 
-1.2466 w i n 
-0.7000 w i s 
-0.4015 w l i 
-0.3320 w n </s> 
-0.8787 w n i 
-0.0971 w o o 
-1.3046 w o r 
-0.4015 w r i 
-0.4015 w t h 
-0.7026 w y l 
-0.7026 w y o 
-0.4015 x v i 
-0.0127 y </s> <s> 
-0.4015 y b r 
-0.4015 y d r 
-0.4015 y e r 
-0.4015 y h o 
-0.4015 y j o 
-1.1005 y l a 
-1.1005 y l d 
-1.1005 y l e 
-1.1005 y l l 
-1.1005 y l o 
-0.4015 y n e 
-0.4015 y o r 
-0.4015 y p l 
-0.4015 y v a 
-0.0710 z </s> <s> 
-0.3320 z e l 
-0.8787 z e v 
-0.4015 z i n 

\end\
