#############################################################################
## Copyright (c) 1996, Carnegie Mellon University, Cambridge University,
## Ronald Rosenfeld and Philip Clarkson
#############################################################################
=============================================================================
===============  This file was produced by the CMU-Cambridge  ===============
===============     Statistical Language Modeling Toolkit     ===============
=============================================================================
This is a 3-gram language model, based on a vocabulary of 100 words,
  which begins "<s>", "a", "and"...
This is an OPEN-vocabulary model (type 1)
  (OOVs were mapped to UNK, which is treated as any other vocabulary word)
Good-Turing discounting was applied.
1-gram frequency of frequency : 14 
2-gram frequency of frequency : 509 226 126 61 53 47 26 
3-gram frequency of frequency : 2688 538 188 87 56 27 16 
1-gram discounting ratios : 0.88 
2-gram discounting ratios : 0.78 0.69 0.32 
3-gram discounting ratios : 0.37 0.50 0.60 0.80 0.56 0.68 1.00 
This file is in the ARPA-standard format introduced by Doug Paul.

p(wd3|wd1,wd2)= if(trigram exists)           p_3(wd1,wd2,wd3)
                else if(bigram w1,w2 exists) bo_wt_2(w1,w2)*p(wd3|wd2)
                else                         p(wd3|w2)

p(wd2|wd1)= if(bigram exists) p_2(wd1,wd2)
            else              bo_wt_1(wd1)*p_1(wd2)

All probs and back-off weights (bo_wt) are given in log10 form.

Data formats:

Beginning of data mark: \data\
ngram 1=nr            # number of 1-grams
ngram 2=nr            # number of 2-grams
ngram 3=nr            # number of 3-grams

\1-grams:
p_1     wd_1 bo_wt_1
\2-grams:
p_2     wd_1 wd_2 bo_wt_2
\3-grams:
p_3     wd_1 wd_2 wd_3 

end of data mark: \end\

\data\
ngram 1=101
ngram 2=1256
ngram 3=3661

\1-grams:
-3.7935 <UNK>	0.0000
-98.9999 <s>	-0.3035
-1.4133 a	-0.7244
-2.8324 and	-0.3516
-3.7935 apostrophe	-0.6555
-3.7935 april	-0.6671
-3.7935 area	-0.6673
-3.1335 august	-0.2452
-1.6600 b	-0.5542
-1.8605 c	-0.4599
-3.7935 code	-0.6539
-1.7312 d	-0.4908
-3.7935 december	-0.6673
-1.3393 e	-0.8132
-1.5508 eight	-1.1996
-3.7935 eighteen	-0.6672
-3.7935 eighteenth	-0.6650
-3.7935 eighth	-0.6650
-2.5594 eighty	-0.5021
-3.1335 eleven	-0.6521
-3.7935 eleventh	-0.6650
-1.8112 enter	-0.8409
-2.2170 erase	-0.2032
-1.9226 f	-0.3818
-3.4345 february	-0.6649
-3.0366 fifteen	-0.2975
-3.4345 fifteenth	-0.5000
-3.4345 fifth	-0.6527
-2.1792 fifty	-0.7558
-3.2584 first	-0.1645
-1.4302 five	-1.6816
-2.3042 forty	-0.3236
-1.5154 four	-1.2727
-2.7813 fourteen	-0.2542
-3.7935 fourth	-0.6650
-1.6748 g	-0.6840
-2.7355 go	-1.0414
-1.5682 h	-0.5022
-3.4345 half	-0.5024
-2.6563 help	-1.1139
-2.6563 hundred	-0.8446
-1.5180 i	-0.8336
-2.0543 j	-0.2084
-3.4345 january	-0.6671
-3.2584 july	-0.6638
-3.4345 june	-0.6642
-1.8904 k	-0.3553
-1.5925 l	-0.5228
-1.7861 m	-0.3516
-3.2584 march	-0.6639
-3.2584 may	-0.6617
-1.5128 n	-0.7949
-1.6902 nine	-0.9340
-2.2584 nineteen	-0.9148
-2.7355 ninety	-0.4322
-3.4345 ninth	-0.6614
-2.5314 no	-1.2304
-1.5369 o	-0.8545
-3.2584 october	-0.6638
-3.4345 of	-0.6612
-1.8967 oh	-1.0048
-1.2930 one	-1.5315
-1.7355 p	-0.5730
-2.2584 q	-0.1403
-1.3872 r	-1.2448
-2.5051 repeat	-1.2553
-1.9647 rubout	-0.1523
-1.5566 s	-0.7210
-3.4345 second	-0.5000
-3.0366 september	-0.6614
-1.5802 seven	-0.8213
-3.0366 seventeen	-0.5251
-3.7935 seventh	-0.6650
-2.3206 seventy	-0.6363
-1.5207 six	-1.5185
-3.2584 sixteen	-0.5428
-3.7935 sixteenth	-0.6650
-3.7935 sixth	-0.6650
-1.8782 sixty	-1.3587
-2.6941 start	-1.0792
-2.5314 stop	-1.2304
-1.4217 t	-0.8910
-2.5894 ten	-0.9290
-3.2584 third	-0.1645
-3.2584 thirtieth	-0.1645
-2.1915 thirty	-0.7230
-2.7813 thousand	-0.4962
-1.6117 three	-1.2466
-3.4345 twelfth	-0.5000
-2.7813 twelve	-0.5859
-3.7935 twentieth	-0.6650
-2.1445 twenty	-0.5986
-1.3139 two	-1.5843
-1.7061 u	-0.3372
-1.9293 v	-0.6702
-1.8782 w	-0.4078
-2.2304 x	-0.2216
-1.9293 y	-0.3075
-2.4133 yes	-1.3424
-2.0823 z	-0.1113
-2.1792 zero	-0.7662

\2-grams:
-1.8039 <s> a 0.0352
-3.0852 <s> april 0.4638
-3.0852 <s> area 0.4638
-2.3779 <s> august -0.0925
-1.5328 <s> b 0.0990
-1.7496 <s> c -0.0007
-1.9008 <s> d -0.2555
-3.0852 <s> december 0.4638
-1.8039 <s> e -0.0788
-2.0769 <s> eight -0.0649
-3.0852 <s> eighteen 0.4638
-2.8429 <s> eleven 0.0128
-1.0557 <s> enter 0.3652
-1.4615 <s> erase 0.1761
-1.8039 <s> f -0.1115
-3.0852 <s> february 0.0128
-2.0769 <s> fifty 0.0517
-1.7759 <s> five -0.0231
-3.0852 <s> forty -0.1339
-1.4886 <s> four -0.2608
-3.0852 <s> fourteen -0.1640
-1.8039 <s> g -0.1500
-1.9386 <s> go 0.0000
-1.7496 <s> h -0.1207
-1.8661 <s> help 0.0000
-2.3779 <s> i 0.0009
-1.7012 <s> j -0.0231
-2.8429 <s> january 0.4638
-2.9990 <s> july 0.4638
-2.8429 <s> june 0.4638
-2.0769 <s> k -0.1497
-1.9008 <s> l -0.0275
-1.5029 <s> m -0.4548
-2.9990 <s> march 0.4638
-2.8429 <s> may 0.1181
-1.8661 <s> n -0.0964
-2.2019 <s> nine -0.1089
-3.0852 <s> ninth 0.0128
-1.7496 <s> no 0.0000
-2.0258 <s> o -0.1785
-2.9990 <s> october 0.4638
-2.9990 <s> oh -0.1193
-1.0210 <s> one -0.2871
-1.1876 <s> p -0.4928
-2.8429 <s> q -0.1712
-1.8661 <s> r 0.1168
-1.7247 <s> repeat 0.0000
-1.2092 <s> rubout 0.0993
-1.5029 <s> s -0.1717
-2.3779 <s> september 0.2258
-1.9386 <s> seven -0.1518
-1.6790 <s> six -0.0829
-2.8429 <s> sixty -0.0825
-1.9008 <s> start 0.0000
-1.7496 <s> stop 0.0000
-1.9008 <s> t -0.1559
-2.2810 <s> ten -0.0607
-2.3779 <s> thirty 0.1196
-1.7759 <s> three -0.1265
-2.2019 <s> twelve 0.0675
-3.0852 <s> twenty -0.1880
-1.5998 <s> two -0.0665
-2.8429 <s> u -0.1744
-1.9008 <s> v 0.0084
-1.9800 <s> w -0.1987
-2.2810 <s> x -0.1468
-2.9990 <s> y -0.1777
-1.6376 <s> yes 0.0000
-2.3779 <s> z -0.1686
-1.1461 a <s> -0.4108
-1.7202 a a -0.1125
-2.1852 a b -0.1978
-1.2430 a c -0.0129
-1.3222 a d 0.0501
-2.3412 a e -0.2251
-2.1852 a f -0.1661
-1.7202 a g -0.2041
-1.7202 a h -0.2037
-2.1852 a half 0.1984
-2.3412 a i -0.1715
-2.4274 a j -0.1948
-2.3412 a k -0.1887
-1.1761 a l -0.0042
-1.2083 a m -0.1667
-0.9243 a n 0.1046
-2.4274 a ninety -0.1395
-2.3412 a p -0.1589
-0.7094 a r 0.3853
-1.3222 a s 0.1596
-2.3412 a six 0.0326
-1.3222 a t 0.0138
-2.4274 a two -0.0937
-2.1852 a u -0.1965
-1.2430 a v -0.3787
-2.3412 a w -0.1445
-2.4274 a x -0.1846
-1.6232 a y -0.1789
-2.4274 a z -0.1901
-0.7660 and a -0.3012
-0.9220 and eighty -0.0563
-1.0083 and fifty -0.1524
-1.0083 and sixty -0.1979
-1.0083 and twenty -0.1440
-0.1052 apostrophe h -0.1297
-0.1052 april thirtieth -0.0367
-0.1052 area code 0.4638
-0.7072 august sixteenth 0.4638
-0.6210 august twenty -0.2432
-1.2304 b a -0.2832
-2.1807 b b -0.2001
-2.1807 b d -0.1994
-1.0342 b e -0.1954
-2.1807 b eight -0.0275
-2.1807 b five -0.0829
-1.9385 b forty -0.1716
-2.1807 b g -0.1682
-2.1807 b h -0.2013
-2.1807 b i -0.1445
-1.9385 b j -0.1836
-2.1807 b k -0.1950
-2.1807 b l -0.1575
-2.0945 b m -0.1500
-1.3766 b o -0.1913
-2.1807 b one -0.1892
-2.1807 b p -0.2002
-1.0342 b r -0.1719
-2.0945 b s -0.1753
-1.9385 b seven -0.1755
-1.9385 b seventy -0.2884
-2.1807 b six -0.0181
-0.3595 b u -1.6080
-2.1807 b v -0.1533
-2.1807 b w -0.1952
-2.0945 b x -0.1704
-2.1807 b y -0.1942
-2.1807 b z -0.1959
-1.7380 c <s> -0.1869
-1.0300 c a -0.0732
-1.7380 c b -0.1559
-1.9802 c c -0.1067
-1.9802 c d -0.1630
-1.0300 c e -0.0909
-1.9802 c f -0.1971
-1.7380 c five -0.1677
-0.6990 c h 0.1218
-1.9802 c i -0.1445
-1.9802 c j -0.1910
-0.9208 c k -0.0757
-1.8940 c l -0.1369
-1.9802 c m -0.1989
-1.0969 c o -0.2770
-1.9802 c r -0.1775
-1.9802 c s -0.2013
-1.9802 c seven -0.1881
-1.9802 c t -0.2016
-1.7380 c thirty -0.2224
-1.9802 c two -0.0937
-1.9802 c u -0.2004
-1.9802 c v -0.1970
-1.7380 c w -0.1672
-1.7380 c y -0.0229
-1.8940 c z -0.1802
-0.1052 code four -0.1418
-0.6064 d <s> -0.2776
-0.9629 d a -0.1398
-1.8673 d b -0.1719
-2.0233 d d -0.1556
-1.1592 d e -0.1551
-1.8673 d f -0.1389
-2.1095 d forty -0.1339
-2.1095 d h -0.1793
-1.8673 d i -0.1000
-2.1095 d j -0.1910
-2.0233 d k -0.1838
-2.1095 d l -0.1059
-1.8673 d m -0.1929
-2.1095 d n -0.1482
-1.0501 d o 0.0232
-2.1095 d oh -0.1571
-1.8673 d one -0.1870
-2.1095 d p -0.1813
-1.8673 d q -0.1712
-1.0501 d r -0.0738
-1.8673 d s -0.1318
-1.8673 d two -0.1475
-2.1095 d u -0.1997
-2.1095 d v -0.1942
-1.3054 d w -0.1667
-2.0233 d y -0.0872
-2.1095 d z -0.1959
-0.1052 december eighteenth 0.4638
-0.7834 e <s> -0.3605
-1.1658 e a 0.0972
-2.2591 e b -0.1956
-2.2591 e c -0.1010
-1.5511 e d -0.1011
-1.3962 e e 0.0458
-2.2591 e eight -0.1650
-2.4152 e f -0.1560
-2.4152 e four -0.1602
-1.7941 e g -0.1271
-2.5014 e h -0.1995
-1.7941 e i -0.2995
-2.2591 e j -0.2915
-2.5014 e k -0.1293
-1.0538 e l 0.0149
-1.7941 e m -0.1626
-0.9812 e n -0.3411
-2.5014 e o -0.1839
-1.6180 e p -0.2514
-2.5014 e q -0.1833
-0.9048 e r -0.0775
-1.4420 e s -0.0043
-2.5014 e seventy -0.1908
-1.4931 e t -0.1884
-2.5014 e thirty -0.1219
-2.2591 e three -0.1625
-2.5014 e two -0.1834
-2.4152 e u -0.1908
-1.4420 e v -0.5450
-1.1921 e w -0.0348
-2.5014 e x -0.1846
-1.6180 e y -0.1447
-2.2591 e z -0.1548
-0.4771 eight <s> -0.0546
-1.4065 eight eight -0.1477
-1.1847 eight five 0.0731
-2.2899 eight forty -0.1809
-1.0086 eight four 0.1221
-2.2899 eight fourteen -0.1547
-2.2036 eight hundred 0.1458
-1.4857 eight nine 0.0821
-1.4065 eight oh 0.1575
-1.3396 eight one 0.0003
-1.2816 eight seven 0.1806
-2.0476 eight seventy -0.1280
-1.4065 eight six 0.2094
-2.2036 eight sixty 0.0124
-2.2899 eight thirty -0.1509
-2.2899 eight thousand -0.1640
-1.1055 eight three 0.2539
-2.0476 eight twenty -0.1261
-1.2304 eight two -0.0286
-1.5826 eight zero 0.2789
-0.1052 eighteen february 0.0128
-0.1052 eighteenth nineteen -0.1833
-0.1052 eighth nineteen -0.1833
-1.2813 eighty eight -0.0275
-1.2813 eighty fifth 0.0128
-1.2813 eighty five -0.0829
-1.2813 eighty four -0.0479
-1.1950 eighty nine -0.0095
-1.2813 eighty one -0.1075
-1.2813 eighty seven 0.0709
-0.4771 eighty six -0.1713
-1.2813 eighty three -0.0242
-0.7072 eleven <s> -0.1995
-0.7072 eleven nine -0.2005
-0.7072 eleven seventeen -0.0644
-0.7072 eleven sixty -0.1337
-0.1052 eleventh nineteen 0.3705
-1.0212 enter eight -0.0461
-2.0295 enter eighty -0.1749
-2.0295 enter fifteen -0.1113
-1.2253 enter fifty -0.0871
-1.1461 enter five 0.1640
-1.9432 enter forty -0.0184
-1.1461 enter four -0.0982
-2.0295 enter fourteen -0.1547
-1.3222 enter nine 0.0674
-1.9432 enter ninety 0.0265
-1.3222 enter one -0.1812
-0.9700 enter seven 0.0833
-1.3222 enter seventy 0.0594
-1.0212 enter six 0.1092
-1.0212 enter sixty -0.0875
-1.9432 enter thirty -0.0856
-1.7872 enter three -0.0203
-2.0295 enter twenty -0.1566
-1.1461 enter two -0.0450
-2.0295 enter zero 0.0974
-1.6237 erase a -0.1736
-1.6237 erase b -0.2001
-1.3815 erase c -0.1389
-1.3815 erase e -0.2008
-1.6237 erase f -0.1943
-1.3815 erase g 0.0673
-1.3815 erase i -0.1764
-1.3815 erase j -0.1891
-1.6237 erase k -0.1950
-1.6237 erase m -0.1968
-1.6237 erase n -0.1795
-1.5375 erase o -0.2489
-1.3815 erase q -0.1620
-1.6237 erase r -0.1957
-1.3815 erase s -0.1980
-1.6237 erase t -0.2007
-1.5375 erase v -0.1861
-1.3815 erase w -0.1699
-1.6237 erase x -0.1928
-1.6237 erase y -0.1942
-1.6237 erase z -0.1901
-1.9181 f <s> -0.1892
-1.9181 f a -0.1092
-1.6759 f b -0.1813
-1.9181 f d -0.1815
-0.9098 f e 0.0100
-1.9181 f eight -0.0275
-1.8319 f f -0.1573
-1.6759 f five -0.1865
-1.9181 f g -0.1723
-1.6759 f h -0.1892
-0.9678 f i -0.0875
-1.6759 f j -0.1836
-1.6759 f k -0.1661
-1.6759 f m -0.1959
-1.1139 f o -0.2486
-1.9181 f q -0.1895
-1.1139 f r -0.1642
-1.9181 f s -0.1676
-1.9181 f six -0.2015
-1.2109 f t -0.1976
-1.9181 f thirty -0.1915
-1.9181 f twenty -0.1928
-1.8319 f two -0.1319
-1.9181 f v -0.1982
-1.2109 f x -0.1314
-1.6759 f y -0.1846
-1.9181 f z -0.1959
-0.4062 february eighth 0.4638
-0.4062 february nineteen -0.1895
-0.7179 fifteen <s> -0.1416
-0.8042 fifteen nineteen -0.1895
-0.8042 fifteen sixty -0.1732
-0.1640 fifteenth nineteen 0.2700
-0.4062 fifth nineteen 0.3705
-0.4062 fifth s -0.1517
-1.4192 fifty <s> -0.1621
-0.7782 fifty eight -0.2568
-0.9542 fifty five -0.2163
-1.5753 fifty four -0.2427
-1.6615 fifty nine 0.0494
-0.8573 fifty one -0.2041
-1.4192 fifty seven 0.0788
-0.7782 fifty six -0.0677
-1.6615 fifty sixty -0.1604
-1.4192 fifty three -0.0174
-0.9542 fifty two -0.2294
-0.4961 first nineteen 0.1757
-0.6152 five <s> 0.0615
-1.5272 five eight -0.2126
-1.5272 five five 0.2646
-2.4105 five forty -0.1339
-1.5272 five four 0.0228
-2.1683 five hundred 0.2101
-2.4105 five m -0.0867
-1.4603 five nine 0.2833
-1.4023 five oh 0.1102
-1.1293 five one 0.1929
-1.5272 five seven 0.1240
-1.4603 five six 0.1179
-2.4105 five sixteen 0.0616
-2.4105 five t -0.1662
-2.4105 five ten 0.0974
-2.1683 five thirty -0.0397
-1.3511 five three 0.0682
-2.4105 five twenty -0.1440
-0.4728 five two 0.0925
-1.6064 five zero 0.2478
-1.4503 forty eight -0.2223
-0.8293 forty five -0.5699
-1.4503 forty four -0.2427
-1.4503 forty nine -0.0095
-1.2943 forty one -0.2079
-0.8293 forty seven -0.0608
-1.5365 forty six -0.0181
-0.8293 forty three -0.0086
-1.4503 forty two -0.2885
-0.5211 four <s> -0.0427
-2.3253 four and -0.1219
-1.3170 four eight 0.1703
-2.0830 four fifty -0.0452
-1.3750 four five 0.1260
-2.0830 four forty -0.1716
-1.0440 four four 0.1682
-1.6180 four nine 0.1409
-2.3253 four ninety -0.1681
-1.4420 four oh 0.1419
-0.8777 four one -0.4158
-1.2659 four seven 0.1013
-2.3253 four seventy -0.0275
-1.3170 four six 0.1066
-2.0830 four sixty -0.0978
-2.3253 four thirty -0.1862
-2.2391 four thousand -0.0317
-1.5211 four three 0.0503
-2.0830 four twenty -0.1261
-1.0160 four two -0.2462
-2.3253 four zero 0.0974
-0.9732 fourteen <s> -0.2455
-1.0594 fourteen a -0.1714
-1.0594 fourteen eighty -0.1802
-1.0594 fourteen fourteen -0.1547
-0.9732 fourteen sixty -0.0156
-0.1052 fourth nineteen -0.1833
-2.0797 g <s> -0.1384
-1.1065 g a -0.2228
-2.1659 g b -0.1985
-1.9236 g c -0.1944
-1.9236 g d -0.1287
-1.9236 g e -0.1840
-2.1659 g eighty -0.0275
-2.1659 g forty -0.1879
-0.3447 g h -0.9766
-1.1576 g i -0.1208
-1.9236 g j -0.1836
-1.9236 g k -0.1937
-1.1065 g l -0.1326
-1.4586 g n -0.1634
-1.9236 g nine -0.1450
-2.1659 g o -0.1868
-2.1659 g p -0.1976
-2.1659 g q -0.1921
-1.9236 g r -0.1057
-2.1659 g s -0.1517
-2.1659 g seventy -0.1879
-2.1659 g t -0.1907
-1.9236 g two -0.2010
-2.1659 g u -0.2004
-1.9236 g v -0.1427
-1.9236 g w -0.1672
-0.0414 go <s> -0.1202
-0.4349 h <s> -0.9879
-0.8056 h a 0.0161
-1.5653 h b -0.1673
-1.2642 h e -0.0428
-2.1863 h f -0.0828
-2.2725 h fifty -0.1524
-2.2725 h four -0.0479
-2.0303 h g -0.1954
-2.2725 h h -0.1995
-1.3892 h i 0.1444
-2.0303 h k -0.1889
-2.0303 h l -0.0473
-1.5653 h n -0.0535
-2.2725 h nine -0.1876
-1.0534 h o 0.1611
-2.2725 h one -0.1075
-2.2725 h p -0.1976
-2.2725 h q -0.1921
-2.1863 h r -0.2276
-2.2725 h seven -0.1786
-2.2725 h seventy -0.1879
-2.2725 h six -0.0181
-2.1863 h t -0.0939
-2.2725 h three -0.1991
-2.2725 h two -0.0937
-2.0303 h u 0.1129
-2.2725 h w -0.1456
-2.2725 h x -0.1928
-2.1863 h y 0.0339
-2.2725 h z -0.1632
-0.1640 half <s> -0.1888
-0.0348 help <s> -0.1272
-0.9421 hundred <s> -0.1850
-0.3010 hundred and -0.0580
-0.9421 hundred eighty -0.1556
-1.1844 hundred forty -0.1879
-1.1844 hundred twenty -0.1440
-1.5185 i <s> -0.2035
-1.6154 i a -0.1246
-2.2364 i b -0.2615
-1.0714 i c -0.0009
-1.5185 i d -0.0335
-1.2632 i e 0.1071
-1.6154 i f -0.1192
-2.3227 i fifteen -0.1113
-2.0804 i five -0.0685
-2.3227 i four -0.0479
-1.6154 i g 0.1022
-2.0804 i k -0.1191
-1.2175 i l -0.1375
-1.6154 i m -0.1531
-0.8953 i n 0.0587
-2.3227 i o -0.1896
-2.2364 i p -0.1636
-2.2364 i q -0.1654
-2.2364 i r -0.1081
-1.4393 i s -0.1706
-2.3227 i sixty -0.1473
-0.5185 i t -1.1554
-2.3227 i thirty -0.1509
-2.3227 i u 0.1015
-1.4393 i v -0.1486
-2.3227 i y -0.1982
-1.7002 j a -0.1812
-1.7864 j b -0.2001
-1.5442 j c -0.0997
-1.7864 j d -0.1976
-0.9823 j e -0.1394
-1.7864 j five -0.1905
-1.5442 j four -0.1990
-1.7864 j g -0.2006
-1.5442 j h -0.1874
-1.7864 j j -0.1910
-1.5442 j k -0.1900
-1.7864 j l -0.1877
-1.7864 j m -0.1997
-1.7864 j n -0.2000
-0.8361 j o -0.1210
-1.5442 j one 0.0686
-1.5442 j q -0.1712
-1.7864 j s -0.1890
-1.7002 j seven -0.1845
-1.7864 j t -0.2007
-1.5442 j u -0.1965
-1.5442 j v -0.1928
-1.7864 j w -0.1952
-1.7864 j x -0.1928
-1.5442 j z -0.1548
-0.4062 january fifteenth 0.2989
-0.4062 january twelfth 0.2989
-0.5823 july thirtieth -0.0367
-0.5823 july twelfth 0.2989
-0.5823 july twenty -0.1566
-0.4062 june eleventh 0.4638
-0.4062 june twenty -0.1880
-0.8037 k <s> -0.1328
-1.1461 k a -0.4423
-1.9503 k c -0.1956
-1.9503 k d -0.1535
-0.9420 k e 0.0450
-1.9503 k eight -0.1742
-1.9503 k eighty -0.1802
-1.7080 k f -0.1889
-1.7080 k h -0.1269
-1.2430 k i -0.1740
-1.7080 k j -0.1836
-1.9503 k k -0.1987
-1.7080 k l -0.1005
-1.9503 k m -0.1997
-1.9503 k nine 0.0494
-1.9503 k ninety -0.1395
-1.9503 k o -0.2014
-1.9503 k r -0.1606
-1.7080 k s -0.1492
-1.7080 k six -0.1712
-1.8641 k t -0.1504
-1.9503 k three -0.2010
-1.9503 k twenty -0.1440
-1.7080 k two -0.1820
-1.7080 k u -0.1957
-1.9503 k v -0.1982
-1.2430 k w -0.1236
-1.7080 k x -0.1647
-1.7080 k y -0.1313
-1.7080 k z -0.1805
-1.0291 l <s> -0.0525
-0.9969 l a -0.0683
-2.2482 l c -0.1980
-1.1430 l d 0.0657
-0.6959 l e 0.0570
-2.2482 l eight -0.1588
-2.1620 l f -0.1327
-2.2482 l fifty -0.1386
-2.1620 l g -0.1984
-2.2482 l h -0.1916
-1.0638 l i -0.1343
-2.1620 l k -0.1596
-0.8877 l l -0.0903
-2.0060 l m -0.1409
-2.2482 l n -0.1904
-2.2482 l nine -0.1876
-1.4440 l o 0.0974
-2.1620 l r -0.1696
-2.1620 l s -0.1352
-2.2482 l seventy -0.1879
-2.2482 l t -0.2007
-2.2482 l thirty -0.0909
-2.2482 l three -0.1869
-2.2482 l two -0.0937
-2.1620 l u -0.1717
-1.4440 l y -0.1084
-2.0060 l z -0.1805
-2.2482 l zero 0.0974
-1.9683 m <s> -0.1797
-0.6272 m a -0.1302
-1.8123 m b -0.1583
-2.0546 m c -0.1481
-2.0546 m d -0.1976
-1.0463 m e -0.1478
-2.0546 m eight -0.1588
-2.0546 m f -0.1983
-2.0546 m fifty -0.1919
-2.0546 m forty -0.1339
-2.0546 m four -0.2015
-2.0546 m g -0.1984
-1.8123 m h -0.1984
-1.1712 m i -0.0291
-1.8123 m j -0.1820
-2.0546 m k -0.1987
-1.9683 m m -0.1500
-1.9683 m n -0.1742
-0.9080 m o -0.1250
-1.3473 m p -0.2034
-2.0546 m q -0.1895
-1.8123 m s -0.1492
-2.0546 m seven 0.0709
-2.0546 m t -0.2016
-2.0546 m thirty -0.1862
-2.0546 m two -0.0937
-1.9683 m u -0.1908
-1.8123 m v -0.1887
-2.0546 m x -0.1928
-1.8123 m y -0.0229
-0.5823 march third -0.0367
-0.5823 march twentieth 0.4638
-0.5823 march twenty -0.1948
-0.5823 may nineteen -0.1833
-0.5823 may ninth 0.0128
-0.5823 may twenty -0.1948
-0.6429 n <s> -0.0858
-1.1813 n a -0.0370
-1.6207 n b 0.1066
-1.5237 n c -0.0789
-1.1088 n d -0.0638
-0.9217 n e -0.0355
-2.3279 n f -0.1465
-2.3279 n four -0.0479
-1.3196 n g 0.1704
-2.0857 n h -0.1608
-1.1813 n i -0.0860
-2.3279 n j -0.1910
-2.3279 n k -0.1509
-2.0857 n l -0.1405
-2.3279 n m -0.1997
-1.2685 n n 0.0515
-1.6207 n o -0.1176
-2.2417 n p -0.1925
-2.0857 n r -0.0539
-1.5237 n s -0.0645
-2.3279 n seventy -0.0275
-2.3279 n six -0.1874
-1.2685 n t -0.2074
-2.3279 n three -0.1903
-1.5237 n u -0.5135
-2.0857 n x -0.1817
-2.2417 n y -0.1819
-2.2417 n z -0.1724
-0.3551 nine <s> 0.0548
-2.1505 nine and -0.1219
-2.0643 nine eight -0.1427
-2.1505 nine eighty -0.1749
-1.9083 nine fifty -0.1129
-1.2002 nine five 0.3852
-2.1505 nine forty -0.1339
-1.4433 nine four -0.0394
-2.1505 nine hundred -0.1509
-1.4433 nine nine -0.0590
-2.1505 nine nineteen 0.3705
-2.1505 nine of 0.0128
-2.1505 nine oh -0.1949
-1.3464 nine one -0.1391
-2.0643 nine seven -0.1690
-2.1505 nine seventy -0.1339
-1.0453 nine six 0.0234
-2.1505 nine sixty -0.1732
-1.9083 nine thirty -0.1760
-1.3464 nine three -0.0215
-1.9083 nine twenty -0.1261
-1.3464 nine two -0.0753
-2.1505 nine zero 0.0974
-1.3401 nineteen fifty -0.2529
-1.3401 nineteen forty -0.2884
-1.4961 nineteen seventy -0.3094
-0.1347 nineteen sixty 0.2499
-1.5823 nineteen twenty -0.1440
-0.8629 ninety eight -0.0216
-0.8629 ninety five -0.1834
-0.8629 ninety four -0.1484
-1.1052 ninety one -0.1075
-1.1052 ninety seven 0.0709
-0.8629 ninety six -0.1186
-0.4062 ninth of 0.0128
-0.4062 ninth sixty -0.1732
-0.0263 no <s> -0.0591
-1.4997 o <s> -0.1353
-1.3536 o a -0.1927
-2.3038 o apostrophe 0.4638
-1.4997 o b -0.2074
-2.3038 o c -0.1481
-1.2444 o d -0.1809
-2.3038 o e -0.1254
-2.3038 o eight -0.0275
-2.2176 o f -0.1781
-2.3038 o five -0.0829
-2.3038 o forty -0.1908
-2.3038 o four -0.0479
-2.3038 o g -0.1984
-1.5966 o h -0.3247
-2.3038 o j -0.1964
-2.0616 o k -0.1889
-1.2956 o l 0.2046
-1.4205 o m -0.1258
-0.7515 o n -0.1001
-2.3038 o ninety -0.1395
-1.0847 o o -0.3696
-2.0616 o p -0.1530
-2.3038 o q -0.1921
-0.9199 o r -0.0507
-1.4997 o s -0.2278
-2.3038 o sixty -0.1732
-1.4205 o t 0.0409
-2.3038 o two -0.1530
-1.1987 o u 0.2022
-1.2444 o w -0.2004
-2.3038 o x -0.1928
-2.0616 o y -0.1313
-2.3038 o z -0.1942
-0.5823 october first -0.0367
-0.5823 october thirtieth -0.0367
-0.5823 october twenty -0.1880
-0.4062 of september -0.1294
-0.4062 of sixty -0.1604
-0.9938 oh <s> -0.1547
-0.8388 oh eight 0.0964
-1.0607 oh five -0.3036
-1.8578 oh four -0.2062
-1.8578 oh nine 0.1323
-1.7018 oh oh -0.0723
-1.1399 oh one 0.0942
-0.9358 oh seven 0.0843
-0.7597 oh six 0.0011
-1.1399 oh three 0.0766
-0.9358 oh two -0.1366
-0.7021 one <s> 0.1243
-1.4882 one eight 0.2178
-2.5477 one eleven -0.1087
-2.5477 one fifteen -0.1113
-1.8404 one fifty -0.0493
-0.5732 one five -0.0786
-2.5477 one forty -0.1879
-1.4882 one four -0.1921
-2.3054 one hundred 0.2101
-2.5477 one j -0.1948
-1.4011 one nine 0.1872
-2.5477 one ninety -0.1395
-1.2964 one oh 0.2520
-1.5974 one one 0.2213
-1.1414 one seven -0.5540
-2.3054 one seventy -0.0989
-1.5974 one six 0.0351
-2.5477 one sixteen -0.0719
-1.8404 one sixty -0.0842
-2.3054 one ten -0.0030
-2.3054 one thirty -0.1914
-2.3054 one thousand -0.2323
-1.2964 one three -0.6823
-2.3054 one twenty -0.1719
-1.0275 one two 0.3724
-1.7435 one zero -0.0736
-1.3979 p a -0.0367
-2.1052 p b -0.2007
-2.1052 p c -0.1990
-1.8629 p d -0.1916
-1.8629 p e -0.1431
-2.1052 p eight -0.2009
-2.1052 p f -0.1943
-2.1052 p forty -0.1339
-2.1052 p four -0.0479
-2.0190 p g -0.1370
-1.2218 p h 0.0071
-0.3279 p i -1.3239
-1.3010 p l -0.2019
-1.8629 p n -0.1144
-2.1052 p ninety -0.1681
-1.2218 p o -0.0445
-2.0190 p r -0.3597
-1.3979 p s -0.0877
-2.1052 p seventeen -0.0644
-2.0190 p t -0.1480
-2.1052 p three -0.1589
-2.0190 p u -0.1691
-2.1052 p y -0.1970
-1.5823 q c -0.1990
-1.4961 q d -0.1855
-1.3401 q e -0.1833
-1.5823 q f -0.1760
-1.3401 q fifty -0.0275
-1.5823 q five -0.1860
-1.5823 q g -0.2006
-1.5823 q i -0.1929
-1.3401 q k -0.1862
-1.4961 q n -0.1943
-1.5823 q one -0.1075
-1.5823 q p -0.2002
-1.4961 q q -0.1560
-1.5823 q six -0.1846
-1.3401 q t -0.2003
-1.5823 q two -0.1834
-1.5823 q u -0.1828
-1.5823 q w -0.1952
-1.5823 q y -0.1942
-1.5823 q z -0.1959
-1.3069 r <s> -0.1175
-1.2344 r a -0.0734
-1.7462 r b 0.0949
-2.2112 r c -0.2071
-1.3941 r d -0.2095
-0.9681 r e -0.0479
-2.2112 r f -0.1149
-0.6323 r g -0.7405
-2.4535 r h -0.2013
-1.0696 r i -0.2119
-1.3069 r k -0.0790
-1.3941 r l -0.0565
-1.5702 r n 0.0032
-1.0261 r o -0.0114
-2.4535 r one -0.1608
-2.4535 r q -0.1921
-1.5032 r r -0.1130
-1.7462 r s -0.2483
-2.4535 r seven -0.2007
-2.4535 r sixty -0.1473
-1.5032 r t -0.2213
-2.4535 r thirty -0.0909
-2.2112 r u -0.1744
-2.2112 r v -0.1928
-2.2112 r w -0.1401
-1.4452 r y -0.1207
-2.2112 r z -0.1805
-0.0248 repeat <s> -0.0628
-1.8760 rubout a -0.1824
-1.7898 rubout c -0.0908
-1.8760 rubout d -0.1976
-1.6338 rubout e -0.1995
-1.1688 rubout f -0.1457
-1.6338 rubout g -0.1954
-1.7898 rubout h -0.1235
-1.6338 rubout i -0.0432
-1.7898 rubout j -0.1761
-1.8760 rubout l -0.1712
-1.7898 rubout m -0.1881
-1.0719 rubout n -0.1935
-1.1688 rubout o -0.1841
-1.6338 rubout p -0.1703
-1.6338 rubout q -0.1749
-1.7898 rubout r -0.1355
-1.8760 rubout s -0.1890
-1.7898 rubout t -0.1982
-1.0719 rubout u -0.2086
-1.6338 rubout v 0.0974
-1.6338 rubout w -0.1929
-1.8760 rubout x -0.1846
-1.8760 rubout y -0.1982
-1.7898 rubout z -0.1724
-0.9485 s <s> -0.2062
-2.0419 s a -0.1714
-0.5069 s b -1.5925
-2.2842 s c -0.1610
-1.2759 s e 0.0023
-2.0419 s f -0.1930
-1.4800 s h -0.1097
-2.2842 s i -0.2011
-2.2842 s j -0.1948
-1.4008 s k -0.0907
-2.0419 s l -0.1021
-2.1979 s m -0.1109
-2.2842 s n -0.1931
-1.0998 s o -0.6364
-2.0419 s one -0.0657
-1.4800 s p -0.1839
-2.1979 s s -0.1862
-2.2842 s seven -0.2007
-0.9485 s t -0.5092
-2.2842 s thirty -0.1219
-2.1979 s u -0.1925
-2.1979 s v -0.0715
-1.5769 s w -0.0094
-2.2842 s x -0.1846
-2.0419 s z -0.1864
-2.2842 s zero 0.0974
-0.1640 second nineteen 0.2700
-0.8042 september fifteenth 0.2989
-0.8042 september first -0.0367
-0.8042 september nineteen 0.3705
-0.8042 september sixth 0.4638
-0.8042 september twenty -0.1948
-0.3293 seven <s> 0.0085
-1.2522 seven eight 0.0650
-2.2605 seven fifteen -0.1294
-2.2605 seven fifty -0.1524
-1.4564 seven five 0.0349
-2.1743 seven forty -0.1798
-1.5533 seven four 0.0347
-2.0183 seven fourteen -0.1101
-2.2605 seven hundred -0.1742
-2.2605 seven may -0.0719
-1.3772 seven nine -0.1720
-1.3772 seven oh 0.1729
-1.4564 seven one -0.0329
-2.1743 seven seven 0.0362
-2.2605 seven seventeen -0.0644
-2.2605 seven seventy -0.1339
-1.5533 seven six 0.0194
-2.1743 seven sixty -0.0504
-2.0183 seven ten -0.0030
-2.0183 seven thirty -0.1225
-2.2605 seven thousand -0.1640
-1.5533 seven three 0.0629
-2.1743 seven twenty -0.2111
-1.3772 seven two 0.2403
-2.1743 seven zero 0.0568
-0.5619 seventeen <s> -0.1331
-0.5619 seventeen fifty -0.1190
-0.8042 seventeen thirty -0.1862
-0.1052 seventh nineteen 0.3705
-0.7324 seventy <s> -0.1157
-1.5365 seventy eight -0.0275
-1.5365 seventy five -0.0829
-1.4503 seventy nine -0.0053
-0.4771 seventy one -0.8581
-1.4503 seventy seven 0.0121
-1.5365 seventy six -0.2015
-0.8293 seventy two -0.5807
-0.4590 six <s> 0.2294
-0.8169 six eight 0.0002
-2.3200 six eighty -0.1802
-1.4367 six five -0.1021
-2.3200 six forty -0.1339
-1.1735 six four 0.0136
-2.3200 six hundred -0.1742
-1.4367 six nine -0.1164
-1.4367 six oh 0.1893
-1.3118 six one 0.2048
-1.4367 six seven 0.1392
-2.3200 six seventeen -0.1294
-1.2148 six six 0.2339
-2.3200 six sixteen 0.0616
-2.0778 six sixty -0.0504
-2.0778 six thirty -0.0745
-2.3200 six thousand -0.1318
-1.2606 six three 0.1795
-2.3200 six twelve -0.1640
-2.3200 six twenty -0.1440
-1.3697 six two 0.1502
-2.3200 six zero -0.1919
-0.5823 sixteen forty -0.1879
-0.3401 sixteen sixty -0.0504
-0.1052 sixteenth nineteen 0.3705
-0.1052 sixth nineteen 0.3705
-1.0241 sixty <s> -0.1845
-1.1703 sixty eight -0.1807
-1.9744 sixty fifty -0.1524
-1.1703 sixty five -0.2361
-1.0911 sixty four -0.1686
-0.6931 sixty nine -0.9232
-0.9150 sixty one -0.8581
-0.8278 sixty seven -0.9625
-1.8882 sixty six -0.2129
-1.0241 sixty three -0.2376
-1.1703 sixty two -0.4283
-0.0378 start <s> -0.1722
-0.0263 stop <s> -0.1633
-1.1097 t <s> -0.3328
-2.1768 t a -0.1366
-2.4190 t b -0.2007
-2.3328 t d -0.1421
-0.9714 t e 0.1216
-2.4190 t eighty -0.1802
-2.1768 t f -0.1906
-2.4190 t fifty -0.1867
-2.4190 t four -0.1418
-2.3328 t g -0.1878
-1.0834 t h -0.1282
-1.6149 t i -0.1818
-2.4190 t j -0.1964
-2.1768 t k -0.1862
-2.3328 t l -0.1671
-2.1768 t m -0.1872
-2.4190 t n -0.1482
-1.5357 t o -0.0556
-2.4190 t p -0.2002
-2.1768 t q -0.1776
-1.6149 t r -0.4614
-0.6511 t s -1.7004
-2.4190 t seventy -0.1879
-2.4190 t sixty -0.1604
-0.5735 t t -0.8145
-2.4190 t v -0.1378
-2.4190 t w -0.1988
-1.7118 t z -0.6502
-0.3010 ten <s> -0.0754
-1.2513 ten one -0.1973
-1.2513 ten seventy -0.0275
-1.2513 ten sixty -0.1052
-1.2513 ten ten 0.0974
-1.2513 ten thirty -0.0909
-1.2513 ten twelve -0.1640
-1.2513 ten twenty -0.1440
-0.4961 third nineteen 0.3510
-0.4961 thirtieth nineteen 0.1757
-0.8451 thirty <s> -0.1711
-1.5630 thirty eight -0.0877
-0.7659 thirty five -0.2026
-1.4070 thirty nine -0.0511
-0.6410 thirty one -0.2390
-1.4070 thirty seven -0.0295
-1.4070 thirty six -0.1186
-1.6493 thirty sixty -0.1732
-1.4070 thirty three -0.1247
-0.9420 thirty two -0.2290
-0.8172 thousand <s> -0.1596
-0.8172 thousand eight -0.3013
-1.0594 thousand five -0.2006
-1.0594 thousand nine -0.1982
-1.0594 thousand one -0.2014
-1.0594 thousand seven -0.2012
-1.0594 thousand three -0.2010
-0.4706 three <s> -0.0002
-1.3457 three eight -0.2126
-2.2290 three eighty -0.0275
-2.2290 three eleven -0.1087
-1.2788 three five 0.2972
-1.9868 three forty -0.1155
-1.3457 three four 0.0771
-2.2290 three fourteen -0.1547
-2.2290 three hundred 0.0974
-1.5218 three nine 0.0868
-1.4249 three oh 0.0907
-1.3457 three one 0.1909
-1.4249 three seven -0.1793
-2.2290 three seventeen -0.0644
-1.9868 three seventy 0.1138
-1.3457 three six 0.2479
-1.5218 three sixty -0.1299
-2.2290 three thirty -0.1862
-1.2208 three three 0.0948
-2.2290 three twelve -0.1640
-2.1428 three twenty -0.0539
-1.0099 three two -0.1309
-1.5218 three zero 0.2789
-0.1640 twelfth nineteen 0.2700
-1.0594 twelve <s> -0.1636
-1.0594 twelve fifty -0.1244
-1.0594 twelve four -0.2000
-1.0594 twelve nine -0.2005
-1.0594 twelve nineteen 0.3705
-1.0594 twelve sixty -0.1337
-1.0594 twelve ten -0.1785
-0.8172 twelve twenty -0.1768
-0.1052 twentieth nineteen -0.1895
-1.4540 twenty <s> -0.1576
-0.8921 twenty eight -0.0959
-1.6962 twenty fifth 0.0128
-1.6962 twenty first -0.0367
-1.6962 twenty five -0.0829
-1.6100 twenty four -0.1801
-1.6962 twenty fourth 0.4638
-0.9890 twenty nine 0.0174
-1.4540 twenty one -0.0996
-1.4540 twenty second 0.1984
-1.4540 twenty seven 0.0764
-1.6962 twenty seventh 0.4638
-0.8921 twenty six -0.1154
-1.4540 twenty third -0.1371
-0.8921 twenty three -0.3406
-1.4540 twenty two -0.0908
-0.6508 two <s> 0.2666
-1.3424 two eight 0.0508
-2.5268 two eighty -0.1749
-2.5268 two fifteen -0.1294
-2.5268 two fifty -0.1867
-1.3424 two five 0.3642
-1.1663 two four -0.5229
-2.5268 two fourteen -0.1547
-2.5268 two hundred 0.0974
-1.5185 two nine 0.1914
-1.3802 two oh 0.3763
-0.7314 two one 0.1755
-1.3802 two seven 0.1740
-1.0414 two six -0.4819
-2.5268 two sixty -0.1604
-2.5268 two ten 0.0974
-2.4406 two thirty -0.1326
-2.5268 two thousand -0.1640
-1.3424 two three 0.0633
-2.2845 two twenty -0.1316
-0.9592 two two 0.5283
-1.6435 two zero 0.2016
-2.1346 u <s> -0.1744
-1.8923 u a -0.1068
-2.1346 u b -0.2007
-2.1346 u c -0.1481
-2.1346 u d -0.1815
-1.3304 u e -0.4450
-2.1346 u eighty -0.0275
-1.8923 u f -0.1918
-1.8923 u five 0.1724
-2.0483 u four -0.1556
-2.0483 u g -0.1114
-2.1346 u i -0.2011
-1.8923 u j -0.1267
-2.1346 u k -0.1509
-2.0483 u l -0.1931
-2.0483 u m -0.1631
-2.0483 u n -0.1422
-2.1346 u o -0.1752
-2.1346 u one -0.1973
-2.1346 u q -0.1921
-0.2970 u r -0.8293
-1.2512 u s -0.1831
-2.1346 u seven -0.1913
-1.4273 u t -0.1490
-2.1346 u three -0.0242
-2.1346 u two -0.1729
-2.1346 u x -0.1928
-2.1346 u y -0.1982
-0.8519 v a 0.0353
-1.9114 v c -0.1956
-0.4445 v e -0.5831
-1.9114 v f -0.1688
-1.9114 v fifty -0.1524
-0.9611 v i -0.1163
-1.6691 v k -0.1191
-1.9114 v l -0.2011
-1.6691 v m -0.1950
-1.9114 v n -0.2011
-1.9114 v nine 0.0494
-1.9114 v o -0.1663
-1.9114 v p -0.1976
-1.6691 v q -0.2900
-1.9114 v r -0.2009
-1.9114 v s -0.1996
-1.6691 v seven -0.0295
-1.9114 v thirty -0.1366
-1.9114 v w -0.1456
-1.9114 v x -0.1846
-1.8251 v y -0.1777
-1.9114 v z -0.1959
-1.0122 w <s> -0.1882
-0.9031 w a -0.1652
-1.7203 w b 0.0549
-1.9625 w c -0.1990
-1.9625 w d -0.1994
-1.2553 w e -0.1851
-1.7203 w eight -0.1280
-1.7203 w f -0.1889
-1.9625 w five -0.1927
-1.9625 w fourteen -0.1640
-1.9625 w g -0.1682
-1.7203 w h -0.1601
-1.0122 w i -0.1276
-1.8763 w l -0.1578
-1.1584 w n -0.0822
-0.9031 w o -0.6494
-1.9625 w p -0.2002
-1.9625 w q -0.1921
-1.9625 w r -0.1649
-1.9625 w t -0.1662
-1.9625 w twenty -0.1440
-1.7203 w two -0.2007
-1.9625 w w -0.1952
-1.9625 w x -0.1928
-1.8763 w y -0.1521
-1.8763 w z -0.1443
-1.6103 x b -0.2001
-1.3681 x c -0.1899
-1.6103 x e -0.1912
-1.6103 x eight -0.1862
-1.6103 x f -0.1465
-1.6103 x five -0.2006
-1.6103 x four -0.2011
-1.6103 x g -0.1723
-1.6103 x h -0.1916
-1.6103 x i -0.2015
-1.6103 x k -0.1987
-1.6103 x l -0.2011
-1.6103 x n -0.2015
-1.6103 x nine 0.0494
-1.6103 x p 0.0721
-1.6103 x r -0.2009
-1.3681 x s -0.1990
-1.6103 x seventy -0.1339
-1.6103 x three -0.1903
-1.3681 x two -0.1715
-1.6103 x v -0.1533
-1.6103 x w -0.1988
-1.3681 x x -0.1733
-1.3681 x y -0.1887
-1.6103 x z -0.1942
-1.3681 x zero -0.0030
-0.4840 y <s> -0.0662
-1.9114 y a -0.1758
-1.6691 y b -0.1148
-1.8251 y d -0.1547
-1.9114 y e -0.1458
-1.6691 y eight -0.1556
-1.6691 y f -0.1661
-1.9114 y g -0.1882
-1.8251 y h -0.1583
-1.9114 y j -0.1351
-1.1072 y l 0.1333
-1.9114 y m -0.1968
-1.6691 y n -0.1453
-1.9114 y o -0.1479
-1.6691 y one -0.0854
-1.9114 y p -0.1813
-1.9114 y q -0.1833
-1.9114 y r -0.1957
-1.9114 y seven -0.1850
-1.9114 y t -0.2016
-1.9114 y ten -0.1785
-1.9114 y three -0.1903
-1.6691 y u -0.1972
-1.6691 y v -0.1268
-1.6691 y w -0.1389
-1.9114 y y -0.1942
-1.6691 y z -0.1864
-0.0202 yes <s> -0.1106
-1.0512 z <s> -0.1447
-1.0512 z a -0.1891
-1.7584 z c -0.1956
-1.7584 z d -0.2002
-1.6722 z e -0.2102
-1.7584 z eight -0.1862
-1.7584 z f -0.1943
-1.7584 z g -0.1984
-1.7584 z h -0.2013
-1.6722 z i -0.1230
-1.7584 z k -0.1780
-1.7584 z l -0.2011
-1.6722 z nine 0.1373
-1.7584 z ninety -0.1395
-1.6722 z o -0.1823
-1.5161 z r -0.3014
-1.7584 z seven -0.2012
-1.7584 z six -0.1318
-1.5161 z sixty -0.2057
-1.7584 z t -0.2019
-1.7584 z twenty -0.1440
-1.7584 z two -0.0937
-1.7584 z u -0.1980
-1.7584 z w -0.1952
-1.5161 z x -0.1733
-1.5161 z y -0.1928
-1.7584 z z -0.1901
-0.3010 zero <s> 0.0349
-1.6615 zero eight -0.1773
-1.6615 zero five -0.1905
-1.4192 zero four -0.1170
-1.5753 zero one -0.1177
-1.4192 zero seven 0.1067
-0.7782 zero six 0.0216
-1.4192 zero two -0.0698
-1.6615 zero zero -0.1244

\3-grams:
-1.6030 <s> a a 
-1.1731 <s> a g 
-0.9206 <s> a l 
-0.9206 <s> a m 
-1.6030 <s> a r 
-1.1731 <s> a s 
-1.6030 <s> a t 
-1.6030 <s> a v 
-1.6030 <s> a y 
-0.4269 <s> april thirtieth 
-0.4269 <s> area code 
-1.0289 <s> august sixteenth 
-0.3465 <s> august twenty 
-1.4442 <s> b a 
-0.8378 <s> b e 
-1.8740 <s> b j 
-1.8740 <s> b l 
-1.4442 <s> b o 
-0.4472 <s> b r 
-1.8740 <s> b seven 
-1.1916 <s> b u 
-1.8740 <s> b v 
-1.8740 <s> b y 
-0.9749 <s> c a 
-0.9749 <s> c e 
-0.9749 <s> c h 
-1.6573 <s> c i 
-1.2274 <s> c l 
-1.6573 <s> c m 
-1.2274 <s> c o 
-1.6573 <s> c r 
-1.6573 <s> c z 
-0.5762 <s> d a 
-1.5061 <s> d e 
-0.5762 <s> d o 
-1.5061 <s> d r 
-1.5061 <s> d s 
-1.5061 <s> d y 
-0.4269 <s> december eighteenth 
-0.7287 <s> e a 
-1.6030 <s> e d 
-1.6030 <s> e f 
-1.1731 <s> e l 
-1.6030 <s> e m 
-0.9206 <s> e r 
-1.6030 <s> e w 
-1.6030 <s> e z 
-0.9001 <s> eight eight 
-1.3300 <s> eight five 
-1.3300 <s> eight forty 
-1.3300 <s> eight four 
-1.3300 <s> eight fourteen 
-1.3300 <s> eight oh 
-1.3300 <s> eight two 
-0.4269 <s> eighteen february 
-0.7279 <s> eleven nine 
-0.7279 <s> eleven seventeen 
-1.0212 <s> enter eight 
-2.3511 <s> enter eighty 
-2.3511 <s> enter fifteen 
-1.4769 <s> enter fifty 
-1.3149 <s> enter five 
-1.6687 <s> enter forty 
-1.3149 <s> enter four 
-2.3511 <s> enter fourteen 
-1.4213 <s> enter nine 
-1.6687 <s> enter ninety 
-1.4213 <s> enter one 
-0.9700 <s> enter seven 
-1.4213 <s> enter seventy 
-1.0212 <s> enter six 
-1.0212 <s> enter sixty 
-1.6687 <s> enter thirty 
-1.9213 <s> enter three 
-2.3511 <s> enter twenty 
-1.3149 <s> enter two 
-2.3511 <s> enter zero 
-1.9454 <s> erase a 
-1.9454 <s> erase b 
-1.5155 <s> erase c 
-1.5155 <s> erase e 
-1.9454 <s> erase f 
-1.5155 <s> erase g 
-1.5155 <s> erase i 
-1.5155 <s> erase j 
-1.9454 <s> erase k 
-1.9454 <s> erase m 
-1.9454 <s> erase n 
-1.2630 <s> erase o 
-1.5155 <s> erase q 
-1.9454 <s> erase r 
-1.5155 <s> erase s 
-1.9454 <s> erase t 
-1.2630 <s> erase v 
-1.5155 <s> erase w 
-1.9454 <s> erase x 
-1.9454 <s> erase y 
-1.9454 <s> erase z 
-1.6030 <s> f a 
-0.6731 <s> f e 
-0.7287 <s> f i 
-1.6030 <s> f k 
-1.6030 <s> f o 
-1.1731 <s> f r 
-1.6030 <s> f y 
-0.4269 <s> february eighth 
-1.3300 <s> fifty eight 
-0.9001 <s> fifty one 
-1.3300 <s> fifty seven 
-0.6475 <s> fifty six 
-1.3300 <s> fifty three 
-1.6310 <s> five five 
-0.9486 <s> five one 
-0.9486 <s> five six 
-1.6310 <s> five sixteen 
-1.6310 <s> five t 
-1.6310 <s> five ten 
-1.6310 <s> five twenty 
-0.7568 <s> five two 
-0.4269 <s> forty three 
-1.4884 <s> four eight 
-1.9182 <s> four five 
-1.0440 <s> four four 
-1.4884 <s> four oh 
-0.4122 <s> four one 
-1.4884 <s> four seven 
-1.9182 <s> four twenty 
-0.8820 <s> four two 
-0.4269 <s> fourteen fourteen 
-1.1731 <s> g a 
-1.6030 <s> g c 
-1.6030 <s> g e 
-0.9206 <s> g i 
-0.9206 <s> g l 
-1.6030 <s> g o 
-1.1731 <s> g r 
-1.6030 <s> g two 
-1.6030 <s> g w 
-0.0414 <s> go <s> 
-0.7831 <s> h a 
-1.6573 <s> h b 
-1.2274 <s> h i 
-1.6573 <s> h k 
-0.7831 <s> h o 
-1.6573 <s> h p 
-1.6573 <s> h q 
-1.6573 <s> h z 
-0.0348 <s> help <s> 
-1.0289 <s> i d 
-1.0289 <s> i p 
-1.0289 <s> i t 
-1.0289 <s> i v 
-1.2757 <s> j a 
-1.7056 <s> j c 
-0.8314 <s> j e 
-1.7056 <s> j four 
-1.7056 <s> j h 
-0.8314 <s> j o 
-1.7056 <s> j s 
-1.7056 <s> j u 
-1.7056 <s> j v 
-1.7056 <s> j z 
-0.7279 <s> january fifteenth 
-0.7279 <s> january twelfth 
-0.9040 <s> july thirtieth 
-0.9040 <s> july twelfth 
-0.9040 <s> july twenty 
-0.7279 <s> june eleventh 
-0.7279 <s> june twenty 
-0.6475 <s> k a 
-0.9001 <s> k e 
-1.3300 <s> k l 
-1.3300 <s> k u 
-1.3300 <s> k w 
-1.5061 <s> l a 
-1.0762 <s> l e 
-1.0762 <s> l i 
-1.0762 <s> l o 
-1.0762 <s> l r 
-1.0762 <s> l u 
-1.5061 <s> l z 
-0.3310 <s> m a 
-1.9040 <s> m c 
-1.4741 <s> m e 
-1.9040 <s> m f 
-1.9040 <s> m g 
-1.2216 <s> m i 
-1.9040 <s> m m 
-0.6320 <s> m o 
-0.9040 <s> march third 
-0.9040 <s> march twentieth 
-0.9040 <s> march twenty 
-0.7279 <s> may ninth 
-0.7279 <s> may twenty 
-1.5408 <s> n a 
-0.5046 <s> n e 
-1.5408 <s> n g 
-1.5408 <s> n h 
-1.5408 <s> n i 
-1.5408 <s> n l 
-1.5408 <s> n n 
-1.5408 <s> n o 
-1.2050 <s> nine four 
-1.2050 <s> nine one 
-1.2050 <s> nine thirty 
-1.2050 <s> nine three 
-1.2050 <s> nine twenty 
-1.2050 <s> nine two 
-0.4269 <s> ninth of 
-0.0263 <s> no <s> 
-0.6987 <s> o a 
-1.3811 <s> o apostrophe 
-0.6987 <s> o l 
-1.3811 <s> o r 
-1.3811 <s> o u 
-0.9040 <s> october first 
-0.9040 <s> october thirtieth 
-0.9040 <s> october twenty 
-0.9040 <s> oh seven 
-0.4741 <s> oh six 
-2.3859 <s> one eleven 
-2.3859 <s> one fifty 
-0.1737 <s> one five 
-1.9560 <s> one four 
-2.3859 <s> one hundred 
-1.9560 <s> one nine 
-1.4560 <s> one oh 
-1.9560 <s> one seven 
-2.3859 <s> one six 
-2.3859 <s> one sixteen 
-1.9560 <s> one ten 
-2.3859 <s> one thirty 
-1.9560 <s> one thousand 
-2.3859 <s> one three 
-1.9560 <s> one twenty 
-1.5117 <s> one two 
-1.9560 <s> one zero 
-1.7894 <s> p a 
-1.5369 <s> p g 
-1.7894 <s> p h 
-0.1296 <s> p i 
-1.2894 <s> p o 
-2.2193 <s> p r 
-1.7894 <s> p t 
-1.7894 <s> p u 
-0.7279 <s> q c 
-0.7279 <s> q e 
-1.5408 <s> r a 
-1.5408 <s> r e 
-1.5408 <s> r g 
-1.5408 <s> r h 
-1.1109 <s> r i 
-0.6666 <s> r o 
-1.5408 <s> r q 
-1.5408 <s> r u 
-0.0248 <s> repeat <s> 
-2.1977 <s> rubout a 
-1.5153 <s> rubout c 
-2.1977 <s> rubout d 
-1.7678 <s> rubout e 
-1.2678 <s> rubout f 
-1.7678 <s> rubout g 
-1.5153 <s> rubout h 
-1.7678 <s> rubout i 
-1.5153 <s> rubout j 
-2.1977 <s> rubout l 
-1.5153 <s> rubout m 
-1.3235 <s> rubout n 
-1.2678 <s> rubout o 
-1.7678 <s> rubout p 
-1.7678 <s> rubout q 
-1.5153 <s> rubout r 
-2.1977 <s> rubout s 
-1.5153 <s> rubout t 
-1.3235 <s> rubout u 
-1.7678 <s> rubout v 
-1.7678 <s> rubout w 
-2.1977 <s> rubout x 
-2.1977 <s> rubout y 
-1.5153 <s> rubout z 
-1.4741 <s> s a 
-1.9040 <s> s c 
-1.2216 <s> s e 
-1.9040 <s> s f 
-1.4741 <s> s h 
-1.9040 <s> s k 
-1.9040 <s> s l 
-1.9040 <s> s m 
-1.9040 <s> s n 
-1.9040 <s> s o 
-1.4741 <s> s p 
-0.5740 <s> s t 
-1.2216 <s> s u 
-1.4741 <s> s w 
-1.9040 <s> s z 
-1.0289 <s> september fifteenth 
-1.0289 <s> september first 
-1.0289 <s> september sixth 
-1.0289 <s> september twenty 
-1.4683 <s> seven fifteen 
-1.4683 <s> seven fifty 
-1.4683 <s> seven four 
-1.4683 <s> seven fourteen 
-1.4683 <s> seven may 
-1.4683 <s> seven nine 
-1.4683 <s> seven seventeen 
-1.4683 <s> seven thirty 
-1.0384 <s> seven three 
-1.4683 <s> seven twenty 
-0.8537 <s> six eight 
-1.7279 <s> six five 
-1.7279 <s> six four 
-1.7279 <s> six seventeen 
-0.7980 <s> six six 
-1.7279 <s> six sixteen 
-1.7279 <s> six thirty 
-1.0455 <s> six three 
-1.7279 <s> six twenty 
-1.7279 <s> six two 
-1.7279 <s> six zero 
-0.7279 <s> sixty seven 
-0.7279 <s> sixty three 
-0.0378 <s> start <s> 
-0.0263 <s> stop <s> 
-1.0762 <s> t a 
-1.5061 <s> t e 
-0.8236 <s> t h 
-1.0762 <s> t i 
-1.5061 <s> t o 
-1.0762 <s> t r 
-1.5061 <s> t v 
-1.1258 <s> ten one 
-1.1258 <s> ten seventy 
-1.1258 <s> ten thirty 
-1.1258 <s> ten twelve 
-1.1258 <s> ten twenty 
-1.0289 <s> thirty <s> 
-1.0289 <s> thirty one 
-1.0289 <s> thirty three 
-1.0289 <s> thirty two 
-1.6310 <s> three eleven 
-1.2011 <s> three four 
-1.6310 <s> three fourteen 
-0.9486 <s> three oh 
-1.6310 <s> three one 
-1.6310 <s> three seventy 
-1.2011 <s> three six 
-1.6310 <s> three twelve 
-1.2011 <s> three twenty 
-1.2011 <s> three two 
-1.2050 <s> twelve four 
-1.2050 <s> twelve nine 
-1.2050 <s> twelve nineteen 
-1.2050 <s> twelve ten 
-0.7751 <s> twelve twenty 
-0.4269 <s> twenty two 
-1.8071 <s> two fifteen 
-1.8071 <s> two five 
-1.3772 <s> two four 
-1.8071 <s> two nine 
-1.3772 <s> two oh 
-1.3772 <s> two one 
-1.3772 <s> two seven 
-0.3802 <s> two six 
-1.8071 <s> two ten 
-1.8071 <s> two twenty 
-1.8071 <s> two two 
-0.7279 <s> u m 
-0.7279 <s> u s 
-0.8236 <s> v a 
-0.5762 <s> v e 
-1.5061 <s> v f 
-1.5061 <s> v k 
-1.5061 <s> v l 
-1.5061 <s> v q 
-1.5061 <s> v w 
-0.4970 <s> w a 
-1.4269 <s> w c 
-1.4269 <s> w e 
-1.4269 <s> w h 
-0.9970 <s> w i 
-1.4269 <s> w r 
-1.1258 <s> x e 
-1.1258 <s> x g 
-1.1258 <s> x h 
-1.1258 <s> x i 
-1.1258 <s> x z 
-0.9040 <s> y d 
-0.9040 <s> y f 
-0.9040 <s> y w 
-0.0202 <s> yes <s> 
-1.0289 <s> z c 
-1.0289 <s> z e 
-1.0289 <s> z eight 
-1.0289 <s> z i 
-1.6030 a <s> b 
-1.6030 a <s> f 
-1.6030 a <s> fifty 
-1.6030 a <s> five 
-0.2730 a <s> one 
-1.6030 a <s> p 
-1.6030 a <s> three 
-1.6030 a <s> twenty 
-1.0289 a a i 
-1.0289 a a m 
-1.0289 a a n 
-1.0289 a a ninety 
-0.7279 a b h 
-0.7279 a b w 
-1.0762 a c a 
-1.0762 a c e 
-1.5061 a c f 
-1.5061 a c five 
-1.0762 a c k 
-1.0762 a c o 
-1.5061 a c u 
-1.5061 a c y 
-0.7445 a d <s> 
-1.4269 a d d 
-1.4269 a d e 
-1.4269 a d f 
-1.4269 a d h 
-1.4269 a d o 
-0.9970 a d r 
-0.4741 a e l 
-0.9040 a e three 
-0.7279 a f k 
-0.7279 a f t 
-1.0289 a g k 
-0.5991 a g l 
-1.0289 a g two 
-1.0289 a h fifty 
-1.0289 a h l 
-0.5991 a h o 
-0.2980 a half <s> 
-0.9040 a i fifteen 
-0.9040 a i l 
-0.9040 a i q 
-0.4269 a j seven 
-0.9040 a k d 
-0.9040 a k ninety 
-0.9040 a k o 
-1.1431 a l d 
-0.6431 a l e 
-1.5730 a l h 
-1.5730 a l i 
-1.1431 a l l 
-1.5730 a l m 
-1.5730 a l t 
-1.5730 a l u 
-1.5730 a l z 
-1.1109 a m e 
-1.5408 a m j 
-0.8584 a m p 
-1.1109 a m s 
-1.5408 a m seven 
-1.5408 a m thirty 
-1.5408 a m two 
-1.5408 a m x 
-1.5408 a m y 
-0.5528 a n <s> 
-1.8248 a n b 
-1.8248 a n c 
-0.9506 a n d 
-0.8949 a n e 
-1.8248 a n g 
-1.8248 a n i 
-1.8248 a n n 
-1.3949 a n t 
-1.8248 a n u 
-1.8248 a n z 
-0.4269 a ninety four 
-0.9040 a p a 
-0.9040 a p l 
-0.9040 a p seventeen 
-2.0397 a r <s> 
-1.6098 a r a 
-2.0397 a r b 
-1.1654 a r d 
-1.1098 a r e 
-1.3572 a r g 
-1.1654 a r k 
-1.1654 a r l 
-1.3572 a r n 
-2.0397 a r o 
-1.1098 a r r 
-2.0397 a r s 
-1.3572 a r t 
-1.3572 a r y 
-0.9970 a s <s> 
-1.4269 a s b 
-1.4269 a s o 
-1.4269 a s p 
-0.5526 a s t 
-0.9040 a six <s> 
-0.9040 a six four 
-0.9040 a six hundred 
-1.4269 a t <s> 
-0.9970 a t e 
-0.9970 a t h 
-0.5526 a t t 
-0.4269 a two <s> 
-0.7279 a u l 
-0.7279 a u two 
-0.2341 a v e 
-0.8236 a v i 
-1.5061 a v k 
-1.5061 a v m 
-0.9040 a w <s> 
-0.9040 a w f 
-0.9040 a w t 
-0.4269 a x x 
-1.1258 a y b 
-1.1258 a y e 
-0.6960 a y l 
-1.1258 a y n 
-0.4269 a z x 
-0.2980 and a half 
-0.9040 and eighty one 
-0.4741 and eighty six 
-0.4269 and fifty two 
-0.4269 and sixty six 
-0.4269 and twenty three 
-0.4269 apostrophe h a 
-0.4269 april thirtieth nineteen 
-0.4269 area code four 
-0.4269 august sixteenth nineteen 
-0.9040 august twenty fourth 
-0.4741 august twenty second 
-1.2720 b a c 
-1.2720 b a i 
-1.2720 b a k 
-0.3421 b a r 
-0.4269 b b s 
-0.4269 b d k 
-1.0384 b e a 
-1.4683 b e c 
-1.4683 b e e 
-1.4683 b e g 
-1.4683 b e j 
-0.5384 b e r 
-1.4683 b e v 
-0.4269 b eight <s> 
-0.4269 b five <s> 
-0.7279 b forty eight 
-0.7279 b forty nine 
-0.4269 b g l 
-0.4269 b h two 
-0.4269 b i n 
-0.7279 b j v 
-0.7279 b j x 
-0.4269 b k z 
-0.4269 b l a 
-0.9040 b m e 
-0.9040 b m j 
-0.9040 b m n 
-0.6960 b o r 
-0.6960 b o u 
-1.1258 b o x 
-0.4269 b one eight 
-0.4269 b p b 
-1.0384 b r a 
-1.4683 b r e 
-1.4683 b r i 
-0.4321 b r o 
-1.4683 b r u 
-0.9040 b s <s> 
-0.4741 b s o 
-0.7279 b seven eight 
-0.7279 b seven twenty 
-0.2980 b seventy nine 
-0.4269 b six <s> 
-2.1429 b u c 
-0.0084 b u r 
-0.4269 b v i 
-0.4269 b w two 
-0.9040 b x nine 
-0.9040 b x r 
-0.9040 b x three 
-0.4269 b y v 
-0.4269 b z six 
-0.7279 c <s> b 
-0.7279 c <s> fifty 
-0.8421 c a <s> 
-0.8421 c a l 
-0.8421 c a r 
-1.2720 c a v 
-0.7279 c b e 
-0.7279 c b j 
-0.4269 c c h 
-0.4269 c d o 
-0.5896 c e <s> 
-1.2720 c e l 
-0.8421 c e n 
-1.2720 c e s 
-0.4269 c f two 
-0.7279 c five nine 
-0.7279 c five three 
-1.6030 c h <s> 
-0.5667 c h a 
-1.6030 c h e 
-1.6030 c h f 
-1.6030 c h i 
-1.1731 c h r 
-1.1731 c h t 
-1.6030 c h y 
-0.4269 c i n 
-0.4269 c j k 
-0.6987 c k <s> 
-1.3811 c k c 
-1.3811 c k e 
-1.3811 c k l 
-0.9512 c k w 
-1.3811 c k y 
-0.9040 c l a 
-0.9040 c l o 
-0.9040 c l two 
-0.4269 c m u 
-1.2050 c o l 
-0.2751 c o n 
-1.2050 c o r 
-0.4269 c r a 
-0.4269 c s seven 
-0.4269 c seven one 
-0.4269 c t l 
-0.2980 c thirty five 
-0.4269 c two <s> 
-0.4269 c u three 
-0.4269 c v y 
-0.7279 c w fourteen 
-0.7279 c w n 
-0.7279 c y <s> 
-0.7279 c y r 
-0.9040 c z d 
-0.9040 c z t 
-0.9040 c z twenty 
-0.4269 code four one 
-1.8248 d <s> c 
-1.8248 d <s> d 
-1.8248 d <s> e 
-1.8248 d <s> five 
-1.8248 d <s> fourteen 
-1.8248 d <s> i 
-1.8248 d <s> j 
-1.3949 d <s> one 
-0.4949 d <s> p 
-1.3949 d <s> s 
-1.3949 d <s> sixty 
-1.8248 d <s> t 
-1.1424 d <s> w 
-1.0384 d a <s> 
-1.0384 d a l 
-1.4683 d a n 
-1.4683 d a two 
-0.5940 d a v 
-0.7279 d b a 
-0.7279 d b forty 
-0.9040 d d j 
-0.9040 d d o 
-0.9040 d d oh 
-0.8421 d e <s> 
-1.2720 d e four 
-0.5896 d e r 
-1.2720 d e u 
-0.7279 d f o 
-0.7279 d f t 
-0.4269 d forty seven 
-0.4269 d h e 
-0.7279 d i c 
-0.7279 d i n 
-0.4269 d j one 
-0.9040 d k f 
-0.9040 d k m 
-0.9040 d k t 
-0.4269 d l e 
-0.7279 d m h 
-0.7279 d m t 
-0.4269 d n e 
-1.3811 d o c 
-1.3811 d o four 
-1.3811 d o l 
-1.3811 d o n 
-1.3811 d o r 
-1.3811 d o u 
-0.6987 d o w 
-0.4269 d oh <s> 
-0.7279 d one eight 
-0.7279 d one seventy 
-0.4269 d p l 
-0.7279 d q one 
-0.7279 d q t 
-1.3811 d r a 
-1.3811 d r g 
-0.4512 d r i 
-1.3811 d r o 
-1.3811 d r thirty 
-1.3811 d r w 
-0.7279 d s <s> 
-0.7279 d s k 
-0.7279 d two nine 
-0.7279 d two six 
-0.4269 d u g 
-0.4269 d v seven 
-0.6960 d w i 
-0.6960 d w o 
-1.1258 d w q 
-0.4741 d y <s> 
-0.9040 d y m 
-0.4269 d z w 
-0.4269 december eighteenth nineteen 
-1.6098 e <s> b 
-2.0397 e <s> d 
-2.0397 e <s> e 
-2.0397 e <s> fifty 
-1.6098 e <s> g 
-1.6098 e <s> j 
-2.0397 e <s> m 
-2.0397 e <s> nine 
-2.0397 e <s> o 
-0.6585 e <s> one 
-0.4988 e <s> p 
-2.0397 e <s> r 
-1.6098 e <s> s 
-2.0397 e <s> seven 
-2.0397 e <s> v 
-2.0397 e <s> w 
-2.0397 e <s> z 
-1.6573 e a <s> 
-1.2274 e a c 
-1.2274 e a d 
-0.9749 e a n 
-1.6573 e a r 
-0.7274 e a s 
-1.6573 e a six 
-1.6573 e a t 
-1.2274 e a v 
-0.7279 e b one 
-0.7279 e b seventy 
-0.7279 e c c 
-0.7279 e c h 
-1.2720 e d forty 
-1.2720 e d o 
-1.2720 e d one 
-0.8421 e d r 
-1.2720 e d v 
-1.2720 e d w 
-1.4269 e e a 
-1.4269 e e l 
-1.4269 e e n 
-0.9970 e e p 
-1.4269 e e r 
-0.9970 e e s 
-1.4269 e e t 
-1.4269 e e three 
-0.7279 e eight nine 
-0.7279 e eight seven 
-0.9040 e f f 
-0.9040 e f r 
-0.9040 e f v 
-0.9040 e four ninety 
-0.9040 e four oh 
-0.9040 e four seven 
-1.0289 e g b 
-1.0289 e g i 
-1.0289 e g l 
-1.0289 e g seventy 
-0.4269 e h u 
-1.0289 e i d 
-0.3465 e i l 
-0.2980 e j q 
-0.4269 e k <s> 
-0.8951 e l <s> 
-1.7693 e l a 
-1.0869 e l d 
-1.3394 e l e 
-1.7693 e l g 
-1.7693 e l i 
-0.4393 e l l 
-1.7693 e l s 
-0.5991 e m b 
-1.0289 e m o 
-1.0289 e m p 
-0.4607 e n <s> 
-1.1594 e n d 
-1.8418 e n f 
-0.9119 e n n 
-1.8418 e n o 
-1.8418 e n s 
-1.1594 e n t 
-0.9119 e n u 
-0.4269 e o a 
-1.2050 e p c 
-0.5226 e p h 
-1.2050 e p t 
-1.2050 e p y 
-0.4269 e q fifty 
-0.6463 e r <s> 
-1.4884 e r a 
-1.9182 e r b 
-1.2358 e r e 
-1.9182 e r f 
-0.9883 e r i 
-1.4884 e r k 
-1.2358 e r l 
-1.9182 e r n 
-1.4884 e r o 
-1.9182 e r one 
-1.4884 e r s 
-1.4884 e r t 
-0.5069 e s <s> 
-1.3811 e s b 
-1.3811 e s f 
-1.3811 e s m 
-1.3811 e s p 
-0.4269 e seventy six 
-0.4557 e t <s> 
-0.6475 e t t 
-0.4269 e thirty five 
-0.7279 e three five 
-0.7279 e three seven 
-0.4269 e two eight 
-0.9040 e u j 
-0.9040 e u l 
-0.9040 e u y 
-1.3811 e v a 
-0.1091 e v e 
-1.3811 e v nine 
-0.9486 e w <s> 
-1.6310 e w a 
-1.6310 e w b 
-1.6310 e w e 
-1.2011 e w i 
-0.7011 e w o 
-0.9486 e w y 
-1.6310 e w z 
-0.4269 e x x 
-0.3308 e y <s> 
-1.2050 e y d 
-0.7279 e z a 
-0.7279 e z u 
-2.1344 eight <s> a 
-2.1344 eight <s> april 
-2.1344 eight <s> august 
-1.7046 eight <s> b 
-2.1344 eight <s> c 
-2.1344 eight <s> e 
-0.8045 eight <s> enter 
-1.4520 eight <s> erase 
-2.1344 eight <s> f 
-2.1344 eight <s> four 
-1.7046 eight <s> g 
-2.1344 eight <s> j 
-2.1344 eight <s> june 
-2.1344 eight <s> k 
-2.1344 eight <s> l 
-2.1344 eight <s> n 
-2.1344 eight <s> nine 
-1.7046 eight <s> o 
-2.1344 eight <s> q 
-1.7046 eight <s> repeat 
-1.2045 eight <s> rubout 
-2.1344 eight <s> s 
-2.1344 eight <s> six 
-2.1344 eight <s> stop 
-2.1344 eight <s> ten 
-1.2045 eight <s> three 
-2.1344 eight <s> twelve 
-1.2045 eight <s> two 
-2.1344 eight <s> x 
-0.7751 eight eight four 
-0.7751 eight eight nine 
-1.2050 eight eight seven 
-1.2050 eight eight two 
-0.9970 eight five <s> 
-1.4269 eight five eight 
-1.4269 eight five five 
-1.4269 eight five four 
-1.4269 eight five nine 
-1.4269 eight five oh 
-1.4269 eight five one 
-0.9970 eight five six 
-0.4269 eight forty one 
-0.7287 eight four <s> 
-0.9206 eight four four 
-1.1731 eight four one 
-0.9206 eight four six 
-1.1731 eight four two 
-0.4269 eight fourteen sixty 
-0.4741 eight hundred and 
-0.9040 eight hundred eighty 
-0.6960 eight nine <s> 
-1.1258 eight nine nine 
-0.6960 eight nine six 
-1.2050 eight oh <s> 
-1.2050 eight oh eight 
-1.2050 eight oh nine 
-1.2050 eight oh seven 
-1.2050 eight oh three 
-1.2050 eight oh two 
-1.2720 eight one <s> 
-0.8421 eight one nine 
-1.2720 eight one oh 
-1.2720 eight one one 
-1.2720 eight one seven 
-1.2720 eight one six 
-0.6475 eight seven <s> 
-1.3300 eight seven eight 
-1.3300 eight seven five 
-1.3300 eight seven nine 
-1.3300 eight seven one 
-1.3300 eight seven zero 
-0.2980 eight seventy one 
-0.7751 eight six <s> 
-1.2050 eight six eight 
-1.2050 eight six nine 
-1.2050 eight six one 
-1.2050 eight six three 
-0.9040 eight sixty five 
-0.9040 eight sixty nine 
-0.9040 eight sixty one 
-0.4269 eight thirty two 
-0.4269 eight thousand nine 
-0.8236 eight three <s> 
-1.5061 eight three eight 
-1.5061 eight three five 
-1.5061 eight three oh 
-1.0762 eight three one 
-1.5061 eight three three 
-1.5061 eight three two 
-1.0762 eight three zero 
-0.7279 eight twenty eight 
-0.7279 eight twenty seven 
-1.3811 eight two <s> 
-0.9512 eight two eight 
-0.9512 eight two four 
-0.6987 eight two six 
-1.3811 eight two three 
-0.5991 eight zero <s> 
-1.0289 eight zero six 
-1.0289 eight zero two 
-0.4269 eighteen february nineteen 
-0.4269 eighteenth nineteen forty 
-0.4269 eighth nineteen fifty 
-0.4269 eighty eight <s> 
-0.4269 eighty fifth s 
-0.4269 eighty five <s> 
-0.4269 eighty four <s> 
-0.4741 eighty nine <s> 
-0.9040 eighty nine forty 
-0.4269 eighty one <s> 
-0.4269 eighty seven <s> 
-0.2516 eighty six <s> 
-0.4269 eighty three <s> 
-0.4269 eleven <s> o 
-0.4269 eleven nine sixty 
-0.4269 eleven seventeen fifty 
-0.4269 eleven sixty seven 
-0.4269 eleventh nineteen sixty 
-1.3300 enter eight four 
-1.3300 enter eight one 
-1.3300 enter eight seven 
-1.3300 enter eight seventy 
-1.3300 enter eight thirty 
-1.3300 enter eight twenty 
-1.3300 enter eight two 
-1.3300 enter eight zero 
-0.4269 enter eighty nine 
-0.4269 enter fifteen <s> 
-1.1258 enter fifty five 
-0.6960 enter fifty four 
-1.1258 enter fifty one 
-1.1258 enter fifty sixty 
-0.5226 enter five <s> 
-1.2050 enter five three 
-1.2050 enter five two 
-1.2050 enter five zero 
-0.9040 enter forty one 
-0.9040 enter forty seven 
-0.9040 enter forty three 
-0.7751 enter four <s> 
-0.7751 enter four fifty 
-1.2050 enter four thousand 
-1.2050 enter four twenty 
-0.4269 enter fourteen <s> 
-1.0289 enter nine <s> 
-1.0289 enter nine eight 
-1.0289 enter nine eighty 
-1.0289 enter nine seventy 
-0.9040 enter ninety eight 
-0.9040 enter ninety five 
-0.9040 enter ninety four 
-1.0289 enter one forty 
-1.0289 enter one nine 
-1.0289 enter one ninety 
-1.0289 enter one thirty 
-0.5069 enter seven <s> 
-1.3811 enter seven oh 
-1.3811 enter seven seven 
-1.3811 enter seven thirty 
-1.3811 enter seven two 
-1.0289 enter seventy eight 
-0.5991 enter seventy one 
-1.0289 enter seventy two 
-0.6475 enter six <s> 
-1.3300 enter six four 
-1.3300 enter six oh 
-1.3300 enter six one 
-1.3300 enter six seven 
-1.3300 enter six two 
-0.6475 enter sixty <s> 
-1.3300 enter sixty four 
-0.9001 enter sixty one 
-1.3300 enter sixty six 
-1.3300 enter sixty two 
-0.9040 enter thirty eight 
-0.9040 enter thirty five 
-0.9040 enter thirty seven 
-0.7279 enter three <s> 
-0.7279 enter three eighty 
-0.4269 enter twenty nine 
-0.7751 enter two <s> 
-1.2050 enter two five 
-0.7751 enter two oh 
-1.2050 enter two six 
-0.4269 enter zero <s> 
-0.4269 erase a l 
-0.4269 erase b m 
-0.7279 erase c b 
-0.7279 erase c k 
-0.7279 erase e o 
-0.7279 erase e x 
-0.4269 erase f h 
-0.7279 erase g h 
-0.7279 erase g w 
-0.7279 erase i g 
-0.7279 erase i s 
-0.7279 erase j g 
-0.7279 erase j n 
-0.4269 erase k j 
-0.4269 erase m y 
-0.4269 erase n t 
-0.9040 erase o j 
-0.4741 erase o t 
-0.7279 erase q e 
-0.7279 erase q k 
-0.4269 erase r b 
-0.7279 erase s s 
-0.7279 erase s v 
-0.4269 erase t m 
-0.9040 erase v r 
-0.9040 erase v x 
-0.9040 erase v y 
-0.7279 erase w e 
-0.7279 erase w f 
-0.4269 erase x b 
-0.4269 erase y b 
-0.4269 erase z y 
-0.4269 f <s> four 
-0.4269 f a r 
-0.7279 f b m 
-0.7279 f b o 
-0.4269 f d w 
-1.3300 f e b 
-1.3300 f e d 
-1.3300 f e eight 
-1.3300 f e g 
-1.3300 f e i 
-1.3300 f e l 
-1.3300 f e n 
-1.3300 f e r 
-0.4269 f eight <s> 
-0.9040 f f <s> 
-0.9040 f f eight 
-0.9040 f f r 
-0.7279 f five forty 
-0.7279 f five nine 
-0.4269 f g i 
-0.7279 f h b 
-0.7279 f h nine 
-1.2720 f i e 
-0.8421 f i f 
-1.2720 f i five 
-1.2720 f i l 
-1.2720 f i n 
-1.2720 f i y 
-0.7279 f j d 
-0.7279 f j k 
-0.7279 f k a 
-0.7279 f k v 
-0.7279 f m fifty 
-0.7279 f m q 
-1.1258 f o f 
-1.1258 f o five 
-0.4434 f o r 
-0.4269 f q q 
-0.6960 f r a 
-1.1258 f r i 
-0.6960 f r o 
-0.4269 f s o 
-0.4269 f six eighty 
-0.5991 f t h 
-1.0289 f t o 
-1.0289 f t sixty 
-0.4269 f thirty eight 
-0.4269 f twenty four 
-0.4741 f two <s> 
-0.9040 f two five 
-0.4269 f v s 
-1.0289 f x c 
-1.0289 f x four 
-1.0289 f x y 
-1.0289 f x zero 
-0.7279 f y n 
-0.7279 f y z 
-0.4269 f z z 
-0.4269 february eighth nineteen 
-0.4269 february nineteen seventy 
-0.9040 fifteen <s> enter 
-0.9040 fifteen <s> m 
-0.9040 fifteen <s> n 
-0.4269 fifteen nineteen seventy 
-0.4269 fifteen sixty two 
-0.2980 fifteenth nineteen sixty 
-0.4269 fifth nineteen sixty 
-0.4269 fifth s t 
-0.7279 fifty <s> b 
-0.7279 fifty <s> rubout 
-0.2751 fifty eight <s> 
-1.2050 fifty eight oh 
-1.2050 fifty eight thousand 
-0.3465 fifty five <s> 
-1.0289 fifty five thirty 
-0.2216 fifty four <s> 
-0.4269 fifty nine <s> 
-0.4434 fifty one <s> 
-1.1258 fifty one fifteen 
-1.1258 fifty one fifty 
-0.7279 fifty seven <s> 
-0.7279 fifty seven fourteen 
-0.5226 fifty six <s> 
-1.2050 fifty six oh 
-1.2050 fifty six sixty 
-1.2050 fifty six thirty 
-0.4269 fifty sixty three 
-0.7279 fifty three <s> 
-0.7279 fifty three forty 
-0.3465 fifty two <s> 
-1.0289 fifty two fifty 
-0.2216 first nineteen sixty 
-2.1171 five <s> a 
-1.6872 five <s> b 
-2.1171 five <s> c 
-2.1171 five <s> d 
-2.1171 five <s> e 
-0.7360 five <s> enter 
-1.6872 five <s> erase 
-1.4347 five <s> f 
-1.6872 five <s> five 
-2.1171 five <s> g 
-2.1171 five <s> h 
-1.6872 five <s> help 
-2.1171 five <s> j 
-2.1171 five <s> k 
-1.6872 five <s> m 
-2.1171 five <s> may 
-1.6872 five <s> nine 
-2.1171 five <s> ninth 
-2.1171 five <s> no 
-2.1171 five <s> october 
-2.1171 five <s> p 
-2.1171 five <s> q 
-1.6872 five <s> repeat 
-1.6872 five <s> rubout 
-2.1171 five <s> six 
-2.1171 five <s> thirty 
-2.1171 five <s> three 
-2.1171 five <s> two 
-1.4347 five <s> yes 
-0.2751 five eight <s> 
-1.2050 five eight five 
-1.2050 five eight oh 
-0.7751 five five <s> 
-1.2050 five five eight 
-1.2050 five five five 
-1.2050 five five three 
-1.2050 five five two 
-0.4269 five forty five 
-0.7751 five four <s> 
-1.2050 five four five 
-0.7751 five four six 
-1.2050 five four two 
-0.7279 five hundred and 
-0.7279 five hundred eighty 
-0.4269 five m a 
-0.8421 five nine <s> 
-1.2720 five nine five 
-1.2720 five nine one 
-1.2720 five nine seven 
-1.2720 five nine six 
-1.2720 five nine two 
-0.9001 five oh <s> 
-1.3300 five oh five 
-0.9001 five oh four 
-1.3300 five oh one 
-1.3300 five oh seven 
-1.3300 five oh six 
-0.9206 five one <s> 
-1.6030 five one eight 
-1.6030 five one five 
-0.9206 five one four 
-1.6030 five one nine 
-1.6030 five one oh 
-0.9206 five one one 
-1.1731 five one three 
-0.7751 five seven <s> 
-0.7751 five seven eight 
-1.2050 five seven oh 
-1.2050 five seven six 
-1.2720 five six <s> 
-0.8421 five six four 
-0.8421 five six one 
-1.2720 five six six 
-1.2720 five six three 
-0.4269 five sixteen sixty 
-0.4269 five t h 
-0.4269 five ten <s> 
-0.7279 five thirty <s> 
-0.7279 five thirty five 
-1.3811 five three <s> 
-1.3811 five three five 
-0.6987 five three four 
-0.6987 five three three 
-1.3811 five three two 
-0.4269 five twenty six 
-1.3295 five two <s> 
-2.2594 five two eight 
-2.2594 five two five 
-1.5770 five two four 
-1.3295 five two oh 
-0.3010 five two one 
-1.8295 five two seven 
-2.2594 five two six 
-0.9874 five two three 
-0.8783 five two two 
-1.8295 five two zero 
-0.6960 five zero <s> 
-0.6960 five zero four 
-1.1258 five zero six 
-0.2216 forty eight <s> 
-0.0990 forty five <s> 
-0.2216 forty four <s> 
-0.4741 forty nine <s> 
-0.9040 forty nine hundred 
-0.2980 forty one <s> 
-0.3465 forty seven <s> 
-1.0289 forty seven forty 
-0.4269 forty six <s> 
-1.0289 forty three <s> 
-1.0289 forty three forty 
-1.0289 forty three seventeen 
-1.0289 forty three twenty 
-0.2216 forty two <s> 
-2.1258 four <s> august 
-2.1258 four <s> b 
-2.1258 four <s> d 
-1.6960 four <s> eight 
-2.1258 four <s> eleven 
-1.0896 four <s> enter 
-1.6960 four <s> erase 
-2.1258 four <s> f 
-1.4434 four <s> four 
-2.1258 four <s> h 
-2.1258 four <s> help 
-1.6960 four <s> january 
-2.1258 four <s> l 
-2.1258 four <s> march 
-1.4434 four <s> no 
-2.1258 four <s> r 
-1.4434 four <s> repeat 
-1.0896 four <s> rubout 
-1.6960 four <s> s 
-2.1258 four <s> september 
-1.4434 four <s> six 
-2.1258 four <s> start 
-1.4434 four <s> stop 
-2.1258 four <s> twelve 
-2.1258 four <s> x 
-2.1258 four <s> z 
-0.4269 four and a 
-1.3300 four eight <s> 
-1.3300 four eight five 
-0.9001 four eight four 
-1.3300 four eight six 
-0.9001 four eight two 
-1.3300 four eight zero 
-0.7279 four fifty one 
-0.7279 four fifty six 
-1.2720 four five eight 
-1.2720 four five nine 
-1.2720 four five oh 
-0.8421 four five one 
-1.2720 four five three 
-1.2720 four five two 
-0.7279 four forty nine 
-0.7279 four forty two 
-0.5667 four four <s> 
-1.6030 four four eight 
-1.1731 four four four 
-1.6030 four four oh 
-1.1731 four four one 
-1.1731 four four seven 
-1.6030 four four three 
-1.0289 four nine <s> 
-1.0289 four nine five 
-1.0289 four nine nine 
-1.0289 four nine zero 
-0.4269 four ninety one 
-1.2050 four oh eight 
-1.2050 four oh one 
-1.2050 four oh six 
-0.7751 four oh three 
-1.2050 four oh two 
-1.0869 four one <s> 
-1.7693 four one eight 
-1.3394 four one oh 
-1.7693 four one one 
-1.7693 four one six 
-0.2285 four one two 
-1.7693 four one zero 
-0.6987 four seven <s> 
-1.3811 four seven five 
-1.3811 four seven four 
-1.3811 four seven sixty 
-1.3811 four seven twenty 
-0.9512 four seven two 
-0.4269 four seventy one 
-0.9001 four six <s> 
-1.3300 four six five 
-1.3300 four six four 
-1.3300 four six nine 
-1.3300 four six oh 
-0.9001 four six seven 
-0.7279 four sixty eight 
-0.7279 four sixty seven 
-0.4269 four thirty three 
-0.9040 four thousand eight 
-0.9040 four thousand seven 
-0.9040 four thousand three 
-0.6960 four three <s> 
-1.1258 four three eight 
-1.1258 four three six 
-1.1258 four three three 
-0.7279 four twenty eight 
-0.7279 four twenty one 
-0.9486 four two <s> 
-1.6310 four two nine 
-0.7011 four two one 
-1.6310 four two six 
-0.3590 four two two 
-0.4269 four zero <s> 
-0.4741 fourteen <s> repeat 
-0.9040 fourteen <s> s 
-0.4269 fourteen a <s> 
-0.4269 fourteen eighty five 
-0.4269 fourteen fourteen <s> 
-0.9040 fourteen sixty four 
-0.9040 fourteen sixty one 
-0.9040 fourteen sixty seven 
-0.4269 fourth nineteen fifty 
-0.9040 g <s> d 
-0.9040 g <s> m 
-0.9040 g <s> one 
-1.3811 g a b 
-1.3811 g a m 
-0.4512 g a r 
-0.9512 g a six 
-1.3811 g a t 
-0.4269 g b forty 
-0.7279 g c d 
-0.7279 g c s 
-0.7279 g d e 
-0.7279 g d r 
-0.7279 g e e 
-0.7279 g e four 
-0.4269 g eighty six 
-0.4269 g forty eight 
-0.0439 g h <s> 
-2.1429 g h l 
-1.7130 g h o 
-2.1429 g h t 
-2.1429 g h x 
-0.6475 g i b 
-1.3300 g i c 
-1.3300 g i e 
-1.3300 g i k 
-1.3300 g i n 
-1.3300 g i u 
-0.7279 g j h 
-0.7279 g j w 
-0.7279 g k eighty 
-0.7279 g k k 
-1.3811 g l a 
-0.4512 g l e 
-0.9512 g l g 
-1.3811 g l l 
-1.3811 g l seventy 
-1.0289 g n m 
-1.0289 g n n 
-1.0289 g n o 
-1.0289 g n p 
-0.7279 g nine nine 
-0.7279 g nine six 
-0.4269 g o t 
-0.4269 g p d 
-0.4269 g q y 
-0.7279 g r e 
-0.7279 g r o 
-0.4269 g s <s> 
-0.4269 g seventy nine 
-0.4269 g t o 
-0.7279 g two eighty 
-0.7279 g two hundred 
-0.4269 g u k 
-0.7279 g v i 
-0.7279 g v seven 
-0.7279 g w d 
-0.7279 g w n 
-1.4269 go <s> enter 
-1.4269 go <s> g 
-1.4269 go <s> h 
-1.4269 go <s> l 
-0.9970 go <s> repeat 
-1.4269 go <s> rubout 
-1.4269 go <s> x 
-0.9970 go <s> yes 
-2.1593 h <s> a 
-0.0603 h <s> one 
-1.7294 h <s> p 
-2.1593 h <s> s 
-2.1593 h <s> t 
-2.1593 h <s> two 
-2.1593 h <s> v 
-1.7886 h a c 
-1.7886 h a d 
-1.3587 h a e 
-1.7886 h a h 
-1.7886 h a m 
-1.1062 h a n 
-0.5166 h a r 
-1.7886 h a s 
-1.3587 h a v 
-1.3587 h a w 
-1.7886 h a x 
-1.7886 h a y 
-1.0289 h b a 
-1.0289 h b g 
-1.0289 h b k 
-1.0289 h b x 
-0.9001 h e a 
-1.3300 h e i 
-1.3300 h e n 
-1.3300 h e q 
-1.3300 h e r 
-0.9001 h e w 
-0.9040 h f d 
-0.9040 h f e 
-0.9040 h f i 
-0.4269 h fifty two 
-0.4269 h four <s> 
-0.7279 h g p 
-0.7279 h g v 
-0.4269 h h u 
-1.2050 h i <s> 
-1.2050 h i g 
-1.2050 h i l 
-1.2050 h i n 
-1.2050 h i r 
-1.2050 h i t 
-0.7279 h k j 
-0.7279 h k t 
-0.7279 h l a 
-0.7279 h l e 
-1.0289 h n <s> 
-1.0289 h n c 
-1.0289 h n k 
-1.0289 h n s 
-0.4269 h nine four 
-1.1109 h o b 
-1.5408 h o e 
-1.5408 h o f 
-1.5408 h o l 
-1.5408 h o m 
-1.5408 h o n 
-1.5408 h o r 
-1.5408 h o t 
-1.1109 h o u 
-1.5408 h o w 
-1.5408 h o y 
-0.4269 h one <s> 
-0.4269 h p d 
-0.4269 h q f 
-0.4741 h r i 
-0.9040 h r sixty 
-0.4269 h seven eight 
-0.4269 h seventy seven 
-0.4269 h six <s> 
-0.4741 h t e 
-0.9040 h t s 
-0.4269 h three seventy 
-0.4269 h two <s> 
-0.7279 h u f 
-0.7279 h u r 
-0.4269 h w o 
-0.4269 h x w 
-0.9040 h y <s> 
-0.9040 h y d 
-0.9040 h y l 
-0.4269 h z a 
-0.7279 half <s> f 
-0.7279 half <s> h 
-1.5061 help <s> a 
-1.5061 help <s> b 
-0.8236 help <s> enter 
-1.0762 help <s> go 
-1.5061 help <s> help 
-1.5061 help <s> j 
-1.5061 help <s> n 
-1.5061 help <s> rubout 
-1.5061 help <s> v 
-0.7279 hundred <s> s 
-0.7279 hundred <s> w 
-0.5226 hundred and eighty 
-1.2050 hundred and fifty 
-1.2050 hundred and sixty 
-1.2050 hundred and twenty 
-0.7279 hundred eighty seven 
-0.7279 hundred eighty three 
-0.4269 hundred forty nine 
-0.4269 hundred twenty three 
-1.1258 i <s> c 
-1.1258 i <s> j 
-0.6960 i <s> m 
-1.1258 i <s> n 
-0.5991 i a <s> 
-1.0289 i a m 
-1.0289 i a n 
-0.9040 i b b 
-0.4741 i b s 
-1.1431 i c <s> 
-1.5730 i c a 
-1.5730 i c five 
-0.5368 i c h 
-1.1431 i c k 
-1.5730 i c o 
-1.5730 i c two 
-0.6960 i d <s> 
-1.1258 i d e 
-1.1258 i d m 
-1.1258 i d w 
-0.9512 i e <s> 
-0.9512 i e l 
-1.3811 i e n 
-0.9512 i e r 
-1.3811 i e t 
-1.3811 i e w 
-1.0289 i f e 
-1.0289 i f r 
-0.5991 i f t 
-0.4269 i fifteen <s> 
-0.7279 i five <s> 
-0.7279 i five zero 
-0.4269 i four <s> 
-0.5991 i g h 
-1.0289 i g i 
-1.0289 i g n 
-0.7279 i k <s> 
-0.7279 i k two 
-0.9970 i l <s> 
-1.4269 i l a 
-1.4269 i l d 
-1.4269 i l k 
-0.4970 i l l 
-1.4269 i l zero 
-1.0289 i m i 
-1.0289 i m m 
-0.5991 i m o 
-0.8192 i n <s> 
-1.7491 i n a 
-1.3192 i n c 
-0.8192 i n d 
-1.7491 i n e 
-0.8749 i n g 
-1.3192 i n i 
-1.3192 i n s 
-0.4269 i o <s> 
-0.9040 i p a 
-0.9040 i p s 
-0.9040 i p three 
-0.9040 i q g 
-0.9040 i q n 
-0.9040 i q w 
-0.9040 i r d 
-0.9040 i r e 
-0.9040 i r k 
-0.5226 i s <s> 
-1.2050 i s l 
-1.2050 i s s 
-1.2050 i s t 
-0.4269 i sixty one 
-2.1258 i t d 
-1.6960 i t h 
-2.1258 i t n 
-0.0362 i t t 
-0.4269 i thirty two 
-0.4269 i u r 
-1.2050 i v a 
-0.2751 i v e 
-1.2050 i v y 
-0.4269 i y q 
-0.4741 j a m 
-0.9040 j a n 
-0.4269 j b x 
-0.7279 j c h 
-0.7279 j c l 
-0.4269 j d two 
-0.6960 j e a 
-1.1258 j e f 
-1.1258 j e n 
-1.1258 j e t 
-0.4269 j five seven 
-0.7279 j four thirty 
-0.7279 j four thousand 
-0.4269 j g q 
-0.7279 j h b 
-0.7279 j h g 
-0.4269 j j c 
-0.7279 j k eight 
-0.7279 j k two 
-0.4269 j l y 
-0.4269 j m k 
-0.4269 j n r 
-1.2720 j o <s> 
-0.8421 j o h 
-1.2720 j o n 
-1.2720 j o ninety 
-0.8421 j o s 
-0.7279 j one <s> 
-0.7279 j one five 
-0.7279 j q five 
-0.7279 j q t 
-0.4269 j s p 
-0.9040 j seven four 
-0.9040 j seven ten 
-0.9040 j seven thousand 
-0.4269 j t k 
-0.7279 j u i 
-0.7279 j u l 
-0.7279 j v c 
-0.7279 j v p 
-0.4269 j w b 
-0.4269 j x k 
-0.7279 j z a 
-0.7279 j z f 
-0.4269 january fifteenth nineteen 
-0.4269 january twelfth nineteen 
-0.4269 july thirtieth nineteen 
-0.4269 july twelfth nineteen 
-0.4269 july twenty nine 
-0.4269 june eleventh nineteen 
-0.4269 june twenty third 
-1.4683 k <s> fifty 
-1.4683 k <s> j 
-1.4683 k <s> k 
-1.0384 k <s> one 
-1.0384 k <s> p 
-1.4683 k <s> seven 
-1.0384 k <s> six 
-1.4683 k <s> three 
-0.1959 k a r 
-1.1258 k a u 
-0.4269 k c w 
-0.4269 k d a 
-1.3300 k e a 
-0.9001 k e e 
-1.3300 k e l 
-1.3300 k e n 
-1.3300 k e r 
-1.3300 k e thirty 
-1.3300 k e v 
-0.4269 k eight five 
-0.4269 k eighty four 
-0.7279 k f five 
-0.7279 k f six 
-0.7279 k h a 
-0.7279 k h one 
-1.0289 k i <s> 
-1.0289 k i four 
-0.5991 k i n 
-0.7279 k j five 
-0.7279 k j z 
-0.4269 k k three 
-0.7279 k l e 
-0.7279 k l m 
-0.4269 k m four 
-0.4269 k nine <s> 
-0.4269 k ninety six 
-0.4269 k o eight 
-0.4269 k r o 
-0.7279 k s <s> 
-0.7279 k s thirty 
-0.7279 k six four 
-0.7279 k six thousand 
-0.9040 k t e 
-0.9040 k t fifty 
-0.9040 k t l 
-0.4269 k three thirty 
-0.4269 k twenty three 
-0.7279 k two eight 
-0.7279 k two sixty 
-0.7279 k u four 
-0.7279 k u n 
-0.4269 k v thirty 
-1.0289 k w h 
-1.0289 k w o 
-1.0289 k w w 
-1.0289 k w z 
-0.7279 k x y 
-0.7279 k x zero 
-0.2980 k y <s> 
-0.7279 k z o 
-0.7279 k z sixty 
-1.5408 l <s> b 
-1.5408 l <s> c 
-1.5408 l <s> d 
-1.5408 l <s> fifty 
-1.1109 l <s> five 
-1.5408 l <s> j 
-1.5408 l <s> k 
-1.5408 l <s> one 
-1.5408 l <s> p 
-1.5408 l <s> six 
-1.5408 l <s> ten 
-1.5408 l <s> three 
-1.1431 l a <s> 
-1.5730 l a a 
-0.6431 l a c 
-1.5730 l a m 
-0.6431 l a n 
-1.5730 l a r 
-1.5730 l a s 
-0.4269 l c z 
-0.5526 l d <s> 
-1.4269 l d a 
-1.4269 l d b 
-1.4269 l d e 
-1.4269 l d i 
-1.4269 l d r 
-0.4929 l e <s> 
-1.8740 l e a 
-1.8740 l e d 
-1.8740 l e e 
-1.8740 l e four 
-1.4442 l e n 
-1.8740 l e r 
-1.4442 l e s 
-1.8740 l e seventy 
-1.8740 l e two 
-1.8740 l e u 
-1.8740 l e v 
-1.4442 l e w 
-0.9441 l e y 
-0.4269 l eight four 
-0.9040 l f o 
-0.9040 l f thirty 
-0.9040 l f x 
-0.4269 l fifty one 
-0.4741 l g a 
-0.9040 l g i 
-0.4269 l h n 
-1.5061 l i a 
-0.8236 l i e 
-1.5061 l i f 
-1.5061 l i g 
-0.8236 l i n 
-1.5061 l i o 
-1.5061 l i p 
-1.5061 l i s 
-0.9040 l k f 
-0.9040 l k h 
-0.9040 l k i 
-0.8079 l l <s> 
-0.9997 l l e 
-0.7522 l l i 
-1.6821 l l k 
-1.6821 l l nine 
-1.6821 l l o 
-1.6821 l l s 
-1.2523 l l y 
-0.7279 l m o 
-0.7279 l m u 
-0.4269 l n s 
-0.4269 l nine four 
-1.1258 l o n 
-1.1258 l o o 
-1.1258 l o r 
-1.1258 l o u 
-1.1258 l o w 
-0.9040 l r l 
-0.9040 l r r 
-0.9040 l r seven 
-0.9040 l s k 
-0.9040 l s o 
-0.9040 l s w 
-0.4269 l seventy seven 
-0.4269 l t m 
-0.4269 l thirty one 
-0.4269 l three seven 
-0.4269 l two <s> 
-0.9040 l u b 
-0.9040 l u d 
-0.9040 l u s 
-0.4434 l y <s> 
-1.1258 l y u 
-1.1258 l y z 
-0.7279 l z e 
-0.7279 l z r 
-0.4269 l zero <s> 
-0.9040 m <s> eight 
-0.9040 m <s> n 
-0.9040 m <s> s 
-1.7491 m a c 
-1.7491 m a h 
-1.7491 m a l 
-1.3192 m a n 
-1.7491 m a p 
-0.3680 m a r 
-1.3192 m a s 
-1.3192 m a t 
-1.7491 m a u 
-1.7491 m a z 
-0.7279 m b e 
-0.7279 m b z 
-0.4269 m c k 
-0.4269 m d m 
-1.3300 m e a 
-1.3300 m e e 
-1.3300 m e m 
-0.6475 m e r 
-0.9001 m e s 
-0.4269 m eight four 
-0.4269 m f g 
-0.4269 m fifty four 
-0.4269 m forty three 
-0.4269 m four seventy 
-0.4269 m g e 
-0.7279 m h r 
-0.7279 m h seven 
-0.7751 m i c 
-1.2050 m i d 
-0.7751 m i t 
-1.2050 m i thirty 
-0.7279 m j one 
-0.7279 m j seven 
-0.4269 m k nine 
-0.9040 m m <s> 
-0.9040 m m e 
-0.9040 m m v 
-0.9040 m n t 
-0.9040 m n y 
-0.9040 m n z 
-1.4683 m o d 
-1.4683 m o h 
-1.0384 m o n 
-0.4321 m o r 
-1.4683 m o t 
-1.0289 m p e 
-1.0289 m p l 
-0.5991 m p s 
-0.4269 m q n 
-0.7279 m s <s> 
-0.7279 m s j 
-0.4269 m seven <s> 
-0.4269 m t g 
-0.4269 m thirty nine 
-0.4269 m two <s> 
-0.9040 m u <s> 
-0.9040 m u five 
-0.9040 m u four 
-0.7279 m v o 
-0.7279 m v q 
-0.4269 m x seventy 
-0.7279 m y <s> 
-0.7279 m y a 
-0.4269 march third nineteen 
-0.4269 march twentieth nineteen 
-0.4269 march twenty fifth 
-0.4269 may nineteen forty 
-0.4269 may ninth sixty 
-0.4269 may twenty first 
-1.3242 n <s> c 
-2.0067 n <s> e 
-2.0067 n <s> eight 
-1.3242 n <s> five 
-2.0067 n <s> four 
-2.0067 n <s> j 
-1.5768 n <s> k 
-1.5768 n <s> m 
-0.9704 n <s> one 
-1.1324 n <s> p 
-1.5768 n <s> r 
-1.5768 n <s> s 
-2.0067 n <s> six 
-1.5768 n <s> t 
-1.5768 n <s> thirty 
-1.5768 n <s> three 
-1.5768 n <s> two 
-0.7859 n a <s> 
-1.4683 n a a 
-1.4683 n a f 
-1.4683 n a g 
-1.4683 n a l 
-1.4683 n a m 
-1.4683 n a n 
-1.0384 n a t 
-1.0289 n b a 
-1.0289 n b five 
-1.0289 n b u 
-1.0289 n b x 
-0.6960 n c e 
-1.1258 n c k 
-1.1258 n c o 
-1.1258 n c thirty 
-0.8584 n d <s> 
-0.6109 n d a 
-1.1109 n d e 
-1.5408 n d l 
-1.5408 n d r 
-1.1109 n d y 
-0.8537 n e <s> 
-1.7279 n e d 
-1.2980 n e g 
-1.7279 n e h 
-1.7279 n e i 
-1.0455 n e l 
-1.7279 n e s 
-1.7279 n e t 
-1.0455 n e w 
-1.2980 n e y 
-0.4269 n f e 
-0.4269 n four <s> 
-1.3300 n g <s> 
-0.9001 n g h 
-1.3300 n g l 
-1.3300 n g n 
-1.3300 n g s 
-1.3300 n g t 
-1.3300 n g v 
-0.7279 n h o 
-0.7279 n h three 
-1.0384 n i <s> 
-1.0384 n i a 
-0.7859 n i c 
-1.4683 n i e 
-1.4683 n i f 
-1.4683 n i m 
-1.4683 n i n 
-0.4269 n j four 
-0.4269 n k e 
-0.7279 n l l 
-0.7279 n l n 
-0.4269 n m forty 
-0.9512 n n <s> 
-1.3811 n n a 
-1.3811 n n e 
-0.9512 n n i 
-1.3811 n n p 
-1.3811 n n three 
-1.3811 n n y 
-1.0289 n o <s> 
-1.0289 n o o 
-1.0289 n o p 
-1.0289 n o w 
-0.9040 n p eight 
-0.9040 n p ninety 
-0.9040 n p u 
-0.7279 n r a 
-0.7279 n r g 
-1.1258 n s <s> 
-1.1258 n s h 
-1.1258 n s k 
-1.1258 n s o 
-1.1258 n s one 
-0.4269 n seventy one 
-0.4269 n six seven 
-1.3811 n t <s> 
-1.3811 n t d 
-1.3811 n t four 
-1.3811 n t o 
-0.9512 n t r 
-0.6987 n t z 
-0.4269 n three nine 
-1.1258 n u a 
-0.1959 n u e 
-0.7279 n x f 
-0.7279 n x v 
-0.9040 n y h 
-0.9040 n y ten 
-0.9040 n y v 
-0.9040 n z i 
-0.9040 n z l 
-0.9040 n z x 
-1.6872 nine <s> a 
-2.1171 nine <s> august 
-1.4347 nine <s> b 
-2.1171 nine <s> eleven 
-1.1872 nine <s> enter 
-1.1872 nine <s> erase 
-2.1171 nine <s> f 
-2.1171 nine <s> five 
-2.1171 nine <s> g 
-2.1171 nine <s> go 
-2.1171 nine <s> help 
-2.1171 nine <s> j 
-2.1171 nine <s> july 
-2.1171 nine <s> june 
-1.6872 nine <s> m 
-1.6872 nine <s> n 
-1.4347 nine <s> no 
-2.1171 nine <s> o 
-2.1171 nine <s> p 
-2.1171 nine <s> r 
-1.4347 nine <s> rubout 
-1.4347 nine <s> s 
-2.1171 nine <s> september 
-1.6872 nine <s> two 
-1.6872 nine <s> v 
-2.1171 nine <s> w 
-2.1171 nine <s> x 
-1.4347 nine <s> yes 
-0.4269 nine and a 
-0.9040 nine eight eight 
-0.9040 nine eight nine 
-0.9040 nine eight two 
-0.4269 nine eighty nine 
-0.7279 nine fifty eight 
-0.7279 nine fifty nine 
-1.2720 nine five <s> 
-1.2720 nine five four 
-1.2720 nine five nine 
-1.2720 nine five oh 
-1.2720 nine five one 
-0.8421 nine five two 
-0.4269 nine forty three 
-0.5991 nine four <s> 
-1.0289 nine four oh 
-1.0289 nine four six 
-0.4269 nine hundred <s> 
-0.3465 nine nine <s> 
-1.0289 nine nine four 
-0.4269 nine nineteen sixty 
-0.4269 nine of sixty 
-0.4269 nine oh oh 
-0.4434 nine one <s> 
-1.1258 nine one four 
-1.1258 nine one two 
-0.9040 nine seven six 
-0.9040 nine seven two 
-0.9040 nine seven zero 
-0.4269 nine seventy two 
-0.4970 nine six <s> 
-1.4269 nine six four 
-1.4269 nine six nine 
-1.4269 nine six seven 
-0.9970 nine six six 
-1.4269 nine six two 
-0.4269 nine sixty eight 
-0.7279 nine thirty nine 
-0.7279 nine thirty sixty 
-0.6960 nine three <s> 
-0.6960 nine three five 
-1.1258 nine three three 
-0.7279 nine twenty <s> 
-0.7279 nine twenty three 
-0.6960 nine two <s> 
-1.1258 nine two three 
-0.6960 nine two two 
-0.4269 nine zero <s> 
-0.2980 nineteen fifty two 
-0.2980 nineteen forty four 
-0.2216 nineteen seventy <s> 
-1.7693 nineteen sixty <s> 
-1.0869 nineteen sixty five 
-1.7693 nineteen sixty four 
-0.4393 nineteen sixty nine 
-1.3394 nineteen sixty one 
-0.8951 nineteen sixty seven 
-1.7693 nineteen sixty six 
-1.7693 nineteen sixty three 
-0.4269 nineteen twenty eight 
-0.7279 ninety eight <s> 
-0.7279 ninety eight twenty 
-0.2980 ninety five <s> 
-0.2980 ninety four <s> 
-0.4269 ninety one <s> 
-0.4269 ninety seven <s> 
-0.2980 ninety six <s> 
-0.4269 ninth of september 
-0.4269 ninth sixty two 
-1.6310 no <s> c 
-1.6310 no <s> enter 
-0.9486 no <s> erase 
-1.6310 no <s> f 
-1.6310 no <s> h 
-1.6310 no <s> help 
-1.6310 no <s> o 
-1.6310 no <s> p 
-0.9486 no <s> rubout 
-1.6310 no <s> s 
-1.6310 no <s> start 
-1.6310 no <s> t 
-1.1258 o <s> f 
-1.1258 o <s> l 
-1.1258 o <s> m 
-1.1258 o <s> p 
-1.1258 o <s> six 
-1.2720 o a c 
-0.5896 o a d 
-1.2720 o a k 
-1.2720 o a m 
-1.2720 o a w 
-0.4269 o apostrophe h 
-0.6960 o b a 
-0.6960 o b e 
-1.1258 o b eight 
-0.4269 o c k 
-0.3449 o d <s> 
-1.3811 o d o 
-1.3811 o d s 
-1.3811 o d u 
-0.4269 o e <s> 
-0.4269 o eight <s> 
-0.9040 o f b 
-0.9040 o f f 
-0.9040 o f h 
-0.4269 o five <s> 
-0.4269 o forty six 
-0.4269 o four <s> 
-0.4269 o g d 
-1.0289 o h g 
-0.3465 o h n 
-0.4269 o j t 
-0.7279 o k h 
-0.7279 o k t 
-1.3300 o l a 
-1.3300 o l d 
-1.3300 o l e 
-1.3300 o l eight 
-1.3300 o l i 
-1.3300 o l k 
-1.3300 o l l 
-1.3300 o l s 
-0.7751 o m <s> 
-0.7751 o m a 
-0.7751 o m e 
-0.3680 o n <s> 
-0.9441 o n a 
-1.8740 o n b 
-1.8740 o n c 
-1.8740 o n e 
-1.8740 o n g 
-0.9441 o n i 
-1.8740 o n j 
-1.8740 o n n 
-1.8740 o n t 
-1.8740 o n x 
-0.4269 o ninety five 
-1.5408 o o b 
-0.2688 o o d 
-1.5408 o o f 
-1.5408 o o forty 
-1.5408 o o k 
-1.5408 o o m 
-1.5408 o o n 
-0.7279 o p h 
-0.7279 o p l 
-0.4269 o q i 
-1.0232 o r <s> 
-1.7056 o r c 
-1.0232 o r d 
-0.8314 o r e 
-1.7056 o r k 
-1.7056 o r n 
-1.7056 o r o 
-1.2757 o r t 
-1.7056 o r w 
-1.7056 o r y 
-0.4434 o s e 
-1.1258 o s s 
-1.1258 o s t 
-0.4269 o sixty two 
-1.2050 o t e 
-1.2050 o t f 
-0.7751 o t h 
-1.2050 o t q 
-1.2050 o t t 
-0.4269 o two two 
-1.4269 o u eighty 
-1.4269 o u four 
-1.4269 o u g 
-1.4269 o u n 
-1.4269 o u q 
-1.4269 o u r 
-0.9970 o u s 
-0.9970 o u t 
-0.6987 o w <s> 
-1.3811 o w e 
-1.3811 o w g 
-1.3811 o w l 
-0.6987 o w n 
-0.4269 o x eight 
-0.2980 o y <s> 
-0.4269 o z e 
-0.4269 october first nineteen 
-0.4269 october thirtieth nineteen 
-0.4269 october twenty third 
-0.4269 of september nineteen 
-0.4269 of sixty <s> 
-1.2720 oh <s> eight 
-0.8421 oh <s> enter 
-1.2720 oh <s> j 
-1.2720 oh <s> seven 
-1.2720 oh <s> twelve 
-1.2720 oh <s> two 
-0.4970 oh eight <s> 
-1.4269 oh eight five 
-1.4269 oh eight nine 
-1.4269 oh eight oh 
-1.4269 oh eight one 
-1.4269 oh eight six 
-1.4269 oh eight three 
-0.2751 oh five <s> 
-1.2050 oh five four 
-1.2050 oh five nine 
-0.9040 oh four five 
-0.4741 oh four four 
-0.9040 oh nine <s> 
-0.9040 oh nine and 
-0.9040 oh nine six 
-0.7279 oh oh eight 
-0.7279 oh oh two 
-0.6960 oh one <s> 
-1.1258 oh one five 
-1.1258 oh one four 
-1.1258 oh one nine 
-0.4557 oh seven <s> 
-1.3300 oh seven nine 
-1.3300 oh seven oh 
-1.3300 oh seven six 
-0.4698 oh six <s> 
-1.5061 oh six five 
-1.0762 oh six nine 
-1.5061 oh six oh 
-1.5061 oh six seven 
-1.5061 oh six three 
-0.6960 oh three <s> 
-1.1258 oh three eight 
-1.1258 oh three seven 
-1.1258 oh three two 
-0.4001 oh two <s> 
-1.3300 oh two eight 
-1.3300 oh two nine 
-1.3300 oh two seven 
-1.3300 oh two six 
-1.7374 one <s> a 
-2.1672 one <s> august 
-1.7374 one <s> b 
-2.1672 one <s> c 
-1.7374 one <s> e 
-1.1310 one <s> enter 
-2.1672 one <s> f 
-2.1672 one <s> february 
-1.7374 one <s> four 
-1.4848 one <s> go 
-2.1672 one <s> h 
-1.7374 one <s> help 
-1.7374 one <s> i 
-2.1672 one <s> july 
-2.1672 one <s> l 
-2.1672 one <s> m 
-2.1672 one <s> n 
-2.1672 one <s> nine 
-2.1672 one <s> p 
-2.1672 one <s> r 
-2.1672 one <s> repeat 
-1.2373 one <s> rubout 
-2.1672 one <s> s 
-1.7374 one <s> seven 
-1.7374 one <s> start 
-1.7374 one <s> stop 
-2.1672 one <s> t 
-1.2373 one <s> two 
-2.1672 one <s> u 
-2.1672 one <s> w 
-2.1672 one <s> y 
-2.1672 one <s> yes 
-2.1672 one <s> z 
-0.6987 one eight <s> 
-1.3811 one eight eight 
-1.3811 one eight four 
-1.3811 one eight one 
-1.3811 one eight seven 
-1.3811 one eight six 
-1.3811 one eight two 
-0.4269 one eleven <s> 
-0.4269 one fifteen <s> 
-1.0289 one fifty <s> 
-0.5991 one fifty eight 
-1.0289 one fifty six 
-1.3662 one five <s> 
-1.8662 one five five 
-2.2961 one five four 
-2.2961 one five m 
-1.6137 one five oh 
-1.2599 one five one 
-1.8662 one five six 
-1.3662 one five three 
-0.1703 one five two 
-2.2961 one five zero 
-0.4269 one forty two 
-0.9512 one four eight 
-0.9512 one four nine 
-0.9512 one four seven 
-1.3811 one four six 
-0.9512 one four three 
-0.7279 one hundred <s> 
-0.7279 one hundred and 
-0.4269 one j a 
-1.0384 one nine <s> 
-1.4683 one nine eight 
-1.0384 one nine five 
-1.4683 one nine oh 
-1.4683 one nine seven 
-0.7859 one nine six 
-1.4683 one nine three 
-0.4269 one ninety six 
-1.5730 one oh <s> 
-1.5730 one oh five 
-1.5730 one oh four 
-1.5730 one oh nine 
-1.5730 one oh oh 
-1.5730 one oh one 
-0.8906 one oh seven 
-1.1431 one oh six 
-0.8906 one oh two 
-1.2720 one one <s> 
-1.2720 one one eight 
-0.8421 one one five 
-1.2720 one one seven 
-1.2720 one one six 
-1.2720 one one three 
-0.0969 one seven <s> 
-1.7279 one seven forty 
-1.7279 one seven seven 
-1.7279 one seven three 
-1.7279 one seven two 
-0.7279 one seventy <s> 
-0.7279 one seventy five 
-0.5896 one six <s> 
-1.2720 one six nine 
-1.2720 one six oh 
-1.2720 one six one 
-1.2720 one six two 
-0.4269 one sixteen forty 
-1.0289 one sixty eight 
-1.0289 one sixty fifty 
-1.0289 one sixty three 
-1.0289 one sixty two 
-0.2980 one ten <s> 
-0.2980 one thirty one 
-0.2980 one thousand <s> 
-0.1047 one three <s> 
-1.5730 one three six 
-1.1431 one three three 
-0.7279 one twenty <s> 
-0.7279 one twenty two 
-1.1594 one two <s> 
-1.4120 one two eight 
-0.8056 one two five 
-0.9676 one two four 
-1.8418 one two one 
-1.8418 one two seven 
-1.1594 one two six 
-0.9119 one two two 
-1.8418 one two zero 
-1.1258 one zero eight 
-1.1258 one zero five 
-1.1258 one zero one 
-1.1258 one zero six 
-1.1258 one zero zero 
-1.0289 p a c 
-1.0289 p a h 
-1.0289 p a r 
-1.0289 p a t 
-0.4269 p b six 
-0.4269 p c seven 
-0.7279 p d f 
-0.7279 p d two 
-0.7279 p e eight 
-0.7279 p e r 
-0.4269 p eight hundred 
-0.4269 p f j 
-0.4269 p forty five 
-0.4269 p four <s> 
-0.2216 p g h 
-0.7751 p h <s> 
-0.7751 p h e 
-1.2050 p h i 
-1.2050 p h y 
-2.0990 p i five 
-2.0990 p i n 
-0.0189 p i t 
-0.6960 p l a 
-0.4434 p l e 
-0.7279 p n a 
-0.7279 p n e 
-0.4269 p ninety seven 
-1.2050 p o l 
-0.7751 p o m 
-1.2050 p o o 
-1.2050 p o r 
-1.2050 p o u 
-0.2216 p r i 
-1.0289 p s <s> 
-1.0289 p s h 
-1.0289 p s o 
-1.0289 p s z 
-0.4269 p seventeen <s> 
-0.9040 p t e 
-0.9040 p t k 
-0.9040 p t q 
-0.4269 p three two 
-0.9040 p u five 
-0.9040 p u s 
-0.9040 p u x 
-0.4269 p y h 
-0.4269 q c j 
-0.9040 q d b 
-0.9040 q d one 
-0.9040 q d q 
-0.7279 q e e 
-0.7279 q e j 
-0.4269 q f x 
-0.7279 q fifty eight 
-0.7279 q fifty six 
-0.4269 q five oh 
-0.4269 q g eighty 
-0.4269 q i m 
-0.7279 q k six 
-0.7279 q k x 
-0.9040 q n h 
-0.9040 q n r 
-0.9040 q n seventy 
-0.4269 q one <s> 
-0.4269 q p forty 
-0.9040 q q k 
-0.9040 q q p 
-0.9040 q q q 
-0.4269 q six two 
-0.7279 q t seventy 
-0.7279 q t w 
-0.4269 q two eight 
-0.4269 q u e 
-0.4269 q w eight 
-0.4269 q y eight 
-0.4269 q z h 
-1.0384 r <s> b 
-1.4683 r <s> c 
-1.4683 r <s> e 
-1.0384 r <s> m 
-1.4683 r <s> one 
-1.4683 r <s> p 
-1.0384 r <s> r 
-1.4683 r <s> thirty 
-1.5408 r a <s> 
-1.5408 r a c 
-1.1109 r a d 
-1.5408 r a f 
-1.5408 r a j 
-0.6666 r a n 
-1.5408 r a p 
-1.5408 r a v 
-1.0289 r b d 
-1.0289 r b o 
-1.0289 r b seven 
-1.0289 r b u 
-0.2980 r c h 
-0.3449 r d <s> 
-1.3811 r d d 
-1.3811 r d p 
-1.3811 r d w 
-0.8772 r e <s> 
-1.3772 r e a 
-1.3772 r e e 
-1.8071 r e f 
-1.8071 r e k 
-1.3772 r e l 
-0.8772 r e n 
-1.1247 r e t 
-0.9329 r e w 
-0.7279 r f i 
-0.7279 r f o 
-1.7130 r g <s> 
-1.4605 r g a 
-2.1429 r g c 
-2.1429 r g forty 
-0.0726 r g h 
-2.1429 r g nine 
-0.4269 r h h 
-1.7056 r i <s> 
-1.7056 r i a 
-0.8314 r i c 
-1.7056 r i g 
-1.7056 r i k 
-0.7757 r i n 
-1.2757 r i s 
-0.7757 r i v 
-0.5940 r k <s> 
-1.0384 r k e 
-1.4683 r k i 
-1.4683 r k r 
-1.4683 r k s 
-1.4683 r k six 
-1.3811 r l <s> 
-0.6987 r l a 
-0.9512 r l e 
-1.3811 r l f 
-0.9512 r l y 
-1.2050 r n <s> 
-1.2050 r n a 
-1.2050 r n d 
-0.5226 r n e 
-1.7491 r o <s> 
-1.0667 r o a 
-1.3192 r o b 
-1.7491 r o m 
-0.8749 r o n 
-1.3192 r o o 
-1.0667 r o s 
-1.3192 r o w 
-1.7491 r o y 
-1.7491 r o z 
-0.4269 r one two 
-0.4269 r q z 
-0.5896 r r e 
-1.2720 r r k 
-1.2720 r r n 
-1.2720 r r o 
-1.2720 r r y 
-0.3465 r s o 
-1.0289 r s t 
-0.4269 r seven zero 
-0.4269 r sixty one 
-0.3977 r t <s> 
-1.2720 r t h 
-1.2720 r t z 
-0.4269 r thirty one 
-0.7279 r u m 
-0.7279 r u s 
-0.7279 r v fifty 
-0.7279 r v z 
-0.7279 r w a 
-0.7279 r w twenty 
-0.4001 r y <s> 
-1.3300 r y j 
-1.3300 r y l 
-1.3300 r y one 
-1.3300 r y p 
-0.7279 r z nine 
-0.7279 r z r 
-1.6573 repeat <s> b 
-1.6573 repeat <s> enter 
-1.6573 repeat <s> erase 
-1.6573 repeat <s> f 
-1.6573 repeat <s> g 
-1.6573 repeat <s> l 
-1.6573 repeat <s> m 
-0.9749 repeat <s> no 
-1.6573 repeat <s> o 
-1.6573 repeat <s> r 
-1.2274 repeat <s> rubout 
-1.2274 repeat <s> stop 
-1.6573 repeat <s> w 
-0.4269 rubout a d 
-0.9040 rubout c h 
-0.9040 rubout c t 
-0.9040 rubout c y 
-0.4269 rubout d q 
-0.7279 rubout e u 
-0.7279 rubout e z 
-1.0289 rubout f b 
-1.0289 rubout f m 
-1.0289 rubout f x 
-1.0289 rubout f y 
-0.7279 rubout g j 
-0.7279 rubout g u 
-0.9040 rubout h a 
-0.9040 rubout h f 
-0.9040 rubout h w 
-0.7279 rubout i r 
-0.7279 rubout i t 
-0.9040 rubout j b 
-0.9040 rubout j l 
-0.9040 rubout j u 
-0.4269 rubout l d 
-0.9040 rubout m d 
-0.9040 rubout m n 
-0.9040 rubout m v 
-0.6960 rubout n a 
-1.1258 rubout n b 
-1.1258 rubout n x 
-1.1258 rubout n z 
-1.0289 rubout o g 
-1.0289 rubout o h 
-1.0289 rubout o k 
-1.0289 rubout o q 
-0.7279 rubout p n 
-0.7279 rubout p o 
-0.7279 rubout q n 
-0.7279 rubout q q 
-0.9040 rubout r e 
-0.9040 rubout r r 
-0.9040 rubout r z 
-0.4269 rubout s h 
-0.9040 rubout t b 
-0.9040 rubout t g 
-0.9040 rubout t j 
-1.1258 rubout u f 
-1.1258 rubout u g 
-1.1258 rubout u j 
-0.6960 rubout u t 
-0.7279 rubout v a 
-0.7279 rubout v e 
-0.7279 rubout w l 
-0.7279 rubout w p 
-0.4269 rubout x c 
-0.4269 rubout y y 
-0.9040 rubout z g 
-0.9040 rubout z o 
-0.9040 rubout z y 
-1.6573 s <s> a 
-1.6573 s <s> fifty 
-1.2274 s <s> j 
-1.2274 s <s> m 
-0.9749 s <s> one 
-0.7274 s <s> p 
-1.2274 s <s> s 
-1.6573 s <s> seven 
-1.6573 s <s> t 
-0.7279 s a t 
-0.7279 s a y 
-2.0990 s b o 
-0.0093 s b u 
-0.4269 s c a 
-1.3300 s e <s> 
-1.3300 s e l 
-1.3300 s e m 
-1.3300 s e n 
-0.6475 s e p 
-1.3300 s e w 
-0.7279 s f q 
-0.7279 s f twenty 
-0.6960 s h a 
-1.1258 s h e 
-1.1258 s h i 
-1.1258 s h k 
-0.4269 s i q 
-0.4269 s j seven 
-1.2050 s k a 
-1.2050 s k e 
-0.7751 s k i 
-1.2050 s k u 
-1.2050 s k y 
-0.7279 s l e 
-0.7279 s l f 
-0.4741 s m a 
-0.9040 s m i 
-0.4269 s n o 
-1.5061 s o <s> 
-1.5061 s o l 
-0.1249 s o n 
-1.5061 s o u 
-0.7279 s one five 
-0.7279 s one seventy 
-1.1258 s p n 
-1.1258 s p o 
-0.6960 s p r 
-1.1258 s p s 
-0.9040 s s m 
-0.9040 s s v 
-0.9040 s s w 
-0.4269 s seven sixty 
-1.2274 s t <s> 
-0.2304 s t e 
-1.6573 s t eighty 
-1.6573 s t i 
-1.2274 s t o 
-1.6573 s t r 
-0.4269 s thirty five 
-0.9040 s u m 
-0.9040 s u n 
-0.9040 s u o 
-0.9040 s v a 
-0.9040 s v i 
-0.9040 s v n 
-1.0289 s w a 
-1.0289 s w i 
-1.0289 s w o 
-1.0289 s w z 
-0.4269 s x two 
-0.7279 s z k 
-0.7279 s z nine 
-0.4269 s zero <s> 
-0.2980 second nineteen sixty 
-0.4269 september fifteenth nineteen 
-0.4269 september first nineteen 
-0.4269 september nineteen sixty 
-0.4269 september sixth nineteen 
-0.4269 september twenty seventh 
-2.2529 seven <s> area 
-2.2529 seven <s> b 
-1.8231 seven <s> eight 
-1.8231 seven <s> enter 
-1.8231 seven <s> erase 
-1.5705 seven <s> five 
-0.7469 seven <s> four 
-1.8231 seven <s> h 
-2.2529 seven <s> help 
-2.2529 seven <s> j 
-2.2529 seven <s> l 
-1.8231 seven <s> m 
-2.2529 seven <s> october 
-2.2529 seven <s> one 
-1.5705 seven <s> p 
-2.2529 seven <s> r 
-0.8261 seven <s> rubout 
-1.8231 seven <s> s 
-2.2529 seven <s> seven 
-1.5705 seven <s> six 
-2.2529 seven <s> start 
-1.3787 seven <s> stop 
-2.2529 seven <s> ten 
-1.8231 seven <s> v 
-2.2529 seven <s> y 
-1.3230 seven <s> yes 
-2.2529 seven <s> z 
-0.6475 seven eight <s> 
-0.9001 seven eight eight 
-1.3300 seven eight five 
-1.3300 seven eight four 
-1.3300 seven eight zero 
-0.4269 seven fifteen nineteen 
-0.4269 seven fifty five 
-1.1258 seven five eight 
-1.1258 seven five one 
-0.6960 seven five seven 
-1.1258 seven five two 
-0.9040 seven forty four 
-0.4741 seven forty seven 
-0.5991 seven four <s> 
-1.0289 seven four eight 
-1.0289 seven four one 
-0.7279 seven fourteen a 
-0.7279 seven fourteen sixty 
-0.4269 seven hundred twenty 
-0.4269 seven may nineteen 
-1.2050 seven nine five 
-0.7751 seven nine one 
-1.2050 seven nine three 
-0.7751 seven nine two 
-1.2050 seven oh <s> 
-0.7751 seven oh eight 
-1.2050 seven oh six 
-1.2050 seven oh three 
-1.2050 seven oh two 
-1.1258 seven one <s> 
-1.1258 seven one eight 
-1.1258 seven one oh 
-1.1258 seven one six 
-1.1258 seven one zero 
-0.4741 seven seven <s> 
-0.9040 seven seven five 
-0.4269 seven seventeen fifty 
-0.4269 seven seventy two 
-0.5991 seven six <s> 
-1.0289 seven six six 
-1.0289 seven six three 
-0.9040 seven sixty eight 
-0.9040 seven sixty four 
-0.9040 seven sixty seven 
-0.2980 seven ten <s> 
-0.7279 seven thirty <s> 
-0.7279 seven thirty eight 
-0.4269 seven thousand one 
-1.0289 seven three <s> 
-1.0289 seven three one 
-1.0289 seven three six 
-1.0289 seven three zero 
-0.9040 seven twenty five 
-0.4741 seven twenty nine 
-1.2050 seven two <s> 
-1.2050 seven two four 
-1.2050 seven two nine 
-1.2050 seven two one 
-1.2050 seven two two 
-1.2050 seven two zero 
-0.4741 seven zero <s> 
-0.9040 seven zero one 
-0.7279 seventeen <s> enter 
-0.7279 seventeen <s> rubout 
-0.7279 seventeen fifty one 
-0.7279 seventeen fifty seven 
-0.4269 seventeen thirty six 
-0.4269 seventh nineteen sixty 
-1.1258 seventy <s> g 
-1.1258 seventy <s> h 
-1.1258 seventy <s> p 
-1.1258 seventy <s> rubout 
-1.1258 seventy <s> yes 
-0.4269 seventy eight <s> 
-0.4269 seventy five <s> 
-0.4741 seventy nine <s> 
-0.9040 seventy nine fifty 
-0.0512 seventy one <s> 
-0.4741 seventy seven <s> 
-0.9040 seventy seven forty 
-0.4269 seventy six twelve 
-0.0990 seventy two <s> 
-2.1827 six <s> a 
-2.1827 six <s> b 
-1.7529 six <s> c 
-2.1827 six <s> e 
-0.8016 six <s> enter 
-1.3085 six <s> erase 
-2.1827 six <s> f 
-2.1827 six <s> four 
-1.5003 six <s> h 
-2.1827 six <s> july 
-2.1827 six <s> k 
-1.7529 six <s> l 
-1.7529 six <s> no 
-2.1827 six <s> one 
-1.7529 six <s> p 
-2.1827 six <s> r 
-2.1827 six <s> rubout 
-2.1827 six <s> s 
-2.1827 six <s> september 
-1.7529 six <s> seven 
-1.7529 six <s> six 
-1.7529 six <s> start 
-2.1827 six <s> stop 
-1.7529 six <s> t 
-2.1827 six <s> ten 
-1.7529 six <s> three 
-2.1827 six <s> twelve 
-1.5003 six <s> two 
-1.7529 six <s> v 
-1.7529 six <s> yes 
-1.1424 six eight <s> 
-1.3949 six eight five 
-0.9506 six eight four 
-1.3949 six eight one 
-0.8949 six eight seven 
-1.3949 six eight six 
-0.5528 six eight three 
-0.4269 six eighty eight 
-0.5226 six five <s> 
-1.2050 six five eight 
-1.2050 six five nine 
-1.2050 six five three 
-0.4269 six forty five 
-0.5384 six four <s> 
-1.0384 six four five 
-1.4683 six four four 
-1.4683 six four nine 
-1.4683 six four seven 
-1.4683 six four six 
-1.4683 six four zero 
-0.4269 six hundred forty 
-0.2751 six nine <s> 
-1.2050 six nine five 
-1.2050 six nine two 
-1.2050 six oh <s> 
-0.7751 six oh eight 
-1.2050 six oh five 
-1.2050 six oh seven 
-1.2050 six oh six 
-0.9001 six one <s> 
-0.9001 six one five 
-1.3300 six one four 
-1.3300 six one nine 
-1.3300 six one two 
-1.3300 six one zero 
-0.7751 six seven <s> 
-1.2050 six seven eight 
-1.2050 six seven nine 
-0.7751 six seven oh 
-0.4269 six seventeen thirty 
-0.9970 six six <s> 
-1.4269 six six eight 
-0.9970 six six five 
-1.4269 six six four 
-0.9970 six six one 
-0.9970 six six two 
-0.4269 six sixteen sixty 
-0.7279 six sixty nine 
-0.7279 six sixty three 
-0.7279 six thirty <s> 
-0.7279 six thirty two 
-0.4269 six thousand eight 
-0.9512 six three <s> 
-1.3811 six three eight 
-1.3811 six three nine 
-1.3811 six three oh 
-0.9512 six three one 
-1.3811 six three sixty 
-1.3811 six three two 
-0.4269 six twelve <s> 
-0.4269 six twenty six 
-0.8421 six two <s> 
-1.2720 six two eight 
-1.2720 six two five 
-1.2720 six two four 
-1.2720 six two six 
-1.2720 six two two 
-0.4269 six zero one 
-0.4269 sixteen forty eight 
-0.7279 sixteen sixty <s> 
-0.7279 sixteen sixty nine 
-0.4269 sixteenth nineteen sixty 
-0.4269 sixth nineteen sixty 
-0.8421 sixty <s> enter 
-0.8421 sixty <s> help 
-1.2720 sixty <s> s 
-1.2720 sixty <s> start 
-1.2720 sixty <s> w 
-0.2516 sixty eight <s> 
-0.4269 sixty fifty five 
-0.2516 sixty five <s> 
-0.3308 sixty four <s> 
-1.2050 sixty four and 
-0.0300 sixty nine <s> 
-0.0512 sixty one <s> 
-0.0414 sixty seven <s> 
-1.4683 sixty seven ten 
-0.2216 sixty six <s> 
-0.2358 sixty three <s> 
-1.2720 sixty three sixty 
-0.1959 sixty two <s> 
-1.1258 sixty two thirty 
-1.0384 start <s> enter 
-1.0384 start <s> h 
-1.4683 start <s> i 
-1.4683 start <s> no 
-1.0384 start <s> repeat 
-1.0384 start <s> rubout 
-1.4683 start <s> y 
-1.6310 stop <s> d 
-0.5948 stop <s> enter 
-1.6310 stop <s> erase 
-1.6310 stop <s> go 
-1.6310 stop <s> j 
-1.2011 stop <s> m 
-1.6310 stop <s> repeat 
-1.2011 stop <s> rubout 
-1.6310 stop <s> yes 
-1.6310 t <s> b 
-1.6310 t <s> forty 
-1.6310 t <s> g 
-1.6310 t <s> m 
-1.6310 t <s> n 
-1.2011 t <s> one 
-0.3590 t <s> p 
-1.6310 t <s> r 
-1.6310 t <s> t 
-0.7279 t a n 
-0.7279 t a y 
-0.4269 t b p 
-0.9040 t d a 
-0.9040 t d i 
-0.9040 t d k 
-1.3394 t e <s> 
-1.7693 t e b 
-1.3394 t e d 
-1.7693 t e e 
-1.7693 t e l 
-1.7693 t e m 
-1.0869 t e n 
-1.7693 t e p 
-0.8951 t e r 
-0.8951 t e v 
-0.4269 t eighty fifth 
-0.7279 t f f 
-0.7279 t f two 
-0.4269 t fifty <s> 
-0.4269 t four one 
-0.9040 t g j 
-0.9040 t g k 
-0.9040 t g nine 
-0.7274 t h <s> 
-0.3854 t h a 
-1.2274 t h e 
-1.6573 t h f 
-1.2274 t h o 
-1.6573 t h y 
-0.6960 t i e 
-0.6960 t i m 
-1.1258 t i n 
-0.4269 t j j 
-0.7279 t k s 
-0.7279 t k x 
-0.4741 t l e 
-0.9040 t l fifty 
-0.2980 t m a 
-0.4269 t n e 
-1.2050 t o d 
-1.2050 t o m 
-0.7751 t o n 
-1.2050 t o p 
-1.2050 t o w 
-0.4269 t p four 
-0.7279 t q d 
-0.7279 t q two 
-1.1258 t r a 
-0.1959 t r e 
-0.0095 t s b 
-2.0896 t s v 
-0.4269 t seventy seven 
-0.4269 t sixty three 
-1.7374 t t <s> 
-1.2373 t t e 
-2.1672 t t g 
-1.7374 t t h 
-2.1672 t t i 
-0.0872 t t s 
-0.4269 t v a 
-0.4269 t w x 
-0.0990 t z <s> 
-1.2720 ten <s> enter 
-1.2720 ten <s> f 
-1.2720 ten <s> h 
-1.2720 ten <s> m 
-1.2720 ten <s> o 
-1.2720 ten <s> rubout 
-1.2720 ten <s> s 
-0.4269 ten one sixty 
-0.4269 ten seventy one 
-0.4269 ten sixty nine 
-0.4269 ten ten <s> 
-0.4269 ten thirty one 
-0.4269 ten twelve sixty 
-0.4269 ten twenty eight 
-0.4741 third nineteen sixty 
-0.9040 third nineteen twenty 
-0.2216 thirtieth nineteen sixty 
-1.1258 thirty <s> b 
-0.6960 thirty <s> e 
-1.1258 thirty <s> enter 
-1.1258 thirty <s> g 
-0.4741 thirty eight <s> 
-0.9040 thirty eight sixty 
-0.3308 thirty five <s> 
-1.2050 thirty five thirty 
-0.2980 thirty nine <s> 
-0.4001 thirty one <s> 
-1.3300 thirty one fifty 
-1.3300 thirty one j 
-1.3300 thirty one oh 
-1.3300 thirty one sixty 
-0.2980 thirty seven <s> 
-0.2980 thirty six <s> 
-0.4269 thirty sixty five 
-0.2980 thirty three <s> 
-0.3465 thirty two <s> 
-1.0289 thirty two thirty 
-0.7279 thousand <s> m 
-0.7279 thousand <s> p 
-0.2980 thousand eight hundred 
-0.4269 thousand five hundred 
-0.4269 thousand nine thirty 
-0.4269 thousand one hundred 
-0.4269 thousand seven hundred 
-0.4269 thousand three hundred 
-1.6502 three <s> a 
-2.0801 three <s> b 
-1.6502 three <s> d 
-2.0801 three <s> december 
-2.0801 three <s> e 
-1.3977 three <s> enter 
-1.2059 three <s> erase 
-1.2059 three <s> four 
-2.0801 three <s> g 
-2.0801 three <s> k 
-1.6502 three <s> l 
-2.0801 three <s> march 
-2.0801 three <s> may 
-1.6502 three <s> no 
-2.0801 three <s> p 
-1.1502 three <s> rubout 
-2.0801 three <s> september 
-2.0801 three <s> seven 
-1.3977 three <s> six 
-2.0801 three <s> three 
-1.3977 three <s> two 
-1.6502 three <s> v 
-2.0801 three <s> yes 
-0.2751 three eight <s> 
-1.2050 three eight three 
-1.2050 three eight zero 
-0.4269 three eighty six 
-0.4269 three eleven sixty 
-0.8421 three five <s> 
-1.2720 three five four 
-1.2720 three five oh 
-1.2720 three five seven 
-1.2720 three five two 
-1.2720 three five zero 
-0.7279 three forty five 
-0.7279 three forty two 
-1.2050 three four <s> 
-1.2050 three four eight 
-1.2050 three four five 
-0.7751 three four four 
-1.2050 three four three 
-0.4269 three fourteen sixty 
-0.4269 three hundred and 
-0.5991 three nine <s> 
-1.0289 three nine five 
-1.0289 three nine nine 
-1.1258 three oh eight 
-1.1258 three oh five 
-1.1258 three oh nine 
-1.1258 three oh one 
-1.1258 three oh six 
-1.2050 three one <s> 
-1.2050 three one five 
-1.2050 three one nine 
-1.2050 three one one 
-0.7751 three one two 
-1.1258 three seven eight 
-0.6960 three seven five 
-1.1258 three seven one 
-1.1258 three seven seven 
-0.4269 three seventeen <s> 
-0.7279 three seventy <s> 
-0.7279 three seventy one 
-1.2050 three six <s> 
-1.2050 three six eight 
-1.2050 three six four 
-1.2050 three six one 
-0.7751 three six three 
-1.0289 three sixty eight 
-0.5991 three sixty four 
-1.0289 three sixty three 
-0.4269 three thirty six 
-0.9001 three three <s> 
-1.3300 three three eight 
-1.3300 three three five 
-1.3300 three three nine 
-0.9001 three three seven 
-1.3300 three three six 
-0.4269 three twelve fifty 
-0.9040 three twenty eight 
-0.9040 three twenty seven 
-0.9040 three twenty three 
-0.5046 three two <s> 
-1.1109 three two eight 
-1.5408 three two four 
-1.1109 three two seven 
-1.1109 three two three 
-0.5991 three zero <s> 
-1.0289 three zero six 
-1.0289 three zero two 
-0.2980 twelfth nineteen sixty 
-0.4269 twelve <s> enter 
-0.4269 twelve fifty eight 
-0.4269 twelve four sixty 
-0.4269 twelve nine of 
-0.4269 twelve nineteen sixty 
-0.4269 twelve sixty seven 
-0.4269 twelve ten sixty 
-0.7279 twelve twenty four 
-0.7279 twelve twenty one 
-0.4269 twentieth nineteen seventy 
-0.7279 twenty <s> enter 
-0.7279 twenty <s> t 
-0.6960 twenty eight <s> 
-1.1258 twenty eight seventy 
-0.6960 twenty eight sixty 
-0.4269 twenty fifth nineteen 
-0.4269 twenty first nineteen 
-0.4269 twenty five <s> 
-0.9040 twenty four forty 
-0.9040 twenty four oh 
-0.9040 twenty four sixty 
-0.4269 twenty fourth nineteen 
-0.5991 twenty nine <s> 
-1.0289 twenty nine fifty 
-1.0289 twenty nine nineteen 
-0.7279 twenty one <s> 
-0.7279 twenty one fifty 
-0.2980 twenty second nineteen 
-0.7279 twenty seven <s> 
-0.7279 twenty seven sixty 
-0.4269 twenty seventh nineteen 
-0.4434 twenty six <s> 
-1.1258 twenty six forty 
-1.1258 twenty six sixty 
-0.2980 twenty third nineteen 
-0.1959 twenty three <s> 
-1.1258 twenty three sixty 
-0.7279 twenty two <s> 
-0.7279 twenty two twenty 
-1.7678 two <s> a 
-1.7678 two <s> b 
-2.1977 two <s> c 
-2.1977 two <s> d 
-2.1977 two <s> e 
-2.1977 two <s> eight 
-2.1977 two <s> eighteen 
-0.8678 two <s> enter 
-1.7678 two <s> erase 
-1.7678 two <s> five 
-1.7678 two <s> four 
-2.1977 two <s> g 
-2.1977 two <s> go 
-2.1977 two <s> help 
-1.5153 two <s> m 
-2.1977 two <s> march 
-2.1977 two <s> n 
-2.1977 two <s> no 
-2.1977 two <s> o 
-2.1977 two <s> october 
-2.1977 two <s> oh 
-2.1977 two <s> one 
-2.1977 two <s> p 
-1.7678 two <s> repeat 
-1.1615 two <s> rubout 
-2.1977 two <s> seven 
-1.7678 two <s> six 
-1.5153 two <s> start 
-1.7678 two <s> stop 
-2.1977 two <s> ten 
-2.1977 two <s> three 
-2.1977 two <s> twelve 
-1.7678 two <s> two 
-2.1977 two <s> v 
-0.6318 two eight <s> 
-1.5061 two eight five 
-1.0762 two eight one 
-0.8236 two eight three 
-1.5061 two eight two 
-0.4269 two eighty nine 
-0.4269 two fifteen sixty 
-0.4269 two fifty three 
-1.0762 two five <s> 
-1.5061 two five eight 
-1.5061 two five five 
-1.5061 two five four 
-1.5061 two five one 
-1.5061 two five seven 
-0.6318 two five two 
-0.4102 two four <s> 
-1.6821 two four nine 
-1.2523 two four one 
-1.6821 two four three 
-0.4102 two four two 
-0.4269 two fourteen <s> 
-0.4269 two hundred and 
-0.9001 two nine <s> 
-1.3300 two nine eight 
-1.3300 two nine one 
-1.3300 two nine seven 
-1.3300 two nine six 
-0.9001 two nine three 
-1.0384 two oh eight 
-1.0384 two oh five 
-1.4683 two oh one 
-1.4683 two oh seven 
-0.7859 two oh six 
-1.4683 two oh three 
-1.4683 two oh two 
-1.0809 two one <s> 
-1.4347 two one eight 
-1.6872 two one five 
-2.1171 two one four 
-2.1171 two one nine 
-1.1872 two one oh 
-0.4861 two one seven 
-1.6872 two one six 
-2.1171 two one sixty 
-0.6902 two one three 
-1.4347 two one two 
-0.5384 two seven <s> 
-1.4683 two seven eight 
-1.4683 two seven four 
-1.4683 two seven nine 
-1.0384 two seven one 
-1.4683 two seven six 
-1.4683 two seven two 
-0.7709 two six <s> 
-0.1761 two six eight 
-1.8071 two six oh 
-1.8071 two six six 
-0.4269 two sixty <s> 
-0.4269 two ten <s> 
-0.4741 two thirty one 
-0.9040 two thirty seven 
-0.4269 two thousand five 
-1.0762 two three <s> 
-1.5061 two three eight 
-1.5061 two three five 
-1.5061 two three four 
-1.5061 two three nine 
-0.4698 two three two 
