#############################################################################
## Copyright (c) 1996, Carnegie Mellon University, Cambridge University,
## Ronald Rosenfeld and Philip Clarkson
#############################################################################
=============================================================================
===============  This file was produced by the CMU-Cambridge  ===============
===============     Statistical Language Modeling Toolkit     ===============
=============================================================================
This is a 1-gram language model, based on a vocabulary of 993 words,
  which begins "</s>", "<s>", "A"...
This is an OPEN-vocabulary model (type 1)
  (OOVs were mapped to UNK, which is treated as any other vocabulary word)
Absolute discounting was applied.
1-gram discounting constant : 0.395349
This file is in the ARPA-standard format introduced by Doug Paul.

p(wd3|wd1,wd2)= if(trigram exists)           p_3(wd1,wd2,wd3)
                else if(bigram w1,w2 exists) bo_wt_2(w1,w2)*p(wd3|wd2)
                else                         p(wd3|w2)

p(wd2|wd1)= if(bigram exists) p_2(wd1,wd2)
            else              bo_wt_1(wd1)*p_1(wd2)

All probs and back-off weights (bo_wt) are given in log10 form.

Data formats:

Beginning of data mark: \data\
ngram 1=nr            # number of 1-grams
ngram 2=nr            # number of 2-grams

\1-grams:
p_1     wd_1 bo_wt_1
\2-grams:
p_2     wd_1 wd_2 

end of data mark: \end\

\data\
ngram 1=994
ngram 2=1

\1-grams:
-4.6103 <UNK>	0.0000
-98.9932 </s>	0.0000
-98.9932 <s>	0.0000
-2.2227 A	0.0000
-3.9761 A42128	0.0000
-2.8785 AAW	0.0000
-3.6433 ABERDEEN	0.0000
-3.1462 ABOARD	0.0000
-3.5107 ABOVE	0.0000
-3.4093 ADD	0.0000
-3.9761 ADDED	0.0000
-3.6433 ADDING	0.0000
-3.9761 AFFECT	0.0000
-2.9669 AFTER	0.0000
-3.4571 AGAIN	0.0000
-3.4571 AJAX	0.0000
-3.6433 AJAX'S	0.0000
-3.0573 ALASKA	0.0000
-2.8283 ALERT	0.0000
-2.7142 ALERTS	0.0000
-3.5720 ALEXANDRIA	0.0000
-2.4696 ALL	0.0000
-2.8921 AN	0.0000
-3.6433 ANCHORAGE	0.0000
-1.8360 AND	0.0000
-2.0873 ANY	0.0000
-3.9761 ANYBODY	0.0000
-3.5107 APALACHICOLA	0.0000
-3.6433 APALACHICOLA'S	0.0000
-2.9205 APRIL	0.0000
-3.0573 ARABIAN	0.0000
-3.0573 ARCTIC	0.0000
-1.6557 ARE	0.0000
-2.3681 AREA	0.0000
-3.1986 AREAS	0.0000
-3.3272 AREN'T	0.0000
-3.4571 ARKANSAS	0.0000
-3.6433 ARKANSAS'S	0.0000
-3.1986 AROUND	0.0000
-2.7328 ARRIVAL	0.0000
-3.0008 ARRIVE	0.0000
-3.6433 ARRIVED	0.0000
-3.9761 ARRIVING	0.0000
-3.7286 ARROW	0.0000
-2.8403 AS	0.0000
-3.6433 ASTORIA	0.0000
-2.8785 ASUW	0.0000
-2.8654 ASW	0.0000
-2.2759 AT	0.0000
-2.6314 ATLANTIC	0.0000
-2.9060 AUGUST	0.0000
-3.6433 AVAILABLE	0.0000
-2.4696 AVERAGE	0.0000
-3.9761 BAD	0.0000
-3.4571 BADGER	0.0000
-3.6433 BADGER'S	0.0000
-3.4571 BAINBRIDGE	0.0000
-3.7286 BAINBRIDGE'S	0.0000
-3.9761 BANGKOK	0.0000
-3.7286 BARGE	0.0000
-3.0376 BASS	0.0000
-2.9508 BAY	0.0000
-2.5019 BE	0.0000
-3.4571 BEAM	0.0000
-3.4571 BEAMS	0.0000
-3.0778 BEEN	0.0000
-3.0188 BEFORE	0.0000
-3.6433 BELOW	0.0000
-2.7234 BERING	0.0000
-4.6103 BETTER	0.0000
-3.6433 BETWEEN	0.0000
-3.4571 BIDDLE	0.0000
-3.6433 BIDDLE'S	0.0000
-3.0376 BISMARK	0.0000
-3.6433 BOMBAY	0.0000
-3.6433 BOTH	0.0000
-3.6433 BOX	0.0000
-3.0995 BRIGHT	0.0000
-3.8350 BRITISH	0.0000
-3.4571 BROOKE	0.0000
-3.6433 BROOKE'S	0.0000
-3.4571 BRUNSWICK	0.0000
-3.6433 BRUNSWICK'S	0.0000
-3.6433 BUD-TEST	0.0000
-3.5720 BUMP	0.0000
-2.4964 BY	0.0000
-3.4571 C-CODE	0.0000
-3.6433 C-CODES	0.0000
-3.3272 C-RATING	0.0000
-3.4093 C-RATINGS	0.0000
-2.8527 C1	0.0000
-2.8654 C2	0.0000
-2.8527 C3	0.0000
-2.8527 C4	0.0000
-2.8921 C5	0.0000
-3.8350 CALEDONIA	0.0000
-3.0376 CALIFORNIA	0.0000
-3.4571 CAMDEN	0.0000
-3.6433 CAMDEN'S	0.0000
-3.4571 CAMPBELL	0.0000
-3.6433 CAMPBELL'S	0.0000
-2.9205 CAN	0.0000
-3.8350 CANADA	0.0000
-2.9669 CAPABILITIES	0.0000
-3.4571 CAPABILITY	0.0000
-2.3849 CAPABLE	0.0000
-3.9761 CAPACITIES	0.0000
-2.5749 CAPACITY	0.0000
-3.1716 CARRIER	0.0000
-4.1864 CARRIER'S	0.0000
-2.3935 CARRIERS	0.0000
-3.9761 CARRY	0.0000
-3.5720 CASREP	0.0000
-3.4571 CASREPED	0.0000
-3.1462 CASREPS	0.0000
-2.4205 CASUALTY	0.0000
-3.6433 CAT-2	0.0000
-3.6433 CAT-3	0.0000
-3.9761 CAT-4	0.0000
-3.9761 CATEGORIES	0.0000
-2.9669 CATEGORY	0.0000
-3.6433 CENTER	0.0000
-3.4093 CENTERED	0.0000
-3.9761 CENTERING	0.0000
-3.7286 CEP	0.0000
-3.0778 CHANGE	0.0000
-3.1462 CHANGED	0.0000
-3.9761 CHANGING	0.0000
-3.0376 CHANNEL	0.0000
-2.0767 CHART	0.0000
-3.9761 CHARTS	0.0000
-3.4571 CHATTAHOOCHEE	0.0000
-3.7286 CHATTAHOOCHEE'S	0.0000
-3.5720 CHESHIRE	0.0000
-2.9508 CHINA	0.0000
-3.0778 CHOP	0.0000
-3.2273 CHOPPED	0.0000
-3.6433 CHOPPING	0.0000
-3.7286 CIRCLE	0.0000
-3.4093 CITRUS	0.0000
-3.7286 CITRUS'S	0.0000
-3.6433 CITY	0.0000
-3.0376 CLEAR	0.0000
-3.7286 CLEARED	0.0000
-3.6433 CLEARING	0.0000
-3.4093 CLEVELAND	0.0000
-3.8350 CLEVELAND'S	0.0000
-3.6433 CLOSE	0.0000
-3.3663 CLOSER	0.0000
-3.3272 CLOSEST	0.0000
-3.8350 CODAG	0.0000
-3.4571 CODE	0.0000
-3.4571 CODES	0.0000
-3.3272 COLOR	0.0000
-3.9761 COMPARED	0.0000
-3.4571 CONFIDENCE	0.0000
-3.7286 CONFIDENCE'S	0.0000
-3.4571 CONIFER	0.0000
-3.7286 CONIFER'S	0.0000
-3.4571 CONQUEST	0.0000
-3.6433 CONQUEST'S	0.0000
-3.5107 CONSTANT	0.0000
-3.6433 CONSTANT'S	0.0000
-3.4571 CONSTELLATION	0.0000
-3.5720 CONSTELLATION'S	0.0000
-3.7286 CONVENTIONAL	0.0000
-3.8350 COOK	0.0000
-3.4571 COPELAND	0.0000
-3.6433 COPELAND'S	0.0000
-2.9835 CORAL	0.0000
-3.6433 COULD	0.0000
-3.9761 COULDN'T	0.0000
-3.2581 COUNT	0.0000
-3.9761 COUNTED	0.0000
-3.9761 COUNTING	0.0000
-3.5107 CROVL	0.0000
-3.9761 CROVLS	0.0000
-3.2273 CRUISER	0.0000
-4.1864 CRUISER'S	0.0000
-2.3979 CRUISERS	0.0000
-4.6103 CRUISERS'S	0.0000
-3.1462 CRUISING	0.0000
-2.7424 CURRENT	0.0000
-3.6433 CURRENTLY	0.0000
-3.5107 DALE	0.0000
-3.6433 DALE'S	0.0000
-3.7286 DARWIN	0.0000
-2.4252 DATA	0.0000
-3.0188 DATE	0.0000
-3.3272 DATED	0.0000
-3.2273 DATES	0.0000
-3.5107 DAVIDSON	0.0000
-3.5720 DAVIDSON'S	0.0000
-3.6433 DAY	0.0000
-3.4571 DAYS	0.0000
-3.9761 DDD992	0.0000
-2.9508 DECEMBER	0.0000
-3.7286 DECREASE	0.0000
-3.5720 DECREASED	0.0000
-3.9761 DECREASING	0.0000
-3.5720 DEFAULT	0.0000
-3.1222 DEFAULTS	0.0000
-3.2581 DEFINE	0.0000
-3.9761 DEFINED	0.0000
-3.9761 DEFINING	0.0000
-3.4571 DEFINITION	0.0000
-3.6433 DEFINITIONS	0.0000
-3.9761 DEGRADATION	0.0000
-3.9761 DEGRADATIONS	0.0000
-3.5107 DEGRADE	0.0000
-3.3663 DEGRADED	0.0000
-3.9761 DEGRADING	0.0000
-3.3272 DEGREES	0.0000
-3.3663 DELETE	0.0000
-3.9761 DELETED	0.0000
-3.6433 DELETING	0.0000
-3.4571 DENVER	0.0000
-3.6433 DENVER'S	0.0000
-2.6314 DEPLOYED	0.0000
-3.4571 DEPLOYMENT	0.0000
-3.4571 DEPLOYMENTS	0.0000
-3.6433 DEPTH	0.0000
-3.9761 DEPTHS	0.0000
-2.6390 DESTINATION	0.0000
-3.2273 DESTINATIONS	0.0000
-2.7424 DID	0.0000
-3.4571 DIDN'T	0.0000
-3.6433 DIEGO-GARCIA	0.0000
-3.3663 DIESEL	0.0000
-3.1222 DIM	0.0000
-2.9060 DISPLACEMENT	0.0000
-3.3272 DISPLACEMENTS	0.0000
-2.2759 DISPLAY	0.0000
-3.6433 DISPLAYED	0.0000
-3.9761 DISPLAYING	0.0000
-3.2273 DISTANCE	0.0000
-3.4571 DIXON	0.0000
-3.6433 DIXON'S	0.0000
-3.7286 DMDS	0.0000
-2.9669 DO	0.0000
-2.6876 DOES	0.0000
-3.6433 DOESN'T	0.0000
-3.4571 DON'T	0.0000
-3.5107 DOWNES	0.0000
-3.5720 DOWNES'S	0.0000
-3.5720 DOWNGRADE	0.0000
-3.3663 DOWNGRADED	0.0000
-3.3272 DRAFT	0.0000
-3.6433 DRAFTS	0.0000
-2.5308 DRAW	0.0000
-3.4571 DUBUQUE	0.0000
-3.6433 DUBUQUE'S	0.0000
-3.3272 DUE	0.0000
-3.1222 DURING	0.0000
-3.3272 EACH	0.0000
-3.4093 EARLIER	0.0000
-3.4571 EARLIEST	0.0000
-3.9761 EARLY	0.0000
-2.9508 EAST	0.0000
-3.9761 EASTERN	0.0000
-3.0778 EASTPAC	0.0000
-3.4571 EASTPAC'S	0.0000
-3.9761 ECG041	0.0000
-3.8350 ECHO	0.0000
-3.1222 ECONOMIC	0.0000
-3.1462 EDIT	0.0000
-3.6433 EDITED	0.0000
-3.9761 EDITING	0.0000
-2.7328 EIGHT	0.0000
-3.1716 EIGHTEEN	0.0000
-3.9761 EIGHTEENTH	0.0000
-3.7286 EIGHTH	0.0000
-2.8403 EIGHTY	0.0000
-3.4571 EISENHOWER	0.0000
-3.6433 EISENHOWER'S	0.0000
-3.2581 ELEVEN	0.0000
-3.9761 ELEVENTH	0.0000
-3.6433 ELIZABETH	0.0000
-3.2273 EMPLOYED	0.0000
-3.4571 END	0.0000
-3.9761 ENDING	0.0000
-3.4571 ENGLAND	0.0000
-3.5720 ENGLAND'S	0.0000
-3.7286 ENGLISH	0.0000
-3.9761 ENOUGH	0.0000
-3.4571 ENROUTE	0.0000
-3.4571 ENTERPRISE	0.0000
-3.7286 ENTERPRISE'S	0.0000
-2.6314 EQUIPMENT	0.0000
-3.6433 EQUIPPED	0.0000
-3.4571 ESTEEM	0.0000
-3.6433 ESTEEM'S	0.0000
-2.8785 ESTIMATED	0.0000
-3.3272 ETA	0.0000
-4.6103 ETR	0.0000
-3.3272 EVER	0.0000
-3.6433 EVERETT	0.0000
-3.9761 EXPECTED	0.0000
-3.4571 FANNING	0.0000
-3.6433 FANNING'S	0.0000
-3.6433 FAR	0.0000
-3.7286 FARTHER	0.0000
-4.6103 FARTHEST	0.0000
-3.2273 FAST	0.0000
-3.6433 FASTER	0.0000
-3.8350 FASTEST	0.0000
-2.9205 FEBRUARY	0.0000
-3.2273 FEET	0.0000
-3.9761 FFF088	0.0000
-3.1716 FIFTEEN	0.0000
-3.9761 FIFTEENTH	0.0000
-3.8350 FIFTH	0.0000
-3.4571 FIFTY	0.0000
-3.9761 FIGURE	0.0000
-3.9761 FIGURES	0.0000
-3.8350 FIJI	0.0000
-2.3520 FIND	0.0000
-3.4571 FIREBUSH	0.0000
-3.6433 FIREBUSH'S	0.0000
-3.6433 FIRST	0.0000
-2.6791 FIVE	0.0000
-3.2273 FIXED	0.0000
-3.4571 FLASHER	0.0000
-3.6433 FLASHER'S	0.0000
-2.3640 FLEET	0.0000
-3.6433 FLEETS	0.0000
-3.4571 FLINT	0.0000
-3.6433 FLINT'S	0.0000
-3.7286 FOOTER	0.0000
-1.7669 FOR	0.0000
-2.9669 FORMOSA	0.0000
-3.2913 FORTY	0.0000
-2.5749 FOUR	0.0000
-3.2273 FOURTEEN	0.0000
-3.9761 FOURTEENTH	0.0000
-3.7286 FOURTH	0.0000
-3.4093 FOX	0.0000
-3.6433 FOX'S	0.0000
-3.4571 FREDERICK	0.0000
-3.6433 FREDERICK'S	0.0000
-3.8350 FRENCH	0.0000
-3.4571 FRESNO	0.0000
-3.6433 FRESNO'S	0.0000
-3.6433 FRIDAY	0.0000
-3.8350 FRIDAY'S	0.0000
-3.2273 FRIGATE	0.0000
-4.6103 FRIGATE'S	0.0000
-2.4068 FRIGATES	0.0000
-4.6103 FRIGATES'S	0.0000
-2.3681 FROM	0.0000
-2.2595 FUEL	0.0000
-3.3272 FULL	0.0000
-3.9761 GALLONS	0.0000
-3.5107 GALVESTON	0.0000
-3.3663 GAS	0.0000
-2.1279 GET	0.0000
-2.2894 GIVE	0.0000
-3.5107 GLACIER	0.0000
-3.5720 GLACIER'S	0.0000
-4.1864 GNOMONIC	0.0000
-3.1462 GO	0.0000
-3.0778 GOING	0.0000
-3.4571 GONE	0.0000
-3.7286 GREAT	0.0000
-2.8527 GREATER	0.0000
-3.5720 GREATEST	0.0000
-3.4093 GREEN	0.0000
-3.7286 GRID	0.0000
-3.4571 GRIDLEY	0.0000
-3.6433 GRIDLEY'S	0.0000
-3.6433 GRILL	0.0000
-3.2273 GROSS	0.0000
-3.9761 GROUP	0.0000
-3.8350 GROUPS	0.0000
-3.5107 GUARDFISH	0.0000
-3.5720 GUARDFISH'S	0.0000
-3.5107 GUITARRO	0.0000
-3.5720 GUITARRO'S	0.0000
-2.4347 GULF	0.0000
-3.2273 HAD	0.0000
-3.7286 HALF	0.0000
-3.7286 HARBOR	0.0000
-3.0995 HARPOON	0.0000
-2.5190 HAS	0.0000
-3.6433 HASN'T	0.0000
-2.1888 HAVE	0.0000
-3.6433 HAVEN'T	0.0000
-3.4571 HAWKBILL	0.0000
-3.6433 HAWKBILL'S	0.0000
-4.6103 HE	0.0000
-4.6103 HE'S	0.0000
-3.4571 HECTOR	0.0000
-3.6433 HECTOR'S	0.0000
-3.5107 HEPBURN	0.0000
-3.6433 HEPBURN'S	0.0000
-2.7424 HER	0.0000
-3.9761 HERS	0.0000
-3.4571 HFDF	0.0000
-3.3663 HIGH	0.0000
-3.1986 HIGHER	0.0000
-4.1864 HIGHEST	0.0000
-4.6103 HIM	0.0000
-3.3663 HIS	0.0000
-2.6791 HOME	0.0000
-3.7286 HOMER	0.0000
-3.8350 HONG-KONG	0.0000
-3.6433 HONOLULU	0.0000
-2.9205 HOOKED	0.0000
-3.4571 HORNE	0.0000
-3.6433 HORNE'S	0.0000
-3.2273 HOUR	0.0000
-2.7051 HOURS	0.0000
-1.9877 HOW	0.0000
-2.5430 HUNDRED	0.0000
-3.6433 ICE-NINE	0.0000
-4.6103 ID	0.0000
-3.7286 IDENTIFICATION	0.0000
-3.3272 IDENTIFICATIONS	0.0000
-3.0188 IF	0.0000
-1.4714 IN	0.0000
-3.6433 INCLUDE	0.0000
-3.9761 INCLUDED	0.0000
-3.9761 INCLUDING	0.0000
-3.6433 INCREASE	0.0000
-3.8350 INCREASED	0.0000
-3.4571 INCREASING	0.0000
-3.5107 INDEPENDENCE	0.0000
-3.6433 INDEPENDENCE'S	0.0000
-3.0008 INDIAN	0.0000
-3.8350 INDONESIA	0.0000
-3.9761 INFORMATION	0.0000
-3.4571 INSTALLED	0.0000
-3.9761 INSTEAD	0.0000
-3.9761 INSUFFICIENT	0.0000
-3.6433 INVOLVED	0.0000
-3.3272 INVOLVING	0.0000
-3.4571 IRONWOOD	0.0000
-3.6433 IRONWOOD'S	0.0000
-1.6518 IS	0.0000
-3.3272 ISLANDS	0.0000
-3.9761 ISN'T	0.0000
-2.6546 IT	0.0000
-4.6103 IT'S	0.0000
-3.7286 ITS	0.0000
-2.9354 JANUARY	0.0000
-2.9835 JAPAN	0.0000
-3.4571 JARRETT	0.0000
-3.5720 JARRETT'S	0.0000
-3.4571 JARVIS	0.0000
-3.6433 JARVIS'S	0.0000
-3.4571 JASON	0.0000
-3.6433 JASON'S	0.0000
-2.9060 JULY	0.0000
-2.9354 JUNE	0.0000
-3.4571 JUPITER	0.0000
-3.6433 JUPITER'S	0.0000
-3.4571 KENNEDY	0.0000
-3.6433 KENNEDY'S	0.0000
-3.7286 KILOMETER	0.0000
-3.1462 KILOMETERS	0.0000
-3.5107 KIRK	0.0000
-3.5720 KIRK'S	0.0000
-3.4571 KISKA	0.0000
-3.6433 KISKA'S	0.0000
-3.9761 KNOT	0.0000
-2.7142 KNOTS	0.0000
-3.5107 KODIAK	0.0000
-3.8350 KOREA	0.0000
-3.0573 KOREAN	0.0000
-3.1716 LAMPS	0.0000
-3.6433 LANTFLT	0.0000
-4.1864 LARGE	0.0000
-3.2913 LARGER	0.0000
-3.4093 LARGEST	0.0000
-2.1675 LAST	0.0000
-3.6433 LAT	0.0000
-3.8350 LAT-LON	0.0000
-3.9761 LAT-LONS	0.0000
-3.6433 LATER	0.0000
-2.9835 LATEST	0.0000
-2.6963 LATITUDE	0.0000
-2.9354 LATITUDES	0.0000
-3.8350 LATS	0.0000
-3.7286 LEAST	0.0000
-3.5107 LEFT	0.0000
-3.2273 LENGTH	0.0000
-3.6433 LENGTHS	0.0000
-3.6433 LENINGRAD	0.0000
-2.7941 LESS	0.0000
-2.8785 LETTER	0.0000
-3.3663 LETTERS	0.0000
-3.6433 LEVEL	0.0000
-3.6433 LEVELS	0.0000
-3.1222 LINK-11	0.0000
-2.2377 LIST	0.0000
-3.4571 LOCATED	0.0000
-2.6876 LOCATION	0.0000
-2.9669 LOCATIONS	0.0000
-3.4571 LOCKWOOD	0.0000
-3.6433 LOCKWOOD'S	0.0000
-4.1864 LON	0.0000
-2.7832 LONG	0.0000
-3.4571 LONGER	0.0000
-3.6433 LONGEST	0.0000
-2.6963 LONGITUDE	0.0000
-2.9508 LONGITUDES	0.0000
-3.9761 LONS	0.0000
-3.4093 LOW	0.0000
-3.2581 LOWER	0.0000
-3.4571 LOWEST	0.0000
-3.4571 M-CODE	0.0000
-3.6433 M-CODES	0.0000
-3.4571 M-RATING	0.0000
-3.6433 M-RATINGS	0.0000
-3.0995 M1	0.0000
-3.0778 M2	0.0000
-3.0778 M3	0.0000
-3.0376 M4	0.0000
-3.0995 M5	0.0000
-3.8350 MADAGASCAR	0.0000
-3.9761 MADE	0.0000
-3.2581 MAKE	0.0000
-3.7286 MAKING	0.0000
-3.6433 MANCHESTER	0.0000
-3.4571 MANHATTAN	0.0000
-3.6433 MANHATTAN'S	0.0000
-4.1864 MANILA	0.0000
-2.2286 MANY	0.0000
-2.9205 MARCH	0.0000
-3.4571 MARS	0.0000
-3.6433 MARS'S	0.0000
-2.9354 MAX	0.0000
-2.6546 MAXIMUM	0.0000
-2.9205 MAY	0.0000
-3.4571 MCCLUSKY	0.0000
-3.6433 MCCLUSKY'S	0.0000
-2.2826 ME	0.0000
-3.2913 MEASURE	0.0000
-3.5720 MERCATOR	0.0000
-3.4571 MERCURY	0.0000
-3.6433 MERCURY'S	0.0000
-3.4571 METEOR	0.0000
-3.6433 METEOR'S	0.0000
-3.4571 METERS	0.0000
-3.4093 METRIC	0.0000
-3.8350 MEXICO	0.0000
-3.6433 MIAMI	0.0000
-3.5107 MIDGETT	0.0000
-3.5720 MIDGETT'S	0.0000
-3.0995 MIDPAC	0.0000
-3.4571 MIDPAC'S	0.0000
-3.5107 MIDWAY	0.0000
-3.6433 MIDWAY'S	0.0000
-3.8350 MILE	0.0000
-3.1462 MILES	0.0000
-3.7286 MIND	0.0000
-3.6433 MINUTES	0.0000
-3.4571 MISHAWAKA	0.0000
-3.6433 MISHAWAKA'S	0.0000
-2.5076 MISSION	0.0000
-3.5107 MISSIONS	0.0000
-3.4571 MISSISSIPPI	0.0000
-3.6433 MISSISSIPPI'S	0.0000
-2.8785 MIW	0.0000
-2.8921 MOB	0.0000
-3.6433 MONDAY	0.0000
-3.5720 MONDAY'S	0.0000
-3.8350 MONGOLIA	0.0000
-3.4571 MONTH	0.0000
-3.6433 MONTH'S	0.0000
-3.4571 MONTHS	0.0000
-3.4571 MONTICELLO	0.0000
-3.6433 MONTICELLO'S	0.0000
-2.4113 MORE	0.0000
-3.0376 MOST	0.0000
-2.9669 MOZAMBIQUE	0.0000
-3.3272 MUCH	0.0000
-3.9761 N92762	0.0000
-3.1716 NAME	0.0000
-2.9205 NAMES	0.0000
-3.6433 NAPLES	0.0000
-3.4571 NASHUA	0.0000
-3.6433 NASHUA'S	0.0000
-3.9761 NEAR	0.0000
-3.7286 NEARER	0.0000
-3.7286 NEAREST	0.0000
-3.7286 NEVER	0.0000
-2.9835 NEW	0.0000
-3.6433 NEW-YORK	0.0000
-3.8350 NEW-ZEALAND	0.0000
-3.6433 NEWCASTLE	0.0000
-3.9761 NEWER	0.0000
-3.9761 NEWEST	0.0000
-3.0995 NEXT	0.0000
-2.7523 NINE	0.0000
-2.8785 NINETEEN	0.0000
-3.9761 NINETEENTH	0.0000
-3.5107 NINETY	0.0000
-3.7286 NINTH	0.0000
-3.2273 NO	0.0000
-3.6433 NOME	0.0000
-2.9060 NORTH	0.0000
-3.9761 NORTHERN	0.0000
-3.2273 NOT	0.0000
-3.7286 NOVA	0.0000
-2.9669 NOVEMBER	0.0000
-3.3663 NOW	0.0000
-3.0376 NTDS	0.0000
-3.1986 NUCLEAR	0.0000
-3.0778 NUMBER	0.0000
-3.7286 OAKLAND	0.0000
-2.4347 OCEAN	0.0000
-2.9508 OCTOBER	0.0000
-1.4703 OF	0.0000
-3.0008 OFF	0.0000
-3.9761 OLD	0.0000
-4.6103 OLDER	0.0000
-3.4093 OLDEST	0.0000
-3.8350 OLYMPIA	0.0000
-1.8300 ON	0.0000
-2.4593 ONE	0.0000
-3.4571 ONLY	0.0000
-3.3272 OPEN	0.0000
-2.8052 OR	0.0000
-3.4093 ORANGE	0.0000
-3.5107 OSGP	0.0000
-2.7624 OVERALL	0.0000
-2.9669 OVERLAY	0.0000
-3.0573 OVERLAYS	0.0000
-3.3272 PAC	0.0000
-3.5107 PACFLT	0.0000
-2.4964 PACIFIC	0.0000
-3.8350 PANAMA	0.0000
-3.1462 PARAMETER	0.0000
-3.2913 PARAMETERS	0.0000
-3.7286 PEARL	0.0000
-3.4571 PEORIA	0.0000
-3.6433 PEORIA'S	0.0000
-3.3272 PERCENT	0.0000
-3.0188 PERSIAN	0.0000
-2.6791 PERSONNEL	0.0000
-3.0573 PHILIPPINE	0.0000
-3.8350 PHILIPPINES	0.0000
-3.4571 PIGEON	0.0000
-3.6433 PIGEON'S	0.0000
-3.9761 PLH003	0.0000
-3.4093 PLUCK	0.0000
-3.7286 PLUCK'S	0.0000
-3.4571 PLUNGER	0.0000
-3.6433 PLUNGER'S	0.0000
-3.4571 POLLACK	0.0000
-3.6433 POLLACK'S	0.0000
-3.8350 POLYNESIA	0.0000
-2.3104 PORT	0.0000
-3.2581 PORTS	0.0000
-3.3663 POSIT	0.0000
-2.6467 POSITION	0.0000
-2.9205 POSITIONS	0.0000
-3.6433 POSITS	0.0000
-3.3663 POUGHKEEPSIE	0.0000
-3.8350 POUGHKEEPSIE'S	0.0000
-3.3272 POWERED	0.0000
-3.4571 PRAIRIE	0.0000
-3.7286 PRAIRIE'S	0.0000
-3.0008 PRESENT	0.0000
-3.4571 PREVIOUS	0.0000
-2.8052 PROBLEM	0.0000
-2.5076 PROBLEMS	0.0000
-3.0376 PROJECTION	0.0000
-3.6433 PROPELLED	0.0000
-2.9669 PROPULSION	0.0000
-3.4571 PUFFER	0.0000
-3.5720 PUFFER'S	0.0000
-3.6433 PUGET-1	0.0000
-3.7286 QUARTER	0.0000
-3.7286 QUARTERS	0.0000
-3.5107 QUEENFISH	0.0000
-3.5720 QUEENFISH'S	0.0000
-3.5107 RADAR	0.0000
-3.4571 RAMSEY	0.0000
-3.6433 RAMSEY'S	0.0000
-3.4571 RANGER	0.0000
-3.5720 RANGER'S	0.0000
-3.0188 RATED	0.0000
-3.4571 RATHBURNE	0.0000
-3.6433 RATHBURNE'S	0.0000
-2.4964 RATING	0.0000
-2.9205 RATINGS	0.0000
-2.2227 READINESS	0.0000
-3.9761 REASON	0.0000
-3.5107 REASONER	0.0000
-3.6433 REASONER'S	0.0000
-3.9761 REASONS	0.0000
-3.1986 RECENT	0.0000
-3.5107 RECLAIMER	0.0000
-3.6433 RECLAIMER'S	0.0000
-3.4093 RED	0.0000
-3.4571 REDEFINE	0.0000
-3.7286 REDEFINED	0.0000
-3.9761 REDEFINING	0.0000
-3.3272 REDISPLAY	0.0000
-3.0778 REDO	0.0000
-2.5430 REDRAW	0.0000
-3.4571 REEVES	0.0000
-3.6433 REEVES'S	0.0000
-3.0995 REMAINING	0.0000
-3.9761 REMARK	0.0000
-3.4571 REMARKS	0.0000
-3.7286 REPAIR	0.0000
-3.9761 REPAIRED	0.0000
-3.9761 REPAIRING	0.0000
-3.9761 REPLACED	0.0000
-2.6963 REPORT	0.0000
-2.7727 REPORTED	0.0000
-3.6433 REPORTING	0.0000
-2.6467 REPORTS	0.0000
-3.4571 RESET	0.0000
-3.0778 RESOLUTION	0.0000
-3.6433 RESOLVED	0.0000
-2.6390 RESOURCE	0.0000
-3.6433 RESOURCES	0.0000
-3.1462 REVIEW	0.0000
-3.0573 ROSS	0.0000
-3.5107 SACRAMENTO	0.0000
-3.6433 SACRAMENTO'S	0.0000
-3.8350 SAIL	0.0000
-2.8921 SAME	0.0000
-3.4571 SAMPLE	0.0000
-3.6433 SAMPLE'S	0.0000
-3.6433 SAN-DIEGO	0.0000
-3.6433 SAN-FRAN	0.0000
-3.5107 SASSAFRAS	0.0000
-3.6433 SASSAFRAS'S	0.0000
-3.6433 SATURDAY	0.0000
-3.9761 SATURDAY'S	0.0000
-3.8350 SAVE	0.0000
-3.5107 SCHENECTADY	0.0000
-3.6433 SCHENECTADY'S	0.0000
-3.1716 SCREEN	0.0000
-3.8350 SCREENS	0.0000
-1.9167 SEA	0.0000
-3.5107 SEAWOLF	0.0000
-3.5720 SEAWOLF'S	0.0000
-3.7286 SECOND	0.0000
-3.8350 SECURITY	0.0000
-2.9205 SENSOR	0.0000
-3.6433 SENSORS	0.0000
-2.9508 SEPTEMBER	0.0000
-2.5683 SET	0.0000
-3.9761 SETTING	0.0000
-3.6433 SETTINGS	0.0000
-2.7234 SEVEN	0.0000
-3.2273 SEVENTEEN	0.0000
-3.9761 SEVENTEENTH	0.0000
-3.7286 SEVENTH	0.0000
-3.6433 SEVENTY	0.0000
-3.5107 SHASTA	0.0000
-3.6433 SHASTA'S	0.0000
-3.8350 SHE	0.0000
-3.5720 SHE'S	0.0000
-3.5107 SHERMAN	0.0000
-3.6433 SHERMAN'S	0.0000
-2.9669 SHIP	0.0000
-1.9226 SHIPS	0.0000
-4.6103 SHIPS'S	0.0000
-2.0105 SHOW	0.0000
-3.6433 SHOWING	0.0000
-3.9761 SHOWN	0.0000
-3.0376 SIBERIAN	0.0000
-3.7286 SIDNEY	0.0000
-2.6093 SINCE	0.0000
-3.9761 SINGAPORE	0.0000
-2.6708 SIX	0.0000
-3.2273 SIXTEEN	0.0000
-3.9761 SIXTEENTH	0.0000
-3.8350 SIXTH	0.0000
-3.5107 SIXTY	0.0000
-2.7523 SIZE	0.0000
-3.9761 SLOW	0.0000
-3.4571 SLOWER	0.0000
-3.7286 SLOWEST	0.0000
-3.1462 SLQ-32	0.0000
-4.6103 SMALL	0.0000
-3.4571 SMALLER	0.0000
-3.7286 SMALLEST	0.0000
-3.7286 SOHO	0.0000
-2.9669 SOLOMON	0.0000
-3.5107 SONAR	0.0000
-2.8403 SOON	0.0000
-3.9761 SOONER	0.0000
-2.9205 SOUTH	0.0000
-3.9761 SOUTHERN	0.0000
-4.1864 SOVIET	0.0000
-2.2826 SPEED	0.0000
-2.6876 SPEEDS	0.0000
-3.1462 SPS-40	0.0000
-3.1222 SPS-48	0.0000
-3.1222 SQQ-23	0.0000
-3.1462 START	0.0000
-3.6433 STARTED	0.0000
-3.9761 STARTING	0.0000
-3.9761 STATES	0.0000
-3.4571 STATION	0.0000
-3.4571 STATUS	0.0000
-3.4093 STEAM	0.0000
-3.5107 STEREOGRAPHIC	0.0000
-3.4571 STERETT	0.0000
-3.6433 STERETT'S	0.0000
-2.5492 STRAIT	0.0000
-3.2273 SUB	0.0000
-4.1864 SUB'S	0.0000
-3.6433 SUBIC	0.0000
-3.2581 SUBMARINE	0.0000
-4.1864 SUBMARINE'S	0.0000
-2.4113 SUBMARINES	0.0000
-2.4205 SUBS	0.0000
-3.8350 SUFFICIENT	0.0000
-3.9761 SUMMARIZE	0.0000
-3.5720 SUNDAY	0.0000
-3.9761 SUNDAY'S	0.0000
-2.7234 SUPPLIES	0.0000
-3.4571 SUPPLY	0.0000
-3.9761 SUPPOSED	0.0000
-3.1462 SURFACE	0.0000
-3.1462 SUSTAINED	0.0000
-2.8166 SWITCH	0.0000
-3.0008 SWITCHES	0.0000
-3.4571 SWORDFISH	0.0000
-3.6433 SWORDFISH'S	0.0000
-3.7286 SYSTEM	0.0000
-3.1462 T-LAM	0.0000
-3.1222 TACAN	0.0000
-3.9761 TAIWAN	0.0000
-2.9205 TAKE	0.0000
-3.9761 TAKEN	0.0000
-3.1462 TASM	0.0000
-3.2913 TEN	0.0000
-3.9761 TENTH	0.0000
-3.4571 TEST	0.0000
-3.4571 TEXAS	0.0000
-3.6433 TEXAS'S	0.0000
-3.1462 TFCC	0.0000
-2.9835 THAILAND	0.0000
-1.9825 THAN	0.0000
-1.8113 THAT	0.0000
-1.2996 THE	0.0000
-2.6239 THEIR	0.0000
-3.9761 THEM	0.0000
-2.1727 THERE	0.0000
-3.9761 THESE	0.0000
-3.9761 THEY	0.0000
-3.6433 THIRD	0.0000
-3.2581 THIRTEEN	0.0000
-3.9761 THIRTEENTH	0.0000
-3.9761 THIRTIETH	0.0000
-3.0008 THIRTY	0.0000
-3.9761 THIS	0.0000
-4.6103 THOSE	0.0000
-3.2913 THOUSAND	0.0000
-3.7286 THREAT	0.0000
-3.6433 THREATS	0.0000
-2.5133 THREE	0.0000
-3.5720 THURSDAY	0.0000
-4.1864 THURSDAY'S	0.0000
-3.5107 TICONDEROGA	0.0000
-3.6433 TICONDEROGA'S	0.0000
-2.5555 TIME	0.0000
-3.6433 TIMES	0.0000
-1.8253 TO	0.0000
-3.0008 TODAY	0.0000
-3.9761 TODAY'S	0.0000
-3.5107 TOGGLE	0.0000
-3.6433 TOGGLED	0.0000
-3.9761 TOGGLING	0.0000
-3.5720 TOKYO	0.0000
-3.4571 TOMORROW	0.0000
-3.9761 TOMORROW'S	0.0000
-3.0188 TONKIN	0.0000
-3.1986 TONS	0.0000
-3.1986 TOTAL	0.0000
-3.5720 TOWNSVILLE	0.0000
-2.5308 TRACK	0.0000
-2.6876 TRACKS	0.0000
-2.6546 TRAINING	0.0000
-3.5107 TRIPOLI	0.0000
-3.6433 TRIPOLI'S	0.0000
-3.5107 TRUE-VIEW	0.0000
-3.5720 TUESDAY	0.0000
-3.6433 TUESDAY'S	0.0000
-3.5720 TURBINE	0.0000
-3.0778 TURN	0.0000
-3.9761 TURNED	0.0000
-3.6433 TURNING	0.0000
-3.5107 TUSCALOOSA	0.0000
-3.6433 TUSCALOOSA'S	0.0000
-4.1864 TWELFTH	0.0000
-3.2913 TWELVE	0.0000
-3.9761 TWENTIETH	0.0000
-2.3441 TWENTY	0.0000
-2.5683 TWO	0.0000
-3.0778 TYPE	0.0000
-3.9761 TYPES	0.0000
-4.1864 UNION	0.0000
-3.1986 UNIT	0.0000
-3.9761 UNITED	0.0000
-3.6433 UNTIL	0.0000
-3.9761 UOM	0.0000
-3.9761 UPDATE	0.0000
-3.9761 UPDATED	0.0000
-3.9761 UPDATES	0.0000
-3.6433 UPGRADE	0.0000
-3.4571 UPGRADED	0.0000
-3.9761 USA	0.0000
-3.6433 USE	0.0000
-2.8654 USING	0.0000
-3.0778 USN	0.0000
-3.4571 VALUE	0.0000
-3.5720 VALUES	0.0000
-3.5107 VANCOUVER	0.0000
-3.6433 VANCOUVER'S	0.0000
-3.4571 VANDERGRIFT	0.0000
-3.6433 VANDERGRIFT'S	0.0000
-2.8403 VARIOUS	0.0000
-3.2273 VESSEL	0.0000
-2.3849 VESSELS	0.0000
-3.5720 VICTORIA	0.0000
-3.4571 VIRGINIA	0.0000
-3.6433 VIRGINIA'S	0.0000
-3.5107 VISUAL	0.0000
-3.5107 WABASH	0.0000
-3.6433 WABASH'S	0.0000
-3.4571 WADSWORTH	0.0000
-3.6433 WADSWORTH'S	0.0000
-2.4395 WAS	0.0000
-3.5720 WASN'T	0.0000
-3.5107 WASP	0.0000
-3.6433 WASP'S	0.0000
-3.6433 WE	0.0000
-3.6433 WEDNESDAY	0.0000
-3.8350 WEDNESDAY'S	0.0000
-3.9761 WEEK	0.0000
-3.6433 WEEK'S	0.0000
-3.6433 WEEKS	0.0000
-3.6433 WELLINGTON	0.0000
-3.2273 WENT	0.0000
-2.2998 WERE	0.0000
-3.2273 WEREN'T	0.0000
-2.9205 WEST	0.0000
-3.8350 WESTERN	0.0000
-3.0376 WESTPAC	0.0000
-3.4571 WESTPAC'S	0.0000
-1.8408 WHAT	0.0000
-3.8350 WHAT'RE	0.0000
-2.5076 WHAT'S	0.0000
-2.6546 WHEN	0.0000
-3.5107 WHEN'LL	0.0000
-3.6433 WHEN'S	0.0000
-2.9508 WHERE	0.0000
-3.7286 WHERE'S	0.0000
-2.4395 WHICH	0.0000
-3.4571 WHIPPLE	0.0000
-3.6433 WHIPPLE'S	0.0000
-3.1462 WHO	0.0000
-3.9761 WHO'S	0.0000
-3.1462 WHOSE	0.0000
-2.9354 WHY	0.0000
-4.6103 WHY'S	0.0000
-3.5107 WICHITA	0.0000
-3.6433 WICHITA'S	0.0000
-2.5133 WILL	0.0000
-3.5107 WILLAMETTE	0.0000
-3.6433 WILLAMETTE'S	0.0000
-3.5107 WINAMAC	0.0000
-3.6433 WINAMAC'S	0.0000
-2.8921 WINDOW	0.0000
-3.9761 WINDOWS	0.0000
-2.1573 WITH	0.0000
-2.9205 WITHIN	0.0000
-3.6433 WITHOUT	0.0000
-3.9761 WON'T	0.0000
-3.6433 WORSE	0.0000
-3.6433 WORST	0.0000
-2.9205 WOULD	0.0000
-3.9761 WOULDN'T	0.0000
-3.6433 YANKEE	0.0000
-3.9761 YEAR	0.0000
-3.9761 YEARS	0.0000
-2.8785 YELLOW	0.0000
-3.4093 YESTERDAY	0.0000
-4.6103 YESTERDAY'S	0.0000
-3.1462 YET	0.0000
-3.3663 YORKTOWN	0.0000
-3.8350 YORKTOWN'S	0.0000
-3.1986 ZULU	0.0000

\2-grams:
0.0000 </s> <s> 

\end\
