#############################################################################
## Copyright (c) 1996, Carnegie Mellon University, Cambridge University,
## Ronald Rosenfeld and Philip Clarkson
#############################################################################
=============================================================================
===============  This file was produced by the CMU-Cambridge  ===============
===============     Statistical Language Modeling Toolkit     ===============
=============================================================================
This is a 2-gram language model, based on a vocabulary of 993 words,
  which begins "</s>", "<s>", "A"...
This is an OPEN-vocabulary model (type 1)
  (OOVs were mapped to UNK, which is treated as any other vocabulary word)
Absolute discounting was applied.
1-gram discounting constant : 0.395349
2-gram discounting constant : 0.649511
This file is in the ARPA-standard format introduced by Doug Paul.

p(wd3|wd1,wd2)= if(trigram exists)           p_3(wd1,wd2,wd3)
                else if(bigram w1,w2 exists) bo_wt_2(w1,w2)*p(wd3|wd2)
                else                         p(wd3|w2)

p(wd2|wd1)= if(bigram exists) p_2(wd1,wd2)
            else              bo_wt_1(wd1)*p_1(wd2)

All probs and back-off weights (bo_wt) are given in log10 form.

Data formats:

Beginning of data mark: \data\
ngram 1=nr            # number of 1-grams
ngram 2=nr            # number of 2-grams

\1-grams:
p_1     wd_1 bo_wt_1
\2-grams:
p_2     wd_1 wd_2 

end of data mark: \end\

\data\
ngram 1=994
ngram 2=7694

\1-grams:
-4.6103 <UNK>	0.0000
-98.9932 </s>	-3.6413
-98.9932 <s>	-1.6292
-2.2227 A	-0.8436
-3.9761 A42128	-0.6645
-2.8785 AAW	-1.0005
-3.6433 ABERDEEN	-0.4849
-3.1462 ABOARD	-0.2979
-3.5107 ABOVE	-0.4874
-3.4093 ADD	-0.2581
-3.9761 ADDED	-0.6645
-3.6433 ADDING	-0.2435
-3.9761 AFFECT	-0.6632
-2.9669 AFTER	-0.3283
-3.4571 AGAIN	-0.6464
-3.4571 AJAX	-0.2933
-3.6433 AJAX'S	-0.1816
-3.0573 ALASKA	-0.5600
-2.8283 ALERT	-0.9023
-2.7142 ALERTS	-1.0670
-3.5720 ALEXANDRIA	-0.3069
-2.4696 ALL	-0.4860
-2.8921 AN	-0.5698
-3.6433 ANCHORAGE	-0.4716
-1.8360 AND	-0.5929
-2.0873 ANY	-0.7422
-3.9761 ANYBODY	-0.6496
-3.5107 APALACHICOLA	-0.4778
-3.6433 APALACHICOLA'S	-0.1837
-2.9205 APRIL	-0.9547
-3.0573 ARABIAN	-1.5245
-3.0573 ARCTIC	-1.5282
-1.6557 ARE	-1.0557
-2.3681 AREA	-0.7816
-3.1986 AREAS	-0.5958
-3.3272 AREN'T	-0.5408
-3.4571 ARKANSAS	-0.6636
-3.6433 ARKANSAS'S	-0.3589
-3.1986 AROUND	-0.3247
-2.7328 ARRIVAL	-1.0464
-3.0008 ARRIVE	-1.2670
-3.6433 ARRIVED	-0.9633
-3.9761 ARRIVING	-0.6496
-3.7286 ARROW	-0.3956
-2.8403 AS	-0.4997
-3.6433 ASTORIA	-0.3499
-2.8785 ASUW	-0.7371
-2.8654 ASW	-0.9338
-2.2759 AT	-0.5905
-2.6314 ATLANTIC	-1.3386
-2.9060 AUGUST	-0.9620
-3.6433 AVAILABLE	-0.6505
-2.4696 AVERAGE	-0.9329
-3.9761 BAD	-0.6547
-3.4571 BADGER	-0.1760
-3.6433 BADGER'S	-0.1821
-3.4571 BAINBRIDGE	-0.2766
-3.7286 BAINBRIDGE'S	-0.1797
-3.9761 BANGKOK	-0.1646
-3.7286 BARGE	-0.4087
-3.0376 BASS	-1.5479
-2.9508 BAY	-0.4824
-2.5019 BE	-1.0102
-3.4571 BEAM	-0.6428
-3.4571 BEAMS	-0.6351
-3.0778 BEEN	-0.7123
-3.0188 BEFORE	-0.3294
-3.6433 BELOW	-0.1636
-2.7234 BERING	-1.5519
-4.6103 BETTER	-0.1874
-3.6433 BETWEEN	-0.1643
-3.4571 BIDDLE	-0.2211
-3.6433 BIDDLE'S	-0.1822
-3.0376 BISMARK	-1.5438
-3.6433 BOMBAY	-0.3549
-3.6433 BOTH	-0.1854
-3.6433 BOX	-0.6644
-3.0995 BRIGHT	-0.8853
-3.8350 BRITISH	-0.7890
-3.4571 BROOKE	-0.3558
-3.6433 BROOKE'S	-0.1809
-3.4571 BRUNSWICK	-0.5176
-3.6433 BRUNSWICK'S	-0.1842
-3.6433 BUD-TEST	-0.4816
-3.5720 BUMP	-0.5529
-2.4964 BY	-0.4787
-3.4571 C-CODE	-0.8191
-3.6433 C-CODES	-0.9581
-3.3272 C-RATING	-0.6502
-3.4093 C-RATINGS	-1.1799
-2.8527 C1	-0.5713
-2.8654 C2	-0.7335
-2.8527 C3	-0.5083
-2.8527 C4	-0.6618
-2.8921 C5	-0.6516
-3.8350 CALEDONIA	-0.1772
-3.0376 CALIFORNIA	-0.6884
-3.4571 CAMDEN	-0.2945
-3.6433 CAMDEN'S	-0.1840
-3.4571 CAMPBELL	-0.4357
-3.6433 CAMPBELL'S	-0.2621
-2.9205 CAN	-0.2965
-3.8350 CANADA	-0.3093
-2.9669 CAPABILITIES	-0.8097
-3.4571 CAPABILITY	-0.8257
-2.3849 CAPABLE	-0.9765
-3.9761 CAPACITIES	-0.6645
-2.5749 CAPACITY	-1.0048
-3.1716 CARRIER	-0.6127
-4.1864 CARRIER'S	-0.1860
-2.3935 CARRIERS	-0.9019
-3.9761 CARRY	-0.1864
-3.5720 CASREP	-0.2498
-3.4571 CASREPED	-0.3534
-3.1462 CASREPS	-0.5623
-2.4205 CASUALTY	-1.8577
-3.6433 CAT-2	-0.4851
-3.6433 CAT-3	-0.3595
-3.9761 CAT-4	-0.3615
-3.9761 CATEGORIES	-0.6570
-2.9669 CATEGORY	-1.1380
-3.6433 CENTER	-0.6636
-3.4093 CENTERED	-1.1871
-3.9761 CENTERING	-0.6636
-3.7286 CEP	-0.2765
-3.0778 CHANGE	-0.5175
-3.1462 CHANGED	-0.5841
-3.9761 CHANGING	-0.6644
-3.0376 CHANNEL	-0.6333
-2.0767 CHART	-1.2418
-3.9761 CHARTS	-0.6645
-3.4571 CHATTAHOOCHEE	-0.2874
-3.7286 CHATTAHOOCHEE'S	-0.1842
-3.5720 CHESHIRE	-0.4279
-2.9508 CHINA	-1.3252
-3.0778 CHOP	-1.2002
-3.2273 CHOPPED	-1.0540
-3.6433 CHOPPING	-0.9590
-3.7286 CIRCLE	-0.1732
-3.4093 CITRUS	-0.3361
-3.7286 CITRUS'S	-0.1846
-3.6433 CITY	-0.3544
-3.0376 CLEAR	-0.5163
-3.7286 CLEARED	-0.8864
-3.6433 CLEARING	-0.3628
-3.4093 CLEVELAND	-0.4753
-3.8350 CLEVELAND'S	-0.1855
-3.6433 CLOSE	-0.9558
-3.3663 CLOSER	-0.9166
-3.3272 CLOSEST	-1.2601
-3.8350 CODAG	-0.3120
-3.4571 CODE	-0.5229
-3.4571 CODES	-1.1342
-3.3272 COLOR	-0.9428
-3.9761 COMPARED	-0.6580
-3.4571 CONFIDENCE	-0.2943
-3.7286 CONFIDENCE'S	-0.1852
-3.4571 CONIFER	-0.6449
-3.7286 CONIFER'S	-0.1821
-3.4571 CONQUEST	-0.2806
-3.6433 CONQUEST'S	-0.2598
-3.5107 CONSTANT	-0.3830
-3.6433 CONSTANT'S	-0.2547
-3.4571 CONSTELLATION	-0.2841
-3.5720 CONSTELLATION'S	-0.2463
-3.7286 CONVENTIONAL	-0.8861
-3.8350 COOK	-0.7893
-3.4571 COPELAND	-0.1547
-3.6433 COPELAND'S	-0.2630
-2.9835 CORAL	-1.5971
-3.6433 COULD	-0.1643
-3.9761 COULDN'T	-0.1869
-3.2581 COUNT	-1.0086
-3.9761 COUNTED	-0.6645
-3.9761 COUNTING	-0.6644
-3.5107 CROVL	-0.5907
-3.9761 CROVLS	-0.6582
-3.2273 CRUISER	-0.8710
-4.1864 CRUISER'S	-0.1864
-2.3979 CRUISERS	-0.8721
-4.6103 CRUISERS'S	-0.1866
-3.1462 CRUISING	-1.1385
-2.7424 CURRENT	-0.7464
-3.6433 CURRENTLY	-0.9506
-3.5107 DALE	-0.3637
-3.6433 DALE'S	-0.1813
-3.7286 DARWIN	-0.3942
-2.4252 DATA	-1.0244
-3.0188 DATE	-1.0698
-3.3272 DATED	-0.3567
-3.2273 DATES	-0.8568
-3.5107 DAVIDSON	-0.3069
-3.5720 DAVIDSON'S	-0.3274
-3.6433 DAY	-0.6546
-3.4571 DAYS	-0.8401
-3.9761 DDD992	-0.6496
-2.9508 DECEMBER	-0.6774
-3.7286 DECREASE	-0.5624
-3.5720 DECREASED	-1.0311
-3.9761 DECREASING	-0.3405
-3.5720 DEFAULT	-1.0324
-3.1222 DEFAULTS	-1.4662
-3.2581 DEFINE	-0.7038
-3.9761 DEFINED	-0.6580
-3.9761 DEFINING	-0.6633
-3.4571 DEFINITION	-1.1267
-3.6433 DEFINITIONS	-0.6494
-3.9761 DEGRADATION	-0.6645
-3.9761 DEGRADATIONS	-0.6582
-3.5107 DEGRADE	-0.6050
-3.3663 DEGRADED	-0.5003
-3.9761 DEGRADING	-0.6645
-3.3272 DEGREES	-0.3093
-3.3663 DELETE	-0.2444
-3.9761 DELETED	-0.6645
-3.6433 DELETING	-0.4658
-3.4571 DENVER	-0.3495
-3.6433 DENVER'S	-0.2555
-2.6314 DEPLOYED	-0.7727
-3.4571 DEPLOYMENT	-0.8400
-3.4571 DEPLOYMENTS	-0.8253
-3.6433 DEPTH	-0.6632
-3.9761 DEPTHS	-0.3622
-2.6390 DESTINATION	-0.8838
-3.2273 DESTINATIONS	-0.8724
-2.7424 DID	-0.3324
-3.4571 DIDN'T	-0.3404
-3.6433 DIEGO-GARCIA	-0.4805
-3.3663 DIESEL	-0.3173
-3.1222 DIM	-0.8630
-2.9060 DISPLACEMENT	-0.7947
-3.3272 DISPLACEMENTS	-0.6557
-2.2759 DISPLAY	-0.6108
-3.6433 DISPLAYED	-0.6496
-3.9761 DISPLAYING	-0.6422
-3.2273 DISTANCE	-1.3616
-3.4571 DIXON	-0.5213
-3.6433 DIXON'S	-0.2583
-3.7286 DMDS	-0.5847
-2.9669 DO	-0.8141
-2.6876 DOES	-0.3109
-3.6433 DOESN'T	-0.1642
-3.4571 DON'T	-0.6600
-3.5107 DOWNES	-0.2869
-3.5720 DOWNES'S	-0.2466
-3.5720 DOWNGRADE	-0.7174
-3.3663 DOWNGRADED	-0.6042
-3.3272 DRAFT	-0.6630
-3.6433 DRAFTS	-0.6418
-2.5308 DRAW	-0.6658
-3.4571 DUBUQUE	-0.5295
-3.6433 DUBUQUE'S	-0.2646
-3.3272 DUE	-1.2517
-3.1222 DURING	-0.5910
-3.3272 EACH	-0.3610
-3.4093 EARLIER	-1.1829
-3.4571 EARLIEST	-0.3610
-3.9761 EARLY	-0.6640
-2.9508 EAST	-0.5281
-3.9761 EASTERN	-0.1872
-3.0778 EASTPAC	-0.5922
-3.4571 EASTPAC'S	-0.4304
-3.9761 ECG041	-0.6645
-3.8350 ECHO	-0.1738
-3.1222 ECONOMIC	-1.1620
-3.1462 EDIT	-0.3380
-3.6433 EDITED	-0.4869
-3.9761 EDITING	-0.1631
-2.7328 EIGHT	-0.4122
-3.1716 EIGHTEEN	-0.3657
-3.9761 EIGHTEENTH	-0.1719
-3.7286 EIGHTH	-0.3937
-2.8403 EIGHTY	-0.8912
-3.4571 EISENHOWER	-0.2226
-3.6433 EISENHOWER'S	-0.1833
-3.2581 ELEVEN	-0.3278
-3.9761 ELEVENTH	-0.1653
-3.6433 ELIZABETH	-0.3595
-3.2273 EMPLOYED	-0.8710
-3.4571 END	-0.6385
-3.9761 ENDING	-0.6622
-3.4571 ENGLAND	-0.3497
-3.5720 ENGLAND'S	-0.1817
-3.7286 ENGLISH	-0.8864
-3.9761 ENOUGH	-0.6621
-3.4571 ENROUTE	-1.1351
-3.4571 ENTERPRISE	-0.2856
-3.7286 ENTERPRISE'S	-0.1826
-2.6314 EQUIPMENT	-0.8995
-3.6433 EQUIPPED	-0.6615
-3.4571 ESTEEM	-0.3531
-3.6433 ESTEEM'S	-0.2644
-2.8785 ESTIMATED	-1.4029
-3.3272 ETA	-1.2643
-4.6103 ETR	-0.1809
-3.3272 EVER	-1.2663
-3.6433 EVERETT	-0.2425
-3.9761 EXPECTED	-0.6580
-3.4571 FANNING	-0.3410
-3.6433 FANNING'S	-0.2588
-3.6433 FAR	-0.9558
-3.7286 FARTHER	-0.8845
-4.6103 FARTHEST	-0.1855
-3.2273 FAST	-0.8758
-3.6433 FASTER	-0.6501
-3.8350 FASTEST	-0.1832
-2.9205 FEBRUARY	-0.8074
-3.2273 FEET	-0.8707
-3.9761 FFF088	-0.6645
-3.1716 FIFTEEN	-0.3309
-3.9761 FIFTEENTH	-0.3485
-3.8350 FIFTH	-0.2968
-3.4571 FIFTY	-0.2847
-3.9761 FIGURE	-0.6645
-3.9761 FIGURES	-0.6570
-3.8350 FIJI	-0.1625
-2.3520 FIND	-0.5277
-3.4571 FIREBUSH	-0.2711
-3.6433 FIREBUSH'S	-0.1820
-3.6433 FIRST	-0.6496
-2.6791 FIVE	-0.4033
-3.2273 FIXED	-1.0611
-3.4571 FLASHER	-0.2085
-3.6433 FLASHER'S	-0.1821
-2.3640 FLEET	-0.8958
-3.6433 FLEETS	-0.9656
-3.4571 FLINT	-0.4341
-3.6433 FLINT'S	-0.1815
-3.7286 FOOTER	-0.4018
-1.7669 FOR	-0.5768
-2.9669 FORMOSA	-1.0123
-3.2913 FORTY	-0.3346
-2.5749 FOUR	-0.4022
-3.2273 FOURTEEN	-0.3525
-3.9761 FOURTEENTH	-0.3485
-3.7286 FOURTH	-0.5704
-3.4093 FOX	-0.3215
-3.6433 FOX'S	-0.1805
-3.4571 FREDERICK	-0.2764
-3.6433 FREDERICK'S	-0.1812
-3.8350 FRENCH	-0.7894
-3.4571 FRESNO	-0.4242
-3.6433 FRESNO'S	-0.1823
-3.6433 FRIDAY	-0.6548
-3.8350 FRIDAY'S	-0.3093
-3.2273 FRIGATE	-1.0476
-4.6103 FRIGATE'S	-0.1865
-2.4068 FRIGATES	-0.8811
-4.6103 FRIGATES'S	-0.1865
-2.3681 FROM	-0.3784
-2.2595 FUEL	-1.0644
-3.3272 FULL	-0.6617
-3.9761 GALLONS	-0.6645
-3.5107 GALVESTON	-0.3037
-3.3663 GAS	-0.3805
-2.1279 GET	-0.6548
-2.2894 GIVE	-0.6087
-3.5107 GLACIER	-0.4783
-3.5720 GLACIER'S	-0.1832
-4.1864 GNOMONIC	-0.1870
-3.1462 GO	-1.1332
-3.0778 GOING	-1.2021
-3.4571 GONE	-1.1351
-3.7286 GREAT	-0.8863
-2.8527 GREATER	-1.7269
-3.5720 GREATEST	-0.7289
-3.4093 GREEN	-0.5735
-3.7286 GRID	-0.1797
-3.4571 GRIDLEY	-0.5364
-3.6433 GRIDLEY'S	-0.1828
-3.6433 GRILL	-0.9656
-3.2273 GROSS	-1.0617
-3.9761 GROUP	-0.6640
-3.8350 GROUPS	-0.1742
-3.5107 GUARDFISH	-0.3894
-3.5720 GUARDFISH'S	-0.1834
-3.5107 GUITARRO	-0.4730
-3.5720 GUITARRO'S	-0.1826
-2.4347 GULF	-2.1315
-3.2273 HAD	-0.4953
-3.7286 HALF	-0.2650
-3.7286 HARBOR	-0.2785
-3.0995 HARPOON	-0.5165
-2.5190 HAS	-0.4775
-3.6433 HASN'T	-0.2436
-2.1888 HAVE	-0.6933
-3.6433 HAVEN'T	-0.6636
-3.4571 HAWKBILL	-0.5243
-3.6433 HAWKBILL'S	-0.1802
-4.6103 HE	-0.1845
-4.6103 HE'S	-0.1871
-3.4571 HECTOR	-0.4326
-3.6433 HECTOR'S	-0.1817
-3.5107 HEPBURN	-0.2402
-3.6433 HEPBURN'S	-0.1805
-2.7424 HER	-0.7157
-3.9761 HERS	-0.6645
-3.4571 HFDF	-1.1411
-3.3663 HIGH	-0.9274
-3.1986 HIGHER	-0.7707
-4.1864 HIGHEST	-0.4870
-4.6103 HIM	-0.1874
-3.3663 HIS	-0.5267
-2.6791 HOME	-1.6000
-3.7286 HOMER	-0.2611
-3.8350 HONG-KONG	-0.4853
-3.6433 HONOLULU	-0.2624
-2.9205 HOOKED	-1.1840
-3.4571 HORNE	-0.3433
-3.6433 HORNE'S	-0.1672
-3.2273 HOUR	-0.6234
-2.7051 HOURS	-1.1641
-1.9877 HOW	-1.4413
-2.5430 HUNDRED	-1.0689
-3.6433 ICE-NINE	-0.6600
-4.6103 ID	-0.1874
-3.7286 IDENTIFICATION	-0.5630
-3.3272 IDENTIFICATIONS	-0.9581
-3.0188 IF	-0.2874
-1.4714 IN	-1.0958
-3.6433 INCLUDE	-0.2654
-3.9761 INCLUDED	-0.6645
-3.9761 INCLUDING	-0.1872
-3.6433 INCREASE	-0.6416
-3.8350 INCREASED	-0.3101
-3.4571 INCREASING	-0.8177
-3.5107 INDEPENDENCE	-0.3006
-3.6433 INDEPENDENCE'S	-0.1833
-3.0008 INDIAN	-1.5838
-3.8350 INDONESIA	-0.3086
-3.9761 INFORMATION	-0.6570
-3.4571 INSTALLED	-0.6577
-3.9761 INSTEAD	-0.6496
-3.9761 INSUFFICIENT	-0.6580
-3.6433 INVOLVED	-0.9656
-3.3272 INVOLVING	-0.2428
-3.4571 IRONWOOD	-0.5278
-3.6433 IRONWOOD'S	-0.1822
-1.6518 IS	-0.5833
-3.3272 ISLANDS	-0.5637
-3.9761 ISN'T	-0.1870
-2.6546 IT	-0.8758
-4.6103 IT'S	-0.1871
-3.7286 ITS	-0.2808
-2.9354 JANUARY	-0.7988
-2.9835 JAPAN	-0.4467
-3.4571 JARRETT	-0.4396
-3.5720 JARRETT'S	-0.1824
-3.4571 JARVIS	-0.4334
-3.6433 JARVIS'S	-0.1823
-3.4571 JASON	-0.4288
-3.6433 JASON'S	-0.1832
-2.9060 JULY	-1.0731
-2.9354 JUNE	-0.8673
-3.4571 JUPITER	-0.4360
-3.6433 JUPITER'S	-0.2637
-3.4571 KENNEDY	-0.2797
-3.6433 KENNEDY'S	-0.1828
-3.7286 KILOMETER	-0.5685
-3.1462 KILOMETERS	-0.7063
-3.5107 KIRK	-0.4784
-3.5720 KIRK'S	-0.2508
-3.4571 KISKA	-0.4352
-3.6433 KISKA'S	-0.3593
-3.9761 KNOT	-0.6645
-2.7142 KNOTS	-1.2533
-3.5107 KODIAK	-0.3809
-3.8350 KOREA	-0.3091
-3.0573 KOREAN	-1.5293
-3.1716 LAMPS	-0.6278
-3.6433 LANTFLT	-0.2493
-4.1864 LARGE	-0.4787
-3.2913 LARGER	-0.9958
-3.4093 LARGEST	-0.8834
-2.1675 LAST	-0.6918
-3.6433 LAT	-0.6430
-3.8350 LAT-LON	-0.3100
-3.9761 LAT-LONS	-0.1641
-3.6433 LATER	-0.9610
-2.9835 LATEST	-0.5544
-2.6963 LATITUDE	-1.2762
-2.9354 LATITUDES	-1.3348
-3.8350 LATS	-0.4745
-3.7286 LEAST	-0.5826
-3.5107 LEFT	-1.0905
-3.2273 LENGTH	-0.7520
-3.6433 LENGTHS	-0.9592
-3.6433 LENINGRAD	-0.3331
-2.7941 LESS	-1.4839
-2.8785 LETTER	-1.7052
-3.3663 LETTERS	-0.7493
-3.6433 LEVEL	-0.6582
-3.6433 LEVELS	-0.9581
-3.1222 LINK-11	-0.5570
-2.2377 LIST	-0.4801
-3.4571 LOCATED	-1.1267
-2.6876 LOCATION	-0.7180
-2.9669 LOCATIONS	-0.7153
-3.4571 LOCKWOOD	-0.1763
-3.6433 LOCKWOOD'S	-0.2604
-4.1864 LON	-0.1852
-2.7832 LONG	-0.8676
-3.4571 LONGER	-0.8330
-3.6433 LONGEST	-0.3475
-2.6963 LONGITUDE	-0.6599
-2.9508 LONGITUDES	-0.6832
-3.9761 LONS	-0.3495
-3.4093 LOW	-0.8860
-3.2581 LOWER	-0.7127
-3.4571 LOWEST	-0.6605
-3.4571 M-CODE	-0.8328
-3.6433 M-CODES	-0.9581
-3.4571 M-RATING	-0.6580
-3.6433 M-RATINGS	-0.4804
-3.0995 M1	-0.8787
-3.0778 M2	-0.7872
-3.0778 M3	-0.9004
-3.0376 M4	-0.8277
-3.0995 M5	-0.7801
-3.8350 MADAGASCAR	-0.3093
-3.9761 MADE	-0.6578
-3.2581 MAKE	-0.8300
-3.7286 MAKING	-0.3861
-3.6433 MANCHESTER	-0.3454
-3.4571 MANHATTAN	-0.5231
-3.6433 MANHATTAN'S	-0.1827
-4.1864 MANILA	-0.1805
-2.2286 MANY	-0.8512
-2.9205 MARCH	-0.8838
-3.4571 MARS	-0.5168
-3.6433 MARS'S	-0.1809
-2.9354 MAX	-0.9472
-2.6546 MAXIMUM	-1.0784
-2.9205 MAY	-0.9590
-3.4571 MCCLUSKY	-0.4375
-3.6433 MCCLUSKY'S	-0.1758
-2.2826 ME	-0.4909
-3.2913 MEASURE	-0.8167
-3.5720 MERCATOR	-0.7311
-3.4571 MERCURY	-0.3493
-3.6433 MERCURY'S	-0.1816
-3.4571 METEOR	-0.2066
-3.6433 METEOR'S	-0.1806
-3.4571 METERS	-0.6513
-3.4093 METRIC	-0.8861
-3.8350 MEXICO	-0.3087
-3.6433 MIAMI	-0.2547
-3.5107 MIDGETT	-0.6124
-3.5720 MIDGETT'S	-0.1829
-3.0995 MIDPAC	-0.3280
-3.4571 MIDPAC'S	-0.2894
-3.5107 MIDWAY	-0.2084
-3.6433 MIDWAY'S	-0.1792
-3.8350 MILE	-0.4716
-3.1462 MILES	-1.1166
-3.7286 MIND	-0.3865
-3.6433 MINUTES	-0.3614
-3.4571 MISHAWAKA	-0.5325
-3.6433 MISHAWAKA'S	-0.1837
-2.5076 MISSION	-1.1655
-3.5107 MISSIONS	-0.4813
-3.4571 MISSISSIPPI	-0.4143
-3.6433 MISSISSIPPI'S	-0.1834
-2.8785 MIW	-0.8361
-2.8921 MOB	-0.7601
-3.6433 MONDAY	-0.9656
-3.5720 MONDAY'S	-0.2352
-3.8350 MONGOLIA	-0.4848
-3.4571 MONTH	-1.1417
-3.6433 MONTH'S	-0.4853
-3.4571 MONTHS	-1.1417
-3.4571 MONTICELLO	-0.4326
-3.6433 MONTICELLO'S	-0.1856
-2.4113 MORE	-1.8617
-3.0376 MOST	-0.8441
-2.9669 MOZAMBIQUE	-0.8945
-3.3272 MUCH	-0.7861
-3.9761 N92762	-0.6580
-3.1716 NAME	-1.0953
-2.9205 NAMES	-1.1658
-3.6433 NAPLES	-0.2553
-3.4571 NASHUA	-0.3399
-3.6433 NASHUA'S	-0.1837
-3.9761 NEAR	-0.6547
-3.7286 NEARER	-0.8798
-3.7286 NEAREST	-0.2774
-3.7286 NEVER	-0.8863
-2.9835 NEW	-0.5900
-3.6433 NEW-YORK	-0.4864
-3.8350 NEW-ZEALAND	-0.4853
-3.6433 NEWCASTLE	-0.3316
-3.9761 NEWER	-0.6600
-3.9761 NEWEST	-0.1847
-3.0995 NEXT	-0.7042
-2.7523 NINE	-0.3773
-2.8785 NINETEEN	-0.6584
-3.9761 NINETEENTH	-0.3485
-3.5107 NINETY	-0.2429
-3.7286 NINTH	-0.3937
-3.2273 NO	-0.2669
-3.6433 NOME	-0.4668
-2.9060 NORTH	-0.3589
-3.9761 NORTHERN	-0.1864
-3.2273 NOT	-0.3576
-3.7286 NOVA	-0.5849
-2.9669 NOVEMBER	-0.6544
-3.3663 NOW	-1.2288
-3.0376 NTDS	-0.4879
-3.1986 NUCLEAR	-0.4837
-3.0778 NUMBER	-1.4947
-3.7286 OAKLAND	-0.2563
-2.4347 OCEAN	-0.7785
-2.9508 OCTOBER	-0.8533
-1.4703 OF	-0.5987
-3.0008 OFF	-0.6110
-3.9761 OLD	-0.6547
-4.6103 OLDER	-0.1829
-3.4093 OLDEST	-0.5814
-3.8350 OLYMPIA	-0.3058
-1.8300 ON	-0.6315
-2.4593 ONE	-0.6423
-3.4571 ONLY	-0.2707
-3.3272 OPEN	-0.7874
-2.8052 OR	-0.7344
-3.4093 ORANGE	-0.6997
-3.5107 OSGP	-0.6070
-2.7624 OVERALL	-1.2136
-2.9669 OVERLAY	-0.6180
-3.0573 OVERLAYS	-0.8242
-3.3272 PAC	-0.7870
-3.5107 PACFLT	-0.2965
-2.4964 PACIFIC	-1.7805
-3.8350 PANAMA	-0.1842
-3.1462 PARAMETER	-0.5243
-3.2913 PARAMETERS	-0.6915
-3.7286 PEARL	-0.8863
-3.4571 PEORIA	-0.4354
-3.6433 PEORIA'S	-0.1844
-3.3272 PERCENT	-0.9481
-3.0188 PERSIAN	-1.5623
-2.6791 PERSONNEL	-0.8041
-3.0573 PHILIPPINE	-1.5245
-3.8350 PHILIPPINES	-0.3086
-3.4571 PIGEON	-0.2038
-3.6433 PIGEON'S	-0.1840
-3.9761 PLH003	-0.6645
-3.4093 PLUCK	-0.3863
-3.7286 PLUCK'S	-0.1852
-3.4571 PLUNGER	-0.1734
-3.6433 PLUNGER'S	-0.2598
-3.4571 POLLACK	-0.3411
-3.6433 POLLACK'S	-0.3583
-3.8350 POLYNESIA	-0.1802
-2.3104 PORT	-1.0931
-3.2581 PORTS	-0.5462
-3.3663 POSIT	-0.2906
-2.6467 POSITION	-0.6018
-2.9205 POSITIONS	-0.7023
-3.6433 POSITS	-0.3306
-3.3663 POUGHKEEPSIE	-0.3715
-3.8350 POUGHKEEPSIE'S	-0.1849
-3.3272 POWERED	-0.5610
-3.4571 PRAIRIE	-0.2658
-3.7286 PRAIRIE'S	-0.1846
-3.0008 PRESENT	-0.6217
-3.4571 PREVIOUS	-0.5360
-2.8052 PROBLEM	-0.8003
-2.5076 PROBLEMS	-0.9332
-3.0376 PROJECTION	-1.0564
-3.6433 PROPELLED	-0.4814
-2.9669 PROPULSION	-1.0154
-3.4571 PUFFER	-0.1573
-3.5720 PUFFER'S	-0.4252
-3.6433 PUGET-1	-0.4816
-3.7286 QUARTER	-0.3924
-3.7286 QUARTERS	-0.2650
-3.5107 QUEENFISH	-0.3049
-3.5720 QUEENFISH'S	-0.4252
-3.5107 RADAR	-0.7884
-3.4571 RAMSEY	-0.2849
-3.6433 RAMSEY'S	-0.1767
-3.4571 RANGER	-0.3433
-3.5720 RANGER'S	-0.1782
-3.0188 RATED	-0.6098
-3.4571 RATHBURNE	-0.2872
-3.6433 RATHBURNE'S	-0.1775
-2.4964 RATING	-0.7838
-2.9205 RATINGS	-0.8563
-2.2227 READINESS	-0.9284
-3.9761 REASON	-0.6570
-3.5107 REASONER	-0.3900
-3.6433 REASONER'S	-0.1785
-3.9761 REASONS	-0.6570
-3.1986 RECENT	-0.5420
-3.5107 RECLAIMER	-0.3045
-3.6433 RECLAIMER'S	-0.1829
-3.4093 RED	-0.5735
-3.4571 REDEFINE	-0.6389
-3.7286 REDEFINED	-0.8860
-3.9761 REDEFINING	-0.3408
-3.3272 REDISPLAY	-0.7628
-3.0778 REDO	-1.0063
-2.5430 REDRAW	-0.8948
-3.4571 REEVES	-0.2275
-3.6433 REEVES'S	-0.1670
-3.0995 REMAINING	-1.1850
-3.9761 REMARK	-0.6581
-3.4571 REMARKS	-0.6405
-3.7286 REPAIR	-0.5713
-3.9761 REPAIRED	-0.6631
-3.9761 REPAIRING	-0.6578
-3.9761 REPLACED	-0.1647
-2.6963 REPORT	-0.7533
-2.7727 REPORTED	-0.6810
-3.6433 REPORTING	-0.3614
-2.6467 REPORTS	-0.9386
-3.4571 RESET	-0.3364
-3.0778 RESOLUTION	-0.8019
-3.6433 RESOLVED	-0.9656
-2.6390 RESOURCE	-1.1557
-3.6433 RESOURCES	-0.9506
-3.1462 REVIEW	-0.5143
-3.0573 ROSS	-1.5245
-3.5107 SACRAMENTO	-0.2826
-3.6433 SACRAMENTO'S	-0.1748
-3.8350 SAIL	-0.3056
-2.8921 SAME	-0.9006
-3.4571 SAMPLE	-0.4351
-3.6433 SAMPLE'S	-0.2569
-3.6433 SAN-DIEGO	-0.3484
-3.6433 SAN-FRAN	-0.4816
-3.5107 SASSAFRAS	-0.2982
-3.6433 SASSAFRAS'S	-0.1764
-3.6433 SATURDAY	-0.9656
-3.9761 SATURDAY'S	-0.1780
-3.8350 SAVE	-0.1861
-3.5107 SCHENECTADY	-0.2267
-3.6433 SCHENECTADY'S	-0.2634
-3.1716 SCREEN	-0.6169
-3.8350 SCREENS	-0.7895
-1.9167 SEA	-0.7942
-3.5107 SEAWOLF	-0.4728
-3.5720 SEAWOLF'S	-0.2485
-3.7286 SECOND	-0.2683
-3.8350 SECURITY	-0.1796
-2.9205 SENSOR	-0.6071
-3.6433 SENSORS	-0.9656
-2.9508 SEPTEMBER	-0.7272
-2.5683 SET	-0.6712
-3.9761 SETTING	-0.6496
-3.6433 SETTINGS	-0.9656
-2.7234 SEVEN	-0.5264
-3.2273 SEVENTEEN	-0.3565
-3.9761 SEVENTEENTH	-0.3630
-3.7286 SEVENTH	-0.1709
-3.6433 SEVENTY	-0.3595
-3.5107 SHASTA	-0.3880
-3.6433 SHASTA'S	-0.2622
-3.8350 SHE	-0.4852
-3.5720 SHE'S	-0.7310
-3.5107 SHERMAN	-0.6076
-3.6433 SHERMAN'S	-0.1841
-2.9669 SHIP	-0.6882
-1.9226 SHIPS	-1.2171
-4.6103 SHIPS'S	-0.1865
-2.0105 SHOW	-0.6579
-3.6433 SHOWING	-0.6420
-3.9761 SHOWN	-0.6496
-3.0376 SIBERIAN	-1.5438
-3.7286 SIDNEY	-0.1501
-2.6093 SINCE	-0.4009
-3.9761 SINGAPORE	-0.1837
-2.6708 SIX	-0.3943
-3.2273 SIXTEEN	-0.3586
-3.9761 SIXTEENTH	-0.3485
-3.8350 SIXTH	-0.2969
-3.5107 SIXTY	-0.2374
-2.7523 SIZE	-0.8183
-3.9761 SLOW	-0.6640
-3.4571 SLOWER	-1.1371
-3.7286 SLOWEST	-0.1829
-3.1462 SLQ-32	-0.5835
-4.6103 SMALL	-0.1776
-3.4571 SMALLER	-0.8361
-3.7286 SMALLEST	-0.5824
-3.7286 SOHO	-0.4087
-2.9669 SOLOMON	-1.3122
-3.5107 SONAR	-0.7873
-2.8403 SOON	-1.1389
-3.9761 SOONER	-0.6645
-2.9205 SOUTH	-0.2709
-3.9761 SOUTHERN	-0.1869
-4.1864 SOVIET	-0.4884
-2.2826 SPEED	-1.1360
-2.6876 SPEEDS	-0.8985
-3.1462 SPS-40	-0.6537
-3.1222 SPS-48	-0.5523
-3.1222 SQQ-23	-0.4533
-3.1462 START	-0.7385
-3.6433 STARTED	-0.9633
-3.9761 STARTING	-0.6622
-3.9761 STATES	-0.1842
-3.4571 STATION	-0.6639
-3.4571 STATUS	-0.8257
-3.4093 STEAM	-0.4828
-3.5107 STEREOGRAPHIC	-0.7891
-3.4571 STERETT	-0.2670
-3.6433 STERETT'S	-0.1690
-2.5492 STRAIT	-0.6384
-3.2273 SUB	-0.4255
-4.1864 SUB'S	-0.1859
-3.6433 SUBIC	-0.9651
-3.2581 SUBMARINE	-0.3429
-4.1864 SUBMARINE'S	-0.1863
-2.4113 SUBMARINES	-0.8650
-2.4205 SUBS	-0.8756
-3.8350 SUFFICIENT	-0.4795
-3.9761 SUMMARIZE	-0.1649
-3.5720 SUNDAY	-0.5339
-3.9761 SUNDAY'S	-0.3554
-2.7234 SUPPLIES	-0.7683
-3.4571 SUPPLY	-0.8390
-3.9761 SUPPOSED	-0.6580
-3.1462 SURFACE	-1.1346
-3.1462 SUSTAINED	-1.1385
-2.8166 SWITCH	-0.8488
-3.0008 SWITCHES	-0.9755
-3.4571 SWORDFISH	-0.3408
-3.6433 SWORDFISH'S	-0.1813
-3.7286 SYSTEM	-0.5847
-3.1462 T-LAM	-0.3799
-3.1222 TACAN	-0.6773
-3.9761 TAIWAN	-0.1837
-2.9205 TAKE	-0.2404
-3.9761 TAKEN	-0.6644
-3.1462 TASM	-0.4772
-3.2913 TEN	-0.2472
-3.9761 TENTH	-0.1713
-3.4571 TEST	-0.8405
-3.4571 TEXAS	-0.3370
-3.6433 TEXAS'S	-0.1809
-3.1462 TFCC	-0.5237
-2.9835 THAILAND	-0.4177
-1.9825 THAN	-0.4766
-1.8113 THAT	-1.4400
-1.2996 THE	-0.5552
-2.6239 THEIR	-0.8013
-3.9761 THEM	-0.6632
-2.1727 THERE	-0.9602
-3.9761 THESE	-0.6548
-3.9761 THEY	-0.6548
-3.6433 THIRD	-0.6496
-3.2581 THIRTEEN	-0.2869
-3.9761 THIRTEENTH	-0.3485
-3.9761 THIRTIETH	-0.1719
-3.0008 THIRTY	-0.4278
-3.9761 THIS	-0.1866
-4.6103 THOSE	-0.1874
-3.2913 THOUSAND	-0.6981
-3.7286 THREAT	-0.5851
-3.6433 THREATS	-0.4807
-2.5133 THREE	-0.4356
-3.5720 THURSDAY	-0.7251
-4.1864 THURSDAY'S	-0.1807
-3.5107 TICONDEROGA	-0.2212
-3.6433 TICONDEROGA'S	-0.1761
-2.5555 TIME	-1.2175
-3.6433 TIMES	-0.6570
-1.8253 TO	-0.6562
-3.0008 TODAY	-1.5854
-3.9761 TODAY'S	-0.3589
-3.5107 TOGGLE	-0.2204
-3.6433 TOGGLED	-0.9656
-3.9761 TOGGLING	-0.6643
-3.5720 TOKYO	-0.4274
-3.4571 TOMORROW	-1.1417
-3.9761 TOMORROW'S	-0.6640
-3.0188 TONKIN	-0.5337
-3.1986 TONS	-0.8970
-3.1986 TOTAL	-0.8892
-3.5720 TOWNSVILLE	-0.5390
-2.5308 TRACK	-0.9223
-2.6876 TRACKS	-0.9966
-2.6546 TRAINING	-0.7931
-3.5107 TRIPOLI	-0.1635
-3.6433 TRIPOLI'S	-0.1823
-3.5107 TRUE-VIEW	-0.7891
-3.5720 TUESDAY	-0.7251
-3.6433 TUESDAY'S	-0.4728
-3.5720 TURBINE	-0.4249
-3.0778 TURN	-0.2721
-3.9761 TURNED	-0.3566
-3.6433 TURNING	-0.6576
-3.5107 TUSCALOOSA	-0.2153
-3.6433 TUSCALOOSA'S	-0.2623
-4.1864 TWELFTH	-0.1719
-3.2913 TWELVE	-0.2493
-3.9761 TWENTIETH	-0.1720
-2.3441 TWENTY	-0.9468
-2.5683 TWO	-0.5238
-3.0778 TYPE	-0.6763
-3.9761 TYPES	-0.6645
-4.1864 UNION	-0.1843
-3.1986 UNIT	-1.0728
-3.9761 UNITED	-0.6645
-3.6433 UNTIL	-0.2621
-3.9761 UOM	-0.3625
-3.9761 UPDATE	-0.6581
-3.9761 UPDATED	-0.6635
-3.9761 UPDATES	-0.6581
-3.6433 UPGRADE	-0.6581
-3.4571 UPGRADED	-1.1352
-3.9761 USA	-0.6615
-3.6433 USE	-0.6639
-2.8654 USING	-0.7411
-3.0778 USN	-0.5395
-3.4571 VALUE	-0.8342
-3.5720 VALUES	-1.0325
-3.5107 VANCOUVER	-0.3762
-3.6433 VANCOUVER'S	-0.3605
-3.4571 VANDERGRIFT	-0.2922
-3.6433 VANDERGRIFT'S	-0.2591
-2.8403 VARIOUS	-0.9601
-3.2273 VESSEL	-0.5513
-2.3849 VESSELS	-0.9905
-3.5720 VICTORIA	-0.3242
-3.4571 VIRGINIA	-0.6492
-3.6433 VIRGINIA'S	-0.1826
-3.5107 VISUAL	-0.4857
-3.5107 WABASH	-0.2267
-3.6433 WABASH'S	-0.3583
-3.4571 WADSWORTH	-0.4360
-3.6433 WADSWORTH'S	-0.2602
-2.4395 WAS	-0.3037
-3.5720 WASN'T	-0.7311
-3.5107 WASP	-0.2905
-3.6433 WASP'S	-0.2553
-3.6433 WE	-0.9627
-3.6433 WEDNESDAY	-0.9656
-3.8350 WEDNESDAY'S	-0.1779
-3.9761 WEEK	-0.6645
-3.6433 WEEK'S	-0.4863
-3.6433 WEEKS	-0.9656
-3.6433 WELLINGTON	-0.3403
-3.2273 WENT	-1.3570
-2.2998 WERE	-0.9479
-3.2273 WEREN'T	-0.6400
-2.9205 WEST	-0.6038
-3.8350 WESTERN	-0.1863
-3.0376 WESTPAC	-0.5222
-3.4571 WESTPAC'S	-0.5292
-1.8408 WHAT	-0.9803
-3.8350 WHAT'RE	-0.4660
-2.5076 WHAT'S	-0.7708
-2.6546 WHEN	-1.3121
-3.5107 WHEN'LL	-0.2893
-3.6433 WHEN'S	-0.1643
-2.9508 WHERE	-0.7679
-3.7286 WHERE'S	-0.1867
-2.4395 WHICH	-0.6906
-3.4571 WHIPPLE	-0.2240
-3.6433 WHIPPLE'S	-0.1824
-3.1462 WHO	-0.9542
-3.9761 WHO'S	-0.6643
-3.1462 WHOSE	-0.3529
-2.9354 WHY	-1.1605
-4.6103 WHY'S	-0.1873
-3.5107 WICHITA	-0.6078
-3.6433 WICHITA'S	-0.2540
-2.5133 WILL	-0.3989
-3.5107 WILLAMETTE	-0.2393
-3.6433 WILLAMETTE'S	-0.1773
-3.5107 WINAMAC	-0.2986
-3.6433 WINAMAC'S	-0.1805
-2.8921 WINDOW	-0.7731
-3.9761 WINDOWS	-0.6645
-2.1573 WITH	-0.4893
-2.9205 WITHIN	-0.4554
-3.6433 WITHOUT	-0.2428
-3.9761 WON'T	-0.1870
-3.6433 WORSE	-0.9610
-3.6433 WORST	-0.6629
-2.9205 WOULD	-1.0388
-3.9761 WOULDN'T	-0.6636
-3.6433 YANKEE	-0.9656
-3.9761 YEAR	-0.6645
-3.9761 YEARS	-0.6632
-2.8785 YELLOW	-1.0879
-3.4093 YESTERDAY	-1.1874
-4.6103 YESTERDAY'S	-0.1858
-3.1462 YET	-1.4427
-3.3663 YORKTOWN	-0.4264
-3.8350 YORKTOWN'S	-0.3110
-3.1986 ZULU	-0.7827

\2-grams:
-0.0001 </s> <s> 
-2.4832 <s> ADD 
-1.3846 <s> ARE 
-2.7257 <s> AREN'T 
-3.9094 <s> BROOKE'S 
-2.5324 <s> CAN 
-3.0829 <s> CENTER 
-2.7257 <s> CHANGE 
-2.1048 <s> CLEAR 
-3.0829 <s> COULDN'T 
-2.3286 <s> COUNT 
-3.9094 <s> CROVL 
-2.8155 <s> DECREASE 
-2.3286 <s> DEFINE 
-2.4391 <s> DELETE 
-2.2148 <s> DID 
-2.5324 <s> DIDN'T 
-1.3997 <s> DISPLAY 
-2.0333 <s> DO 
-1.9057 <s> DOES 
-2.7257 <s> DOESN'T 
-2.5324 <s> DON'T 
-1.5946 <s> DRAW 
-2.2148 <s> EDIT 
-3.9094 <s> EQUIPMENT 
-1.4153 <s> FIND 
-1.3423 <s> GET 
-1.3525 <s> GIVE 
-3.0829 <s> HAD 
-1.9442 <s> HAS 
-2.7257 <s> HASN'T 
-3.0829 <s> HAVE 
-1.0504 <s> HOW 
-2.7257 <s> INCREASE 
-1.0222 <s> IS 
-3.0829 <s> ISN'T 
-1.4153 <s> LIST 
-2.3286 <s> MAKE 
-2.8155 <s> NEVER 
-2.7257 <s> ON 
-2.5324 <s> REDEFINE 
-2.3991 <s> REDISPLAY 
-2.1455 <s> REDO 
-1.6663 <s> REDRAW 
-2.5324 <s> RESET 
-2.2148 <s> REVIEW 
-3.9094 <s> SACRAMENTO'S 
-1.7269 <s> SET 
-1.0787 <s> SHOW 
-3.0829 <s> START 
-3.0829 <s> SUMMARIZE 
-3.9094 <s> SWORDFISH'S 
-3.3236 <s> THE 
-3.9094 <s> TICONDEROGA'S 
-2.5878 <s> TOGGLE 
-2.6513 <s> TOTAL 
-3.9094 <s> TRAINING 
-2.1455 <s> TURN 
-2.7257 <s> USE 
-2.0858 <s> WAS 
-2.0858 <s> WERE 
-2.5324 <s> WEREN'T 
-0.9108 <s> WHAT 
-2.9290 <s> WHAT'RE 
-1.5713 <s> WHAT'S 
-1.7189 <s> WHEN 
-2.5878 <s> WHEN'LL 
-2.7257 <s> WHEN'S 
-2.1904 <s> WHERE 
-2.8155 <s> WHERE'S 
-1.5491 <s> WHICH 
-2.2148 <s> WHO 
-3.0829 <s> WHO'S 
-2.7257 <s> WHOSE 
-2.0015 <s> WHY 
-3.9094 <s> WHY'S 
-2.0333 <s> WILL 
-3.0829 <s> WON'T 
-3.0829 <s> WOULDN'T 
-2.6256 A BERING 
-2.6256 A BUMP 
-2.6256 A C1 
-2.6256 A C3 
-2.6256 A C5 
-2.6256 A CARRIER 
-0.5753 A CHART 
-2.0398 A CRUISER 
-2.6256 A FRIGATE 
-2.6256 A GULF 
-2.0398 A HARPOON 
-1.5317 A KILOMETER 
-2.0398 A LINK-11 
-0.6604 A LIST 
-2.0398 A MAX 
-1.6452 A MAXIMUM 
-1.6452 A MILE 
-2.6256 A MISSION 
-1.1152 A NEW 
-2.6256 A PAC 
-1.4419 A PROBLEM 
-1.7991 A REMARK 
-2.0398 A SHIP 
-1.4419 A SPEED 
-2.0398 A SUB 
-2.6256 A SUBMARINE 
-1.7991 A SUPPLIES 
-2.6256 A T-LAM 
-2.6256 A TFCC 
-1.5317 A THOUSAND 
-2.0398 A TRAINING 
-0.1060 A42128 </s> 
-0.4635 AAW </s> 
-0.4635 AAW MISSION 
-1.1474 AAW RATING 
-1.1474 AAW READINESS 
-1.1474 AAW SINCE 
-0.4070 ABERDEEN </s> 
-1.2335 ABERDEEN HAVE 
-0.6477 ABERDEEN OR 
-0.8841 ABOARD AND 
-1.7106 ABOARD CONQUEST 
-1.7106 ABOARD DUBUQUE 
-1.7106 ABOARD FIREBUSH 
-1.7106 ABOARD JARVIS 
-1.7106 ABOARD JASON 
-1.7106 ABOARD KIRK 
-1.7106 ABOARD MERCURY 
-1.7106 ABOARD NASHUA 
-1.7106 ABOARD PEORIA 
-1.7106 ABOARD SACRAMENTO 
-0.7302 ABOARD THE 
-1.7106 ABOARD YORKTOWN 
-0.7726 ABOVE </s> 
-0.5319 ABOVE M3 
-0.7726 ABOVE THIRTY 
-1.3584 ABOVE TWELVE 
-0.8695 ADD A 
-0.8695 ADD AN 
-1.4553 ADD BOX 
-1.4553 ADD BUD-TEST 
-1.4553 ADD GRILL 
-1.4553 ADD PUGET-1 
-1.4553 ADD THE 
-1.4553 ADD YANKEE 
-0.1060 ADDED </s> 
-1.2335 ADDING BOX 
-0.6477 ADDING NEW 
-1.2335 ADDING SOHO 
-1.2335 ADDING THE 
-1.2335 ADDING YANKEE 
-0.1060 AFFECT MISSION 
-1.0602 AFTER CLEARING 
-1.3009 AFTER DECEMBER 
-1.8867 AFTER FEBRUARY 
-1.8867 AFTER FIFTEEN 
-1.8867 AFTER FOUR 
-1.3009 AFTER FOURTEEN 
-1.8867 AFTER JANUARY 
-1.8867 AFTER NINETEEN 
-1.8867 AFTER ONE 
-1.8867 AFTER SEPTEMBER 
-1.8867 AFTER SEVEN 
-1.8867 AFTER TEN 
-1.8867 AFTER THE 
-1.8867 AFTER THIRTY 
-1.8867 AFTER THREE 
-1.3009 AFTER TWELVE 
-1.0602 AFTER TWENTY 
-1.0602 AFTER TWO 
-0.5831 AGAIN IN 
-0.5831 AGAIN REDEFINING 
-0.5831 AGAIN WITH 
-0.8238 AJAX </s> 
-1.4096 AJAX DUE 
-1.4096 AJAX GOING 
-1.4096 AJAX GREATER 
-1.4096 AJAX HAD 
-1.4096 AJAX LOCATED 
-0.8238 AJAX MORE 
-1.2335 AJAX'S </s> 
-1.2335 AJAX'S CAT-2 
-1.2335 AJAX'S LAST 
-1.2335 AJAX'S PROPULSION 
-1.2335 AJAX'S TRACK 
-1.2335 AJAX'S TRAINING 
-0.2874 ALASKA </s> 
-1.7977 ALASKA HAS 
-1.2119 ALASKA HAVE 
-1.2119 ALASKA ON 
-1.7977 ALASKA SINCE 
-1.7977 ALASKA SUBMARINE 
-1.7977 ALASKA TFCC 
-1.7977 ALASKA WITH 
-1.7977 ALASKA YESTERDAY 
-0.2815 ALERT </s> 
-1.4377 ALERT BUMP 
-2.0235 ALERT CHESHIRE 
-0.6465 ALERT FOR 
-2.0235 ALERT ICE-NINE 
-1.4377 ALERT INVOLVING 
-1.4377 ALERT PAC 
-0.3320 ALERTS </s> 
-1.0427 ALERTS FOR 
-0.9528 ALERTS IN 
-1.3101 ALERTS INCLUDE 
-1.0427 ALERTS INVOLVING 
-0.9528 ALERTS WITHIN 
-0.7146 ALEXANDRIA </s> 
-1.3004 ALEXANDRIA ARE 
-1.3004 ALEXANDRIA IS 
-1.3004 ALEXANDRIA MONDAY 
-0.7146 ALEXANDRIA TO 
-1.3992 ALL ALERTS 
-2.3796 ALL C-CODES 
-2.3796 ALL CARRIERS 
-2.3796 ALL CHARTS 
-1.5531 ALL CRUISERS 
-2.3796 ALL DATA 
-2.3796 ALL DEFINITIONS 
-2.3796 ALL DEPLOYED 
-2.3796 ALL DIESEL 
-1.5531 ALL FRIGATES 
-2.3796 ALL GROUP 
-2.3796 ALL LAMPS 
-2.3796 ALL LAT-LONS 
-1.7938 ALL LATITUDE 
-1.7938 ALL LOCATIONS 
-2.3796 ALL MIDPAC 
-2.3796 ALL MISSION 
-2.3796 ALL MISSIONS 
-2.3796 ALL MONTICELLO'S 
-1.7938 ALL NTDS 
-0.8693 ALL OF 
-2.3796 ALL OVERLAYS 
-2.3796 ALL PARAMETERS 
-2.3796 ALL POSITIONS 
-2.3796 ALL REMARKS 
-1.1215 ALL SHIPS 
-2.3796 ALL SIBERIAN 
-1.7938 ALL SPEEDS 
-2.3796 ALL SPS-48 
-1.5531 ALL SUBMARINES 
-1.1959 ALL SUBS 
-1.1215 ALL THE 
-1.1959 ALL TRACKS 
-1.5531 ALL USN 
-2.3796 ALL VESSELS 
-2.3796 ALL WINDOWS 
-0.9800 AN ALERT 
-1.9605 AN AREA 
-1.3747 AN AVERAGE 
-1.9605 AN EAST 
-1.9605 AN ECONOMIC 
-0.8666 AN EQUIPMENT 
-1.1340 AN M2 
-1.1340 AN M5 
-1.1340 AN MOB 
-1.9605 AN NTDS 
-1.9605 AN OSGP 
-0.8666 AN OVERALL 
-1.3747 AN SQQ-23 
-0.4070 ANCHORAGE </s> 
-1.2335 ANCHORAGE FROM 
-0.6477 ANCHORAGE OF 
-3.0116 AND AJAX 
-3.0116 AND ALL 
-3.0116 AND ANCHORAGE 
-3.0116 AND AREAS 
-2.1851 AND AREN'T 
-2.1851 AND ARRIVAL 
-2.1851 AND ASUW 
-2.4258 AND AVERAGE 
-2.1851 AND BEAM 
-2.0312 AND BEAMS 
-2.4258 AND C-CODE 
-2.1851 AND C-CODES 
-2.0312 AND C-RATINGS 
-3.0116 AND C1 
-3.0116 AND C3 
-2.4258 AND C4 
-1.8279 AND CAPABILITIES 
-3.0116 AND CARRIERS 
-3.0116 AND CEP 
-2.4258 AND CROVL 
-2.0312 AND CURRENT 
-2.1851 AND DESTINATION 
-2.1851 AND DISPLAY 
-2.1851 AND DRAFTS 
-2.4258 AND ECONOMIC 
-1.8279 AND END 
-2.1851 AND ENDING 
-1.6346 AND ESTIMATED 
-2.1851 AND ETA 
-3.0116 AND FANNING 
-2.1851 AND FEET 
-3.0116 AND FOOTER 
-2.1851 AND FOR 
-3.0116 AND FORTY 
-2.4258 AND FOX 
-2.4258 AND FRIDAY'S 
-1.5013 AND FUEL 
-2.1851 AND FULL 
-3.0116 AND GREAT 
-3.0116 AND GRILL 
-3.0116 AND GUARDFISH 
-3.0116 AND HEPBURN 
-2.1851 AND HER 
-3.0116 AND HIS 
-2.1851 AND HOUR 
-2.1851 AND IN 
-2.4258 AND ITS 
-1.8279 AND LAST 
-3.0116 AND LATEST 
-2.1851 AND LATITUDE 
-2.4258 AND LATITUDES 
-2.1851 AND LENGTH 
-3.0116 AND LINK-11 
-2.1851 AND LOCATION 
-3.0116 AND LON 
-2.0312 AND LONG 
-0.8997 AND LONGITUDE 
-1.1523 AND LONGITUDES 
-2.1851 AND LONS 
-2.1851 AND M-RATINGS 
-3.0116 AND M3 
-3.0116 AND MAX 
-2.1851 AND MAXIMUM 
-3.0116 AND MIDWAY 
-3.0116 AND MIDWAY'S 
-2.4258 AND MONDAY'S 
-1.8279 AND NAMES 
-3.0116 AND NINETY 
-3.0116 AND NOME 
-3.0116 AND NTDS 
-3.0116 AND PORTS 
-2.1851 AND PROPULSION 
-3.0116 AND PUGET-1 
-3.0116 AND RAMSEY'S 
-2.4258 AND RANGER 
-3.0116 AND RANGER'S 
-2.4258 AND RATED 
-3.0116 AND RATHBURNE'S 
-3.0116 AND REASONER 
-3.0116 AND REASONER'S 
-2.1851 AND REASONS 
-1.8279 AND REDRAW 
-1.8279 AND RESOURCES 
-3.0116 AND SACRAMENTO'S 
-3.0116 AND SAN-FRAN 
-3.0116 AND SASSAFRAS'S 
-3.0116 AND SAVE 
-3.0116 AND SCHENECTADY'S 
-3.0116 AND SEVEN 
-3.0116 AND SLQ-32 
-2.4258 AND SOUTH 
-1.8279 AND SPEEDS 
-3.0116 AND SPS-40 
-3.0116 AND SPS-48 
-3.0116 AND STERETT 
-3.0116 AND SUBMARINES 
-3.0116 AND SUNDAY'S 
-3.0116 AND TACAN 
-3.0116 AND TASM 
-1.6900 AND THAT 
-1.3702 AND THE 
-1.1880 AND THEIR 
-3.0116 AND TOWNSVILLE 
-2.1851 AND TRACKS 
-2.4258 AND TUESDAY'S 
-2.1851 AND VARIOUS 
-3.0116 AND WASP 
-2.4258 AND WEDNESDAY'S 
-3.0116 AND WEST 
-2.1851 AND WHERE 
-1.5770 ANY ALERTS 
-2.7607 ANY C1 
-2.7607 ANY C2 
-2.7607 ANY C4 
-1.4390 ANY CARRIERS 
-2.1749 ANY CASREPS 
-1.9342 ANY CASUALTY 
-1.3836 ANY CATEGORY 
-2.7607 ANY CODAG 
-1.2137 ANY CRUISERS 
-2.7607 ANY CRUISERS'S 
-2.7607 ANY DIESEL 
-1.9342 ANY EQUIPMENT 
-2.1749 ANY FRIGATE 
-1.6668 ANY FRIGATES 
-2.7607 ANY FRIGATES'S 
-2.1749 ANY GAS 
-2.7607 ANY HARPOON 
-1.9342 ANY LAMPS 
-2.7607 ANY LINK-11 
-1.9342 ANY M2 
-1.9342 ANY MISSIONS 
-2.1749 ANY NTDS 
-2.7607 ANY NUCLEAR 
-0.9968 ANY OF 
-2.7607 ANY OLDER 
-1.9342 ANY OPEN 
-2.1749 ANY PERSONNEL 
-1.9342 ANY PROBLEM 
-1.7802 ANY PROBLEMS 
-2.7607 ANY RESOURCE 
-1.9342 ANY SHIP 
-0.8232 ANY SHIPS 
-2.7607 ANY SHIPS'S 
-1.7802 ANY SLQ-32 
-2.1749 ANY SPS-40 
-2.7607 ANY SPS-48 
-2.7607 ANY STEAM 
-2.7607 ANY SUB 
-1.3836 ANY SUBMARINES 
-1.2503 ANY SUBS 
-1.7802 ANY SUPPLIES 
-1.9342 ANY SUPPLY 
-2.1749 ANY T-LAM 
-2.1749 ANY TACAN 
-1.9342 ANY TASM 
-1.9342 ANY TFCC 
-2.1749 ANY TRAINING 
-1.9342 ANY VESSEL 
-1.5770 ANY VESSELS 
-0.1060 ANYBODY IN 
-0.2646 APALACHICOLA </s> 
-1.3584 APALACHICOLA ARE 
-1.3584 APALACHICOLA CLOSER 
-1.3584 APALACHICOLA LESS 
-1.2335 APALACHICOLA'S CAT-2 
-1.2335 APALACHICOLA'S CURRENT 
-1.2335 APALACHICOLA'S PROPULSION 
-1.2335 APALACHICOLA'S RADAR 
-1.2335 APALACHICOLA'S TRACK 
-1.2335 APALACHICOLA'S TRAINING 
-0.1477 APRIL </s> 
-1.9324 APRIL AND 
-1.9324 APRIL FIVE 
-1.3466 APRIL ONE 
-0.9520 APRIL TWENTY 
-0.0130 ARABIAN SEA 
-0.0130 ARCTIC OCEAN 
-1.3156 ARE ANY 
-2.3652 ARE AS 
-2.3652 ARE AT 
-3.1917 ARE AVERAGE 
-1.6447 ARE C1 
-1.7214 ARE C2 
-1.5795 ARE C3 
-1.7656 ARE C4 
-1.6109 ARE C5 
-2.2113 ARE CAPABLE 
-2.3652 ARE CATEGORY 
-3.1917 ARE CODAG 
-3.1917 ARE CONSTELLATION 
-2.3652 ARE CURRENTLY 
-3.1917 ARE DEPLOYED 
-3.1917 ARE DIESEL 
-3.1917 ARE ELEVEN 
-3.1917 ARE ENGLAND 
-2.3652 ARE ENROUTE 
-3.1917 ARE FANNING 
-3.1917 ARE FRIDAY'S 
-3.1917 ARE GAS 
-3.1917 ARE GREATER 
-2.6059 ARE HARPOON 
-3.1917 ARE HIGHER 
-0.3894 ARE IN 
-3.1917 ARE LAMPS 
-2.6059 ARE LESS 
-2.2113 ARE LINK-11 
-2.3652 ARE LOCATED 
-2.6059 ARE LOWER 
-2.0979 ARE M1 
-3.1917 ARE M2 
-2.0979 ARE M3 
-1.8147 ARE M4 
-3.1917 ARE MIDWAY'S 
-2.3652 ARE MISSION 
-2.3652 ARE MORE 
-2.0979 ARE NOT 
-3.1917 ARE NUCLEAR 
-2.3652 ARE ON 
-3.1917 ARE RATED 
-2.3652 ARE REPORTING 
-3.1917 ARE SATURDAY'S 
-3.1917 ARE SIXTEEN 
-2.6059 ARE SLQ-32 
-3.1917 ARE SPS-40 
-3.1917 ARE SPS-48 
-2.3652 ARE SQQ-23 
-2.6059 ARE STEAM 
-3.1917 ARE SWORDFISH 
-3.1917 ARE T-LAM 
-2.3652 ARE TASM 
-1.5229 ARE THE 
-0.7138 ARE THERE 
-3.1917 ARE TWENTY 
-3.1917 ARE WEDNESDAY'S 
-3.1917 ARE WICHITA'S 
-3.1917 ARE WILLAMETTE'S 
-3.1917 ARE WINAMAC'S 
-2.3652 ARE WITHIN 
-0.8998 AREA </s> 
-1.0545 AREA ALERT 
-1.0545 AREA ALERTS 
-2.4806 AREA BUMP 
-2.4806 AREA C2 
-2.4806 AREA C3 
-2.4806 AREA C5 
-1.6541 AREA CHANGED 
-2.4806 AREA DEGRADED 
-1.8948 AREA DOWNGRADED 
-1.6541 AREA EVER 
-1.6541 AREA GONE 
-1.6541 AREA M-RATING 
-1.6541 AREA MISSION 
-0.9703 AREA OF 
-1.8948 AREA OFF 
-2.4806 AREA ON 
-2.4806 AREA OSGP 
-2.4806 AREA PAC 
-1.6541 AREA PROBLEMS 
-0.9703 AREA RATING 
-0.9703 AREA RATINGS 
-1.8948 AREA SWITCH 
-1.8948 AREA THREAT 
-1.8948 AREA THREATS 
-0.4757 AREAS </s> 
-0.8330 AREAS ABOARD 
-0.8330 AREAS ARE 
-1.0736 AREAS OFF 
-1.6594 AREAS ON 
-1.6594 AREAS SWITCHES 
-0.3508 AREN'T DEPLOYED 
-1.5345 AREN'T ENTERPRISE 
-1.5345 AREN'T REEVES 
-1.5345 AREN'T THE 
-0.7080 AREN'T THERE 
-0.1514 ARKANSAS </s> 
-1.4096 ARKANSAS AN 
-1.4096 ARKANSAS RATED 
-1.2335 ARKANSAS'S GROSS 
-0.6477 ARKANSAS'S MOST 
-1.2335 ARKANSAS'S READINESS 
-0.6477 ARKANSAS'S TRACK 
-1.6594 AROUND BADGER 
-1.6594 AROUND BROOKE 
-1.6594 AROUND CONIFER 
-1.6594 AROUND COPELAND 
-1.6594 AROUND FOX 
-1.6594 AROUND GULF 
-1.6594 AROUND JARRETT 
-1.6594 AROUND REASONER 
-0.4757 AROUND THE 
-1.6594 AROUND VANDERGRIFT 
-1.6594 AROUND VIRGINIA 
-0.5711 ARRIVAL AT 
-1.2916 ARRIVAL FOR 
-0.6077 ARRIVAL HOUR 
-0.7410 ARRIVAL IN 
-1.2916 ARRIVAL LATER 
-0.9344 ARRIVAL TIMES 
-0.4762 ARRIVE AT 
-0.2118 ARRIVE IN 
-0.0498 ARRIVED AT 
-0.1060 ARRIVING IN 
-1.1543 ARROW AND 
-0.5685 ARROW ON 
-0.5685 ARROW SWITCH 
-2.0116 AS DOWNES'S 
-0.6346 AS FAST 
-2.0116 AS GUITARRO'S 
-2.0116 AS IRONWOOD'S 
-2.0116 AS JARVIS'S 
-2.0116 AS JASON'S 
-2.0116 AS LOCKWOOD'S 
-0.6346 AS OF 
-2.0116 AS RAMSEY'S 
-2.0116 AS RATHBURNE'S 
-2.0116 AS RECLAIMER 
-2.0116 AS SAMPLE'S 
-2.0116 AS SHASTA 
-0.9178 AS THE 
-2.0116 AS TRIPOLI'S 
-2.0116 AS TUSCALOOSA'S 
-1.2335 ASTORIA </s> 
-0.6477 ASTORIA ON 
-1.2335 ASTORIA TO 
-0.6477 ASTORIA TODAY 
-0.7901 ASUW </s> 
-1.1474 ASUW AFTER 
-1.1474 ASUW AREA 
-1.9738 ASUW CRUISERS 
-1.1474 ASUW M-RATINGS 
-0.5968 ASUW MISSION 
-1.1474 ASUW READINESS 
-1.3880 ASUW SHIPS 
-1.1474 ASUW SINCE 
-1.1603 ASW AVERAGE 
-1.1603 ASW CHOPPED 
-0.3454 ASW MISSION 
-0.8031 ASW RATING 
-1.1603 ASW SINCE 
-1.1603 ASW WILL 
-1.9868 AT ANCHORAGE 
-2.5726 AT BANGKOK 
-2.5726 AT BOMBAY 
-1.9868 AT CURRENT 
-1.9868 AT DARWIN 
-1.3889 AT DESTINATION 
-1.9868 AT DIEGO-GARCIA 
-2.5726 AT EIGHT 
-2.5726 AT EIGHTEEN 
-1.9868 AT ELEVEN 
-2.5726 AT EVERETT 
-2.5726 AT FIFTEEN 
-1.9868 AT FIVE 
-1.9868 AT FORTY 
-1.9868 AT GREATER 
-2.5726 AT HALF 
-0.8306 AT HER 
-1.3889 AT HIS 
-2.5726 AT HOMER 
-2.5726 AT ITS 
-1.9868 AT KODIAK 
-2.5726 AT LESS 
-2.5726 AT MANCHESTER 
-2.5726 AT MIAMI 
-1.7461 AT MORE 
-1.7461 AT NAPLES 
-1.7461 AT NINE 
-1.7461 AT NINETEEN 
-2.5726 AT NOME 
-1.9868 AT OLYMPIA 
-2.5726 AT ONE 
-1.4787 AT PRESENT 
-0.8087 AT SEA 
-1.7461 AT SEVEN 
-2.5726 AT SEVENTEEN 
-1.5922 AT SIX 
-2.5726 AT SIXTEEN 
-1.7461 AT THE 
-1.7461 AT THEIR 
-2.5726 AT THIRTEEN 
-2.5726 AT THREE 
-1.7461 AT TOKYO 
-2.5726 AT TOWNSVILLE 
-2.5726 AT TWENTY 
-1.5922 AT TWO 
-2.5726 AT WELLINGTON 
-1.0350 ATLANTIC CITY 
-0.3109 ATLANTIC FLEET 
-0.4340 ATLANTIC OCEAN 
-2.2188 ATLANTIC TO 
-0.1049 AUGUST </s> 
-1.9467 AUGUST NINETEENTH 
-1.3609 AUGUST OF 
-1.3609 AUGUST ONE 
-1.9467 AUGUST TWO 
-0.4070 AVAILABLE FOR 
-0.4070 AVAILABLE ON 
-1.5531 AVERAGE ASW 
-1.5531 AVERAGE C-RATING 
-0.7107 AVERAGE CRUISING 
-0.8693 AVERAGE DISPLACEMENT 
-1.1215 AVERAGE DISPLACEMENTS 
-1.0026 AVERAGE FOR 
-1.5531 AVERAGE OF 
-2.3796 AVERAGE OVERALL 
-2.3796 AVERAGE PERSONNEL 
-1.5531 AVERAGE RATING 
-0.7674 AVERAGE SPEED 
-1.1959 AVERAGE SPEEDS 
-2.3796 AVERAGE TRAINING 
-1.5531 AVERAGE UNIT 
-0.1060 BAD IS 
-1.4096 BADGER </s> 
-1.4096 BADGER AND 
-1.4096 BADGER CHANGING 
-1.4096 BADGER CHOP 
-1.4096 BADGER ENROUTE 
-1.4096 BADGER EVER 
-1.4096 BADGER GOING 
-1.4096 BADGER REPORTED 
-1.4096 BADGER WITH 
-1.2335 BADGER'S DISTANCE 
-1.2335 BADGER'S HOME 
-1.2335 BADGER'S LAST 
-1.2335 BADGER'S LOCATIONS 
-1.2335 BADGER'S OLDEST 
-1.2335 BADGER'S RATINGS 
-0.5831 BAINBRIDGE </s> 
-1.4096 BAINBRIDGE DUE 
-1.4096 BAINBRIDGE HAVE 
-1.4096 BAINBRIDGE IN 
-1.4096 BAINBRIDGE NEXT 
-1.4096 BAINBRIDGE UPGRADE 
-1.4096 BAINBRIDGE WILL 
-1.1543 BAINBRIDGE'S CASREPS 
-1.1543 BAINBRIDGE'S LAST 
-1.1543 BAINBRIDGE'S PROPULSION 
-1.1543 BAINBRIDGE'S READINESS 
-1.1543 BAINBRIDGE'S TRACK 
-0.9324 BANGKOK </s> 
-0.9324 BANGKOK AFTER 
-0.9324 BANGKOK THE 
-0.3278 BARGE </s> 
-1.1543 BARGE OVERLAY 
-1.1543 BARGE TURNING 
-0.0124 BASS STRAIT 
-0.5808 BAY </s> 
-1.9025 BAY ALERT 
-1.9025 BAY AT 
-1.9025 BAY FIVE 
-1.9025 BAY HAS 
-0.6444 BAY HAVE 
-1.3167 BAY ON 
-1.9025 BAY SEPTEMBER 
-1.9025 BAY SHIPS 
-1.9025 BAY THAT 
-1.9025 BAY TO 
-1.9025 BAY VESSEL 
-1.3167 BAY WITH 
-1.5209 BE AT 
-1.1637 BE CHOPPING 
-1.5209 BE COUNTING 
-0.7352 BE FIXED 
-0.5238 BE IN 
-1.5209 BE ON 
-1.5209 BE REPAIRED 
-1.5209 BE REPAIRING 
-1.1637 BE RESOLVED 
-1.5209 BE THERE 
-0.9704 BE UPGRADED 
-0.5831 BEAM AND 
-0.5831 BEAM OF 
-0.5831 BEAM SMALLER 
-0.5831 BEAMS AND 
-0.5831 BEAMS FOR 
-0.5831 BEAMS OF 
-0.9511 BEEN AT 
-0.9511 BEEN CHANGED 
-0.5938 BEEN DEPLOYED 
-0.9511 BEEN DOWNGRADED 
-0.9511 BEEN EMPLOYED 
-0.9511 BEEN IN 
-1.8355 BEFORE BAINBRIDGE 
-1.8355 BEFORE EIGHT 
-1.2497 BEFORE FEBRUARY 
-1.8355 BEFORE FOURTEEN 
-1.8355 BEFORE HORNE 
-1.0091 BEFORE LAST 
-1.8355 BEFORE NINE 
-1.8355 BEFORE NOVEMBER 
-1.8355 BEFORE ONE 
-1.8355 BEFORE SEVEN 
-1.8355 BEFORE SEVENTEEN 
-1.8355 BEFORE THE 
-1.8355 BEFORE TWELFTH 
-1.8355 BEFORE TWELVE 
-0.6518 BEFORE TWENTY 
-1.8355 BEFORE WILLAMETTE 
-1.2335 BELOW FIVE 
-1.2335 BELOW FORTY 
-1.2335 BELOW NINETY 
-1.2335 BELOW POUGHKEEPSIE'S 
-1.2335 BELOW PRAIRIE'S 
-1.2335 BELOW THE 
-0.3228 BERING SEA 
-0.3038 BERING STRAIT 
-0.4553 BETTER </s> 
-1.2335 BETWEEN DOWNES 
-1.2335 BETWEEN GLACIER 
-1.2335 BETWEEN KIRK 
-1.2335 BETWEEN RAMSEY 
-1.2335 BETWEEN THE 
-1.2335 BETWEEN WHIPPLE 
-0.8238 BIDDLE </s> 
-1.4096 BIDDLE BEEN 
-1.4096 BIDDLE CHOP 
-1.4096 BIDDLE HAVE 
-1.4096 BIDDLE NEXT 
-1.4096 BIDDLE NUCLEAR 
-1.4096 BIDDLE ON 
-1.4096 BIDDLE TO 
-1.2335 BIDDLE'S DESTINATION 
-1.2335 BIDDLE'S DISPLACEMENT 
-1.2335 BIDDLE'S EQUIPMENT 
-1.2335 BIDDLE'S HOME 
-1.2335 BIDDLE'S LATITUDE 
-1.2335 BIDDLE'S SUPPLIES 
-0.0124 BISMARK SEA 
-0.6477 BOMBAY </s> 
-0.6477 BOMBAY EVER 
-1.2335 BOMBAY FROM 
-1.2335 BOMBAY TO 
-1.2335 BOTH HARPOON 
-1.2335 BOTH LAMPS 
-1.2335 BOTH NTDS 
-1.2335 BOTH SLQ-32 
-1.2335 BOTH T-LAM 
-1.2335 BOTH TFCC 
-0.1396 BOX </s> 
-1.2335 BOX TURNING 
-0.6625 BRIGHT GREEN 
-0.6625 BRIGHT ORANGE 
-0.6625 BRIGHT RED 
-0.6625 BRIGHT YELLOW 
-0.0770 BRITISH SOLOMON 
-0.4291 BROOKE </s> 
-1.4096 BROOKE EQUIPPED 
-1.4096 BROOKE EXPECTED 
-1.4096 BROOKE ON 
-1.4096 BROOKE USING 
-1.4096 BROOKE WITHIN 
-1.2335 BROOKE'S DISTANCE 
-1.2335 BROOKE'S EARLIEST 
-1.2335 BROOKE'S FUEL 
-1.2335 BROOKE'S LAST 
-1.2335 BROOKE'S OLDEST 
-1.2335 BROOKE'S RATINGS 
-0.2258 BRUNSWICK </s> 
-1.4096 BRUNSWICK AT 
-1.4096 BRUNSWICK IN 
-1.4096 BRUNSWICK THAN 
-1.2335 BRUNSWICK'S </s> 
-1.2335 BRUNSWICK'S CAT-2 
-1.2335 BRUNSWICK'S ECONOMIC 
-1.2335 BRUNSWICK'S HFDF 
-1.2335 BRUNSWICK'S PROBLEMS 
-1.2335 BRUNSWICK'S TRACK 
-0.4070 BUD-TEST </s> 
-1.2335 BUD-TEST AND 
-0.6477 BUD-TEST OVERLAY 
-0.4739 BUMP </s> 
-0.7146 BUMP ALERT 
-0.7146 BUMP AREA 
-2.3530 BY APRIL 
-2.3530 BY CAMDEN 
-2.3530 BY CODAG 
-2.3530 BY CONQUEST 
-1.7671 BY DECEMBER 
-2.3530 BY DIXON 
-2.3530 BY EIGHT 
-1.7671 BY EIGHTEEN 
-2.3530 BY FIREBUSH 
-1.5265 BY FIVE 
-1.7671 BY FRESNO 
-1.5265 BY FRIDAY 
-2.3530 BY GAS 
-2.3530 BY JUPITER 
-2.3530 BY LOCKWOOD 
-2.3530 BY METEOR 
-2.3530 BY MISSISSIPPI 
-1.5265 BY MONDAY 
-1.5265 BY NEXT 
-1.5265 BY NINE 
-0.8059 BY ONE 
-1.5265 BY SATURDAY 
-2.3530 BY SEPTEMBER 
-1.7671 BY SEVEN 
-2.3530 BY SEVENTEEN 
-1.7671 BY SIX 
-1.7671 BY SIXTEEN 
-2.3530 BY STEAM 
-1.5265 BY SUNDAY 
-2.3530 BY TEN 
-2.3530 BY THE 
-2.3530 BY THIRTEEN 
-2.3530 BY THREE 
-1.5265 BY THURSDAY 
-1.5265 BY TOMORROW 
-1.0948 BY TWENTY 
-2.3530 BY VANDERGRIFT 
-0.2258 C-CODE AND 
-0.5831 C-CODE OF 
-0.0498 C-CODES FOR 
-0.7080 C-RATING </s> 
-0.7080 C-RATING AND 
-0.7080 C-RATING DURING 
-0.7080 C-RATING FOR 
-0.0292 C-RATINGS FOR 
-0.5291 C1 </s> 
-1.9994 C1 ARE 
-1.9994 C1 CARRIERS 
-1.4136 C1 EQUIPMENT 
-1.9994 C1 FRIGATES 
-0.6224 C1 ON 
-1.9994 C1 OR 
-1.4136 C1 SHIPS 
-1.4136 C1 SUBMARINES 
-1.4136 C1 SUBS 
-1.9994 C1 THAT 
-1.9994 C1 TO 
-1.9994 C1 TRAINING 
-0.3746 C2 </s> 
-1.9868 C2 AND 
-1.9868 C2 BY 
-1.4010 C2 CRUISERS 
-0.7287 C2 ON 
-0.8929 C2 SHIPS 
-1.9868 C2 SUBMARINES 
-1.9868 C2 SUPPLIES 
-1.9868 C2 TO 
-0.5291 C3 </s> 
-1.9994 C3 AND 
-1.9994 C3 ARE 
-1.9994 C3 BY 
-1.9994 C3 CARRIERS 
-1.9994 C3 CROVL 
-1.9994 C3 FRIGATES 
-1.9994 C3 JANUARY 
-0.5732 C3 ON 
-1.9994 C3 OR 
-1.9994 C3 PERSONNEL 
-1.4136 C3 SHIPS 
-1.9994 C3 SUBMARINES 
-1.9994 C3 SUBS 
-1.9994 C3 THAT 
-0.4186 C4 </s> 
-1.9994 C4 CARRIERS 
-1.4136 C4 CRUISERS 
-1.9994 C4 EQUIPMENT 
-1.9994 C4 NINE 
-0.7413 C4 ON 
-1.9994 C4 OR 
-1.4136 C4 SHIPS 
-1.9994 C4 SUBMARINES 
-1.0190 C4 SUBS 
-1.9994 C4 TO 
-0.4501 C5 </s> 
-1.9605 C5 AND 
-1.9605 C5 ARE 
-1.9605 C5 BY 
-1.1340 C5 CRUISERS 
-0.5343 C5 ON 
-1.9605 C5 PERSONNEL 
-1.9605 C5 SHIPS 
-1.9605 C5 SUPPLIES 
-1.9605 C5 THAT 
-1.0574 CALEDONIA </s> 
-1.0574 CALEDONIA TO 
-1.0574 CALEDONIA USING 
-1.0574 CALEDONIA WITH 
-0.1756 CALIFORNIA </s> 
-1.8171 CALIFORNIA ADDING 
-1.8171 CALIFORNIA CONVENTIONAL 
-1.8171 CALIFORNIA CRUISERS 
-1.2312 CALIFORNIA THAT 
-1.8171 CALIFORNIA TO 
-1.8171 CALIFORNIA WENT 
-0.5831 CAMDEN </s> 
-1.4096 CAMDEN BEEN 
-1.4096 CAMDEN CHOPPED 
-1.4096 CAMDEN DATED 
-1.4096 CAMDEN DEPLOYED 
-1.4096 CAMDEN GAS 
-1.4096 CAMDEN MADE 
-1.2335 CAMDEN'S </s> 
-1.2335 CAMDEN'S AVERAGE 
-1.2335 CAMDEN'S BEAM 
-1.2335 CAMDEN'S CASREPS 
-1.2335 CAMDEN'S HFDF 
-1.2335 CAMDEN'S TRACK 
-0.5831 CAMPBELL </s> 
-1.4096 CAMPBELL ARRIVED 
-1.4096 CAMPBELL AT 
-0.5831 CAMPBELL HAVE 
-1.4096 CAMPBELL MORE 
-0.6477 CAMPBELL'S </s> 
-1.2335 CAMPBELL'S BEAM 
-1.2335 CAMPBELL'S CASUALTY 
-1.2335 CAMPBELL'S PROBLEMS 
-1.2335 CAMPBELL'S TRACK 
-1.9324 CAN CHATTAHOOCHEE 
-1.9324 CAN CONFIDENCE 
-1.9324 CAN CONSTELLATION 
-1.9324 CAN DENVER 
-1.9324 CAN DUBUQUE 
-1.9324 CAN EISENHOWER 
-1.9324 CAN ENGLAND 
-1.3466 CAN ESTEEM 
-1.9324 CAN FLASHER 
-1.3466 CAN FOX 
-1.9324 CAN HECTOR 
-1.9324 CAN JUPITER 
-1.9324 CAN KIRK 
-1.9324 CAN KISKA 
-1.9324 CAN METEOR 
-1.9324 CAN PIGEON 
-1.3466 CAN RANGER 
-0.7487 CAN THE 
-1.9324 CAN TRIPOLI'S 
-1.9324 CAN TUSCALOOSA'S 
-1.9324 CAN WASP 
-1.9324 CAN WHIPPLE 
-1.0574 CANADA </s> 
-1.0574 CANADA CENTERING 
-0.4716 CANADA WITH 
-0.3763 CAPABILITIES </s> 
-1.0602 CAPABILITIES DOES 
-1.0602 CAPABILITIES FOR 
-1.0602 CAPABILITIES INCLUDE 
-1.0602 CAPABILITIES OF 
-1.0602 CAPABILITIES THAT 
-0.2258 CAPABILITY </s> 
-0.5831 CAPABILITY IN 
-0.7693 CAPABLE </s> 
-1.6374 CAPABLE ARE 
-2.4639 CAPABLE CARRIER 
-1.2802 CAPABLE CARRIERS 
-1.8781 CAPABLE CRUISER 
-1.0869 CAPABLE CRUISERS 
-1.8781 CAPABLE FRIGATE 
-1.1423 CAPABLE FRIGATES 
-0.8517 CAPABLE OF 
-1.6374 CAPABLE SHIP 
-0.7450 CAPABLE SHIPS 
-1.6374 CAPABLE SUBMARINES 
-1.3701 CAPABLE SUBS 
-2.4639 CAPABLE VESSEL 
-1.2058 CAPABLE VESSELS 
-0.1060 CAPACITIES </s> 
-0.3519 CAPACITY </s> 
-1.4484 CAPACITY AND 
-1.4484 CAPACITY FOR 
-1.4484 CAPACITY GREATER 
-1.0912 CAPACITY IN 
-1.4484 CAPACITY LARGER 
-1.4484 CAPACITY LESS 
-0.7645 CAPACITY OF 
-1.4484 CAPACITY OR 
-0.8593 CARRIER </s> 
-1.6858 CARRIER HAS 
-0.3641 CARRIER IN 
-1.6858 CARRIER IS 
-1.6858 CARRIER RATED 
-0.8593 CARRIER WASN'T 
-0.7564 CARRIER'S HOME 
-0.7564 CARRIER'S POSITIONS 
-0.9850 CARRIERS </s> 
-1.8695 CARRIERS AND 
-1.1337 CARRIERS ARE 
-2.4553 CARRIERS CHOPPED 
-2.4553 CARRIERS DEPLOYED 
-2.4553 CARRIERS DURING 
-2.4553 CARRIERS EMPLOYED 
-1.6288 CARRIERS HAVE 
-0.6706 CARRIERS IN 
-2.4553 CARRIERS RATED 
-0.4162 CARRIERS THAT 
-2.4553 CARRIERS TWENTY 
-1.6288 CARRIERS WERE 
-1.8695 CARRIERS WHOSE 
-2.4553 CARRIERS WILL 
-1.8695 CARRIERS WITH 
-2.4553 CARRIERS WITHIN 
-0.9324 CARRY LINK-11 
-0.9324 CARRY SQQ-23 
-0.9324 CARRY TASM 
-1.3004 CASREP </s> 
-0.7146 CASREP BE 
-1.3004 CASREP DID 
-1.3004 CASREP FROM 
-1.3004 CASREP LATER 
-1.3004 CASREP RATED 
-1.4096 CASREPED A 
-0.8238 CASREPED ANY 
-1.4096 CASREPED BEFORE 
-0.8238 CASREPED BY 
-0.8238 CASREPED EQUIPMENT 
-1.4096 CASREPED SINCE 
-0.5269 CASREPS </s> 
-1.1248 CASREPS ARE 
-1.7106 CASREPS DATED 
-0.8841 CASREPS FOR 
-0.7302 CASREPS FROM 
-1.7106 CASREPS OF 
-1.7106 CASREPS WORSE 
-0.4008 CASUALTY REPORT 
-0.2300 CASUALTY REPORTS 
-1.2335 CAT-2 CASREPS 
-0.4070 CAT-2 CASUALTY 
-0.6477 CAT-2 PROBLEMS 
-1.2335 CAT-3 CASREPS 
-0.4070 CAT-3 CASUALTY 
-1.2335 CAT-3 PROBLEM 
-1.2335 CAT-3 PROBLEMS 
-0.3466 CAT-4 EQUIPMENT 
-0.9324 CAT-4 TRAINING 
-0.1060 CATEGORIES FOR 
-0.6286 CATEGORY FOUR 
-0.4164 CATEGORY THREE 
-0.5097 CATEGORY TWO 
-0.4070 CENTER </s> 
-0.4070 CENTER IT 
-0.0292 CENTERED AROUND 
-0.1060 CENTERING IT 
-1.1543 CEP AND 
-1.1543 CEP PARAMETER 
-0.5685 CEP SWITCH 
-1.1543 CEP SWITCHES 
-1.1917 CHANGE ALERT 
-0.9511 CHANGE AREA 
-1.1917 CHANGE EQUIPMENT 
-0.9511 CHANGE FLEETS 
-1.1917 CHANGE OVERALL 
-0.7971 CHANGE READINESS 
-1.7775 CHANGE SUPPLIES 
-0.9511 CHANGE THAT 
-1.7775 CHANGE THE 
-1.7106 CHANGED EQUIPMENT 
-0.5269 CHANGED ON 
-1.7106 CHANGED OVERALL 
-0.8841 CHANGED READINESS 
-0.7302 CHANGED SINCE 
-1.1248 CHANGED TODAY 
-1.7106 CHANGED TRAINING 
-0.1060 CHANGING FLEETS 
-0.1756 CHANNEL </s> 
-1.8171 CHANNEL ALERT 
-1.8171 CHANNEL AND 
-1.8171 CHANNEL CAPABLE 
-1.8171 CHANNEL CONVENTIONAL 
-1.8171 CHANNEL TURNING 
-1.8171 CHANNEL USING 
-1.8171 CHANNEL WITH 
-1.9448 CHART ADDING 
-1.9448 CHART AGAIN 
-1.3451 CHART CENTERED 
-1.9448 CHART DELETING 
-2.1855 CHART DISPLAY 
-1.9448 CHART DISPLAYING 
-2.7713 CHART INCREASING 
-0.1975 CHART OF 
-1.9448 CHART ON 
-1.9448 CHART PARAMETER 
-2.1855 CHART PARAMETERS 
-1.5876 CHART PROJECTION 
-2.1855 CHART SCREEN 
-1.5876 CHART SWITCH 
-1.7909 CHART SWITCHES 
-1.9448 CHART USING 
-1.0074 CHART WITH 
-0.1060 CHARTS </s> 
-0.5831 CHATTAHOOCHEE </s> 
-1.4096 CHATTAHOOCHEE BE 
-1.4096 CHATTAHOOCHEE GET 
-1.4096 CHATTAHOOCHEE HAS 
-1.4096 CHATTAHOOCHEE HAVE 
-1.4096 CHATTAHOOCHEE POWERED 
-1.4096 CHATTAHOOCHEE REPORTING 
-1.1543 CHATTAHOOCHEE'S </s> 
-1.1543 CHATTAHOOCHEE'S BEAM 
-1.1543 CHATTAHOOCHEE'S PROBLEMS 
-1.1543 CHATTAHOOCHEE'S PROPULSION 
-1.1543 CHATTAHOOCHEE'S TRACK 
-0.3200 CHESHIRE </s> 
-1.3004 CHESHIRE ALERT 
-1.3004 CHESHIRE AREA 
-1.3004 CHESHIRE THREAT 
-0.0789 CHINA SEA 
-0.9220 CHINA WITH 
-0.5938 CHOP FROM 
-0.1654 CHOP TO 
-0.8049 CHOPPED FROM 
-0.1211 CHOPPED TO 
-0.0498 CHOPPING TO 
-1.1543 CIRCLE AND 
-1.1543 CIRCLE ON 
-1.1543 CIRCLE SWITCH 
-1.1543 CIRCLE SWITCHES 
-1.1543 CIRCLE TOGGLED 
-0.6288 CITRUS </s> 
-1.4553 CITRUS DUE 
-1.4553 CITRUS GOING 
-1.4553 CITRUS HAD 
-1.4553 CITRUS HAVE 
-0.8695 CITRUS MORE 
-1.4553 CITRUS REPORT 
-1.1543 CITRUS'S </s> 
-1.1543 CITRUS'S CURRENT 
-1.1543 CITRUS'S EARLIEST 
-1.1543 CITRUS'S PROBLEMS 
-1.1543 CITRUS'S PROPULSION 
-0.4070 CITY </s> 
-1.2335 CITY AT 
-1.2335 CITY DURING 
-1.2335 CITY ON 
-0.9906 CLEAR ALL 
-1.8171 CLEAR CHART 
-1.8171 CLEAR CHARTS 
-1.2312 CLEAR DATA 
-1.2312 CLEAR DISPLAY 
-1.2312 CLEAR OVERLAYS 
-1.8171 CLEAR SCREEN 
-1.8171 CLEAR SCREENS 
-0.4400 CLEAR THE 
-1.8171 CLEAR WINDOWS 
-0.0604 CLEARED </s> 
-1.2335 CLEARING GRILL 
-0.4070 CLEARING OVERLAYS 
-1.2335 CLEARING PUGET-1 
-1.2335 CLEARING SAN-FRAN 
-0.3615 CLEVELAND </s> 
-1.4553 CLEVELAND ARE 
-1.4553 CLEVELAND ARRIVE 
-0.8695 CLEVELAND HAVE 
-1.4553 CLEVELAND NEARER 
-1.0574 CLEVELAND'S CURRENT 
-1.0574 CLEVELAND'S DISTANCE 
-1.0574 CLEVELAND'S MOST 
-1.0574 CLEVELAND'S PROPULSION 
-0.0498 CLOSE IS 
-0.3130 CLOSER THAN 
-0.4029 CLOSER TO 
-0.0242 CLOSEST TO 
-0.4716 CODAG </s> 
-1.0574 CODAG POWERED 
-1.0574 CODAG PROPELLED 
-0.2258 CODE FOR 
-1.4096 CODE JULY 
-1.4096 CODE ON 
-1.4096 CODE TWENTY 
-0.0325 CODES FOR 
-0.7080 COLOR FOR 
-0.1575 COLOR OF 
-0.1060 COMPARED TO 
-0.5831 CONFIDENCE </s> 
-1.4096 CONFIDENCE BEEN 
-1.4096 CONFIDENCE CHOP 
-1.4096 CONFIDENCE CHOPPED 
-1.4096 CONFIDENCE DIESEL 
-1.4096 CONFIDENCE NEXT 
-1.4096 CONFIDENCE NINE 
-1.1543 CONFIDENCE'S AAW 
-1.1543 CONFIDENCE'S ARRIVAL 
-1.1543 CONFIDENCE'S DISTANCE 
-1.1543 CONFIDENCE'S PRESENT 
-1.1543 CONFIDENCE'S THREATS 
-0.1514 CONIFER </s> 
-1.4096 CONIFER IN 
-1.4096 CONIFER THAN 
-1.1543 CONIFER'S ARRIVAL 
-1.1543 CONIFER'S CURRENT 
-1.1543 CONIFER'S DISTANCE 
-1.1543 CONIFER'S LAST 
-1.1543 CONIFER'S PRESENT 
-1.4096 CONQUEST </s> 
-1.4096 CONQUEST ARRIVED 
-0.8238 CONQUEST BE 
-0.8238 CONQUEST HAVE 
-1.4096 CONQUEST LAST 
-1.4096 CONQUEST MORE 
-1.4096 CONQUEST THAT 
-1.2335 CONQUEST'S DESTINATION 
-1.2335 CONQUEST'S EQUIPMENT 
-0.6477 CONQUEST'S LAST 
-1.2335 CONQUEST'S OVERALL 
-1.2335 CONQUEST'S POSITION 
-0.7726 CONSTANT </s> 
-0.5319 CONSTANT BE 
-1.3584 CONSTANT BEEN 
-1.3584 CONSTANT CHOPPED 
-1.3584 CONSTANT TO 
-0.6477 CONSTANT'S LAST 
-1.2335 CONSTANT'S LOCATION 
-1.2335 CONSTANT'S PROPULSION 
-1.2335 CONSTANT'S TO 
-1.2335 CONSTANT'S TRAINING 
-0.8238 CONSTELLATION </s> 
-0.8238 CONSTELLATION AND 
-1.4096 CONSTELLATION ARRIVE 
-1.4096 CONSTELLATION GO 
-1.4096 CONSTELLATION LAST 
-1.4096 CONSTELLATION MARCH 
-1.4096 CONSTELLATION MORE 
-1.3004 CONSTELLATION'S C1 
-1.3004 CONSTELLATION'S FUEL 
-1.3004 CONSTELLATION'S GROSS 
-0.7146 CONSTELLATION'S LAST 
-1.3004 CONSTELLATION'S MAX 
-1.3004 CONSTELLATION'S TRACK 
-0.0604 CONVENTIONAL SURFACE 
-0.0770 COOK ISLANDS 
-1.4096 COPELAND </s> 
-1.4096 COPELAND DOWNGRADE 
-1.4096 COPELAND EVER 
-1.4096 COPELAND FARTHER 
-1.4096 COPELAND HAVE 
-1.4096 COPELAND ON 
-1.4096 COPELAND SUPPOSED 
-1.4096 COPELAND THE 
-1.4096 COPELAND UPDATED 
-0.6477 COPELAND'S FUEL 
-1.2335 COPELAND'S MOST 
-1.2335 COPELAND'S OLDEST 
-1.2335 COPELAND'S RATINGS 
-1.2335 COPELAND'S VISUAL 
-0.0110 CORAL SEA 
-1.2335 COULD DUBUQUE 
-1.2335 COULD ENTERPRISE 
-1.2335 COULD GLACIER 
-1.2335 COULD PLUNGER 
-1.2335 COULD THE 
-1.2335 COULD VIRGINIA 
-0.9324 COULDN'T CLEVELAND 
-0.9324 COULDN'T DIXON 
-0.9324 COULDN'T MISSISSIPPI 
-1.0156 COUNT ALL 
-0.0911 COUNT THE 
-0.1060 COUNTED </s> 
-0.1060 COUNTING ONLY 
-0.7726 CROVL </s> 
-0.7726 CROVL FOR 
-0.3780 CROVL OF 
-0.1060 CROVLS AND 
-0.6510 CRUISER </s> 
-0.2053 CRUISER IN 
-1.6314 CRUISER RATED 
-0.7564 CRUISER'S ESTIMATED 
-0.7564 CRUISER'S LOCATIONS 
-1.1928 CRUISERS </s> 
-1.6245 CRUISERS AND 
-0.9807 CRUISERS ARE 
-1.8651 CRUISERS AT 
-2.4510 CRUISERS CAPABLE 
-2.4510 CRUISERS CHOPPED 
-1.4705 CRUISERS DEPLOYED 
-2.4510 CRUISERS DUE 
-2.4510 CRUISERS EMPLOYED 
-2.4510 CRUISERS HAVE 
-0.6463 CRUISERS IN 
-2.4510 CRUISERS LONGER 
-2.4510 CRUISERS RATED 
-0.4597 CRUISERS THAT 
-1.8651 CRUISERS WENT 
-1.6245 CRUISERS WERE 
-2.4510 CRUISERS WHOSE 
-2.4510 CRUISERS WITH 
-0.4553 CRUISERS'S SUPPLIES 
-0.0692 CRUISING SPEED 
-1.1248 CRUISING SPEEDS 
-1.2821 CURRENT AREA 
-1.5227 CURRENT EQUIPMENT 
-1.5227 CURRENT LATITUDE 
-1.5227 CURRENT LOCATION 
-1.2821 CURRENT OVERALL 
-2.1085 CURRENT PERSONNEL 
-1.5227 CURRENT POSITION 
-1.2821 CURRENT READINESS 
-0.3665 CURRENT SPEED 
-1.1281 CURRENT SPEEDS 
-1.5227 CURRENT SUPPLIES 
-2.1085 CURRENT TRAINING 
-0.0498 CURRENTLY IN 
-0.5319 DALE </s> 
-1.3584 DALE HAVE 
-1.3584 DALE IN 
-0.7726 DALE LAST 
-1.3584 DALE TO 
-1.2335 DALE'S </s> 
-1.2335 DALE'S ALERTS 
-1.2335 DALE'S ASUW 
-1.2335 DALE'S CURRENT 
-1.2335 DALE'S LAST 
-1.2335 DALE'S MAXIMUM 
-0.3278 DARWIN </s> 
-1.1543 DARWIN IN 
-1.1543 DARWIN YESTERDAY 
-0.8116 DATA </s> 
-1.5973 DATA AND 
-1.5973 DATA CHANGE 
-1.5973 DATA DELETED 
-1.5973 DATA DISPLAYED 
-0.3847 DATA FOR 
-1.5973 DATA FROM 
-1.5973 DATA INCLUDED 
-1.5973 DATA NEWER 
-0.9976 DATA SCREEN 
-1.8380 DATA SCREENS 
-1.5973 DATA SHOWN 
-1.5973 DATA WINDOW 
-0.6518 DATE AND 
-0.3252 DATE FOR 
-0.6518 DATE ON 
-0.7080 DATED EARLIER 
-1.5345 DATED FOUR 
-1.5345 DATED MARCH 
-1.5345 DATED ONE 
-1.5345 DATED SEPTEMBER 
-1.5345 DATED SIX 
-1.5345 DATED SIXTH 
-0.7080 DATED TWENTY 
-0.2544 DATES FOR 
-0.8049 DATES OF 
-0.8049 DATES ON 
-0.5319 DAVIDSON </s> 
-1.3584 DAVIDSON BE 
-1.3584 DAVIDSON CHANGE 
-1.3584 DAVIDSON DIESEL 
-1.3584 DAVIDSON HAVE 
-1.3584 DAVIDSON REPORTED 
-0.7146 DAVIDSON'S FUEL 
-0.7146 DAVIDSON'S LAST 
-1.3004 DAVIDSON'S LAT 
-1.3004 DAVIDSON'S MAX 
-1.3004 DAVIDSON'S VISUAL 
-0.4070 DAY COULD 
-0.4070 DAY IS 
-0.5831 DAYS SOONER 
-0.2258 DAYS WOULD 
-0.1060 DDD992 IN 
-0.1605 DECEMBER </s> 
-1.9025 DECEMBER EIGHTEEN 
-1.9025 DECEMBER NINETEENTH 
-1.9025 DECEMBER ONE 
-1.9025 DECEMBER SECOND 
-1.9025 DECEMBER SEVEN 
-1.9025 DECEMBER SIXTEENTH 
-1.9025 DECEMBER TENTH 
-1.9025 DECEMBER THIRD 
-0.3278 DECREASE LETTER 
-0.5685 DECREASE THE 
-0.0423 DECREASED BY 
-0.3466 DECREASING LETTER 
-0.9324 DECREASING THE 
-0.0423 DEFAULT VALUES 
-0.0151 DEFAULTS </s> 
-0.6210 DEFINE A 
-0.6210 DEFINE AN 
-0.7750 DEFINE AREA 
-0.7750 DEFINE THE 
-0.1060 DEFINED TO 
-0.1060 DEFINING TIME 
-0.0325 DEFINITION OF 
-0.4070 DEFINITIONS INVOLVING 
-0.4070 DEFINITIONS OF 
-0.1060 DEGRADATION </s> 
-0.1060 DEGRADATIONS AND 
-0.5319 DEGRADE </s> 
-0.5319 DEGRADE FROM 
-0.7726 DEGRADE ON 
-0.9109 DEGRADED IN 
-0.5163 DEGRADED ON 
-1.4967 DEGRADED SEVENTH 
-1.4967 DEGRADED SIX 
-0.6702 DEGRADED TO 
-0.1060 DEGRADING </s> 
-0.7080 DEGREES EAST 
-1.5345 DEGREES FORTY 
-1.5345 DEGREES NORTH 
-1.5345 DEGREES SEVENTEEN 
-1.5345 DEGREES SEVENTY 
-1.5345 DEGREES SIXTEEN 
-0.9487 DEGREES SOUTH 
-1.5345 DEGREES THIRTEEN 
-1.5345 DEGREES THIRTY 
-1.4967 DELETE ALL 
-0.6702 DELETE ANY 
-1.4967 DELETE LOCATION 
-1.4967 DELETE MISSIONS 
-1.4967 DELETE POSITION 
-1.4967 DELETE THE 
-1.4967 DELETE VANDERGRIFT'S 
-1.4967 DELETE WADSWORTH'S 
-1.4967 DELETE WHIPPLE'S 
-0.1060 DELETED </s> 
-1.2335 DELETING HFDF 
-0.6477 DELETING SONAR 
-0.4070 DELETING THE 
-0.5831 DENVER </s> 
-1.4096 DENVER BEEN 
-1.4096 DENVER GET 
-1.4096 DENVER HAVE 
-1.4096 DENVER REPORT 
-0.8238 DENVER TO 
-1.2335 DENVER'S DISPLACEMENT 
-0.6477 DENVER'S LAST 
-1.2335 DENVER'S LATEST 
-1.2335 DENVER'S PROPULSION 
-1.2335 DENVER'S TO 
-0.8417 DEPLOYED </s> 
-1.3923 DEPLOYED AFTER 
-1.3923 DEPLOYED AS 
-1.3923 DEPLOYED BEFORE 
-2.2188 DEPLOYED FIVE 
-0.6066 DEPLOYED IN 
-2.2188 DEPLOYED JANUARY 
-1.1249 DEPLOYED ON 
-2.2188 DEPLOYED ONE 
-0.7084 DEPLOYED SINCE 
-2.2188 DEPLOYED SIXTEEN 
-2.2188 DEPLOYED SUBS 
-2.2188 DEPLOYED THIRTY 
-1.6329 DEPLOYED TWENTY 
-0.5831 DEPLOYMENT DATE 
-0.2258 DEPLOYMENT DATES 
-0.5831 DEPLOYMENTS DURING 
-0.2258 DEPLOYMENTS OF 
-0.6477 DEPTH GREATER 
-0.2530 DEPTH LESS 
-0.9324 DEPTHS GREATER 
-0.3466 DEPTHS LESS 
-0.5990 DESTINATION </s> 
-1.3847 DESTINATION ARRIVAL 
-1.0275 DESTINATION AT 
-1.3847 DESTINATION BY 
-0.8342 DESTINATION FOR 
-2.2112 DESTINATION NOVEMBER 
-0.7009 DESTINATION OF 
-1.6254 DESTINATION ON 
-1.3847 DESTINATION THE 
-1.3847 DESTINATION YET 
-0.4477 DESTINATIONS </s> 
-0.4477 DESTINATIONS AND 
-0.8049 DESTINATIONS FOR 
-1.2821 DID ANY 
-1.5227 DID ASUW 
-2.1085 DID BADGER 
-2.1085 DID CITRUS 
-2.1085 DID CONQUEST 
-2.1085 DID DALE 
-2.1085 DID DALE'S 
-2.1085 DID DAVIDSON 
-2.1085 DID EISENHOWER 
-2.1085 DID FIREBUSH 
-2.1085 DID GUARDFISH 
-2.1085 DID GUITARRO 
-2.1085 DID KENNEDY 
-2.1085 DID KIRK 
-2.1085 DID MIDGETT 
-1.2821 DID MOB 
-1.5227 DID PEORIA'S 
-1.5227 DID PIGEON'S 
-2.1085 DID PLUCK 
-2.1085 DID PLUCK'S 
-2.1085 DID QUEENFISH 
-2.1085 DID RECLAIMER'S 
-2.1085 DID REEVES 
-2.1085 DID SACRAMENTO 
-2.1085 DID SCHENECTADY 
-2.1085 DID SEAWOLF 
-2.1085 DID SHERMAN 
-0.7315 DID THE 
-2.1085 DID WABASH 
-2.1085 DID YORKTOWN 
-1.4096 DIDN'T BAINBRIDGE 
-1.4096 DIDN'T COPELAND 
-1.4096 DIDN'T ENGLAND 
-0.8238 DIDN'T PUFFER 
-0.5831 DIDN'T THE 
-1.4096 DIDN'T TRIPOLI 
-0.2530 DIEGO-GARCIA </s> 
-1.2335 DIEGO-GARCIA BY 
-1.2335 DIEGO-GARCIA TO 
-1.4967 DIESEL </s> 
-1.4967 DIESEL INSTEAD 
-1.4967 DIESEL OR 
-1.4967 DIESEL POWERED 
-1.4967 DIESEL PROPELLED 
-1.4967 DIESEL SHIPS 
-0.6702 DIESEL SURFACE 
-0.9109 DIESEL VESSELS 
-0.6402 DIM GREEN 
-0.6402 DIM ORANGE 
-0.6402 DIM RED 
-0.7536 DIM YELLOW 
-1.1202 DISPLACEMENT </s> 
-1.1202 DISPLACEMENT AND 
-1.1202 DISPLACEMENT GREATER 
-0.7630 DISPLACEMENT IN 
-1.1202 DISPLACEMENT LARGER 
-1.1202 DISPLACEMENT LESS 
-0.5205 DISPLACEMENT OF 
-0.7080 DISPLACEMENTS </s> 
-0.3508 DISPLACEMENTS FOR 
-0.9487 DISPLACEMENTS GREATER 
-1.5345 DISPLACEMENTS LESS 
-1.3889 DISPLAY </s> 
-0.7490 DISPLAY A 
-2.5726 DISPLAY AJAX'S 
-2.5726 DISPLAY ALL 
-2.5726 DISPLAY APALACHICOLA'S 
-2.5726 DISPLAY BRUNSWICK'S 
-1.4787 DISPLAY CHART 
-2.5726 DISPLAY CONFIDENCE'S 
-2.5726 DISPLAY CONIFER'S 
-2.5726 DISPLAY DENVER'S 
-2.5726 DISPLAY DIXON'S 
-2.5726 DISPLAY DOWNES'S 
-2.5726 DISPLAY DUBUQUE'S 
-2.5726 DISPLAY FANNING'S 
-2.5726 DISPLAY FRENCH 
-2.5726 DISPLAY HAWKBILL'S 
-2.5726 DISPLAY HEPBURN'S 
-1.9868 DISPLAY INCREASING 
-2.5726 DISPLAY LATITUDES 
-1.7461 DISPLAY LENGTHS 
-2.5726 DISPLAY LOCATIONS 
-2.5726 DISPLAY METEOR'S 
-1.9868 DISPLAY MIDGETT'S 
-2.5726 DISPLAY MISHAWAKA'S 
-2.5726 DISPLAY MISSISSIPPI'S 
-2.5726 DISPLAY MONTICELLO'S 
-2.5726 DISPLAY NEW 
-2.5726 DISPLAY OFF 
-2.5726 DISPLAY ON 
-2.5726 DISPLAY ONLY 
-2.5726 DISPLAY OVERLAYS 
-2.5726 DISPLAY PARAMETER 
-2.5726 DISPLAY PLUNGER'S 
-2.5726 DISPLAY POLLACK'S 
-2.5726 DISPLAY POSITIONS 
-2.5726 DISPLAY POSITS 
-1.7461 DISPLAY SPEED 
-1.9868 DISPLAY SWITCH 
-2.5726 DISPLAY THAILAND 
-0.4904 DISPLAY THE 
-1.9868 DISPLAY TRACK 
-1.4787 DISPLAY TRACKS 
-2.5726 DISPLAY VIRGINIA'S 
-1.9868 DISPLAY WINDOW 
-0.4070 DISPLAYED </s> 
-0.4070 DISPLAYED IN 
-0.1060 DISPLAYING THE 
-0.0192 DISTANCE FROM 
-0.4291 DIXON </s> 
-0.8238 DIXON ARRIVE 
-0.8238 DIXON HAVE 
-1.4096 DIXON IN 
-1.2335 DIXON'S DISPLACEMENT 
-1.2335 DIXON'S LATEST 
-0.6477 DIXON'S LENGTH 
-1.2335 DIXON'S PROPULSION 
-1.2335 DIXON'S TO 
-1.1543 DMDS PARAMETERS 
-0.1739 DMDS SWITCHES 
-0.1921 DO ANY 
-1.8867 DO FLASHER'S 
-1.3009 DO GUITARRO'S 
-1.8867 DO HAWKBILL'S 
-1.3009 DO THE 
-1.0602 DO WE 
-2.1629 DOES BAINBRIDGE 
-2.1629 DOES BIDDLE 
-2.1629 DOES CAMPBELL 
-2.1629 DOES CLEVELAND 
-2.1629 DOES CONQUEST 
-2.1629 DOES COPELAND 
-2.1629 DOES DALE 
-2.1629 DOES DENVER 
-1.3364 DOES DIXON 
-2.1629 DOES DOWNES 
-2.1629 DOES EISENHOWER 
-2.1629 DOES FREDERICK 
-1.5771 DOES FRESNO 
-2.1629 DOES HECTOR 
-2.1629 DOES HORNE 
-1.3364 DOES INCLUDING 
-2.1629 DOES KENNEDY 
-2.1629 DOES LOCKWOOD 
-1.5771 DOES MCCLUSKY 
-2.1629 DOES MERCURY 
-2.1629 DOES MISSISSIPPI 
-2.1629 DOES MONTICELLO 
-2.1629 DOES PIGEON 
-2.1629 DOES POUGHKEEPSIE 
-2.1629 DOES RAMSEY 
-2.1629 DOES RECLAIMER 
-2.1629 DOES SASSAFRAS 
-2.1629 DOES SHASTA 
-2.1629 DOES SHERMAN 
-0.7859 DOES THE 
-2.1629 DOES VANCOUVER 
-2.1629 DOES VANDERGRIFT 
-1.5771 DOES WADSWORTH 
-2.1629 DOES WASP 
-2.1629 DOES WHIPPLE 
-2.1629 DOES WILLAMETTE 
-1.2335 DOESN'T CHATTAHOOCHEE 
-1.2335 DOESN'T CITRUS 
-1.2335 DOESN'T CLEVELAND 
-1.2335 DOESN'T DAVIDSON 
-1.2335 DOESN'T THE 
-1.2335 DOESN'T WADSWORTH 
-0.5831 DON'T END 
-0.5831 DON'T SHOW 
-0.5831 DON'T WE 
-0.5319 DOWNES </s> 
-1.3584 DOWNES AND 
-1.3584 DOWNES CHOP 
-1.3584 DOWNES HAVE 
-1.3584 DOWNES IN 
-1.3584 DOWNES WITHIN 
-1.3004 DOWNES'S </s> 
-0.7146 DOWNES'S FUEL 
-1.3004 DOWNES'S LAST 
-1.3004 DOWNES'S POSITION 
-1.3004 DOWNES'S RADAR 
-1.3004 DOWNES'S TRACK 
-0.4739 DOWNGRADE FOR 
-0.3200 DOWNGRADE ON 
-1.4967 DOWNGRADED FEBRUARY 
-1.4967 DOWNGRADED IN 
-0.3130 DOWNGRADED ON 
-0.6702 DOWNGRADED YET 
-0.7080 DRAFT </s> 
-0.9487 DRAFT GREATER 
-0.3508 DRAFT LARGER 
-1.5345 DRAFT LESS 
-0.4070 DRAFTS FOR 
-0.4070 DRAFTS OF 
-0.7716 DRAW A 
-0.8083 DRAW CHART 
-2.3186 DRAW CHINA 
-2.3186 DRAW DALE'S 
-2.3186 DRAW ENGLAND'S 
-2.3186 DRAW FIREBUSH'S 
-2.3186 DRAW FLINT'S 
-2.3186 DRAW FREDERICK'S 
-1.7328 DRAW GULF 
-2.3186 DRAW HEPBURN'S 
-2.3186 DRAW JARRETT'S 
-2.3186 DRAW MONGOLIA 
-1.4922 DRAW ON 
-2.3186 DRAW PUFFER'S 
-2.3186 DRAW SACRAMENTO'S 
-2.3186 DRAW TEXAS'S 
-0.5997 DRAW THE 
-1.3382 DRAW TRACK 
-1.2248 DRAW TRACKS 
-2.3186 DRAW WASP'S 
-2.3186 DRAW WEST 
-2.3186 DRAW WESTERN 
-0.2258 DUBUQUE </s> 
-1.4096 DUBUQUE AND 
-1.4096 DUBUQUE ARRIVE 
-1.4096 DUBUQUE GET 
-1.2335 DUBUQUE'S ASW 
-1.2335 DUBUQUE'S DISPLACEMENT 
-1.2335 DUBUQUE'S LATEST 
-0.6477 DUBUQUE'S LENGTH 
-1.2335 DUBUQUE'S OLDEST 
-0.0242 DUE IN 
-1.7341 DURING EIGHT 
-0.7536 DURING JULY 
-1.1483 DURING LAST 
-1.7341 DURING MARCH 
-0.9076 DURING OCTOBER 
-0.4759 DURING THE 
-1.7341 DURING TWENTY 
-0.7080 EACH </s> 
-1.5345 EACH ARCTIC 
-1.5345 EACH CARRIER 
-0.9487 EACH CRUISER 
-1.5345 EACH EASTPAC 
-0.9487 EACH FRIGATE 
-1.5345 EACH SHIP 
-1.5345 EACH SOUTH 
-0.0292 EARLIER THAN 
-0.5831 EARLIEST CASREP 
-0.8238 EARLIEST CASUALTY 
-1.4096 EARLIEST DATE 
-1.4096 EARLIEST DEGRADATION 
-1.4096 EARLIEST DEPLOYMENT 
-1.4096 EARLIEST POSITS 
-0.1060 EARLY CAN 
-0.3555 EAST </s> 
-1.9025 EAST AND 
-1.9025 EAST ATLANTIC 
-1.3167 EAST BERING 
-1.9025 EAST BISMARK 
-1.9025 EAST CHINA 
-1.9025 EAST HONG-KONG 
-1.9025 EAST OF 
-1.9025 EAST PACIFIC 
-1.0760 EAST PERSIAN 
-1.3167 EAST SIBERIAN 
-1.9025 EAST SOLOMON 
-0.9324 EASTERN MEXICO 
-0.9324 EASTERN PHILIPPINES 
-0.9324 EASTERN USA 
-0.2672 EASTPAC </s> 
-1.7775 EASTPAC ADDING 
-1.7775 EASTPAC DECEMBER 
-1.7775 EASTPAC FIVE 
-1.7775 EASTPAC SHIP 
-1.7775 EASTPAC SHIPS 
-0.9511 EASTPAC THAT 
-1.7775 EASTPAC WENT 
-1.4096 EASTPAC'S CRUISERS 
-1.4096 EASTPAC'S FRIGATES 
-0.4291 EASTPAC'S SHIPS 
-1.4096 EASTPAC'S SUBS 
-0.8238 EASTPAC'S VESSELS 
-0.1060 ECG041 </s> 
-1.0574 ECHO </s> 
-1.0574 ECHO AND 
-1.0574 ECHO ON 
-1.0574 ECHO SWITCH 
-0.1871 ECONOMIC SPEED 
-0.5504 ECONOMIC SPEEDS 
-1.7106 EDIT ARABIAN 
-1.7106 EDIT CHESHIRE 
-1.7106 EDIT DALE'S 
-1.7106 EDIT ICE-NINE 
-1.7106 EDIT LATITUDE 
-1.7106 EDIT LOCATION 
-1.7106 EDIT OSGP 
-1.7106 EDIT SACRAMENTO'S 
-0.4525 EDIT THE 
-1.7106 EDIT TICONDEROGA'S 
-1.7106 EDIT WILLAMETTE'S 
-1.7106 EDIT WINAMAC'S 
-1.2335 EDITED LAT 
-0.6477 EDITED POSITION 
-0.4070 EDITED TODAY 
-0.9324 EDITING LOCATION 
-0.9324 EDITING POSITION 
-0.9324 EDITING THE 
-2.1181 EIGHT ALERTS 
-1.2916 EIGHT AUGUST 
-2.1181 EIGHT C3 
-2.1181 EIGHT CARRIERS 
-2.1181 EIGHT DAYS 
-2.1181 EIGHT DECEMBER 
-2.1181 EIGHT DEGREES 
-2.1181 EIGHT FEBRUARY 
-2.1181 EIGHT FRIGATES 
-2.1181 EIGHT HOURS 
-1.1376 EIGHT HUNDRED 
-1.5323 EIGHT KNOTS 
-1.5323 EIGHT LATITUDES 
-1.5323 EIGHT MARCH 
-1.2916 EIGHT MAY 
-1.5323 EIGHT MONTHS 
-2.1181 EIGHT NORTH 
-1.2916 EIGHT NOVEMBER 
-1.2916 EIGHT OCTOBER 
-2.1181 EIGHT POSITS 
-2.1181 EIGHT SHIPS 
-2.1181 EIGHT SOUTH 
-1.2916 EIGHT SUBMARINES 
-1.5323 EIGHT SUBS 
-2.1181 EIGHT THOUSAND 
-1.2916 EIGHT WEEKS 
-1.6858 EIGHTEEN </s> 
-1.6858 EIGHTEEN AUGUST 
-1.6858 EIGHTEEN DECEMBER 
-1.6858 EIGHTEEN FEBRUARY 
-0.8593 EIGHTEEN HUNDRED 
-1.1000 EIGHTEEN JANUARY 
-1.6858 EIGHTEEN JUNE 
-0.7053 EIGHTEEN KNOTS 
-1.6858 EIGHTEEN MILES 
-1.6858 EIGHTEEN SHIPS 
-1.6858 EIGHTEEN SOUTH 
-0.9324 EIGHTEENTH </s> 
-0.9324 EIGHTEENTH MAY 
-0.9324 EIGHTEENTH OF 
-0.5685 EIGHTH </s> 
-1.1543 EIGHTH JULY 
-0.5685 EIGHTH OF 
-0.8279 EIGHTY FIVE 
-0.7535 EIGHTY FOUR 
-2.0116 EIGHTY KILOMETERS 
-1.0312 EIGHTY ONE 
-0.8279 EIGHTY SIX 
-0.8279 EIGHTY THREE 
-0.8279 EIGHTY TWO 
-0.8238 EISENHOWER </s> 
-1.4096 EISENHOWER DUE 
-1.4096 EISENHOWER GET 
-1.4096 EISENHOWER GOING 
-1.4096 EISENHOWER HAVE 
-1.4096 EISENHOWER MORE 
-1.4096 EISENHOWER REPORT 
-1.4096 EISENHOWER TO 
-1.2335 EISENHOWER'S </s> 
-1.2335 EISENHOWER'S BEAM 
-1.2335 EISENHOWER'S EQUIPMENT 
-1.2335 EISENHOWER'S OVERALL 
-1.2335 EISENHOWER'S RATING 
-1.2335 EISENHOWER'S SUPPLIES 
-1.6015 ELEVEN </s> 
-1.0156 ELEVEN AUGUST 
-1.6015 ELEVEN FEBRUARY 
-1.0156 ELEVEN HUNDRED 
-1.6015 ELEVEN JANUARY 
-0.7750 ELEVEN KNOTS 
-1.6015 ELEVEN NORTH 
-1.6015 ELEVEN OCTOBER 
-1.6015 ELEVEN SEPTEMBER 
-1.6015 ELEVEN WEST 
-0.9324 ELEVENTH AND 
-0.9324 ELEVENTH MARCH 
-0.9324 ELEVENTH OF 
-0.4070 ELIZABETH </s> 
-1.2335 ELIZABETH AT 
-1.2335 ELIZABETH BY 
-1.2335 ELIZABETH DURING 
-0.8049 EMPLOYED </s> 
-0.4477 EMPLOYED BEFORE 
-0.4477 EMPLOYED IN 
-0.2258 END AT 
-1.4096 END THE 
-0.8238 END TIME 
-0.1060 ENDING AT 
-0.8238 ENGLAND </s> 
-0.8238 ENGLAND AND 
-0.8238 ENGLAND ARRIVE 
-1.4096 ENGLAND ARRIVING 
-1.4096 ENGLAND GO 
-1.4096 ENGLAND ON 
-1.3004 ENGLAND'S </s> 
-1.3004 ENGLAND'S CAPABILITIES 
-1.3004 ENGLAND'S ESTIMATED 
-1.3004 ENGLAND'S HOME 
-1.3004 ENGLAND'S LAST 
-1.3004 ENGLAND'S LOCATIONS 
-1.3004 ENGLAND'S REMAINING 
-0.0604 ENGLISH </s> 
-0.1060 ENOUGH FUEL 
-0.0325 ENROUTE TO 
-0.5831 ENTERPRISE </s> 
-1.4096 ENTERPRISE AND 
-1.4096 ENTERPRISE ENROUTE 
-1.4096 ENTERPRISE GET 
-1.4096 ENTERPRISE NEXT 
-1.4096 ENTERPRISE REPLACED 
-1.4096 ENTERPRISE REPORTED 
-1.1543 ENTERPRISE'S CASUALTY 
-1.1543 ENTERPRISE'S HOME 
-1.1543 ENTERPRISE'S LOCATIONS 
-1.1543 ENTERPRISE'S PROPULSION 
-1.1543 ENTERPRISE'S TRACK 
-1.0350 EQUIPMENT </s> 
-2.2188 EQUIPMENT AFTER 
-2.2188 EQUIPMENT C-CODE 
-1.3923 EQUIPMENT C-RATING 
-2.2188 EQUIPMENT CASREPS 
-1.2383 EQUIPMENT CASUALTY 
-0.8417 EQUIPMENT PROBLEM 
-1.3923 EQUIPMENT PROBLEMS 
-2.2188 EQUIPMENT RATING 
-0.4340 EQUIPMENT READINESS 
-0.9606 EQUIPMENT RESOURCE 
-0.4070 EQUIPPED </s> 
-0.4070 EQUIPPED WITH 
-0.5831 ESTEEM </s> 
-0.8238 ESTEEM CHOP 
-1.4096 ESTEEM ELEVEN 
-1.4096 ESTEEM HAVE 
-1.4096 ESTEEM NEXT 
-1.4096 ESTEEM TO 
-1.2335 ESTEEM'S ASW 
-1.2335 ESTEEM'S ESTIMATED 
-0.6477 ESTEEM'S LENGTH 
-1.2335 ESTEEM'S OLDEST 
-1.2335 ESTEEM'S VARIOUS 
-1.1474 ESTIMATED ARRIVAL 
-0.0509 ESTIMATED TIME 
-0.0242 ETA AT 
-0.4553 ETR ON 
-0.0242 EVER GO 
-0.6477 EVERETT </s> 
-1.2335 EVERETT BY 
-1.2335 EVERETT KISKA'S 
-1.2335 EVERETT NOW 
-1.2335 EVERETT THE 
-0.1060 EXPECTED TO 
-0.4291 FANNING </s> 
-1.4096 FANNING AND 
-1.4096 FANNING GONE 
-1.4096 FANNING GREATER 
-1.4096 FANNING IN 
-1.4096 FANNING LOCATED 
-1.2335 FANNING'S FUEL 
-0.6477 FANNING'S LAST 
-1.2335 FANNING'S LATITUDE 
-1.2335 FANNING'S PERCENT 
-1.2335 FANNING'S TRACK 
-0.0498 FAR IS 
-0.0604 FARTHER FROM 
-0.4553 FARTHEST FROM 
-0.2544 FAST AS 
-0.8049 FAST COULD 
-0.8049 FAST IS 
-0.4070 FASTER IS 
-0.4070 FASTER THAN 
-1.0574 FASTEST CARRIERS 
-1.0574 FASTEST ECONOMIC 
-1.0574 FASTEST SHIP 
-1.0574 FASTEST SUBS 
-0.1904 FEBRUARY </s> 
-1.3466 FEBRUARY AND 
-1.9324 FEBRUARY FOUR 
-1.9324 FEBRUARY ONE 
-1.9324 FEBRUARY SEVEN 
-1.9324 FEBRUARY THIRTEENTH 
-0.9520 FEBRUARY TWENTY 
-0.1611 FEET </s> 
-1.6314 FEET IN 
-0.8049 FEET LONG 
-0.1060 FFF088 </s> 
-1.6858 FIFTEEN AUGUST 
-1.1000 FIFTEEN FEBRUARY 
-1.1000 FIFTEEN HUNDRED 
-1.6858 FIFTEEN KILOMETERS 
-0.8593 FIFTEEN KNOTS 
-1.6858 FIFTEEN MARCH 
-1.1000 FIFTEEN MAY 
-1.6858 FIFTEEN MILES 
-1.6858 FIFTEEN OCTOBER 
-1.6858 FIFTEEN PACIFIC 
-1.6858 FIFTEEN SEPTEMBER 
-1.6858 FIFTEEN WEST 
-0.3466 FIFTEENTH </s> 
-0.9324 FIFTEENTH OF 
-0.4716 FIFTH </s> 
-1.0574 FIFTH AUGUST 
-1.0574 FIFTH OF 
-1.4096 FIFTY FOUR 
-1.4096 FIFTY FRIGATES 
-1.4096 FIFTY HOURS 
-0.5831 FIFTY KNOTS 
-1.4096 FIFTY NINE 
-1.4096 FIFTY SHIPS 
-1.4096 FIFTY TWO 
-0.1060 FIGURE </s> 
-0.1060 FIGURES FOR 
-1.0574 FIJI DEFINING 
-1.0574 FIJI IN 
-1.0574 FIJI TO 
-1.0574 FIJI WITH 
-1.6702 FIND ALL 
-1.5163 FIND ANY 
-2.4967 FIND AREA 
-2.4967 FIND AREAS 
-1.9109 FIND AVERAGE 
-2.4967 FIND C4 
-2.4967 FIND CAPABILITIES 
-2.4967 FIND CROVLS 
-1.6702 FIND CRUISERS 
-2.4967 FIND DATA 
-2.4967 FIND ESTEEM'S 
-1.9109 FIND FRIGATES 
-2.4967 FIND FULL 
-2.4967 FIND GULF 
-2.4967 FIND INDEPENDENCE'S 
-2.4967 FIND JARRETT'S 
-1.6702 FIND LAST 
-1.6702 FIND LATITUDES 
-2.4967 FIND LINK-11 
-2.4967 FIND LOCATION 
-2.4967 FIND LOCATIONS 
-2.4967 FIND M-CODES 
-0.8021 FIND ME 
-1.9109 FIND MISSION 
-2.4967 FIND MISSIONS 
-2.4967 FIND MOZAMBIQUE 
-2.4967 FIND NAMES 
-1.9109 FIND POSITION 
-1.9109 FIND POSITIONS 
-2.4967 FIND RAMSEY'S 
-2.4967 FIND SATURDAY'S 
-2.4967 FIND SENSORS 
-1.5163 FIND SHIPS 
-1.9109 FIND SPEEDS 
-2.4967 FIND SPS-40 
-2.4967 FIND SPS-48 
-1.9109 FIND SUBMARINES 
-2.4967 FIND SUBS 
-2.4967 FIND TEXAS'S 
-0.5888 FIND THE 
-2.4967 FIND TRIPOLI'S 
-2.4967 FIND TUESDAY 
-1.9109 FIND VESSELS 
-0.8238 FIREBUSH </s> 
-0.8238 FIREBUSH BE 
-1.4096 FIREBUSH HAVE 
-1.4096 FIREBUSH IS 
-1.4096 FIREBUSH LAST 
-1.4096 FIREBUSH THAT 
-1.4096 FIREBUSH TWO 
-1.2335 FIREBUSH'S ASW 
-1.2335 FIREBUSH'S ESTIMATED 
-1.2335 FIREBUSH'S LAST 
-1.2335 FIREBUSH'S OLDEST 
-1.2335 FIREBUSH'S PROPULSION 
-1.2335 FIREBUSH'S VARIOUS 
-1.2335 FIRST </s> 
-0.1396 FIRST OF 
-0.9132 FIVE </s> 
-2.1713 FIVE APRIL 
-1.5855 FIVE AUGUST 
-1.5855 FIVE DECEMBER 
-2.1713 FIVE DEGREES 
-1.3448 FIVE FEBRUARY 
-2.1713 FIVE FRIGATES 
-2.1713 FIVE HARPOON 
-1.1909 FIVE HUNDRED 
-2.1713 FIVE JANUARY 
-2.1713 FIVE JULY 
-1.5855 FIVE JUNE 
-1.1909 FIVE KNOTS 
-2.1713 FIVE LATITUDES 
-2.1713 FIVE LOCATIONS 
-1.5855 FIVE MAY 
-1.5855 FIVE MILES 
-2.1713 FIVE NORTH 
-1.5855 FIVE NOVEMBER 
-2.1713 FIVE OCTOBER 
-2.1713 FIVE PERCENT 
-2.1713 FIVE PROBLEMS 
-2.1713 FIVE SEPTEMBER 
-2.1713 FIVE SHIPS 
-2.1713 FIVE SLOWEST 
-1.5855 FIVE SUBS 
-1.5855 FIVE THOUSAND 
-2.1713 FIVE VESSELS 
-2.1713 FIVE WEEKS 
-2.1713 FIVE WORST 
-0.4477 FIXED </s> 
-0.2544 FIXED BY 
-0.8238 FLASHER </s> 
-1.4096 FLASHER AND 
-1.4096 FLASHER ARRIVE 
-1.4096 FLASHER ARRIVING 
-1.4096 FLASHER DOWNGRADE 
-1.4096 FLASHER GO 
-1.4096 FLASHER THE 
-1.4096 FLASHER UPDATED 
-1.2335 FLASHER'S </s> 
-1.2335 FLASHER'S ALERTS 
-1.2335 FLASHER'S CAT-4 
-1.2335 FLASHER'S EQUIPMENT 
-1.2335 FLASHER'S FUEL 
-1.2335 FLASHER'S MAXIMUM 
-0.4571 FLEET </s> 
-1.6582 FLEET AFTER 
-1.3908 FLEET BY 
-2.4847 FLEET CARRIER 
-2.4847 FLEET CRUISERS 
-1.3908 FLEET FROM 
-1.6582 FLEET HAVE 
-2.4847 FLEET ID 
-1.3908 FLEET IDENTIFICATION 
-0.9744 FLEET IDENTIFICATIONS 
-1.1631 FLEET IN 
-1.6582 FLEET SHIPS 
-1.8989 FLEET SOON 
-2.4847 FLEET SUBMARINE 
-2.4847 FLEET SUBS 
-1.2266 FLEET TO 
-1.3010 FLEET TODAY 
-2.4847 FLEET VESSELS 
-1.5043 FLEET YET 
-0.0498 FLEETS </s> 
-0.5831 FLINT </s> 
-0.8238 FLINT BE 
-1.4096 FLINT BEEN 
-1.4096 FLINT CHOPPED 
-0.8238 FLINT TO 
-1.2335 FLINT'S CURRENT 
-1.2335 FLINT'S ESTIMATED 
-1.2335 FLINT'S LAST 
-1.2335 FLINT'S MAX 
-1.2335 FLINT'S PROPULSION 
-1.2335 FLINT'S VARIOUS 
-1.1543 FOOTER AND 
-0.3278 FOOTER SWITCH 
-1.1543 FOOTER SWITCHES 
-1.1728 FOR ALL 
-1.3860 FOR ANY 
-3.0806 FOR APALACHICOLA'S 
-2.2542 FOR APRIL 
-3.0806 FOR ARABIAN 
-3.0806 FOR ARCTIC 
-2.4948 FOR ARKANSAS 
-3.0806 FOR ARKANSAS'S 
-2.4948 FOR ASUW 
-3.0806 FOR BADGER 
-3.0806 FOR BAINBRIDGE'S 
-2.4948 FOR BASS 
-3.0806 FOR BIDDLE 
-2.2542 FOR BROOKE 
-2.4948 FOR BRUNSWICK 
-1.8225 FOR CARRIERS 
-2.2542 FOR CHART 
-3.0806 FOR CHATTAHOOCHEE 
-3.0806 FOR CITRUS 
-2.4948 FOR CLEVELAND 
-3.0806 FOR CONFIDENCE 
-3.0806 FOR CONIFER 
-3.0806 FOR CONQUEST 
-2.4948 FOR CONSTELLATION 
-3.0806 FOR COPELAND 
-2.4948 FOR CORAL 
-1.6104 FOR CRUISERS 
-3.0806 FOR DALE 
-3.0806 FOR DAVIDSON 
-3.0806 FOR DAVIDSON'S 
-3.0806 FOR DENVER 
-3.0806 FOR DIESEL 
-3.0806 FOR DIXON 
-3.0806 FOR DOWNES 
-3.0806 FOR DOWNES'S 
-3.0806 FOR DUBUQUE 
-1.5703 FOR EACH 
-3.0806 FOR EASTPAC 
-3.0806 FOR EISENHOWER 
-3.0806 FOR ELEVENTH 
-2.4948 FOR ENGLAND 
-2.2542 FOR ENTERPRISE 
-3.0806 FOR ENTERPRISE'S 
-3.0806 FOR ESTEEM 
-3.0806 FOR FANNING 
-2.4948 FOR FANNING'S 
-3.0806 FOR FIREBUSH 
-2.4948 FOR FLASHER 
-3.0806 FOR FLINT 
-3.0806 FOR FOX 
-3.0806 FOR FREDERICK 
-2.4948 FOR FRESNO 
-1.8969 FOR FRIGATES 
-2.4948 FOR GAS 
-2.4948 FOR GLACIER 
-2.4948 FOR GRIDLEY 
-2.4948 FOR GUARDFISH 
-2.4948 FOR GUITARRO 
-2.2542 FOR GULF 
-3.0806 FOR HAWKBILL 
-3.0806 FOR HECTOR 
-2.4948 FOR HEPBURN'S 
-2.2542 FOR HER 
-1.8225 FOR HOOKED 
-3.0806 FOR HORNE 
-3.0806 FOR IRONWOOD 
-2.2542 FOR JARRETT 
-2.4948 FOR JARRETT'S 
-3.0806 FOR JARVIS 
-2.1002 FOR JASON 
-2.4948 FOR JUPITER 
-2.4948 FOR KISKA 
-2.4948 FOR LAST 
-3.0806 FOR LINK-11 
-3.0806 FOR LOCKWOOD'S 
-2.2542 FOR M5 
-2.2542 FOR MERCURY 
-2.4948 FOR METEOR 
-3.0806 FOR MIDGETT 
-3.0806 FOR MISSISSIPPI 
-2.4948 FOR MOZAMBIQUE 
-3.0806 FOR NUCLEAR 
-3.0806 FOR PEORIA 
-2.4948 FOR PIGEON 
-2.2542 FOR PLH003 
-3.0806 FOR PLUNGER 
-3.0806 FOR POLLACK 
-3.0806 FOR POUGHKEEPSIE 
-2.4948 FOR PUFFER 
-3.0806 FOR QUEENFISH 
-2.4948 FOR RAMSEY 
-3.0806 FOR RANGER 
-3.0806 FOR REASONER 
-2.4948 FOR REEVES 
-3.0806 FOR ROSS 
-3.0806 FOR SAMPLE 
-3.0806 FOR SASSAFRAS 
-3.0806 FOR SCHENECTADY 
-3.0806 FOR SEA 
-2.4948 FOR SEAWOLF 
-3.0806 FOR SEVEN 
-3.0806 FOR SHASTA'S 
-3.0806 FOR SHERMAN 
-3.0806 FOR SHERMAN'S 
-1.1431 FOR SHIPS 
-3.0806 FOR SIBERIAN 
-3.0806 FOR SLQ-32 
-2.4948 FOR SOLOMON 
-2.2542 FOR SPS-40 
-3.0806 FOR SPS-48 
-3.0806 FOR STEAM 
-2.4948 FOR STERETT 
-2.1002 FOR SUBMARINES 
-1.9868 FOR SUBS 
-2.4948 FOR SWORDFISH 
-2.1002 FOR T-LAM 
-3.0806 FOR TASM 
-2.4948 FOR TEXAS 
-2.4948 FOR TFCC 
-0.8593 FOR THE 
-2.2542 FOR THIS 
-1.7036 FOR TRACK 
-1.5703 FOR TRACKS 
-2.4948 FOR TUSCALOOSA 
-3.0806 FOR TWENTY 
-1.6545 FOR USN 
-2.4948 FOR VANCOUVER 
-1.6545 FOR VESSELS 
-2.4948 FOR VIRGINIA 
-3.0806 FOR WABASH 
-3.0806 FOR WASP 
-3.0806 FOR WASP'S 
-3.0806 FOR WHIPPLE 
-3.0806 FOR WHIPPLE'S 
-3.0806 FOR WICHITA 
-3.0806 FOR WICHITA'S 
-3.0806 FOR WILLAMETTE'S 
-2.2542 FOR WINAMAC 
-3.0806 FOR YORKTOWN 
-1.3009 FORMOSA </s> 
-1.8867 FORMOSA DELETING 
-0.0821 FORMOSA STRAIT 
-1.8867 FORMOSA WITH 
-1.5693 FORTY AND 
-1.5693 FORTY DEGREES 
-1.5693 FORTY EAST 
-0.9835 FORTY EIGHT 
-0.7428 FORTY KNOTS 
-1.5693 FORTY PERCENT 
-1.5693 FORTY SIX 
-1.5693 FORTY THREE 
-0.9835 FORTY TWO 
-0.7645 FOUR </s> 
-2.2749 FOUR APRIL 
-2.2749 FOUR BISMARK 
-1.6891 FOUR CARRIERS 
-2.2749 FOUR CASREPS 
-2.2749 FOUR CRUISERS 
-2.2749 FOUR DAYS 
-1.6891 FOUR DECEMBER 
-2.2749 FOUR DEGREES 
-2.2749 FOUR EAST 
-2.2749 FOUR FEBRUARY 
-2.2749 FOUR FRIGATES 
-2.2749 FOUR HOURS 
-1.2944 FOUR HUNDRED 
-1.4484 FOUR JUNE 
-2.2749 FOUR KILOMETERS 
-2.2749 FOUR KNOTS 
-1.6891 FOUR LATITUDES 
-2.2749 FOUR LATS 
-1.6891 FOUR LOCATIONS 
-1.6891 FOUR MARCH 
-2.2749 FOUR MAY 
-2.2749 FOUR MILES 
-2.2749 FOUR MINUTES 
-2.2749 FOUR NINETEEN 
-2.2749 FOUR NORTH 
-2.2749 FOUR NOVEMBER 
-2.2749 FOUR OCTOBER 
-2.2749 FOUR OPEN 
-2.2749 FOUR OR 
-2.2749 FOUR POSITIONS 
-1.0912 FOUR PROBLEMS 
-1.6891 FOUR SEPTEMBER 
-2.2749 FOUR SOUTH 
-2.2749 FOUR SPS-40 
-1.6891 FOUR SUBMARINES 
-2.2749 FOUR SUBS 
-2.2749 FOUR T-LAM 
-1.0456 FOURTEEN AUGUST 
-1.0456 FOURTEEN DECEMBER 
-1.6314 FOURTEEN DEGREES 
-1.6314 FOURTEEN HOURS 
-1.6314 FOURTEEN HUNDRED 
-1.0456 FOURTEEN JANUARY 
-1.6314 FOURTEEN JUNE 
-0.8049 FOURTEEN KNOTS 
-1.6314 FOURTEEN MARCH 
-1.6314 FOURTEEN SHIPS 
-0.3466 FOURTEENTH </s> 
-0.9324 FOURTEENTH OF 
-0.5685 FOURTH </s> 
-0.3278 FOURTH OF 
-0.6288 FOX </s> 
-1.4553 FOX BE 
-1.4553 FOX GET 
-0.8695 FOX GOING 
-1.4553 FOX IN 
-1.4553 FOX INCREASED 
-1.4553 FOX USING 
-1.2335 FOX'S </s> 
-1.2335 FOX'S AVERAGE 
-1.2335 FOX'S CAPABILITIES 
-1.2335 FOX'S CASUALTY 
-1.2335 FOX'S LAST 
-1.2335 FOX'S REMAINING 
-0.8238 FREDERICK </s> 
-1.4096 FREDERICK BEEN 
-1.4096 FREDERICK DISPLAYED 
-1.4096 FREDERICK GET 
-1.4096 FREDERICK HAVE 
-1.4096 FREDERICK THAT 
-0.8238 FREDERICK TO 
-1.2335 FREDERICK'S </s> 
-1.2335 FREDERICK'S CURRENT 
-1.2335 FREDERICK'S DESTINATION 
-1.2335 FREDERICK'S LAST 
-1.2335 FREDERICK'S MAXIMUM 
-1.2335 FREDERICK'S PROPULSION 
-0.0770 FRENCH POLYNESIA 
-0.3157 FRESNO </s> 
-1.4096 FRESNO ARRIVE 
-1.4096 FRESNO DATED 
-1.4096 FRESNO HAVE 
-1.4096 FRESNO IN 
-1.2335 FRESNO'S </s> 
-1.2335 FRESNO'S AVERAGE 
-1.2335 FRESNO'S CURRENT 
-1.2335 FRESNO'S DESTINATION 
-1.2335 FRESNO'S MAX 
-1.2335 FRESNO'S TRACK 
-0.4070 FRIDAY </s> 
-0.4070 FRIDAY ARE 
-1.0574 FRIDAY'S CASUALTY 
-0.4716 FRIDAY'S PROBLEMS 
-1.0574 FRIDAY'S UPDATES 
-0.6510 FRIGATE </s> 
-0.1611 FRIGATE IN 
-0.4553 FRIGATE'S HOME 
-0.9718 FRIGATES </s> 
-2.4421 FRIGATES AND 
-1.0651 FRIGATES ARE 
-2.4421 FRIGATES AT 
-2.4421 FRIGATES BEEN 
-2.4421 FRIGATES CHOPPED 
-2.4421 FRIGATES DEPLOYED 
-2.4421 FRIGATES DURING 
-2.4421 FRIGATES EMPLOYED 
-1.3482 FRIGATES HAVE 
-0.6003 FRIGATES IN 
-2.4421 FRIGATES ON 
-0.5660 FRIGATES THAT 
-1.3482 FRIGATES WERE 
-2.4421 FRIGATES WHICH 
-1.3482 FRIGATES WITH 
-2.4421 FRIGATES WITHIN 
-0.4553 FRIGATES'S PERSONNEL 
-1.6541 FROM </s> 
-1.8948 FROM ALEXANDRIA 
-2.4806 FROM APALACHICOLA 
-2.4806 FROM ARKANSAS 
-2.4806 FROM ASTORIA 
-1.6541 FROM ATLANTIC 
-2.4806 FROM BERING 
-1.8948 FROM BOMBAY 
-2.4806 FROM C1 
-2.4806 FROM C2 
-2.4806 FROM C4 
-2.4806 FROM CHESHIRE 
-2.4806 FROM CITRUS 
-2.4806 FROM CLEVELAND 
-2.4806 FROM CONSTANT 
-1.8948 FROM DIEGO-GARCIA 
-2.4806 FROM DOWNES 
-2.4806 FROM EISENHOWER 
-2.4806 FROM FIFTEEN 
-1.6541 FROM FRIDAY 
-2.4806 FROM GALVESTON 
-2.4806 FROM GLACIER 
-1.8948 FROM HER 
-1.8948 FROM HFDF 
-2.4806 FROM HIS 
-2.4806 FROM INDEPENDENCE 
-1.8948 FROM KIRK 
-2.4806 FROM KISKA 
-2.4806 FROM KODIAK 
-2.4806 FROM KOREAN 
-2.4806 FROM LANTFLT 
-1.6541 FROM LAST 
-2.4806 FROM MIAMI 
-2.4806 FROM MISSISSIPPI 
-2.4806 FROM NAPLES 
-2.4806 FROM NEW-YORK 
-2.4806 FROM NEWCASTLE 
-2.4806 FROM OSGP 
-1.8948 FROM PAC 
-2.4806 FROM PACFLT 
-1.1590 FROM PACIFIC 
-2.4806 FROM PEORIA 
-2.4806 FROM PLUCK 
-1.8948 FROM RADAR 
-2.4806 FROM RAMSEY 
-2.4806 FROM REASONER'S 
-2.4806 FROM RECLAIMER 
-2.4806 FROM SAMPLE 
-2.4806 FROM SAMPLE'S 
-1.8948 FROM SAN-DIEGO 
-2.4806 FROM SCHENECTADY 
-2.4806 FROM SEAWOLF 
-2.4806 FROM SIDNEY 
-2.4806 FROM SONAR 
-0.7860 FROM THE 
-2.4806 FROM THIRTEEN 
-2.4806 FROM TWENTY 
-1.5002 FROM VISUAL 
-2.4806 FROM WABASH 
-2.4806 FROM WESTPAC 
-2.4806 FROM WICHITA 
-2.4806 FROM WINAMAC 
-1.0785 FUEL </s> 
-1.2118 FUEL ABOARD 
-1.7624 FUEL CAPACITIES 
-0.3183 FUEL CAPACITY 
-1.7624 FUEL DOES 
-2.0030 FUEL GREATER 
-1.7624 FUEL INSUFFICIENT 
-1.7624 FUEL IS 
-1.2672 FUEL LEFT 
-2.5889 FUEL LESS 
-1.4051 FUEL LEVEL 
-1.4051 FUEL LEVELS 
-2.5889 FUEL REMAINING 
-1.7624 FUEL STATUS 
-2.5889 FUEL SUFFICIENT 
-1.7624 FUEL THAN 
-1.4051 FUEL TO 
-1.5345 FULL LAT 
-0.7080 FULL LATITUDE 
-0.9487 FULL LOCATION 
-0.3508 FULL POSITION 
-0.1060 GALLONS </s> 
-0.7726 GALVESTON </s> 
-0.7726 GALVESTON BY 
-1.3584 GALVESTON MAY 
-1.3584 GALVESTON MONDAY 
-1.3584 GALVESTON THIRD 
-1.3584 GALVESTON TO 
-1.4967 GAS </s> 
-1.4967 GAS CARRIERS 
-1.4967 GAS OR 
-0.6702 GAS POWERED 
-1.4967 GAS PROPELLED 
-1.4967 GAS SURFACE 
-0.6702 GAS TURBINE 
-1.1731 GET A 
-1.5364 GET ALL 
-1.4620 GET ANY 
-2.7201 GET ASUW 
-2.7201 GET BEAMS 
-2.7201 GET C2 
-2.7201 GET C3 
-2.7201 GET CLEVELAND'S 
-2.7201 GET CRUISERS 
-2.7201 GET DATES 
-2.7201 GET DEPLOYMENTS 
-2.7201 GET DESTINATIONS 
-2.7201 GET FRIGATES 
-1.5364 GET FROM 
-1.8937 GET FULL 
-2.7201 GET GROUP 
-2.7201 GET HEPBURN'S 
-2.7201 GET KENNEDY'S 
-2.7201 GET LAST 
-2.7201 GET LATITUDE 
-2.1343 GET LATITUDES 
-2.7201 GET LENGTH 
-2.7201 GET M-CODES 
-0.9354 GET ME 
-2.7201 GET MIW 
-2.1343 GET MOB 
-2.1343 GET NAMES 
-2.7201 GET PACFLT 
-2.7201 GET PACIFIC 
-2.7201 GET PARAMETER 
-2.7201 GET PERSIAN 
-2.7201 GET PLUNGER'S 
-2.1343 GET POSITIONS 
-2.7201 GET PUFFER'S 
-2.7201 GET RESOURCE 
-2.7201 GET SEA 
-2.7201 GET SHERMAN'S 
-1.7397 GET SHIPS 
-2.1343 GET SPEEDS 
-2.7201 GET SPS-40 
-2.7201 GET SQQ-23 
-2.1343 GET SUBMARINES 
-2.7201 GET SUNDAY 
-2.7201 GET SUNDAY'S 
-2.7201 GET SWITCH 
-0.8783 GET THE 
-2.7201 GET THREATS 
-0.6179 GET TO 
-2.7201 GET TOMORROW'S 
-1.8937 GET USN 
-2.7201 GET VESSELS 
-1.8937 GET WHERE 
-2.5591 GIVE A 
-2.5591 GIVE ALL 
-1.5787 GIVE ANY 
-2.5591 GIVE AVERAGE 
-2.5591 GIVE BAINBRIDGE'S 
-1.9733 GIVE C-RATINGS 
-2.5591 GIVE C3 
-2.5591 GIVE C5 
-1.9733 GIVE CARRIERS 
-2.5591 GIVE CHATTAHOOCHEE'S 
-1.9733 GIVE CRUISERS 
-2.5591 GIVE CURRENT 
-2.5591 GIVE FRIDAY'S 
-1.7326 GIVE FRIGATES 
-2.5591 GIVE FUEL 
-2.5591 GIVE GRIDLEY'S 
-2.5591 GIVE JASON'S 
-1.7326 GIVE LAST 
-2.5591 GIVE LATITUDES 
-1.9733 GIVE LOCATION 
-1.7326 GIVE MAX 
-0.4569 GIVE ME 
-2.5591 GIVE MONDAY'S 
-2.5591 GIVE PERCENT 
-2.5591 GIVE POSITION 
-2.5591 GIVE POSITIONS 
-1.7326 GIVE REMARKS 
-1.9733 GIVE SHIPS 
-2.5591 GIVE SPEED 
-1.9733 GIVE SPEEDS 
-1.9733 GIVE SUBS 
-2.5591 GIVE SUNDAY'S 
-2.5591 GIVE SUPPLIES 
-2.5591 GIVE T-LAM 
-2.5591 GIVE TEXAS'S 
-0.7744 GIVE THE 
-2.5591 GIVE THEIR 
-2.5591 GIVE TICONDEROGA'S 
-2.5591 GIVE TOMORROW'S 
-2.5591 GIVE TUESDAY'S 
-1.5787 GIVE VESSELS 
-0.2646 GLACIER </s> 
-1.3584 GLACIER AND 
-1.3584 GLACIER ARRIVE 
-1.3584 GLACIER GET 
-1.3004 GLACIER'S </s> 
-1.3004 GLACIER'S DESTINATION 
-1.3004 GLACIER'S ETA 
-1.3004 GLACIER'S GROSS 
-1.3004 GLACIER'S LATEST 
-1.3004 GLACIER'S MAXIMUM 
-1.3004 GLACIER'S TRACK 
-0.7564 GNOMONIC </s> 
-0.7564 GNOMONIC PROJECTION 
-0.8841 GO FROM 
-0.0984 GO TO 
-0.2672 GOING </s> 
-0.4005 GOING TO 
-0.0325 GONE TO 
-0.0604 GREAT CIRCLE 
-0.0081 GREATER THAN 
-0.2066 GREATEST FUEL 
-0.7146 GREATEST VALUE 
-0.2716 GREEN </s> 
-1.4553 GREEN FOR 
-0.8695 GREEN TRACK 
-1.4553 GREEN WITH 
-1.1543 GRID </s> 
-1.1543 GRID AND 
-1.1543 GRID OFF 
-1.1543 GRID PARAMETERS 
-1.1543 GRID SWITCH 
-0.2258 GRIDLEY </s> 
-1.4096 GRIDLEY A 
-1.4096 GRIDLEY DEGRADE 
-1.4096 GRIDLEY RATED 
-1.2335 GRIDLEY'S CAPABILITIES 
-1.2335 GRIDLEY'S CASUALTY 
-1.2335 GRIDLEY'S GROSS 
-1.2335 GRIDLEY'S MIW 
-1.2335 GRIDLEY'S REMAINING 
-1.2335 GRIDLEY'S TRACK 
-0.0498 GRILL </s> 
-0.2053 GROSS DISPLACEMENT 
-0.5376 GROSS DISPLACEMENTS 
-0.1060 GROUP NAMES 
-1.0574 GROUPS </s> 
-1.0574 GROUPS AND 
-1.0574 GROUPS ON 
-1.0574 GROUPS PARAMETERS 
-0.5319 GUARDFISH </s> 
-1.3584 GUARDFISH BE 
-1.3584 GUARDFISH CHANGE 
-0.7726 GUARDFISH GOING 
-1.3584 GUARDFISH INCREASED 
-1.3004 GUARDFISH'S </s> 
-1.3004 GUARDFISH'S ALERTS 
-1.3004 GUARDFISH'S AVERAGE 
-1.3004 GUARDFISH'S CAPABILITIES 
-1.3004 GUARDFISH'S CAT-4 
-1.3004 GUARDFISH'S ETA 
-1.3004 GUARDFISH'S MAXIMUM 
-0.2646 GUITARRO </s> 
-1.3584 GUITARRO DEGRADE 
-1.3584 GUITARRO IN 
-1.3584 GUITARRO RATED 
-1.3004 GUITARRO'S </s> 
-1.3004 GUITARRO'S ALERTS 
-1.3004 GUITARRO'S CAPABILITIES 
-1.3004 GUITARRO'S ETA 
-1.3004 GUITARRO'S FLEET 
-1.3004 GUITARRO'S LATEST 
-1.3004 GUITARRO'S MAXIMUM 
-0.0031 GULF OF 
-1.6314 HAD CAMDEN 
-1.6314 HAD ENGLAND'S 
-1.6314 HAD FOX'S 
-1.0456 HAD GRIDLEY'S 
-1.6314 HAD HORNE'S 
-0.3098 HAD THE 
-1.6314 HAD VANDERGRIFT 
-1.1543 HALF FUEL 
-1.1543 HALF HER 
-1.1543 HALF OF 
-0.5685 HALF THEIR 
-1.1543 HARBOR </s> 
-0.5685 HARBOR AFTER 
-1.1543 HARBOR AT 
-1.1543 HARBOR WITH 
-0.9299 HARPOON </s> 
-1.7564 HARPOON AND 
-1.7564 HARPOON CAPABILITY 
-0.3793 HARPOON CAPABLE 
-1.7564 HARPOON CARRIER 
-1.7564 HARPOON CARRIERS 
-1.7564 HARPOON INSTALLED 
-1.7564 HARPOON SHIPS 
-1.1705 HARPOON SUBMARINES 
-1.5039 HAS </s> 
-1.7446 HAS AAW 
-2.3304 HAS BADGER 
-2.3304 HAS BIDDLE 
-2.3304 HAS CAMDEN 
-1.7446 HAS CONFIDENCE 
-2.3304 HAS CONQUEST 
-1.7446 HAS CONSTANT 
-2.3304 HAS DAVIDSON 
-1.7446 HAS FLINT 
-2.3304 HAS FREDERICK 
-2.3304 HAS GRIDLEY'S 
-2.3304 HAS HAWKBILL 
-2.3304 HAS HORNE 
-2.3304 HAS HORNE'S 
-2.3304 HAS INDEPENDENCE 
-2.3304 HAS JASON 
-2.3304 HAS KENNEDY 
-1.7446 HAS LEAST 
-2.3304 HAS LINK-11 
-2.3304 HAS MONTICELLO 
-2.3304 HAS MOST 
-2.3304 HAS PEORIA 
-2.3304 HAS PLUCK 
-2.3304 HAS POUGHKEEPSIE 
-2.3304 HAS QUEENFISH 
-2.3304 HAS REASONER 
-2.3304 HAS RECLAIMER'S 
-2.3304 HAS REEVES'S 
-2.3304 HAS SHASTA 
-2.3304 HAS SLQ-32 
-2.3304 HAS SWORDFISH 
-2.3304 HAS TASM 
-0.3652 HAS THE 
-2.3304 HAS TICONDEROGA 
-2.3304 HAS TRIPOLI 
-1.2335 HASN'T PLUNGER 
-1.2335 HASN'T REEVES 
-1.2335 HASN'T SASSAFRAS 
-0.6477 HASN'T THE 
-1.2335 HASN'T VANCOUVER 
-1.4757 HAVE </s> 
-1.1491 HAVE A 
-0.9648 HAVE AN 
-1.1491 HAVE ANY 
-1.8330 HAVE ASUW 
-1.8330 HAVE ASW 
-2.6594 HAVE AVERAGE 
-1.4757 HAVE BEEN 
-1.4757 HAVE BOTH 
-2.6594 HAVE CASREPED 
-1.6790 HAVE CASUALTY 
-1.8330 HAVE CATEGORY 
-1.8330 HAVE CHANGED 
-1.8330 HAVE ENOUGH 
-2.6594 HAVE FOUR 
-1.8330 HAVE FUEL 
-1.8330 HAVE GONE 
-2.6594 HAVE GREATEST 
-2.0736 HAVE GROSS 
-2.0736 HAVE HARPOON 
-2.0736 HAVE LAMPS 
-2.0736 HAVE LOWEST 
-1.4757 HAVE MORE 
-1.8330 HAVE NOT 
-1.6790 HAVE NTDS 
-1.8330 HAVE ON 
-1.8330 HAVE OPEN 
-1.8330 HAVE REMAINING 
-1.5656 HAVE REPORTED 
-2.6594 HAVE SIX 
-2.6594 HAVE SLQ-32 
-2.0736 HAVE SPS-40 
-2.0736 HAVE SPS-48 
-2.6594 HAVE SQQ-23 
-1.8330 HAVE SUFFICIENT 
-2.0736 HAVE T-LAM 
-1.6790 HAVE TACAN 
-1.8330 HAVE TAKEN 
-1.8330 HAVE TEST 
-1.6790 HAVE TFCC 
-1.4757 HAVE THE 
-1.8330 HAVE TO 
-2.6594 HAVE TWO 
-1.2335 HAVEN'T CASREPED 
-0.1396 HAVEN'T REPORTED 
-0.5831 HAWKBILL </s> 
-1.4096 HAWKBILL CASREPED 
-0.8238 HAWKBILL DUE 
-0.5831 HAWKBILL IN 
-1.2335 HAWKBILL'S CAPABILITIES 
-1.2335 HAWKBILL'S ETA 
-1.2335 HAWKBILL'S FLEET 
-1.2335 HAWKBILL'S LAST 
-1.2335 HAWKBILL'S MOST 
-1.2335 HAWKBILL'S TRACK 
-0.4553 HE LAST 
-0.4553 HE'S GOING 
-0.3157 HECTOR </s> 
-1.4096 HECTOR CHOP 
-1.4096 HECTOR HAVE 
-1.4096 HECTOR NEXT 
-1.4096 HECTOR TO 
-1.2335 HECTOR'S AVERAGE 
-1.2335 HECTOR'S EARLIEST 
-1.2335 HECTOR'S FLEET 
-1.2335 HECTOR'S MAX 
-1.2335 HECTOR'S PRESENT 
-1.2335 HECTOR'S TRACK 
-0.7726 HEPBURN </s> 
-1.3584 HEPBURN ENROUTE 
-1.3584 HEPBURN EVER 
-1.3584 HEPBURN GOING 
-1.3584 HEPBURN LESS 
-1.3584 HEPBURN REPORTED 
-1.3584 HEPBURN WITH 
-1.2335 HEPBURN'S CASUALTY 
-1.2335 HEPBURN'S FUEL 
-1.2335 HEPBURN'S LATEST 
-1.2335 HEPBURN'S LONGITUDE 
-1.2335 HEPBURN'S PERCENT 
-1.2335 HEPBURN'S TRACK 
-1.1281 HER </s> 
-1.1281 HER AVERAGE 
-2.1085 HER CURRENT 
-0.4671 HER DESTINATION 
-2.1085 HER ECONOMIC 
-1.2821 HER FLEET 
-1.2821 HER FUEL 
-1.5227 HER MAX 
-1.1281 HER MAXIMUM 
-1.5227 HER PRESENT 
-1.5227 HER PREVIOUS 
-1.5227 HER REMAINING 
-2.1085 HER VARIOUS 
-0.1060 HERS </s> 
-0.0325 HFDF SENSOR 
-0.5163 HIGH </s> 
-0.2386 HIGH RESOLUTION 
-0.5656 HIGHER </s> 
-1.6594 HIGHER FOR 
-0.5656 HIGHER ON 
-0.5656 HIGHER THAN 
-0.1705 HIGHEST AVERAGE 
-0.4553 HIM </s> 
-0.3130 HIS DESTINATION 
-0.9109 HIS MAXIMUM 
-1.4967 HIS PREVIOUS 
-1.4967 HIS REMAINING 
-1.4967 HIS VARIOUS 
-0.0995 HOME PORT 
-0.7452 HOME PORTS 
-1.1543 HOMER </s> 
-1.1543 HOMER AFTER 
-1.1543 HOMER TACAN 
-0.5685 HOMER THE 
-1.0574 HONG-KONG INCREASING 
-0.2309 HONG-KONG WITH 
-1.2335 HONOLULU </s> 
-1.2335 HONOLULU APRIL 
-0.6477 HONOLULU BY 
-1.2335 HONOLULU DURING 
-1.2335 HONOLULU TWENTY 
-1.1060 HOOKED </s> 
-0.3516 HOOKED PORT 
-0.3854 HOOKED TRACK 
-0.8238 HORNE </s> 
-0.8238 HORNE DUE 
-1.4096 HORNE HAVE 
-0.8238 HORNE IN 
-1.4096 HORNE REPORTED 
-1.4096 HORNE WILL 
-1.2335 HORNE'S AVERAGE 
-1.2335 HORNE'S CASUALTY 
-1.2335 HORNE'S CAT-3 
-1.2335 HORNE'S IN 
-1.2335 HORNE'S MIW 
-1.2335 HORNE'S TRACK 
-0.8049 HOUR AT 
-0.8049 HOUR EARLIER 
-0.8049 HOUR FOR 
-0.8049 HOUR IN 
-0.8049 HOUR OF 
-0.2532 HOURS </s> 
-1.3190 HOURS FOR 
-1.0517 HOURS ON 
-1.5597 HOURS TOMORROW 
-0.6752 HOURS ZULU 
-2.0337 HOW BAD 
-1.6764 HOW CLOSE 
-2.0337 HOW EARLY 
-1.6764 HOW FAR 
-1.6764 HOW FAST 
-2.2743 HOW LARGE 
-0.9840 HOW LONG 
-0.2424 HOW MANY 
-1.3498 HOW MUCH 
-2.0337 HOW NEAR 
-2.0337 HOW OLD 
-2.0337 HOW SLOW 
-2.8602 HOW SMALL 
-0.8950 HOW SOON 
-0.8804 HUNDRED </s> 
-1.4801 HUNDRED FEET 
-2.3066 HUNDRED GALLONS 
-0.2244 HUNDRED HOURS 
-2.3066 HUNDRED LONG 
-1.4801 HUNDRED METERS 
-1.4801 HUNDRED ON 
-1.7208 HUNDRED TO 
-1.2127 HUNDRED ZULU 
-0.1396 ICE-NINE </s> 
-1.2335 ICE-NINE THAN 
-0.4553 ID </s> 
-0.5685 IDENTIFICATION </s> 
-0.3278 IDENTIFICATION THE 
-0.7080 IDENTIFICATIONS </s> 
-0.1575 IDENTIFICATIONS FOR 
-1.8355 IF AJAX 
-1.8355 IF AJAX'S 
-1.8355 IF APALACHICOLA'S 
-1.8355 IF CITRUS 
-1.8355 IF DIESEL 
-1.8355 IF ENTERPRISE 
-1.8355 IF FLASHER'S 
-1.8355 IF FOX 
-1.8355 IF GUARDFISH 
-1.8355 IF GUARDFISH'S 
-1.8355 IF GUITARRO'S 
-1.8355 IF NUCLEAR 
-1.8355 IF PLUNGER 
-1.8355 IF QUEENFISH 
-1.8355 IF RATHBURNE 
-1.0091 IF SHE 
-1.8355 IF STEAM 
-0.7417 IF THE 
-2.5495 IN </s> 
-2.5495 IN AAW 
-2.2821 IN ABERDEEN 
-2.3955 IN ALEXANDRIA 
-3.3760 IN ANCHORAGE 
-2.7902 IN APRIL 
-1.7638 IN ARABIAN 
-1.8290 IN ARCTIC 
-2.2821 IN ASTORIA 
-1.8656 IN ATLANTIC 
-3.3760 IN BANGKOK 
-1.7071 IN BASS 
-1.4999 IN BERING 
-1.9989 IN BISMARK 
-2.7902 IN BOMBAY 
-1.9498 IN BRIGHT 
-2.7902 IN CENTER 
-1.7345 IN CHINA 
-1.8290 IN CORAL 
-3.3760 IN DARWIN 
-2.7902 IN DATA 
-2.7902 IN DIEGO-GARCIA 
-2.0543 IN DIM 
-2.2821 IN EAST 
-1.7345 IN EASTPAC 
-1.8290 IN EIGHTY 
-3.3760 IN EQUIPMENT 
-2.5495 IN EVERETT 
-1.9498 IN FORMOSA 
-2.1178 IN GALVESTON 
-1.1775 IN GULF 
-2.3955 IN HIGH 
-1.4530 IN HOME 
-2.7902 IN HOMER 
-2.1923 IN HONOLULU 
-2.3955 IN HOOKED 
-1.7071 IN INDIAN 
-2.7902 IN JANUARY 
-2.5495 IN JULY 
-2.7902 IN KODIAK 
-1.7638 IN KOREAN 
-2.7902 IN LENINGRAD 
-2.5495 IN LONG 
-2.7902 IN LOW 
-2.5495 IN MANCHESTER 
-2.7902 IN MANILA 
-2.5495 IN METERS 
-2.3955 IN METRIC 
-2.7902 IN MIAMI 
-1.7951 IN MIDPAC 
-2.7902 IN MOB 
-1.9057 IN MOZAMBIQUE 
-3.3760 IN NAPLES 
-2.5495 IN NEW-YORK 
-2.7902 IN NEWCASTLE 
-1.7951 IN NINETEEN 
-3.3760 IN NOME 
-1.9989 IN NORTH 
-2.7902 IN NOVEMBER 
-2.3955 IN OAKLAND 
-3.3760 IN OLYMPIA 
-2.7902 IN PACFLT 
-1.3601 IN PACIFIC 
-2.3955 IN PEARL 
-1.9498 IN PERSIAN 
-3.3760 IN PERSONNEL 
-2.1923 IN PHILIPPINE 
-1.1472 IN PORT 
-1.7638 IN ROSS 
-2.3955 IN SAN-DIEGO 
-1.7345 IN SEA 
-2.5495 IN SEPTEMBER 
-1.9989 IN SIBERIAN 
-2.7902 IN SIDNEY 
-2.0543 IN SOLOMON 
-2.1178 IN SOUTH 
-2.2821 IN SUBIC 
-3.3760 IN SUPPLIES 
-0.8549 IN THE 
-1.9498 IN THEIR 
-2.5495 IN TOKYO 
-2.7902 IN TONS 
-2.5495 IN TOWNSVILLE 
-2.7902 IN WELLINGTON 
-1.8656 IN WEST 
-1.6570 IN WESTPAC 
-2.1923 IN WHICH 
-1.7638 IN YELLOW 
-1.2335 INCLUDE ICE-NINE 
-0.6477 INCLUDE OSGP 
-1.2335 INCLUDE SPS-40 
-1.2335 INCLUDE T-LAM 
-1.2335 INCLUDE TFCC 
-0.1060 INCLUDED </s> 
-0.9324 INCLUDING MONDAY'S 
-0.9324 INCLUDING TODAY'S 
-0.9324 INCLUDING YESTERDAY'S 
-0.1396 INCREASE LETTER 
-1.2335 INCREASE THE 
-1.0574 INCREASED BY 
-0.4716 INCREASED HER 
-1.0574 INCREASED ITS 
-0.0879 INCREASING LETTER 
-1.4096 INCREASING THE 
-0.7726 INDEPENDENCE </s> 
-0.7726 INDEPENDENCE BE 
-1.3584 INDEPENDENCE BEEN 
-1.3584 INDEPENDENCE GET 
-1.3584 INDEPENDENCE REPORTING 
-1.3584 INDEPENDENCE TO 
-1.2335 INDEPENDENCE'S AAW 
-1.2335 INDEPENDENCE'S ALERTS 
-1.2335 INDEPENDENCE'S BEAM 
-1.2335 INDEPENDENCE'S OVERALL 
-1.2335 INDEPENDENCE'S PERSONNEL 
-1.2335 INDEPENDENCE'S SUPPLIES 
-0.0114 INDIAN OCEAN 
-0.4716 INDONESIA AGAIN 
-1.0574 INDONESIA USING 
-1.0574 INDONESIA WITH 
-0.1060 INFORMATION FOR 
-0.5831 INSTALLED </s> 
-0.5831 INSTALLED ABOARD 
-0.5831 INSTALLED ON 
-0.1060 INSTEAD OF 
-0.1060 INSUFFICIENT TO 
-0.0498 INVOLVED </s> 
-1.5345 INVOLVING AJAX 
-1.5345 INVOLVING APALACHICOLA 
-1.5345 INVOLVING CITRUS 
-1.5345 INVOLVING CLEVELAND 
-1.5345 INVOLVING FRESNO 
-1.5345 INVOLVING JUPITER 
-1.5345 INVOLVING RATHBURNE 
-1.5345 INVOLVING SASSAFRAS 
-0.7080 INVOLVING THE 
-1.5345 INVOLVING VANCOUVER 
-0.3157 IRONWOOD </s> 
-1.4096 IRONWOOD AUGUST 
-0.8238 IRONWOOD BE 
-1.4096 IRONWOOD IS 
-1.2335 IRONWOOD'S </s> 
-1.2335 IRONWOOD'S AVERAGE 
-1.2335 IRONWOOD'S FLEET 
-1.2335 IRONWOOD'S MAXIMUM 
-1.2335 IRONWOOD'S MOST 
-1.2335 IRONWOOD'S PRESENT 
-2.0120 IS </s> 
-2.3692 IS ABOARD 
-2.6099 IS AJAX 
-3.1957 IS ANCHORAGE 
-2.3692 IS ANYBODY 
-3.1957 IS APALACHICOLA 
-2.6099 IS APALACHICOLA'S 
-3.1957 IS ARKANSAS 
-3.1957 IS ARKANSAS'S 
-2.6099 IS BADGER 
-2.6099 IS BADGER'S 
-3.1957 IS BAINBRIDGE 
-3.1957 IS BAINBRIDGE'S 
-3.1957 IS BANGKOK 
-3.1957 IS BIDDLE 
-2.6099 IS BIDDLE'S 
-3.1957 IS BOMBAY 
-2.3692 IS BROOKE 
-2.2153 IS BROOKE'S 
-2.6099 IS BRUNSWICK'S 
-2.6099 IS C1 
-2.6099 IS C2 
-2.6099 IS C3 
-3.1957 IS C4 
-2.6099 IS C5 
-3.1957 IS CAMDEN 
-2.6099 IS CAMDEN'S 
-2.6099 IS CAMPBELL 
-3.1957 IS CAMPBELL'S 
-2.6099 IS CHATTAHOOCHEE 
-3.1957 IS CHATTAHOOCHEE'S 
-2.6099 IS CITRUS 
-2.6099 IS CITRUS'S 
-3.1957 IS CLEVELAND 
-3.1957 IS CLEVELAND'S 
-2.6099 IS CLOSEST 
-3.1957 IS CONFIDENCE 
-2.6099 IS CONFIDENCE'S 
-2.3692 IS CONIFER'S 
-3.1957 IS CONQUEST'S 
-3.1957 IS CONSTANT'S 
-2.6099 IS COPELAND 
-2.6099 IS COPELAND'S 
-3.1957 IS DALE 
-3.1957 IS DAVIDSON 
-2.6099 IS DAVIDSON'S 
-2.3692 IS DENVER'S 
-2.2153 IS DIXON'S 
-3.1957 IS DOWNES 
-3.1957 IS DOWNES'S 
-3.1957 IS DUBUQUE'S 
-2.3692 IS EISENHOWER 
-2.3692 IS EISENHOWER'S 
-3.1957 IS ENGLAND 
-2.6099 IS ENGLAND'S 
-2.2153 IS ESTEEM'S 
-2.6099 IS EVERETT 
-3.1957 IS FANNING 
-3.1957 IS FANNING'S 
-3.1957 IS FARTHEST 
-2.2153 IS FIREBUSH'S 
-2.6099 IS FLASHER 
-3.1957 IS FLASHER'S 
-2.3692 IS FLINT'S 
-3.1957 IS FOX 
-3.1957 IS FOX'S 
-2.3692 IS FRESNO'S 
-3.1957 IS GLACIER'S 
-3.1957 IS GRIDLEY 
-3.1957 IS GRIDLEY'S 
-2.6099 IS GUARDFISH 
-3.1957 IS GUARDFISH'S 
-3.1957 IS GUITARRO 
-2.6099 IS GUITARRO'S 
-3.1957 IS GULF 
-3.1957 IS HAWKBILL'S 
-3.1957 IS HECTOR'S 
-3.1957 IS HEPBURN 
-2.6099 IS HOMER 
-2.3692 IS HOOKED 
-3.1957 IS HORNE 
-2.3692 IS IN 
-3.1957 IS INDEPENDENCE 
-2.6099 IS INDEPENDENCE'S 
-2.3692 IS INVOLVED 
-2.3692 IS IRONWOOD'S 
-1.8187 IS IT 
-2.6099 IS JARRETT 
-3.1957 IS JARRETT'S 
-2.2153 IS JARVIS'S 
-2.3692 IS JASON'S 
-3.1957 IS JUPITER 
-2.6099 IS JUPITER'S 
-2.6099 IS KENNEDY 
-3.1957 IS KENNEDY'S 
-2.6099 IS KIRK'S 
-3.1957 IS KISKA'S 
-3.1957 IS LAMPS 
-3.1957 IS LENINGRAD 
-3.1957 IS LOCKWOOD 
-3.1957 IS LOCKWOOD'S 
-3.1957 IS M4 
-2.6099 IS M5 
-2.3692 IS MANHATTAN'S 
-2.3692 IS MARS'S 
-3.1957 IS MCCLUSKY 
-3.1957 IS MCCLUSKY'S 
-2.6099 IS MERCURY'S 
-2.3692 IS METEOR'S 
-2.2153 IS MIDGETT'S 
-2.6099 IS MIDWAY 
-2.3692 IS MISHAWAKA'S 
-2.3692 IS MISSISSIPPI'S 
-1.8187 IS MORE 
-2.6099 IS NASHUA 
-3.1957 IS NASHUA'S 
-2.1018 IS NEAREST 
-3.1957 IS NEW-YORK 
-3.1957 IS OLYMPIA 
-3.1957 IS PEORIA'S 
-2.6099 IS PIGEON 
-3.1957 IS PIGEON'S 
-3.1957 IS PLUCK 
-3.1957 IS PLUCK'S 
-2.6099 IS PLUNGER 
-3.1957 IS POLLACK 
-3.1957 IS POLLACK'S 
-3.1957 IS POUGHKEEPSIE'S 
-2.3692 IS PRAIRIE 
-3.1957 IS PRAIRIE'S 
-2.6099 IS PRESENT 
-2.6099 IS PUFFER 
-2.3692 IS PUFFER'S 
-3.1957 IS QUEENFISH 
-2.1018 IS QUEENFISH'S 
-2.6099 IS RAMSEY 
-3.1957 IS RANGER 
-2.3692 IS RANGER'S 
-3.1957 IS RATHBURNE 
-3.1957 IS RATHBURNE'S 
-3.1957 IS REASONER'S 
-3.1957 IS RECLAIMER 
-3.1957 IS RECLAIMER'S 
-3.1957 IS REEVES 
-3.1957 IS REEVES'S 
-3.1957 IS SAMPLE 
-3.1957 IS SAMPLE'S 
-3.1957 IS SASSAFRAS'S 
-2.3692 IS SCHENECTADY 
-3.1957 IS SCHENECTADY'S 
-2.6099 IS SEAWOLF 
-2.3692 IS SEAWOLF'S 
-3.1957 IS SHASTA 
-3.1957 IS SHASTA'S 
-3.1957 IS SHERMAN 
-3.1957 IS SHERMAN'S 
-3.1957 IS SIDNEY 
-3.1957 IS SLQ-32 
-2.3692 IS STERETT 
-3.1957 IS STERETT'S 
-3.1957 IS SWORDFISH'S 
-3.1957 IS TASM 
-2.6099 IS TEXAS 
-0.4585 IS THE 
-1.3196 IS THERE 
-2.6099 IS TICONDEROGA 
-2.6099 IS TRIPOLI 
-2.6099 IS TRIPOLI'S 
-2.6099 IS TUSCALOOSA'S 
-3.1957 IS VANCOUVER 
-3.1957 IS VANCOUVER'S 
-3.1957 IS VANDERGRIFT 
-2.6099 IS VANDERGRIFT'S 
-2.6099 IS VIRGINIA'S 
-3.1957 IS WABASH 
-3.1957 IS WABASH'S 
-3.1957 IS WADSWORTH 
-3.1957 IS WADSWORTH'S 
-2.6099 IS WASP 
-3.1957 IS WELLINGTON 
-2.6099 IS WHIPPLE 
-3.1957 IS WHIPPLE'S 
-3.1957 IS WICHITA 
-3.1957 IS WICHITA'S 
-3.1957 IS WILLAMETTE 
-3.1957 IS WINAMAC 
-0.9487 ISLANDS </s> 
-0.9487 ISLANDS AGAIN 
-1.5345 ISLANDS DELETING 
-0.9487 ISLANDS USING 
-0.4406 ISLANDS WITH 
-0.9324 ISN'T FANNING 
-0.9324 ISN'T HAWKBILL 
-0.9324 ISN'T SWORDFISH 
-2.1957 IT </s> 
-1.0120 IT AROUND 
-1.3692 IT BE 
-1.3692 IT BETWEEN 
-1.3692 IT FROM 
-1.3692 IT GOING 
-1.3692 IT HAVE 
-1.3692 IT INCREASING 
-2.1957 IT LAST 
-1.6099 IT MAKING 
-0.3196 IT TAKE 
-0.4553 IT'S GOING 
-1.1543 ITS AVERAGE 
-0.5685 ITS DESTINATION 
-1.1543 ITS PRESENT 
-1.1543 ITS VARIOUS 
-0.1757 JANUARY </s> 
-1.9177 JANUARY FIFTEENTH 
-1.0912 JANUARY HAVE 
-1.9177 JANUARY ONE 
-1.9177 JANUARY SEVENTH 
-1.3319 JANUARY SIXTEEN 
-1.9177 JANUARY TWO 
-0.3233 JAPAN </s> 
-1.8703 JAPAN AREA 
-1.8703 JAPAN AS 
-1.8703 JAPAN BELOW 
-1.8703 JAPAN CARRIERS 
-1.8703 JAPAN CRUISERS 
-1.8703 JAPAN DEFINING 
-1.2845 JAPAN HAVE 
-1.8703 JAPAN IN 
-1.8703 JAPAN ON 
-1.8703 JAPAN TO 
-1.8703 JAPAN TWELVE 
-1.8703 JAPAN WITH 
-0.3157 JARRETT </s> 
-1.4096 JARRETT AT 
-1.4096 JARRETT EQUIPPED 
-1.4096 JARRETT EXPECTED 
-1.4096 JARRETT USING 
-1.3004 JARRETT'S CASUALTY 
-1.3004 JARRETT'S DESTINATION 
-1.3004 JARRETT'S EARLIEST 
-1.3004 JARRETT'S LATITUDE 
-1.3004 JARRETT'S OLDEST 
-1.3004 JARRETT'S PERCENT 
-1.3004 JARRETT'S POSITION 
-0.3157 JARVIS </s> 
-1.4096 JARVIS BE 
-1.4096 JARVIS CHOPPED 
-1.4096 JARVIS SINCE 
-1.4096 JARVIS TO 
-1.2335 JARVIS'S </s> 
-1.2335 JARVIS'S CASUALTY 
-1.2335 JARVIS'S FLEET 
-1.2335 JARVIS'S M-RATING 
-1.2335 JARVIS'S MAXIMUM 
-1.2335 JARVIS'S PRESENT 
-0.3157 JASON </s> 
-1.4096 JASON BEEN 
-1.4096 JASON DISPLAYED 
-1.4096 JASON THAT 
-1.4096 JASON TO 
-1.2335 JASON'S </s> 
-1.2335 JASON'S CASUALTY 
-1.2335 JASON'S M-RATING 
-1.2335 JASON'S MAX 
-1.2335 JASON'S MAXIMUM 
-1.2335 JASON'S TRAINING 
-0.1049 JULY </s> 
-1.9467 JULY FOURTH 
-1.1202 JULY ONE 
-1.3609 JULY TWENTY 
-0.0941 JUNE </s> 
-1.9177 JUNE FOURTEENTH 
-1.9177 JUNE NINE 
-1.9177 JUNE NINTH 
-1.9177 JUNE ONE 
-1.9177 JUNE TWENTY 
-0.3157 JUPITER </s> 
-1.4096 JUPITER BE 
-1.4096 JUPITER DATED 
-1.4096 JUPITER FROM 
-1.4096 JUPITER GET 
-0.6477 JUPITER'S </s> 
-1.2335 JUPITER'S M-RATING 
-1.2335 JUPITER'S MAX 
-1.2335 JUPITER'S PERSONNEL 
-1.2335 JUPITER'S PROBLEMS 
-0.8238 KENNEDY </s> 
-1.4096 KENNEDY ARRIVED 
-1.4096 KENNEDY AT 
-0.8238 KENNEDY HAVE 
-1.4096 KENNEDY LAST 
-1.4096 KENNEDY MORE 
-1.4096 KENNEDY THAT 
-1.2335 KENNEDY'S AAW 
-1.2335 KENNEDY'S ALERTS 
-1.2335 KENNEDY'S ARRIVAL 
-1.2335 KENNEDY'S EQUIPMENT 
-1.2335 KENNEDY'S PRESENT 
-1.2335 KENNEDY'S TRAINING 
-0.5685 KILOMETER FROM 
